~o
<STREAMINFO> 1 72
<VECSIZE> 72<NULLD><USER><DIAGC>
~h "circleright5"
<BEGINHMM>
<NUMSTATES> 8
<STATE> 2
<MEAN> 72
 9.678801e-01 9.207709e-01 8.725910e-01 8.297644e-01 7.847966e-01 7.355461e-01 7.312634e-01 7.044968e-01 9.582441e-01 8.940043e-01 8.554604e-01 8.179871e-01 7.815846e-01 7.623127e-01 7.366167e-01 7.184154e-01 9.411135e-01 8.907923e-01 8.479657e-01 8.201285e-01 7.901499e-01 7.965739e-01 7.762313e-01 6.905782e-01 9.443255e-01 8.790150e-01 8.436831e-01 8.383298e-01 8.351178e-01 8.158458e-01 7.933619e-01 6.766595e-01 9.368308e-01 8.875803e-01 8.768737e-01 8.790150e-01 8.608137e-01 8.522484e-01 7.901499e-01 6.948608e-01 9.368308e-01 8.961456e-01 8.972163e-01 8.929336e-01 8.736617e-01 8.693790e-01 7.890792e-01 6.970021e-01 9.518201e-01 9.282655e-01 9.143469e-01 9.057816e-01 8.822270e-01 8.672377e-01 7.837259e-01 7.205567e-01 9.678801e-01 9.336188e-01 9.175589e-01 9.164882e-01 8.854390e-01 8.736617e-01 8.019272e-01 7.494647e-01 9.753748e-01 9.389722e-01 9.336188e-01 9.239829e-01 9.014989e-01 8.875803e-01 8.190578e-01 7.783726e-01
<VARIANCE> 72
 3.108826e-02 7.295186e-02 1.111759e-01 1.412555e-01 1.688909e-01 1.945180e-01 1.965172e-01 2.081810e-01 4.001239e-02 9.476062e-02 1.236479e-01 1.488842e-01 1.707102e-01 1.811921e-01 1.940125e-01 2.022947e-01 5.541892e-02 9.728135e-02 1.289199e-01 1.475177e-01 1.658131e-01 1.620439e-01 1.736962e-01 2.136800e-01 5.257482e-02 1.063477e-01 1.318820e-01 1.355329e-01 1.376961e-01 1.502414e-01 1.639388e-01 2.187914e-01 5.917885e-02 9.978156e-02 1.079662e-01 1.063477e-01 1.198135e-01 1.259211e-01 1.658131e-01 2.120293e-01 5.917885e-02 9.306870e-02 9.221926e-02 9.560319e-02 1.103769e-01 1.135591e-01 1.664332e-01 2.111902e-01 4.585856e-02 6.658866e-02 7.831669e-02 8.534133e-02 1.039025e-01 1.151365e-01 1.694996e-01 2.013547e-01 3.108826e-02 6.197470e-02 7.564454e-02 7.653755e-02 1.014368e-01 1.103769e-01 1.588399e-01 1.877673e-01 2.401881e-02 5.730342e-02 6.197470e-02 7.023855e-02 8.879863e-02 9.978156e-02 1.482021e-01 1.725087e-01
<GCONST> -2.655436e+01
<STATE> 3
<MEAN> 72
 9.678801e-01 9.207709e-01 8.725910e-01 8.297644e-01 7.847966e-01 7.355461e-01 7.312634e-01 7.044968e-01 9.582441e-01 8.940043e-01 8.554604e-01 8.179871e-01 7.815846e-01 7.623127e-01 7.366167e-01 7.184154e-01 9.411135e-01 8.907923e-01 8.479657e-01 8.201285e-01 7.901499e-01 7.965739e-01 7.762313e-01 6.905782e-01 9.443255e-01 8.790150e-01 8.436831e-01 8.383298e-01 8.351178e-01 8.158458e-01 7.933619e-01 6.766595e-01 9.368308e-01 8.875803e-01 8.768737e-01 8.790150e-01 8.608137e-01 8.522484e-01 7.901499e-01 6.948608e-01 9.368308e-01 8.961456e-01 8.972163e-01 8.929336e-01 8.736617e-01 8.693790e-01 7.890792e-01 6.970021e-01 9.518201e-01 9.282655e-01 9.143469e-01 9.057816e-01 8.822270e-01 8.672377e-01 7.837259e-01 7.205567e-01 9.678801e-01 9.336188e-01 9.175589e-01 9.164882e-01 8.854390e-01 8.736617e-01 8.019272e-01 7.494647e-01 9.753748e-01 9.389722e-01 9.336188e-01 9.239829e-01 9.014989e-01 8.875803e-01 8.190578e-01 7.783726e-01
<VARIANCE> 72
 3.108826e-02 7.295186e-02 1.111759e-01 1.412555e-01 1.688909e-01 1.945180e-01 1.965172e-01 2.081810e-01 4.001239e-02 9.476062e-02 1.236479e-01 1.488842e-01 1.707102e-01 1.811921e-01 1.940125e-01 2.022947e-01 5.541892e-02 9.728135e-02 1.289199e-01 1.475177e-01 1.658131e-01 1.620439e-01 1.736962e-01 2.136800e-01 5.257482e-02 1.063477e-01 1.318820e-01 1.355329e-01 1.376961e-01 1.502414e-01 1.639388e-01 2.187914e-01 5.917885e-02 9.978156e-02 1.079662e-01 1.063477e-01 1.198135e-01 1.259211e-01 1.658131e-01 2.120293e-01 5.917885e-02 9.306870e-02 9.221926e-02 9.560319e-02 1.103769e-01 1.135591e-01 1.664332e-01 2.111902e-01 4.585856e-02 6.658866e-02 7.831669e-02 8.534133e-02 1.039025e-01 1.151365e-01 1.694996e-01 2.013547e-01 3.108826e-02 6.197470e-02 7.564454e-02 7.653755e-02 1.014368e-01 1.103769e-01 1.588399e-01 1.877673e-01 2.401881e-02 5.730342e-02 6.197470e-02 7.023855e-02 8.879863e-02 9.978156e-02 1.482021e-01 1.725087e-01
<GCONST> -2.655436e+01
<STATE> 4
<MEAN> 72
 9.678801e-01 9.207709e-01 8.725910e-01 8.297644e-01 7.847966e-01 7.355461e-01 7.312634e-01 7.044968e-01 9.582441e-01 8.940043e-01 8.554604e-01 8.179871e-01 7.815846e-01 7.623127e-01 7.366167e-01 7.184154e-01 9.411135e-01 8.907923e-01 8.479657e-01 8.201285e-01 7.901499e-01 7.965739e-01 7.762313e-01 6.905782e-01 9.443255e-01 8.790150e-01 8.436831e-01 8.383298e-01 8.351178e-01 8.158458e-01 7.933619e-01 6.766595e-01 9.368308e-01 8.875803e-01 8.768737e-01 8.790150e-01 8.608137e-01 8.522484e-01 7.901499e-01 6.948608e-01 9.368308e-01 8.961456e-01 8.972163e-01 8.929336e-01 8.736617e-01 8.693790e-01 7.890792e-01 6.970021e-01 9.518201e-01 9.282655e-01 9.143469e-01 9.057816e-01 8.822270e-01 8.672377e-01 7.837259e-01 7.205567e-01 9.678801e-01 9.336188e-01 9.175589e-01 9.164882e-01 8.854390e-01 8.736617e-01 8.019272e-01 7.494647e-01 9.753748e-01 9.389722e-01 9.336188e-01 9.239829e-01 9.014989e-01 8.875803e-01 8.190578e-01 7.783726e-01
<VARIANCE> 72
 3.108826e-02 7.295186e-02 1.111759e-01 1.412555e-01 1.688909e-01 1.945180e-01 1.965172e-01 2.081810e-01 4.001239e-02 9.476062e-02 1.236479e-01 1.488842e-01 1.707102e-01 1.811921e-01 1.940125e-01 2.022947e-01 5.541892e-02 9.728135e-02 1.289199e-01 1.475177e-01 1.658131e-01 1.620439e-01 1.736962e-01 2.136800e-01 5.257482e-02 1.063477e-01 1.318820e-01 1.355329e-01 1.376961e-01 1.502414e-01 1.639388e-01 2.187914e-01 5.917885e-02 9.978156e-02 1.079662e-01 1.063477e-01 1.198135e-01 1.259211e-01 1.658131e-01 2.120293e-01 5.917885e-02 9.306870e-02 9.221926e-02 9.560319e-02 1.103769e-01 1.135591e-01 1.664332e-01 2.111902e-01 4.585856e-02 6.658866e-02 7.831669e-02 8.534133e-02 1.039025e-01 1.151365e-01 1.694996e-01 2.013547e-01 3.108826e-02 6.197470e-02 7.564454e-02 7.653755e-02 1.014368e-01 1.103769e-01 1.588399e-01 1.877673e-01 2.401881e-02 5.730342e-02 6.197470e-02 7.023855e-02 8.879863e-02 9.978156e-02 1.482021e-01 1.725087e-01
<GCONST> -2.655436e+01
<STATE> 5
<MEAN> 72
 9.678801e-01 9.207709e-01 8.725910e-01 8.297644e-01 7.847966e-01 7.355461e-01 7.312634e-01 7.044968e-01 9.582441e-01 8.940043e-01 8.554604e-01 8.179871e-01 7.815846e-01 7.623127e-01 7.366167e-01 7.184154e-01 9.411135e-01 8.907923e-01 8.479657e-01 8.201285e-01 7.901499e-01 7.965739e-01 7.762313e-01 6.905782e-01 9.443255e-01 8.790150e-01 8.436831e-01 8.383298e-01 8.351178e-01 8.158458e-01 7.933619e-01 6.766595e-01 9.368308e-01 8.875803e-01 8.768737e-01 8.790150e-01 8.608137e-01 8.522484e-01 7.901499e-01 6.948608e-01 9.368308e-01 8.961456e-01 8.972163e-01 8.929336e-01 8.736617e-01 8.693790e-01 7.890792e-01 6.970021e-01 9.518201e-01 9.282655e-01 9.143469e-01 9.057816e-01 8.822270e-01 8.672377e-01 7.837259e-01 7.205567e-01 9.678801e-01 9.336188e-01 9.175589e-01 9.164882e-01 8.854390e-01 8.736617e-01 8.019272e-01 7.494647e-01 9.753748e-01 9.389722e-01 9.336188e-01 9.239829e-01 9.014989e-01 8.875803e-01 8.190578e-01 7.783726e-01
<VARIANCE> 72
 3.108826e-02 7.295186e-02 1.111759e-01 1.412555e-01 1.688909e-01 1.945180e-01 1.965172e-01 2.081810e-01 4.001239e-02 9.476062e-02 1.236479e-01 1.488842e-01 1.707102e-01 1.811921e-01 1.940125e-01 2.022947e-01 5.541892e-02 9.728135e-02 1.289199e-01 1.475177e-01 1.658131e-01 1.620439e-01 1.736962e-01 2.136800e-01 5.257482e-02 1.063477e-01 1.318820e-01 1.355329e-01 1.376961e-01 1.502414e-01 1.639388e-01 2.187914e-01 5.917885e-02 9.978156e-02 1.079662e-01 1.063477e-01 1.198135e-01 1.259211e-01 1.658131e-01 2.120293e-01 5.917885e-02 9.306870e-02 9.221926e-02 9.560319e-02 1.103769e-01 1.135591e-01 1.664332e-01 2.111902e-01 4.585856e-02 6.658866e-02 7.831669e-02 8.534133e-02 1.039025e-01 1.151365e-01 1.694996e-01 2.013547e-01 3.108826e-02 6.197470e-02 7.564454e-02 7.653755e-02 1.014368e-01 1.103769e-01 1.588399e-01 1.877673e-01 2.401881e-02 5.730342e-02 6.197470e-02 7.023855e-02 8.879863e-02 9.978156e-02 1.482021e-01 1.725087e-01
<GCONST> -2.655436e+01
<STATE> 6
<MEAN> 72
 9.678801e-01 9.207709e-01 8.725910e-01 8.297644e-01 7.847966e-01 7.355461e-01 7.312634e-01 7.044968e-01 9.582441e-01 8.940043e-01 8.554604e-01 8.179871e-01 7.815846e-01 7.623127e-01 7.366167e-01 7.184154e-01 9.411135e-01 8.907923e-01 8.479657e-01 8.201285e-01 7.901499e-01 7.965739e-01 7.762313e-01 6.905782e-01 9.443255e-01 8.790150e-01 8.436831e-01 8.383298e-01 8.351178e-01 8.158458e-01 7.933619e-01 6.766595e-01 9.368308e-01 8.875803e-01 8.768737e-01 8.790150e-01 8.608137e-01 8.522484e-01 7.901499e-01 6.948608e-01 9.368308e-01 8.961456e-01 8.972163e-01 8.929336e-01 8.736617e-01 8.693790e-01 7.890792e-01 6.970021e-01 9.518201e-01 9.282655e-01 9.143469e-01 9.057816e-01 8.822270e-01 8.672377e-01 7.837259e-01 7.205567e-01 9.678801e-01 9.336188e-01 9.175589e-01 9.164882e-01 8.854390e-01 8.736617e-01 8.019272e-01 7.494647e-01 9.753748e-01 9.389722e-01 9.336188e-01 9.239829e-01 9.014989e-01 8.875803e-01 8.190578e-01 7.783726e-01
<VARIANCE> 72
 3.108826e-02 7.295186e-02 1.111759e-01 1.412555e-01 1.688909e-01 1.945180e-01 1.965172e-01 2.081810e-01 4.001239e-02 9.476062e-02 1.236479e-01 1.488842e-01 1.707102e-01 1.811921e-01 1.940125e-01 2.022947e-01 5.541892e-02 9.728135e-02 1.289199e-01 1.475177e-01 1.658131e-01 1.620439e-01 1.736962e-01 2.136800e-01 5.257482e-02 1.063477e-01 1.318820e-01 1.355329e-01 1.376961e-01 1.502414e-01 1.639388e-01 2.187914e-01 5.917885e-02 9.978156e-02 1.079662e-01 1.063477e-01 1.198135e-01 1.259211e-01 1.658131e-01 2.120293e-01 5.917885e-02 9.306870e-02 9.221926e-02 9.560319e-02 1.103769e-01 1.135591e-01 1.664332e-01 2.111902e-01 4.585856e-02 6.658866e-02 7.831669e-02 8.534133e-02 1.039025e-01 1.151365e-01 1.694996e-01 2.013547e-01 3.108826e-02 6.197470e-02 7.564454e-02 7.653755e-02 1.014368e-01 1.103769e-01 1.588399e-01 1.877673e-01 2.401881e-02 5.730342e-02 6.197470e-02 7.023855e-02 8.879863e-02 9.978156e-02 1.482021e-01 1.725087e-01
<GCONST> -2.655436e+01
<STATE> 7
<MEAN> 72
 9.678801e-01 9.207709e-01 8.725910e-01 8.297644e-01 7.847966e-01 7.355461e-01 7.312634e-01 7.044968e-01 9.582441e-01 8.940043e-01 8.554604e-01 8.179871e-01 7.815846e-01 7.623127e-01 7.366167e-01 7.184154e-01 9.411135e-01 8.907923e-01 8.479657e-01 8.201285e-01 7.901499e-01 7.965739e-01 7.762313e-01 6.905782e-01 9.443255e-01 8.790150e-01 8.436831e-01 8.383298e-01 8.351178e-01 8.158458e-01 7.933619e-01 6.766595e-01 9.368308e-01 8.875803e-01 8.768737e-01 8.790150e-01 8.608137e-01 8.522484e-01 7.901499e-01 6.948608e-01 9.368308e-01 8.961456e-01 8.972163e-01 8.929336e-01 8.736617e-01 8.693790e-01 7.890792e-01 6.970021e-01 9.518201e-01 9.282655e-01 9.143469e-01 9.057816e-01 8.822270e-01 8.672377e-01 7.837259e-01 7.205567e-01 9.678801e-01 9.336188e-01 9.175589e-01 9.164882e-01 8.854390e-01 8.736617e-01 8.019272e-01 7.494647e-01 9.753748e-01 9.389722e-01 9.336188e-01 9.239829e-01 9.014989e-01 8.875803e-01 8.190578e-01 7.783726e-01
<VARIANCE> 72
 3.108826e-02 7.295186e-02 1.111759e-01 1.412555e-01 1.688909e-01 1.945180e-01 1.965172e-01 2.081810e-01 4.001239e-02 9.476062e-02 1.236479e-01 1.488842e-01 1.707102e-01 1.811921e-01 1.940125e-01 2.022947e-01 5.541892e-02 9.728135e-02 1.289199e-01 1.475177e-01 1.658131e-01 1.620439e-01 1.736962e-01 2.136800e-01 5.257482e-02 1.063477e-01 1.318820e-01 1.355329e-01 1.376961e-01 1.502414e-01 1.639388e-01 2.187914e-01 5.917885e-02 9.978156e-02 1.079662e-01 1.063477e-01 1.198135e-01 1.259211e-01 1.658131e-01 2.120293e-01 5.917885e-02 9.306870e-02 9.221926e-02 9.560319e-02 1.103769e-01 1.135591e-01 1.664332e-01 2.111902e-01 4.585856e-02 6.658866e-02 7.831669e-02 8.534133e-02 1.039025e-01 1.151365e-01 1.694996e-01 2.013547e-01 3.108826e-02 6.197470e-02 7.564454e-02 7.653755e-02 1.014368e-01 1.103769e-01 1.588399e-01 1.877673e-01 2.401881e-02 5.730342e-02 6.197470e-02 7.023855e-02 8.879863e-02 9.978156e-02 1.482021e-01 1.725087e-01
<GCONST> -2.655436e+01
<TRANSP> 8
 0.000000e+00 1.000000e+00 0.000000e+00 0.000000e+00 0.000000e+00 0.000000e+00 0.000000e+00 0.000000e+00
 0.000000e+00 5.000000e-01 5.000000e-01 0.000000e+00 0.000000e+00 0.000000e+00 0.000000e+00 0.000000e+00
 0.000000e+00 0.000000e+00 5.000000e-01 5.000000e-01 0.000000e+00 0.000000e+00 0.000000e+00 0.000000e+00
 0.000000e+00 0.000000e+00 0.000000e+00 5.000000e-01 5.000000e-01 0.000000e+00 0.000000e+00 0.000000e+00
 0.000000e+00 0.000000e+00 0.000000e+00 0.000000e+00 5.000000e-01 5.000000e-01 0.000000e+00 0.000000e+00
 0.000000e+00 0.000000e+00 0.000000e+00 0.000000e+00 0.000000e+00 5.000000e-01 5.000000e-01 0.000000e+00
 0.000000e+00 0.000000e+00 0.000000e+00 0.000000e+00 0.000000e+00 0.000000e+00 5.000000e-01 5.000000e-01
 0.000000e+00 0.000000e+00 0.000000e+00 0.000000e+00 0.000000e+00 0.000000e+00 0.000000e+00 0.000000e+00
<ENDHMM>
