~o
<STREAMINFO> 1 72
<VECSIZE> 72<NULLD><USER><DIAGC>
~h "up1"
<BEGINHMM>
<NUMSTATES> 8
<STATE> 2
<MEAN> 72
 9.552239e-01 9.462687e-01 9.492537e-01 8.716418e-01 8.000000e-01 7.522388e-01 7.402985e-01 7.522388e-01 9.462687e-01 9.582090e-01 9.373134e-01 8.716418e-01 8.029851e-01 7.522388e-01 7.432836e-01 7.462686e-01 9.611940e-01 9.611940e-01 9.343284e-01 8.746269e-01 8.029851e-01 7.522388e-01 7.402985e-01 7.402985e-01 9.582090e-01 9.522388e-01 9.253731e-01 8.776119e-01 8.059701e-01 7.701492e-01 7.492537e-01 7.462686e-01 9.582090e-01 9.522388e-01 9.313433e-01 8.716418e-01 8.149254e-01 7.850747e-01 7.552239e-01 7.522388e-01 9.611940e-01 9.552239e-01 9.373134e-01 8.835821e-01 8.179104e-01 7.940298e-01 7.611941e-01 7.552239e-01 9.701493e-01 9.611940e-01 9.373134e-01 8.955224e-01 8.268657e-01 7.970150e-01 7.791045e-01 7.701492e-01 9.641791e-01 9.522388e-01 9.373134e-01 9.044776e-01 8.447761e-01 8.029851e-01 7.731344e-01 7.671642e-01 9.671642e-01 9.671642e-01 9.462687e-01 8.955224e-01 8.388060e-01 8.179104e-01 7.761194e-01 7.701492e-01
<VARIANCE> 72
 4.277126e-02 5.084424e-02 4.817107e-02 1.118823e-01 1.600000e-01 1.863756e-01 1.922566e-01 1.863756e-01 5.084424e-02 4.004451e-02 5.875695e-02 1.118823e-01 1.582001e-01 1.863756e-01 1.908131e-01 1.893518e-01 3.730005e-02 3.730005e-02 6.135884e-02 1.096547e-01 1.582001e-01 1.863756e-01 1.922566e-01 1.922566e-01 4.004451e-02 4.548008e-02 6.905769e-02 1.074092e-01 1.563823e-01 1.770194e-01 1.878725e-01 1.893518e-01 4.004451e-02 4.548008e-02 6.394302e-02 1.118823e-01 1.508220e-01 1.687324e-01 1.848608e-01 1.863756e-01 3.730005e-02 4.277126e-02 5.875695e-02 1.028647e-01 1.489330e-01 1.635465e-01 1.817776e-01 1.848608e-01 2.895963e-02 3.730005e-02 5.875695e-02 9.356199e-02 1.431588e-01 1.617821e-01 1.721007e-01 1.770194e-01 3.453777e-02 4.548008e-02 5.875695e-02 8.639789e-02 1.311295e-01 1.582001e-01 1.753976e-01 1.786233e-01 3.175767e-02 3.175767e-02 5.084424e-02 9.356199e-02 1.352105e-01 1.489330e-01 1.737581e-01 1.770194e-01
<GCONST> -3.541796e+01
<STATE> 3
<MEAN> 72
 9.552239e-01 9.462687e-01 9.492537e-01 8.716418e-01 8.000000e-01 7.522388e-01 7.402985e-01 7.522388e-01 9.462687e-01 9.582090e-01 9.373134e-01 8.716418e-01 8.029851e-01 7.522388e-01 7.432836e-01 7.462686e-01 9.611940e-01 9.611940e-01 9.343284e-01 8.746269e-01 8.029851e-01 7.522388e-01 7.402985e-01 7.402985e-01 9.582090e-01 9.522388e-01 9.253731e-01 8.776119e-01 8.059701e-01 7.701492e-01 7.492537e-01 7.462686e-01 9.582090e-01 9.522388e-01 9.313433e-01 8.716418e-01 8.149254e-01 7.850747e-01 7.552239e-01 7.522388e-01 9.611940e-01 9.552239e-01 9.373134e-01 8.835821e-01 8.179104e-01 7.940298e-01 7.611941e-01 7.552239e-01 9.701493e-01 9.611940e-01 9.373134e-01 8.955224e-01 8.268657e-01 7.970150e-01 7.791045e-01 7.701492e-01 9.641791e-01 9.522388e-01 9.373134e-01 9.044776e-01 8.447761e-01 8.029851e-01 7.731344e-01 7.671642e-01 9.671642e-01 9.671642e-01 9.462687e-01 8.955224e-01 8.388060e-01 8.179104e-01 7.761194e-01 7.701492e-01
<VARIANCE> 72
 4.277126e-02 5.084424e-02 4.817107e-02 1.118823e-01 1.600000e-01 1.863756e-01 1.922566e-01 1.863756e-01 5.084424e-02 4.004451e-02 5.875695e-02 1.118823e-01 1.582001e-01 1.863756e-01 1.908131e-01 1.893518e-01 3.730005e-02 3.730005e-02 6.135884e-02 1.096547e-01 1.582001e-01 1.863756e-01 1.922566e-01 1.922566e-01 4.004451e-02 4.548008e-02 6.905769e-02 1.074092e-01 1.563823e-01 1.770194e-01 1.878725e-01 1.893518e-01 4.004451e-02 4.548008e-02 6.394302e-02 1.118823e-01 1.508220e-01 1.687324e-01 1.848608e-01 1.863756e-01 3.730005e-02 4.277126e-02 5.875695e-02 1.028647e-01 1.489330e-01 1.635465e-01 1.817776e-01 1.848608e-01 2.895963e-02 3.730005e-02 5.875695e-02 9.356199e-02 1.431588e-01 1.617821e-01 1.721007e-01 1.770194e-01 3.453777e-02 4.548008e-02 5.875695e-02 8.639789e-02 1.311295e-01 1.582001e-01 1.753976e-01 1.786233e-01 3.175767e-02 3.175767e-02 5.084424e-02 9.356199e-02 1.352105e-01 1.489330e-01 1.737581e-01 1.770194e-01
<GCONST> -3.541796e+01
<STATE> 4
<MEAN> 72
 9.552239e-01 9.462687e-01 9.492537e-01 8.716418e-01 8.000000e-01 7.522388e-01 7.402985e-01 7.522388e-01 9.462687e-01 9.582090e-01 9.373134e-01 8.716418e-01 8.029851e-01 7.522388e-01 7.432836e-01 7.462686e-01 9.611940e-01 9.611940e-01 9.343284e-01 8.746269e-01 8.029851e-01 7.522388e-01 7.402985e-01 7.402985e-01 9.582090e-01 9.522388e-01 9.253731e-01 8.776119e-01 8.059701e-01 7.701492e-01 7.492537e-01 7.462686e-01 9.582090e-01 9.522388e-01 9.313433e-01 8.716418e-01 8.149254e-01 7.850747e-01 7.552239e-01 7.522388e-01 9.611940e-01 9.552239e-01 9.373134e-01 8.835821e-01 8.179104e-01 7.940298e-01 7.611941e-01 7.552239e-01 9.701493e-01 9.611940e-01 9.373134e-01 8.955224e-01 8.268657e-01 7.970150e-01 7.791045e-01 7.701492e-01 9.641791e-01 9.522388e-01 9.373134e-01 9.044776e-01 8.447761e-01 8.029851e-01 7.731344e-01 7.671642e-01 9.671642e-01 9.671642e-01 9.462687e-01 8.955224e-01 8.388060e-01 8.179104e-01 7.761194e-01 7.701492e-01
<VARIANCE> 72
 4.277126e-02 5.084424e-02 4.817107e-02 1.118823e-01 1.600000e-01 1.863756e-01 1.922566e-01 1.863756e-01 5.084424e-02 4.004451e-02 5.875695e-02 1.118823e-01 1.582001e-01 1.863756e-01 1.908131e-01 1.893518e-01 3.730005e-02 3.730005e-02 6.135884e-02 1.096547e-01 1.582001e-01 1.863756e-01 1.922566e-01 1.922566e-01 4.004451e-02 4.548008e-02 6.905769e-02 1.074092e-01 1.563823e-01 1.770194e-01 1.878725e-01 1.893518e-01 4.004451e-02 4.548008e-02 6.394302e-02 1.118823e-01 1.508220e-01 1.687324e-01 1.848608e-01 1.863756e-01 3.730005e-02 4.277126e-02 5.875695e-02 1.028647e-01 1.489330e-01 1.635465e-01 1.817776e-01 1.848608e-01 2.895963e-02 3.730005e-02 5.875695e-02 9.356199e-02 1.431588e-01 1.617821e-01 1.721007e-01 1.770194e-01 3.453777e-02 4.548008e-02 5.875695e-02 8.639789e-02 1.311295e-01 1.582001e-01 1.753976e-01 1.786233e-01 3.175767e-02 3.175767e-02 5.084424e-02 9.356199e-02 1.352105e-01 1.489330e-01 1.737581e-01 1.770194e-01
<GCONST> -3.541796e+01
<STATE> 5
<MEAN> 72
 9.552239e-01 9.462687e-01 9.492537e-01 8.716418e-01 8.000000e-01 7.522388e-01 7.402985e-01 7.522388e-01 9.462687e-01 9.582090e-01 9.373134e-01 8.716418e-01 8.029851e-01 7.522388e-01 7.432836e-01 7.462686e-01 9.611940e-01 9.611940e-01 9.343284e-01 8.746269e-01 8.029851e-01 7.522388e-01 7.402985e-01 7.402985e-01 9.582090e-01 9.522388e-01 9.253731e-01 8.776119e-01 8.059701e-01 7.701492e-01 7.492537e-01 7.462686e-01 9.582090e-01 9.522388e-01 9.313433e-01 8.716418e-01 8.149254e-01 7.850747e-01 7.552239e-01 7.522388e-01 9.611940e-01 9.552239e-01 9.373134e-01 8.835821e-01 8.179104e-01 7.940298e-01 7.611941e-01 7.552239e-01 9.701493e-01 9.611940e-01 9.373134e-01 8.955224e-01 8.268657e-01 7.970150e-01 7.791045e-01 7.701492e-01 9.641791e-01 9.522388e-01 9.373134e-01 9.044776e-01 8.447761e-01 8.029851e-01 7.731344e-01 7.671642e-01 9.671642e-01 9.671642e-01 9.462687e-01 8.955224e-01 8.388060e-01 8.179104e-01 7.761194e-01 7.701492e-01
<VARIANCE> 72
 4.277126e-02 5.084424e-02 4.817107e-02 1.118823e-01 1.600000e-01 1.863756e-01 1.922566e-01 1.863756e-01 5.084424e-02 4.004451e-02 5.875695e-02 1.118823e-01 1.582001e-01 1.863756e-01 1.908131e-01 1.893518e-01 3.730005e-02 3.730005e-02 6.135884e-02 1.096547e-01 1.582001e-01 1.863756e-01 1.922566e-01 1.922566e-01 4.004451e-02 4.548008e-02 6.905769e-02 1.074092e-01 1.563823e-01 1.770194e-01 1.878725e-01 1.893518e-01 4.004451e-02 4.548008e-02 6.394302e-02 1.118823e-01 1.508220e-01 1.687324e-01 1.848608e-01 1.863756e-01 3.730005e-02 4.277126e-02 5.875695e-02 1.028647e-01 1.489330e-01 1.635465e-01 1.817776e-01 1.848608e-01 2.895963e-02 3.730005e-02 5.875695e-02 9.356199e-02 1.431588e-01 1.617821e-01 1.721007e-01 1.770194e-01 3.453777e-02 4.548008e-02 5.875695e-02 8.639789e-02 1.311295e-01 1.582001e-01 1.753976e-01 1.786233e-01 3.175767e-02 3.175767e-02 5.084424e-02 9.356199e-02 1.352105e-01 1.489330e-01 1.737581e-01 1.770194e-01
<GCONST> -3.541796e+01
<STATE> 6
<MEAN> 72
 9.552239e-01 9.462687e-01 9.492537e-01 8.716418e-01 8.000000e-01 7.522388e-01 7.402985e-01 7.522388e-01 9.462687e-01 9.582090e-01 9.373134e-01 8.716418e-01 8.029851e-01 7.522388e-01 7.432836e-01 7.462686e-01 9.611940e-01 9.611940e-01 9.343284e-01 8.746269e-01 8.029851e-01 7.522388e-01 7.402985e-01 7.402985e-01 9.582090e-01 9.522388e-01 9.253731e-01 8.776119e-01 8.059701e-01 7.701492e-01 7.492537e-01 7.462686e-01 9.582090e-01 9.522388e-01 9.313433e-01 8.716418e-01 8.149254e-01 7.850747e-01 7.552239e-01 7.522388e-01 9.611940e-01 9.552239e-01 9.373134e-01 8.835821e-01 8.179104e-01 7.940298e-01 7.611941e-01 7.552239e-01 9.701493e-01 9.611940e-01 9.373134e-01 8.955224e-01 8.268657e-01 7.970150e-01 7.791045e-01 7.701492e-01 9.641791e-01 9.522388e-01 9.373134e-01 9.044776e-01 8.447761e-01 8.029851e-01 7.731344e-01 7.671642e-01 9.671642e-01 9.671642e-01 9.462687e-01 8.955224e-01 8.388060e-01 8.179104e-01 7.761194e-01 7.701492e-01
<VARIANCE> 72
 4.277126e-02 5.084424e-02 4.817107e-02 1.118823e-01 1.600000e-01 1.863756e-01 1.922566e-01 1.863756e-01 5.084424e-02 4.004451e-02 5.875695e-02 1.118823e-01 1.582001e-01 1.863756e-01 1.908131e-01 1.893518e-01 3.730005e-02 3.730005e-02 6.135884e-02 1.096547e-01 1.582001e-01 1.863756e-01 1.922566e-01 1.922566e-01 4.004451e-02 4.548008e-02 6.905769e-02 1.074092e-01 1.563823e-01 1.770194e-01 1.878725e-01 1.893518e-01 4.004451e-02 4.548008e-02 6.394302e-02 1.118823e-01 1.508220e-01 1.687324e-01 1.848608e-01 1.863756e-01 3.730005e-02 4.277126e-02 5.875695e-02 1.028647e-01 1.489330e-01 1.635465e-01 1.817776e-01 1.848608e-01 2.895963e-02 3.730005e-02 5.875695e-02 9.356199e-02 1.431588e-01 1.617821e-01 1.721007e-01 1.770194e-01 3.453777e-02 4.548008e-02 5.875695e-02 8.639789e-02 1.311295e-01 1.582001e-01 1.753976e-01 1.786233e-01 3.175767e-02 3.175767e-02 5.084424e-02 9.356199e-02 1.352105e-01 1.489330e-01 1.737581e-01 1.770194e-01
<GCONST> -3.541796e+01
<STATE> 7
<MEAN> 72
 9.552239e-01 9.462687e-01 9.492537e-01 8.716418e-01 8.000000e-01 7.522388e-01 7.402985e-01 7.522388e-01 9.462687e-01 9.582090e-01 9.373134e-01 8.716418e-01 8.029851e-01 7.522388e-01 7.432836e-01 7.462686e-01 9.611940e-01 9.611940e-01 9.343284e-01 8.746269e-01 8.029851e-01 7.522388e-01 7.402985e-01 7.402985e-01 9.582090e-01 9.522388e-01 9.253731e-01 8.776119e-01 8.059701e-01 7.701492e-01 7.492537e-01 7.462686e-01 9.582090e-01 9.522388e-01 9.313433e-01 8.716418e-01 8.149254e-01 7.850747e-01 7.552239e-01 7.522388e-01 9.611940e-01 9.552239e-01 9.373134e-01 8.835821e-01 8.179104e-01 7.940298e-01 7.611941e-01 7.552239e-01 9.701493e-01 9.611940e-01 9.373134e-01 8.955224e-01 8.268657e-01 7.970150e-01 7.791045e-01 7.701492e-01 9.641791e-01 9.522388e-01 9.373134e-01 9.044776e-01 8.447761e-01 8.029851e-01 7.731344e-01 7.671642e-01 9.671642e-01 9.671642e-01 9.462687e-01 8.955224e-01 8.388060e-01 8.179104e-01 7.761194e-01 7.701492e-01
<VARIANCE> 72
 4.277126e-02 5.084424e-02 4.817107e-02 1.118823e-01 1.600000e-01 1.863756e-01 1.922566e-01 1.863756e-01 5.084424e-02 4.004451e-02 5.875695e-02 1.118823e-01 1.582001e-01 1.863756e-01 1.908131e-01 1.893518e-01 3.730005e-02 3.730005e-02 6.135884e-02 1.096547e-01 1.582001e-01 1.863756e-01 1.922566e-01 1.922566e-01 4.004451e-02 4.548008e-02 6.905769e-02 1.074092e-01 1.563823e-01 1.770194e-01 1.878725e-01 1.893518e-01 4.004451e-02 4.548008e-02 6.394302e-02 1.118823e-01 1.508220e-01 1.687324e-01 1.848608e-01 1.863756e-01 3.730005e-02 4.277126e-02 5.875695e-02 1.028647e-01 1.489330e-01 1.635465e-01 1.817776e-01 1.848608e-01 2.895963e-02 3.730005e-02 5.875695e-02 9.356199e-02 1.431588e-01 1.617821e-01 1.721007e-01 1.770194e-01 3.453777e-02 4.548008e-02 5.875695e-02 8.639789e-02 1.311295e-01 1.582001e-01 1.753976e-01 1.786233e-01 3.175767e-02 3.175767e-02 5.084424e-02 9.356199e-02 1.352105e-01 1.489330e-01 1.737581e-01 1.770194e-01
<GCONST> -3.541796e+01
<TRANSP> 8
 0.000000e+00 1.000000e+00 0.000000e+00 0.000000e+00 0.000000e+00 0.000000e+00 0.000000e+00 0.000000e+00
 0.000000e+00 5.000000e-01 5.000000e-01 0.000000e+00 0.000000e+00 0.000000e+00 0.000000e+00 0.000000e+00
 0.000000e+00 0.000000e+00 5.000000e-01 5.000000e-01 0.000000e+00 0.000000e+00 0.000000e+00 0.000000e+00
 0.000000e+00 0.000000e+00 0.000000e+00 5.000000e-01 5.000000e-01 0.000000e+00 0.000000e+00 0.000000e+00
 0.000000e+00 0.000000e+00 0.000000e+00 0.000000e+00 5.000000e-01 5.000000e-01 0.000000e+00 0.000000e+00
 0.000000e+00 0.000000e+00 0.000000e+00 0.000000e+00 0.000000e+00 5.000000e-01 5.000000e-01 0.000000e+00
 0.000000e+00 0.000000e+00 0.000000e+00 0.000000e+00 0.000000e+00 0.000000e+00 5.000000e-01 5.000000e-01
 0.000000e+00 0.000000e+00 0.000000e+00 0.000000e+00 0.000000e+00 0.000000e+00 0.000000e+00 0.000000e+00
<ENDHMM>
