~o
<STREAMINFO> 1 72
<VECSIZE> 72<NULLD><USER><DIAGC>
~h "upleft1"
<BEGINHMM>
<NUMSTATES> 8
<STATE> 2
<MEAN> 72
 1.000000e+00 1.000000e+00 1.000000e+00 1.000000e+00 9.975247e-01 9.628713e-01 9.480198e-01 9.752475e-01 1.000000e+00 1.000000e+00 1.000000e+00 1.000000e+00 9.777228e-01 9.603961e-01 9.430693e-01 9.356436e-01 1.000000e+00 1.000000e+00 9.925743e-01 9.777228e-01 9.628713e-01 9.529703e-01 9.381188e-01 8.366337e-01 1.000000e+00 9.950495e-01 9.876238e-01 9.653465e-01 9.653465e-01 9.381188e-01 8.762376e-01 7.772277e-01 9.950495e-01 9.851485e-01 9.628713e-01 9.678218e-01 9.504951e-01 8.935643e-01 8.094059e-01 7.772277e-01 9.876238e-01 9.801980e-01 9.653465e-01 9.455445e-01 8.910891e-01 8.341584e-01 8.069307e-01 7.871287e-01 9.752475e-01 9.678218e-01 9.529703e-01 9.133663e-01 8.490099e-01 8.242574e-01 7.920792e-01 7.995049e-01 9.678218e-01 9.381188e-01 9.158416e-01 8.613861e-01 8.242574e-01 8.143564e-01 8.118812e-01 8.044555e-01 9.504951e-01 9.183168e-01 8.613861e-01 8.366337e-01 8.143564e-01 8.292079e-01 8.094059e-01 8.193069e-01
<VARIANCE> 72
 0.000000e+00 0.000000e+00 0.000000e+00 0.000000e+00 2.469149e-03 3.575012e-02 4.927826e-02 2.413983e-02 0.000000e+00 0.000000e+00 0.000000e+00 0.000000e+00 2.178097e-02 3.803546e-02 5.368964e-02 6.021471e-02 0.000000e+00 0.000000e+00 7.370567e-03 2.178097e-02 3.575012e-02 4.481785e-02 5.805190e-02 1.366777e-01 0.000000e+00 4.926044e-03 1.222309e-02 3.345264e-02 3.345264e-02 5.805190e-02 1.084452e-01 1.731448e-01 4.926044e-03 1.463097e-02 3.575012e-02 3.114279e-02 4.705418e-02 9.510712e-02 1.542680e-01 1.731448e-01 1.222309e-02 1.940985e-02 3.345264e-02 5.149008e-02 9.704936e-02 1.383381e-01 1.557935e-01 1.675572e-01 2.413983e-02 3.114279e-02 4.481785e-02 7.912830e-02 1.281921e-01 1.448571e-01 1.646897e-01 1.602968e-01 3.114279e-02 5.805190e-02 7.707579e-02 1.194001e-01 1.448571e-01 1.511800e-01 1.527301e-01 1.573069e-01 4.705418e-02 7.501101e-02 1.194001e-01 1.366777e-01 1.511800e-01 1.416222e-01 1.542680e-01 1.480431e-01
<GCONST> -1.100000e+11
<STATE> 3
<MEAN> 72
 1.000000e+00 1.000000e+00 1.000000e+00 1.000000e+00 9.975247e-01 9.628713e-01 9.480198e-01 9.752475e-01 1.000000e+00 1.000000e+00 1.000000e+00 1.000000e+00 9.777228e-01 9.603961e-01 9.430693e-01 9.356436e-01 1.000000e+00 1.000000e+00 9.925743e-01 9.777228e-01 9.628713e-01 9.529703e-01 9.381188e-01 8.366337e-01 1.000000e+00 9.950495e-01 9.876238e-01 9.653465e-01 9.653465e-01 9.381188e-01 8.762376e-01 7.772277e-01 9.950495e-01 9.851485e-01 9.628713e-01 9.678218e-01 9.504951e-01 8.935643e-01 8.094059e-01 7.772277e-01 9.876238e-01 9.801980e-01 9.653465e-01 9.455445e-01 8.910891e-01 8.341584e-01 8.069307e-01 7.871287e-01 9.752475e-01 9.678218e-01 9.529703e-01 9.133663e-01 8.490099e-01 8.242574e-01 7.920792e-01 7.995049e-01 9.678218e-01 9.381188e-01 9.158416e-01 8.613861e-01 8.242574e-01 8.143564e-01 8.118812e-01 8.044555e-01 9.504951e-01 9.183168e-01 8.613861e-01 8.366337e-01 8.143564e-01 8.292079e-01 8.094059e-01 8.193069e-01
<VARIANCE> 72
 0.000000e+00 0.000000e+00 0.000000e+00 0.000000e+00 2.469149e-03 3.575012e-02 4.927826e-02 2.413983e-02 0.000000e+00 0.000000e+00 0.000000e+00 0.000000e+00 2.178097e-02 3.803546e-02 5.368964e-02 6.021471e-02 0.000000e+00 0.000000e+00 7.370567e-03 2.178097e-02 3.575012e-02 4.481785e-02 5.805190e-02 1.366777e-01 0.000000e+00 4.926044e-03 1.222309e-02 3.345264e-02 3.345264e-02 5.805190e-02 1.084452e-01 1.731448e-01 4.926044e-03 1.463097e-02 3.575012e-02 3.114279e-02 4.705418e-02 9.510712e-02 1.542680e-01 1.731448e-01 1.222309e-02 1.940985e-02 3.345264e-02 5.149008e-02 9.704936e-02 1.383381e-01 1.557935e-01 1.675572e-01 2.413983e-02 3.114279e-02 4.481785e-02 7.912830e-02 1.281921e-01 1.448571e-01 1.646897e-01 1.602968e-01 3.114279e-02 5.805190e-02 7.707579e-02 1.194001e-01 1.448571e-01 1.511800e-01 1.527301e-01 1.573069e-01 4.705418e-02 7.501101e-02 1.194001e-01 1.366777e-01 1.511800e-01 1.416222e-01 1.542680e-01 1.480431e-01
<GCONST> -1.100000e+11
<STATE> 4
<MEAN> 72
 1.000000e+00 1.000000e+00 1.000000e+00 1.000000e+00 9.975247e-01 9.628713e-01 9.480198e-01 9.752475e-01 1.000000e+00 1.000000e+00 1.000000e+00 1.000000e+00 9.777228e-01 9.603961e-01 9.430693e-01 9.356436e-01 1.000000e+00 1.000000e+00 9.925743e-01 9.777228e-01 9.628713e-01 9.529703e-01 9.381188e-01 8.366337e-01 1.000000e+00 9.950495e-01 9.876238e-01 9.653465e-01 9.653465e-01 9.381188e-01 8.762376e-01 7.772277e-01 9.950495e-01 9.851485e-01 9.628713e-01 9.678218e-01 9.504951e-01 8.935643e-01 8.094059e-01 7.772277e-01 9.876238e-01 9.801980e-01 9.653465e-01 9.455445e-01 8.910891e-01 8.341584e-01 8.069307e-01 7.871287e-01 9.752475e-01 9.678218e-01 9.529703e-01 9.133663e-01 8.490099e-01 8.242574e-01 7.920792e-01 7.995049e-01 9.678218e-01 9.381188e-01 9.158416e-01 8.613861e-01 8.242574e-01 8.143564e-01 8.118812e-01 8.044555e-01 9.504951e-01 9.183168e-01 8.613861e-01 8.366337e-01 8.143564e-01 8.292079e-01 8.094059e-01 8.193069e-01
<VARIANCE> 72
 0.000000e+00 0.000000e+00 0.000000e+00 0.000000e+00 2.469149e-03 3.575012e-02 4.927826e-02 2.413983e-02 0.000000e+00 0.000000e+00 0.000000e+00 0.000000e+00 2.178097e-02 3.803546e-02 5.368964e-02 6.021471e-02 0.000000e+00 0.000000e+00 7.370567e-03 2.178097e-02 3.575012e-02 4.481785e-02 5.805190e-02 1.366777e-01 0.000000e+00 4.926044e-03 1.222309e-02 3.345264e-02 3.345264e-02 5.805190e-02 1.084452e-01 1.731448e-01 4.926044e-03 1.463097e-02 3.575012e-02 3.114279e-02 4.705418e-02 9.510712e-02 1.542680e-01 1.731448e-01 1.222309e-02 1.940985e-02 3.345264e-02 5.149008e-02 9.704936e-02 1.383381e-01 1.557935e-01 1.675572e-01 2.413983e-02 3.114279e-02 4.481785e-02 7.912830e-02 1.281921e-01 1.448571e-01 1.646897e-01 1.602968e-01 3.114279e-02 5.805190e-02 7.707579e-02 1.194001e-01 1.448571e-01 1.511800e-01 1.527301e-01 1.573069e-01 4.705418e-02 7.501101e-02 1.194001e-01 1.366777e-01 1.511800e-01 1.416222e-01 1.542680e-01 1.480431e-01
<GCONST> -1.100000e+11
<STATE> 5
<MEAN> 72
 1.000000e+00 1.000000e+00 1.000000e+00 1.000000e+00 9.975247e-01 9.628713e-01 9.480198e-01 9.752475e-01 1.000000e+00 1.000000e+00 1.000000e+00 1.000000e+00 9.777228e-01 9.603961e-01 9.430693e-01 9.356436e-01 1.000000e+00 1.000000e+00 9.925743e-01 9.777228e-01 9.628713e-01 9.529703e-01 9.381188e-01 8.366337e-01 1.000000e+00 9.950495e-01 9.876238e-01 9.653465e-01 9.653465e-01 9.381188e-01 8.762376e-01 7.772277e-01 9.950495e-01 9.851485e-01 9.628713e-01 9.678218e-01 9.504951e-01 8.935643e-01 8.094059e-01 7.772277e-01 9.876238e-01 9.801980e-01 9.653465e-01 9.455445e-01 8.910891e-01 8.341584e-01 8.069307e-01 7.871287e-01 9.752475e-01 9.678218e-01 9.529703e-01 9.133663e-01 8.490099e-01 8.242574e-01 7.920792e-01 7.995049e-01 9.678218e-01 9.381188e-01 9.158416e-01 8.613861e-01 8.242574e-01 8.143564e-01 8.118812e-01 8.044555e-01 9.504951e-01 9.183168e-01 8.613861e-01 8.366337e-01 8.143564e-01 8.292079e-01 8.094059e-01 8.193069e-01
<VARIANCE> 72
 0.000000e+00 0.000000e+00 0.000000e+00 0.000000e+00 2.469149e-03 3.575012e-02 4.927826e-02 2.413983e-02 0.000000e+00 0.000000e+00 0.000000e+00 0.000000e+00 2.178097e-02 3.803546e-02 5.368964e-02 6.021471e-02 0.000000e+00 0.000000e+00 7.370567e-03 2.178097e-02 3.575012e-02 4.481785e-02 5.805190e-02 1.366777e-01 0.000000e+00 4.926044e-03 1.222309e-02 3.345264e-02 3.345264e-02 5.805190e-02 1.084452e-01 1.731448e-01 4.926044e-03 1.463097e-02 3.575012e-02 3.114279e-02 4.705418e-02 9.510712e-02 1.542680e-01 1.731448e-01 1.222309e-02 1.940985e-02 3.345264e-02 5.149008e-02 9.704936e-02 1.383381e-01 1.557935e-01 1.675572e-01 2.413983e-02 3.114279e-02 4.481785e-02 7.912830e-02 1.281921e-01 1.448571e-01 1.646897e-01 1.602968e-01 3.114279e-02 5.805190e-02 7.707579e-02 1.194001e-01 1.448571e-01 1.511800e-01 1.527301e-01 1.573069e-01 4.705418e-02 7.501101e-02 1.194001e-01 1.366777e-01 1.511800e-01 1.416222e-01 1.542680e-01 1.480431e-01
<GCONST> -1.100000e+11
<STATE> 6
<MEAN> 72
 1.000000e+00 1.000000e+00 1.000000e+00 1.000000e+00 9.975247e-01 9.628713e-01 9.480198e-01 9.752475e-01 1.000000e+00 1.000000e+00 1.000000e+00 1.000000e+00 9.777228e-01 9.603961e-01 9.430693e-01 9.356436e-01 1.000000e+00 1.000000e+00 9.925743e-01 9.777228e-01 9.628713e-01 9.529703e-01 9.381188e-01 8.366337e-01 1.000000e+00 9.950495e-01 9.876238e-01 9.653465e-01 9.653465e-01 9.381188e-01 8.762376e-01 7.772277e-01 9.950495e-01 9.851485e-01 9.628713e-01 9.678218e-01 9.504951e-01 8.935643e-01 8.094059e-01 7.772277e-01 9.876238e-01 9.801980e-01 9.653465e-01 9.455445e-01 8.910891e-01 8.341584e-01 8.069307e-01 7.871287e-01 9.752475e-01 9.678218e-01 9.529703e-01 9.133663e-01 8.490099e-01 8.242574e-01 7.920792e-01 7.995049e-01 9.678218e-01 9.381188e-01 9.158416e-01 8.613861e-01 8.242574e-01 8.143564e-01 8.118812e-01 8.044555e-01 9.504951e-01 9.183168e-01 8.613861e-01 8.366337e-01 8.143564e-01 8.292079e-01 8.094059e-01 8.193069e-01
<VARIANCE> 72
 0.000000e+00 0.000000e+00 0.000000e+00 0.000000e+00 2.469149e-03 3.575012e-02 4.927826e-02 2.413983e-02 0.000000e+00 0.000000e+00 0.000000e+00 0.000000e+00 2.178097e-02 3.803546e-02 5.368964e-02 6.021471e-02 0.000000e+00 0.000000e+00 7.370567e-03 2.178097e-02 3.575012e-02 4.481785e-02 5.805190e-02 1.366777e-01 0.000000e+00 4.926044e-03 1.222309e-02 3.345264e-02 3.345264e-02 5.805190e-02 1.084452e-01 1.731448e-01 4.926044e-03 1.463097e-02 3.575012e-02 3.114279e-02 4.705418e-02 9.510712e-02 1.542680e-01 1.731448e-01 1.222309e-02 1.940985e-02 3.345264e-02 5.149008e-02 9.704936e-02 1.383381e-01 1.557935e-01 1.675572e-01 2.413983e-02 3.114279e-02 4.481785e-02 7.912830e-02 1.281921e-01 1.448571e-01 1.646897e-01 1.602968e-01 3.114279e-02 5.805190e-02 7.707579e-02 1.194001e-01 1.448571e-01 1.511800e-01 1.527301e-01 1.573069e-01 4.705418e-02 7.501101e-02 1.194001e-01 1.366777e-01 1.511800e-01 1.416222e-01 1.542680e-01 1.480431e-01
<GCONST> -1.100000e+11
<STATE> 7
<MEAN> 72
 1.000000e+00 1.000000e+00 1.000000e+00 1.000000e+00 9.975247e-01 9.628713e-01 9.480198e-01 9.752475e-01 1.000000e+00 1.000000e+00 1.000000e+00 1.000000e+00 9.777228e-01 9.603961e-01 9.430693e-01 9.356436e-01 1.000000e+00 1.000000e+00 9.925743e-01 9.777228e-01 9.628713e-01 9.529703e-01 9.381188e-01 8.366337e-01 1.000000e+00 9.950495e-01 9.876238e-01 9.653465e-01 9.653465e-01 9.381188e-01 8.762376e-01 7.772277e-01 9.950495e-01 9.851485e-01 9.628713e-01 9.678218e-01 9.504951e-01 8.935643e-01 8.094059e-01 7.772277e-01 9.876238e-01 9.801980e-01 9.653465e-01 9.455445e-01 8.910891e-01 8.341584e-01 8.069307e-01 7.871287e-01 9.752475e-01 9.678218e-01 9.529703e-01 9.133663e-01 8.490099e-01 8.242574e-01 7.920792e-01 7.995049e-01 9.678218e-01 9.381188e-01 9.158416e-01 8.613861e-01 8.242574e-01 8.143564e-01 8.118812e-01 8.044555e-01 9.504951e-01 9.183168e-01 8.613861e-01 8.366337e-01 8.143564e-01 8.292079e-01 8.094059e-01 8.193069e-01
<VARIANCE> 72
 0.000000e+00 0.000000e+00 0.000000e+00 0.000000e+00 2.469149e-03 3.575012e-02 4.927826e-02 2.413983e-02 0.000000e+00 0.000000e+00 0.000000e+00 0.000000e+00 2.178097e-02 3.803546e-02 5.368964e-02 6.021471e-02 0.000000e+00 0.000000e+00 7.370567e-03 2.178097e-02 3.575012e-02 4.481785e-02 5.805190e-02 1.366777e-01 0.000000e+00 4.926044e-03 1.222309e-02 3.345264e-02 3.345264e-02 5.805190e-02 1.084452e-01 1.731448e-01 4.926044e-03 1.463097e-02 3.575012e-02 3.114279e-02 4.705418e-02 9.510712e-02 1.542680e-01 1.731448e-01 1.222309e-02 1.940985e-02 3.345264e-02 5.149008e-02 9.704936e-02 1.383381e-01 1.557935e-01 1.675572e-01 2.413983e-02 3.114279e-02 4.481785e-02 7.912830e-02 1.281921e-01 1.448571e-01 1.646897e-01 1.602968e-01 3.114279e-02 5.805190e-02 7.707579e-02 1.194001e-01 1.448571e-01 1.511800e-01 1.527301e-01 1.573069e-01 4.705418e-02 7.501101e-02 1.194001e-01 1.366777e-01 1.511800e-01 1.416222e-01 1.542680e-01 1.480431e-01
<GCONST> -1.100000e+11
<TRANSP> 8
 0.000000e+00 1.000000e+00 0.000000e+00 0.000000e+00 0.000000e+00 0.000000e+00 0.000000e+00 0.000000e+00
 0.000000e+00 5.000000e-01 5.000000e-01 0.000000e+00 0.000000e+00 0.000000e+00 0.000000e+00 0.000000e+00
 0.000000e+00 0.000000e+00 5.000000e-01 5.000000e-01 0.000000e+00 0.000000e+00 0.000000e+00 0.000000e+00
 0.000000e+00 0.000000e+00 0.000000e+00 5.000000e-01 5.000000e-01 0.000000e+00 0.000000e+00 0.000000e+00
 0.000000e+00 0.000000e+00 0.000000e+00 0.000000e+00 5.000000e-01 5.000000e-01 0.000000e+00 0.000000e+00
 0.000000e+00 0.000000e+00 0.000000e+00 0.000000e+00 0.000000e+00 5.000000e-01 5.000000e-01 0.000000e+00
 0.000000e+00 0.000000e+00 0.000000e+00 0.000000e+00 0.000000e+00 0.000000e+00 5.000000e-01 5.000000e-01
 0.000000e+00 0.000000e+00 0.000000e+00 0.000000e+00 0.000000e+00 0.000000e+00 0.000000e+00 0.000000e+00
<ENDHMM>
