~o
<STREAMINFO> 1 72
<VECSIZE> 72<NULLD><USER><DIAGC>
~h "circleleft5"
<BEGINHMM>
<NUMSTATES> 8
<STATE> 2
<MEAN> 72
 1.000000e+00 1.000000e+00 1.000000e+00 9.932889e-01 8.657745e-01 6.979863e-01 5.570468e-01 3.758384e-01 1.000000e+00 1.000000e+00 1.000000e+00 9.328868e-01 7.986578e-01 6.510090e-01 4.563771e-01 3.422837e-01 1.000000e+00 1.000000e+00 9.932889e-01 8.590619e-01 7.315429e-01 5.637584e-01 4.161089e-01 2.617461e-01 1.000000e+00 1.000000e+00 9.261758e-01 7.986590e-01 6.577200e-01 5.234917e-01 3.691293e-01 2.684570e-01 1.000000e+00 9.664459e-01 8.187949e-01 7.315427e-01 5.838936e-01 4.429559e-01 3.691305e-01 3.087263e-01 9.932892e-01 8.993312e-01 7.919471e-01 6.577210e-01 5.302030e-01 4.966449e-01 4.563760e-01 3.758409e-01 9.261757e-01 8.187942e-01 7.114097e-01 5.906055e-01 4.697992e-01 4.697988e-01 4.563781e-01 4.832229e-01 9.060421e-01 7.583902e-01 6.375858e-01 5.302027e-01 3.825520e-01 4.295298e-01 4.630876e-01 4.698006e-01 0.000000e+00 8.926191e-01 5.973174e-01 5.234898e-01 4.362431e-01 4.161051e-01 4.161090e-01 4.429516e-01
<VARIANCE> 72
 1.000000e-03 1.000000e-03 1.000000e-03 6.666112e-03 1.162091e-01 2.108014e-01 2.467457e-01 2.345840e-01 1.000000e-03 1.000000e-03 1.000000e-03 6.260906e-02 1.608036e-01 2.271964e-01 2.480972e-01 2.251257e-01 1.000000e-03 1.000000e-03 6.666112e-03 1.210745e-01 1.963879e-01 2.459350e-01 2.429624e-01 1.932353e-01 1.000000e-03 1.000000e-03 6.837415e-02 1.608029e-01 2.251245e-01 2.494482e-01 2.328729e-01 1.963879e-01 1.000000e-03 3.242824e-02 1.483699e-01 1.963879e-01 2.429619e-01 2.467460e-01 2.328732e-01 2.134144e-01 6.665742e-03 9.053454e-02 1.647670e-01 2.251241e-01 2.490878e-01 2.499889e-01 2.480970e-01 2.345846e-01 6.837434e-02 1.483703e-01 2.053060e-01 2.417906e-01 2.490879e-01 2.490880e-01 2.480973e-01 2.497186e-01 8.512978e-02 1.832346e-01 2.310701e-01 2.490878e-01 2.362060e-01 2.450339e-01 2.486376e-01 2.490882e-01 1.000000e-03 9.585023e-02 2.405293e-01 2.494483e-01 2.459351e-01 2.429616e-01 2.429624e-01 2.467455e-01
<GCONST> -6.048613e+01
<STATE> 3
<MEAN> 72
 6.303319e-01 4.360187e-01 2.511865e-01 1.563967e-01 1.990501e-01 3.507113e-01 5.308049e-01 6.350719e-01 5.260680e-01 3.270149e-01 1.848354e-01 2.085271e-01 3.364905e-01 5.118479e-01 6.682464e-01 7.962075e-01 4.265426e-01 2.748841e-01 1.658770e-01 3.412275e-01 5.308042e-01 7.393364e-01 8.341221e-01 9.194311e-01 4.218007e-01 3.080569e-01 3.080543e-01 5.165873e-01 7.488158e-01 8.957317e-01 9.857830e-01 9.763042e-01 4.360189e-01 4.407591e-01 5.355440e-01 7.061597e-01 9.383889e-01 1.000000e+00 1.000000e+00 1.000000e+00 5.450239e-01 5.639822e-01 6.587681e-01 8.104263e-01 9.715638e-01 1.000000e+00 1.000000e+00 1.000000e+00 6.587687e-01 6.635082e-01 7.440742e-01 8.720371e-01 9.810414e-01 1.000000e+00 1.000000e+00 1.000000e+00 7.345982e-01 7.582948e-01 8.151650e-01 9.052122e-01 1.000000e+00 1.000000e+00 1.000000e+00 1.000000e+00 0.000000e+00 8.815167e-01 8.767779e-01 9.383887e-01 1.000000e+00 1.000000e+00 1.000000e+00 1.000000e+00
<VARIANCE> 72
 2.330136e-01 2.459064e-01 1.880918e-01 1.319368e-01 1.594291e-01 2.277127e-01 2.490510e-01 2.317556e-01 2.493204e-01 2.200760e-01 1.506713e-01 1.650435e-01 2.232646e-01 2.498595e-01 2.216929e-01 1.622611e-01 2.446038e-01 1.993229e-01 1.383617e-01 2.247912e-01 2.490509e-01 1.927180e-01 1.383623e-01 7.407742e-02 2.438849e-01 2.131580e-01 2.131567e-01 2.497250e-01 1.880907e-01 9.339623e-02 1.401492e-02 2.313430e-02 2.459064e-01 2.464904e-01 2.487366e-01 2.074983e-01 5.781522e-02 1.000000e-03 1.000000e-03 1.000000e-03 2.479727e-01 2.459060e-01 2.247927e-01 1.536354e-01 2.762760e-02 1.000000e-03 1.000000e-03 1.000000e-03 2.247923e-01 2.232649e-01 1.904278e-01 1.115884e-01 1.859909e-02 1.000000e-03 1.000000e-03 1.000000e-03 1.949634e-01 1.832836e-01 1.506710e-01 8.580303e-02 1.000000e-03 1.000000e-03 1.000000e-03 1.000000e-03 1.000000e-03 1.044450e-01 1.080383e-01 5.781529e-02 1.000000e-03 1.000000e-03 1.000000e-03 1.000000e-03
<GCONST> -9.383129e+01
<STATE> 4
<MEAN> 72
 1.000000e+00 1.000000e+00 1.000000e+00 1.000000e+00 1.000000e+00 9.779739e-01 9.162983e-01 8.678408e-01 1.000000e+00 1.000000e+00 1.000000e+00 1.000000e+00 1.000000e+00 9.867848e-01 9.207046e-01 8.766513e-01 1.000000e+00 1.000000e+00 1.000000e+00 1.000000e+00 1.000000e+00 9.559473e-01 9.251087e-01 8.722458e-01 1.000000e+00 1.000000e+00 1.000000e+00 1.000000e+00 9.955949e-01 9.603525e-01 9.118949e-01 8.810574e-01 1.000000e+00 1.000000e+00 1.000000e+00 1.000000e+00 1.000000e+00 9.735677e-01 9.515412e-01 9.162956e-01 1.000000e+00 1.000000e+00 1.000000e+00 1.000000e+00 1.000000e+00 9.911892e-01 9.867836e-01 9.074856e-01 1.000000e+00 1.000000e+00 1.000000e+00 1.000000e+00 1.000000e+00 1.000000e+00 9.911878e-01 8.898662e-01 1.000000e+00 1.000000e+00 1.000000e+00 1.000000e+00 1.000000e+00 1.000000e+00 9.339200e-01 8.281926e-01 0.000000e+00 1.000000e+00 1.000000e+00 1.000000e+00 1.000000e+00 9.955952e-01 8.986773e-01 8.193820e-01
<VARIANCE> 72
 1.000000e-03 1.000000e-03 1.000000e-03 1.000000e-03 1.000000e-03 2.154096e-02 7.669560e-02 1.146931e-01 1.000000e-03 1.000000e-03 1.000000e-03 1.000000e-03 1.000000e-03 1.304058e-02 7.300758e-02 1.081337e-01 1.000000e-03 1.000000e-03 1.000000e-03 1.000000e-03 1.000000e-03 4.211206e-02 6.928250e-02 1.114330e-01 1.000000e-03 1.000000e-03 1.000000e-03 1.000000e-03 4.385694e-03 3.807546e-02 8.034261e-02 1.047952e-01 1.000000e-03 1.000000e-03 1.000000e-03 1.000000e-03 1.000000e-03 2.573358e-02 4.611047e-02 7.669792e-02 1.000000e-03 1.000000e-03 1.000000e-03 1.000000e-03 1.000000e-03 8.733102e-03 1.304177e-02 8.395535e-02 1.000000e-03 1.000000e-03 1.000000e-03 1.000000e-03 1.000000e-03 1.000000e-03 8.734511e-03 9.800440e-02 1.000000e-03 1.000000e-03 1.000000e-03 1.000000e-03 1.000000e-03 1.000000e-03 6.171345e-02 1.422895e-01 1.000000e-03 1.000000e-03 1.000000e-03 1.000000e-03 1.000000e-03 4.385457e-03 9.105635e-02 1.479951e-01
<GCONST> -2.670851e+02
<STATE> 5
<MEAN> 72
 1.000000e+00 1.000000e+00 1.000000e+00 9.932888e-01 8.993292e-01 6.107369e-01 3.825512e-01 3.154365e-01 1.000000e+00 1.000000e+00 1.000000e+00 9.530197e-01 7.114103e-01 4.496637e-01 3.221485e-01 2.349015e-01 1.000000e+00 1.000000e+00 9.932888e-01 8.791948e-01 5.570465e-01 3.557073e-01 2.818802e-01 1.812087e-01 1.000000e+00 9.932888e-01 9.194626e-01 6.375867e-01 4.093983e-01 3.154367e-01 2.348997e-01 2.080526e-01 1.000000e+00 9.664425e-01 7.114125e-01 4.563777e-01 3.422841e-01 2.550346e-01 2.885864e-01 3.624153e-01 1.000000e+00 8.859062e-01 5.167788e-01 3.624181e-01 2.617472e-01 2.013442e-01 4.093934e-01 5.301991e-01 9.865780e-01 7.047017e-01 4.093982e-01 2.953040e-01 2.147668e-01 1.342281e-01 4.765080e-01 6.711389e-01 9.597326e-01 5.771827e-01 3.355739e-01 2.550340e-01 1.543647e-01 1.073800e-01 4.966438e-01 7.248307e-01 0.000000e+00 8.791929e-01 3.154383e-01 2.013448e-01 1.677818e-01 2.080528e-01 5.704694e-01 7.382539e-01
<VARIANCE> 72
 1.000000e-03 1.000000e-03 1.000000e-03 6.666169e-03 9.053628e-02 2.377375e-01 2.362060e-01 2.159364e-01 1.000000e-03 1.000000e-03 1.000000e-03 4.477312e-02 2.053058e-01 2.474664e-01 2.183690e-01 1.797229e-01 1.000000e-03 1.000000e-03 6.666169e-03 1.062114e-01 2.467458e-01 2.291799e-01 2.024239e-01 1.483722e-01 1.000000e-03 6.666169e-03 7.405113e-02 2.310701e-01 2.417915e-01 2.159365e-01 1.797220e-01 1.647668e-01 1.000000e-03 3.243138e-02 2.053048e-01 2.480971e-01 2.251256e-01 1.899921e-01 2.053045e-01 2.310705e-01 1.000000e-03 1.010765e-01 2.497187e-01 2.310713e-01 1.932357e-01 1.608049e-01 2.417907e-01 2.490880e-01 1.324185e-02 2.080974e-01 2.417913e-01 2.080996e-01 1.686421e-01 1.162110e-01 2.494483e-01 2.207115e-01 3.864600e-02 2.440430e-01 2.229642e-01 1.899917e-01 1.305363e-01 9.584957e-02 2.499889e-01 1.994513e-01 1.000000e-03 1.062128e-01 2.159371e-01 1.608051e-01 1.396310e-01 1.647669e-01 2.450341e-01 1.932351e-01
<GCONST> -6.827298e+01
<STATE> 6
<MEAN> 72
 1.000000e+00 1.000000e+00 1.000000e+00 1.000000e+00 1.000000e+00 1.000000e+00 8.831139e-01 6.233724e-01 1.000000e+00 1.000000e+00 1.000000e+00 1.000000e+00 1.000000e+00 1.000000e+00 7.402523e-01 4.675269e-01 1.000000e+00 1.000000e+00 1.000000e+00 1.000000e+00 1.000000e+00 8.051906e-01 5.844110e-01 3.246715e-01 1.000000e+00 1.000000e+00 1.000000e+00 1.000000e+00 9.350640e-01 6.363597e-01 4.025904e-01 1.818161e-01 1.000000e+00 1.000000e+00 1.000000e+00 9.610373e-01 7.272654e-01 5.194763e-01 2.597404e-01 1.298686e-01 1.000000e+00 1.000000e+00 9.870124e-01 7.532414e-01 5.454499e-01 3.506458e-01 1.688286e-01 1.688323e-01 1.000000e+00 1.000000e+00 8.181787e-01 5.973980e-01 4.155816e-01 1.948038e-01 1.298686e-01 3.116955e-01 1.000000e+00 1.000000e+00 7.402553e-01 4.675292e-01 2.597359e-01 1.428554e-01 9.090638e-02 4.415630e-01 0.000000e+00 1.000000e+00 6.493454e-01 3.246712e-01 1.688295e-01 7.792165e-02 1.168836e-01 4.805267e-01
<VARIANCE> 72
 1.000000e-03 1.000000e-03 1.000000e-03 1.000000e-03 1.000000e-03 1.000000e-03 1.032237e-01 2.347792e-01 1.000000e-03 1.000000e-03 1.000000e-03 1.000000e-03 1.000000e-03 1.000000e-03 1.922789e-01 2.489455e-01 1.000000e-03 1.000000e-03 1.000000e-03 1.000000e-03 1.000000e-03 1.568587e-01 2.428748e-01 2.192599e-01 1.000000e-03 1.000000e-03 1.000000e-03 1.000000e-03 6.071932e-02 2.314060e-01 2.405113e-01 1.487590e-01 1.000000e-03 1.000000e-03 1.000000e-03 3.744458e-02 1.983505e-01 2.496207e-01 1.922754e-01 1.130027e-01 1.000000e-03 1.000000e-03 1.281886e-02 1.858688e-01 2.479342e-01 2.276933e-01 1.403255e-01 1.403279e-01 1.000000e-03 1.000000e-03 1.487623e-01 2.405137e-01 2.428735e-01 1.568552e-01 1.130027e-01 2.145414e-01 1.000000e-03 1.000000e-03 1.922774e-01 2.489456e-01 1.922731e-01 1.224477e-01 8.264241e-02 2.465851e-01 1.000000e-03 1.000000e-03 2.276960e-01 2.192598e-01 1.403262e-01 7.184987e-02 1.032219e-01 2.496208e-01
<GCONST> -1.630740e+02
<STATE> 7
<MEAN> 72
 1.000000e+00 1.000000e+00 1.000000e+00 1.000000e+00 1.000000e+00 1.000000e+00 1.000000e+00 1.000000e+00 1.000000e+00 1.000000e+00 1.000000e+00 1.000000e+00 1.000000e+00 1.000000e+00 1.000000e+00 1.000000e+00 1.000000e+00 1.000000e+00 1.000000e+00 1.000000e+00 1.000000e+00 1.000000e+00 1.000000e+00 1.000000e+00 1.000000e+00 1.000000e+00 1.000000e+00 1.000000e+00 1.000000e+00 1.000000e+00 1.000000e+00 1.000000e+00 1.000000e+00 1.000000e+00 1.000000e+00 1.000000e+00 1.000000e+00 1.000000e+00 1.000000e+00 1.000000e+00 1.000000e+00 1.000000e+00 1.000000e+00 1.000000e+00 1.000000e+00 1.000000e+00 1.000000e+00 1.000000e+00 1.000000e+00 1.000000e+00 1.000000e+00 1.000000e+00 1.000000e+00 1.000000e+00 1.000000e+00 1.000000e+00 1.000000e+00 1.000000e+00 1.000000e+00 1.000000e+00 1.000000e+00 1.000000e+00 1.000000e+00 9.914165e-01 0.000000e+00 1.000000e+00 1.000000e+00 1.000000e+00 1.000000e+00 1.000000e+00 1.000000e+00 9.613739e-01
<VARIANCE> 72
 1.000000e-03 1.000000e-03 1.000000e-03 1.000000e-03 1.000000e-03 1.000000e-03 1.000000e-03 1.000000e-03 1.000000e-03 1.000000e-03 1.000000e-03 1.000000e-03 1.000000e-03 1.000000e-03 1.000000e-03 1.000000e-03 1.000000e-03 1.000000e-03 1.000000e-03 1.000000e-03 1.000000e-03 1.000000e-03 1.000000e-03 1.000000e-03 1.000000e-03 1.000000e-03 1.000000e-03 1.000000e-03 1.000000e-03 1.000000e-03 1.000000e-03 1.000000e-03 1.000000e-03 1.000000e-03 1.000000e-03 1.000000e-03 1.000000e-03 1.000000e-03 1.000000e-03 1.000000e-03 1.000000e-03 1.000000e-03 1.000000e-03 1.000000e-03 1.000000e-03 1.000000e-03 1.000000e-03 1.000000e-03 1.000000e-03 1.000000e-03 1.000000e-03 1.000000e-03 1.000000e-03 1.000000e-03 1.000000e-03 1.000000e-03 1.000000e-03 1.000000e-03 1.000000e-03 1.000000e-03 1.000000e-03 1.000000e-03 1.000000e-03 8.509845e-03 1.000000e-03 1.000000e-03 1.000000e-03 1.000000e-03 1.000000e-03 1.000000e-03 1.000000e-03 3.713413e-02
<GCONST> -3.592755e+02
<TRANSP> 8
 0.000000e+00 1.000000e+00 0.000000e+00 0.000000e+00 0.000000e+00 0.000000e+00 0.000000e+00 0.000000e+00
 0.000000e+00 8.120800e-01 1.879200e-01 0.000000e+00 0.000000e+00 0.000000e+00 0.000000e+00 0.000000e+00
 0.000000e+00 0.000000e+00 8.672986e-01 1.327014e-01 0.000000e+00 0.000000e+00 0.000000e+00 0.000000e+00
 0.000000e+00 0.000000e+00 0.000000e+00 8.766521e-01 1.233479e-01 0.000000e+00 0.000000e+00 0.000000e+00
 0.000000e+00 0.000000e+00 0.000000e+00 0.000000e+00 8.120793e-01 1.879207e-01 0.000000e+00 0.000000e+00
 0.000000e+00 0.000000e+00 0.000000e+00 0.000000e+00 0.000000e+00 6.363651e-01 3.636349e-01 0.000000e+00
 0.000000e+00 0.000000e+00 0.000000e+00 0.000000e+00 0.000000e+00 0.000000e+00 8.798283e-01 1.201717e-01
 0.000000e+00 0.000000e+00 0.000000e+00 0.000000e+00 0.000000e+00 0.000000e+00 0.000000e+00 0.000000e+00
<ENDHMM>
