~o
<STREAMINFO> 1 72
<VECSIZE> 72<NULLD><USER><DIAGC>
~h "left1"
<BEGINHMM>
<NUMSTATES> 8
<STATE> 2
<MEAN> 72
 1.000000e+00 1.000000e+00 1.000000e+00 1.000000e+00 1.000000e+00 1.000000e+00 1.000000e+00 1.000000e+00 1.000000e+00 1.000000e+00 1.000000e+00 1.000000e+00 1.000000e+00 1.000000e+00 9.818187e-01 9.818172e-01 1.000000e+00 1.000000e+00 1.000000e+00 1.000000e+00 9.818187e-01 9.454548e-01 9.454547e-01 9.272733e-01 1.000000e+00 1.000000e+00 1.000000e+00 1.000000e+00 9.454526e-01 7.818173e-01 8.545465e-01 8.727258e-01 1.000000e+00 1.000000e+00 1.000000e+00 1.000000e+00 9.454526e-01 7.272735e-01 7.636383e-01 7.818193e-01 1.000000e+00 1.000000e+00 1.000000e+00 9.818187e-01 8.727250e-01 6.909065e-01 5.272744e-01 3.818128e-01 1.000000e+00 1.000000e+00 1.000000e+00 9.636392e-01 7.636368e-01 5.454516e-01 3.636342e-01 1.999969e-01 1.000000e+00 1.000000e+00 1.000000e+00 9.454569e-01 7.090927e-01 5.090895e-01 3.272711e-01 5.454520e-02 1.000000e+00 1.000000e+00 1.000000e+00 9.272732e-01 7.090931e-01 4.363661e-01 2.181837e-01 1.818133e-02
<VARIANCE> 72
 1.000000e-03 1.000000e-03 1.000000e-03 1.000000e-03 1.000000e-03 1.000000e-03 1.000000e-03 1.000000e-03 1.000000e-03 1.000000e-03 1.000000e-03 1.000000e-03 1.000000e-03 1.000000e-03 1.785077e-02 1.785222e-02 1.000000e-03 1.000000e-03 1.000000e-03 1.000000e-03 1.785077e-02 5.156998e-02 5.157012e-02 6.743749e-02 1.000000e-03 1.000000e-03 1.000000e-03 1.000000e-03 5.157198e-02 1.705790e-01 1.242968e-01 1.110755e-01 1.000000e-03 1.000000e-03 1.000000e-03 1.000000e-03 5.157198e-02 1.983468e-01 1.804949e-01 1.705779e-01 1.000000e-03 1.000000e-03 1.000000e-03 1.785077e-02 1.110761e-01 2.135547e-01 2.492561e-01 2.360318e-01 1.000000e-03 1.000000e-03 1.000000e-03 3.503868e-02 1.804957e-01 2.479342e-01 2.314044e-01 1.599981e-01 1.000000e-03 1.000000e-03 1.000000e-03 5.156818e-02 2.062803e-01 2.499174e-01 2.201647e-01 5.157002e-02 1.000000e-03 1.000000e-03 1.000000e-03 6.743763e-02 2.062801e-01 2.459507e-01 1.705796e-01 1.785077e-02
<GCONST> -2.101843e+02
<STATE> 3
<MEAN> 72
 1.000000e+00 1.000000e+00 1.000000e+00 1.000000e+00 1.000000e+00 1.000000e+00 1.000000e+00 1.000000e+00 1.000000e+00 1.000000e+00 1.000000e+00 9.473697e-01 9.473663e-01 1.000000e+00 1.000000e+00 1.000000e+00 1.000000e+00 9.473687e-01 9.210503e-01 9.210512e-01 8.947356e-01 1.000000e+00 1.000000e+00 1.000000e+00 1.000000e+00 8.947367e-01 7.631568e-01 8.421012e-01 8.684183e-01 1.000000e+00 1.000000e+00 1.000000e+00 1.000000e+00 8.421034e-01 6.842144e-01 6.842114e-01 7.631562e-01 8.684206e-01 9.473680e-01 1.000000e+00 1.000000e+00 7.631556e-01 5.789513e-01 3.157838e-01 3.157785e-01 5.789402e-01 7.631537e-01 9.736834e-01 9.736836e-01 6.842084e-01 4.473694e-01 7.894508e-02 1.315770e-01 3.684164e-01 6.315743e-01 8.421013e-01 9.473657e-01 6.315779e-01 3.157857e-01 7.894508e-02 1.578916e-01 3.157872e-01 5.789394e-01 9.210503e-01 9.473657e-01 6.052617e-01 2.631570e-01 0.000000e+00 0.000000e+00 2.368444e-01 6.578977e-01 9.736874e-01
<VARIANCE> 72
 1.000000e-03 1.000000e-03 1.000000e-03 1.000000e-03 1.000000e-03 1.000000e-03 1.000000e-03 1.000000e-03 1.000000e-03 1.000000e-03 1.000000e-03 4.986038e-02 4.986340e-02 1.000000e-03 1.000000e-03 1.000000e-03 1.000000e-03 4.986131e-02 7.271665e-02 7.271589e-02 9.418387e-02 1.000000e-03 1.000000e-03 1.000000e-03 1.000000e-03 9.418292e-02 1.807485e-01 1.329668e-01 1.142680e-01 1.000000e-03 1.000000e-03 1.000000e-03 1.000000e-03 1.329653e-01 2.160651e-01 2.160661e-01 1.807488e-01 1.142663e-01 4.986184e-02 1.000000e-03 1.000000e-03 1.807492e-01 2.437667e-01 2.160644e-01 2.160625e-01 2.437684e-01 1.807502e-01 2.562402e-02 2.562386e-02 2.160673e-01 2.472300e-01 7.271276e-02 1.142645e-01 2.326858e-01 2.326882e-01 1.329668e-01 4.986393e-02 2.326872e-01 2.160651e-01 7.271276e-02 1.329618e-01 2.160657e-01 2.437687e-01 7.271664e-02 4.986393e-02 2.389199e-01 1.939054e-01 1.000000e-03 1.000000e-03 1.807492e-01 2.250683e-01 2.562027e-02
<GCONST> -1.494234e+02
<STATE> 4
<MEAN> 72
 1.000000e+00 1.000000e+00 1.000000e+00 1.000000e+00 1.000000e+00 1.000000e+00 1.000000e+00 1.000000e+00 9.750007e-01 1.000000e+00 1.000000e+00 1.000000e+00 1.000000e+00 1.000000e+00 1.000000e+00 1.000000e+00 8.749983e-01 9.499983e-01 1.000000e+00 1.000000e+00 1.000000e+00 1.000000e+00 1.000000e+00 1.000000e+00 8.249990e-01 8.749995e-01 1.000000e+00 1.000000e+00 1.000000e+00 1.000000e+00 1.000000e+00 1.000000e+00 6.999949e-01 8.000059e-01 9.499990e-01 1.000000e+00 1.000000e+00 1.000000e+00 1.000000e+00 1.000000e+00 3.999942e-01 5.999981e-01 6.749964e-01 8.249970e-01 1.000000e+00 1.000000e+00 1.000000e+00 1.000000e+00 1.999953e-01 2.249904e-01 3.999961e-01 6.749956e-01 9.499979e-01 1.000000e+00 1.000000e+00 1.000000e+00 7.499813e-02 1.249979e-01 3.249997e-01 6.249988e-01 8.750000e-01 1.000000e+00 1.000000e+00 1.000000e+00 2.499891e-02 4.999916e-02 2.000027e-01 5.250043e-01 9.000048e-01 1.000000e+00 1.000000e+00 1.000000e+00
<VARIANCE> 72
 1.000000e-03 1.000000e-03 1.000000e-03 1.000000e-03 1.000000e-03 1.000000e-03 1.000000e-03 1.000000e-03 2.437429e-02 1.000000e-03 1.000000e-03 1.000000e-03 1.000000e-03 1.000000e-03 1.000000e-03 1.000000e-03 1.093763e-01 4.750156e-02 1.000000e-03 1.000000e-03 1.000000e-03 1.000000e-03 1.000000e-03 1.000000e-03 1.443757e-01 1.093754e-01 1.000000e-03 1.000000e-03 1.000000e-03 1.000000e-03 1.000000e-03 1.000000e-03 2.100021e-01 1.599964e-01 4.750088e-02 1.000000e-03 1.000000e-03 1.000000e-03 1.000000e-03 1.000000e-03 2.399988e-01 2.400004e-01 2.193763e-01 1.443770e-01 1.000000e-03 1.000000e-03 1.000000e-03 1.000000e-03 1.599972e-01 1.743697e-01 2.399992e-01 2.193765e-01 4.750192e-02 1.000000e-03 1.000000e-03 1.000000e-03 6.937341e-02 1.093734e-01 2.193749e-01 2.343753e-01 1.093750e-01 1.000000e-03 1.000000e-03 1.000000e-03 2.437397e-02 4.749923e-02 1.600016e-01 2.493748e-01 8.999614e-02 1.000000e-03 1.000000e-03 1.000000e-03
<GCONST> -2.364140e+02
<STATE> 5
<MEAN> 72
 1.000000e+00 1.000000e+00 1.000000e+00 1.000000e+00 1.000000e+00 1.000000e+00 1.000000e+00 1.000000e+00 1.000000e+00 1.000000e+00 1.000000e+00 1.000000e+00 1.000000e+00 1.000000e+00 1.000000e+00 1.000000e+00 1.000000e+00 1.000000e+00 1.000000e+00 1.000000e+00 1.000000e+00 1.000000e+00 1.000000e+00 1.000000e+00 1.000000e+00 1.000000e+00 1.000000e+00 1.000000e+00 1.000000e+00 1.000000e+00 1.000000e+00 1.000000e+00 1.000000e+00 1.000000e+00 1.000000e+00 1.000000e+00 1.000000e+00 1.000000e+00 1.000000e+00 1.000000e+00 1.000000e+00 1.000000e+00 1.000000e+00 1.000000e+00 1.000000e+00 1.000000e+00 1.000000e+00 1.000000e+00 6.499925e-01 1.000000e+00 1.000000e+00 1.000000e+00 1.000000e+00 1.000000e+00 1.000000e+00 1.000000e+00 2.500063e-01 8.499956e-01 1.000000e+00 1.000000e+00 1.000000e+00 1.000000e+00 1.000000e+00 1.000000e+00 2.000012e-01 7.000068e-01 1.000000e+00 1.000000e+00 1.000000e+00 1.000000e+00 1.000000e+00 1.000000e+00
<VARIANCE> 72
 1.000000e-03 1.000000e-03 1.000000e-03 1.000000e-03 1.000000e-03 1.000000e-03 1.000000e-03 1.000000e-03 1.000000e-03 1.000000e-03 1.000000e-03 1.000000e-03 1.000000e-03 1.000000e-03 1.000000e-03 1.000000e-03 1.000000e-03 1.000000e-03 1.000000e-03 1.000000e-03 1.000000e-03 1.000000e-03 1.000000e-03 1.000000e-03 1.000000e-03 1.000000e-03 1.000000e-03 1.000000e-03 1.000000e-03 1.000000e-03 1.000000e-03 1.000000e-03 1.000000e-03 1.000000e-03 1.000000e-03 1.000000e-03 1.000000e-03 1.000000e-03 1.000000e-03 1.000000e-03 1.000000e-03 1.000000e-03 1.000000e-03 1.000000e-03 1.000000e-03 1.000000e-03 1.000000e-03 1.000000e-03 2.275023e-01 1.000000e-03 1.000000e-03 1.000000e-03 1.000000e-03 1.000000e-03 1.000000e-03 1.000000e-03 1.875032e-01 1.275031e-01 1.000000e-03 1.000000e-03 1.000000e-03 1.000000e-03 1.000000e-03 1.000000e-03 1.600008e-01 2.099973e-01 1.000000e-03 1.000000e-03 1.000000e-03 1.000000e-03 1.000000e-03 1.000000e-03
<GCONST> -3.390999e+02
<STATE> 6
<MEAN> 72
 1.000000e+00 1.000000e+00 1.000000e+00 1.000000e+00 1.000000e+00 1.000000e+00 1.000000e+00 1.000000e+00 1.000000e+00 1.000000e+00 1.000000e+00 1.000000e+00 1.000000e+00 1.000000e+00 1.000000e+00 1.000000e+00 1.000000e+00 1.000000e+00 1.000000e+00 1.000000e+00 1.000000e+00 1.000000e+00 1.000000e+00 1.000000e+00 1.000000e+00 1.000000e+00 1.000000e+00 1.000000e+00 1.000000e+00 1.000000e+00 1.000000e+00 1.000000e+00 1.000000e+00 1.000000e+00 1.000000e+00 1.000000e+00 1.000000e+00 1.000000e+00 1.000000e+00 1.000000e+00 1.000000e+00 1.000000e+00 1.000000e+00 1.000000e+00 1.000000e+00 1.000000e+00 1.000000e+00 1.000000e+00 1.000000e+00 1.000000e+00 1.000000e+00 1.000000e+00 1.000000e+00 1.000000e+00 1.000000e+00 1.000000e+00 1.000000e+00 1.000000e+00 1.000000e+00 1.000000e+00 1.000000e+00 1.000000e+00 1.000000e+00 1.000000e+00 1.000000e+00 1.000000e+00 1.000000e+00 1.000000e+00 1.000000e+00 1.000000e+00 1.000000e+00 1.000000e+00
<VARIANCE> 72
 1.000000e-03 1.000000e-03 1.000000e-03 1.000000e-03 1.000000e-03 1.000000e-03 1.000000e-03 1.000000e-03 1.000000e-03 1.000000e-03 1.000000e-03 1.000000e-03 1.000000e-03 1.000000e-03 1.000000e-03 1.000000e-03 1.000000e-03 1.000000e-03 1.000000e-03 1.000000e-03 1.000000e-03 1.000000e-03 1.000000e-03 1.000000e-03 1.000000e-03 1.000000e-03 1.000000e-03 1.000000e-03 1.000000e-03 1.000000e-03 1.000000e-03 1.000000e-03 1.000000e-03 1.000000e-03 1.000000e-03 1.000000e-03 1.000000e-03 1.000000e-03 1.000000e-03 1.000000e-03 1.000000e-03 1.000000e-03 1.000000e-03 1.000000e-03 1.000000e-03 1.000000e-03 1.000000e-03 1.000000e-03 1.000000e-03 1.000000e-03 1.000000e-03 1.000000e-03 1.000000e-03 1.000000e-03 1.000000e-03 1.000000e-03 1.000000e-03 1.000000e-03 1.000000e-03 1.000000e-03 1.000000e-03 1.000000e-03 1.000000e-03 1.000000e-03 1.000000e-03 1.000000e-03 1.000000e-03 1.000000e-03 1.000000e-03 1.000000e-03 1.000000e-03 1.000000e-03
<GCONST> -3.650312e+02
<STATE> 7
<MEAN> 72
 1.000000e+00 1.000000e+00 1.000000e+00 1.000000e+00 1.000000e+00 1.000000e+00 1.000000e+00 1.000000e+00 1.000000e+00 1.000000e+00 1.000000e+00 1.000000e+00 1.000000e+00 1.000000e+00 1.000000e+00 1.000000e+00 1.000000e+00 1.000000e+00 1.000000e+00 1.000000e+00 1.000000e+00 1.000000e+00 1.000000e+00 1.000000e+00 1.000000e+00 1.000000e+00 1.000000e+00 1.000000e+00 1.000000e+00 1.000000e+00 1.000000e+00 1.000000e+00 1.000000e+00 1.000000e+00 1.000000e+00 1.000000e+00 1.000000e+00 1.000000e+00 1.000000e+00 1.000000e+00 1.000000e+00 1.000000e+00 1.000000e+00 1.000000e+00 1.000000e+00 1.000000e+00 1.000000e+00 1.000000e+00 1.000000e+00 1.000000e+00 1.000000e+00 1.000000e+00 1.000000e+00 1.000000e+00 1.000000e+00 1.000000e+00 1.000000e+00 1.000000e+00 1.000000e+00 1.000000e+00 1.000000e+00 1.000000e+00 1.000000e+00 1.000000e+00 1.000000e+00 1.000000e+00 1.000000e+00 1.000000e+00 1.000000e+00 1.000000e+00 1.000000e+00 1.000000e+00
<VARIANCE> 72
 1.000000e-03 1.000000e-03 1.000000e-03 1.000000e-03 1.000000e-03 1.000000e-03 1.000000e-03 1.000000e-03 1.000000e-03 1.000000e-03 1.000000e-03 1.000000e-03 1.000000e-03 1.000000e-03 1.000000e-03 1.000000e-03 1.000000e-03 1.000000e-03 1.000000e-03 1.000000e-03 1.000000e-03 1.000000e-03 1.000000e-03 1.000000e-03 1.000000e-03 1.000000e-03 1.000000e-03 1.000000e-03 1.000000e-03 1.000000e-03 1.000000e-03 1.000000e-03 1.000000e-03 1.000000e-03 1.000000e-03 1.000000e-03 1.000000e-03 1.000000e-03 1.000000e-03 1.000000e-03 1.000000e-03 1.000000e-03 1.000000e-03 1.000000e-03 1.000000e-03 1.000000e-03 1.000000e-03 1.000000e-03 1.000000e-03 1.000000e-03 1.000000e-03 1.000000e-03 1.000000e-03 1.000000e-03 1.000000e-03 1.000000e-03 1.000000e-03 1.000000e-03 1.000000e-03 1.000000e-03 1.000000e-03 1.000000e-03 1.000000e-03 1.000000e-03 1.000000e-03 1.000000e-03 1.000000e-03 1.000000e-03 1.000000e-03 1.000000e-03 1.000000e-03 1.000000e-03
<GCONST> -3.650312e+02
<TRANSP> 8
 0.000000e+00 1.000000e+00 0.000000e+00 0.000000e+00 0.000000e+00 0.000000e+00 0.000000e+00 0.000000e+00
 0.000000e+00 6.909097e-01 3.090903e-01 0.000000e+00 0.000000e+00 0.000000e+00 0.000000e+00 0.000000e+00
 0.000000e+00 0.000000e+00 5.526349e-01 4.473651e-01 0.000000e+00 0.000000e+00 0.000000e+00 0.000000e+00
 0.000000e+00 0.000000e+00 0.000000e+00 5.750022e-01 4.249978e-01 0.000000e+00 0.000000e+00 0.000000e+00
 0.000000e+00 0.000000e+00 0.000000e+00 0.000000e+00 1.500045e-01 8.499956e-01 0.000000e+00 0.000000e+00
 0.000000e+00 0.000000e+00 0.000000e+00 0.000000e+00 0.000000e+00 8.508770e-01 1.491230e-01 0.000000e+00
 0.000000e+00 0.000000e+00 0.000000e+00 0.000000e+00 0.000000e+00 0.000000e+00 0.000000e+00 1.000000e+00
 0.000000e+00 0.000000e+00 0.000000e+00 0.000000e+00 0.000000e+00 0.000000e+00 0.000000e+00 0.000000e+00
<ENDHMM>
