~o
<STREAMINFO> 1 72
<VECSIZE> 72<NULLD><USER><DIAGC>
~h "upright1"
<BEGINHMM>
<NUMSTATES> 8
<STATE> 2
<MEAN> 72
 7.142872e-02 2.857028e-02 1.285706e-01 1.714292e-01 1.428572e-01 1.428569e-01 1.571418e-01 1.428569e-01 3.999972e-01 3.999989e-01 4.142854e-01 4.428558e-01 4.714285e-01 4.857146e-01 4.999993e-01 5.285696e-01 7.142859e-01 6.714270e-01 6.714288e-01 7.000020e-01 7.142878e-01 7.428570e-01 7.714257e-01 7.714279e-01 8.714297e-01 9.142857e-01 9.571449e-01 9.571449e-01 9.857146e-01 9.857146e-01 9.857146e-01 9.857146e-01 1.000000e+00 1.000000e+00 1.000000e+00 9.857146e-01 9.857146e-01 9.857146e-01 9.857146e-01 9.857146e-01 1.000000e+00 1.000000e+00 1.000000e+00 9.857146e-01 9.857146e-01 9.857146e-01 9.857146e-01 9.857146e-01 1.000000e+00 1.000000e+00 1.000000e+00 9.857146e-01 9.857146e-01 9.857146e-01 9.857146e-01 9.857146e-01 1.000000e+00 1.000000e+00 1.000000e+00 9.857146e-01 9.857146e-01 9.857146e-01 9.857146e-01 9.857146e-01 1.000000e+00 1.000000e+00 9.857146e-01 9.857146e-01 9.857146e-01 9.857146e-01 9.857146e-01 9.857146e-01
<VARIANCE> 72
 6.632665e-02 2.775401e-02 1.120401e-01 1.420412e-01 1.224490e-01 1.224488e-01 1.324482e-01 1.224488e-01 2.399994e-01 2.399998e-01 2.426529e-01 2.467345e-01 2.491836e-01 2.497958e-01 2.500000e-01 2.491837e-01 2.040814e-01 2.206127e-01 2.206121e-01 2.099992e-01 2.040807e-01 1.910204e-01 1.763280e-01 1.763269e-01 1.120400e-01 7.836737e-02 4.101855e-02 4.101855e-02 1.408135e-02 1.408135e-02 1.408135e-02 1.408135e-02 1.000000e-03 1.000000e-03 1.000000e-03 1.408135e-02 1.408135e-02 1.408135e-02 1.408135e-02 1.408135e-02 1.000000e-03 1.000000e-03 1.000000e-03 1.408135e-02 1.408135e-02 1.408135e-02 1.408135e-02 1.408135e-02 1.000000e-03 1.000000e-03 1.000000e-03 1.408135e-02 1.408135e-02 1.408135e-02 1.408135e-02 1.408135e-02 1.000000e-03 1.000000e-03 1.000000e-03 1.408135e-02 1.408135e-02 1.408135e-02 1.408135e-02 1.408135e-02 1.000000e-03 1.000000e-03 1.408135e-02 1.408135e-02 1.408135e-02 1.408135e-02 1.408135e-02 1.408135e-02
<GCONST> -1.462614e+02
<STATE> 3
<MEAN> 72
 9.591835e-01 8.163305e-01 7.142873e-01 6.938784e-01 6.938784e-01 7.142871e-01 8.571475e-01 7.755105e-01 8.979616e-01 5.510225e-01 4.693906e-01 4.285721e-01 3.877547e-01 4.081632e-01 4.693879e-01 5.510237e-01 6.734684e-01 4.489795e-01 2.244858e-01 1.020428e-01 8.163008e-02 2.040695e-02 1.224479e-01 1.632639e-01 7.755091e-01 5.306112e-01 8.163314e-02 4.081470e-02 4.081470e-02 6.122059e-02 6.122059e-02 1.020355e-01 7.551006e-01 5.101974e-01 3.877503e-01 3.673446e-01 3.673446e-01 4.081592e-01 4.081592e-01 4.489785e-01 9.183662e-01 7.346987e-01 6.530586e-01 6.734653e-01 6.938743e-01 7.142836e-01 7.142836e-01 7.959211e-01 8.571391e-01 8.367361e-01 8.775558e-01 9.591858e-01 9.795941e-01 9.795941e-01 9.795941e-01 1.000000e+00 1.000000e+00 1.000000e+00 1.000000e+00 1.000000e+00 1.000000e+00 1.000000e+00 1.000000e+00 1.000000e+00 1.000000e+00 1.000000e+00 1.000000e+00 1.000000e+00 1.000000e+00 1.000000e+00 1.000000e+00 1.000000e+00
<VARIANCE> 72
 3.915050e-02 1.499350e-01 2.040809e-01 2.124112e-01 2.124112e-01 2.040810e-01 1.224457e-01 1.740939e-01 9.162658e-02 2.473967e-01 2.490630e-01 2.448980e-01 2.374010e-01 2.415659e-01 2.490628e-01 2.473965e-01 2.199087e-01 2.473968e-01 1.740919e-01 9.163001e-02 7.496658e-02 1.999049e-02 1.074543e-01 1.366088e-01 1.740948e-01 2.490629e-01 7.496917e-02 3.914886e-02 3.914886e-02 5.747263e-02 5.747263e-02 9.162426e-02 1.849237e-01 2.498960e-01 2.373999e-01 2.324025e-01 2.324025e-01 2.415652e-01 2.415652e-01 2.473967e-01 7.496968e-02 1.949165e-01 2.265730e-01 2.199097e-01 2.124128e-01 2.040825e-01 2.040825e-01 1.624306e-01 1.224516e-01 1.366088e-01 1.074515e-01 3.914840e-02 1.998951e-02 1.998951e-02 1.998951e-02 1.000000e-03 1.000000e-03 1.000000e-03 1.000000e-03 1.000000e-03 1.000000e-03 1.000000e-03 1.000000e-03 1.000000e-03 1.000000e-03 1.000000e-03 1.000000e-03 1.000000e-03 1.000000e-03 1.000000e-03 1.000000e-03 1.000000e-03
<GCONST> -9.742237e+01
<STATE> 4
<MEAN> 72
 1.000000e+00 1.000000e+00 1.000000e+00 1.000000e+00 1.000000e+00 1.000000e+00 1.000000e+00 1.000000e+00 1.000000e+00 1.000000e+00 1.000000e+00 1.000000e+00 1.000000e+00 1.000000e+00 1.000000e+00 1.000000e+00 1.000000e+00 1.000000e+00 1.000000e+00 1.000000e+00 1.000000e+00 1.000000e+00 1.000000e+00 1.000000e+00 1.000000e+00 1.000000e+00 9.591847e-01 8.775518e-01 7.959211e-01 7.551056e-01 6.734748e-01 7.551055e-01 1.000000e+00 1.000000e+00 8.571430e-01 6.530659e-01 4.898000e-01 4.489807e-01 3.877553e-01 3.877519e-01 1.000000e+00 9.795912e-01 8.163231e-01 4.897969e-01 2.448934e-01 1.020396e-01 4.081489e-02 4.081489e-02 1.000000e+00 9.183676e-01 7.551035e-01 4.489720e-01 1.428542e-01 8.162821e-02 1.020375e-01 1.224469e-01 9.591847e-01 8.163294e-01 6.734714e-01 5.714228e-01 3.673414e-01 3.469340e-01 3.265282e-01 4.081579e-01 1.000000e+00 8.979570e-01 7.551000e-01 7.346880e-01 6.734700e-01 6.122436e-01 6.734696e-01 6.734715e-01
<VARIANCE> 72
 1.000000e-03 1.000000e-03 1.000000e-03 1.000000e-03 1.000000e-03 1.000000e-03 1.000000e-03 1.000000e-03 1.000000e-03 1.000000e-03 1.000000e-03 1.000000e-03 1.000000e-03 1.000000e-03 1.000000e-03 1.000000e-03 1.000000e-03 1.000000e-03 1.000000e-03 1.000000e-03 1.000000e-03 1.000000e-03 1.000000e-03 1.000000e-03 1.000000e-03 1.000000e-03 3.914938e-02 1.074546e-01 1.624306e-01 1.849211e-01 2.199064e-01 1.849212e-01 1.000000e-03 1.000000e-03 1.224489e-01 2.265708e-01 2.498959e-01 2.473970e-01 2.374011e-01 2.374004e-01 1.000000e-03 1.999230e-02 1.499397e-01 2.498959e-01 1.849207e-01 9.162756e-02 3.914903e-02 3.914903e-02 1.000000e-03 7.496850e-02 1.849222e-01 2.473961e-01 1.224468e-01 7.496504e-02 9.162591e-02 1.074536e-01 3.914942e-02 1.499356e-01 2.199077e-01 2.448988e-01 2.324017e-01 2.265708e-01 2.199075e-01 2.415650e-01 1.000000e-03 9.163018e-02 1.849240e-01 1.949215e-01 2.199082e-01 2.374014e-01 2.199082e-01 2.199076e-01
<GCONST> -1.616115e+02
<STATE> 5
<MEAN> 72
 1.000000e+00 1.000000e+00 1.000000e+00 1.000000e+00 1.000000e+00 1.000000e+00 1.000000e+00 1.000000e+00 1.000000e+00 1.000000e+00 1.000000e+00 1.000000e+00 1.000000e+00 1.000000e+00 1.000000e+00 1.000000e+00 1.000000e+00 1.000000e+00 1.000000e+00 1.000000e+00 1.000000e+00 1.000000e+00 1.000000e+00 1.000000e+00 1.000000e+00 1.000000e+00 1.000000e+00 1.000000e+00 1.000000e+00 1.000000e+00 1.000000e+00 1.000000e+00 1.000000e+00 1.000000e+00 1.000000e+00 1.000000e+00 1.000000e+00 1.000000e+00 1.000000e+00 1.000000e+00 1.000000e+00 1.000000e+00 1.000000e+00 1.000000e+00 1.000000e+00 1.000000e+00 1.000000e+00 9.583322e-01 1.000000e+00 1.000000e+00 1.000000e+00 1.000000e+00 1.000000e+00 8.541693e-01 7.083330e-01 6.041651e-01 1.000000e+00 1.000000e+00 1.000000e+00 1.000000e+00 8.749971e-01 5.833334e-01 4.375018e-01 3.333349e-01 1.000000e+00 1.000000e+00 1.000000e+00 9.791661e-01 8.125042e-01 4.999986e-01 2.083340e-01 4.166502e-02
<VARIANCE> 72
 1.000000e-03 1.000000e-03 1.000000e-03 1.000000e-03 1.000000e-03 1.000000e-03 1.000000e-03 1.000000e-03 1.000000e-03 1.000000e-03 1.000000e-03 1.000000e-03 1.000000e-03 1.000000e-03 1.000000e-03 1.000000e-03 1.000000e-03 1.000000e-03 1.000000e-03 1.000000e-03 1.000000e-03 1.000000e-03 1.000000e-03 1.000000e-03 1.000000e-03 1.000000e-03 1.000000e-03 1.000000e-03 1.000000e-03 1.000000e-03 1.000000e-03 1.000000e-03 1.000000e-03 1.000000e-03 1.000000e-03 1.000000e-03 1.000000e-03 1.000000e-03 1.000000e-03 1.000000e-03 1.000000e-03 1.000000e-03 1.000000e-03 1.000000e-03 1.000000e-03 1.000000e-03 1.000000e-03 3.993154e-02 1.000000e-03 1.000000e-03 1.000000e-03 1.000000e-03 1.000000e-03 1.245641e-01 2.065974e-01 2.391496e-01 1.000000e-03 1.000000e-03 1.000000e-03 1.000000e-03 1.093771e-01 2.430555e-01 2.460939e-01 2.222227e-01 1.000000e-03 1.000000e-03 1.000000e-03 2.039987e-02 1.523411e-01 2.499999e-01 1.649309e-01 3.992904e-02
<GCONST> -3.022581e+02
<STATE> 6
<MEAN> 72
 1.000000e+00 1.000000e+00 1.000000e+00 1.000000e+00 1.000000e+00 1.000000e+00 1.000000e+00 1.000000e+00 1.000000e+00 1.000000e+00 1.000000e+00 1.000000e+00 1.000000e+00 1.000000e+00 1.000000e+00 1.000000e+00 1.000000e+00 1.000000e+00 1.000000e+00 1.000000e+00 1.000000e+00 1.000000e+00 1.000000e+00 1.000000e+00 1.000000e+00 1.000000e+00 1.000000e+00 1.000000e+00 1.000000e+00 1.000000e+00 1.000000e+00 1.000000e+00 1.000000e+00 1.000000e+00 1.000000e+00 1.000000e+00 1.000000e+00 1.000000e+00 1.000000e+00 1.000000e+00 1.000000e+00 1.000000e+00 1.000000e+00 1.000000e+00 1.000000e+00 1.000000e+00 1.000000e+00 1.000000e+00 1.000000e+00 1.000000e+00 1.000000e+00 1.000000e+00 1.000000e+00 1.000000e+00 1.000000e+00 1.000000e+00 1.000000e+00 1.000000e+00 1.000000e+00 1.000000e+00 1.000000e+00 1.000000e+00 1.000000e+00 1.000000e+00 1.000000e+00 1.000000e+00 1.000000e+00 1.000000e+00 1.000000e+00 1.000000e+00 1.000000e+00 1.000000e+00
<VARIANCE> 72
 1.000000e-03 1.000000e-03 1.000000e-03 1.000000e-03 1.000000e-03 1.000000e-03 1.000000e-03 1.000000e-03 1.000000e-03 1.000000e-03 1.000000e-03 1.000000e-03 1.000000e-03 1.000000e-03 1.000000e-03 1.000000e-03 1.000000e-03 1.000000e-03 1.000000e-03 1.000000e-03 1.000000e-03 1.000000e-03 1.000000e-03 1.000000e-03 1.000000e-03 1.000000e-03 1.000000e-03 1.000000e-03 1.000000e-03 1.000000e-03 1.000000e-03 1.000000e-03 1.000000e-03 1.000000e-03 1.000000e-03 1.000000e-03 1.000000e-03 1.000000e-03 1.000000e-03 1.000000e-03 1.000000e-03 1.000000e-03 1.000000e-03 1.000000e-03 1.000000e-03 1.000000e-03 1.000000e-03 1.000000e-03 1.000000e-03 1.000000e-03 1.000000e-03 1.000000e-03 1.000000e-03 1.000000e-03 1.000000e-03 1.000000e-03 1.000000e-03 1.000000e-03 1.000000e-03 1.000000e-03 1.000000e-03 1.000000e-03 1.000000e-03 1.000000e-03 1.000000e-03 1.000000e-03 1.000000e-03 1.000000e-03 1.000000e-03 1.000000e-03 1.000000e-03 1.000000e-03
<GCONST> -3.650312e+02
<STATE> 7
<MEAN> 72
 1.000000e+00 1.000000e+00 1.000000e+00 1.000000e+00 1.000000e+00 1.000000e+00 1.000000e+00 1.000000e+00 1.000000e+00 1.000000e+00 1.000000e+00 1.000000e+00 1.000000e+00 1.000000e+00 1.000000e+00 1.000000e+00 1.000000e+00 1.000000e+00 1.000000e+00 1.000000e+00 1.000000e+00 1.000000e+00 1.000000e+00 1.000000e+00 1.000000e+00 1.000000e+00 1.000000e+00 1.000000e+00 1.000000e+00 1.000000e+00 1.000000e+00 1.000000e+00 1.000000e+00 1.000000e+00 1.000000e+00 1.000000e+00 1.000000e+00 1.000000e+00 1.000000e+00 1.000000e+00 1.000000e+00 1.000000e+00 1.000000e+00 1.000000e+00 1.000000e+00 1.000000e+00 1.000000e+00 1.000000e+00 1.000000e+00 1.000000e+00 1.000000e+00 1.000000e+00 1.000000e+00 1.000000e+00 1.000000e+00 1.000000e+00 1.000000e+00 1.000000e+00 1.000000e+00 1.000000e+00 1.000000e+00 1.000000e+00 1.000000e+00 1.000000e+00 1.000000e+00 1.000000e+00 1.000000e+00 1.000000e+00 1.000000e+00 1.000000e+00 1.000000e+00 1.000000e+00
<VARIANCE> 72
 1.000000e-03 1.000000e-03 1.000000e-03 1.000000e-03 1.000000e-03 1.000000e-03 1.000000e-03 1.000000e-03 1.000000e-03 1.000000e-03 1.000000e-03 1.000000e-03 1.000000e-03 1.000000e-03 1.000000e-03 1.000000e-03 1.000000e-03 1.000000e-03 1.000000e-03 1.000000e-03 1.000000e-03 1.000000e-03 1.000000e-03 1.000000e-03 1.000000e-03 1.000000e-03 1.000000e-03 1.000000e-03 1.000000e-03 1.000000e-03 1.000000e-03 1.000000e-03 1.000000e-03 1.000000e-03 1.000000e-03 1.000000e-03 1.000000e-03 1.000000e-03 1.000000e-03 1.000000e-03 1.000000e-03 1.000000e-03 1.000000e-03 1.000000e-03 1.000000e-03 1.000000e-03 1.000000e-03 1.000000e-03 1.000000e-03 1.000000e-03 1.000000e-03 1.000000e-03 1.000000e-03 1.000000e-03 1.000000e-03 1.000000e-03 1.000000e-03 1.000000e-03 1.000000e-03 1.000000e-03 1.000000e-03 1.000000e-03 1.000000e-03 1.000000e-03 1.000000e-03 1.000000e-03 1.000000e-03 1.000000e-03 1.000000e-03 1.000000e-03 1.000000e-03 1.000000e-03
<GCONST> -3.650312e+02
<TRANSP> 8
 0.000000e+00 1.000000e+00 0.000000e+00 0.000000e+00 0.000000e+00 0.000000e+00 0.000000e+00 0.000000e+00
 0.000000e+00 7.142864e-01 2.857136e-01 0.000000e+00 0.000000e+00 0.000000e+00 0.000000e+00 0.000000e+00
 0.000000e+00 0.000000e+00 5.918375e-01 4.081625e-01 0.000000e+00 0.000000e+00 0.000000e+00 0.000000e+00
 0.000000e+00 0.000000e+00 0.000000e+00 5.918357e-01 4.081643e-01 0.000000e+00 0.000000e+00 0.000000e+00
 0.000000e+00 0.000000e+00 0.000000e+00 0.000000e+00 5.833340e-01 4.166661e-01 0.000000e+00 0.000000e+00
 0.000000e+00 0.000000e+00 0.000000e+00 0.000000e+00 0.000000e+00 8.425198e-01 1.574802e-01 0.000000e+00
 0.000000e+00 0.000000e+00 0.000000e+00 0.000000e+00 0.000000e+00 0.000000e+00 0.000000e+00 1.000000e+00
 0.000000e+00 0.000000e+00 0.000000e+00 0.000000e+00 0.000000e+00 0.000000e+00 0.000000e+00 0.000000e+00
<ENDHMM>
