~o
<STREAMINFO> 1 142
<VECSIZE> 142<NULLD><USER><DIAGC>
~h "beautiful"
<BEGINHMM>
<NUMSTATES> 4
<STATE> 2
<MEAN> 142
 5.446079e-01 4.059398e-01 3.512242e-01 3.965559e-01 3.173357e-01 2.499770e-01 3.141641e-01 3.120657e-01 3.636651e-01 3.641991e-01 4.562759e-01 4.512319e-01 4.190323e-01 4.864449e-01 2.775702e-01 3.198155e-01 3.550552e-01 3.981594e-01 3.148254e-01 3.231402e-01 4.026079e-01 4.429034e-01 3.291537e-01 4.572559e-01 4.860318e-01 3.638599e-01 4.402881e-01 4.241633e-01 4.401241e-01 4.125423e-01 4.070612e-01 4.484755e-01 4.339011e-01 4.275678e-01 4.225544e-01 3.523866e-01 3.933231e-01 3.561787e-01 3.753143e-01 3.109246e-01 3.773604e-01 4.722610e-01 3.653971e-01 2.893905e-01 2.338873e-01 4.276964e-01 4.737469e-01 3.536289e-01 3.571344e-01 3.617602e-01 4.524943e-01 3.818522e-01 4.173011e-01 3.399211e-01 4.883526e-01 4.566414e-01 4.399054e-01 3.024996e-01 3.538222e-01 2.786769e-01 3.939243e-01 5.014915e-01 4.356273e-01 4.217436e-01 4.054136e-01 4.670621e-01 3.653255e-01 3.824526e-01 4.723152e-01 3.747669e-01 4.293428e-01 3.977909e-01 4.371813e-01 4.013129e-01 2.920558e-01 3.597447e-01 4.741143e-01 4.712977e-01 4.722000e-01 4.124914e-01 4.905889e-01 4.134584e-01 3.860840e-01 4.281894e-01 3.047419e-01 3.999770e-01 4.335018e-01 4.544598e-01 4.546998e-01 3.307714e-01 3.913742e-01 3.038192e-01 4.363699e-01 4.194561e-01 4.563422e-01 4.365033e-01 4.365233e-01 3.357229e-01 4.328225e-01 4.387125e-01 4.182281e-01 4.808339e-01 4.015921e-01 3.615529e-01 3.320615e-01 3.246995e-01 4.084187e-01 4.135755e-01 3.977582e-01 3.075404e-01 4.155728e-01 3.737780e-01 3.998000e-01 3.483153e-01 3.708441e-01 4.256711e-01 3.868190e-01 4.603520e-01 4.659463e-01 4.620294e-01 4.661288e-01 4.733006e-01 5.151604e-01 3.670535e-01 3.614177e-01 4.263392e-01 4.041668e-01 4.196900e-01 4.107877e-01 3.358851e-01 3.649873e-01 4.193134e-01 3.912353e-01 4.285043e-01 3.730448e-01 4.443974e-01 3.989919e-01 4.284761e-01 3.375548e-01 3.828456e-01 4.614155e-01 4.215045e-01
<VARIANCE> 142
 3.615217e-02 9.641455e-03 8.099179e-03 7.770841e-03 1.216498e-02 1.197614e-02 1.840735e-02 6.870615e-03 4.787385e-03 9.312778e-03 1.931047e-02 9.136519e-03 7.584668e-03 1.580463e-02 2.279951e-02 1.161295e-02 3.670099e-03 3.562688e-03 7.303709e-03 2.139390e-02 1.052116e-02 1.061784e-02 7.964075e-03 6.524827e-03 5.472201e-03 1.041149e-02 7.610880e-03 1.303721e-02 1.585137e-02 9.341010e-03 4.270212e-03 1.198287e-02 2.080684e-02 9.364858e-03 2.987170e-03 2.734897e-03 1.339501e-02 1.150146e-02 4.921807e-03 2.105683e-02 2.253271e-02 1.069011e-02 8.322109e-03 1.644259e-02 2.277996e-02 1.105864e-02 1.114301e-02 8.406420e-03 9.429678e-03 6.482574e-03 3.846766e-03 6.907171e-03 6.920853e-03 6.440715e-03 1.215766e-02 1.106199e-02 1.515219e-02 8.503996e-03 9.140049e-03 1.354334e-02 1.983097e-02 5.249614e-03 9.143243e-03 5.066493e-03 1.302961e-02 1.525344e-02 9.902596e-03 1.266294e-02 6.016524e-03 5.946432e-03 8.779405e-03 1.408428e-02 4.066587e-03 3.491461e-03 1.546875e-02 6.794527e-03 6.291050e-03 1.900885e-02 1.548701e-02 8.493579e-03 6.134965e-03 6.094539e-03 8.543790e-03 6.792545e-03 1.617608e-02 1.562508e-02 4.551573e-03 2.489573e-03 6.114079e-03 6.666032e-03 1.173061e-02 8.636557e-03 1.091045e-02 1.462545e-02 9.277581e-03 5.689085e-03 5.783478e-03 1.159578e-02 1.059076e-02 8.209751e-03 1.388550e-02 1.672547e-02 3.274641e-03 8.981274e-03 5.257959e-03 5.558948e-03 5.743580e-03 5.525879e-03 1.373434e-02 1.323978e-02 7.085003e-03 5.986041e-03 4.731675e-02 4.893882e-03 6.071795e-03 5.255552e-03 6.904232e-03 1.622665e-02 1.179088e-02 9.385541e-03 5.617460e-03 5.940279e-03 8.202091e-03 7.621324e-03 1.072647e-02 9.879127e-03 1.090838e-02 1.249480e-02 1.679647e-02 1.827189e-02 1.418357e-02 8.082678e-03 2.332935e-02 6.709010e-03 8.498125e-03 8.081512e-03 1.603169e-02 1.608357e-02 2.387051e-02 5.203477e-03 1.380133e-02 1.263354e-02
<GCONST> -4.025153e+02
<STATE> 3
<MEAN> 142
 5.607699e-01 3.464571e-01 3.497771e-01 3.870334e-01 3.219199e-01 3.032167e-01 3.601172e-01 3.793311e-01 3.766376e-01 4.296738e-01 5.203437e-01 4.151695e-01 4.210875e-01 5.079815e-01 3.292489e-01 4.011979e-01 3.782477e-01 3.694568e-01 3.286334e-01 4.391244e-01 4.771088e-01 4.978958e-01 3.886221e-01 4.801512e-01 4.964782e-01 4.042646e-01 4.547717e-01 3.508266e-01 4.191847e-01 3.712720e-01 4.637927e-01 4.161727e-01 3.634434e-01 4.805166e-01 4.169973e-01 3.381793e-01 4.232053e-01 3.326135e-01 3.709095e-01 3.684591e-01 3.379875e-01 4.310589e-01 3.403675e-01 3.483293e-01 2.567268e-01 3.868160e-01 4.640564e-01 4.236178e-01 4.230186e-01 3.401681e-01 4.412106e-01 4.133750e-01 4.890140e-01 2.754287e-01 4.165243e-01 3.896994e-01 4.623464e-01 3.507992e-01 3.408608e-01 3.694010e-01 4.191356e-01 4.364972e-01 3.932679e-01 3.961072e-01 4.164816e-01 4.211299e-01 3.816381e-01 4.439532e-01 4.127800e-01 3.760354e-01 4.229822e-01 3.977647e-01 3.686238e-01 4.305042e-01 3.638372e-01 3.596020e-01 4.221706e-01 3.438931e-01 5.011318e-01 4.641412e-01 4.581934e-01 3.680480e-01 3.675178e-01 4.120050e-01 3.340096e-01 3.884131e-01 3.881074e-01 4.181551e-01 4.741034e-01 3.353337e-01 3.019297e-01 3.430433e-01 4.152004e-01 3.354591e-01 4.001444e-01 4.515406e-01 4.252994e-01 3.274580e-01 4.746640e-01 4.567434e-01 4.274181e-01 5.046584e-01 3.557507e-01 3.604565e-01 3.704355e-01 3.513046e-01 3.661013e-01 3.771458e-01 4.285740e-01 4.022877e-01 3.707441e-01 3.475375e-01 3.464577e-01 3.550343e-01 3.219139e-01 3.848431e-01 3.683790e-01 4.206152e-01 3.893964e-01 4.569774e-01 4.189319e-01 4.484768e-01 4.088801e-01 3.335707e-01 4.373013e-01 3.995138e-01 3.756633e-01 3.995996e-01 3.469561e-01 4.477368e-01 4.120465e-01 3.717029e-01 3.572702e-01 4.662181e-01 3.459710e-01 4.130301e-01 4.485304e-01 4.053753e-01 4.062816e-01 4.064280e-01 4.052869e-01 4.096880e-01
<VARIANCE> 142
 1.090339e-02 6.162622e-03 9.040871e-03 1.180354e-02 1.919882e-02 2.213609e-02 1.366116e-02 6.396450e-03 3.859773e-03 1.177212e-02 2.029735e-02 9.279598e-03 1.557825e-02 1.845301e-02 9.735292e-03 6.982052e-03 5.464619e-03 7.427475e-03 1.114844e-02 2.224949e-02 1.663022e-02 1.769138e-02 1.014861e-02 9.973603e-03 1.301858e-02 7.001297e-03 1.161987e-02 1.191280e-02 1.262416e-02 7.615123e-03 6.362434e-03 1.152585e-02 1.773007e-02 1.761551e-02 3.315657e-03 9.239885e-03 9.733059e-03 1.416763e-02 1.831502e-02 2.435091e-02 1.332703e-02 1.309512e-02 1.128707e-02 1.339723e-02 2.572235e-02 8.913057e-03 1.837570e-02 5.794113e-03 1.650665e-02 8.973042e-03 8.863047e-03 8.806867e-03 1.461114e-02 4.920279e-03 1.206083e-02 1.120603e-02 2.232535e-02 1.320646e-02 1.361149e-02 2.490374e-02 1.540774e-02 1.174393e-02 8.106057e-03 4.671784e-03 2.763430e-02 8.193111e-03 1.706920e-02 2.038522e-02 9.261919e-03 1.279177e-02 7.001941e-03 8.432827e-03 4.395882e-03 6.627113e-03 1.903291e-02 1.169484e-02 6.177843e-03 1.791324e-02 1.183143e-02 1.283776e-02 1.846467e-02 5.926486e-03 7.862665e-03 1.016975e-02 1.683492e-02 8.531012e-03 2.029798e-03 4.662956e-03 7.914700e-03 2.070357e-02 1.019888e-02 1.415503e-02 2.990501e-02 1.286033e-02 5.625598e-03 1.734306e-02 7.601821e-03 1.007259e-02 2.005310e-02 3.752703e-03 5.998666e-03 2.162376e-02 6.907590e-03 1.080704e-02 1.433725e-02 1.207344e-02 6.144315e-03 6.106301e-03 1.525399e-02 2.428336e-02 6.451895e-03 1.235640e-02 1.651856e-02 1.492456e-02 4.299241e-03 1.083483e-02 1.717996e-02 1.211361e-02 8.985577e-03 2.344305e-02 3.764247e-03 9.211037e-03 1.049890e-02 1.936827e-02 2.535765e-02 2.040248e-03 1.675755e-02 4.033557e-02 2.323239e-02 1.344981e-02 8.961998e-03 1.327579e-02 2.685382e-02 1.256544e-02 1.112522e-02 1.532010e-02 1.315633e-02 7.393255e-03 3.050651e-02 1.538921e-02 1.229855e-02 1.232295e-02
<GCONST> -3.753750e+02
<TRANSP> 4
 0.000000e+00 1.000000e+00 0.000000e+00 0.000000e+00
 0.000000e+00 5.000000e-01 5.000000e-01 0.000000e+00
 0.000000e+00 0.000000e+00 5.000000e-01 5.000000e-01
 0.000000e+00 0.000000e+00 0.000000e+00 0.000000e+00
<ENDHMM>
