~o
<STREAMINFO> 1 142
<VECSIZE> 142<NULLD><USER><DIAGC>
~h "brother"
<BEGINHMM>
<NUMSTATES> 4
<STATE> 2
<MEAN> 142
 5.059395e-01 3.791402e-01 3.811687e-01 3.814750e-01 3.970886e-01 3.511055e-01 3.643700e-01 2.951909e-01 4.075783e-01 4.688426e-01 4.491087e-01 3.807260e-01 3.249326e-01 4.498992e-01 3.774831e-01 3.316880e-01 3.781829e-01 4.024744e-01 3.769453e-01 3.160473e-01 4.583468e-01 4.827183e-01 3.695014e-01 4.739233e-01 5.175775e-01 3.769812e-01 4.349679e-01 3.590229e-01 4.181391e-01 3.823726e-01 4.651247e-01 3.767475e-01 3.319936e-01 5.365215e-01 4.342900e-01 3.782281e-01 4.495737e-01 3.842076e-01 4.524386e-01 3.545272e-01 4.700474e-01 4.805150e-01 4.166476e-01 3.329728e-01 2.306848e-01 3.642906e-01 4.475988e-01 4.082587e-01 4.885069e-01 3.667245e-01 5.017409e-01 3.665747e-01 4.201543e-01 3.072820e-01 4.240806e-01 3.890002e-01 4.743130e-01 3.964250e-01 4.188723e-01 4.226116e-01 3.915507e-01 4.236152e-01 4.269991e-01 4.099921e-01 3.961669e-01 4.214056e-01 4.271422e-01 4.662927e-01 4.167505e-01 4.555310e-01 4.087620e-01 3.969144e-01 4.309427e-01 3.849394e-01 3.142966e-01 3.811894e-01 4.132537e-01 4.195399e-01 4.945154e-01 4.690963e-01 4.875534e-01 4.092962e-01 4.182988e-01 4.452632e-01 3.607435e-01 3.716201e-01 3.712619e-01 4.250292e-01 5.264252e-01 3.620189e-01 3.572540e-01 3.121171e-01 4.060931e-01 3.893671e-01 4.755031e-01 4.312708e-01 4.393097e-01 3.700636e-01 5.312572e-01 4.468202e-01 4.413319e-01 4.645127e-01 3.488339e-01 4.267307e-01 3.739196e-01 3.009696e-01 4.346643e-01 4.250648e-01 4.316533e-01 4.553697e-01 3.774758e-01 3.926558e-01 3.339339e-01 4.771920e-01 3.544199e-01 4.281527e-01 3.968436e-01 4.603119e-01 4.622914e-01 4.365299e-01 4.804382e-01 4.009376e-01 3.700658e-01 4.075640e-01 4.673561e-01 3.621003e-01 4.042729e-01 4.224905e-01 4.070013e-01 4.217430e-01 3.650168e-01 4.433320e-01 3.270742e-01 3.897016e-01 4.311765e-01 5.032317e-01 3.956707e-01 4.377812e-01 4.114552e-01 4.166539e-01 4.546324e-01 3.556038e-01
<VARIANCE> 142
 8.647675e-03 2.822955e-02 1.922990e-02 4.736600e-03 1.172961e-02 5.711404e-02 5.423330e-03 7.066171e-03 7.245398e-03 3.354107e-03 1.134497e-02 1.510827e-02 3.449910e-03 9.185710e-03 1.194632e-02 5.875119e-03 1.209270e-02 2.435708e-02 4.209687e-02 1.002503e-02 9.346512e-03 1.883188e-02 1.066246e-02 1.171490e-02 8.392677e-03 4.152099e-03 1.039103e-02 1.625813e-02 8.459549e-03 1.457658e-02 4.331491e-03 1.061695e-02 6.141794e-03 1.181797e-02 2.105201e-03 9.507701e-03 1.534922e-02 1.717688e-02 1.582922e-02 1.928786e-02 1.366293e-02 1.542791e-02 1.479143e-02 1.881060e-02 1.540093e-02 1.219518e-02 4.350616e-03 1.807879e-02 2.805506e-02 9.978994e-03 1.443725e-03 4.554896e-03 3.331380e-03 1.039191e-02 1.019279e-02 7.766145e-03 2.390416e-02 4.101188e-02 2.104804e-02 1.837446e-02 3.909930e-03 4.208214e-03 1.550511e-02 5.626787e-03 9.554661e-03 6.405043e-03 9.533962e-03 4.692362e-02 1.119860e-02 5.690171e-03 3.332217e-03 1.163847e-02 7.678974e-03 4.097102e-03 1.893488e-02 4.623960e-03 7.156604e-03 3.914418e-02 8.596918e-03 1.144486e-02 5.369511e-03 1.110373e-02 2.923161e-02 1.470642e-02 1.500197e-02 7.217192e-03 1.172096e-02 1.171675e-02 8.528847e-03 1.556084e-02 2.561518e-02 1.646623e-02 6.326844e-03 1.230013e-02 6.454443e-03 3.884868e-03 7.348184e-03 1.145762e-02 2.302417e-02 8.808006e-03 6.149494e-03 5.586385e-03 1.145012e-02 1.446240e-02 1.820190e-02 4.371063e-03 1.272876e-02 6.057036e-03 2.202190e-02 6.750746e-02 8.736957e-03 2.084076e-02 1.203653e-02 2.230560e-02 9.654477e-03 1.914865e-02 1.721465e-02 2.308724e-02 2.036465e-02 1.348973e-02 6.722677e-03 1.644431e-02 1.352893e-02 2.725633e-02 3.342441e-02 9.931844e-03 1.003743e-02 1.391790e-02 2.265099e-02 2.321479e-02 1.317376e-02 2.075093e-02 1.056331e-02 6.372253e-03 1.251033e-02 1.204999e-02 8.461360e-03 7.310088e-03 1.554233e-02 8.067347e-03 2.626619e-02 4.065096e-03
<GCONST> -3.773943e+02
<STATE> 3
<MEAN> 142
 5.999968e-01 3.925108e-01 3.212872e-01 3.732912e-01 3.318076e-01 3.152221e-01 3.701779e-01 3.300072e-01 3.414828e-01 3.876317e-01 4.183051e-01 4.065527e-01 3.790166e-01 4.533584e-01 3.521273e-01 3.635850e-01 4.302680e-01 4.672383e-01 2.769871e-01 3.464329e-01 4.522359e-01 4.422621e-01 3.629096e-01 4.536314e-01 4.649902e-01 3.899168e-01 3.973616e-01 3.979149e-01 4.228107e-01 4.016474e-01 4.634879e-01 4.341775e-01 4.271632e-01 4.534748e-01 4.095040e-01 4.179695e-01 3.417496e-01 3.182599e-01 4.096610e-01 3.655361e-01 3.651610e-01 4.709838e-01 3.370860e-01 3.321914e-01 2.450160e-01 4.449897e-01 4.335046e-01 4.218816e-01 4.138387e-01 3.201166e-01 4.933060e-01 3.982519e-01 4.144498e-01 2.853868e-01 4.528327e-01 4.114518e-01 3.852680e-01 3.470246e-01 3.574895e-01 3.071827e-01 4.207939e-01 4.683664e-01 3.912192e-01 3.855193e-01 4.027314e-01 4.808747e-01 3.500530e-01 4.171703e-01 4.396735e-01 3.776411e-01 4.554383e-01 4.031924e-01 4.427460e-01 3.903344e-01 3.242646e-01 3.263626e-01 4.513125e-01 4.678003e-01 4.206372e-01 4.162771e-01 4.849617e-01 3.741159e-01 3.992522e-01 4.260752e-01 3.592857e-01 4.305134e-01 3.756642e-01 4.019290e-01 4.637958e-01 3.485104e-01 3.446921e-01 3.177655e-01 4.790048e-01 3.515985e-01 4.498097e-01 4.924798e-01 4.405322e-01 3.376924e-01 4.404721e-01 4.353008e-01 3.867774e-01 4.751011e-01 3.212973e-01 3.946904e-01 3.102706e-01 2.842007e-01 3.652396e-01 3.675866e-01 3.326832e-01 3.858486e-01 3.689604e-01 3.483790e-01 3.812831e-01 3.864997e-01 3.614967e-01 3.992417e-01 4.032571e-01 4.143105e-01 4.516789e-01 3.874953e-01 4.112432e-01 5.021725e-01 4.220995e-01 4.276974e-01 4.275383e-01 3.817611e-01 4.112131e-01 3.948438e-01 3.740156e-01 3.811664e-01 4.314312e-01 4.589815e-01 3.685619e-01 3.902246e-01 4.332132e-01 4.199997e-01 4.634949e-01 4.618336e-01 4.129570e-01 3.996571e-01 4.622409e-01 4.272169e-01
<VARIANCE> 142
 4.590874e-02 1.204218e-02 1.042501e-02 1.657457e-02 2.406626e-02 1.650457e-02 1.371663e-02 1.718881e-02 5.449255e-03 4.019178e-03 3.530302e-03 4.978225e-03 4.166987e-03 7.250328e-03 4.413064e-02 1.870754e-02 1.538574e-02 1.777436e-02 8.884122e-03 7.782309e-03 1.013813e-02 1.006103e-02 1.025747e-02 5.121952e-03 5.288190e-03 3.884112e-03 8.824212e-03 1.113636e-02 8.098083e-03 1.348508e-02 4.412368e-03 1.100172e-02 2.120527e-02 5.735058e-03 1.476443e-03 1.700461e-02 1.349994e-02 2.196391e-02 2.058797e-02 3.674768e-02 2.368362e-02 1.642702e-02 1.839002e-02 1.243236e-02 1.518924e-02 1.432413e-02 1.568738e-02 1.376236e-02 8.555220e-03 4.862800e-03 2.317080e-03 1.176082e-02 8.020494e-03 6.452582e-03 9.692780e-03 8.412033e-03 9.179281e-03 8.725110e-03 4.839783e-03 1.141036e-02 1.858238e-02 1.524774e-02 1.280698e-02 4.537070e-03 5.973246e-03 2.889385e-02 2.011989e-02 8.368688e-03 8.611578e-03 1.004840e-02 5.665572e-03 2.465050e-02 1.174255e-02 8.644137e-03 7.268092e-03 4.572391e-03 7.241956e-03 1.023450e-02 3.500381e-03 9.765816e-03 1.894648e-02 5.957864e-03 3.938230e-02 7.268091e-03 1.297065e-02 1.669070e-02 1.840421e-03 3.681970e-03 2.287752e-03 3.133338e-03 4.147863e-03 1.243338e-02 1.143386e-02 4.534787e-03 7.495290e-03 4.128075e-03 6.403959e-03 7.496332e-03 1.704480e-02 1.630487e-02 6.770679e-03 8.704662e-03 4.193827e-03 1.428071e-02 6.449199e-03 8.121816e-03 8.584652e-03 1.145751e-02 7.643647e-03 2.042366e-02 3.731936e-03 2.650284e-03 4.077521e-02 1.568576e-02 8.050117e-03 3.853099e-03 1.103272e-02 7.048301e-03 6.865674e-03 6.271889e-03 6.236664e-03 1.705628e-02 5.716245e-03 2.817228e-02 9.369959e-03 4.281966e-03 2.808969e-03 1.505710e-02 1.272673e-02 8.935469e-03 1.646802e-02 1.127225e-02 1.316393e-02 8.855301e-03 1.117798e-02 5.836820e-03 1.103160e-02 3.326914e-02 3.954331e-02 1.366476e-02 3.137140e-02 1.131406e-02
<GCONST> -3.980065e+02
<TRANSP> 4
 0.000000e+00 1.000000e+00 0.000000e+00 0.000000e+00
 0.000000e+00 5.000000e-01 5.000000e-01 0.000000e+00
 0.000000e+00 0.000000e+00 5.000000e-01 5.000000e-01
 0.000000e+00 0.000000e+00 0.000000e+00 0.000000e+00
<ENDHMM>
