~o
<STREAMINFO> 1 142
<VECSIZE> 142<NULLD><USER><DIAGC>
~h "cafeteria"
<BEGINHMM>
<NUMSTATES> 4
<STATE> 2
<MEAN> 142
 6.312862e-01 3.967258e-01 3.889459e-01 3.757797e-01 3.352189e-01 3.108296e-01 3.875445e-01 3.894556e-01 3.540077e-01 4.362934e-01 4.608911e-01 5.042614e-01 4.035544e-01 4.813536e-01 3.429624e-01 3.592544e-01 4.315748e-01 4.645538e-01 3.218667e-01 4.300578e-01 4.178212e-01 4.333240e-01 3.629074e-01 4.873903e-01 4.442004e-01 3.878235e-01 4.181620e-01 4.722256e-01 4.530459e-01 4.294018e-01 4.562689e-01 4.062739e-01 4.114163e-01 4.403404e-01 4.061811e-01 4.075828e-01 3.961511e-01 4.404500e-01 4.440461e-01 4.364892e-01 4.220819e-01 5.078152e-01 3.813040e-01 3.900879e-01 2.699188e-01 4.363110e-01 4.188264e-01 4.207865e-01 4.133219e-01 3.713292e-01 5.113469e-01 4.738643e-01 4.366027e-01 3.453486e-01 4.967476e-01 3.686882e-01 4.417375e-01 3.340493e-01 3.389482e-01 2.998952e-01 4.477188e-01 4.406044e-01 4.147975e-01 3.982676e-01 4.842013e-01 4.255450e-01 4.367171e-01 3.820181e-01 3.933680e-01 4.502429e-01 4.741161e-01 4.027490e-01 4.443019e-01 4.777358e-01 3.353656e-01 4.244784e-01 4.804802e-01 4.797747e-01 4.950514e-01 4.243987e-01 5.495242e-01 4.175677e-01 4.490607e-01 3.739625e-01 3.453403e-01 4.019390e-01 3.873608e-01 4.561184e-01 4.708976e-01 3.529706e-01 3.977285e-01 3.265853e-01 5.437518e-01 3.766074e-01 4.577174e-01 5.357794e-01 5.163584e-01 4.485575e-01 5.095888e-01 4.344565e-01 4.760949e-01 4.903082e-01 3.330611e-01 4.342157e-01 3.357466e-01 2.918527e-01 4.258333e-01 4.659200e-01 4.012162e-01 3.482051e-01 4.046234e-01 4.192482e-01 3.912941e-01 4.173158e-01 3.776541e-01 4.784694e-01 3.760884e-01 4.469286e-01 4.697805e-01 3.956397e-01 4.335538e-01 4.784381e-01 4.627825e-01 4.257168e-01 3.959679e-01 4.261193e-01 4.814946e-01 5.373797e-01 4.075993e-01 3.819218e-01 5.031528e-01 4.901854e-01 4.890448e-01 5.094641e-01 4.264230e-01 4.304893e-01 4.463002e-01 4.713966e-01 4.269002e-01 4.084234e-01 4.727629e-01 4.401159e-01
<VARIANCE> 142
 4.499275e-02 1.374032e-02 9.463785e-03 4.290211e-03 1.199664e-02 1.549161e-02 1.788645e-02 1.135894e-02 2.201190e-03 1.301277e-02 3.950518e-03 9.677106e-03 1.011447e-02 5.287263e-03 8.340686e-03 6.394114e-03 1.468435e-02 2.648737e-02 2.345867e-02 5.207010e-03 1.155467e-02 2.380300e-02 9.769251e-03 2.512838e-02 2.141730e-03 3.903315e-03 7.228029e-03 6.953631e-03 1.911188e-02 8.850901e-03 3.682179e-03 1.479415e-02 1.863900e-02 1.223308e-02 2.361813e-03 6.310091e-03 2.786036e-03 4.044699e-03 1.626853e-02 5.055238e-02 5.681847e-03 1.307269e-02 7.362635e-03 1.317370e-02 1.119682e-02 9.401725e-03 6.260606e-03 1.630397e-02 8.654080e-03 2.057262e-02 3.977503e-03 9.380671e-03 5.354991e-03 3.660228e-03 1.729885e-02 1.675658e-02 9.525066e-03 1.748613e-02 5.267347e-03 9.648294e-03 1.535659e-02 5.421311e-03 2.773571e-03 3.609118e-03 3.526705e-02 1.199410e-02 1.804919e-02 2.118811e-02 5.041814e-03 4.982715e-03 4.822792e-03 9.249883e-03 1.684862e-02 4.340370e-03 4.298156e-02 1.411626e-02 8.640739e-03 2.693811e-02 4.016902e-03 1.626743e-02 1.544671e-02 1.338098e-02 7.214928e-03 6.061225e-03 1.114051e-02 6.664921e-03 4.225696e-03 2.775110e-03 4.080171e-03 7.198937e-03 1.884265e-02 1.220236e-02 2.727932e-02 9.916495e-03 9.824519e-03 1.372131e-02 3.759275e-03 3.131844e-02 3.080439e-02 2.130429e-03 1.684534e-03 2.718392e-02 4.689542e-03 7.305740e-03 4.349148e-03 9.178748e-03 1.327182e-02 8.417959e-03 1.414252e-02 1.741192e-02 1.512933e-02 2.039556e-02 9.848471e-03 1.771440e-02 1.052429e-02 9.594753e-03 2.307476e-02 1.068960e-02 6.222383e-03 1.018257e-02 7.811317e-03 1.791278e-02 1.865459e-02 2.420302e-02 1.353070e-02 1.471209e-02 1.810942e-02 4.622049e-02 2.981417e-02 8.269089e-03 1.295952e-02 4.777119e-03 2.584659e-02 1.269685e-02 6.480138e-03 9.297428e-03 1.156976e-02 2.454929e-03 3.868293e-02 1.337965e-02 2.395792e-02 1.029238e-02
<GCONST> -3.909583e+02
<STATE> 3
<MEAN> 142
 6.043264e-01 3.211591e-01 4.714219e-01 4.452494e-01 4.697579e-01 4.620875e-01 5.373456e-01 3.264616e-01 2.897488e-01 3.703469e-01 4.483710e-01 3.919088e-01 3.621309e-01 5.021750e-01 3.615090e-01 4.619053e-01 3.667439e-01 3.469763e-01 3.571647e-01 4.261315e-01 5.671237e-01 5.256031e-01 4.441923e-01 4.919533e-01 4.857115e-01 3.556431e-01 4.693985e-01 4.413926e-01 3.569112e-01 3.307159e-01 4.730473e-01 4.041417e-01 5.105360e-01 4.615575e-01 4.531299e-01 3.546270e-01 4.046606e-01 2.675261e-01 3.084210e-01 5.004436e-01 3.090867e-01 3.940145e-01 3.201403e-01 3.678009e-01 3.692032e-01 4.145969e-01 5.222206e-01 4.285541e-01 4.978415e-01 3.751644e-01 5.250784e-01 3.435267e-01 3.556060e-01 2.230837e-01 4.790393e-01 3.055350e-01 4.036143e-01 4.176022e-01 3.863585e-01 4.856007e-01 5.093228e-01 5.063001e-01 3.141125e-01 3.332306e-01 3.395106e-01 5.259792e-01 2.603486e-01 5.553634e-01 4.972762e-01 3.234471e-01 5.230076e-01 4.023068e-01 3.649132e-01 4.584982e-01 4.060674e-01 3.268209e-01 5.221334e-01 5.232276e-01 4.185573e-01 5.561745e-01 4.054174e-01 3.863444e-01 3.323126e-01 5.066825e-01 4.661402e-01 4.995469e-01 3.920763e-01 4.035786e-01 5.107324e-01 4.466186e-01 2.690330e-01 4.830952e-01 4.264922e-01 3.411271e-01 4.759171e-01 4.408944e-01 4.921941e-01 2.703936e-01 4.640825e-01 4.830885e-01 4.193943e-01 4.862447e-01 3.204707e-01 3.226410e-01 3.695057e-01 3.323292e-01 3.206748e-01 3.401513e-01 4.764320e-01 5.332919e-01 3.300698e-01 2.869622e-01 5.408102e-01 3.584755e-01 3.462665e-01 4.018602e-01 2.904560e-01 4.949630e-01 3.705649e-01 4.503345e-01 4.168125e-01 4.586645e-01 4.628988e-01 3.776746e-01 5.492057e-01 3.820467e-01 4.117340e-01 3.053327e-01 2.803693e-01 4.753110e-01 5.904993e-01 4.562249e-01 3.642009e-01 3.640423e-01 3.912307e-01 4.883791e-01 5.226229e-01 4.505595e-01 5.424523e-01 4.022840e-01 4.626843e-01 4.819653e-01
<VARIANCE> 142
 3.232759e-02 5.956845e-03 9.527982e-03 9.894770e-03 3.228905e-02 2.713421e-02 1.891608e-02 5.184322e-03 4.256910e-03 4.252813e-03 2.026919e-02 9.874175e-03 6.161805e-03 1.906676e-02 8.174847e-03 1.042020e-02 2.516568e-03 9.739637e-03 1.828419e-02 1.037643e-02 8.636869e-03 9.316215e-03 1.995787e-02 5.568701e-03 6.323395e-03 5.298472e-03 1.806625e-02 8.415235e-03 6.734104e-03 9.339104e-03 6.315357e-03 6.449809e-03 1.760899e-02 6.122766e-03 3.767218e-03 3.152282e-03 1.005972e-02 3.380733e-03 1.132401e-02 5.456374e-02 5.172519e-03 9.828230e-03 1.588507e-02 2.250856e-02 2.176978e-02 1.513004e-02 8.428976e-03 1.575216e-02 8.025416e-03 5.829433e-03 4.847953e-03 4.351773e-03 1.167062e-02 2.437021e-03 4.388276e-03 4.640162e-03 4.187702e-02 2.113029e-02 1.149007e-02 3.087062e-02 9.626160e-03 1.161750e-02 3.025518e-03 1.170578e-03 8.521845e-03 6.471788e-03 8.218903e-03 1.977978e-02 6.040883e-03 3.955459e-03 1.002926e-02 1.228831e-02 2.792925e-03 6.910951e-03 2.384226e-02 3.964347e-03 8.525826e-03 1.564734e-02 1.423952e-02 1.057598e-02 6.771582e-03 2.411632e-03 2.370252e-03 8.271453e-03 2.503041e-02 6.434754e-03 2.415459e-03 1.402061e-03 7.986258e-03 1.000805e-02 7.586418e-03 2.428382e-02 1.857562e-02 1.195380e-02 9.529583e-03 1.095593e-02 7.804915e-03 7.059617e-03 4.475633e-03 1.148754e-02 3.174262e-03 8.402932e-03 2.169348e-03 4.279189e-03 5.984298e-03 1.528657e-02 1.372377e-02 5.709223e-03 2.387493e-02 2.865911e-02 9.297950e-03 4.645595e-03 6.703602e-02 4.429687e-03 1.495845e-02 7.267450e-03 7.020019e-03 7.537125e-03 6.441938e-03 1.611389e-02 3.829635e-03 1.180144e-02 5.369727e-03 1.299951e-02 2.776614e-02 4.147301e-03 9.362678e-03 9.683802e-03 5.902696e-03 1.248166e-02 2.369798e-02 4.047378e-03 8.660986e-03 6.938214e-03 6.565748e-03 2.443819e-03 1.186467e-02 5.457620e-03 3.080677e-02 3.834506e-03 4.123155e-03 7.894458e-03
<GCONST> -4.146047e+02
<TRANSP> 4
 0.000000e+00 1.000000e+00 0.000000e+00 0.000000e+00
 0.000000e+00 5.000000e-01 5.000000e-01 0.000000e+00
 0.000000e+00 0.000000e+00 5.000000e-01 5.000000e-01
 0.000000e+00 0.000000e+00 0.000000e+00 0.000000e+00
<ENDHMM>
