~o
<STREAMINFO> 1 142
<VECSIZE> 142<NULLD><USER><DIAGC>
~h "column"
<BEGINHMM>
<NUMSTATES> 4
<STATE> 2
<MEAN> 142
 6.801112e-01 3.767530e-01 4.230332e-01 2.951774e-01 2.097497e-01 3.476827e-01 3.664378e-01 3.649507e-01 3.510370e-01 3.973018e-01 5.192712e-01 3.913355e-01 3.376489e-01 5.824565e-01 3.125828e-01 2.965587e-01 3.474000e-01 3.077421e-01 4.165164e-01 4.237301e-01 5.698097e-01 5.574210e-01 4.651308e-01 4.618758e-01 5.070322e-01 3.685633e-01 4.716451e-01 3.444425e-01 4.157714e-01 3.536810e-01 4.985133e-01 4.096632e-01 3.797145e-01 4.517713e-01 4.454888e-01 3.221126e-01 3.889668e-01 2.614453e-01 3.353390e-01 2.488723e-01 2.742170e-01 4.238663e-01 2.780575e-01 3.926271e-01 1.835136e-01 3.862446e-01 5.018215e-01 4.223949e-01 4.588107e-01 4.042746e-01 4.463548e-01 4.070112e-01 4.120970e-01 2.402700e-01 4.344184e-01 3.578208e-01 5.511070e-01 4.339572e-01 4.150658e-01 3.159130e-01 3.789056e-01 3.965463e-01 3.410617e-01 3.601946e-01 3.098772e-01 4.060834e-01 3.667761e-01 4.515717e-01 3.921716e-01 3.171482e-01 4.690688e-01 4.021764e-01 4.544405e-01 4.575728e-01 3.507426e-01 3.697806e-01 4.349166e-01 4.272077e-01 5.026864e-01 4.556593e-01 3.633878e-01 4.037061e-01 3.495634e-01 4.984651e-01 2.951170e-01 3.855001e-01 3.829566e-01 4.167772e-01 4.547077e-01 2.919322e-01 2.995820e-01 2.791872e-01 3.625101e-01 3.516291e-01 4.282411e-01 4.383243e-01 4.211170e-01 2.272802e-01 4.106500e-01 4.466405e-01 4.147283e-01 5.212889e-01 3.854145e-01 2.719912e-01 4.391916e-01 3.633035e-01 3.396652e-01 3.662888e-01 4.566124e-01 4.554361e-01 3.890846e-01 3.371325e-01 2.756108e-01 3.450094e-01 2.732383e-01 3.595516e-01 3.354558e-01 4.627747e-01 3.629131e-01 5.587137e-01 4.793025e-01 5.573385e-01 4.573473e-01 2.521569e-01 4.536562e-01 3.740823e-01 3.810939e-01 2.537690e-01 2.385093e-01 4.915830e-01 4.261760e-01 3.965588e-01 3.086153e-01 4.076018e-01 3.256076e-01 4.196895e-01 4.150467e-01 3.892696e-01 3.203708e-01 3.881092e-01 4.314186e-01 5.072870e-01
<VARIANCE> 142
 3.467836e-02 3.797768e-03 7.913632e-03 5.843115e-03 2.427824e-03 1.550556e-02 7.693938e-03 1.450450e-02 8.704630e-03 6.970854e-03 2.718984e-02 1.171623e-02 4.928724e-03 2.753413e-02 1.359608e-02 1.364439e-02 5.592688e-03 3.567814e-03 2.065269e-02 7.421485e-03 2.669303e-02 1.943074e-02 1.167095e-02 3.800918e-03 1.997306e-02 2.045353e-03 2.469422e-02 3.351341e-03 8.917650e-03 7.314860e-03 4.355886e-03 4.497361e-03 1.490948e-02 8.426709e-03 1.250157e-03 8.625522e-03 1.791158e-02 1.445705e-03 8.302452e-03 3.489741e-03 2.678053e-03 2.983646e-03 2.699503e-03 1.174514e-02 4.220700e-03 2.816463e-03 5.526299e-03 7.517875e-03 8.585552e-03 3.052551e-03 1.382789e-03 3.697476e-03 2.517505e-03 7.694077e-03 1.098814e-02 8.888124e-03 4.581866e-02 1.045985e-02 2.487668e-02 2.389003e-02 1.540302e-02 3.935574e-03 3.909903e-03 2.282473e-03 1.509536e-03 1.021610e-03 3.526540e-03 2.419585e-02 1.114261e-02 1.959841e-03 1.000000e-03 1.262579e-02 4.331520e-03 7.436115e-03 1.729561e-02 4.964176e-03 4.801211e-03 5.269308e-03 9.489065e-03 1.094130e-02 4.160670e-03 4.166877e-03 2.519424e-03 1.072846e-02 1.666832e-03 1.324205e-02 4.775713e-03 2.492494e-03 4.946170e-03 7.818441e-03 1.574744e-02 8.442394e-03 6.912839e-03 9.404807e-03 1.152239e-02 3.186424e-03 1.182822e-03 2.087838e-03 5.415660e-03 1.000000e-03 5.069807e-03 7.080008e-03 4.500804e-03 2.781168e-03 2.491175e-02 3.284645e-03 1.231905e-02 1.000000e-03 1.997114e-02 9.284261e-03 4.681850e-03 1.254316e-02 3.802248e-03 2.198214e-03 1.701760e-03 1.000000e-03 3.428132e-03 4.602919e-03 1.000000e-03 6.575735e-03 1.654086e-03 3.583933e-03 5.164185e-03 1.950058e-02 1.681393e-02 5.126874e-03 8.383389e-03 1.855290e-03 4.920806e-03 1.262009e-02 2.655302e-03 3.825201e-03 3.613257e-02 1.000000e-03 3.405868e-03 6.022580e-03 3.372781e-03 7.338725e-03 3.185485e-03 7.615648e-03 5.044395e-03 5.972118e-03
<GCONST> -4.696476e+02
<STATE> 3
<MEAN> 142
 6.271874e-01 3.719287e-01 3.908786e-01 3.644201e-01 2.563165e-01 2.835837e-01 3.180403e-01 3.279471e-01 2.811166e-01 3.770151e-01 4.925390e-01 3.997864e-01 4.072253e-01 5.384201e-01 2.923211e-01 3.194740e-01 3.822828e-01 3.771235e-01 3.386254e-01 3.846847e-01 5.082037e-01 5.073256e-01 3.793853e-01 4.670100e-01 4.646881e-01 3.814744e-01 3.794198e-01 4.131895e-01 4.181033e-01 3.038251e-01 4.694945e-01 4.849300e-01 4.255858e-01 3.926316e-01 4.619876e-01 3.664200e-01 3.640103e-01 2.665294e-01 3.500224e-01 2.502188e-01 2.566221e-01 4.572191e-01 2.906373e-01 2.964543e-01 1.648095e-01 4.267080e-01 4.641877e-01 3.735171e-01 4.727925e-01 3.137265e-01 4.785890e-01 3.716211e-01 3.609003e-01 2.214134e-01 4.313217e-01 3.446682e-01 3.789279e-01 3.277777e-01 3.118337e-01 2.892803e-01 3.960501e-01 3.630886e-01 3.258863e-01 3.660335e-01 3.416057e-01 4.499111e-01 2.659816e-01 3.507758e-01 3.969646e-01 2.702220e-01 4.555458e-01 3.775076e-01 4.647379e-01 4.298561e-01 3.721179e-01 3.973679e-01 4.651158e-01 5.443045e-01 4.090626e-01 4.343163e-01 4.121668e-01 3.845776e-01 3.068331e-01 4.381236e-01 2.913698e-01 4.827290e-01 3.652148e-01 3.958367e-01 4.073011e-01 3.322627e-01 3.199699e-01 2.492256e-01 4.053774e-01 3.197502e-01 4.723558e-01 4.233266e-01 4.333709e-01 2.497839e-01 4.171995e-01 4.189240e-01 3.902029e-01 4.841668e-01 2.938147e-01 2.895120e-01 3.129119e-01 2.951022e-01 2.965224e-01 3.640400e-01 3.840598e-01 3.961993e-01 3.225582e-01 3.570782e-01 3.542320e-01 3.335027e-01 2.827635e-01 3.378731e-01 3.090310e-01 4.508510e-01 3.974107e-01 4.329418e-01 4.285336e-01 5.497077e-01 4.632042e-01 3.112901e-01 4.014577e-01 4.459228e-01 4.076078e-01 2.840452e-01 3.147640e-01 3.747313e-01 3.584031e-01 4.628695e-01 3.378721e-01 3.843899e-01 4.646074e-01 4.107831e-01 4.471243e-01 4.189665e-01 3.050219e-01 3.741063e-01 4.723647e-01 5.121256e-01
<VARIANCE> 142
 1.423096e-02 1.333254e-03 2.433559e-03 2.815193e-03 1.138894e-02 4.569325e-03 3.242701e-03 2.451595e-03 4.153824e-03 5.170431e-03 4.658331e-03 1.953614e-02 7.341258e-03 5.551439e-03 1.711828e-02 5.654665e-03 5.255571e-03 4.185142e-03 9.352608e-03 9.687315e-03 6.939461e-03 9.174825e-03 1.385044e-02 3.678383e-03 2.253186e-03 3.948527e-03 7.967860e-03 1.347866e-02 2.422267e-03 2.592220e-03 1.928230e-03 1.216287e-03 4.439918e-03 7.658199e-03 1.000000e-03 2.687029e-03 1.129638e-02 1.195407e-03 6.635902e-03 2.639489e-03 9.289092e-03 3.721530e-03 2.228885e-03 9.102670e-03 6.021820e-03 2.334423e-03 1.000000e-03 3.800180e-03 1.265824e-02 1.732174e-03 1.535449e-03 7.022110e-03 2.478409e-03 1.828896e-03 6.690870e-03 2.210433e-03 2.360388e-02 5.314842e-03 5.785732e-03 1.023153e-02 8.287587e-03 6.958026e-03 1.782464e-03 3.002557e-03 1.138230e-02 3.217317e-03 3.135978e-03 9.169506e-03 2.603593e-03 1.000000e-03 1.000000e-03 6.317680e-03 8.989118e-03 1.485525e-02 1.854258e-02 8.663083e-03 4.101889e-03 8.168492e-03 3.379228e-03 3.925598e-03 1.410205e-02 6.527280e-03 1.130689e-03 9.529318e-03 4.444591e-03 4.354683e-03 4.488645e-03 1.567457e-03 4.727096e-03 1.612709e-03 1.086239e-02 3.509581e-03 1.126485e-02 7.130314e-03 3.418254e-03 3.822528e-03 3.443922e-03 1.844025e-03 1.023738e-02 4.549257e-03 3.423740e-03 9.192001e-03 3.419051e-03 9.330020e-03 5.612179e-03 9.270798e-03 7.677190e-03 3.548177e-03 8.776486e-03 2.116420e-03 6.313979e-03 1.061456e-02 2.628010e-03 2.054391e-03 1.000000e-03 2.634841e-03 3.011055e-03 1.000000e-03 4.614751e-03 1.318409e-02 5.076224e-03 7.994423e-03 8.655058e-03 2.351316e-03 7.453338e-03 1.175821e-03 1.933261e-03 3.042874e-03 1.318878e-02 8.943509e-03 5.270385e-03 1.698329e-03 1.707403e-02 4.938564e-03 2.091994e-02 1.422297e-03 2.181923e-03 1.511806e-02 7.353174e-03 5.844680e-03 1.000000e-03 6.940689e-03
<GCONST> -5.033459e+02
<TRANSP> 4
 0.000000e+00 1.000000e+00 0.000000e+00 0.000000e+00
 0.000000e+00 5.000000e-01 5.000000e-01 0.000000e+00
 0.000000e+00 0.000000e+00 5.000000e-01 5.000000e-01
 0.000000e+00 0.000000e+00 0.000000e+00 0.000000e+00
<ENDHMM>
