~o
<STREAMINFO> 1 142
<VECSIZE> 142<NULLD><USER><DIAGC>
~h "committee"
<BEGINHMM>
<NUMSTATES> 4
<STATE> 2
<MEAN> 142
 8.382584e-01 3.794357e-01 3.984485e-01 3.253345e-01 2.341499e-01 3.532946e-01 3.959683e-01 3.561669e-01 3.034383e-01 3.892791e-01 4.161963e-01 4.620566e-01 3.843033e-01 4.163839e-01 2.740665e-01 3.003698e-01 3.739966e-01 4.157869e-01 2.842047e-01 4.155175e-01 4.804339e-01 4.918504e-01 4.071863e-01 4.351501e-01 4.125413e-01 3.875933e-01 4.022764e-01 3.764569e-01 4.032201e-01 3.221620e-01 4.368941e-01 5.024132e-01 5.245493e-01 4.106771e-01 4.283085e-01 4.042609e-01 2.791466e-01 3.019816e-01 3.146787e-01 2.351212e-01 3.121565e-01 4.085664e-01 2.650267e-01 4.135167e-01 2.105650e-01 4.443487e-01 4.458835e-01 3.956567e-01 4.198795e-01 3.139367e-01 4.708083e-01 4.205854e-01 4.260044e-01 1.959334e-01 5.245067e-01 3.367996e-01 4.382085e-01 3.570500e-01 3.397980e-01 2.567977e-01 4.728121e-01 4.911174e-01 3.769273e-01 4.162348e-01 3.645532e-01 4.728557e-01 3.432320e-01 3.616729e-01 4.619004e-01 3.410195e-01 4.839369e-01 5.034077e-01 4.398290e-01 4.230782e-01 4.229679e-01 3.728360e-01 5.177007e-01 5.016441e-01 4.276212e-01 4.101144e-01 3.938809e-01 3.867774e-01 3.967949e-01 4.792219e-01 2.590689e-01 4.847389e-01 3.947413e-01 4.497661e-01 4.627818e-01 3.940304e-01 3.977747e-01 3.880326e-01 4.255265e-01 3.520056e-01 4.151374e-01 4.968618e-01 4.301581e-01 3.492478e-01 3.858778e-01 4.141102e-01 3.776559e-01 5.238038e-01 3.709625e-01 3.034370e-01 2.865252e-01 2.878528e-01 3.900996e-01 3.110026e-01 3.782574e-01 3.442258e-01 4.304855e-01 4.022419e-01 3.264708e-01 3.352948e-01 3.937086e-01 4.131912e-01 3.908391e-01 4.105649e-01 4.473904e-01 4.139499e-01 4.402818e-01 5.621377e-01 5.205015e-01 4.586164e-01 4.292982e-01 4.573593e-01 3.965259e-01 3.408199e-01 3.289065e-01 4.230589e-01 4.116133e-01 4.490525e-01 4.564513e-01 4.185924e-01 3.827845e-01 3.998255e-01 4.649407e-01 3.952457e-01 2.803003e-01 4.185371e-01 5.255015e-01 4.971393e-01
<VARIANCE> 142
 4.250594e-02 1.806702e-03 1.574442e-03 1.919408e-03 8.012276e-03 1.491648e-02 8.992728e-03 4.767293e-03 2.444011e-03 5.258456e-03 5.788516e-03 1.142045e-03 3.282285e-03 2.230966e-03 1.804024e-02 2.395910e-03 3.500049e-03 7.577898e-03 6.413438e-03 1.433750e-02 2.177565e-03 7.602242e-03 1.434881e-02 6.488189e-03 2.463178e-03 5.788534e-03 2.449047e-03 1.861602e-03 1.551292e-02 1.310545e-02 1.000000e-03 2.721946e-03 1.285055e-02 6.573498e-03 5.199523e-03 4.076297e-03 4.579626e-03 7.891618e-03 2.022578e-02 3.204309e-03 1.445723e-02 4.328459e-03 4.031555e-03 2.030750e-02 2.170555e-03 1.873708e-03 2.373478e-03 3.423238e-03 1.460550e-02 1.179166e-03 2.520324e-03 2.908747e-03 2.505034e-03 3.335391e-03 3.169792e-03 8.989347e-03 9.727316e-03 4.248893e-03 3.939589e-03 1.783644e-03 1.193284e-02 1.190329e-03 2.189190e-03 1.000000e-03 2.910637e-03 5.469424e-03 1.125669e-02 1.050883e-03 7.069651e-03 7.182145e-03 6.532344e-03 2.201576e-02 9.183607e-03 3.494928e-03 1.438128e-02 8.990314e-03 3.711920e-03 9.195917e-03 1.000000e-03 2.144131e-03 5.369265e-03 5.620845e-03 1.027063e-02 3.317643e-03 3.619547e-03 1.100580e-02 2.679793e-03 1.495516e-03 3.763159e-03 6.835154e-03 2.074960e-03 1.714132e-02 1.023069e-02 2.583934e-03 6.511221e-03 1.953143e-03 6.864114e-03 6.277963e-03 1.180355e-02 1.804632e-03 6.497537e-03 1.186878e-03 3.225517e-03 9.182711e-03 1.786828e-03 1.636878e-03 2.726674e-03 9.729488e-03 4.068873e-03 3.016546e-03 1.076317e-03 3.556601e-03 1.000000e-03 1.002572e-02 2.982102e-03 4.577337e-03 4.625404e-03 3.502394e-03 2.302059e-03 3.184848e-03 3.270278e-03 2.410829e-03 3.739236e-03 1.325308e-02 5.757493e-03 2.378475e-03 3.632343e-03 7.913492e-03 2.810627e-03 4.019691e-03 1.264322e-03 1.589127e-02 1.706921e-02 6.998835e-03 2.410246e-02 9.260128e-03 8.512353e-03 1.488780e-02 5.436949e-03 1.798880e-02 1.000000e-03 6.007327e-03
<GCONST> -5.030655e+02
<STATE> 3
<MEAN> 142
 6.040445e-01 3.699635e-01 3.736744e-01 3.603655e-01 3.426794e-01 3.111534e-01 3.326113e-01 2.711592e-01 3.816505e-01 4.083114e-01 4.740627e-01 5.285015e-01 4.395155e-01 5.230882e-01 3.070680e-01 2.453931e-01 3.397091e-01 3.900390e-01 2.987967e-01 3.969796e-01 3.623789e-01 3.266278e-01 3.186294e-01 4.062957e-01 4.567505e-01 3.711025e-01 3.947927e-01 4.066314e-01 4.340179e-01 4.055685e-01 4.476925e-01 3.959166e-01 3.478249e-01 3.745045e-01 4.393102e-01 3.205419e-01 3.339587e-01 4.132445e-01 3.656460e-01 2.810315e-01 4.510457e-01 4.349109e-01 3.911867e-01 2.812362e-01 2.193055e-01 3.692891e-01 4.296781e-01 3.812259e-01 3.229838e-01 3.214141e-01 5.152246e-01 4.312874e-01 4.445447e-01 3.018228e-01 4.628211e-01 3.639302e-01 4.311456e-01 3.103145e-01 3.531827e-01 2.484846e-01 4.460965e-01 4.387088e-01 3.956308e-01 4.297502e-01 4.904687e-01 3.767885e-01 3.942674e-01 3.633991e-01 4.094748e-01 4.653048e-01 4.512306e-01 4.010088e-01 3.650721e-01 4.176499e-01 3.192905e-01 4.119856e-01 4.736672e-01 4.917997e-01 4.542308e-01 3.611549e-01 5.390581e-01 3.645982e-01 3.659116e-01 4.244210e-01 2.986957e-01 3.413623e-01 4.416358e-01 5.087679e-01 4.111001e-01 3.069704e-01 3.763778e-01 3.153584e-01 5.149657e-01 4.257381e-01 4.519061e-01 5.219321e-01 4.957666e-01 5.096484e-01 4.515733e-01 4.025509e-01 4.503089e-01 4.179620e-01 4.154375e-01 3.808637e-01 2.715555e-01 2.812201e-01 4.012569e-01 4.268300e-01 4.595234e-01 2.912197e-01 4.465535e-01 4.247839e-01 2.990553e-01 3.897615e-01 3.629738e-01 5.001279e-01 3.471123e-01 4.232517e-01 4.987257e-01 3.433346e-01 4.312090e-01 4.322081e-01 4.206987e-01 4.084631e-01 3.659260e-01 4.132986e-01 4.792134e-01 5.869098e-01 5.158938e-01 3.461847e-01 3.467068e-01 4.919846e-01 4.925435e-01 4.921175e-01 4.727896e-01 4.677990e-01 3.320090e-01 3.919166e-01 3.097647e-01 2.909748e-01 4.764896e-01 4.366239e-01
<VARIANCE> 142
 2.563670e-02 6.848626e-03 1.000000e-03 2.488862e-03 9.070793e-03 1.976456e-02 2.877538e-03 3.750982e-03 1.007596e-02 6.060002e-03 9.400012e-03 5.946490e-03 1.391433e-02 2.529480e-02 6.288284e-03 3.060204e-03 5.881475e-03 1.943132e-02 3.097288e-03 2.450977e-02 3.588571e-03 2.320095e-02 6.597006e-03 1.188940e-02 1.943557e-03 1.831360e-02 4.128310e-03 1.066351e-02 1.133753e-02 9.434448e-03 1.000000e-03 4.550600e-03 9.319215e-03 1.676545e-03 3.172956e-03 6.451507e-03 2.760534e-03 4.883378e-03 1.296721e-02 3.482763e-03 1.093136e-02 8.031053e-03 5.019448e-03 9.557234e-03 7.468747e-03 5.200814e-03 8.192453e-03 2.006234e-03 9.412582e-03 4.677101e-03 2.986416e-03 8.097176e-03 3.590491e-03 8.768931e-03 3.712865e-03 3.096246e-03 3.325556e-03 3.233324e-03 1.280363e-03 2.791162e-03 1.764380e-02 1.409055e-03 2.268528e-03 3.436035e-03 3.434746e-02 9.306284e-03 2.072483e-02 2.730831e-03 2.119129e-03 4.916941e-03 1.281854e-02 1.872874e-02 5.066521e-03 6.506324e-03 2.355563e-02 2.115783e-02 6.349084e-03 3.374057e-02 1.698227e-03 1.138625e-02 1.784788e-02 1.464097e-02 3.621065e-03 3.231923e-03 6.903376e-03 7.400265e-03 1.868071e-02 1.274498e-02 3.171644e-03 3.677615e-03 1.000000e-03 1.596037e-02 3.086195e-02 1.877609e-02 1.676107e-02 1.556946e-02 4.844485e-03 3.739043e-02 6.949614e-03 3.444937e-03 3.924741e-03 6.923857e-03 9.569610e-03 5.805889e-03 1.974095e-03 2.229134e-03 2.921494e-03 8.116208e-03 1.925070e-02 2.385041e-03 3.416979e-03 2.989182e-03 1.053454e-03 2.201337e-02 1.636328e-03 2.290469e-02 2.560122e-03 1.151140e-02 1.148214e-03 7.127929e-03 7.675412e-03 4.721704e-03 9.392343e-03 2.282296e-02 3.918064e-03 1.505970e-03 6.066280e-03 4.707406e-02 1.223922e-02 6.126418e-03 1.146991e-02 6.325314e-03 4.321631e-02 2.339188e-02 2.589866e-02 9.481642e-03 8.090037e-03 9.077732e-03 4.080885e-03 1.256555e-02 1.293575e-02 2.180601e-03
<GCONST> -4.511817e+02
<TRANSP> 4
 0.000000e+00 1.000000e+00 0.000000e+00 0.000000e+00
 0.000000e+00 5.000000e-01 5.000000e-01 0.000000e+00
 0.000000e+00 0.000000e+00 5.000000e-01 5.000000e-01
 0.000000e+00 0.000000e+00 0.000000e+00 0.000000e+00
<ENDHMM>
