~o
<STREAMINFO> 1 142
<VECSIZE> 142<NULLD><USER><DIAGC>
~h "create"
<BEGINHMM>
<NUMSTATES> 4
<STATE> 2
<MEAN> 142
 5.387453e-01 4.515960e-01 3.787439e-01 3.835886e-01 3.866074e-01 2.944720e-01 3.498681e-01 3.342051e-01 3.159508e-01 4.500559e-01 4.394521e-01 3.749110e-01 3.300364e-01 4.667120e-01 3.984025e-01 3.543127e-01 4.152936e-01 3.970050e-01 2.650836e-01 2.951216e-01 4.730783e-01 5.250748e-01 2.934018e-01 5.247445e-01 4.946457e-01 3.257054e-01 4.033995e-01 4.037476e-01 4.687256e-01 3.716503e-01 4.281293e-01 4.454783e-01 3.711087e-01 4.844261e-01 4.383610e-01 4.283782e-01 4.415002e-01 3.713956e-01 5.023203e-01 3.790193e-01 4.077423e-01 5.625976e-01 3.362079e-01 3.071806e-01 1.845299e-01 4.066435e-01 4.845804e-01 4.495048e-01 4.831103e-01 2.904979e-01 4.673905e-01 3.862668e-01 3.914640e-01 2.533211e-01 4.495951e-01 4.114892e-01 4.085807e-01 2.959635e-01 3.340909e-01 3.105278e-01 3.418307e-01 4.530258e-01 4.229320e-01 3.771871e-01 3.804860e-01 4.638152e-01 4.026645e-01 4.012199e-01 4.286735e-01 4.301167e-01 4.401610e-01 3.032961e-01 4.635150e-01 3.788005e-01 3.017032e-01 3.186652e-01 4.716552e-01 4.971185e-01 4.581372e-01 4.512163e-01 4.865661e-01 4.511630e-01 4.244521e-01 4.293094e-01 3.040510e-01 4.091424e-01 3.386154e-01 4.296815e-01 4.554826e-01 3.024681e-01 3.198824e-01 2.820692e-01 4.375869e-01 3.294781e-01 5.081029e-01 4.307459e-01 4.908436e-01 3.180112e-01 6.051861e-01 3.922771e-01 4.345527e-01 5.272927e-01 3.057920e-01 3.995214e-01 3.666648e-01 3.429319e-01 3.796107e-01 4.367908e-01 3.876849e-01 3.798010e-01 3.438409e-01 3.321525e-01 3.330365e-01 4.845880e-01 3.693770e-01 3.674107e-01 3.440223e-01 4.934763e-01 4.108926e-01 4.244059e-01 4.883345e-01 5.120242e-01 4.600510e-01 3.351522e-01 3.730292e-01 4.026547e-01 4.280037e-01 4.031547e-01 3.554643e-01 3.718307e-01 4.235129e-01 4.770729e-01 3.047672e-01 3.653666e-01 4.606228e-01 5.178696e-01 3.650852e-01 4.775104e-01 4.137259e-01 4.722554e-01 4.998240e-01 4.217529e-01
<VARIANCE> 142
 1.650167e-02 1.205057e-02 1.915171e-02 5.069743e-03 1.333211e-02 3.186854e-02 9.712974e-03 1.249775e-02 6.893544e-03 8.667377e-03 5.118487e-03 1.340194e-02 1.413377e-02 1.020413e-02 1.047499e-02 1.288481e-02 9.385440e-03 1.465485e-02 1.654937e-02 1.046031e-02 1.646177e-02 6.773262e-03 1.309307e-02 6.240454e-03 4.097075e-03 6.312974e-03 1.377166e-02 1.317110e-02 6.088578e-03 6.933382e-03 3.145106e-03 3.835104e-03 1.518691e-02 9.373407e-03 1.000000e-03 1.799910e-02 2.658921e-03 1.966926e-02 2.214484e-02 5.130086e-02 1.263481e-02 2.044292e-02 7.939604e-03 1.475506e-02 8.449195e-03 7.779453e-03 6.272383e-03 1.903959e-02 9.209796e-03 4.704859e-03 2.805742e-03 1.168440e-02 8.832586e-03 2.251979e-03 1.263820e-02 2.266674e-02 2.924716e-02 1.478602e-02 9.538362e-03 8.329870e-03 7.862194e-03 5.656949e-03 9.149493e-03 1.182082e-03 6.998804e-03 8.084767e-03 1.592057e-02 2.090042e-02 6.967804e-03 8.249229e-03 1.500265e-03 1.224249e-02 9.201602e-03 6.642502e-03 1.579193e-02 1.424148e-02 3.618985e-03 2.098495e-02 9.084716e-03 1.228489e-02 9.651365e-03 4.867382e-03 1.866383e-02 1.268740e-02 6.344293e-03 1.500234e-02 1.403573e-03 4.599012e-03 3.504921e-03 6.642496e-03 1.884212e-02 1.289822e-02 9.539628e-03 1.134092e-02 6.619027e-03 3.758775e-03 6.671788e-03 7.835637e-03 2.143270e-02 4.829598e-03 4.065237e-03 8.203006e-03 1.033940e-02 1.055517e-02 6.631318e-03 1.263257e-02 5.071469e-03 4.871571e-03 1.147311e-02 1.740764e-02 3.243324e-03 2.366856e-02 8.712597e-03 1.466746e-02 6.642904e-03 5.252905e-03 2.162291e-02 1.951188e-03 9.187049e-03 1.452689e-02 3.362851e-03 7.679369e-03 4.336924e-03 1.407729e-02 1.941204e-02 1.077219e-02 2.222245e-02 1.867252e-02 1.764856e-02 1.139921e-02 8.451599e-03 9.347248e-03 1.507881e-02 3.691792e-03 1.339173e-02 5.264234e-03 1.404191e-02 8.632932e-03 3.188658e-02 1.043598e-02 1.144859e-02 1.189366e-02
<GCONST> -4.055099e+02
<STATE> 3
<MEAN> 142
 6.551794e-01 3.846742e-01 3.611187e-01 3.534272e-01 2.748220e-01 2.815568e-01 3.719425e-01 3.887181e-01 3.419650e-01 4.034197e-01 3.745444e-01 4.243754e-01 3.480481e-01 4.057654e-01 3.469229e-01 3.468583e-01 4.465223e-01 4.000125e-01 2.193453e-01 3.482257e-01 4.641519e-01 4.756747e-01 3.275362e-01 4.517914e-01 4.072131e-01 3.955392e-01 3.611961e-01 3.870563e-01 4.208114e-01 3.465055e-01 4.499227e-01 5.117028e-01 5.073920e-01 4.534331e-01 4.231760e-01 4.172531e-01 3.593934e-01 2.627150e-01 3.505627e-01 3.412591e-01 3.260104e-01 4.229352e-01 2.748684e-01 3.593452e-01 1.977237e-01 4.388028e-01 4.459667e-01 4.176226e-01 4.231740e-01 2.729460e-01 4.206420e-01 3.699165e-01 4.135292e-01 2.283774e-01 4.627308e-01 3.594943e-01 3.358237e-01 2.974629e-01 3.008104e-01 2.508582e-01 4.273465e-01 5.205069e-01 4.054268e-01 4.352179e-01 3.955696e-01 4.508860e-01 2.889388e-01 3.378009e-01 4.469224e-01 3.468387e-01 4.530639e-01 4.280079e-01 4.612821e-01 3.712117e-01 2.896970e-01 3.338827e-01 5.035447e-01 4.885246e-01 4.037631e-01 4.045762e-01 3.967369e-01 4.078188e-01 3.681151e-01 3.988000e-01 3.349040e-01 4.635099e-01 4.064953e-01 3.909728e-01 4.306805e-01 3.978962e-01 3.239158e-01 3.473325e-01 3.993529e-01 3.200127e-01 4.363141e-01 4.413416e-01 4.555075e-01 2.720445e-01 4.394786e-01 4.233864e-01 3.709172e-01 5.088911e-01 3.626027e-01 3.001856e-01 3.066071e-01 2.666419e-01 3.426779e-01 3.317743e-01 3.514417e-01 3.318262e-01 3.661962e-01 3.557445e-01 3.380755e-01 3.436160e-01 4.251673e-01 3.824651e-01 3.518444e-01 4.063653e-01 4.116935e-01 3.878883e-01 4.220048e-01 5.192713e-01 4.621909e-01 3.777808e-01 4.061718e-01 4.372295e-01 3.800907e-01 2.906986e-01 3.048040e-01 3.909941e-01 4.103169e-01 4.357359e-01 3.343060e-01 3.888804e-01 4.189942e-01 3.934140e-01 4.552246e-01 4.427015e-01 3.649555e-01 4.694164e-01 5.167295e-01 4.712043e-01
<VARIANCE> 142
 5.743295e-02 5.747486e-03 5.641075e-03 8.074747e-03 5.611646e-03 1.933081e-02 9.769241e-03 4.747649e-03 1.709709e-03 4.070272e-03 6.323434e-03 3.921587e-03 6.417517e-03 8.256755e-03 2.378229e-02 1.217784e-02 2.311780e-03 1.005135e-02 8.318312e-03 1.793062e-02 2.897096e-03 2.438262e-03 1.309968e-02 9.471731e-03 1.311429e-03 2.962721e-03 1.920260e-03 3.162761e-03 1.055912e-02 1.156467e-02 1.000000e-03 1.272913e-02 1.435081e-02 8.042060e-03 1.800602e-03 2.460068e-02 1.115209e-02 8.819317e-03 1.646026e-02 1.247755e-02 1.740532e-02 7.893628e-03 6.393431e-03 1.671204e-02 3.166440e-03 2.548975e-03 1.804038e-03 7.262597e-03 1.433509e-02 6.176803e-03 3.810286e-03 7.138495e-03 1.938394e-03 1.781342e-03 5.481449e-03 1.370561e-02 2.371037e-02 5.968379e-03 1.201597e-02 3.607170e-03 1.396185e-02 2.284404e-02 7.091356e-03 8.329276e-03 5.739782e-03 4.370559e-03 1.682921e-02 2.811030e-03 9.758286e-03 9.176335e-03 6.858017e-03 2.437386e-02 2.728111e-03 9.044750e-03 1.210013e-02 3.127638e-03 3.622604e-03 7.302557e-03 1.971585e-03 1.693621e-03 8.767883e-03 1.262098e-02 1.606671e-02 8.961175e-03 4.315630e-03 1.380660e-02 6.108614e-03 2.907038e-03 6.092352e-03 3.446534e-03 5.074052e-03 1.325049e-02 7.820276e-03 3.101573e-03 7.204973e-03 2.642706e-03 1.074458e-02 5.866617e-03 9.699033e-03 2.008018e-03 5.051312e-03 3.867219e-03 2.622676e-03 1.353868e-02 2.944689e-03 3.732668e-03 7.828717e-03 6.053747e-03 2.775067e-03 5.249585e-03 2.865845e-03 1.240265e-02 4.901220e-03 1.402232e-02 9.008581e-03 2.428942e-03 8.685996e-03 3.210420e-03 6.378805e-03 2.638604e-03 4.385900e-03 4.347071e-03 6.981850e-03 1.472929e-02 2.276982e-02 2.497911e-03 1.140262e-02 1.117064e-02 4.463784e-03 1.126508e-02 3.941133e-03 2.669925e-02 2.799543e-02 4.290966e-03 3.010177e-02 1.317686e-02 1.118398e-02 2.527090e-02 1.110127e-02 1.447357e-02 1.064934e-02 1.655132e-02
<GCONST> -4.475584e+02
<TRANSP> 4
 0.000000e+00 1.000000e+00 0.000000e+00 0.000000e+00
 0.000000e+00 5.000000e-01 5.000000e-01 0.000000e+00
 0.000000e+00 0.000000e+00 5.000000e-01 5.000000e-01
 0.000000e+00 0.000000e+00 0.000000e+00 0.000000e+00
<ENDHMM>
