~o
<STREAMINFO> 1 142
<VECSIZE> 142<NULLD><USER><DIAGC>
~h "dizzy"
<BEGINHMM>
<NUMSTATES> 4
<STATE> 2
<MEAN> 142
 5.593004e-01 3.423176e-01 3.335701e-01 3.204961e-01 3.088003e-01 3.019581e-01 3.249317e-01 3.561026e-01 3.934285e-01 5.019896e-01 4.285671e-01 4.179255e-01 3.912727e-01 4.525022e-01 3.659631e-01 3.420523e-01 4.283548e-01 3.585689e-01 2.963931e-01 3.561470e-01 4.165068e-01 4.314730e-01 3.847572e-01 4.564183e-01 4.688241e-01 4.189409e-01 3.829526e-01 3.675281e-01 4.404944e-01 4.531123e-01 4.759570e-01 3.649983e-01 3.313850e-01 5.025248e-01 4.648046e-01 3.729759e-01 3.636912e-01 3.923573e-01 4.114681e-01 3.721443e-01 3.968990e-01 4.987023e-01 3.621365e-01 3.397927e-01 2.229885e-01 3.642916e-01 3.805881e-01 4.350444e-01 4.054954e-01 3.252558e-01 4.673668e-01 4.546138e-01 4.825892e-01 3.150309e-01 3.669263e-01 3.593090e-01 3.872429e-01 3.111914e-01 3.442432e-01 2.915121e-01 3.960021e-01 4.738085e-01 4.120121e-01 4.355971e-01 4.245060e-01 3.829223e-01 4.412819e-01 3.910354e-01 3.375031e-01 4.666762e-01 4.297042e-01 3.833095e-01 3.785548e-01 3.967112e-01 2.829953e-01 3.728692e-01 3.890473e-01 3.536113e-01 5.306963e-01 4.127872e-01 4.460060e-01 3.443528e-01 3.988314e-01 3.872126e-01 3.262603e-01 3.288673e-01 4.022534e-01 4.217505e-01 4.377035e-01 3.321950e-01 3.810024e-01 2.988059e-01 3.894569e-01 3.377755e-01 4.212502e-01 4.582588e-01 4.161353e-01 3.389157e-01 5.217896e-01 4.579940e-01 4.185394e-01 4.445325e-01 3.579499e-01 4.070392e-01 3.155403e-01 3.402535e-01 3.988234e-01 4.437020e-01 3.745374e-01 3.725956e-01 4.134968e-01 3.435445e-01 3.023714e-01 3.941110e-01 3.771356e-01 4.142605e-01 3.546494e-01 4.211481e-01 4.064413e-01 3.630757e-01 3.869384e-01 4.006322e-01 4.019465e-01 3.500272e-01 3.841773e-01 3.630319e-01 4.172768e-01 4.120436e-01 4.418875e-01 4.094503e-01 3.538142e-01 3.592760e-01 3.653612e-01 4.361720e-01 3.675443e-01 4.090579e-01 3.667472e-01 3.768474e-01 3.954325e-01 3.624416e-01 4.820862e-01 3.574139e-01
<VARIANCE> 142
 1.340384e-02 6.677467e-03 8.303207e-03 5.347654e-03 1.484935e-02 1.726097e-02 5.489701e-03 2.670737e-02 4.761044e-03 8.819662e-03 5.475339e-03 1.576148e-02 2.841339e-02 1.252617e-02 1.904089e-02 1.473655e-02 3.487766e-03 1.249227e-02 8.760651e-03 1.130397e-02 9.574089e-03 2.856102e-02 3.007348e-03 8.338628e-03 4.890696e-03 2.028706e-02 3.202028e-03 2.425476e-02 1.496469e-02 2.268560e-02 3.620406e-03 1.514602e-02 1.386806e-02 1.832343e-02 4.073567e-03 8.723608e-03 1.131033e-02 2.964172e-02 1.327537e-02 7.518325e-03 1.433318e-02 1.720577e-02 1.261873e-02 8.104919e-03 1.059837e-02 9.518581e-03 7.905457e-03 2.466684e-02 9.818249e-03 8.690481e-03 3.307308e-03 2.464605e-02 1.386631e-02 3.558020e-03 6.140204e-03 6.484066e-03 4.238114e-03 4.820794e-03 7.216248e-03 7.798195e-03 1.610543e-02 1.980981e-02 4.883063e-03 1.061655e-02 1.343162e-02 8.051614e-03 3.682861e-02 8.175820e-03 6.431298e-03 1.578118e-02 2.133118e-03 1.985798e-02 6.964467e-03 5.798291e-03 1.800415e-02 1.669680e-02 5.644884e-03 2.059245e-02 1.174415e-02 1.964825e-02 8.157169e-03 8.454803e-03 1.524889e-02 1.002008e-02 5.128224e-03 1.743066e-02 5.260431e-03 4.335933e-03 2.748922e-03 1.591103e-02 2.526887e-02 2.567030e-02 1.351475e-02 2.998557e-02 5.821025e-03 8.521113e-03 2.909230e-03 2.165917e-02 1.989772e-02 3.981180e-03 1.240993e-02 8.761054e-03 6.610285e-03 7.288202e-03 6.384220e-03 8.068270e-03 1.940835e-02 1.177663e-02 9.739362e-03 1.635862e-02 9.245607e-03 2.430688e-02 5.987936e-03 1.379636e-02 1.345642e-02 2.248580e-02 2.002269e-02 2.132635e-02 8.870479e-03 3.705069e-03 7.166808e-03 1.092881e-02 9.851811e-03 5.486742e-02 3.934419e-03 8.015588e-03 1.710428e-02 1.118756e-02 2.270425e-02 5.331672e-03 7.146989e-03 7.995080e-03 2.366530e-02 1.230904e-02 1.024688e-02 1.942995e-02 8.575613e-03 7.582125e-03 1.221925e-02 1.202303e-02 1.214300e-02 6.346625e-03
<GCONST> -3.879749e+02
<STATE> 3
<MEAN> 142
 6.719054e-01 4.307966e-01 3.742219e-01 3.527983e-01 3.163907e-01 3.314544e-01 3.735159e-01 3.683514e-01 3.296226e-01 4.085683e-01 4.106264e-01 4.759321e-01 3.750002e-01 4.362390e-01 3.596997e-01 3.705739e-01 4.385661e-01 4.586637e-01 2.643263e-01 3.478711e-01 4.303998e-01 4.426731e-01 3.635478e-01 4.638059e-01 4.361484e-01 3.853969e-01 3.862943e-01 4.657525e-01 4.337704e-01 4.029657e-01 4.714534e-01 4.311398e-01 4.946241e-01 3.979375e-01 4.288863e-01 4.167568e-01 3.454582e-01 3.260939e-01 3.558636e-01 3.491507e-01 3.533752e-01 4.610546e-01 3.176488e-01 3.522947e-01 2.684529e-01 4.550571e-01 4.442002e-01 3.706844e-01 4.120172e-01 3.406711e-01 4.820573e-01 3.885862e-01 4.117533e-01 2.740551e-01 5.011354e-01 3.945575e-01 3.847703e-01 3.107065e-01 3.441842e-01 3.035904e-01 4.521537e-01 4.803986e-01 4.188222e-01 3.971933e-01 3.900162e-01 4.902918e-01 3.306517e-01 3.462190e-01 4.491694e-01 3.638463e-01 4.557426e-01 4.653161e-01 4.686230e-01 4.109645e-01 3.472723e-01 3.689394e-01 5.044468e-01 5.081517e-01 4.084080e-01 3.962454e-01 4.516998e-01 4.065241e-01 4.023436e-01 4.399434e-01 3.367228e-01 4.754849e-01 3.904871e-01 4.357425e-01 4.247012e-01 4.222880e-01 4.313630e-01 3.864574e-01 4.560410e-01 4.132503e-01 4.544894e-01 4.570020e-01 4.566565e-01 3.532067e-01 4.410124e-01 4.142290e-01 3.819647e-01 4.998934e-01 3.760322e-01 3.524058e-01 3.044649e-01 2.843018e-01 3.882445e-01 3.625262e-01 3.535012e-01 3.583219e-01 4.219684e-01 4.110212e-01 3.804274e-01 3.517585e-01 3.849787e-01 4.098501e-01 3.946053e-01 4.151074e-01 4.721468e-01 4.065910e-01 4.245371e-01 4.996023e-01 4.599270e-01 4.557923e-01 3.826034e-01 4.733286e-01 4.849461e-01 3.701451e-01 3.766931e-01 3.756014e-01 4.172561e-01 4.727315e-01 4.109938e-01 3.822624e-01 4.285523e-01 4.183387e-01 4.591502e-01 4.401748e-01 3.870662e-01 3.795490e-01 5.090659e-01 4.859508e-01
<VARIANCE> 142
 4.583095e-02 9.174629e-03 1.953807e-02 7.973413e-03 2.151117e-02 5.025562e-03 8.961961e-03 6.679079e-03 1.035916e-02 8.596455e-03 3.717454e-03 7.224265e-03 4.763681e-03 4.697098e-03 3.639210e-02 1.074313e-02 1.500073e-02 1.976503e-02 7.805307e-03 1.473636e-02 5.866073e-03 1.068139e-02 1.097726e-02 8.915320e-03 1.955351e-03 4.243922e-03 3.897233e-03 1.114329e-02 1.398967e-02 1.765471e-02 1.087260e-02 8.648410e-03 1.863004e-02 6.926846e-03 1.401621e-03 9.632983e-03 1.170892e-02 1.923959e-02 1.536551e-02 2.697854e-02 1.158298e-02 1.800319e-02 1.119973e-02 1.869352e-02 1.493382e-02 1.161635e-02 9.660650e-03 1.198148e-02 6.239376e-03 7.219736e-03 2.052869e-03 1.292814e-02 1.040291e-02 8.865741e-03 1.155696e-02 2.102862e-02 1.620478e-02 7.570006e-03 8.586559e-03 9.937955e-03 9.796860e-03 4.339781e-03 5.322499e-03 2.598851e-03 4.429291e-03 1.791170e-02 1.719766e-02 4.056802e-03 1.126732e-02 1.244949e-02 3.019942e-03 2.222223e-02 1.255922e-02 4.943047e-03 1.801773e-02 4.356295e-03 1.205027e-02 2.049899e-02 7.759919e-03 1.171935e-02 1.398859e-02 9.871330e-03 3.579504e-02 8.117653e-03 1.292885e-02 8.492952e-03 3.112419e-03 2.732373e-03 2.823862e-03 1.114714e-02 9.968579e-03 8.920482e-03 1.722646e-02 1.073952e-02 1.089408e-02 2.697817e-03 6.661547e-03 1.009747e-02 1.032285e-02 6.771435e-03 6.119933e-03 9.623518e-03 6.698590e-03 1.273183e-02 2.242359e-03 1.262189e-02 1.185040e-02 1.158097e-02 2.237182e-03 4.772574e-03 3.695891e-03 1.768730e-02 3.875009e-02 7.148393e-03 3.793578e-03 5.213967e-03 1.442051e-02 7.791633e-03 7.586390e-03 7.024130e-03 7.829206e-03 1.058693e-02 1.232685e-02 3.261255e-02 5.047512e-03 6.211200e-03 2.251242e-02 1.048556e-02 7.238797e-03 6.553666e-03 1.076136e-02 9.141072e-03 1.818342e-02 4.283419e-03 1.692388e-02 9.836503e-03 4.772971e-03 2.104402e-02 2.063979e-02 4.856098e-03 5.650789e-03 6.709936e-03
<GCONST> -4.064197e+02
<TRANSP> 4
 0.000000e+00 1.000000e+00 0.000000e+00 0.000000e+00
 0.000000e+00 5.000000e-01 5.000000e-01 0.000000e+00
 0.000000e+00 0.000000e+00 5.000000e-01 5.000000e-01
 0.000000e+00 0.000000e+00 0.000000e+00 0.000000e+00
<ENDHMM>
