~o
<STREAMINFO> 1 142
<VECSIZE> 142<NULLD><USER><DIAGC>
~h "emergency"
<BEGINHMM>
<NUMSTATES> 4
<STATE> 2
<MEAN> 142
 6.937625e-01 4.141767e-01 4.697058e-01 3.335002e-01 3.829987e-01 4.172045e-01 5.639355e-01 4.251943e-01 3.568867e-01 3.328363e-01 4.573525e-01 4.559127e-01 4.046341e-01 4.849116e-01 3.272449e-01 3.992845e-01 4.599599e-01 4.125363e-01 3.132383e-01 4.272788e-01 4.644914e-01 4.480545e-01 4.119962e-01 4.261399e-01 4.936572e-01 4.130248e-01 3.778794e-01 4.163202e-01 3.765793e-01 3.588598e-01 5.187148e-01 4.755878e-01 6.285052e-01 3.849244e-01 4.597023e-01 3.122185e-01 3.180706e-01 2.283843e-01 2.835143e-01 4.563031e-01 2.703946e-01 3.705619e-01 2.863911e-01 3.165773e-01 3.310786e-01 5.019917e-01 4.779266e-01 4.696376e-01 3.759526e-01 3.183081e-01 4.908319e-01 3.578671e-01 3.878100e-01 2.042851e-01 5.425435e-01 3.832334e-01 3.435617e-01 3.529300e-01 3.385096e-01 3.964006e-01 5.338605e-01 4.879454e-01 3.968986e-01 3.760713e-01 4.130816e-01 5.504529e-01 2.641934e-01 4.480759e-01 5.364969e-01 2.845056e-01 5.289891e-01 5.402693e-01 4.395062e-01 4.375608e-01 4.679283e-01 4.043757e-01 5.438775e-01 4.905323e-01 4.005742e-01 4.513982e-01 4.244809e-01 3.842640e-01 2.841373e-01 4.831183e-01 4.386721e-01 5.493565e-01 4.418430e-01 4.630972e-01 4.429825e-01 4.971299e-01 4.272283e-01 4.806648e-01 4.743514e-01 3.886746e-01 4.236334e-01 5.844213e-01 4.284701e-01 2.912606e-01 3.789344e-01 4.646398e-01 3.875380e-01 4.125423e-01 3.269740e-01 3.084387e-01 2.931380e-01 2.489511e-01 3.621581e-01 3.161038e-01 3.701008e-01 4.689364e-01 3.920209e-01 3.802615e-01 6.037182e-01 2.551747e-01 3.887665e-01 4.675002e-01 3.522649e-01 4.374163e-01 4.532640e-01 4.024482e-01 3.592786e-01 5.683883e-01 4.335147e-01 5.086827e-01 5.886651e-01 4.144068e-01 4.551620e-01 3.154983e-01 3.571192e-01 4.522659e-01 5.119024e-01 3.975055e-01 4.683342e-01 4.105539e-01 3.593894e-01 3.257997e-01 5.636300e-01 4.104300e-01 3.907305e-01 3.510817e-01 4.351270e-01 5.480724e-01
<VARIANCE> 142
 4.458229e-02 7.181556e-03 2.800591e-03 5.780629e-03 2.846830e-02 4.905471e-03 2.074314e-02 5.726428e-03 4.796043e-03 5.547966e-03 3.475590e-03 7.482411e-03 2.711260e-03 8.084145e-03 2.594965e-02 2.979106e-02 7.799635e-03 1.593086e-03 1.615012e-03 1.000000e-03 1.045705e-02 3.963192e-03 1.531384e-03 9.834749e-03 2.323848e-03 1.000000e-03 1.670052e-03 6.958708e-03 3.192138e-03 2.089677e-02 2.925025e-03 2.233433e-03 9.873006e-03 2.667007e-03 3.934768e-03 1.594307e-02 5.059474e-03 7.621479e-03 1.129321e-02 3.246272e-02 6.656071e-03 3.569620e-03 3.765681e-03 1.668154e-03 1.710447e-02 1.393320e-02 4.443280e-03 1.749356e-02 6.298634e-03 4.403983e-03 1.418990e-03 1.770378e-03 1.870412e-03 1.427263e-03 1.754861e-03 6.390471e-03 1.004508e-02 2.840632e-03 6.568971e-03 4.813298e-03 3.532987e-03 1.490907e-02 1.000000e-03 2.527613e-03 1.205851e-03 4.086501e-03 2.009478e-03 4.580477e-03 1.926002e-03 4.590275e-03 1.714625e-02 2.998023e-02 1.580372e-03 1.000000e-03 4.681163e-03 1.474965e-03 3.639669e-03 5.385818e-02 2.290178e-03 3.531883e-02 1.263738e-02 1.255285e-03 5.461059e-03 1.543580e-03 1.602438e-02 2.708525e-03 2.800409e-03 1.000000e-03 1.132001e-03 9.225225e-03 5.411771e-03 7.530654e-03 2.045587e-02 4.312689e-03 2.817363e-02 3.456498e-03 1.930503e-02 6.886292e-03 9.238244e-03 1.000000e-03 6.240336e-03 2.598994e-03 1.142751e-03 3.281476e-03 4.044597e-03 6.193307e-03 3.806214e-03 7.382333e-03 1.000000e-03 1.158234e-02 4.726274e-03 5.221358e-03 8.128795e-02 1.264665e-02 2.118786e-03 3.717165e-03 4.629949e-03 1.918779e-02 3.304333e-03 1.000000e-03 1.000000e-03 2.774897e-03 1.041215e-02 1.519193e-02 9.660726e-03 1.655458e-03 3.945417e-03 2.400525e-03 4.858690e-03 1.803878e-03 3.580999e-02 3.889050e-02 9.692272e-03 1.656600e-03 2.945906e-02 2.759049e-02 8.679068e-03 2.644786e-02 1.711246e-02 4.319151e-03 1.000000e-03 8.031095e-03
<GCONST> -4.863960e+02
<STATE> 3
<MEAN> 142
 6.638817e-01 3.878306e-01 3.912036e-01 3.022755e-01 2.880949e-01 4.365290e-01 4.289906e-01 2.671084e-01 3.316357e-01 4.167605e-01 5.457709e-01 4.941753e-01 4.335611e-01 5.617623e-01 3.100084e-01 2.616690e-01 3.831567e-01 4.177770e-01 3.774740e-01 4.165250e-01 5.083088e-01 5.149558e-01 4.551822e-01 4.511848e-01 4.708133e-01 4.107435e-01 4.520089e-01 3.822848e-01 4.432906e-01 4.817745e-01 5.584182e-01 3.974438e-01 4.176524e-01 4.631584e-01 4.877305e-01 2.967814e-01 2.967819e-01 3.648744e-01 3.305195e-01 3.424305e-01 3.341480e-01 3.767945e-01 4.130315e-01 3.394190e-01 2.810853e-01 4.137900e-01 4.436753e-01 3.609994e-01 3.965952e-01 4.226705e-01 5.230937e-01 4.040326e-01 4.834758e-01 2.581075e-01 5.034850e-01 3.906469e-01 4.170897e-01 3.606281e-01 3.618011e-01 3.564092e-01 4.383660e-01 4.187903e-01 3.665069e-01 4.228577e-01 3.945295e-01 4.362645e-01 3.571271e-01 4.002527e-01 4.811249e-01 4.231466e-01 4.846503e-01 5.509232e-01 3.883323e-01 4.496977e-01 4.894843e-01 4.727262e-01 4.518721e-01 4.349645e-01 4.571218e-01 3.565788e-01 4.539191e-01 3.446744e-01 3.614584e-01 4.649233e-01 3.562865e-01 4.777599e-01 4.168651e-01 4.925221e-01 4.456449e-01 4.380124e-01 4.504611e-01 4.073644e-01 4.493897e-01 4.047757e-01 4.409871e-01 4.748271e-01 4.009250e-01 4.158888e-01 3.984550e-01 4.388232e-01 3.779736e-01 4.764489e-01 3.797359e-01 4.009065e-01 3.219462e-01 3.216321e-01 4.086308e-01 4.143025e-01 4.025337e-01 3.839709e-01 4.900384e-01 4.834477e-01 3.496151e-01 3.315167e-01 4.312416e-01 4.898186e-01 4.828978e-01 3.948259e-01 4.522126e-01 4.078936e-01 3.719518e-01 5.138790e-01 4.245576e-01 5.862469e-01 4.207817e-01 4.080915e-01 4.726789e-01 3.414893e-01 3.549583e-01 4.171551e-01 3.464698e-01 4.672075e-01 3.966016e-01 4.476744e-01 3.307344e-01 3.571272e-01 4.875579e-01 3.778197e-01 2.600357e-01 3.670551e-01 4.434127e-01 4.650396e-01
<VARIANCE> 142
 3.313139e-02 1.130723e-02 7.269451e-03 2.414919e-03 2.336709e-03 3.290306e-02 1.053809e-02 1.181279e-02 2.680496e-03 1.546637e-03 1.447810e-02 2.441783e-02 1.273243e-02 5.822436e-03 7.558597e-03 5.194604e-03 5.599384e-03 8.355732e-03 5.933998e-03 5.858293e-03 1.671221e-02 2.230587e-02 5.418881e-03 6.700959e-03 7.383243e-03 4.421422e-03 3.053877e-03 1.651156e-02 5.394230e-03 2.595217e-02 3.058737e-03 2.841726e-03 1.970087e-02 6.266269e-03 1.009494e-03 3.487056e-03 2.327284e-03 1.106738e-02 9.729504e-03 3.619196e-03 7.208973e-03 1.000000e-03 6.487176e-03 9.748331e-03 1.401439e-02 8.582022e-03 2.000347e-02 2.601298e-03 7.028248e-03 1.288912e-02 6.300898e-03 8.395229e-03 2.767181e-03 6.762093e-03 9.109631e-03 1.559682e-02 1.740304e-02 7.513278e-03 8.281089e-03 1.000000e-03 1.431290e-02 2.126546e-02 3.415003e-03 7.718563e-03 7.759359e-03 9.687215e-03 4.392406e-03 1.000000e-03 1.031580e-02 1.037031e-02 8.615040e-03 3.287797e-02 5.448825e-03 1.322511e-03 5.551614e-03 2.281289e-03 1.491706e-03 2.517315e-02 4.507904e-03 2.207501e-02 1.390682e-02 7.146626e-03 7.140133e-03 2.331974e-03 1.682474e-02 1.304500e-02 3.199826e-03 3.536925e-03 1.871067e-03 2.526405e-02 2.468971e-02 4.098621e-02 7.928988e-03 1.482297e-02 3.013077e-03 3.190306e-03 7.534999e-03 1.376930e-02 4.231319e-03 1.924329e-03 8.960824e-03 5.092418e-03 2.652487e-03 1.202543e-02 5.397114e-03 5.244954e-03 4.264523e-03 7.182449e-03 3.656750e-03 8.700005e-03 1.095666e-02 2.257063e-02 8.787226e-03 3.779105e-03 1.043615e-02 2.512647e-02 1.196393e-02 1.215825e-02 9.028001e-03 4.801546e-03 1.684300e-03 1.050639e-02 2.007164e-02 8.141386e-02 1.852882e-02 6.031861e-03 1.861576e-02 5.990825e-03 2.528425e-02 9.417580e-03 1.188227e-02 1.089079e-02 1.856496e-02 2.869149e-03 7.653710e-03 3.557693e-03 1.360935e-02 2.817511e-03 2.263715e-03 3.932618e-03 5.000623e-03 7.168347e-03
<GCONST> -4.389935e+02
<TRANSP> 4
 0.000000e+00 1.000000e+00 0.000000e+00 0.000000e+00
 0.000000e+00 5.000000e-01 5.000000e-01 0.000000e+00
 0.000000e+00 0.000000e+00 5.000000e-01 5.000000e-01
 0.000000e+00 0.000000e+00 0.000000e+00 0.000000e+00
<ENDHMM>
