~o
<STREAMINFO> 1 142
<VECSIZE> 142<NULLD><USER><DIAGC>
~h "english"
<BEGINHMM>
<NUMSTATES> 4
<STATE> 2
<MEAN> 142
 5.783145e-01 3.469482e-01 3.507431e-01 3.509281e-01 2.896179e-01 2.982024e-01 3.285086e-01 3.200505e-01 3.368879e-01 4.098418e-01 4.330224e-01 3.902648e-01 3.078494e-01 4.390774e-01 3.427835e-01 3.078261e-01 3.784015e-01 3.424440e-01 3.024393e-01 3.378889e-01 4.896712e-01 5.239419e-01 3.872445e-01 4.664278e-01 4.973830e-01 3.545401e-01 4.162975e-01 3.422389e-01 4.127743e-01 3.552370e-01 4.626278e-01 4.239244e-01 3.628458e-01 5.315131e-01 4.230498e-01 3.855526e-01 3.794984e-01 3.115357e-01 3.930691e-01 3.098187e-01 3.186308e-01 4.681598e-01 3.365746e-01 3.231485e-01 1.617881e-01 3.456092e-01 4.590525e-01 4.153056e-01 4.549963e-01 3.205756e-01 4.676664e-01 3.739807e-01 4.228370e-01 2.400710e-01 4.054282e-01 3.608875e-01 4.196252e-01 3.650847e-01 3.363262e-01 3.135746e-01 3.667516e-01 4.381311e-01 3.857004e-01 3.787193e-01 3.600877e-01 4.217323e-01 3.366594e-01 4.185406e-01 3.823691e-01 3.847420e-01 4.584430e-01 3.460397e-01 3.983670e-01 3.992170e-01 2.895777e-01 3.066246e-01 4.427857e-01 4.419447e-01 4.910640e-01 4.636768e-01 4.150898e-01 4.000902e-01 3.491985e-01 4.354769e-01 2.976413e-01 3.590866e-01 3.856966e-01 3.985088e-01 4.562896e-01 3.153748e-01 2.939255e-01 2.794264e-01 3.483003e-01 3.164653e-01 4.288039e-01 4.356767e-01 4.360560e-01 2.730619e-01 5.019997e-01 4.568387e-01 4.125224e-01 4.975003e-01 3.341926e-01 3.332172e-01 3.349601e-01 3.405062e-01 3.454904e-01 3.641558e-01 3.751671e-01 3.941849e-01 3.433449e-01 3.097140e-01 3.379992e-01 3.931779e-01 3.371086e-01 3.593234e-01 3.308241e-01 4.542653e-01 3.858681e-01 4.257843e-01 4.597937e-01 4.543747e-01 4.274576e-01 3.013718e-01 4.095700e-01 3.832726e-01 3.526160e-01 3.280106e-01 3.220407e-01 4.300676e-01 3.701878e-01 4.018255e-01 2.954357e-01 4.011898e-01 3.866357e-01 4.526036e-01 3.637237e-01 4.197674e-01 3.632626e-01 4.217597e-01 4.332365e-01 4.197683e-01
<VARIANCE> 142
 2.796077e-02 7.464481e-03 9.043154e-03 4.459120e-03 1.099505e-02 4.561843e-02 6.540801e-03 8.236230e-03 2.668472e-03 6.710999e-03 1.470750e-02 5.980196e-03 6.607250e-03 1.481241e-02 9.828812e-03 6.207297e-03 8.922986e-03 6.911709e-03 2.697466e-02 1.248769e-02 1.533616e-02 8.635945e-03 1.382072e-02 9.034703e-03 9.585543e-03 3.573002e-03 1.155189e-02 8.636402e-03 1.032398e-02 7.001030e-03 5.085068e-03 7.855490e-03 1.599762e-02 1.843118e-02 2.631847e-03 1.233404e-02 1.083889e-02 8.993494e-03 2.017223e-02 1.091343e-02 5.150550e-03 2.083927e-02 9.247533e-03 1.768376e-02 8.453431e-03 6.956750e-03 1.115012e-02 1.127617e-02 1.682302e-02 8.575196e-03 4.507503e-03 5.804039e-03 3.746376e-03 3.186329e-03 7.868345e-03 9.638131e-03 3.026206e-02 2.915140e-02 2.355810e-02 1.901388e-02 1.169283e-02 6.410724e-03 6.442614e-03 4.473879e-03 3.702864e-03 6.331917e-03 1.277932e-02 2.662591e-02 9.265790e-03 6.469421e-03 4.260399e-03 2.151301e-02 2.883505e-03 6.003258e-03 2.362874e-02 7.233286e-03 5.847972e-03 2.936102e-02 7.597998e-03 1.222509e-02 5.687122e-03 7.419082e-03 6.984160e-03 1.056503e-02 1.057080e-02 1.276696e-02 4.231431e-03 3.746080e-03 7.570333e-03 1.603456e-02 8.646935e-03 2.026420e-02 3.852786e-03 6.371459e-03 3.535288e-03 7.966598e-03 4.952815e-03 4.322206e-03 1.700658e-02 8.813629e-03 5.375946e-03 3.930151e-03 6.049446e-03 1.058208e-02 1.856349e-02 1.100056e-02 1.067735e-02 9.710163e-03 1.261842e-02 3.589501e-02 3.449627e-03 4.890179e-03 8.092940e-03 9.876750e-03 4.241028e-03 5.288513e-03 5.780654e-03 6.417854e-03 5.109378e-03 1.604684e-02 6.183641e-03 1.312559e-02 1.103249e-02 2.061719e-02 2.723398e-02 6.895015e-03 5.500681e-03 1.337331e-02 8.358510e-03 1.982361e-02 7.774868e-03 4.933635e-03 1.312638e-02 8.401385e-03 4.519229e-03 1.020924e-02 5.055474e-03 4.425101e-03 1.028261e-02 8.791325e-03 9.650266e-03 1.178319e-02
<GCONST> -4.092613e+02
<STATE> 3
<MEAN> 142
 5.744307e-01 3.587264e-01 3.572136e-01 3.836104e-01 3.185036e-01 4.047752e-01 4.386815e-01 3.507411e-01 3.681729e-01 4.267971e-01 4.318036e-01 4.460878e-01 3.869072e-01 4.329945e-01 3.987659e-01 3.874198e-01 4.122242e-01 3.922445e-01 3.476006e-01 3.858803e-01 4.530028e-01 4.205945e-01 3.927139e-01 4.414435e-01 4.401647e-01 4.259418e-01 4.069030e-01 4.626178e-01 4.076188e-01 4.746974e-01 4.812362e-01 3.622341e-01 4.534346e-01 4.433421e-01 4.441472e-01 3.464037e-01 3.547910e-01 3.596644e-01 3.677351e-01 4.398232e-01 4.004322e-01 3.982623e-01 3.803461e-01 3.355952e-01 3.409834e-01 4.218013e-01 3.934622e-01 4.160978e-01 4.121040e-01 3.881671e-01 5.117126e-01 4.121730e-01 4.688366e-01 3.222623e-01 4.284664e-01 3.611877e-01 3.770962e-01 3.455964e-01 3.709176e-01 3.923976e-01 5.005972e-01 4.391263e-01 3.424854e-01 3.981852e-01 4.249839e-01 4.509229e-01 3.892276e-01 4.392908e-01 4.189778e-01 4.366358e-01 4.925169e-01 4.634532e-01 4.001471e-01 4.215866e-01 3.909440e-01 4.220458e-01 4.243753e-01 3.585795e-01 4.183961e-01 3.998274e-01 4.524857e-01 3.337006e-01 3.947354e-01 4.060082e-01 4.390180e-01 4.425626e-01 4.043466e-01 4.291661e-01 4.807680e-01 4.676441e-01 3.741306e-01 4.247350e-01 4.785858e-01 3.905128e-01 4.111929e-01 4.520504e-01 4.644530e-01 3.526526e-01 4.225932e-01 4.297106e-01 3.715975e-01 4.208766e-01 3.570315e-01 4.145554e-01 3.383774e-01 2.843904e-01 3.992350e-01 3.683288e-01 3.955182e-01 4.036175e-01 3.886935e-01 4.154470e-01 3.827448e-01 3.348455e-01 3.825133e-01 4.960325e-01 4.229832e-01 3.835717e-01 4.381678e-01 3.612905e-01 3.722560e-01 4.424786e-01 3.965343e-01 4.959829e-01 4.287679e-01 3.944875e-01 4.463979e-01 3.718011e-01 3.883303e-01 4.170067e-01 4.064091e-01 4.005543e-01 4.064148e-01 3.980577e-01 3.720078e-01 4.132713e-01 4.855057e-01 4.284635e-01 4.185182e-01 3.664512e-01 3.897016e-01 4.248042e-01
<VARIANCE> 142
 2.012786e-02 1.523991e-02 7.475094e-03 1.858228e-02 1.822153e-02 2.738150e-02 2.441248e-02 1.806801e-02 9.033471e-03 7.396974e-03 9.529416e-03 1.352302e-02 1.423736e-02 8.831562e-03 9.020827e-03 1.980741e-02 7.237751e-03 1.122458e-02 8.206855e-03 2.855052e-02 1.147206e-02 1.827498e-02 7.461644e-03 7.923725e-03 3.590788e-03 1.672200e-02 9.381521e-03 1.213176e-02 1.186530e-02 1.287798e-02 2.252062e-03 7.155817e-03 3.034794e-02 1.015987e-02 6.495513e-03 9.214522e-03 1.127045e-02 2.523363e-02 1.850039e-02 2.094273e-02 2.041912e-02 1.897701e-02 9.286637e-03 2.197318e-02 2.118134e-02 1.347814e-02 1.760924e-02 2.350728e-02 1.272637e-02 1.036809e-02 1.018666e-02 3.146934e-02 1.778198e-02 7.004126e-03 5.557829e-03 1.059197e-02 2.278334e-02 1.157589e-02 5.772085e-03 3.710901e-02 2.273230e-02 8.381570e-03 1.003545e-02 1.169955e-02 1.780640e-02 1.652710e-02 3.628832e-02 2.152307e-02 1.251391e-02 2.232775e-02 6.998474e-03 2.381450e-02 5.358452e-03 4.283342e-03 1.719455e-02 1.919921e-02 6.960198e-03 2.294606e-02 9.244964e-03 2.619661e-02 7.061867e-03 7.307860e-03 1.099863e-02 9.424680e-03 1.792497e-02 1.737121e-02 4.696916e-03 2.871865e-03 6.174088e-03 1.474886e-02 2.597773e-02 2.761109e-02 7.500544e-03 1.319125e-02 1.070054e-02 1.281941e-02 8.599536e-03 1.798313e-02 1.684957e-02 8.546102e-03 1.068995e-02 6.312284e-03 6.515354e-03 1.343759e-02 1.291754e-02 8.184321e-03 1.991685e-02 1.500905e-02 1.330509e-02 1.983938e-02 9.641897e-03 1.781952e-02 3.332265e-02 1.089759e-02 6.683705e-03 1.463194e-02 1.577086e-02 1.329741e-02 7.954761e-03 5.035717e-03 8.764182e-03 9.606955e-03 9.240193e-03 4.515201e-02 2.058062e-02 1.088570e-02 1.213695e-02 1.542338e-02 2.490605e-02 1.113074e-02 2.611793e-02 6.155669e-03 1.943146e-02 1.807429e-02 5.873603e-03 1.981234e-02 1.086863e-02 7.161811e-03 3.678868e-02 7.184258e-03 9.289249e-03 1.999991e-02
<GCONST> -3.600599e+02
<TRANSP> 4
 0.000000e+00 1.000000e+00 0.000000e+00 0.000000e+00
 0.000000e+00 5.000000e-01 5.000000e-01 0.000000e+00
 0.000000e+00 0.000000e+00 5.000000e-01 5.000000e-01
 0.000000e+00 0.000000e+00 0.000000e+00 0.000000e+00
<ENDHMM>
