~o
<STREAMINFO> 1 142
<VECSIZE> 142<NULLD><USER><DIAGC>
~h "face"
<BEGINHMM>
<NUMSTATES> 4
<STATE> 2
<MEAN> 142
 6.237102e-01 3.922890e-01 4.183410e-01 3.011620e-01 3.466668e-01 4.359072e-01 3.631252e-01 3.331497e-01 4.133353e-01 4.624718e-01 5.421184e-01 4.961110e-01 4.048593e-01 5.294749e-01 2.931975e-01 2.735760e-01 3.981028e-01 3.775265e-01 4.155563e-01 3.502700e-01 3.601325e-01 3.800284e-01 4.253602e-01 3.925163e-01 4.809187e-01 4.265593e-01 4.801254e-01 5.143951e-01 3.502103e-01 4.447787e-01 4.721608e-01 3.184924e-01 4.129177e-01 3.814894e-01 4.492296e-01 2.705185e-01 4.423543e-01 3.631060e-01 3.270973e-01 3.288703e-01 4.035954e-01 3.746325e-01 5.046114e-01 3.263667e-01 3.388256e-01 4.496417e-01 3.277760e-01 3.450805e-01 3.932197e-01 4.363793e-01 5.031390e-01 3.782254e-01 4.769724e-01 3.086765e-01 3.812424e-01 3.930329e-01 5.330756e-01 4.014619e-01 4.153282e-01 3.940220e-01 5.003158e-01 3.826173e-01 4.043918e-01 4.513810e-01 5.337346e-01 3.954459e-01 3.846080e-01 4.098984e-01 4.469441e-01 4.593744e-01 4.810758e-01 4.372717e-01 4.418361e-01 4.427108e-01 4.201704e-01 4.516483e-01 4.613468e-01 3.003790e-01 4.259044e-01 3.793151e-01 4.912403e-01 3.378336e-01 3.141368e-01 4.352186e-01 4.144034e-01 4.196178e-01 3.810649e-01 4.620531e-01 5.050786e-01 4.607282e-01 4.295755e-01 3.869410e-01 5.246620e-01 4.387957e-01 4.055240e-01 4.967782e-01 4.130098e-01 4.084644e-01 3.950613e-01 4.717011e-01 4.004045e-01 3.847911e-01 3.423541e-01 3.980709e-01 3.895543e-01 3.050107e-01 4.373529e-01 3.680102e-01 4.621251e-01 4.061912e-01 4.279186e-01 4.639370e-01 2.922975e-01 3.605705e-01 4.053696e-01 4.791913e-01 4.742892e-01 3.760943e-01 5.259933e-01 4.102837e-01 4.170477e-01 4.091915e-01 3.295525e-01 5.274805e-01 4.216573e-01 4.321383e-01 5.406205e-01 4.933630e-01 4.695013e-01 4.185373e-01 3.437623e-01 3.634759e-01 5.090470e-01 4.271251e-01 3.379120e-01 3.679119e-01 4.095558e-01 3.588834e-01 3.289697e-01 3.317531e-01 3.428171e-01 4.458961e-01
<VARIANCE> 142
 1.090917e-02 7.738816e-03 1.355132e-02 1.670505e-03 5.881881e-03 3.618471e-02 1.285841e-02 1.647611e-03 4.219549e-03 4.703611e-03 2.226274e-02 1.108915e-02 6.809567e-03 1.301195e-02 9.773600e-03 6.999568e-03 1.137275e-02 1.285066e-02 3.166417e-02 6.052037e-03 1.866600e-02 2.259762e-02 1.541196e-02 4.507541e-03 6.351530e-03 4.180740e-03 3.716387e-03 1.095090e-02 4.638587e-03 8.214473e-03 3.930765e-03 3.726316e-03 1.880280e-02 1.233746e-02 5.118872e-03 7.438270e-03 2.176359e-02 2.567305e-02 1.210049e-02 9.309210e-03 3.028027e-02 1.059416e-02 7.943039e-03 1.059789e-02 6.043519e-03 2.194979e-02 5.498470e-03 9.124826e-03 3.352516e-02 5.565821e-03 1.000000e-03 6.859969e-03 2.547251e-03 6.479559e-03 6.910332e-03 6.837492e-03 1.153305e-02 3.588494e-02 1.127894e-02 1.647047e-02 6.575958e-03 5.046980e-03 1.561440e-03 5.972592e-03 2.785131e-02 5.404962e-03 1.473675e-02 2.800641e-02 8.925892e-03 1.388967e-02 3.316855e-03 1.019428e-02 7.302016e-03 3.064285e-03 1.646187e-02 6.404722e-03 1.016046e-02 2.771532e-03 4.343051e-03 1.891996e-02 2.748826e-02 1.067607e-02 1.035959e-02 1.922963e-02 1.039816e-02 1.122014e-02 1.000000e-03 6.579991e-03 8.517382e-03 1.692597e-02 1.767665e-02 1.281568e-02 3.434244e-02 5.526942e-03 5.317070e-03 1.764209e-02 6.601778e-03 1.438575e-02 5.325472e-03 1.991946e-02 6.240484e-03 1.162142e-02 2.915512e-03 1.418557e-02 8.873489e-03 1.615571e-02 1.987619e-03 6.714466e-03 1.917395e-02 3.705757e-02 3.246359e-03 9.045411e-03 8.687356e-03 1.134365e-02 3.455666e-03 1.273813e-02 1.345323e-02 8.926767e-03 1.141873e-02 7.473623e-03 1.675098e-02 1.425899e-02 7.402807e-03 3.412464e-02 2.436438e-02 8.724959e-03 2.107305e-02 5.158825e-02 1.579112e-02 1.344331e-02 1.065312e-02 8.059382e-03 1.824579e-02 2.553308e-02 4.310745e-03 6.194449e-03 4.368294e-03 7.812760e-03 1.751752e-02 2.030278e-03 5.014134e-03 3.930377e-03
<GCONST> -4.052616e+02
<STATE> 3
<MEAN> 142
 5.210118e-01 3.343351e-01 2.437582e-01 2.710136e-01 2.675021e-01 1.807519e-01 2.797662e-01 3.357230e-01 3.706627e-01 4.230258e-01 4.222721e-01 4.053986e-01 3.499975e-01 3.917387e-01 3.036202e-01 2.875889e-01 4.528951e-01 3.710873e-01 3.000388e-01 3.469757e-01 4.251897e-01 4.312757e-01 3.758708e-01 4.251240e-01 4.701125e-01 4.186365e-01 3.814965e-01 3.363926e-01 4.600236e-01 4.121738e-01 4.735756e-01 3.724299e-01 2.862212e-01 5.058336e-01 4.115925e-01 2.837199e-01 3.157445e-01 3.777959e-01 4.135219e-01 3.022487e-01 4.093240e-01 4.955076e-01 3.673732e-01 2.579738e-01 2.014695e-01 2.977026e-01 3.590125e-01 3.504465e-01 3.747701e-01 3.350658e-01 4.448346e-01 4.090338e-01 4.548607e-01 2.977619e-01 3.702300e-01 4.134062e-01 4.166769e-01 2.666331e-01 3.780271e-01 2.673868e-01 3.680442e-01 4.451177e-01 4.006582e-01 4.616132e-01 3.855149e-01 3.496915e-01 3.844045e-01 3.647473e-01 3.520276e-01 4.385938e-01 4.154306e-01 3.284914e-01 3.831122e-01 3.473982e-01 2.557628e-01 3.507011e-01 3.792917e-01 2.751843e-01 4.904354e-01 3.800367e-01 4.645342e-01 3.201111e-01 3.582327e-01 3.671593e-01 3.108631e-01 2.645800e-01 4.070939e-01 4.013433e-01 4.789023e-01 2.853958e-01 3.133642e-01 2.516192e-01 3.686781e-01 3.500918e-01 3.745988e-01 4.182580e-01 4.084267e-01 3.675156e-01 4.300424e-01 4.349356e-01 4.169663e-01 4.145784e-01 3.302473e-01 3.675366e-01 2.762685e-01 3.101625e-01 3.711340e-01 4.356969e-01 3.015099e-01 3.016487e-01 3.707679e-01 3.827400e-01 2.634926e-01 3.803422e-01 3.465751e-01 4.045940e-01 3.909668e-01 3.867958e-01 4.036389e-01 3.472076e-01 3.696122e-01 3.891073e-01 3.975188e-01 3.533795e-01 3.616901e-01 3.481690e-01 3.876798e-01 3.838629e-01 3.678918e-01 3.546579e-01 3.145598e-01 3.526916e-01 3.120981e-01 4.458120e-01 3.405367e-01 3.806383e-01 3.932067e-01 3.735360e-01 3.259130e-01 3.352554e-01 4.206272e-01 3.672976e-01
<VARIANCE> 142
 2.965910e-03 1.141548e-02 8.085206e-03 3.730630e-03 4.001360e-03 1.132944e-02 2.333169e-03 6.052669e-03 2.110292e-03 6.482078e-03 9.343806e-03 3.711619e-03 4.777793e-03 1.041646e-02 6.961934e-03 9.449073e-03 9.543844e-03 1.753260e-02 7.157702e-03 7.369008e-03 2.671348e-03 1.125529e-02 5.394697e-03 3.496152e-03 4.757737e-03 8.791674e-03 3.980648e-03 8.785578e-03 3.908393e-03 2.442718e-02 6.512286e-03 1.007281e-03 7.909841e-03 1.868746e-02 1.343711e-03 1.510322e-02 7.749587e-03 3.414024e-03 2.351306e-03 5.684860e-03 5.811861e-03 9.000123e-03 3.938687e-03 3.583447e-03 8.153705e-03 5.808941e-03 8.335436e-03 6.852565e-03 6.939834e-03 4.535087e-03 4.419094e-03 2.083025e-03 7.543380e-03 5.691144e-03 2.542292e-03 9.536132e-03 1.455920e-02 1.545758e-02 1.210258e-02 7.799539e-03 3.223749e-03 9.591795e-03 2.017717e-03 1.475773e-03 1.292384e-02 2.480144e-03 6.744750e-03 1.765928e-02 1.128413e-02 4.735767e-03 1.118368e-03 2.616201e-03 3.163277e-03 6.530643e-03 7.982472e-03 6.521745e-03 1.310795e-02 1.428955e-02 9.579889e-03 4.185246e-03 5.966484e-03 1.205510e-03 8.837920e-03 3.035785e-03 1.211815e-02 8.632341e-03 3.179703e-03 5.282767e-03 4.405427e-03 7.650951e-03 1.157901e-02 5.007038e-03 9.154614e-03 1.561060e-02 1.000000e-03 8.599285e-03 4.532888e-03 1.067887e-02 9.337913e-03 5.725435e-03 9.272398e-03 4.188731e-03 3.302567e-03 6.773585e-03 3.781588e-03 4.028126e-03 2.146769e-03 1.127306e-02 9.339037e-03 1.131315e-02 6.277077e-03 3.618652e-03 5.085770e-03 6.330989e-03 1.295995e-02 5.952385e-03 6.421153e-03 7.889443e-03 6.351858e-03 7.193265e-03 3.839342e-03 7.009106e-03 1.112700e-02 1.784711e-02 1.628362e-02 5.206380e-03 9.250158e-03 1.876978e-02 1.523086e-02 7.728543e-03 5.413332e-03 2.622913e-03 1.046032e-02 1.074060e-02 2.836494e-03 7.766244e-03 9.417398e-03 6.110336e-03 2.198903e-02 6.040498e-03 1.379196e-03 3.700559e-03
<GCONST> -4.631368e+02
<TRANSP> 4
 0.000000e+00 1.000000e+00 0.000000e+00 0.000000e+00
 0.000000e+00 5.000000e-01 5.000000e-01 0.000000e+00
 0.000000e+00 0.000000e+00 5.000000e-01 5.000000e-01
 0.000000e+00 0.000000e+00 0.000000e+00 0.000000e+00
<ENDHMM>
