~o
<STREAMINFO> 1 142
<VECSIZE> 142<NULLD><USER><DIAGC>
~h "fair"
<BEGINHMM>
<NUMSTATES> 4
<STATE> 2
<MEAN> 142
 5.504006e-01 3.401821e-01 3.674746e-01 3.553829e-01 3.221641e-01 2.704798e-01 3.243312e-01 3.877744e-01 3.454421e-01 5.903718e-01 4.654793e-01 3.628641e-01 3.848638e-01 4.828533e-01 4.428255e-01 3.955509e-01 4.655500e-01 3.878992e-01 3.514499e-01 3.421510e-01 4.835029e-01 4.707448e-01 3.711157e-01 5.017241e-01 5.179187e-01 3.538616e-01 4.102180e-01 4.020482e-01 4.317910e-01 3.844930e-01 4.919516e-01 4.312303e-01 3.369569e-01 6.419623e-01 4.756099e-01 4.780753e-01 4.118764e-01 4.832104e-01 4.572386e-01 3.952455e-01 3.822041e-01 5.432822e-01 3.653999e-01 3.612084e-01 2.451106e-01 4.101179e-01 4.686159e-01 5.039026e-01 4.490340e-01 3.084796e-01 4.299931e-01 5.182792e-01 5.271779e-01 2.577066e-01 3.586594e-01 4.047810e-01 4.246655e-01 3.274061e-01 3.253773e-01 2.748606e-01 4.407538e-01 4.976703e-01 3.768818e-01 3.873504e-01 4.146256e-01 3.771659e-01 4.860520e-01 4.110334e-01 3.760701e-01 4.629743e-01 4.961070e-01 3.175464e-01 4.455683e-01 4.566194e-01 3.522141e-01 2.871171e-01 3.995009e-01 3.600922e-01 5.218408e-01 5.363630e-01 4.461893e-01 2.993119e-01 5.456843e-01 4.294413e-01 3.011708e-01 3.714884e-01 3.405608e-01 3.652389e-01 4.729108e-01 3.810174e-01 3.037820e-01 3.652198e-01 4.339799e-01 3.061292e-01 4.210007e-01 4.104500e-01 4.666837e-01 3.669766e-01 5.370005e-01 4.304830e-01 5.020949e-01 5.037979e-01 2.613862e-01 3.907106e-01 3.445746e-01 3.468923e-01 3.829461e-01 4.218064e-01 3.784076e-01 3.694101e-01 3.796784e-01 2.858273e-01 3.313936e-01 3.620209e-01 3.524218e-01 3.045453e-01 3.640675e-01 5.183303e-01 3.946228e-01 3.463926e-01 4.088424e-01 3.988120e-01 4.298544e-01 3.451246e-01 3.931043e-01 3.856490e-01 3.785290e-01 4.366724e-01 3.857118e-01 4.597834e-01 3.666888e-01 4.577242e-01 3.011239e-01 3.990177e-01 4.247976e-01 5.146771e-01 3.443713e-01 4.729808e-01 4.374868e-01 3.909289e-01 4.918862e-01 3.607254e-01
<VARIANCE> 142
 3.514989e-02 1.000000e-03 2.977325e-03 4.665637e-03 1.064459e-02 5.443375e-03 3.952833e-03 1.000000e-03 2.944447e-03 1.225167e-02 3.618521e-03 4.150535e-03 1.134343e-02 2.878855e-03 2.373407e-02 1.000000e-03 1.560364e-03 1.182897e-02 1.435636e-03 6.675524e-03 2.179879e-03 8.797792e-03 2.667949e-03 1.000000e-03 1.000000e-03 1.000000e-03 5.064149e-03 1.849391e-03 1.453051e-03 1.523541e-02 1.041692e-03 4.497855e-03 9.802152e-03 2.296312e-02 1.518186e-03 1.623611e-02 1.268481e-02 1.995629e-02 4.856048e-03 7.155791e-03 2.150963e-03 1.000000e-03 1.283288e-03 6.807251e-03 1.276395e-02 1.498093e-03 1.242556e-03 7.435326e-03 4.981190e-03 6.899986e-03 1.786228e-03 1.118123e-02 7.832898e-03 3.385314e-03 2.590760e-02 8.115688e-03 7.733399e-03 1.000000e-03 1.491322e-03 1.000000e-03 1.183377e-02 3.717103e-03 6.607366e-03 3.274916e-03 1.032144e-02 4.839125e-03 7.069651e-03 1.377314e-03 5.095235e-03 7.900739e-03 1.000000e-03 5.813499e-03 1.462399e-03 2.539634e-03 1.987509e-02 4.191872e-03 4.547340e-03 5.411427e-03 1.010454e-03 6.453846e-03 3.515435e-03 1.000000e-03 1.504391e-02 1.641238e-02 1.054463e-03 2.051227e-02 1.232578e-03 2.903099e-03 1.000000e-03 1.588573e-03 3.787708e-03 4.549745e-03 1.210133e-02 2.410344e-03 1.214632e-03 7.060004e-03 2.766714e-03 6.478199e-03 1.004525e-02 1.000000e-03 1.037368e-03 7.930588e-03 1.021459e-03 8.397019e-03 1.000000e-03 2.745683e-03 1.867266e-02 1.747035e-02 3.380037e-03 7.681394e-03 2.291153e-03 3.739250e-03 3.032449e-03 5.267147e-03 5.031526e-03 5.416515e-03 6.028946e-03 9.132555e-03 4.840576e-03 2.964357e-03 1.000000e-03 1.147347e-02 1.073760e-02 1.057610e-02 1.806133e-03 1.945049e-03 2.019141e-03 9.374863e-03 4.879693e-03 2.665601e-03 1.000000e-03 3.540447e-03 9.066263e-03 3.442687e-03 8.038985e-03 2.880096e-03 1.650869e-02 1.000000e-03 1.158107e-02 4.530638e-03 1.054115e-02 6.321303e-03
<GCONST> -5.195410e+02
<STATE> 3
<MEAN> 142
 5.626827e-01 3.588241e-01 4.040668e-01 3.238663e-01 3.403437e-01 2.787414e-01 3.107608e-01 3.148701e-01 3.942795e-01 4.224411e-01 4.731487e-01 3.467247e-01 3.062201e-01 4.824485e-01 2.781437e-01 3.251742e-01 3.819406e-01 4.801467e-01 3.701881e-01 3.564793e-01 4.303207e-01 4.560974e-01 3.404053e-01 4.757755e-01 5.306143e-01 3.340842e-01 4.622476e-01 3.841723e-01 3.954968e-01 3.852119e-01 4.251932e-01 3.831539e-01 3.932242e-01 4.892126e-01 4.081479e-01 3.469471e-01 3.489696e-01 3.091599e-01 3.544172e-01 2.986846e-01 4.094812e-01 5.061245e-01 4.534886e-01 2.991365e-01 1.992972e-01 3.371766e-01 4.315167e-01 4.067126e-01 4.055081e-01 3.346557e-01 5.605786e-01 4.083487e-01 4.521222e-01 3.124850e-01 4.109166e-01 3.606011e-01 4.579987e-01 3.092538e-01 3.263150e-01 3.681487e-01 4.209787e-01 4.497011e-01 3.659106e-01 3.350345e-01 5.357850e-01 3.991972e-01 4.473769e-01 4.155327e-01 4.334993e-01 4.318702e-01 4.769754e-01 3.283350e-01 3.523586e-01 3.927734e-01 2.872520e-01 3.697049e-01 4.930493e-01 4.056734e-01 5.245405e-01 4.415473e-01 4.821966e-01 3.212861e-01 3.154511e-01 4.643903e-01 3.405396e-01 3.446465e-01 3.917800e-01 3.928860e-01 4.781660e-01 3.086954e-01 2.913598e-01 2.634631e-01 4.657165e-01 3.229700e-01 3.548412e-01 4.592212e-01 5.030646e-01 4.330133e-01 5.263976e-01 4.575855e-01 4.584363e-01 3.864982e-01 3.639630e-01 3.974394e-01 2.892782e-01 2.441462e-01 3.420263e-01 3.621053e-01 4.229002e-01 3.485687e-01 3.228489e-01 3.010181e-01 3.669761e-01 3.040672e-01 4.104453e-01 4.744430e-01 3.248042e-01 4.479017e-01 4.061141e-01 3.614961e-01 4.257414e-01 4.771799e-01 4.258123e-01 3.864967e-01 3.692655e-01 3.442947e-01 3.860468e-01 4.981789e-01 4.202803e-01 4.011149e-01 4.086044e-01 4.366273e-01 4.217600e-01 5.428622e-01 3.994279e-01 5.412273e-01 3.674940e-01 4.565642e-01 3.653516e-01 2.737645e-01 3.879764e-01 3.273735e-01
<VARIANCE> 142
 4.209253e-03 1.625042e-03 1.000000e-03 2.236095e-03 1.934901e-03 1.231379e-02 1.000000e-03 1.601805e-03 1.000000e-03 3.728386e-03 4.114342e-03 3.485714e-02 8.704699e-03 7.860087e-03 1.057556e-02 2.161863e-03 1.000000e-03 4.418622e-02 3.099311e-03 9.363751e-03 1.564343e-02 3.803594e-02 1.000000e-03 1.801163e-02 2.267360e-03 1.000000e-03 1.000000e-03 2.263778e-02 1.349055e-03 2.253285e-02 1.000000e-03 4.036949e-03 8.767862e-03 1.311701e-02 2.888938e-03 3.645579e-03 1.647782e-03 2.554870e-02 1.368109e-03 3.630144e-03 1.202650e-02 4.708550e-03 1.405367e-03 1.000000e-03 1.079207e-02 8.319206e-03 1.428476e-02 1.519657e-03 1.097909e-02 1.000000e-03 2.040840e-03 2.246349e-03 3.424716e-03 1.057678e-03 2.910517e-03 1.664830e-03 1.660820e-03 2.994393e-03 1.000000e-03 1.617689e-03 6.208888e-03 6.104157e-03 2.875694e-03 5.780009e-03 4.324450e-02 1.158598e-02 5.575589e-03 4.170614e-03 1.097526e-02 8.794965e-03 1.000000e-03 4.367184e-03 2.684016e-03 6.934174e-03 6.579988e-03 1.029207e-02 1.671096e-02 8.029854e-03 2.703462e-03 1.562066e-02 4.592064e-02 1.000000e-03 1.699757e-02 2.011991e-02 1.290689e-02 4.926360e-03 3.427544e-03 8.165020e-03 1.000000e-03 2.982228e-03 1.446065e-02 1.543996e-03 7.347501e-02 3.589991e-03 2.478253e-03 4.327454e-02 6.480028e-03 7.511251e-02 4.656984e-03 1.000000e-03 1.331832e-03 1.069431e-02 1.907267e-03 1.131232e-02 1.037983e-03 6.634338e-03 6.702988e-03 1.715694e-03 9.033958e-03 1.114831e-02 3.172366e-03 1.919194e-02 8.191944e-03 1.136335e-03 1.000000e-03 1.813056e-02 3.030926e-03 2.294143e-02 1.287242e-02 1.750954e-03 1.000000e-03 3.340953e-03 5.801219e-03 3.574360e-02 8.713840e-03 1.000000e-03 1.900402e-02 9.988198e-02 3.472939e-02 1.265076e-03 8.819425e-03 8.818088e-03 5.145688e-02 6.416997e-03 5.942831e-03 1.049630e-02 5.279930e-03 4.697096e-03 2.640591e-03 2.872152e-03 1.648043e-02 1.213635e-03
<GCONST> -4.906517e+02
<TRANSP> 4
 0.000000e+00 1.000000e+00 0.000000e+00 0.000000e+00
 0.000000e+00 5.000000e-01 5.000000e-01 0.000000e+00
 0.000000e+00 0.000000e+00 5.000000e-01 5.000000e-01
 0.000000e+00 0.000000e+00 0.000000e+00 0.000000e+00
<ENDHMM>
