~o
<STREAMINFO> 1 142
<VECSIZE> 142<NULLD><USER><DIAGC>
~h "favorite"
<BEGINHMM>
<NUMSTATES> 4
<STATE> 2
<MEAN> 142
 6.175987e-01 3.351555e-01 3.486592e-01 3.439113e-01 3.148271e-01 3.473812e-01 3.317398e-01 3.401577e-01 3.815268e-01 4.789986e-01 4.651697e-01 4.151499e-01 3.809349e-01 4.777884e-01 3.721810e-01 3.209648e-01 3.648894e-01 3.326945e-01 3.069012e-01 4.097790e-01 4.321440e-01 4.419849e-01 3.385139e-01 4.455476e-01 4.834136e-01 4.074909e-01 4.439660e-01 3.268271e-01 3.881837e-01 3.626959e-01 4.592203e-01 3.948659e-01 3.443133e-01 5.220495e-01 4.237968e-01 3.472199e-01 4.214100e-01 3.223684e-01 3.704302e-01 3.344553e-01 3.325902e-01 4.399742e-01 3.406650e-01 3.553327e-01 2.069930e-01 3.957476e-01 4.101774e-01 4.360904e-01 4.462295e-01 3.194721e-01 4.495990e-01 3.719764e-01 4.612807e-01 2.683282e-01 4.236475e-01 3.331222e-01 4.321120e-01 3.686784e-01 3.402137e-01 3.127444e-01 4.245741e-01 4.244810e-01 4.022427e-01 4.023224e-01 3.886453e-01 3.883392e-01 3.467063e-01 4.283532e-01 3.891574e-01 3.995702e-01 4.232273e-01 3.816233e-01 4.225790e-01 3.878017e-01 2.739349e-01 3.437282e-01 4.045645e-01 3.918930e-01 5.190084e-01 4.217635e-01 4.455338e-01 4.000278e-01 3.721970e-01 4.183317e-01 3.189264e-01 3.745371e-01 4.087844e-01 4.274760e-01 4.675681e-01 3.393344e-01 2.956172e-01 3.084341e-01 3.587399e-01 3.575317e-01 4.163819e-01 4.426420e-01 4.316376e-01 2.941176e-01 4.905333e-01 4.492041e-01 3.880734e-01 4.957853e-01 3.156018e-01 3.674518e-01 3.473932e-01 3.052717e-01 3.527942e-01 3.756337e-01 4.337391e-01 4.302010e-01 3.843988e-01 3.177585e-01 3.000326e-01 4.187192e-01 3.242835e-01 3.792644e-01 3.375394e-01 4.148954e-01 3.840105e-01 3.934248e-01 4.165245e-01 4.186242e-01 3.733250e-01 3.048342e-01 4.275801e-01 3.799402e-01 3.610573e-01 3.419688e-01 3.548602e-01 4.347318e-01 3.832247e-01 3.420930e-01 3.083583e-01 3.790229e-01 3.572336e-01 4.288719e-01 4.165530e-01 4.083889e-01 3.728149e-01 4.367900e-01 4.268161e-01 4.358916e-01
<VARIANCE> 142
 1.841832e-02 4.764647e-03 7.386940e-03 8.637838e-03 2.153782e-02 4.079735e-02 1.129139e-02 5.002151e-03 1.000000e-03 9.150974e-03 1.183762e-02 6.386683e-03 1.666202e-02 2.242475e-02 6.463452e-03 7.483369e-03 9.370440e-03 4.494915e-03 2.503135e-02 6.221113e-03 6.569900e-03 1.854422e-02 1.202170e-02 5.589034e-03 7.919415e-03 7.666827e-03 1.248555e-02 6.543389e-03 1.281046e-02 1.019299e-02 4.631189e-03 1.370267e-02 1.188960e-02 2.351123e-02 1.692301e-03 2.188661e-02 8.249260e-03 1.455346e-02 1.763776e-02 6.527984e-03 8.062803e-03 1.169501e-02 2.379933e-03 1.241966e-02 9.806738e-03 8.267280e-03 8.044907e-03 1.023043e-02 1.759777e-02 6.002923e-03 5.064706e-03 4.232429e-03 1.005642e-02 1.010998e-02 8.555260e-03 2.154763e-03 2.050415e-02 2.229828e-02 1.687180e-02 1.676269e-02 1.259240e-02 4.400190e-03 3.713335e-03 8.590777e-03 9.598550e-03 2.832189e-03 1.997525e-02 1.835223e-02 7.922433e-03 8.162660e-03 6.126375e-03 1.122377e-02 4.017014e-03 3.179812e-03 1.570134e-02 9.782959e-03 4.427065e-03 2.112051e-02 8.446283e-03 1.492968e-02 6.726217e-03 9.365876e-03 5.980583e-03 1.119391e-02 7.786890e-03 8.179348e-03 3.293654e-03 6.917000e-03 6.241906e-03 1.050115e-02 7.582754e-03 7.562810e-03 4.888666e-03 1.796075e-02 3.565337e-03 4.771176e-03 3.595483e-03 5.985954e-03 2.689359e-02 6.125454e-03 5.903163e-03 1.866955e-02 3.241438e-03 1.591831e-02 7.522680e-03 4.952278e-03 5.370256e-03 5.094529e-03 1.960689e-02 3.788786e-02 5.928828e-03 8.040634e-03 3.671887e-03 2.213795e-02 5.884629e-03 7.686303e-03 5.469841e-03 7.300309e-03 5.708797e-03 1.183485e-02 9.144291e-03 1.792615e-02 1.147762e-02 8.844341e-03 2.016949e-02 6.531964e-03 4.934123e-03 1.441451e-02 1.336116e-02 1.422848e-02 5.083217e-03 1.171820e-02 2.281748e-02 6.540791e-03 1.224807e-02 1.100198e-02 1.114465e-02 6.813297e-03 1.272263e-02 1.207455e-02 1.563262e-02 9.647246e-03
<GCONST> -4.102305e+02
<STATE> 3
<MEAN> 142
 5.062934e-01 3.754536e-01 3.922902e-01 3.446147e-01 3.046763e-01 2.440911e-01 2.922284e-01 3.272378e-01 3.808621e-01 4.105807e-01 5.096699e-01 3.966345e-01 3.789559e-01 4.788021e-01 3.815485e-01 3.458951e-01 3.581551e-01 3.591107e-01 2.414205e-01 3.275091e-01 4.444534e-01 4.809198e-01 3.012253e-01 4.443738e-01 4.740255e-01 4.155148e-01 4.090092e-01 4.169522e-01 4.654586e-01 3.831914e-01 4.751684e-01 5.002645e-01 4.229751e-01 4.997972e-01 4.566773e-01 3.917761e-01 4.521323e-01 3.056321e-01 3.533109e-01 3.557200e-01 3.590283e-01 4.565704e-01 2.945955e-01 2.298959e-01 2.628126e-01 4.288972e-01 4.894059e-01 4.283054e-01 4.533831e-01 3.142884e-01 4.764126e-01 3.284211e-01 4.449386e-01 2.627073e-01 4.537382e-01 3.796689e-01 3.530921e-01 2.996702e-01 2.239628e-01 3.741806e-01 3.505604e-01 5.072106e-01 4.238319e-01 4.243846e-01 3.990043e-01 4.530507e-01 3.119803e-01 3.201798e-01 4.332030e-01 3.499226e-01 4.273620e-01 3.418773e-01 3.774739e-01 3.912769e-01 2.714391e-01 3.038000e-01 4.804213e-01 5.850878e-01 4.406334e-01 4.229926e-01 4.520449e-01 4.188115e-01 3.263386e-01 3.969818e-01 3.528436e-01 3.918026e-01 3.909063e-01 4.205286e-01 4.396011e-01 2.767705e-01 3.105612e-01 2.803698e-01 4.253856e-01 3.479677e-01 5.022897e-01 4.736307e-01 4.474389e-01 3.331290e-01 4.609669e-01 4.710625e-01 4.056102e-01 5.008141e-01 3.736356e-01 3.322316e-01 3.385260e-01 2.668507e-01 3.155586e-01 3.919487e-01 4.192311e-01 3.737886e-01 3.918410e-01 3.145232e-01 4.279290e-01 3.821087e-01 3.809739e-01 4.260514e-01 3.068214e-01 4.917262e-01 4.263492e-01 4.203909e-01 4.622392e-01 4.809635e-01 4.957120e-01 2.363898e-01 3.452593e-01 4.099652e-01 3.705660e-01 3.008127e-01 3.597134e-01 3.830396e-01 4.541392e-01 4.401055e-01 2.888277e-01 4.298332e-01 4.346526e-01 4.620916e-01 3.875082e-01 4.510923e-01 3.890122e-01 4.661326e-01 4.839684e-01 4.703306e-01
<VARIANCE> 142
 4.293511e-03 4.914909e-03 1.475962e-02 2.452637e-02 2.701390e-02 1.885871e-02 1.914290e-02 1.337522e-02 1.615326e-03 2.733394e-03 3.878970e-03 9.580638e-03 7.376817e-03 7.374647e-03 6.913131e-03 3.055367e-02 9.158422e-03 5.959980e-03 1.121201e-02 8.899961e-03 6.730999e-03 1.204056e-02 8.032994e-03 2.621864e-03 1.390809e-03 2.262799e-02 2.130322e-02 8.372474e-03 7.540618e-03 6.326223e-03 2.814804e-03 1.127476e-02 8.242168e-03 5.392606e-03 6.436776e-03 9.842780e-03 6.123071e-03 1.876216e-03 8.078254e-03 1.177734e-02 4.944765e-03 6.313807e-03 3.462845e-03 4.653934e-03 2.094544e-02 8.508106e-03 6.120764e-03 7.865676e-03 7.201266e-03 1.063910e-02 2.218651e-02 3.564841e-03 8.079036e-03 1.009820e-02 7.602336e-03 2.394181e-03 1.209084e-02 7.268044e-03 6.593904e-03 4.070592e-02 1.608702e-02 2.097142e-02 1.254517e-02 1.225245e-02 1.040040e-02 6.867805e-03 5.134383e-03 2.372721e-02 7.852994e-03 1.942575e-03 4.882740e-03 1.508949e-02 1.690312e-03 3.075435e-03 8.466618e-03 5.941437e-03 4.675738e-03 2.166426e-02 4.908949e-03 1.455611e-02 4.151795e-03 7.457234e-03 2.307849e-03 7.944122e-03 1.083523e-02 1.161641e-02 2.252109e-03 5.919945e-03 5.703305e-03 1.743897e-02 4.056160e-03 2.418892e-02 6.513111e-03 2.860734e-03 6.597960e-03 4.366725e-03 1.342084e-03 1.922238e-03 4.893228e-03 1.763940e-02 5.960343e-03 6.599780e-03 8.324143e-03 5.403882e-03 8.220070e-03 2.559676e-03 2.349559e-03 1.000000e-03 1.800864e-02 2.777299e-02 4.362371e-03 2.994704e-03 1.464725e-02 3.456669e-03 7.135422e-03 2.920201e-03 3.255108e-03 3.133160e-03 3.459806e-03 3.298686e-03 5.038179e-03 9.638927e-03 5.542875e-03 1.240262e-02 7.871515e-03 5.482425e-03 1.024356e-02 8.113211e-03 9.113800e-03 3.023315e-03 4.856994e-03 9.985310e-03 1.340060e-02 4.138767e-03 1.515799e-02 8.556277e-03 1.470176e-02 7.056443e-03 1.858825e-02 5.993342e-03 8.612686e-03 2.783493e-03
<GCONST> -4.436133e+02
<TRANSP> 4
 0.000000e+00 1.000000e+00 0.000000e+00 0.000000e+00
 0.000000e+00 5.000000e-01 5.000000e-01 0.000000e+00
 0.000000e+00 0.000000e+00 5.000000e-01 5.000000e-01
 0.000000e+00 0.000000e+00 0.000000e+00 0.000000e+00
<ENDHMM>
