~o
<STREAMINFO> 1 142
<VECSIZE> 142<NULLD><USER><DIAGC>
~h "firefighter"
<BEGINHMM>
<NUMSTATES> 4
<STATE> 2
<MEAN> 142
 5.185592e-01 2.847466e-01 3.294355e-01 2.959231e-01 2.905152e-01 4.064700e-01 3.468188e-01 3.356246e-01 4.205177e-01 4.548065e-01 4.560190e-01 3.986081e-01 4.375369e-01 4.674190e-01 3.688271e-01 3.347495e-01 3.260322e-01 3.225621e-01 3.978975e-01 3.935962e-01 4.176186e-01 4.415937e-01 4.263624e-01 4.000023e-01 4.813050e-01 4.716242e-01 3.948584e-01 2.946805e-01 3.556698e-01 4.427691e-01 4.725916e-01 3.639381e-01 3.151786e-01 4.906240e-01 4.309123e-01 3.576935e-01 3.398969e-01 4.366977e-01 3.827872e-01 3.865606e-01 4.392719e-01 3.930329e-01 4.076320e-01 3.660175e-01 2.147243e-01 2.827771e-01 3.549171e-01 4.821939e-01 4.231467e-01 3.985367e-01 5.022405e-01 5.114992e-01 4.967272e-01 3.414206e-01 3.103451e-01 3.364554e-01 4.415137e-01 3.801461e-01 4.004966e-01 3.647746e-01 4.404023e-01 4.022500e-01 4.308220e-01 4.530203e-01 4.388892e-01 3.668428e-01 5.629812e-01 4.842682e-01 4.043241e-01 5.164927e-01 4.523775e-01 4.074170e-01 3.795943e-01 3.899843e-01 4.386086e-01 4.251860e-01 3.792646e-01 3.193235e-01 5.071177e-01 3.957044e-01 4.286266e-01 3.207338e-01 3.943417e-01 4.097326e-01 3.732812e-01 3.579005e-01 4.073122e-01 4.581211e-01 4.669367e-01 3.811392e-01 3.495048e-01 3.805907e-01 3.872353e-01 3.422818e-01 3.339613e-01 4.278727e-01 4.065228e-01 4.029933e-01 4.292005e-01 5.038348e-01 4.052333e-01 4.126086e-01 3.681117e-01 4.186221e-01 3.081875e-01 3.289910e-01 4.643084e-01 4.750117e-01 4.581150e-01 4.045347e-01 4.175827e-01 3.024350e-01 2.728739e-01 3.129167e-01 3.262635e-01 4.460672e-01 3.951441e-01 3.539697e-01 3.855389e-01 3.876767e-01 4.138804e-01 3.531821e-01 3.652827e-01 3.863692e-01 4.221023e-01 3.264720e-01 3.691511e-01 4.220652e-01 3.941197e-01 4.194387e-01 3.453101e-01 3.550795e-01 4.086651e-01 4.470875e-01 3.288825e-01 4.161473e-01 3.428127e-01 4.286392e-01 3.845282e-01 3.194440e-01 3.113062e-01 3.777198e-01
<VARIANCE> 142
 1.711069e-02 3.394441e-03 1.846841e-02 2.716440e-03 7.545769e-03 5.468145e-02 9.496681e-03 1.189917e-02 5.648213e-03 2.457849e-03 1.018481e-02 1.318377e-02 2.169086e-02 1.424582e-02 9.232810e-03 1.340406e-02 9.077170e-03 7.716351e-03 2.588717e-02 1.824864e-02 1.144879e-02 2.562411e-02 1.911273e-02 1.068125e-02 6.166405e-03 2.227849e-02 5.584104e-03 8.866515e-03 3.506121e-03 2.051968e-02 1.000000e-03 5.636625e-03 1.668361e-02 1.358476e-02 1.000000e-03 3.179100e-02 2.101397e-02 2.201105e-02 1.930616e-02 8.719753e-03 1.388680e-02 1.833008e-02 5.018346e-03 1.278412e-02 1.133826e-02 8.152376e-03 5.080975e-03 1.268250e-02 2.277096e-02 5.240768e-03 2.210721e-03 4.246737e-02 8.916038e-03 7.310162e-03 4.715241e-03 4.169838e-03 7.530692e-03 2.163214e-02 1.520147e-02 1.572222e-02 1.570205e-02 6.968448e-03 5.261286e-03 1.336540e-02 1.023494e-02 1.017108e-02 3.112798e-02 2.624505e-02 4.333061e-03 1.398761e-02 3.640305e-03 2.423348e-02 3.877848e-03 3.818664e-03 1.596856e-02 2.028870e-02 1.885710e-03 1.383744e-02 5.349890e-03 1.682439e-02 4.994052e-03 3.253804e-03 1.449094e-02 1.686984e-02 8.115740e-03 1.519260e-02 4.201390e-03 5.755276e-03 1.116578e-02 1.872753e-02 7.496490e-03 3.077231e-02 5.238746e-03 4.302195e-03 5.843977e-03 5.131754e-03 4.360181e-03 1.738113e-02 1.666306e-02 7.835078e-03 1.143304e-02 1.423048e-02 5.041274e-03 6.101000e-03 1.411757e-02 3.320417e-03 1.427528e-02 5.466797e-03 2.090995e-02 4.640260e-02 9.445165e-03 9.208973e-03 2.690831e-03 1.423969e-02 2.819531e-03 1.385443e-02 1.158886e-02 1.453393e-02 1.179093e-03 4.245749e-03 2.782179e-03 7.392797e-03 1.127138e-02 5.621907e-02 1.707231e-02 8.526094e-03 9.330638e-03 5.677791e-03 5.737992e-03 1.175022e-02 7.126178e-03 2.861796e-03 1.899047e-02 2.194904e-02 4.910896e-03 1.455520e-02 1.275739e-02 6.000042e-03 2.285337e-02 1.461323e-02 1.210221e-02 1.116057e-02
<GCONST> -4.002575e+02
<STATE> 3
<MEAN> 142
 5.717137e-01 3.355191e-01 3.433987e-01 3.007640e-01 2.815466e-01 3.912789e-01 3.378339e-01 4.411495e-01 3.963846e-01 4.497599e-01 4.592412e-01 4.387441e-01 4.809762e-01 5.166918e-01 4.600578e-01 4.109844e-01 4.179282e-01 4.586937e-01 2.770606e-01 4.463418e-01 4.762898e-01 4.517823e-01 3.706214e-01 4.612344e-01 4.897945e-01 4.251810e-01 4.170484e-01 3.753474e-01 4.305986e-01 4.158452e-01 4.941188e-01 4.114744e-01 3.158583e-01 4.533929e-01 4.341423e-01 4.006383e-01 4.016585e-01 5.168566e-01 4.272182e-01 4.478857e-01 4.235093e-01 4.208706e-01 2.829672e-01 4.262986e-01 1.884025e-01 3.592729e-01 4.006714e-01 5.083294e-01 4.824847e-01 3.089767e-01 4.430133e-01 5.269119e-01 4.998443e-01 2.699701e-01 3.989901e-01 3.597427e-01 4.642274e-01 3.387505e-01 3.415074e-01 3.545256e-01 4.654739e-01 4.304386e-01 4.195095e-01 4.283837e-01 3.846950e-01 4.019243e-01 5.283431e-01 4.270513e-01 3.924849e-01 4.669141e-01 4.738792e-01 4.151874e-01 4.367691e-01 4.077743e-01 3.730132e-01 4.203852e-01 4.545124e-01 3.731445e-01 4.986711e-01 4.050460e-01 4.899997e-01 3.718657e-01 5.239182e-01 4.187895e-01 2.985614e-01 4.173860e-01 3.651945e-01 4.158346e-01 4.970034e-01 3.660060e-01 3.494557e-01 3.777696e-01 4.528079e-01 3.359866e-01 3.828279e-01 5.003166e-01 4.379909e-01 4.318219e-01 4.272796e-01 4.289415e-01 4.338557e-01 4.636520e-01 3.371105e-01 4.008403e-01 3.340315e-01 3.419687e-01 4.294040e-01 4.263934e-01 4.364685e-01 4.030969e-01 4.034152e-01 3.437886e-01 2.979840e-01 3.142628e-01 3.668256e-01 3.515015e-01 3.837869e-01 4.004238e-01 3.764657e-01 3.829710e-01 4.171424e-01 4.194986e-01 4.154053e-01 3.710213e-01 3.910079e-01 3.498247e-01 3.517015e-01 4.158792e-01 3.468255e-01 4.482866e-01 4.368377e-01 4.262470e-01 4.024499e-01 4.664558e-01 4.093547e-01 4.074295e-01 4.356652e-01 4.673074e-01 4.569084e-01 3.532990e-01 4.109938e-01 4.615318e-01
<VARIANCE> 142
 3.793546e-02 2.846596e-03 8.858763e-03 2.287074e-03 5.557095e-03 1.371191e-02 2.968323e-03 1.442136e-02 1.530673e-02 2.528831e-03 1.686849e-02 7.318937e-03 5.721439e-03 1.457911e-02 4.250639e-02 2.055653e-02 1.728728e-02 1.844806e-02 2.419501e-02 3.809840e-03 4.561394e-03 3.306318e-03 1.661623e-02 7.885930e-03 5.040524e-03 3.648530e-03 8.216981e-03 2.501788e-03 9.122735e-03 1.358501e-02 3.125434e-03 9.946268e-03 2.062322e-02 5.861757e-03 1.683083e-03 4.918628e-02 1.097472e-02 3.108414e-02 1.991169e-02 4.598386e-02 2.899414e-02 8.320883e-03 4.499389e-03 6.403318e-03 4.381897e-03 1.031546e-02 6.899081e-03 1.694776e-02 2.212059e-02 1.111058e-02 1.507462e-03 2.431098e-02 7.346149e-03 7.847258e-03 1.338357e-02 7.185447e-03 1.396445e-02 8.869749e-03 3.454753e-03 6.923660e-03 5.198418e-03 6.936858e-03 1.454943e-03 3.570257e-03 3.716792e-03 5.998210e-03 3.498836e-02 5.955427e-03 7.499468e-03 1.719164e-02 2.949635e-03 2.401988e-02 5.140988e-03 1.062963e-02 8.761907e-03 7.754180e-03 1.098911e-02 4.559569e-03 2.644808e-03 6.094803e-03 7.614811e-03 1.109219e-02 6.040255e-02 8.556372e-03 6.186421e-03 3.678304e-02 2.908416e-03 5.838977e-03 4.970201e-03 8.432820e-03 9.288250e-03 2.121841e-02 3.060011e-03 3.300260e-03 3.905307e-03 3.737304e-03 1.224153e-02 1.175391e-02 1.613464e-02 1.287249e-02 8.003315e-03 3.531635e-03 9.559867e-03 2.073745e-03 8.826269e-03 2.881613e-03 6.093960e-03 1.330088e-02 4.276923e-03 1.048857e-02 3.119680e-03 3.829660e-03 3.726173e-03 6.196516e-03 3.698385e-03 3.682313e-03 1.242711e-02 5.808569e-03 2.761713e-03 3.237713e-03 4.658896e-03 6.158693e-03 1.931366e-02 2.327815e-02 3.037505e-03 6.459354e-03 2.238680e-03 2.200085e-02 3.817617e-03 8.096212e-03 1.259656e-02 7.321953e-03 1.074559e-02 1.039901e-02 2.312659e-02 1.121124e-02 1.642112e-02 4.171699e-02 5.699676e-02 5.625745e-03 6.367942e-03 9.799691e-03
<GCONST> -4.229651e+02
<TRANSP> 4
 0.000000e+00 1.000000e+00 0.000000e+00 0.000000e+00
 0.000000e+00 5.000000e-01 5.000000e-01 0.000000e+00
 0.000000e+00 0.000000e+00 5.000000e-01 5.000000e-01
 0.000000e+00 0.000000e+00 0.000000e+00 0.000000e+00
<ENDHMM>
