~o
<STREAMINFO> 1 142
<VECSIZE> 142<NULLD><USER><DIAGC>
~h "forget"
<BEGINHMM>
<NUMSTATES> 4
<STATE> 2
<MEAN> 142
 5.295107e-01 3.390761e-01 2.944845e-01 3.965100e-01 3.091888e-01 2.643208e-01 3.841593e-01 2.899047e-01 3.330487e-01 3.948330e-01 3.470612e-01 3.995295e-01 3.208967e-01 3.582256e-01 3.908402e-01 3.997334e-01 4.410396e-01 3.993143e-01 2.475019e-01 3.105815e-01 4.465789e-01 3.925087e-01 3.236691e-01 4.680044e-01 4.447322e-01 3.738661e-01 3.891578e-01 4.033252e-01 4.170905e-01 4.534686e-01 4.866568e-01 3.597164e-01 3.706775e-01 4.623702e-01 3.908448e-01 4.329431e-01 3.814811e-01 3.705063e-01 4.118961e-01 3.933145e-01 3.735124e-01 4.770394e-01 3.360903e-01 2.690083e-01 3.138843e-01 3.424542e-01 3.642250e-01 3.908722e-01 4.011042e-01 3.006829e-01 5.000017e-01 3.827873e-01 3.682205e-01 2.851224e-01 3.710160e-01 3.990203e-01 3.425158e-01 2.780862e-01 3.089992e-01 3.746142e-01 4.076585e-01 4.311011e-01 3.107954e-01 3.466040e-01 4.033598e-01 4.286798e-01 3.148214e-01 3.719043e-01 3.783427e-01 3.866732e-01 4.436461e-01 3.164851e-01 3.847606e-01 3.775197e-01 2.492436e-01 3.317151e-01 4.161907e-01 3.504923e-01 4.203905e-01 4.270035e-01 5.216354e-01 3.954104e-01 4.084386e-01 3.671492e-01 4.158044e-01 3.613522e-01 3.384717e-01 3.775009e-01 4.771541e-01 3.928295e-01 3.302058e-01 3.393253e-01 4.896573e-01 3.174885e-01 4.327248e-01 4.757533e-01 5.118976e-01 3.234615e-01 4.400203e-01 3.820582e-01 4.074280e-01 4.053684e-01 2.837772e-01 3.809755e-01 3.009255e-01 2.102013e-01 3.118102e-01 3.536620e-01 3.495375e-01 3.352923e-01 3.451940e-01 3.765833e-01 3.808970e-01 3.668258e-01 3.331801e-01 3.612523e-01 3.820911e-01 3.843942e-01 4.039824e-01 3.222452e-01 4.009338e-01 3.997689e-01 3.488765e-01 4.131442e-01 3.166287e-01 3.595411e-01 4.313922e-01 4.258876e-01 3.710033e-01 3.383364e-01 4.185275e-01 4.478979e-01 3.213715e-01 4.186022e-01 4.444375e-01 4.143970e-01 4.375767e-01 4.599690e-01 4.540098e-01 4.093554e-01 3.878240e-01 3.662648e-01
<VARIANCE> 142
 1.056485e-02 3.911498e-03 1.151158e-02 1.444995e-02 1.040772e-02 1.059894e-02 2.707314e-02 1.583694e-02 3.100453e-03 7.128136e-03 5.575642e-03 6.855844e-03 4.373112e-03 7.226228e-03 2.208996e-02 3.538330e-02 1.599152e-02 2.503700e-02 1.023690e-02 1.394009e-02 3.675634e-03 1.317348e-02 3.959214e-03 1.070085e-02 1.000000e-03 2.253228e-03 7.518679e-03 1.515270e-03 1.183699e-02 5.984159e-03 2.047060e-03 6.266729e-03 2.939007e-02 2.144686e-02 1.000000e-03 1.581391e-02 1.258045e-02 3.091293e-02 1.772509e-02 1.893318e-02 1.460231e-02 1.943526e-02 9.156747e-03 9.532357e-03 1.962784e-02 3.302424e-03 4.579855e-03 1.009126e-02 7.606985e-03 3.958333e-03 5.819097e-03 1.787578e-02 1.438254e-02 1.846259e-03 7.176959e-03 9.767412e-03 6.753151e-03 5.470275e-03 3.485949e-03 3.042746e-02 2.272809e-02 3.147875e-03 6.639919e-03 7.737021e-03 1.441843e-02 1.950107e-02 2.989585e-02 2.630661e-02 6.851142e-03 1.337061e-02 3.831205e-03 8.003159e-03 8.382730e-03 6.120559e-03 6.981993e-03 6.102019e-03 1.052515e-02 7.655708e-03 3.049407e-03 1.412748e-02 9.843470e-03 8.169867e-03 3.069428e-02 9.286716e-03 2.439501e-02 9.919606e-03 3.224897e-03 1.878258e-03 5.168434e-03 9.100593e-03 8.807543e-03 1.152658e-02 1.709465e-02 5.440838e-03 1.888437e-03 1.338351e-02 8.327871e-03 2.224926e-02 2.406421e-03 4.692078e-03 6.940118e-03 4.556461e-03 4.314910e-03 6.677313e-03 4.843059e-03 2.684858e-03 9.053859e-03 6.036803e-03 1.029523e-02 2.246211e-02 5.352795e-03 2.490691e-03 3.383860e-02 2.600965e-03 3.904446e-03 2.264509e-03 7.164732e-03 6.236439e-03 1.691833e-03 6.487043e-03 2.275656e-03 1.343362e-02 9.856215e-03 1.306554e-02 7.288024e-03 7.019137e-03 6.772189e-03 3.626074e-02 1.985935e-02 5.832450e-03 1.557337e-02 9.945175e-03 1.483492e-02 2.307499e-02 9.611837e-03 3.195886e-03 8.059650e-03 1.173363e-02 3.296866e-02 5.989098e-03 6.522189e-03 3.784060e-03
<GCONST> -4.222841e+02
<STATE> 3
<MEAN> 142
 7.718132e-01 3.751297e-01 3.778300e-01 3.344406e-01 2.530296e-01 2.835331e-01 4.015883e-01 3.428363e-01 3.341206e-01 3.946949e-01 3.912399e-01 4.288657e-01 3.833971e-01 3.919845e-01 2.043106e-01 2.854349e-01 3.696416e-01 4.131759e-01 3.215741e-01 3.712930e-01 4.230553e-01 4.788758e-01 3.952712e-01 4.398716e-01 4.460321e-01 3.742129e-01 4.045555e-01 3.586726e-01 3.859639e-01 3.248753e-01 4.473018e-01 4.522493e-01 4.944946e-01 3.964114e-01 4.041076e-01 3.270066e-01 2.825776e-01 2.906936e-01 2.984872e-01 2.102601e-01 2.847920e-01 4.368373e-01 3.165232e-01 3.336267e-01 2.221399e-01 4.238769e-01 4.186263e-01 3.168795e-01 3.968639e-01 3.655470e-01 4.692769e-01 3.696179e-01 4.058616e-01 2.584293e-01 5.125145e-01 3.448477e-01 4.587124e-01 3.058389e-01 3.599567e-01 2.516140e-01 4.636447e-01 4.627836e-01 4.129919e-01 3.931780e-01 3.391032e-01 4.850830e-01 3.087846e-01 3.311927e-01 4.358753e-01 3.066447e-01 4.418842e-01 4.791607e-01 4.674629e-01 3.775028e-01 3.608980e-01 3.596881e-01 4.881647e-01 4.446146e-01 4.393467e-01 4.098037e-01 4.225208e-01 3.749637e-01 3.422257e-01 4.727554e-01 2.691580e-01 4.468980e-01 3.753832e-01 4.295045e-01 4.373935e-01 3.341458e-01 3.960327e-01 3.352562e-01 4.086633e-01 3.739490e-01 4.040049e-01 4.513982e-01 3.833680e-01 3.207300e-01 3.553240e-01 4.008762e-01 3.620077e-01 4.957047e-01 3.709598e-01 3.138859e-01 2.754057e-01 2.942474e-01 4.231848e-01 3.543055e-01 3.834805e-01 3.247102e-01 4.191814e-01 3.845898e-01 3.123179e-01 3.021223e-01 3.585718e-01 3.825903e-01 3.971409e-01 4.013377e-01 4.283825e-01 4.311894e-01 4.243021e-01 5.593325e-01 4.837536e-01 4.181322e-01 4.126336e-01 4.444431e-01 4.004357e-01 3.372856e-01 3.640787e-01 3.649208e-01 3.471056e-01 3.985626e-01 4.512616e-01 3.715058e-01 3.460209e-01 3.818133e-01 4.277934e-01 3.370411e-01 2.865305e-01 3.332509e-01 4.814818e-01 4.761471e-01
<VARIANCE> 142
 4.866204e-02 1.107931e-03 1.389221e-02 5.391713e-03 9.905430e-03 1.558681e-02 1.280619e-02 8.064030e-03 5.811033e-03 4.450949e-03 5.232987e-03 4.390743e-03 3.644623e-03 3.163440e-03 1.001250e-02 5.891842e-03 4.891142e-03 1.066998e-02 1.371229e-02 1.625773e-02 9.990605e-03 3.982921e-03 6.197379e-03 3.155743e-03 4.201606e-03 6.008505e-03 3.788146e-03 1.000000e-03 8.138753e-03 3.579540e-03 4.236582e-03 5.683928e-03 2.061086e-02 6.361722e-03 1.000000e-03 1.038877e-02 1.101808e-02 1.484424e-02 1.122049e-02 5.335977e-03 1.455079e-02 1.794744e-02 4.979711e-03 1.457855e-02 4.300425e-03 2.832525e-03 4.574843e-03 3.008715e-03 3.299969e-03 9.252242e-03 3.113211e-03 1.049893e-02 2.335173e-03 5.076950e-03 8.182075e-03 5.155937e-03 1.380375e-02 1.404024e-02 2.859337e-03 1.040735e-02 1.812444e-02 4.003154e-03 6.363621e-03 3.885228e-03 1.927064e-03 3.896839e-03 8.323072e-03 1.078096e-02 8.990405e-03 3.481353e-03 2.375859e-03 2.061930e-02 5.074076e-03 3.295352e-03 6.305344e-03 8.671382e-03 3.944485e-03 1.602706e-02 1.765820e-03 7.784796e-03 6.600986e-03 2.332479e-03 2.379029e-02 7.418089e-03 5.567641e-03 9.354773e-03 1.422710e-03 1.698182e-03 5.299309e-03 6.096584e-03 8.659787e-03 6.661353e-03 8.241053e-03 7.699535e-03 7.277419e-03 3.579836e-03 3.475699e-03 8.764936e-03 4.938134e-03 4.543545e-03 5.474096e-03 2.473114e-03 6.142955e-03 7.093786e-03 6.627956e-03 4.733594e-03 9.454491e-03 1.159824e-02 5.063132e-03 7.899998e-03 8.664733e-03 3.935237e-03 5.101225e-03 8.511511e-03 1.450546e-03 1.060728e-03 6.335083e-03 2.960891e-03 1.736485e-03 9.731590e-03 5.113018e-03 9.017874e-03 1.185573e-02 8.212058e-03 1.227597e-02 2.028046e-03 2.831691e-03 6.826410e-03 5.093691e-03 1.199310e-02 5.653595e-03 5.875297e-03 1.733753e-02 6.527118e-03 1.692505e-02 1.182316e-02 6.106887e-03 4.702264e-03 6.483754e-03 1.391793e-03 7.849780e-03 8.454957e-03
<GCONST> -4.659218e+02
<TRANSP> 4
 0.000000e+00 1.000000e+00 0.000000e+00 0.000000e+00
 0.000000e+00 5.000000e-01 5.000000e-01 0.000000e+00
 0.000000e+00 0.000000e+00 5.000000e-01 5.000000e-01
 0.000000e+00 0.000000e+00 0.000000e+00 0.000000e+00
<ENDHMM>
