~o
<STREAMINFO> 1 142
<VECSIZE> 142<NULLD><USER><DIAGC>
~h "go"
<BEGINHMM>
<NUMSTATES> 4
<STATE> 2
<MEAN> 142
 4.972357e-01 3.528321e-01 3.552661e-01 3.519551e-01 3.204613e-01 3.848923e-01 3.072957e-01 2.702952e-01 3.947821e-01 4.287579e-01 4.463117e-01 4.387093e-01 3.650063e-01 4.844937e-01 3.363175e-01 2.932582e-01 3.826192e-01 4.242642e-01 4.263381e-01 3.687983e-01 4.026978e-01 3.841843e-01 3.973678e-01 3.982304e-01 5.047821e-01 4.200620e-01 4.565856e-01 4.264203e-01 4.096871e-01 4.531285e-01 4.483582e-01 3.650737e-01 2.916571e-01 4.861743e-01 4.139426e-01 3.289406e-01 3.771000e-01 4.420177e-01 3.724136e-01 3.389062e-01 4.222872e-01 4.355597e-01 4.334220e-01 3.299772e-01 2.664298e-01 3.798547e-01 3.517249e-01 3.852318e-01 3.917559e-01 3.840254e-01 4.589520e-01 4.125317e-01 4.637049e-01 3.250326e-01 3.825247e-01 4.049323e-01 4.341222e-01 3.810705e-01 3.899513e-01 3.654355e-01 3.806540e-01 4.121841e-01 4.006148e-01 4.740113e-01 4.942963e-01 3.629203e-01 4.286485e-01 4.291919e-01 3.607767e-01 4.954107e-01 4.478132e-01 3.959805e-01 3.391328e-01 4.174284e-01 3.442016e-01 4.054985e-01 3.590337e-01 3.259838e-01 4.918776e-01 4.019681e-01 5.172396e-01 3.672259e-01 3.624046e-01 3.632615e-01 4.108146e-01 3.213768e-01 3.955120e-01 4.065317e-01 5.030029e-01 3.832487e-01 3.908439e-01 2.816654e-01 4.429733e-01 4.249313e-01 3.645350e-01 4.667723e-01 4.451044e-01 4.565777e-01 4.381873e-01 4.873587e-01 4.336267e-01 4.289153e-01 3.281386e-01 4.555009e-01 3.213858e-01 2.724152e-01 4.131266e-01 4.642300e-01 4.357371e-01 3.890396e-01 4.233427e-01 4.178787e-01 3.051300e-01 3.728136e-01 3.721876e-01 4.457559e-01 4.468024e-01 3.383454e-01 4.647928e-01 3.885876e-01 4.050285e-01 3.549786e-01 3.812963e-01 4.421192e-01 3.919076e-01 3.896526e-01 4.607043e-01 4.795607e-01 5.290546e-01 3.987353e-01 3.596608e-01 3.862481e-01 3.882662e-01 4.451376e-01 3.868175e-01 3.914034e-01 3.804950e-01 3.889831e-01 3.608346e-01 3.561380e-01 3.485184e-01 3.814981e-01
<VARIANCE> 142
 1.240517e-02 1.222317e-02 1.393540e-02 2.709830e-03 3.882949e-03 6.320661e-02 7.723952e-03 7.566611e-03 2.782635e-03 3.413226e-03 1.227056e-02 1.772735e-02 3.597386e-03 2.022457e-02 7.687749e-03 1.013996e-02 1.963769e-02 2.501236e-02 3.023515e-02 5.110045e-03 1.642497e-02 2.188076e-02 1.067050e-02 1.050192e-02 5.523895e-03 4.138629e-03 7.451010e-03 1.557380e-02 1.382588e-02 2.100343e-02 1.920054e-03 9.679864e-03 6.710080e-03 1.623580e-02 2.184237e-03 1.751829e-02 1.604746e-02 1.432460e-02 9.719432e-03 1.013350e-02 4.653846e-03 1.476763e-02 8.155512e-03 1.829536e-02 4.448916e-03 1.249682e-02 4.027934e-03 1.033539e-02 3.298002e-02 1.000325e-02 6.406022e-03 2.297626e-03 5.319588e-03 5.122145e-03 7.634872e-03 1.407451e-02 2.364332e-02 3.493651e-02 2.083259e-02 2.756429e-02 9.412455e-03 4.489855e-03 4.795028e-03 8.496467e-03 1.572997e-02 1.100301e-02 6.456877e-03 4.618851e-02 8.091721e-03 7.546472e-03 4.379086e-03 1.260027e-02 3.099600e-03 4.771464e-03 1.738425e-02 3.840546e-03 7.397333e-03 4.795216e-03 6.573787e-03 1.003883e-02 1.413492e-02 6.654899e-03 8.047706e-03 1.749619e-02 9.990073e-03 9.391287e-03 2.692285e-03 5.741625e-03 1.333361e-02 7.754735e-03 2.095065e-02 1.914692e-02 1.995041e-02 2.461128e-02 3.857910e-03 1.244701e-02 6.546346e-03 2.066487e-02 3.284852e-03 8.379200e-03 2.831316e-03 1.349858e-02 8.185083e-03 1.397340e-02 1.858466e-02 6.294714e-03 1.168960e-02 1.976619e-02 2.311355e-02 7.862344e-02 1.152268e-02 2.598613e-02 6.000368e-03 1.112721e-02 7.016146e-03 8.041350e-03 1.767747e-02 8.121708e-03 1.617904e-02 1.146089e-02 5.264514e-03 1.786073e-02 1.461514e-02 1.105355e-02 3.245069e-02 7.653728e-03 1.088882e-02 2.961387e-02 3.438925e-02 2.398791e-02 1.557513e-02 8.173719e-03 2.116274e-02 8.983067e-03 6.622428e-03 2.753043e-03 6.972246e-03 4.923706e-03 1.480099e-02 6.990276e-03 1.726555e-02 1.279380e-02
<GCONST> -3.910242e+02
<STATE> 3
<MEAN> 142
 7.201961e-01 3.569670e-01 3.807429e-01 3.614868e-01 2.865562e-01 3.152305e-01 3.496787e-01 2.976463e-01 3.220280e-01 3.916740e-01 4.048214e-01 4.501413e-01 3.861941e-01 4.474142e-01 2.492328e-01 3.021667e-01 3.795791e-01 4.099715e-01 2.767391e-01 3.588997e-01 4.464721e-01 4.188030e-01 3.617379e-01 4.056537e-01 4.145336e-01 3.900470e-01 3.801225e-01 3.971179e-01 3.684521e-01 3.354030e-01 4.594775e-01 4.528476e-01 4.923085e-01 4.184066e-01 4.305960e-01 3.547940e-01 2.958837e-01 3.418803e-01 2.869882e-01 2.960504e-01 3.303522e-01 3.979548e-01 3.095597e-01 2.946765e-01 2.347493e-01 4.316753e-01 4.349927e-01 3.636032e-01 3.626762e-01 3.037948e-01 4.887431e-01 3.608957e-01 4.167505e-01 2.755437e-01 4.835655e-01 3.344323e-01 3.856827e-01 3.107160e-01 3.640372e-01 2.695594e-01 4.223466e-01 4.800537e-01 3.804167e-01 4.167386e-01 4.027022e-01 4.223517e-01 3.253845e-01 3.434449e-01 4.703034e-01 3.728594e-01 4.779900e-01 4.985620e-01 4.221486e-01 3.887922e-01 3.655885e-01 3.674352e-01 5.109447e-01 4.604892e-01 4.095539e-01 3.697313e-01 4.354569e-01 3.372853e-01 3.816959e-01 4.320650e-01 3.240484e-01 4.736964e-01 4.246587e-01 4.495337e-01 4.258817e-01 3.683121e-01 3.581840e-01 3.492660e-01 4.101861e-01 3.842843e-01 4.174111e-01 4.657756e-01 4.315375e-01 3.527997e-01 3.746808e-01 4.005058e-01 3.783379e-01 4.826998e-01 3.947855e-01 3.442824e-01 2.913980e-01 2.328540e-01 3.566788e-01 3.448612e-01 3.987422e-01 3.231645e-01 4.234070e-01 3.493320e-01 3.296989e-01 3.194841e-01 3.954752e-01 4.504609e-01 3.585636e-01 3.810863e-01 4.438908e-01 3.782053e-01 3.777595e-01 4.872203e-01 4.594364e-01 4.376175e-01 3.991275e-01 3.936382e-01 4.058242e-01 3.456672e-01 3.716863e-01 3.854627e-01 3.570532e-01 4.460118e-01 4.183173e-01 4.104312e-01 3.575374e-01 3.924950e-01 4.015322e-01 3.845948e-01 3.195271e-01 3.653153e-01 4.772190e-01 4.616310e-01
<VARIANCE> 142
 4.899158e-02 2.664997e-03 4.972965e-03 1.105688e-03 9.196791e-03 1.957188e-02 8.794704e-03 1.059618e-02 2.069190e-03 4.215734e-03 7.952186e-03 4.575900e-03 8.231506e-03 1.916216e-02 1.059591e-02 6.482620e-03 1.276439e-02 1.194674e-02 1.371206e-02 5.256897e-03 9.369800e-03 1.105145e-02 6.600371e-03 4.428627e-03 2.532517e-03 2.681083e-03 3.255574e-03 4.441305e-03 5.992067e-03 1.030064e-02 1.419915e-03 1.133194e-02 2.396340e-02 5.284752e-03 2.698413e-03 7.118563e-03 8.072678e-03 2.007439e-02 5.400419e-03 1.046978e-02 9.813305e-03 4.027500e-03 6.646768e-03 1.559287e-02 4.558335e-03 7.760421e-03 7.474000e-03 2.332669e-03 5.921820e-03 3.221871e-03 6.652729e-03 6.668920e-03 1.655774e-03 2.926539e-03 1.225721e-02 8.664269e-03 2.287184e-02 1.022462e-02 7.364007e-03 7.145703e-03 7.121714e-03 1.420616e-02 1.504346e-03 4.156412e-03 7.764440e-03 7.620526e-03 9.422064e-03 8.630084e-03 7.406049e-03 1.299068e-02 2.913298e-03 1.876580e-02 7.445975e-03 2.099406e-03 6.549336e-03 5.755494e-03 7.961926e-03 5.262140e-03 2.045110e-03 3.907958e-03 9.507858e-03 3.444449e-03 1.129167e-02 6.550567e-03 7.355641e-03 1.345632e-02 2.630408e-03 5.281203e-03 6.889690e-03 6.921395e-03 4.016613e-03 7.754064e-03 1.036856e-02 1.288489e-02 8.739097e-03 3.790682e-03 5.471115e-03 1.779015e-02 6.188561e-03 2.130338e-03 1.210171e-02 6.412948e-03 8.424260e-03 1.502755e-02 2.944376e-03 4.054713e-03 9.453244e-03 1.168670e-02 1.744644e-02 1.344394e-02 6.443697e-03 7.099129e-03 2.628344e-03 4.902424e-03 3.956176e-03 9.869543e-03 1.154957e-02 4.316071e-03 6.463573e-03 6.436249e-03 2.564403e-03 1.374261e-02 6.987930e-03 2.036594e-02 6.367996e-03 6.795113e-03 2.890472e-03 1.973639e-02 1.640698e-02 3.715503e-03 3.712044e-03 5.607244e-03 2.680768e-02 3.828523e-03 3.276829e-03 2.675708e-03 9.770514e-03 1.240528e-02 3.291166e-03 6.768470e-03 7.445931e-03 4.470600e-03
<GCONST> -4.509309e+02
<TRANSP> 4
 0.000000e+00 1.000000e+00 0.000000e+00 0.000000e+00
 0.000000e+00 5.000000e-01 5.000000e-01 0.000000e+00
 0.000000e+00 0.000000e+00 5.000000e-01 5.000000e-01
 0.000000e+00 0.000000e+00 0.000000e+00 0.000000e+00
<ENDHMM>
