~o
<STREAMINFO> 1 142
<VECSIZE> 142<NULLD><USER><DIAGC>
~h "governor"
<BEGINHMM>
<NUMSTATES> 4
<STATE> 2
<MEAN> 142
 5.727338e-01 3.348663e-01 3.572141e-01 3.447586e-01 3.468837e-01 3.296441e-01 3.959651e-01 3.054372e-01 3.515276e-01 4.166880e-01 3.939922e-01 3.789562e-01 3.697628e-01 4.099500e-01 3.310524e-01 4.007313e-01 4.084669e-01 3.321195e-01 2.750735e-01 3.411701e-01 4.605506e-01 4.408355e-01 3.613215e-01 4.509470e-01 4.665866e-01 3.811483e-01 3.700330e-01 3.666219e-01 4.059158e-01 3.546730e-01 4.452959e-01 4.041517e-01 3.565055e-01 4.758015e-01 4.085685e-01 3.837035e-01 3.462707e-01 3.335980e-01 3.532165e-01 3.759838e-01 4.133258e-01 4.500367e-01 2.982196e-01 3.194588e-01 2.063912e-01 3.739698e-01 4.993165e-01 3.904453e-01 4.738013e-01 2.858993e-01 4.734877e-01 3.950194e-01 3.839209e-01 2.867021e-01 4.627088e-01 3.621630e-01 3.875212e-01 3.202851e-01 3.510935e-01 3.126581e-01 4.402901e-01 4.294287e-01 3.644543e-01 3.816911e-01 3.811879e-01 4.413045e-01 3.906915e-01 4.219109e-01 3.811112e-01 3.789324e-01 4.479985e-01 4.140375e-01 3.700545e-01 3.708927e-01 2.579037e-01 3.323034e-01 4.627467e-01 4.732446e-01 4.808783e-01 4.783012e-01 4.533532e-01 3.687117e-01 3.401434e-01 4.280737e-01 3.452699e-01 4.269047e-01 3.773163e-01 4.226100e-01 4.786995e-01 3.357466e-01 3.065808e-01 2.789467e-01 3.993506e-01 3.218470e-01 4.438773e-01 4.530299e-01 4.162593e-01 3.395932e-01 5.036687e-01 4.396195e-01 3.714048e-01 4.503137e-01 3.171393e-01 3.644255e-01 3.146732e-01 3.116965e-01 3.505773e-01 3.878617e-01 3.543741e-01 4.217210e-01 3.141585e-01 3.255123e-01 3.816841e-01 3.965334e-01 3.567591e-01 3.950677e-01 2.917333e-01 4.553189e-01 4.485926e-01 3.963794e-01 4.312110e-01 4.505035e-01 4.336813e-01 3.554381e-01 4.053070e-01 3.832696e-01 3.472654e-01 3.467312e-01 3.317617e-01 3.744448e-01 4.173491e-01 4.129796e-01 3.655539e-01 4.103648e-01 4.324659e-01 4.641295e-01 4.404587e-01 4.505564e-01 4.454962e-01 3.913748e-01 4.831715e-01 4.275411e-01
<VARIANCE> 142
 3.556409e-02 6.047308e-03 1.110814e-02 7.017257e-03 1.423135e-02 1.451835e-02 2.507660e-02 5.863606e-03 4.097260e-03 1.253592e-02 7.220351e-03 2.324942e-03 9.493385e-03 5.417936e-03 1.693227e-02 7.491850e-03 3.284414e-03 7.461052e-03 4.021786e-03 9.491726e-03 5.438940e-03 9.987872e-03 1.020899e-02 7.737895e-03 3.423981e-03 2.414615e-03 2.710738e-03 1.396778e-02 5.224937e-03 7.099227e-03 1.420029e-03 1.157548e-02 2.098929e-02 4.636147e-03 1.000000e-03 7.658020e-03 7.157143e-03 2.416877e-03 9.771595e-03 3.851267e-02 1.182346e-02 4.472746e-03 1.096363e-02 1.005835e-02 1.592401e-02 9.396999e-03 7.979520e-03 1.111568e-02 5.787349e-03 3.634269e-03 4.340378e-03 2.158702e-03 2.228010e-03 3.717361e-03 6.862606e-03 3.369054e-03 1.154896e-02 3.762463e-03 6.036681e-03 7.761319e-03 1.145123e-02 6.049432e-03 4.572955e-03 2.129328e-03 2.729955e-03 1.177856e-02 1.266598e-02 6.428384e-03 9.491788e-03 8.667630e-03 1.047945e-02 1.488306e-02 5.099829e-03 7.434200e-03 1.463266e-02 3.105843e-03 9.996017e-03 1.855490e-02 9.590108e-03 6.204787e-03 4.458793e-03 8.320663e-03 4.773343e-03 7.092179e-03 1.382725e-02 1.829699e-02 4.150367e-03 1.068705e-03 2.581717e-03 1.271723e-02 7.835929e-03 6.831369e-03 7.911531e-03 7.453585e-03 8.070941e-03 6.959634e-03 4.333718e-03 1.537811e-02 1.642194e-02 7.074554e-03 3.908943e-03 2.337482e-03 3.682613e-03 4.182780e-03 4.715545e-03 8.605385e-03 6.234958e-03 1.066681e-02 3.542823e-03 9.337785e-03 3.781302e-03 1.092712e-02 3.106107e-02 1.422958e-02 5.825022e-03 1.070488e-02 8.892533e-03 6.815602e-03 7.648746e-03 4.999770e-03 4.436246e-03 6.906033e-03 1.930310e-03 8.838808e-03 1.739238e-02 5.549136e-03 3.755443e-03 9.099049e-03 1.288006e-02 7.404215e-03 2.389587e-02 1.108378e-02 1.357580e-02 2.594860e-03 1.867263e-02 9.563849e-03 1.261387e-02 1.336395e-02 3.141933e-02 1.611397e-02 1.155319e-02 1.575911e-02
<GCONST> -4.381123e+02
<STATE> 3
<MEAN> 142
 5.119388e-01 3.584478e-01 4.038619e-01 4.473506e-01 3.720972e-01 3.210668e-01 4.257951e-01 3.548262e-01 3.199600e-01 4.188398e-01 4.742432e-01 3.733615e-01 3.860140e-01 4.665413e-01 3.948995e-01 4.371752e-01 4.247465e-01 3.965634e-01 3.530032e-01 3.593859e-01 5.227503e-01 5.207193e-01 4.127707e-01 4.959774e-01 4.826122e-01 3.896181e-01 4.732478e-01 4.530784e-01 4.129356e-01 3.738859e-01 4.803312e-01 4.200108e-01 4.465535e-01 5.543762e-01 4.449848e-01 4.134743e-01 4.181973e-01 3.224313e-01 3.828425e-01 4.648726e-01 4.041897e-01 4.267278e-01 3.345831e-01 3.601077e-01 3.131897e-01 4.136225e-01 5.232713e-01 4.639925e-01 4.917768e-01 3.428350e-01 4.753943e-01 4.288603e-01 4.274617e-01 2.894110e-01 4.066628e-01 3.938244e-01 4.474383e-01 3.902805e-01 3.848813e-01 4.398236e-01 4.666871e-01 4.325396e-01 3.769689e-01 4.100470e-01 3.800344e-01 4.473992e-01 4.417113e-01 5.112094e-01 4.585662e-01 4.270592e-01 4.827111e-01 3.893294e-01 3.743730e-01 4.422023e-01 3.701810e-01 3.594013e-01 4.509224e-01 3.847428e-01 4.412172e-01 4.931617e-01 4.336028e-01 3.299232e-01 4.090172e-01 4.374705e-01 4.262398e-01 4.272648e-01 3.946920e-01 4.041380e-01 4.843921e-01 4.017428e-01 2.990490e-01 3.925472e-01 4.256069e-01 3.512624e-01 4.375134e-01 3.825550e-01 4.957371e-01 3.105304e-01 4.850465e-01 4.167990e-01 4.357775e-01 5.066496e-01 3.043295e-01 3.584709e-01 3.932789e-01 3.282172e-01 3.340102e-01 3.903207e-01 4.330778e-01 4.881639e-01 3.478372e-01 3.590007e-01 4.485551e-01 3.585971e-01 3.575152e-01 4.035908e-01 3.478317e-01 4.197117e-01 4.105216e-01 3.906205e-01 3.865723e-01 4.788919e-01 4.103250e-01 3.888501e-01 4.736108e-01 4.162393e-01 3.681348e-01 3.794949e-01 3.624616e-01 4.767717e-01 4.829357e-01 3.933178e-01 3.299329e-01 4.108813e-01 3.916992e-01 4.859143e-01 4.993495e-01 4.700681e-01 5.095985e-01 4.192322e-01 4.321760e-01 4.258841e-01
<VARIANCE> 142
 1.014265e-02 1.973956e-02 9.808761e-03 2.209591e-02 3.087093e-02 1.008202e-02 3.741313e-02 2.870522e-03 1.000000e-03 7.024470e-03 2.395360e-02 1.672381e-02 7.507257e-03 1.910011e-02 5.454454e-03 6.416695e-03 4.663272e-03 9.178156e-03 1.133515e-02 1.258870e-02 1.278775e-02 2.654274e-02 1.464743e-02 6.971373e-03 6.802789e-03 2.588710e-03 1.083085e-02 1.312104e-02 2.427590e-03 9.611398e-03 3.262379e-03 4.944846e-03 3.226763e-02 2.386876e-02 2.791055e-03 1.598860e-02 5.632320e-03 6.737895e-03 5.710538e-03 2.944064e-02 8.217623e-03 7.195156e-03 2.390200e-02 8.801126e-03 3.903068e-02 8.427662e-03 3.153268e-02 8.286089e-03 1.915366e-02 1.258579e-02 1.341612e-02 5.492321e-03 5.620047e-03 8.290678e-03 1.621950e-02 1.402641e-02 2.424977e-02 1.471089e-02 8.541970e-03 4.012452e-02 2.845335e-02 4.747523e-03 1.744622e-02 8.565782e-03 8.242301e-03 1.136437e-02 6.601653e-03 2.662142e-02 8.562896e-03 1.431712e-02 2.291065e-03 8.889191e-03 3.679873e-03 6.218809e-03 4.239976e-03 1.182065e-02 8.026006e-03 2.118849e-02 1.283035e-02 1.162973e-02 3.755889e-03 4.333261e-03 4.338735e-03 1.516269e-02 1.803358e-02 1.771416e-02 2.338256e-03 4.019231e-03 5.971587e-03 9.324919e-03 2.940305e-02 1.575297e-02 9.166015e-03 1.115117e-02 9.747948e-03 7.848360e-03 7.055268e-03 9.075223e-03 8.062760e-03 3.650550e-03 3.929568e-03 9.554889e-03 4.606982e-03 7.059991e-03 1.051055e-02 1.279580e-02 8.190917e-03 7.029514e-03 1.259312e-02 2.227379e-02 1.648531e-02 2.172037e-02 4.089013e-02 5.685260e-03 1.851568e-02 1.796675e-02 1.456101e-02 1.324761e-02 1.501276e-02 2.076186e-02 2.186310e-03 1.053852e-02 9.787348e-03 2.060220e-02 3.955512e-02 6.138845e-03 1.740673e-02 8.092574e-03 3.403512e-02 1.818910e-02 2.949571e-02 4.948946e-03 1.008822e-02 4.938971e-03 4.445049e-03 1.815399e-02 2.978422e-02 4.851643e-03 4.542062e-02 4.739410e-03 1.258818e-02 2.079778e-02
<GCONST> -3.880499e+02
<TRANSP> 4
 0.000000e+00 1.000000e+00 0.000000e+00 0.000000e+00
 0.000000e+00 5.000000e-01 5.000000e-01 0.000000e+00
 0.000000e+00 0.000000e+00 5.000000e-01 5.000000e-01
 0.000000e+00 0.000000e+00 0.000000e+00 0.000000e+00
<ENDHMM>
