~o
<STREAMINFO> 1 142
<VECSIZE> 142<NULLD><USER><DIAGC>
~h "grandfather"
<BEGINHMM>
<NUMSTATES> 4
<STATE> 2
<MEAN> 142
 5.694093e-01 3.414617e-01 3.619880e-01 3.387282e-01 3.210568e-01 3.808405e-01 3.648572e-01 3.553048e-01 4.414852e-01 4.100225e-01 5.318505e-01 4.512409e-01 4.366287e-01 5.616072e-01 3.412268e-01 3.385313e-01 3.413697e-01 3.503323e-01 3.774136e-01 4.115728e-01 4.504534e-01 4.655201e-01 4.218896e-01 4.109836e-01 4.988965e-01 4.483297e-01 4.253232e-01 4.148157e-01 4.143393e-01 4.086160e-01 4.948575e-01 3.736422e-01 3.766289e-01 4.446402e-01 4.475354e-01 2.972704e-01 3.845690e-01 3.771259e-01 3.401916e-01 3.505563e-01 3.594016e-01 3.856061e-01 3.651932e-01 3.475597e-01 2.498452e-01 3.212944e-01 4.494136e-01 4.446052e-01 4.031760e-01 4.354569e-01 5.076843e-01 4.223551e-01 4.382470e-01 3.159475e-01 4.219720e-01 3.873161e-01 4.625532e-01 3.694411e-01 4.297240e-01 3.847377e-01 4.498329e-01 3.971535e-01 3.947039e-01 4.100245e-01 4.136387e-01 4.002441e-01 4.259797e-01 4.588859e-01 4.700412e-01 4.045937e-01 4.768316e-01 4.068764e-01 3.565954e-01 4.296786e-01 3.396829e-01 4.084789e-01 4.348504e-01 4.026787e-01 4.802719e-01 4.178461e-01 4.306212e-01 3.403288e-01 3.329858e-01 4.504071e-01 3.735119e-01 3.661945e-01 4.248632e-01 4.799918e-01 4.771354e-01 3.357341e-01 3.401562e-01 3.052534e-01 4.248788e-01 4.187003e-01 4.400808e-01 4.303634e-01 4.296127e-01 3.470954e-01 4.278833e-01 5.099206e-01 4.368464e-01 4.468559e-01 4.266444e-01 3.979338e-01 3.819101e-01 3.422369e-01 4.346645e-01 4.247257e-01 4.394382e-01 4.136138e-01 4.014066e-01 3.694103e-01 3.731120e-01 3.085788e-01 3.455825e-01 4.323131e-01 3.587643e-01 4.385349e-01 4.421786e-01 4.698398e-01 3.913272e-01 4.256549e-01 4.280927e-01 3.072012e-01 4.470676e-01 3.547579e-01 3.930627e-01 3.201752e-01 3.354554e-01 4.500997e-01 3.887300e-01 3.281544e-01 3.902983e-01 4.405947e-01 3.574864e-01 4.378529e-01 4.000806e-01 3.782219e-01 3.905296e-01 3.664989e-01 3.874736e-01 4.643166e-01
<VARIANCE> 142
 2.416651e-02 5.450098e-03 1.356951e-02 1.127691e-02 2.790127e-02 2.132823e-02 5.239202e-03 6.052330e-03 1.200339e-02 1.316735e-02 1.750898e-02 1.405255e-02 1.034404e-02 2.389922e-02 1.201217e-02 1.958845e-02 9.190624e-03 2.641362e-03 2.836797e-02 1.631275e-02 3.580061e-02 3.313920e-02 1.949835e-02 8.998936e-03 1.152521e-02 8.018827e-03 1.553577e-02 6.620685e-03 7.728123e-03 1.049904e-02 3.064771e-03 2.719986e-03 1.928989e-02 1.183319e-02 4.560508e-03 1.316079e-02 2.384663e-02 4.778178e-02 1.250800e-02 1.795109e-02 1.862911e-02 2.909726e-03 1.545978e-02 2.725744e-02 1.846127e-02 7.594638e-03 1.770612e-02 1.117163e-02 1.923313e-02 1.152929e-02 6.389948e-03 4.007735e-02 8.232615e-03 1.165323e-02 1.087718e-02 3.746570e-03 2.836333e-02 2.380981e-02 3.136710e-02 2.972100e-02 4.359519e-03 6.838653e-03 5.602397e-03 1.213662e-02 2.017724e-02 8.651119e-03 2.718030e-02 2.140913e-02 8.641492e-03 1.960375e-02 6.890629e-03 1.231554e-02 6.592729e-03 6.145302e-03 8.893591e-03 1.130828e-02 1.071100e-02 1.830413e-02 1.256366e-02 2.023451e-02 8.036506e-03 5.547943e-03 1.024299e-02 3.265351e-02 8.005907e-03 2.680241e-02 1.139225e-02 1.265906e-02 9.595287e-03 6.843232e-03 1.241585e-02 8.899638e-03 1.163297e-02 9.984508e-03 1.536765e-02 1.283588e-02 1.588033e-02 2.706710e-02 2.514512e-02 1.303086e-02 7.519013e-03 1.468560e-02 7.079643e-03 2.182699e-02 2.391772e-02 8.541333e-03 1.369377e-02 1.234779e-02 1.642386e-02 2.064431e-02 7.953684e-03 3.959463e-03 5.431858e-02 2.590858e-02 1.331537e-02 8.814260e-03 1.010317e-02 1.055529e-02 7.095904e-03 1.492471e-02 4.405936e-03 8.728564e-03 3.850496e-03 1.299120e-02 8.304358e-03 2.831666e-03 5.867282e-03 1.882682e-02 1.298303e-02 1.474681e-02 1.690948e-02 7.320057e-03 2.144268e-02 1.246056e-02 1.599631e-02 1.580323e-02 7.479385e-03 4.519930e-03 2.896460e-02 1.291932e-02 1.251696e-02 7.565846e-03
<GCONST> -3.665511e+02
<STATE> 3
<MEAN> 142
 8.515606e-01 3.630679e-01 3.897958e-01 3.058730e-01 2.453641e-01 4.523408e-01 4.625989e-01 3.808183e-01 3.384600e-01 3.908551e-01 4.306232e-01 4.878620e-01 4.028782e-01 4.402765e-01 2.368967e-01 3.261752e-01 3.635458e-01 3.797492e-01 3.510520e-01 4.204546e-01 4.840290e-01 4.652700e-01 4.598740e-01 4.127861e-01 4.068089e-01 4.182840e-01 4.154989e-01 3.981066e-01 3.359166e-01 3.623622e-01 4.763284e-01 4.444333e-01 5.642777e-01 3.926758e-01 4.207062e-01 3.386883e-01 2.592081e-01 2.317038e-01 2.764843e-01 2.439742e-01 2.694713e-01 3.470700e-01 3.339122e-01 4.250669e-01 2.720481e-01 4.183033e-01 4.017105e-01 3.719072e-01 3.545611e-01 4.045369e-01 5.310858e-01 3.838629e-01 4.495011e-01 2.620390e-01 5.160608e-01 2.957809e-01 4.904462e-01 3.826556e-01 4.134994e-01 2.996233e-01 5.493489e-01 4.667488e-01 3.963101e-01 4.134268e-01 3.930837e-01 4.649029e-01 3.377140e-01 4.169674e-01 5.310552e-01 3.509670e-01 4.582925e-01 6.008942e-01 4.389399e-01 4.183045e-01 4.223337e-01 3.850844e-01 4.817658e-01 4.057109e-01 4.564302e-01 3.723944e-01 3.937656e-01 3.478288e-01 3.138546e-01 4.846845e-01 3.050349e-01 5.308014e-01 4.110556e-01 4.365694e-01 4.573281e-01 4.534318e-01 4.253142e-01 4.364752e-01 3.730431e-01 4.060709e-01 3.761817e-01 4.745106e-01 3.887359e-01 2.810295e-01 3.853500e-01 4.696089e-01 3.047544e-01 5.057833e-01 3.906282e-01 3.258409e-01 2.817911e-01 3.101738e-01 4.404781e-01 3.147618e-01 4.268161e-01 3.710706e-01 4.688607e-01 4.330145e-01 2.899886e-01 2.965470e-01 3.740684e-01 4.583187e-01 4.147444e-01 3.579330e-01 4.601577e-01 4.674158e-01 3.588315e-01 5.667416e-01 4.690870e-01 5.557188e-01 4.629137e-01 4.490944e-01 4.320311e-01 3.164086e-01 3.451548e-01 4.240080e-01 3.772359e-01 3.598083e-01 4.816362e-01 3.269650e-01 3.273033e-01 3.269114e-01 5.300868e-01 3.513215e-01 2.878441e-01 3.330245e-01 4.674433e-01 4.864472e-01
<VARIANCE> 142
 2.669733e-02 1.958629e-03 1.116718e-02 2.832114e-03 7.537054e-03 9.164457e-03 3.728157e-03 1.252655e-03 8.461446e-03 3.064784e-03 1.203401e-02 6.373479e-03 4.027579e-03 8.898893e-03 9.082737e-03 2.531055e-03 6.157601e-03 2.681165e-03 5.558454e-03 9.661219e-03 9.344385e-03 6.198396e-03 4.842284e-03 1.580370e-03 2.786905e-03 1.935604e-03 2.822691e-03 1.551916e-03 2.414044e-03 1.213749e-02 5.405610e-03 5.844456e-03 6.416658e-03 3.159415e-03 1.092929e-03 5.592725e-03 4.359339e-03 8.009172e-03 2.981930e-03 5.167062e-03 8.414009e-03 1.220915e-03 1.436181e-02 1.513446e-02 5.558877e-03 6.107539e-03 3.315392e-03 2.326111e-03 2.150581e-03 9.011670e-03 1.073102e-02 6.605081e-03 2.919241e-03 8.741857e-03 1.000375e-02 1.814690e-03 1.044856e-02 3.894621e-03 4.473925e-03 1.202595e-02 3.813500e-03 2.701962e-03 2.086355e-03 2.860755e-03 8.472489e-03 6.480382e-03 1.540876e-02 6.475445e-03 3.348429e-03 1.434551e-02 3.030038e-03 1.458234e-02 2.288284e-03 2.682743e-03 2.381290e-03 6.636261e-03 6.216984e-03 1.248515e-02 5.211022e-03 1.079584e-02 4.402563e-03 3.282093e-03 2.714532e-03 8.717003e-03 8.014938e-03 6.917367e-03 5.365443e-03 2.792818e-03 3.938769e-03 1.163506e-02 5.381882e-03 5.956581e-03 3.078803e-03 4.327424e-03 6.163667e-03 5.297164e-03 5.007350e-03 4.337030e-03 5.373714e-03 3.707855e-03 4.619505e-03 3.698857e-03 7.074164e-03 1.972785e-02 6.501859e-03 8.766892e-03 8.311985e-03 9.046542e-03 2.233378e-03 3.818309e-03 3.902791e-03 1.064479e-02 7.593562e-03 3.131811e-03 3.554182e-03 1.689841e-02 5.690534e-03 8.077731e-03 1.842376e-03 7.345437e-03 6.313769e-03 1.634145e-02 1.728367e-02 2.953080e-02 4.682169e-03 2.521715e-03 7.933917e-03 7.809036e-03 5.601618e-03 3.258968e-03 4.542242e-03 3.976910e-03 1.132279e-02 6.603324e-03 3.444727e-03 3.880601e-03 9.321394e-03 3.560340e-03 4.567661e-03 3.142720e-03 4.609509e-03 1.152743e-02
<GCONST> -4.827523e+02
<TRANSP> 4
 0.000000e+00 1.000000e+00 0.000000e+00 0.000000e+00
 0.000000e+00 5.000000e-01 5.000000e-01 0.000000e+00
 0.000000e+00 0.000000e+00 5.000000e-01 5.000000e-01
 0.000000e+00 0.000000e+00 0.000000e+00 0.000000e+00
<ENDHMM>
