~o
<STREAMINFO> 1 142
<VECSIZE> 142<NULLD><USER><DIAGC>
~h "hear"
<BEGINHMM>
<NUMSTATES> 4
<STATE> 2
<MEAN> 142
 7.538440e-01 3.485051e-01 4.070849e-01 3.521125e-01 2.726157e-01 3.683660e-01 4.085376e-01 3.459068e-01 3.077956e-01 3.492808e-01 4.492346e-01 3.679869e-01 3.507992e-01 4.716074e-01 2.626080e-01 3.195425e-01 3.569011e-01 3.552103e-01 3.556542e-01 3.801031e-01 4.997664e-01 5.195158e-01 4.160586e-01 4.281731e-01 4.671624e-01 3.824046e-01 4.847454e-01 3.709676e-01 3.644255e-01 3.031642e-01 4.697245e-01 4.486010e-01 4.539925e-01 4.508905e-01 4.227136e-01 3.473963e-01 3.201143e-01 2.345791e-01 3.118729e-01 2.918340e-01 2.723764e-01 4.116338e-01 3.251964e-01 3.578438e-01 2.073495e-01 4.084851e-01 5.106279e-01 3.765538e-01 4.505414e-01 3.848227e-01 5.118837e-01 3.532227e-01 3.808844e-01 2.423636e-01 4.673720e-01 3.199498e-01 4.859046e-01 3.913148e-01 3.937815e-01 3.737004e-01 4.546700e-01 4.219501e-01 3.741829e-01 3.721917e-01 3.512069e-01 4.478933e-01 3.290990e-01 4.450608e-01 4.841903e-01 3.321243e-01 4.628808e-01 4.623929e-01 4.352222e-01 4.242669e-01 3.705716e-01 3.503651e-01 4.644150e-01 4.249178e-01 4.421119e-01 4.387590e-01 3.624459e-01 3.617142e-01 2.892070e-01 4.888803e-01 3.143414e-01 4.908701e-01 3.916399e-01 3.939436e-01 4.585073e-01 3.504456e-01 3.137618e-01 3.703252e-01 3.399650e-01 3.483664e-01 3.971836e-01 4.302502e-01 3.924481e-01 2.538632e-01 3.972614e-01 4.194674e-01 3.413609e-01 5.114807e-01 3.576446e-01 3.194867e-01 3.728482e-01 3.103492e-01 3.853135e-01 3.179209e-01 4.395274e-01 3.909084e-01 3.661340e-01 3.341671e-01 3.312641e-01 2.972308e-01 3.320544e-01 4.025055e-01 3.598221e-01 4.111823e-01 3.728154e-01 4.746666e-01 4.176946e-01 5.303734e-01 4.756401e-01 3.641931e-01 4.274817e-01 4.060278e-01 3.545715e-01 2.869630e-01 2.997872e-01 4.327493e-01 3.970947e-01 3.576934e-01 3.910297e-01 3.750644e-01 3.496764e-01 4.518358e-01 4.468893e-01 3.867629e-01 3.296718e-01 3.451697e-01 4.207602e-01 4.872472e-01
<VARIANCE> 142
 4.045204e-02 5.151847e-03 6.320163e-03 1.909930e-02 3.036680e-02 1.199095e-02 1.161694e-02 4.989176e-03 2.401771e-03 5.193631e-03 4.739349e-03 1.786900e-02 3.016112e-03 1.072524e-02 1.240857e-02 9.174881e-03 2.772681e-03 8.496450e-03 1.328364e-02 1.096438e-02 1.809321e-02 1.345990e-02 4.406906e-03 6.749245e-03 5.699811e-03 4.860601e-03 9.814439e-03 1.370600e-02 5.463117e-03 6.866179e-03 1.425111e-03 5.982733e-03 2.367732e-02 1.016114e-02 4.040149e-03 5.515826e-03 1.470158e-02 5.988117e-03 8.729905e-03 2.716939e-02 8.427505e-03 8.820773e-03 9.118154e-03 2.218729e-02 1.523443e-02 8.337850e-03 1.675521e-02 3.935952e-03 1.708205e-02 7.660962e-03 6.664790e-03 8.339166e-03 3.584679e-03 3.583473e-03 1.347351e-02 5.542667e-03 1.684020e-02 1.270120e-02 3.489377e-03 4.654290e-02 5.241918e-03 1.222120e-02 5.876775e-03 3.514628e-03 7.674063e-03 4.468259e-03 9.996062e-03 3.032477e-02 8.914802e-03 4.784765e-03 2.202666e-03 1.754015e-02 6.735640e-03 4.703566e-03 8.186719e-03 4.064967e-03 6.312218e-03 1.780191e-02 4.848651e-03 8.900305e-03 8.568288e-03 3.037150e-03 5.088693e-03 1.320672e-02 9.122164e-03 1.602865e-02 2.808858e-03 2.694048e-03 8.647804e-03 9.908367e-03 1.957336e-02 1.598668e-02 1.111396e-02 7.336617e-03 6.447135e-03 9.609634e-03 1.130119e-02 6.602627e-03 1.693568e-02 2.954270e-03 5.414730e-03 8.977254e-03 5.480425e-03 5.160965e-03 1.350374e-02 3.522581e-03 9.482965e-03 5.794912e-03 8.854933e-03 1.083726e-02 8.227427e-03 9.826833e-03 3.541166e-02 9.786521e-03 1.025782e-02 9.298686e-03 6.349859e-03 9.744162e-03 9.152131e-03 7.438237e-03 2.084451e-03 4.090111e-03 8.581386e-03 1.855168e-02 8.766302e-03 8.558989e-03 6.081739e-03 1.281960e-02 1.096551e-02 5.695495e-03 2.143907e-02 8.418390e-03 2.643271e-02 5.175225e-03 9.412271e-03 2.293900e-02 7.795299e-03 7.971145e-03 1.719147e-02 6.266368e-03 1.486184e-02 3.831457e-03
<GCONST> -4.183592e+02
<STATE> 3
<MEAN> 142
 5.595453e-01 4.434531e-01 3.497262e-01 3.287643e-01 2.942711e-01 2.793525e-01 2.960931e-01 2.716288e-01 3.608642e-01 4.186026e-01 4.649621e-01 4.575037e-01 3.755118e-01 4.684079e-01 3.392089e-01 2.648351e-01 4.226267e-01 4.801645e-01 3.307633e-01 3.781575e-01 3.581263e-01 3.678296e-01 3.610488e-01 4.299804e-01 4.808216e-01 3.910476e-01 4.367144e-01 4.751185e-01 4.717988e-01 4.607656e-01 4.612300e-01 3.863429e-01 2.874686e-01 4.059574e-01 4.322694e-01 3.439528e-01 3.641044e-01 4.061606e-01 4.311779e-01 3.006459e-01 4.221291e-01 5.142956e-01 3.984462e-01 2.681732e-01 2.249007e-01 4.208122e-01 3.693429e-01 3.535016e-01 3.519210e-01 3.507446e-01 4.590318e-01 4.251865e-01 4.636694e-01 3.079188e-01 3.750937e-01 4.662381e-01 4.260700e-01 3.082325e-01 3.255494e-01 3.088806e-01 3.584598e-01 4.318828e-01 3.936011e-01 4.469772e-01 5.217054e-01 3.939462e-01 4.002050e-01 3.175328e-01 3.733781e-01 4.396673e-01 4.330193e-01 3.390262e-01 3.677404e-01 3.866511e-01 3.124883e-01 3.773206e-01 3.764844e-01 3.732175e-01 4.368707e-01 3.815209e-01 5.595343e-01 3.902540e-01 3.942121e-01 3.380566e-01 3.632104e-01 3.311775e-01 3.847867e-01 4.283481e-01 4.493605e-01 3.404001e-01 4.055837e-01 2.478952e-01 5.030373e-01 4.137340e-01 3.942487e-01 5.196868e-01 4.685221e-01 4.182886e-01 4.270155e-01 3.934416e-01 4.374663e-01 3.794207e-01 3.466972e-01 4.492825e-01 3.316528e-01 2.723540e-01 4.086513e-01 4.110614e-01 3.702176e-01 2.694490e-01 3.743975e-01 4.207235e-01 2.620190e-01 3.782192e-01 3.957415e-01 4.323294e-01 4.223220e-01 3.840891e-01 4.810742e-01 3.562477e-01 4.433711e-01 4.542972e-01 4.340635e-01 4.188641e-01 3.121060e-01 3.982984e-01 4.517187e-01 5.236806e-01 5.180218e-01 3.275815e-01 3.505308e-01 4.438925e-01 4.203283e-01 4.775380e-01 4.262266e-01 4.250859e-01 3.869242e-01 4.534476e-01 3.207521e-01 3.261918e-01 3.775934e-01 3.874574e-01
<VARIANCE> 142
 1.609615e-02 1.898890e-02 1.132219e-02 4.098889e-03 6.960773e-03 1.716983e-02 3.194915e-03 9.443232e-03 3.567895e-03 7.079334e-03 1.282789e-02 1.009089e-02 4.268046e-03 1.445929e-02 8.281101e-03 6.696623e-03 1.905891e-02 1.992753e-02 2.181097e-02 1.506959e-02 8.134966e-03 1.573092e-02 1.612426e-02 2.042065e-02 2.069683e-03 8.570629e-03 7.057440e-03 2.489867e-02 1.056254e-02 6.952566e-03 1.300538e-03 7.715606e-03 7.987132e-03 7.141458e-03 2.430203e-03 9.156384e-03 1.263558e-02 5.907353e-03 2.577698e-02 1.009884e-02 8.196473e-03 2.972442e-02 6.536956e-03 5.196992e-03 5.299619e-03 1.641845e-02 8.840110e-03 4.026582e-03 1.166242e-02 9.659858e-03 4.570168e-03 1.980388e-02 1.269150e-02 2.547021e-03 6.871260e-03 9.333490e-03 3.034501e-02 9.219188e-03 6.391746e-03 7.008811e-03 7.801181e-03 6.768463e-03 2.595100e-03 5.719543e-03 2.503282e-02 9.799783e-03 2.335592e-02 1.623223e-02 3.714764e-03 1.022171e-02 3.341582e-03 7.074771e-03 6.334814e-03 7.620419e-03 2.143193e-02 9.369868e-03 6.429634e-03 1.935083e-02 8.648134e-03 9.669769e-03 1.814744e-02 1.207596e-02 4.137645e-03 4.388905e-03 7.644773e-03 1.019510e-02 3.164144e-03 5.707690e-03 3.966574e-03 4.658266e-03 1.008189e-02 7.179555e-03 3.948409e-02 1.463932e-02 6.711886e-03 1.952949e-02 6.554929e-03 2.340273e-02 1.195161e-02 1.348849e-02 9.786623e-03 1.096040e-02 6.594499e-03 8.343529e-03 1.574962e-02 8.471247e-03 1.011871e-02 8.632066e-03 1.063545e-02 8.635124e-03 7.819014e-03 1.355168e-02 9.822180e-03 1.241926e-02 7.558629e-03 1.550085e-02 1.477582e-02 1.054394e-02 1.479187e-02 4.194848e-03 4.713503e-03 4.661709e-03 7.640134e-03 2.083743e-02 1.137745e-02 9.091413e-03 1.719789e-02 3.396813e-02 2.395919e-02 8.983474e-03 1.340453e-02 6.254256e-03 2.175116e-02 1.448277e-02 1.373534e-02 4.404756e-03 6.772363e-03 6.241939e-03 6.430205e-03 1.461537e-02 1.604008e-02 5.583299e-03
<GCONST> -4.035263e+02
<TRANSP> 4
 0.000000e+00 1.000000e+00 0.000000e+00 0.000000e+00
 0.000000e+00 5.000000e-01 5.000000e-01 0.000000e+00
 0.000000e+00 0.000000e+00 5.000000e-01 5.000000e-01
 0.000000e+00 0.000000e+00 0.000000e+00 0.000000e+00
<ENDHMM>
