~o
<STREAMINFO> 1 142
<VECSIZE> 142<NULLD><USER><DIAGC>
~h "history"
<BEGINHMM>
<NUMSTATES> 4
<STATE> 2
<MEAN> 142
 6.855103e-01 4.027832e-01 3.773491e-01 3.339161e-01 2.820859e-01 2.270470e-01 3.634741e-01 3.555935e-01 3.503445e-01 4.235642e-01 4.142907e-01 4.417033e-01 3.489570e-01 4.308711e-01 3.729564e-01 3.246863e-01 4.595236e-01 4.682274e-01 2.892683e-01 3.839259e-01 4.584371e-01 5.363951e-01 3.686205e-01 4.866011e-01 4.781156e-01 3.803293e-01 3.776760e-01 4.241201e-01 5.227261e-01 3.994941e-01 4.760904e-01 4.361373e-01 4.129447e-01 4.724267e-01 4.566671e-01 4.547539e-01 3.362475e-01 3.939783e-01 4.570000e-01 3.208977e-01 4.081731e-01 5.536819e-01 3.391388e-01 3.643849e-01 1.970687e-01 4.425837e-01 4.128778e-01 3.881440e-01 4.326198e-01 3.484567e-01 4.583345e-01 4.398082e-01 4.505001e-01 2.471709e-01 4.678714e-01 4.266529e-01 4.101988e-01 3.056144e-01 3.210423e-01 2.439994e-01 4.074424e-01 4.721861e-01 3.587392e-01 4.197643e-01 3.673639e-01 4.668112e-01 3.811105e-01 3.595334e-01 3.785666e-01 4.038486e-01 4.560086e-01 3.856476e-01 4.324448e-01 4.190601e-01 3.080701e-01 3.522896e-01 4.406226e-01 4.777455e-01 4.750611e-01 4.613569e-01 4.548211e-01 4.110314e-01 5.139046e-01 4.069977e-01 2.460010e-01 3.928651e-01 3.848065e-01 4.134319e-01 4.470298e-01 3.408593e-01 4.279679e-01 2.960610e-01 4.618670e-01 3.537103e-01 4.456138e-01 4.949994e-01 4.295133e-01 3.672664e-01 4.894011e-01 4.219452e-01 3.993122e-01 4.881243e-01 3.521001e-01 3.904489e-01 3.337742e-01 2.957974e-01 4.053675e-01 4.249992e-01 3.666770e-01 3.312844e-01 4.246522e-01 4.169778e-01 3.381766e-01 4.145526e-01 3.778060e-01 3.896347e-01 4.226556e-01 4.619694e-01 4.824977e-01 4.137820e-01 4.539658e-01 5.285115e-01 4.997151e-01 4.045009e-01 4.048930e-01 4.640234e-01 4.116701e-01 4.074775e-01 3.899448e-01 3.881731e-01 3.875345e-01 4.669414e-01 3.965890e-01 4.320348e-01 4.767547e-01 4.201466e-01 4.207184e-01 4.863642e-01 3.328516e-01 4.226477e-01 5.005043e-01 4.236933e-01
<VARIANCE> 142
 6.823999e-02 5.367483e-03 1.092055e-02 4.398609e-03 3.223866e-03 9.213277e-03 9.464970e-03 7.231005e-03 3.375648e-03 7.226618e-03 2.954256e-03 1.247250e-03 6.897386e-03 2.149306e-03 3.741549e-02 3.900063e-03 1.241632e-02 8.174280e-03 1.036231e-02 1.214000e-02 1.347006e-03 5.949475e-03 1.010110e-02 5.865435e-03 1.117809e-03 1.072049e-02 9.801550e-03 5.800903e-03 1.889828e-02 5.117046e-03 1.426687e-03 3.703955e-03 2.493492e-02 1.594048e-02 3.543187e-03 1.041623e-02 9.124040e-03 1.095495e-02 3.451890e-02 7.776430e-03 1.985678e-02 2.296715e-02 4.615142e-03 1.732088e-02 3.489269e-03 5.973268e-03 4.076595e-03 4.404637e-03 1.640835e-03 5.981495e-03 4.813171e-03 3.987655e-03 6.539026e-03 1.117615e-03 1.462851e-02 9.852211e-03 1.798601e-02 7.333457e-03 4.665340e-03 1.968132e-03 1.570010e-02 4.689942e-03 3.757391e-03 2.680547e-03 5.070402e-03 3.155154e-03 4.356273e-03 2.420160e-03 1.083712e-02 8.324661e-03 1.145657e-03 2.373988e-02 4.564867e-03 2.775200e-03 2.545008e-02 9.687245e-03 6.314903e-03 1.914560e-02 3.978285e-03 5.642683e-03 4.614351e-03 7.760695e-03 3.406996e-02 5.968207e-03 2.227831e-03 1.155630e-02 1.254292e-03 1.891002e-03 6.692154e-03 3.348229e-03 2.921006e-03 1.337287e-02 6.309220e-03 5.425310e-03 1.244409e-02 4.563151e-03 3.730740e-03 6.712768e-03 2.107264e-02 2.110165e-03 3.676593e-03 5.179940e-03 5.737440e-03 9.495467e-03 1.129976e-03 5.842238e-03 1.631584e-02 7.858744e-03 1.062650e-02 1.000000e-03 3.811744e-03 6.282703e-03 4.665150e-03 2.267123e-02 5.936726e-03 5.195059e-03 9.500067e-03 1.831695e-03 6.450622e-03 1.088810e-02 5.719870e-03 6.773291e-03 1.270505e-02 4.352652e-03 4.265249e-03 3.352795e-03 3.511244e-03 1.015681e-02 5.775775e-03 7.037784e-03 1.000000e-03 1.019489e-02 1.844275e-02 4.739102e-03 3.265533e-02 6.648268e-03 7.610837e-03 1.822435e-02 1.317593e-02 1.499166e-02 4.110776e-03 1.427536e-02
<GCONST> -4.580994e+02
<STATE> 3
<MEAN> 142
 6.910924e-01 3.705411e-01 3.509985e-01 3.584325e-01 2.710156e-01 2.163861e-01 3.715143e-01 3.388251e-01 2.919871e-01 3.541372e-01 3.355035e-01 4.361028e-01 4.076949e-01 3.543749e-01 2.891217e-01 3.722804e-01 4.077762e-01 3.741834e-01 2.105767e-01 4.121354e-01 4.372151e-01 4.411605e-01 3.381162e-01 4.140833e-01 3.897620e-01 3.788098e-01 3.573408e-01 3.756054e-01 3.586719e-01 2.913551e-01 4.112875e-01 5.460069e-01 5.120282e-01 4.337220e-01 3.987900e-01 4.248086e-01 3.195458e-01 2.999547e-01 2.846258e-01 3.279119e-01 3.627858e-01 4.146390e-01 2.125002e-01 3.707466e-01 1.916066e-01 4.846446e-01 4.465585e-01 3.571961e-01 3.984584e-01 2.493245e-01 4.525202e-01 3.358104e-01 3.765176e-01 2.807861e-01 5.355760e-01 3.087635e-01 3.186635e-01 2.431861e-01 2.557479e-01 2.560638e-01 3.849241e-01 5.555690e-01 4.106753e-01 4.969651e-01 4.034531e-01 4.583006e-01 3.044999e-01 3.474078e-01 4.957358e-01 3.200823e-01 4.339211e-01 4.862868e-01 4.858522e-01 3.795355e-01 2.757464e-01 4.277701e-01 5.543625e-01 4.665640e-01 4.397110e-01 3.508217e-01 4.192486e-01 3.954081e-01 3.191002e-01 3.905286e-01 3.027891e-01 5.236572e-01 4.374140e-01 3.991809e-01 3.855516e-01 2.893423e-01 3.463065e-01 3.184867e-01 4.137319e-01 3.733537e-01 4.227283e-01 4.470752e-01 4.227036e-01 3.652481e-01 4.189466e-01 4.167196e-01 3.074935e-01 5.006077e-01 3.396837e-01 2.620940e-01 2.798949e-01 3.007674e-01 3.599065e-01 3.278923e-01 3.430522e-01 3.006646e-01 3.605372e-01 3.384747e-01 3.502612e-01 3.327792e-01 3.911542e-01 3.852962e-01 3.133859e-01 4.311264e-01 3.712734e-01 4.516442e-01 4.306999e-01 5.486099e-01 5.106432e-01 3.786286e-01 3.883449e-01 4.488208e-01 3.183734e-01 3.165165e-01 3.329388e-01 3.478731e-01 4.113267e-01 3.972678e-01 4.244909e-01 3.824447e-01 3.451411e-01 3.804602e-01 4.201322e-01 4.212400e-01 3.251674e-01 3.912165e-01 5.616457e-01 5.378099e-01
<VARIANCE> 142
 4.852747e-02 4.702774e-03 2.146018e-03 6.223253e-03 3.762790e-03 1.108804e-02 7.243800e-03 1.818800e-02 1.233424e-03 3.831744e-03 3.090410e-03 3.261770e-03 3.955712e-03 1.655184e-03 1.081242e-02 1.233228e-02 6.322917e-03 3.316387e-03 1.203289e-02 1.065974e-02 1.459940e-03 4.223352e-03 8.493236e-03 1.651916e-03 1.263404e-03 8.947440e-03 4.656466e-03 1.263231e-03 8.384272e-03 2.708785e-03 2.717410e-03 7.470562e-03 5.756184e-03 8.667699e-03 1.638587e-03 1.169956e-02 8.419667e-03 6.017721e-03 8.693543e-03 1.423308e-02 2.816181e-03 5.899358e-03 3.029304e-03 1.976829e-02 1.000000e-03 4.155640e-03 1.672573e-03 1.026689e-02 1.151652e-03 5.992568e-03 6.146082e-03 1.697469e-02 9.154328e-03 1.000000e-03 1.980801e-02 3.420879e-03 1.850008e-02 1.235400e-02 6.696419e-03 1.594644e-03 1.153603e-02 2.275907e-02 9.449887e-03 8.357015e-03 6.151135e-03 1.179174e-03 5.260885e-03 1.000000e-03 4.908610e-03 5.094906e-03 2.369903e-03 8.162314e-03 1.000000e-03 2.004606e-03 1.775191e-02 4.356107e-03 4.072556e-03 2.823421e-03 1.000000e-03 5.474715e-03 1.168647e-03 1.014405e-03 9.078237e-03 4.634540e-03 5.303680e-03 4.621530e-03 3.945523e-03 2.226073e-03 2.515841e-03 5.418801e-03 8.076303e-03 9.923174e-03 1.044722e-02 6.444974e-03 3.961319e-03 1.450632e-03 1.621382e-03 3.359869e-03 6.498780e-03 6.562256e-03 1.704333e-03 2.589965e-03 2.748548e-03 6.248951e-03 4.083935e-03 3.997407e-03 8.703104e-03 6.198484e-03 2.199625e-03 2.030305e-03 1.214931e-02 9.649493e-03 5.048241e-03 4.233175e-03 9.217465e-03 3.035728e-03 1.060581e-02 1.000000e-03 2.925323e-03 3.706692e-03 4.944237e-03 2.147830e-03 5.019945e-03 1.622462e-02 2.723827e-03 1.000000e-03 1.009282e-02 5.090648e-03 1.232464e-03 7.605606e-03 1.357682e-03 1.934843e-03 2.589312e-02 5.569758e-03 6.764613e-03 2.797909e-03 3.566423e-03 7.387464e-03 3.982672e-03 6.922616e-03 7.165099e-03 2.322306e-02
<GCONST> -5.027153e+02
<TRANSP> 4
 0.000000e+00 1.000000e+00 0.000000e+00 0.000000e+00
 0.000000e+00 5.000000e-01 5.000000e-01 0.000000e+00
 0.000000e+00 0.000000e+00 5.000000e-01 5.000000e-01
 0.000000e+00 0.000000e+00 0.000000e+00 0.000000e+00
<ENDHMM>
