~o
<STREAMINFO> 1 142
<VECSIZE> 142<NULLD><USER><DIAGC>
~h "husband"
<BEGINHMM>
<NUMSTATES> 4
<STATE> 2
<MEAN> 142
 5.155466e-01 3.560080e-01 3.717579e-01 4.091016e-01 3.787105e-01 3.250137e-01 4.166711e-01 2.942500e-01 4.177628e-01 3.731166e-01 3.754887e-01 4.277578e-01 3.732503e-01 4.227357e-01 3.836275e-01 4.226688e-01 4.038014e-01 3.298628e-01 2.924743e-01 3.779373e-01 4.705539e-01 4.462181e-01 3.776234e-01 4.628994e-01 4.470069e-01 4.211476e-01 3.253543e-01 4.044598e-01 4.135527e-01 4.652231e-01 4.517987e-01 3.958210e-01 4.594642e-01 4.614495e-01 4.211535e-01 3.392920e-01 3.543122e-01 2.691570e-01 3.413579e-01 4.623924e-01 3.543181e-01 4.148983e-01 3.164755e-01 3.033870e-01 3.262672e-01 3.635004e-01 4.379869e-01 4.377153e-01 4.173400e-01 3.314804e-01 5.033070e-01 3.850594e-01 3.461535e-01 2.822348e-01 4.364586e-01 3.377176e-01 2.580309e-01 3.323314e-01 3.019847e-01 3.461236e-01 4.610283e-01 4.557289e-01 3.539833e-01 3.967717e-01 3.965736e-01 4.788899e-01 3.020683e-01 4.148609e-01 4.330851e-01 3.391134e-01 5.178968e-01 3.270347e-01 3.592831e-01 4.051089e-01 2.857659e-01 3.460439e-01 4.859566e-01 5.202551e-01 3.986392e-01 4.379651e-01 4.481482e-01 3.907408e-01 3.329045e-01 3.772653e-01 4.610604e-01 3.952416e-01 4.080101e-01 4.454165e-01 4.315482e-01 3.731031e-01 3.063301e-01 2.953411e-01 4.713289e-01 3.261415e-01 4.667651e-01 4.536020e-01 5.123022e-01 2.483358e-01 5.050156e-01 5.216916e-01 4.242973e-01 4.471843e-01 4.059459e-01 3.748359e-01 3.078924e-01 2.503054e-01 3.176767e-01 4.094586e-01 3.637657e-01 4.170129e-01 3.168977e-01 3.074053e-01 5.338496e-01 3.636880e-01 3.056444e-01 3.992074e-01 2.985777e-01 4.665477e-01 4.536709e-01 4.157702e-01 4.469571e-01 4.122404e-01 4.337624e-01 2.892886e-01 4.049103e-01 3.426323e-01 3.913566e-01 3.016174e-01 2.854840e-01 3.966708e-01 4.833561e-01 4.100080e-01 3.044754e-01 4.112984e-01 4.558631e-01 4.639187e-01 4.479994e-01 4.514420e-01 5.450048e-01 4.544043e-01 4.035699e-01 4.742071e-01
<VARIANCE> 142
 7.470672e-03 1.718321e-02 3.253795e-03 1.162744e-02 1.102861e-02 2.898113e-02 3.261820e-02 5.333169e-03 4.760198e-03 7.788708e-03 6.598544e-03 3.256836e-03 7.066161e-03 9.720145e-03 1.094297e-02 3.693401e-02 1.035813e-02 7.045690e-03 3.460701e-02 2.739838e-02 4.123134e-03 3.154116e-03 2.553739e-02 5.331859e-03 2.460117e-03 7.981904e-03 5.631096e-03 5.332485e-03 7.932292e-03 7.447680e-03 3.139063e-03 8.968052e-03 2.786118e-02 7.059568e-03 1.879222e-03 4.166515e-03 7.562065e-03 2.330322e-02 3.285044e-03 1.569235e-02 9.723277e-03 8.392675e-03 2.784149e-02 2.953017e-02 3.944994e-02 1.626154e-02 7.908018e-03 1.452625e-02 3.399342e-03 1.109300e-02 1.909388e-02 5.849274e-02 1.140652e-02 6.222403e-03 4.937741e-03 3.879556e-03 1.549042e-02 2.943461e-02 1.455485e-02 1.699246e-02 2.559682e-02 1.000501e-02 3.370161e-03 1.091206e-02 4.408959e-03 9.789754e-03 4.600079e-02 1.489119e-02 1.054689e-02 1.866858e-02 6.734604e-03 1.118547e-02 4.416786e-03 1.693288e-03 1.309029e-02 1.056750e-02 4.398719e-03 1.452132e-02 1.445578e-02 6.443313e-03 4.473585e-03 1.223430e-02 6.478836e-03 4.088444e-03 2.830056e-02 2.012766e-02 2.904378e-03 6.352787e-03 5.398664e-03 9.177150e-03 6.909839e-03 1.285730e-02 1.077763e-02 4.823897e-03 2.116366e-02 2.269089e-03 1.426727e-02 1.610302e-02 7.420118e-03 1.704045e-02 3.670145e-03 7.231256e-03 6.497226e-03 2.345878e-02 3.886684e-03 9.041272e-03 1.894614e-02 1.803079e-02 3.342332e-03 1.665857e-02 4.539997e-03 1.641967e-03 4.390727e-02 1.643655e-03 4.987508e-03 5.386657e-03 1.330826e-02 3.972045e-03 8.341920e-03 3.562943e-03 6.572714e-03 7.840586e-03 2.476399e-03 5.031933e-03 1.662385e-02 6.858935e-03 5.229124e-03 1.452670e-02 1.826417e-02 2.166311e-02 1.596541e-02 6.064656e-03 8.351020e-03 1.495685e-02 1.141600e-02 5.143536e-03 1.258234e-02 8.709992e-03 2.703516e-02 5.916416e-03 4.767819e-03 7.959304e-03
<GCONST> -4.081456e+02
<STATE> 3
<MEAN> 142
 6.226544e-01 3.160523e-01 3.491266e-01 3.403028e-01 3.076174e-01 3.533329e-01 4.032405e-01 3.663152e-01 3.240808e-01 3.872804e-01 4.021336e-01 3.876836e-01 3.838253e-01 4.537028e-01 2.780471e-01 3.884096e-01 3.972381e-01 3.900880e-01 3.044161e-01 3.928953e-01 4.982921e-01 4.632198e-01 3.465394e-01 4.428361e-01 4.565696e-01 3.694060e-01 4.112735e-01 3.611822e-01 3.971859e-01 3.094606e-01 4.482870e-01 4.577148e-01 4.346144e-01 5.002277e-01 4.165525e-01 3.411340e-01 3.277866e-01 3.446683e-01 3.605967e-01 3.735103e-01 3.925915e-01 4.505373e-01 2.657000e-01 3.659679e-01 2.378060e-01 3.998308e-01 4.615853e-01 4.198842e-01 4.490018e-01 2.955242e-01 4.574154e-01 3.904828e-01 3.794641e-01 2.530068e-01 4.737189e-01 3.797414e-01 4.233407e-01 3.224105e-01 3.446323e-01 3.289874e-01 4.515222e-01 4.678380e-01 3.707733e-01 3.946792e-01 3.803423e-01 4.568111e-01 3.837284e-01 4.563569e-01 4.447246e-01 3.634509e-01 4.756241e-01 4.251678e-01 4.454821e-01 4.198864e-01 3.404617e-01 3.690476e-01 5.016204e-01 4.012920e-01 4.810275e-01 4.210972e-01 4.403473e-01 3.781343e-01 4.466404e-01 4.466746e-01 3.463624e-01 4.310090e-01 3.773585e-01 4.204185e-01 4.972028e-01 3.426944e-01 2.845459e-01 3.344561e-01 4.151164e-01 3.286960e-01 4.113959e-01 4.183428e-01 4.509138e-01 3.330520e-01 4.774651e-01 4.264570e-01 3.778591e-01 4.800771e-01 3.231691e-01 3.299476e-01 3.536677e-01 3.053691e-01 3.726670e-01 3.757940e-01 4.184556e-01 4.122503e-01 3.440427e-01 3.025460e-01 3.511333e-01 3.251731e-01 3.475295e-01 3.860718e-01 3.158820e-01 4.306481e-01 3.981354e-01 4.266040e-01 4.265950e-01 4.883299e-01 4.419567e-01 3.492527e-01 4.682175e-01 3.668409e-01 3.534529e-01 3.633162e-01 2.924162e-01 4.211942e-01 4.221123e-01 3.423600e-01 3.803536e-01 3.915751e-01 3.582767e-01 4.433666e-01 4.740906e-01 4.136121e-01 4.363393e-01 3.746984e-01 4.410996e-01 4.785423e-01
<VARIANCE> 142
 3.310123e-02 6.756034e-03 6.193119e-03 5.927114e-03 3.729278e-03 3.917623e-02 2.628230e-02 2.379141e-02 3.371322e-03 6.572892e-03 8.465013e-03 8.335175e-03 8.451710e-03 1.130275e-02 1.943752e-02 1.394376e-02 5.844294e-03 9.768727e-03 1.478491e-02 2.606091e-02 1.279868e-02 8.639796e-03 1.224826e-02 3.595698e-03 5.941886e-03 8.008446e-03 1.769484e-02 2.662636e-03 9.697263e-03 5.720308e-03 5.499623e-03 5.272689e-03 3.122777e-02 3.801299e-03 2.198270e-03 1.058381e-02 1.040310e-02 3.518939e-02 1.487605e-02 4.690709e-02 1.620024e-02 1.273045e-02 3.685710e-03 2.081652e-02 2.978906e-02 1.366775e-02 3.021107e-03 2.620519e-02 6.898334e-03 4.010661e-03 2.981430e-03 2.669915e-02 5.581197e-03 6.024586e-03 1.395487e-02 9.356820e-03 2.125734e-02 2.265222e-02 5.370328e-03 8.426079e-03 1.983785e-02 2.714333e-03 2.200210e-03 1.694993e-03 5.366292e-03 7.443644e-03 2.969957e-02 1.233683e-02 6.089665e-03 8.635223e-03 1.229401e-02 1.984107e-02 4.693368e-03 2.596807e-03 2.883006e-02 9.639207e-03 5.587590e-03 9.200410e-03 8.630992e-03 6.978787e-03 2.955455e-03 3.817215e-03 2.941705e-02 5.945943e-03 2.355734e-02 1.869475e-02 3.563184e-03 2.316953e-03 4.262311e-03 2.271508e-02 6.858288e-03 1.897626e-02 8.612755e-03 5.781956e-03 2.887413e-03 3.763622e-03 6.807011e-03 1.047841e-02 1.727909e-02 5.889012e-03 7.900562e-03 9.634577e-03 3.237786e-03 1.024520e-02 1.192645e-02 4.621651e-03 3.332731e-03 9.503788e-03 1.072383e-02 2.617215e-02 5.419432e-03 7.584617e-03 1.562482e-02 4.699303e-03 3.219765e-03 1.190813e-02 1.030405e-02 8.017644e-03 3.711054e-03 8.472137e-03 3.605746e-03 8.430335e-03 5.873253e-03 1.666285e-02 2.361373e-02 6.781697e-03 4.736528e-03 7.691894e-03 7.659207e-03 2.486693e-02 1.465887e-02 3.884089e-03 2.035043e-02 7.576806e-03 9.447272e-03 7.500669e-03 1.659814e-02 1.206355e-02 4.522890e-02 3.869734e-03 1.256265e-02 2.373045e-02
<GCONST> -4.090764e+02
<TRANSP> 4
 0.000000e+00 1.000000e+00 0.000000e+00 0.000000e+00
 0.000000e+00 5.000000e-01 5.000000e-01 0.000000e+00
 0.000000e+00 0.000000e+00 5.000000e-01 5.000000e-01
 0.000000e+00 0.000000e+00 0.000000e+00 0.000000e+00
<ENDHMM>
