~o
<STREAMINFO> 1 142
<VECSIZE> 142<NULLD><USER><DIAGC>
~h "i"
<BEGINHMM>
<NUMSTATES> 4
<STATE> 2
<MEAN> 142
 5.744833e-01 3.069787e-01 3.738082e-01 2.871386e-01 2.954274e-01 2.696511e-01 3.359458e-01 3.597176e-01 3.197401e-01 4.203006e-01 5.259207e-01 3.467192e-01 3.947075e-01 5.473830e-01 4.187505e-01 3.727045e-01 3.812996e-01 4.281326e-01 3.425873e-01 3.468848e-01 5.601305e-01 5.834295e-01 3.671182e-01 5.478301e-01 5.954116e-01 3.284176e-01 4.875808e-01 3.433320e-01 4.881210e-01 3.615798e-01 4.902272e-01 3.646289e-01 3.126173e-01 5.133764e-01 4.299008e-01 4.489490e-01 4.630125e-01 3.858353e-01 4.711236e-01 3.410336e-01 3.643423e-01 4.805978e-01 3.475935e-01 3.127458e-01 1.184961e-01 3.209116e-01 5.200160e-01 4.885531e-01 5.387692e-01 3.794215e-01 4.551910e-01 4.425763e-01 4.634572e-01 2.385284e-01 4.118427e-01 3.834573e-01 5.106772e-01 4.256067e-01 4.596892e-01 3.452858e-01 3.789080e-01 4.889383e-01 3.124730e-01 3.468260e-01 3.511794e-01 4.021225e-01 4.649313e-01 5.098380e-01 4.432848e-01 4.011074e-01 3.681707e-01 2.738073e-01 4.219149e-01 3.862434e-01 3.164925e-01 3.157582e-01 5.004546e-01 4.723853e-01 5.585494e-01 4.852636e-01 4.418230e-01 4.729341e-01 4.191062e-01 4.906918e-01 2.788522e-01 3.605416e-01 3.399817e-01 3.814988e-01 4.780082e-01 2.571157e-01 2.544124e-01 2.906288e-01 4.334144e-01 3.025091e-01 4.693142e-01 4.530566e-01 5.472065e-01 3.327791e-01 5.493611e-01 4.396595e-01 5.002818e-01 4.798502e-01 3.151543e-01 3.029463e-01 4.606797e-01 3.963030e-01 4.254209e-01 3.713562e-01 4.324331e-01 3.772733e-01 3.401139e-01 3.138624e-01 3.117063e-01 4.196494e-01 4.617563e-01 3.539123e-01 3.415641e-01 5.154660e-01 3.396576e-01 4.497108e-01 4.789656e-01 5.467419e-01 4.788376e-01 2.963306e-01 4.979893e-01 3.557105e-01 3.588572e-01 3.825479e-01 3.166302e-01 4.802955e-01 4.467728e-01 4.773826e-01 2.791879e-01 4.664640e-01 5.553956e-01 5.936325e-01 3.920810e-01 5.394059e-01 4.338123e-01 4.337637e-01 4.215513e-01 4.001088e-01
<VARIANCE> 142
 9.899362e-03 9.499947e-03 1.719436e-02 1.000000e-03 2.279165e-03 1.830926e-02 2.369934e-03 5.284165e-03 1.000000e-03 5.596476e-03 3.635133e-02 2.482429e-03 7.394257e-03 1.679596e-02 2.194426e-02 2.136401e-03 3.961822e-03 1.390757e-02 2.204065e-02 1.679272e-02 1.479324e-02 1.668986e-02 1.424785e-02 8.820313e-03 2.403027e-02 3.574680e-03 4.832890e-03 1.470234e-02 3.700796e-03 3.177906e-03 1.048092e-02 5.400277e-03 8.323556e-03 2.901970e-03 2.648147e-03 1.275307e-02 7.942823e-03 5.424693e-03 8.155876e-03 2.054563e-03 4.852604e-03 6.656175e-03 3.864769e-03 5.612078e-03 2.516732e-03 5.365517e-03 2.409934e-02 6.618245e-03 1.725032e-02 5.968164e-03 5.280890e-03 1.511187e-03 1.871862e-03 3.360121e-03 3.151801e-03 3.640034e-03 1.194527e-02 2.219370e-02 2.113966e-02 8.458051e-03 4.944388e-03 6.393034e-03 1.806880e-03 2.238506e-03 9.448008e-03 7.459228e-03 1.187129e-02 1.424523e-02 3.874041e-03 4.490258e-03 2.469499e-03 4.905808e-03 1.756176e-03 6.666105e-03 2.486976e-02 4.707179e-03 6.937891e-03 9.741341e-03 7.073403e-03 1.096075e-02 1.031186e-02 9.194520e-03 2.507349e-02 1.051262e-02 1.444744e-03 3.153737e-03 1.000000e-03 2.807673e-03 1.000000e-03 3.301427e-03 5.116442e-03 4.006787e-03 8.205426e-03 1.255951e-03 2.100714e-03 8.161902e-03 9.668023e-03 8.669714e-03 7.453553e-03 7.746804e-03 6.921984e-03 4.272723e-03 5.466329e-03 5.237291e-03 1.617321e-02 2.520424e-02 4.136124e-03 2.546695e-03 4.714258e-03 1.046554e-02 1.533766e-03 3.103428e-03 1.262135e-03 5.089269e-03 1.801644e-03 2.216988e-03 5.689734e-03 1.922248e-02 2.521170e-03 1.527755e-02 7.539072e-03 8.223241e-03 3.351819e-03 5.806425e-03 4.571060e-02 6.134531e-03 5.908202e-03 1.845559e-02 6.532745e-03 1.844545e-02 4.055704e-03 1.964137e-02 8.438923e-03 6.401838e-03 3.558337e-02 7.868123e-03 1.529372e-02 3.016026e-02 5.285591e-03 7.568721e-03 1.084059e-02 4.716442e-03
<GCONST> -4.585753e+02
<STATE> 3
<MEAN> 142
 6.677529e-01 3.920339e-01 3.713425e-01 2.938040e-01 3.205986e-01 3.532396e-01 3.990374e-01 3.890118e-01 3.352741e-01 4.440141e-01 4.230672e-01 4.465757e-01 4.141181e-01 4.571067e-01 3.995273e-01 3.927786e-01 4.894643e-01 4.797275e-01 2.473524e-01 4.222161e-01 4.140195e-01 4.594758e-01 3.488128e-01 4.779924e-01 4.338118e-01 4.134669e-01 4.038951e-01 4.347035e-01 4.225493e-01 4.452986e-01 4.996738e-01 3.865437e-01 4.130666e-01 4.465192e-01 4.454752e-01 4.268228e-01 3.655186e-01 3.877525e-01 4.141755e-01 3.806582e-01 4.223217e-01 5.154773e-01 2.913501e-01 4.017697e-01 2.162901e-01 4.436186e-01 3.697895e-01 4.566377e-01 4.585174e-01 2.929331e-01 4.384119e-01 4.626053e-01 5.186817e-01 2.575135e-01 4.715628e-01 4.003142e-01 4.290559e-01 3.312270e-01 3.484448e-01 2.641319e-01 5.120477e-01 4.446575e-01 3.660502e-01 3.592001e-01 4.287328e-01 4.567613e-01 4.272800e-01 3.705790e-01 3.788462e-01 4.382022e-01 4.736483e-01 4.157216e-01 4.588476e-01 4.111348e-01 3.101457e-01 3.883862e-01 4.375152e-01 3.694975e-01 4.736318e-01 4.326422e-01 4.910633e-01 3.932911e-01 4.889514e-01 3.848209e-01 3.187827e-01 4.143902e-01 3.241628e-01 3.760532e-01 4.793118e-01 3.719140e-01 3.884351e-01 3.660664e-01 5.203882e-01 3.572542e-01 3.729112e-01 4.893671e-01 4.654898e-01 3.597150e-01 5.004594e-01 3.948945e-01 4.093778e-01 4.437865e-01 3.084058e-01 3.719333e-01 3.693030e-01 3.013093e-01 4.221550e-01 3.908157e-01 3.793237e-01 3.621402e-01 4.044901e-01 4.127425e-01 2.980810e-01 3.996978e-01 3.913952e-01 3.934833e-01 3.794354e-01 3.760192e-01 4.272491e-01 3.742525e-01 4.212820e-01 5.114616e-01 3.698536e-01 4.566905e-01 4.216751e-01 4.191510e-01 4.467463e-01 4.315075e-01 3.696308e-01 3.930224e-01 4.231328e-01 4.225653e-01 3.641121e-01 4.173504e-01 4.175772e-01 3.958024e-01 5.596180e-01 4.778403e-01 4.651488e-01 3.926241e-01 4.293831e-01 4.599310e-01
<VARIANCE> 142
 3.758329e-02 1.099741e-02 7.839148e-03 3.597347e-03 7.837464e-03 1.502199e-02 8.972395e-03 8.506019e-03 2.728039e-03 3.221557e-03 9.411926e-03 4.054522e-03 1.433059e-02 5.349149e-03 4.715426e-02 4.252294e-03 1.223242e-02 2.340585e-02 7.070321e-03 5.054095e-03 9.239642e-03 9.225672e-03 1.518655e-02 8.981098e-03 5.650338e-03 4.282377e-03 4.396054e-03 8.644254e-03 1.237264e-02 1.024817e-02 7.398407e-03 5.736905e-03 3.212525e-02 6.985363e-03 1.000000e-03 1.087722e-02 8.157253e-03 3.217430e-02 3.596914e-02 1.515093e-02 2.842949e-02 2.550495e-02 1.406249e-02 6.239943e-03 6.908628e-03 6.092287e-03 7.723076e-03 1.014764e-02 1.461342e-02 1.837539e-03 3.156616e-03 1.078723e-02 4.822606e-03 7.564949e-03 1.038438e-02 1.516806e-02 3.975502e-03 9.491617e-03 3.208667e-03 4.139845e-03 1.376915e-02 4.563262e-03 1.000000e-03 1.000000e-03 2.700354e-02 8.514322e-03 2.895735e-02 3.026648e-03 7.004783e-03 2.682300e-02 4.047383e-03 1.261382e-02 4.131231e-03 4.094904e-03 1.236888e-02 1.345760e-02 9.920012e-03 8.203126e-03 2.616091e-03 6.918221e-03 1.820083e-02 9.315944e-03 5.792738e-02 8.231378e-03 3.144556e-03 1.336449e-02 1.997370e-03 2.540229e-03 1.708898e-03 2.523242e-03 1.172472e-02 9.434569e-03 1.476295e-02 2.815809e-03 5.638795e-03 1.153092e-02 4.743217e-03 1.579885e-02 8.139960e-03 5.427882e-03 6.006367e-03 1.160693e-02 6.446989e-03 2.243906e-02 6.169919e-03 4.895237e-03 4.888494e-03 9.294694e-03 5.232449e-03 8.151761e-03 1.402586e-03 6.766343e-03 2.584445e-03 1.005616e-02 5.645230e-03 4.549013e-03 1.786476e-02 4.874275e-03 7.518023e-03 7.578799e-03 7.305322e-03 1.262615e-02 1.006080e-02 1.056131e-02 8.063321e-03 3.145216e-03 8.991042e-03 4.851755e-02 1.185394e-02 3.581697e-03 1.373978e-03 1.133555e-02 1.166563e-02 1.536453e-02 1.096331e-02 7.598117e-03 9.769566e-03 2.584288e-02 2.774189e-02 9.916644e-03 6.280433e-03 2.160725e-02
<GCONST> -4.260464e+02
<TRANSP> 4
 0.000000e+00 1.000000e+00 0.000000e+00 0.000000e+00
 0.000000e+00 5.000000e-01 5.000000e-01 0.000000e+00
 0.000000e+00 0.000000e+00 5.000000e-01 5.000000e-01
 0.000000e+00 0.000000e+00 0.000000e+00 0.000000e+00
<ENDHMM>
