~o
<STREAMINFO> 1 142
<VECSIZE> 142<NULLD><USER><DIAGC>
~h "ignorant"
<BEGINHMM>
<NUMSTATES> 4
<STATE> 2
<MEAN> 142
 5.031798e-01 3.227886e-01 4.020693e-01 3.134235e-01 3.142514e-01 2.980187e-01 3.803954e-01 3.554733e-01 3.795802e-01 3.900794e-01 4.743828e-01 4.050017e-01 3.713811e-01 5.078022e-01 4.210367e-01 3.649964e-01 4.209534e-01 3.853330e-01 2.930272e-01 3.922226e-01 5.114272e-01 4.732561e-01 3.343878e-01 4.698690e-01 4.937031e-01 3.752040e-01 3.780428e-01 3.943988e-01 4.182673e-01 3.946633e-01 4.493766e-01 4.108653e-01 4.036779e-01 5.019227e-01 4.436493e-01 3.945327e-01 4.177765e-01 3.446265e-01 3.650412e-01 3.791116e-01 3.535583e-01 4.747570e-01 3.136133e-01 2.897028e-01 2.605684e-01 3.685173e-01 5.045695e-01 4.319186e-01 4.701495e-01 3.285416e-01 4.891017e-01 3.963724e-01 3.852947e-01 3.095593e-01 4.078556e-01 3.787048e-01 3.943186e-01 3.801291e-01 3.240502e-01 3.721507e-01 4.205081e-01 4.521736e-01 3.829051e-01 3.719079e-01 4.158997e-01 4.373771e-01 3.620929e-01 4.013863e-01 3.854780e-01 3.627063e-01 4.697240e-01 3.230010e-01 3.870380e-01 4.483271e-01 3.031847e-01 3.204822e-01 4.544571e-01 4.813798e-01 4.313847e-01 4.775246e-01 4.500524e-01 4.151289e-01 3.676863e-01 3.907210e-01 3.887265e-01 3.724936e-01 3.930263e-01 3.932493e-01 4.723573e-01 2.998765e-01 2.853574e-01 3.499893e-01 4.005252e-01 3.245917e-01 4.639365e-01 4.782192e-01 4.762646e-01 3.382317e-01 4.932725e-01 4.388971e-01 4.281307e-01 4.227518e-01 3.619544e-01 3.525762e-01 3.874566e-01 3.082789e-01 3.248146e-01 3.747451e-01 4.125570e-01 3.940233e-01 3.425241e-01 2.857840e-01 4.084564e-01 3.740447e-01 3.417996e-01 3.773031e-01 2.921665e-01 4.617744e-01 3.977398e-01 4.118344e-01 4.669372e-01 4.389462e-01 3.970289e-01 2.947393e-01 4.034843e-01 3.956853e-01 3.707293e-01 3.695835e-01 3.234702e-01 3.925931e-01 4.941533e-01 4.178144e-01 3.480011e-01 4.418396e-01 4.473614e-01 4.740418e-01 4.305701e-01 4.900436e-01 4.740030e-01 4.041458e-01 4.342698e-01 4.371155e-01
<VARIANCE> 142
 1.770156e-02 9.325214e-03 1.043912e-02 9.013406e-03 1.539748e-02 1.745536e-02 3.330899e-02 2.386779e-02 5.254778e-03 8.709108e-03 2.330569e-02 4.975990e-03 5.391349e-03 1.699495e-02 4.931793e-03 1.770217e-02 6.990886e-03 1.042999e-02 1.680065e-02 1.048379e-02 1.907124e-02 2.565667e-02 1.543922e-02 1.533248e-02 2.216944e-02 3.491489e-03 1.080099e-02 1.646438e-02 6.754843e-03 9.671112e-03 1.050513e-02 6.743504e-03 8.014373e-03 1.823658e-02 2.496572e-03 9.548626e-03 7.867374e-03 7.005574e-03 9.543731e-03 2.170983e-02 7.768281e-03 4.242934e-03 6.805384e-03 8.062758e-03 1.524976e-02 6.709530e-03 2.124046e-02 8.039556e-03 1.769545e-02 6.239684e-03 5.955569e-03 5.815013e-03 7.181688e-03 8.378234e-03 4.656007e-03 6.125412e-03 1.819169e-02 2.129262e-02 2.686438e-02 2.353478e-02 2.956963e-02 2.617118e-03 6.135736e-03 6.029015e-03 1.080459e-02 9.415926e-03 8.608943e-03 3.695481e-02 7.101054e-03 5.042671e-03 5.369430e-03 6.736731e-03 5.808156e-03 1.910191e-03 1.568970e-02 5.067899e-03 8.457674e-03 2.371321e-02 1.544746e-02 1.326250e-02 6.070229e-03 1.586259e-02 7.861551e-03 1.277782e-02 2.085174e-02 5.898389e-03 3.644706e-03 3.542781e-03 1.256534e-03 1.005754e-02 6.975067e-03 1.077853e-02 5.517259e-03 2.825340e-03 5.438204e-03 1.028920e-02 4.200523e-03 2.019636e-02 1.334559e-02 9.463626e-03 5.337755e-03 7.338039e-03 4.861024e-03 8.531847e-03 1.895791e-02 2.473842e-02 1.127632e-02 5.328176e-03 4.940408e-03 1.322375e-02 3.093126e-03 5.959757e-03 1.905239e-02 4.908623e-03 6.456397e-03 5.449109e-03 4.208578e-03 1.817465e-02 7.933315e-03 2.390931e-02 1.274844e-02 1.380107e-02 1.311595e-02 9.623148e-03 4.111008e-02 1.210868e-03 6.783548e-03 1.902995e-02 1.057378e-02 2.009090e-02 8.720666e-03 3.852664e-03 1.423863e-02 9.790514e-03 6.349918e-03 1.301227e-02 1.978173e-02 4.804973e-03 1.863499e-02 5.947912e-03 7.712419e-03 6.644780e-03
<GCONST> -4.034873e+02
<STATE> 3
<MEAN> 142
 6.279948e-01 3.543195e-01 3.637979e-01 3.830976e-01 3.607546e-01 3.807408e-01 4.366626e-01 3.772871e-01 3.508542e-01 3.834766e-01 4.180428e-01 4.173890e-01 3.865434e-01 4.322388e-01 3.347221e-01 3.852147e-01 4.149616e-01 4.546218e-01 3.256556e-01 4.033687e-01 4.913936e-01 4.334990e-01 4.043012e-01 4.184923e-01 4.312512e-01 3.901427e-01 3.925695e-01 3.938132e-01 4.116181e-01 3.604747e-01 4.698594e-01 4.451061e-01 4.540426e-01 4.611104e-01 3.972232e-01 4.152015e-01 3.489308e-01 3.311776e-01 3.567437e-01 3.616956e-01 3.932820e-01 4.038818e-01 3.246772e-01 3.901177e-01 2.456331e-01 3.887145e-01 4.097527e-01 4.693750e-01 3.820071e-01 3.311611e-01 5.118178e-01 4.209987e-01 4.192800e-01 2.773274e-01 4.455503e-01 4.144023e-01 3.986454e-01 3.708840e-01 3.537548e-01 3.340798e-01 4.716563e-01 4.966353e-01 3.947076e-01 4.118344e-01 4.609840e-01 4.254420e-01 3.900579e-01 4.064861e-01 4.619089e-01 3.660330e-01 4.746124e-01 4.561137e-01 3.839487e-01 3.822804e-01 3.616488e-01 3.825945e-01 4.874635e-01 4.352159e-01 4.496262e-01 4.424874e-01 4.819922e-01 3.713258e-01 3.833960e-01 4.235271e-01 3.803220e-01 4.091428e-01 4.149537e-01 4.227481e-01 4.672005e-01 3.781151e-01 3.428342e-01 3.393813e-01 4.662707e-01 3.353495e-01 4.270919e-01 5.174063e-01 4.881107e-01 3.796348e-01 4.611333e-01 4.504256e-01 4.011945e-01 4.415528e-01 3.490930e-01 3.894973e-01 3.142221e-01 2.596734e-01 3.651858e-01 3.595329e-01 3.852168e-01 3.876054e-01 3.753899e-01 3.605562e-01 3.659063e-01 3.550395e-01 4.155906e-01 4.203396e-01 3.689366e-01 3.770720e-01 4.403560e-01 3.997838e-01 4.078122e-01 4.998187e-01 4.646571e-01 4.092449e-01 4.278770e-01 3.886214e-01 4.224399e-01 4.095446e-01 3.666883e-01 4.051763e-01 4.743616e-01 4.658912e-01 4.199396e-01 4.328396e-01 4.609526e-01 4.255378e-01 4.941091e-01 4.618735e-01 4.397096e-01 4.141585e-01 4.484659e-01 4.493468e-01
<VARIANCE> 142
 4.907127e-02 5.876845e-03 7.686539e-03 1.920324e-02 2.426262e-02 1.566860e-02 1.724646e-02 1.460297e-02 1.572655e-02 3.335198e-03 2.790037e-03 6.556904e-03 1.023508e-02 5.359341e-03 1.486955e-02 8.058939e-03 4.503168e-03 1.686497e-02 1.685409e-02 1.985260e-02 9.002421e-03 9.824850e-03 1.554599e-02 4.393449e-03 3.589772e-03 7.258704e-03 5.684210e-03 8.599160e-03 5.068428e-03 1.115783e-02 5.596934e-03 1.373996e-02 2.453404e-02 6.348553e-03 1.000000e-03 7.778033e-03 1.651213e-02 2.383782e-02 1.421823e-02 1.272871e-02 1.158896e-02 3.181355e-03 1.917352e-02 2.288225e-02 1.254956e-02 1.064806e-02 7.315195e-03 9.169695e-03 1.155474e-02 1.273323e-02 1.109818e-02 2.805246e-02 9.368227e-03 5.284580e-03 9.223449e-03 1.287621e-02 1.092206e-02 9.042330e-03 6.498212e-03 3.999781e-02 1.909615e-02 1.173689e-02 9.287386e-03 1.399364e-02 2.516327e-02 1.127103e-02 3.094419e-02 5.276619e-03 6.396833e-03 1.418711e-02 8.632106e-03 1.538337e-02 1.156282e-02 4.380350e-03 2.415339e-02 8.665609e-03 6.894289e-03 1.119047e-02 1.035159e-02 7.452135e-03 1.140680e-02 6.972362e-03 8.626433e-03 3.271992e-03 9.660044e-03 1.580073e-02 4.875142e-03 6.626322e-03 2.736326e-03 1.219581e-02 1.556928e-02 1.340353e-02 1.533283e-02 7.472998e-03 5.383551e-03 1.115969e-02 1.226837e-02 3.035857e-02 8.656067e-03 1.450072e-02 7.058179e-03 8.970662e-03 5.002928e-03 2.358659e-02 3.881134e-03 6.209864e-03 1.218270e-02 1.962791e-02 4.512304e-03 1.363326e-02 9.510794e-03 4.501287e-03 1.079009e-02 4.509775e-03 2.950760e-03 7.937818e-03 1.463686e-02 5.829347e-03 8.714368e-03 9.076886e-03 2.328150e-03 7.501935e-03 5.811498e-03 1.586379e-02 1.956628e-02 3.815385e-03 7.505272e-03 3.030425e-02 1.998490e-02 8.273548e-03 5.809373e-03 1.366236e-02 1.578257e-02 1.449309e-02 2.721063e-02 9.890981e-03 1.567362e-02 1.806016e-02 2.570463e-02 3.697108e-03 9.450732e-03 9.409925e-03
<GCONST> -3.944617e+02
<TRANSP> 4
 0.000000e+00 1.000000e+00 0.000000e+00 0.000000e+00
 0.000000e+00 5.000000e-01 5.000000e-01 0.000000e+00
 0.000000e+00 0.000000e+00 5.000000e-01 5.000000e-01
 0.000000e+00 0.000000e+00 0.000000e+00 0.000000e+00
<ENDHMM>
