~o
<STREAMINFO> 1 142
<VECSIZE> 142<NULLD><USER><DIAGC>
~h "king"
<BEGINHMM>
<NUMSTATES> 4
<STATE> 2
<MEAN> 142
 5.561758e-01 3.756675e-01 3.246695e-01 4.170840e-01 3.097001e-01 2.856237e-01 3.679712e-01 3.105896e-01 3.749914e-01 4.454581e-01 4.626187e-01 4.521267e-01 3.230939e-01 4.884518e-01 3.474863e-01 2.975331e-01 3.722379e-01 4.039183e-01 3.047898e-01 3.472331e-01 4.447414e-01 4.769434e-01 3.662320e-01 4.610094e-01 5.152150e-01 3.729225e-01 4.083500e-01 3.944357e-01 4.658332e-01 4.048692e-01 4.660683e-01 3.777193e-01 3.376811e-01 4.586160e-01 4.560170e-01 3.266433e-01 3.683000e-01 3.299785e-01 4.440219e-01 3.599824e-01 3.380025e-01 4.768630e-01 3.080052e-01 3.264503e-01 1.913474e-01 3.295144e-01 4.800916e-01 4.367004e-01 4.186177e-01 3.706867e-01 4.788254e-01 4.085312e-01 4.535956e-01 2.660386e-01 4.282461e-01 4.242010e-01 4.301203e-01 3.616994e-01 3.425811e-01 3.155300e-01 4.015069e-01 4.301634e-01 3.643128e-01 3.836540e-01 3.327885e-01 4.566360e-01 3.385355e-01 3.498806e-01 3.415979e-01 4.126606e-01 4.633041e-01 3.423360e-01 3.679655e-01 4.529132e-01 2.501391e-01 3.047515e-01 4.206138e-01 5.078023e-01 4.889319e-01 4.405873e-01 4.760206e-01 3.601136e-01 3.741108e-01 3.748692e-01 3.151426e-01 3.030925e-01 3.895954e-01 4.309017e-01 4.540473e-01 3.364608e-01 3.836988e-01 2.285982e-01 4.208761e-01 3.405420e-01 4.398737e-01 4.728691e-01 4.401592e-01 3.281648e-01 5.021682e-01 4.200800e-01 4.708057e-01 4.878200e-01 3.354336e-01 3.473375e-01 3.175799e-01 3.834500e-01 3.482153e-01 4.131630e-01 3.812856e-01 3.707913e-01 3.865095e-01 3.425981e-01 3.735458e-01 3.942760e-01 3.581140e-01 3.210041e-01 3.366341e-01 4.681869e-01 3.956541e-01 4.477948e-01 4.213480e-01 4.560772e-01 4.390288e-01 2.730256e-01 4.187191e-01 3.946536e-01 3.950925e-01 4.166476e-01 3.873545e-01 4.128106e-01 4.092429e-01 4.517786e-01 3.224944e-01 4.765346e-01 3.732314e-01 4.289375e-01 4.148617e-01 4.502782e-01 3.744494e-01 4.048968e-01 4.926358e-01 4.472605e-01
<VARIANCE> 142
 3.145019e-02 1.057780e-02 1.231561e-02 5.794713e-03 9.152343e-03 1.963156e-02 1.821798e-02 1.381800e-02 3.421644e-03 2.475661e-02 2.323968e-02 4.825323e-03 8.899646e-03 2.094076e-02 6.073543e-03 8.443288e-03 6.048207e-03 1.252258e-02 1.499745e-02 6.025964e-03 2.445443e-02 1.475664e-02 5.532539e-03 8.257356e-03 5.561379e-03 6.695847e-03 1.610135e-02 1.200839e-02 3.565097e-03 9.967516e-03 2.203845e-03 6.634453e-03 3.224758e-02 1.021864e-02 2.473614e-03 6.134795e-03 9.095578e-03 6.076190e-03 1.084542e-02 1.948630e-02 4.592873e-03 2.165291e-03 7.983950e-03 1.288277e-02 6.096396e-03 1.347222e-02 1.320890e-02 3.465165e-03 8.188844e-03 3.822872e-03 5.745228e-03 3.174327e-03 6.817344e-03 5.576207e-03 6.707104e-03 1.328091e-02 4.892897e-02 1.609643e-02 1.825295e-02 1.045776e-02 3.364124e-02 5.346038e-03 7.243021e-03 2.426565e-03 5.215592e-03 3.626915e-02 6.824115e-03 2.285371e-02 8.734193e-03 1.515010e-02 7.254438e-03 9.614198e-03 1.294585e-03 5.370704e-03 1.754077e-02 5.966203e-03 4.271910e-03 2.850453e-02 1.664196e-02 1.266829e-02 7.503964e-03 1.090907e-02 8.770706e-03 1.388122e-02 1.043017e-02 1.460034e-02 1.706100e-03 1.292303e-03 3.978564e-03 8.684560e-03 8.693925e-03 7.220160e-03 1.305073e-02 6.511713e-03 7.668938e-03 7.401881e-03 7.355771e-03 1.012631e-02 1.477808e-02 7.415061e-03 7.457110e-03 1.252313e-02 5.145383e-03 8.655318e-03 1.115025e-02 1.172987e-02 5.024110e-03 5.280325e-03 1.430878e-02 7.348568e-03 8.119448e-03 4.382768e-03 1.637048e-02 2.530129e-02 9.691713e-03 4.553774e-03 4.980581e-03 9.351067e-03 6.096242e-03 1.857781e-02 2.091697e-03 1.396701e-02 5.799434e-03 1.264320e-02 3.552090e-02 9.859934e-03 1.438309e-02 7.911266e-03 2.271137e-02 1.071570e-02 3.020507e-03 5.236951e-03 7.684320e-03 7.931426e-03 5.235628e-03 3.926372e-03 2.988250e-02 6.150455e-03 8.435896e-03 6.003565e-03 1.768237e-02 5.246718e-03
<GCONST> -4.128526e+02
<STATE> 3
<MEAN> 142
 6.959797e-01 3.632315e-01 3.715014e-01 3.508067e-01 2.838089e-01 3.195963e-01 3.955410e-01 3.520051e-01 2.993723e-01 3.558188e-01 4.183666e-01 4.476539e-01 4.299138e-01 4.273614e-01 2.748757e-01 3.334366e-01 3.918328e-01 3.843139e-01 2.915151e-01 3.346906e-01 4.825124e-01 4.663531e-01 4.092579e-01 4.415326e-01 4.539207e-01 4.070301e-01 4.542770e-01 3.976564e-01 3.875156e-01 3.668970e-01 4.998744e-01 4.023006e-01 4.293523e-01 4.241235e-01 4.084353e-01 3.820250e-01 3.447262e-01 3.333361e-01 3.137777e-01 3.311928e-01 3.329033e-01 3.614604e-01 3.078481e-01 3.546717e-01 2.413513e-01 3.770394e-01 4.058857e-01 3.702039e-01 3.784704e-01 3.543641e-01 4.717349e-01 4.258880e-01 4.297513e-01 2.719011e-01 4.557920e-01 3.703347e-01 4.774176e-01 3.180131e-01 3.787652e-01 3.704052e-01 4.658661e-01 4.672034e-01 3.780740e-01 4.242969e-01 3.664567e-01 4.559935e-01 3.426723e-01 3.991187e-01 4.575097e-01 3.894122e-01 4.722598e-01 4.628416e-01 3.895878e-01 4.031057e-01 3.330381e-01 4.157920e-01 5.027251e-01 3.848661e-01 4.252908e-01 4.284724e-01 4.399380e-01 3.400854e-01 3.417501e-01 4.672523e-01 3.374619e-01 4.173615e-01 3.683288e-01 4.486999e-01 4.543656e-01 3.656750e-01 3.440453e-01 3.440582e-01 4.128018e-01 3.864676e-01 3.908900e-01 4.279748e-01 4.154658e-01 3.182287e-01 4.033679e-01 4.228686e-01 3.762222e-01 4.654967e-01 3.261144e-01 3.483322e-01 3.211203e-01 2.864121e-01 3.667159e-01 3.526288e-01 4.255477e-01 3.718616e-01 4.167134e-01 3.721341e-01 3.160512e-01 3.083722e-01 3.654397e-01 4.259844e-01 4.001810e-01 3.828321e-01 4.441474e-01 3.964807e-01 3.816085e-01 4.663379e-01 4.561976e-01 4.319827e-01 4.086260e-01 3.920755e-01 4.062794e-01 3.720403e-01 3.308133e-01 4.118316e-01 3.902119e-01 3.498707e-01 4.437361e-01 3.930585e-01 3.382356e-01 3.882448e-01 4.611224e-01 3.732500e-01 3.772260e-01 3.402212e-01 4.334313e-01 4.193730e-01
<VARIANCE> 142
 5.035664e-02 2.187178e-02 1.007679e-02 1.096897e-02 6.062318e-03 1.586716e-02 9.283788e-03 9.507192e-03 1.336610e-03 5.947151e-03 1.491601e-02 1.299414e-02 6.978678e-03 3.193021e-03 7.460530e-03 2.071356e-03 4.218305e-03 8.811994e-03 8.700700e-03 1.223948e-02 9.062931e-03 1.308058e-02 1.187528e-02 5.593756e-03 2.650069e-03 6.334398e-03 5.789211e-03 1.264107e-02 1.234122e-03 9.680587e-03 7.958331e-03 1.383557e-02 1.825207e-02 5.653307e-03 1.314846e-03 7.517433e-03 1.203950e-02 1.319610e-02 7.134452e-03 1.504116e-02 1.137016e-02 4.564093e-03 1.582345e-02 1.565698e-02 6.849060e-03 1.679505e-02 4.996552e-03 4.301183e-03 1.146015e-02 4.634229e-03 4.697572e-03 1.300688e-02 9.867754e-03 1.033430e-02 1.334365e-02 1.685536e-02 1.369014e-02 8.362925e-03 4.582811e-03 2.373559e-02 9.722684e-03 4.369670e-03 1.350542e-02 9.699706e-03 1.699489e-02 8.550179e-03 1.557121e-02 7.286267e-03 3.136378e-03 1.440210e-02 7.129796e-03 2.246431e-02 2.466545e-03 4.118449e-03 1.292292e-02 8.446004e-03 4.324995e-03 2.055689e-02 1.060848e-02 5.906137e-03 6.677093e-03 2.847319e-03 6.966602e-03 1.299403e-02 1.036186e-02 1.662548e-02 2.629526e-03 1.196968e-03 1.827966e-03 9.241143e-03 1.576885e-02 8.830121e-03 7.297278e-03 1.043755e-02 3.929627e-03 1.166767e-02 5.318026e-03 1.408816e-02 6.674615e-03 6.123811e-03 6.195569e-03 5.906978e-03 3.436907e-03 1.467716e-02 1.529575e-03 6.039976e-03 9.730883e-03 1.111730e-02 2.435549e-03 1.218241e-02 1.103491e-02 1.404677e-02 7.651742e-03 4.880747e-03 2.057581e-02 1.731227e-02 1.212713e-02 8.426268e-03 1.178257e-02 7.219266e-03 3.112556e-03 1.242158e-02 1.653076e-02 3.360886e-02 1.699204e-02 1.826327e-02 1.596930e-02 1.387430e-02 2.757298e-02 4.902735e-03 7.460812e-03 2.067960e-03 2.505813e-02 1.021072e-02 2.946352e-03 3.657656e-03 9.246953e-03 8.557350e-03 2.717940e-02 3.434775e-03 1.677320e-02 1.196339e-02
<GCONST> -4.200664e+02
<TRANSP> 4
 0.000000e+00 1.000000e+00 0.000000e+00 0.000000e+00
 0.000000e+00 5.000000e-01 5.000000e-01 0.000000e+00
 0.000000e+00 0.000000e+00 5.000000e-01 5.000000e-01
 0.000000e+00 0.000000e+00 0.000000e+00 0.000000e+00
<ENDHMM>
