~o
<STREAMINFO> 1 142
<VECSIZE> 142<NULLD><USER><DIAGC>
~h "know"
<BEGINHMM>
<NUMSTATES> 4
<STATE> 2
<MEAN> 142
 6.455706e-01 3.585619e-01 3.666214e-01 3.408318e-01 2.855723e-01 2.505986e-01 3.712896e-01 3.145283e-01 3.460226e-01 3.946964e-01 4.444908e-01 4.366646e-01 3.523581e-01 4.261797e-01 2.967902e-01 3.288031e-01 4.319248e-01 4.057148e-01 3.020473e-01 3.738879e-01 4.600655e-01 4.871979e-01 3.670625e-01 4.817280e-01 4.424502e-01 3.819754e-01 4.056996e-01 3.764235e-01 4.131308e-01 3.567367e-01 4.494486e-01 5.166323e-01 4.516883e-01 4.669212e-01 4.289818e-01 3.742005e-01 3.301254e-01 2.916434e-01 3.407896e-01 3.307594e-01 3.361345e-01 4.502788e-01 3.223536e-01 2.921068e-01 2.426592e-01 4.411691e-01 4.885073e-01 3.863594e-01 3.813771e-01 3.049768e-01 4.622549e-01 3.558788e-01 4.337550e-01 2.597819e-01 5.196368e-01 4.247183e-01 3.813823e-01 2.995522e-01 3.161787e-01 3.164181e-01 4.121250e-01 4.742081e-01 3.523964e-01 3.809939e-01 3.658451e-01 5.069841e-01 3.097860e-01 3.975794e-01 4.343944e-01 3.308977e-01 4.667251e-01 4.276821e-01 4.801248e-01 4.100164e-01 3.433108e-01 3.839481e-01 5.043905e-01 4.947937e-01 4.547916e-01 3.826175e-01 4.329274e-01 3.702780e-01 3.786687e-01 4.439559e-01 3.221629e-01 4.710404e-01 3.797444e-01 4.213042e-01 4.183156e-01 3.155004e-01 3.542621e-01 3.127797e-01 4.441352e-01 3.672029e-01 4.525529e-01 4.632597e-01 4.448260e-01 3.170669e-01 4.577306e-01 4.258804e-01 4.060068e-01 5.341747e-01 3.638895e-01 3.331968e-01 2.898679e-01 3.475870e-01 3.549238e-01 3.508376e-01 3.296007e-01 3.357422e-01 3.722819e-01 3.827928e-01 3.346165e-01 3.569913e-01 3.604970e-01 4.229708e-01 3.625726e-01 4.359150e-01 4.002331e-01 4.216673e-01 4.346316e-01 5.651202e-01 4.613265e-01 4.149390e-01 4.026845e-01 4.133582e-01 4.159242e-01 3.054097e-01 3.294761e-01 3.867172e-01 3.906220e-01 4.304020e-01 3.576224e-01 4.024953e-01 3.642587e-01 4.163804e-01 4.470667e-01 3.795553e-01 3.160245e-01 4.115094e-01 5.055712e-01 5.155844e-01
<VARIANCE> 142
 3.404497e-02 1.296580e-02 5.731300e-03 1.515069e-02 6.235602e-03 9.540548e-03 1.447821e-02 1.087446e-02 6.052667e-03 5.341751e-03 1.690047e-02 5.304575e-03 5.365595e-03 1.842518e-02 1.246003e-02 4.745752e-03 8.920934e-03 1.099698e-02 9.444335e-03 1.465193e-02 6.011022e-03 1.056367e-02 7.614934e-03 6.346934e-03 6.026331e-03 9.473616e-03 1.496297e-02 6.660209e-03 3.888163e-03 6.820679e-03 2.710907e-03 3.623745e-03 1.314801e-02 5.545963e-03 2.422859e-03 1.350123e-02 6.231862e-03 6.571172e-03 1.468575e-02 3.460681e-02 1.823096e-02 1.298703e-02 1.812902e-02 1.733373e-02 3.845605e-03 1.436039e-02 5.098901e-03 1.256336e-02 6.564729e-03 8.596519e-03 5.214785e-03 1.064240e-02 1.083015e-02 3.601423e-03 1.135880e-02 8.631651e-03 8.109069e-03 8.001406e-03 3.742864e-03 9.858395e-03 1.733050e-02 7.742040e-03 3.175094e-03 8.012515e-03 8.145129e-03 2.203961e-02 6.647958e-03 4.600493e-03 6.742348e-03 4.249723e-03 6.864728e-03 5.652418e-03 1.033459e-02 1.396037e-02 2.188236e-02 7.212824e-03 1.035908e-02 1.081281e-02 3.039800e-03 8.703160e-03 3.438482e-03 4.311902e-03 1.401061e-02 1.181090e-02 1.799384e-02 1.328131e-02 3.148817e-03 2.399468e-03 3.889944e-03 1.154097e-02 8.289669e-03 1.220672e-02 8.861048e-03 7.111279e-03 3.874772e-03 4.136855e-03 6.243777e-03 6.647305e-03 9.202252e-03 1.156048e-02 5.855266e-03 1.445783e-02 9.895557e-03 1.207176e-02 7.162027e-03 5.880555e-03 8.468620e-03 9.021606e-03 5.264205e-03 1.519838e-02 8.988157e-03 5.004820e-03 4.127607e-03 1.559699e-02 4.146590e-03 5.392928e-03 2.468823e-02 4.732908e-03 6.288830e-03 5.228092e-03 9.492123e-03 7.841839e-03 7.114786e-03 1.997506e-02 5.600727e-03 2.558833e-03 2.449857e-03 1.662377e-02 1.378160e-02 1.408682e-02 1.993990e-02 4.727665e-03 1.945803e-02 1.604583e-02 6.604912e-03 5.151634e-03 4.710681e-03 3.874443e-03 1.664496e-02 1.537795e-02 2.316402e-02 1.521263e-02
<GCONST> -4.197653e+02
<STATE> 3
<MEAN> 142
 5.494365e-01 4.328140e-01 3.833645e-01 3.784471e-01 3.479103e-01 3.578872e-01 3.560301e-01 3.467550e-01 3.756276e-01 4.201684e-01 5.251582e-01 4.696204e-01 3.767703e-01 4.839407e-01 3.413683e-01 3.110484e-01 4.596227e-01 5.069803e-01 3.995698e-01 3.824114e-01 3.812237e-01 3.584976e-01 3.902587e-01 4.117603e-01 4.527968e-01 4.406056e-01 4.683913e-01 5.027171e-01 4.164545e-01 5.042366e-01 5.053785e-01 3.942527e-01 3.932473e-01 4.280336e-01 4.221949e-01 3.393036e-01 3.776585e-01 4.065672e-01 3.980013e-01 4.701341e-01 4.314350e-01 4.711025e-01 4.777029e-01 2.807857e-01 3.396324e-01 4.456964e-01 4.062854e-01 3.590469e-01 3.464967e-01 4.005387e-01 5.077984e-01 4.203768e-01 4.598066e-01 3.834160e-01 4.581194e-01 4.690725e-01 4.328961e-01 3.477628e-01 4.268182e-01 3.952366e-01 4.107280e-01 4.500891e-01 4.419986e-01 4.515859e-01 5.172012e-01 4.568422e-01 4.732629e-01 4.293654e-01 4.417815e-01 4.654722e-01 4.514682e-01 4.319223e-01 3.640529e-01 3.828535e-01 3.722751e-01 4.023793e-01 4.138703e-01 3.504392e-01 4.141794e-01 3.929687e-01 5.273685e-01 3.343597e-01 4.081600e-01 3.803587e-01 4.698975e-01 4.187278e-01 4.243199e-01 4.327779e-01 4.855831e-01 4.109963e-01 4.266332e-01 3.594811e-01 5.105630e-01 4.349049e-01 4.553343e-01 5.175684e-01 4.970796e-01 4.165621e-01 4.112360e-01 4.689364e-01 4.337695e-01 3.911943e-01 3.423002e-01 4.593709e-01 3.304665e-01 2.899554e-01 3.951674e-01 4.808211e-01 3.934727e-01 3.632104e-01 4.271120e-01 4.561573e-01 3.601472e-01 3.611922e-01 3.939753e-01 5.373234e-01 4.729117e-01 3.361362e-01 5.222411e-01 3.931249e-01 3.957993e-01 4.610338e-01 4.373547e-01 5.473520e-01 3.563985e-01 4.300137e-01 5.043094e-01 4.842435e-01 5.002131e-01 3.719023e-01 3.850215e-01 4.474751e-01 4.369458e-01 4.793657e-01 4.309758e-01 4.375791e-01 4.644237e-01 4.230591e-01 3.882143e-01 3.516987e-01 4.225118e-01 3.990220e-01
<VARIANCE> 142
 8.808843e-03 2.609186e-02 3.124849e-02 1.890857e-02 1.015076e-02 1.520730e-02 1.308830e-02 1.793884e-02 3.437272e-03 4.631785e-03 1.878476e-02 2.102319e-02 3.893901e-03 6.495142e-03 5.342422e-03 1.053287e-02 1.297412e-02 1.544804e-02 1.110496e-02 6.358708e-03 2.124856e-02 3.178762e-02 7.154289e-03 6.621806e-03 3.269118e-03 6.451592e-03 1.885678e-02 6.990577e-03 1.000000e-03 1.426037e-02 3.436028e-03 4.263552e-03 2.420998e-02 8.738695e-03 3.235568e-03 7.803852e-03 1.815232e-02 1.456617e-02 1.354250e-02 5.439844e-02 1.655189e-02 7.419755e-03 1.908458e-02 6.686916e-03 3.240702e-03 9.708669e-03 2.597323e-02 1.883486e-02 2.349016e-02 2.234215e-02 1.116320e-02 1.340763e-02 8.387374e-03 1.184078e-02 8.684367e-03 8.241350e-03 1.154510e-02 4.540728e-03 4.750899e-03 4.667973e-02 1.531383e-02 2.361812e-03 1.589423e-02 7.071183e-03 3.150729e-02 6.422675e-03 1.486898e-02 2.899099e-02 1.422621e-02 1.016033e-02 1.531265e-03 1.378725e-02 3.590593e-03 5.738754e-03 2.266577e-02 6.871067e-03 1.648297e-02 1.480729e-02 2.391026e-03 1.293632e-02 2.050854e-02 4.818920e-03 1.819215e-02 1.932255e-02 5.629779e-03 2.399379e-02 3.304570e-03 8.081812e-03 6.561030e-03 1.083244e-02 3.046072e-02 1.814331e-02 2.801164e-02 2.238705e-02 1.001092e-02 1.975280e-02 5.558484e-03 1.995757e-02 8.243808e-03 2.167698e-03 3.922202e-03 2.304985e-02 3.597535e-03 2.072492e-02 2.185345e-02 5.051220e-03 1.375157e-02 8.051387e-03 2.180750e-02 2.982204e-02 1.154354e-02 1.420701e-02 1.640788e-02 4.289925e-03 6.704712e-03 1.758491e-02 2.440911e-02 1.456231e-02 2.198994e-02 7.138667e-03 1.057828e-02 6.558607e-03 1.079839e-02 1.060994e-02 1.031729e-02 7.203036e-03 1.550407e-02 5.114837e-02 4.943740e-02 4.322022e-03 2.755097e-02 1.182736e-02 2.829087e-02 1.881249e-02 3.822853e-03 1.289273e-02 8.380610e-03 8.166618e-03 3.998566e-02 8.840979e-03 1.572145e-02 7.707226e-03
<GCONST> -3.796328e+02
<TRANSP> 4
 0.000000e+00 1.000000e+00 0.000000e+00 0.000000e+00
 0.000000e+00 5.000000e-01 5.000000e-01 0.000000e+00
 0.000000e+00 0.000000e+00 5.000000e-01 5.000000e-01
 0.000000e+00 0.000000e+00 0.000000e+00 0.000000e+00
<ENDHMM>
