~o
<STREAMINFO> 1 142
<VECSIZE> 142<NULLD><USER><DIAGC>
~h "lie"
<BEGINHMM>
<NUMSTATES> 4
<STATE> 2
<MEAN> 142
 7.622749e-01 3.092249e-01 3.643380e-01 3.257932e-01 2.451548e-01 3.227482e-01 3.722481e-01 3.772241e-01 3.430857e-01 3.796520e-01 4.145271e-01 4.416645e-01 4.029889e-01 3.851718e-01 2.646903e-01 3.304647e-01 3.400283e-01 3.439698e-01 3.663867e-01 4.647098e-01 4.615092e-01 4.173411e-01 4.525297e-01 3.690764e-01 4.435577e-01 4.118469e-01 3.947614e-01 3.176743e-01 3.438504e-01 3.602105e-01 4.667193e-01 4.582647e-01 4.402820e-01 4.544536e-01 4.042665e-01 3.803123e-01 2.989518e-01 3.360143e-01 2.783884e-01 2.850493e-01 2.936248e-01 3.875717e-01 3.036133e-01 4.138491e-01 2.225239e-01 3.326501e-01 3.866808e-01 3.864469e-01 3.766868e-01 3.742180e-01 5.106977e-01 5.074575e-01 3.778268e-01 2.696022e-01 4.189427e-01 3.077208e-01 4.439395e-01 3.956393e-01 3.608227e-01 2.668261e-01 4.241232e-01 4.470267e-01 4.140193e-01 4.370864e-01 3.785033e-01 4.257573e-01 4.327803e-01 3.650306e-01 4.328531e-01 3.444077e-01 4.641962e-01 4.640171e-01 4.160916e-01 3.738865e-01 4.360676e-01 3.930966e-01 4.286891e-01 3.702765e-01 4.618376e-01 3.937980e-01 3.799237e-01 3.587254e-01 3.349667e-01 4.221031e-01 3.080643e-01 4.096944e-01 3.883483e-01 3.918343e-01 4.060909e-01 3.994499e-01 3.792964e-01 3.908742e-01 3.401828e-01 3.530589e-01 3.818169e-01 4.322473e-01 3.724844e-01 3.443371e-01 3.355030e-01 4.270441e-01 3.566873e-01 4.424416e-01 3.767602e-01 2.981683e-01 2.882292e-01 3.318053e-01 4.314046e-01 3.530499e-01 3.553593e-01 3.726649e-01 4.054579e-01 3.577484e-01 2.745841e-01 2.999693e-01 3.008016e-01 3.648967e-01 3.686377e-01 3.620593e-01 3.849614e-01 4.221731e-01 4.296288e-01 4.340401e-01 4.590428e-01 3.546180e-01 4.089931e-01 4.247102e-01 3.188225e-01 3.343153e-01 3.432234e-01 4.113277e-01 3.816735e-01 3.601396e-01 4.458096e-01 3.990986e-01 3.288598e-01 3.808292e-01 3.931389e-01 4.049981e-01 3.070822e-01 3.190984e-01 4.331692e-01 4.832043e-01
<VARIANCE> 142
 4.208972e-02 8.242927e-03 1.421749e-02 4.310887e-03 4.691915e-03 9.268401e-03 9.874033e-03 7.142884e-03 1.008045e-02 7.435106e-03 8.818689e-03 3.730877e-03 4.176612e-03 1.345515e-02 8.639989e-03 7.393599e-03 1.687604e-02 1.000000e-03 1.838868e-02 1.547914e-02 3.838905e-03 6.062541e-03 2.183261e-02 4.751182e-03 1.000000e-03 1.768369e-02 5.191525e-03 9.229504e-03 5.400176e-03 9.122884e-03 1.236771e-03 2.825619e-03 2.888343e-02 3.975586e-02 1.000000e-03 2.576553e-02 1.233283e-02 1.455727e-02 1.216812e-02 1.186349e-02 6.628741e-03 1.429016e-02 1.000000e-03 1.117537e-02 2.639824e-03 1.559651e-02 8.502506e-03 3.529027e-03 6.374485e-03 5.594722e-03 2.300593e-03 2.058059e-02 1.796703e-03 7.087499e-03 3.403455e-02 1.389249e-03 1.817655e-02 5.416844e-03 5.194142e-03 7.188881e-03 8.880699e-03 2.396930e-03 4.896732e-03 1.354088e-03 2.222221e-03 5.442485e-03 2.506543e-02 4.316709e-03 1.271624e-02 4.643782e-03 1.638884e-03 1.902538e-02 1.000759e-02 3.671178e-03 2.404833e-02 9.531271e-03 9.469771e-03 1.814542e-02 4.650787e-03 5.670280e-03 3.926017e-03 3.708017e-03 5.844339e-03 6.270365e-03 9.752529e-03 2.020463e-02 1.904000e-03 3.068832e-03 3.006961e-03 2.018516e-03 5.621964e-03 2.756200e-03 3.359686e-03 5.604572e-03 2.867933e-03 1.142284e-03 3.245429e-03 1.281037e-02 7.969528e-03 7.270754e-03 4.529659e-03 1.070475e-02 6.672459e-03 3.024647e-03 7.134719e-03 7.908306e-03 1.727461e-02 8.554813e-03 9.310355e-03 2.122611e-03 8.221488e-03 1.142635e-02 6.342930e-03 1.096860e-02 1.581385e-03 3.206193e-03 5.768089e-03 3.136834e-03 1.639794e-03 1.649624e-02 2.780783e-03 2.121419e-02 2.416725e-02 1.439004e-02 4.522879e-03 1.831285e-02 4.912363e-03 1.123272e-03 4.765559e-03 2.428016e-03 2.242518e-03 2.675953e-03 1.935993e-02 7.560698e-03 7.297024e-03 1.193728e-03 7.117773e-03 7.185058e-03 1.016280e-02 1.326061e-02 2.111262e-02 6.366098e-03
<GCONST> -4.576262e+02
<STATE> 3
<MEAN> 142
 6.632218e-01 3.473803e-01 4.015123e-01 3.914940e-01 3.152051e-01 3.408711e-01 4.219102e-01 3.418729e-01 3.509999e-01 3.556769e-01 5.168380e-01 4.381147e-01 4.164504e-01 5.408242e-01 2.884616e-01 3.866153e-01 3.567257e-01 3.794827e-01 3.509467e-01 3.920894e-01 5.242386e-01 5.324030e-01 4.168017e-01 4.763386e-01 4.776389e-01 3.819874e-01 4.552613e-01 3.689153e-01 4.244876e-01 3.833892e-01 4.746211e-01 4.146725e-01 4.545051e-01 4.154285e-01 4.226701e-01 3.311922e-01 3.591401e-01 3.031570e-01 3.475110e-01 3.298961e-01 3.049658e-01 4.143172e-01 2.911717e-01 3.298371e-01 2.353133e-01 4.031243e-01 4.933242e-01 3.869826e-01 4.426932e-01 3.460288e-01 5.135338e-01 3.672844e-01 4.071263e-01 2.601936e-01 4.789005e-01 3.479520e-01 4.394839e-01 3.864334e-01 3.618547e-01 3.876997e-01 4.556645e-01 4.396624e-01 3.414577e-01 3.896452e-01 3.290191e-01 4.443007e-01 3.285234e-01 4.315501e-01 4.688493e-01 3.160667e-01 4.381533e-01 4.002708e-01 4.130740e-01 4.246711e-01 3.680604e-01 3.648001e-01 4.810771e-01 4.606677e-01 4.703879e-01 4.664673e-01 4.397179e-01 3.788968e-01 3.190781e-01 4.666418e-01 3.480900e-01 4.601687e-01 3.992570e-01 4.430055e-01 4.647770e-01 3.520812e-01 3.343129e-01 3.325098e-01 4.390023e-01 3.548248e-01 4.159533e-01 4.436473e-01 4.165092e-01 2.865166e-01 4.045617e-01 4.231336e-01 3.696048e-01 4.869691e-01 3.477826e-01 3.273300e-01 3.800454e-01 3.248625e-01 3.742051e-01 3.531868e-01 4.215305e-01 3.922492e-01 3.724016e-01 3.889818e-01 3.547359e-01 3.370112e-01 3.429455e-01 3.746487e-01 3.571981e-01 4.384310e-01 4.344718e-01 4.807270e-01 4.053169e-01 5.005146e-01 4.540803e-01 3.605330e-01 4.676606e-01 4.037969e-01 3.647035e-01 3.154435e-01 3.329154e-01 4.206148e-01 4.132662e-01 3.908973e-01 3.978520e-01 3.956194e-01 3.621920e-01 4.106680e-01 4.764457e-01 3.712375e-01 3.827043e-01 3.686738e-01 4.661670e-01 5.077368e-01
<VARIANCE> 142
 3.476784e-02 4.387718e-03 7.090124e-03 9.252246e-03 6.869665e-03 9.570798e-03 2.041959e-02 4.313189e-03 3.869896e-03 1.798327e-03 3.431311e-02 1.000000e-03 4.412818e-03 2.242444e-02 1.689719e-02 2.053545e-02 3.460156e-03 4.706235e-03 1.343389e-02 1.065478e-02 1.106144e-02 1.176527e-02 1.659051e-02 5.143815e-03 3.748239e-03 2.759946e-03 1.234340e-02 4.446040e-03 1.230740e-02 9.158188e-03 2.607442e-03 7.534512e-03 3.395030e-02 9.472392e-03 1.239006e-03 4.939360e-03 9.315223e-03 1.472789e-02 7.442263e-03 1.534470e-02 4.503245e-03 6.518164e-03 2.945946e-03 1.255018e-02 1.709527e-02 1.738137e-02 8.234002e-03 6.262795e-03 6.221049e-03 5.737165e-03 3.461800e-03 1.268136e-02 7.509891e-03 7.902815e-03 1.691226e-02 7.313215e-03 3.638699e-02 1.569949e-02 1.003270e-02 2.201648e-02 1.683993e-02 2.203888e-03 4.052618e-03 2.145709e-03 4.529418e-03 8.671477e-03 7.870433e-03 1.703256e-02 5.728728e-03 7.409621e-03 2.818447e-03 1.973578e-02 6.932013e-03 5.838702e-03 1.915626e-02 4.866508e-03 8.828664e-03 2.117182e-02 1.125854e-02 1.520750e-02 6.146429e-03 4.239018e-03 7.678323e-03 3.559687e-03 2.515678e-02 1.649868e-02 4.204769e-03 1.000000e-03 3.593958e-03 7.272811e-03 2.745805e-03 7.723056e-03 1.049853e-02 5.150342e-03 4.000563e-03 4.017384e-03 7.411754e-03 4.461905e-03 5.495001e-03 6.328881e-03 4.315513e-03 1.062425e-02 4.104273e-03 5.215255e-03 9.135843e-03 1.743190e-02 5.282519e-03 6.714454e-03 9.706791e-03 5.164574e-03 6.286593e-03 2.593785e-03 2.396932e-02 2.633087e-03 4.189716e-03 4.900109e-03 9.419478e-03 3.278487e-03 3.904028e-03 1.508182e-02 3.421614e-03 9.511685e-03 5.445092e-03 1.025668e-02 9.354074e-03 3.793075e-03 2.530257e-03 4.503056e-03 6.405238e-03 1.312650e-02 1.442806e-02 5.205357e-03 7.786389e-03 6.521655e-03 1.823976e-02 4.880672e-03 6.181523e-03 1.151752e-02 2.159702e-02 4.195357e-03 5.646982e-03 7.197135e-03
<GCONST> -4.381949e+02
<TRANSP> 4
 0.000000e+00 1.000000e+00 0.000000e+00 0.000000e+00
 0.000000e+00 5.000000e-01 5.000000e-01 0.000000e+00
 0.000000e+00 0.000000e+00 5.000000e-01 5.000000e-01
 0.000000e+00 0.000000e+00 0.000000e+00 0.000000e+00
<ENDHMM>
