~o
<STREAMINFO> 1 142
<VECSIZE> 142<NULLD><USER><DIAGC>
~h "look_at"
<BEGINHMM>
<NUMSTATES> 4
<STATE> 2
<MEAN> 142
 6.873127e-01 3.607177e-01 3.874959e-01 3.469025e-01 2.863032e-01 3.540989e-01 4.123389e-01 3.866516e-01 3.762724e-01 4.038291e-01 4.749039e-01 4.645657e-01 4.452617e-01 4.757667e-01 3.103326e-01 3.442875e-01 4.034140e-01 3.667414e-01 3.160040e-01 4.468859e-01 4.521038e-01 4.885997e-01 4.015875e-01 4.636389e-01 4.398364e-01 4.252961e-01 4.017953e-01 4.436149e-01 4.064021e-01 3.783554e-01 4.661919e-01 4.345200e-01 4.961680e-01 4.072952e-01 4.487842e-01 3.724952e-01 3.462527e-01 3.395981e-01 3.281395e-01 3.698842e-01 3.525452e-01 4.214311e-01 3.120794e-01 3.586987e-01 3.022211e-01 4.248851e-01 4.332385e-01 4.033926e-01 4.213390e-01 3.811257e-01 4.441071e-01 4.108799e-01 4.134566e-01 2.853817e-01 5.389984e-01 3.976686e-01 4.429862e-01 3.417632e-01 3.841028e-01 3.459358e-01 4.708443e-01 4.697027e-01 3.870790e-01 4.057535e-01 3.851283e-01 4.539681e-01 3.723239e-01 3.889573e-01 4.717768e-01 3.949352e-01 4.774797e-01 4.758438e-01 4.000842e-01 4.418246e-01 3.831898e-01 4.185398e-01 5.164895e-01 4.530772e-01 4.465921e-01 4.024361e-01 4.214615e-01 3.794942e-01 3.662035e-01 4.690166e-01 3.443019e-01 4.707885e-01 3.942806e-01 4.502912e-01 4.764453e-01 4.141151e-01 3.559792e-01 3.831987e-01 4.352726e-01 3.960202e-01 4.407579e-01 4.610783e-01 4.474608e-01 3.570719e-01 4.178779e-01 4.308460e-01 4.108695e-01 5.073325e-01 3.709116e-01 3.397959e-01 3.519234e-01 3.278486e-01 4.072670e-01 3.648603e-01 4.125566e-01 4.299185e-01 4.228395e-01 4.086168e-01 3.711953e-01 3.233918e-01 3.773096e-01 4.495813e-01 3.708540e-01 4.299737e-01 4.298000e-01 3.989611e-01 4.093722e-01 4.885697e-01 4.710841e-01 4.174657e-01 4.485952e-01 4.320088e-01 4.258071e-01 3.306126e-01 3.288451e-01 4.270265e-01 4.195247e-01 3.879007e-01 4.552025e-01 4.214528e-01 3.564232e-01 4.071716e-01 4.496900e-01 4.012089e-01 3.971574e-01 3.768970e-01 4.679994e-01 4.822102e-01
<VARIANCE> 142
 4.148920e-02 9.118658e-03 1.157280e-02 1.026881e-02 1.377961e-02 2.582193e-02 2.150019e-02 8.796332e-03 1.067067e-02 9.756703e-03 8.263644e-03 1.483173e-02 1.060667e-02 1.537622e-02 8.420560e-03 1.357167e-02 1.497576e-02 1.166943e-02 1.128164e-02 2.216744e-02 1.380847e-02 1.548434e-02 8.095723e-03 1.618843e-02 2.921470e-03 7.361163e-03 4.299226e-03 4.975268e-03 1.732375e-02 9.541432e-03 4.081244e-03 7.951054e-03 1.679595e-02 9.943296e-03 4.487422e-03 9.003557e-03 2.226052e-02 1.780908e-02 1.846009e-02 5.272600e-02 8.035769e-03 1.416531e-02 9.959680e-03 1.711329e-02 2.435385e-02 7.985963e-03 1.131024e-02 1.202972e-02 1.142951e-02 1.483901e-02 3.143306e-03 1.389452e-02 5.256922e-03 6.836066e-03 5.076715e-03 1.428753e-02 8.400034e-03 1.844354e-02 1.852455e-02 3.397873e-02 2.036938e-02 3.406944e-03 5.138475e-03 6.845578e-03 9.227522e-03 7.617523e-03 1.583014e-02 2.689529e-02 9.888572e-03 7.579800e-03 8.916022e-03 1.976650e-02 7.774104e-03 4.574025e-03 1.802731e-02 1.052109e-02 6.609870e-03 2.229870e-02 4.399925e-03 1.307578e-02 3.187311e-03 7.147615e-03 5.135007e-03 2.571158e-02 1.886377e-02 1.108426e-02 1.288783e-02 1.114596e-02 6.165692e-03 1.496043e-02 1.505738e-02 1.232627e-02 7.427968e-03 1.569279e-02 1.434235e-02 7.267563e-03 8.736563e-03 1.393079e-02 2.063103e-02 1.568277e-03 6.376909e-03 1.744493e-02 9.160859e-03 4.957378e-03 1.073418e-02 3.452049e-03 7.772801e-03 1.206457e-02 1.516389e-02 3.130703e-02 9.339285e-03 1.364555e-02 1.648506e-02 2.187450e-02 1.417911e-02 8.334639e-03 1.724827e-02 9.320050e-03 7.953003e-03 3.520658e-03 5.322970e-03 9.002697e-03 1.006102e-02 1.562300e-02 1.808369e-02 8.039911e-03 1.098339e-02 8.917014e-03 1.597814e-02 1.871539e-02 1.378974e-02 1.283838e-02 2.162449e-02 9.002752e-03 8.332716e-03 1.335385e-02 1.549271e-02 5.153448e-03 4.406531e-02 1.831331e-02 1.849643e-02 8.987829e-03
<GCONST> -3.796511e+02
<STATE> 3
<MEAN> 142
 5.224282e-01 3.843978e-01 3.516063e-01 3.681826e-01 3.522092e-01 2.972668e-01 3.580689e-01 4.023647e-01 4.097975e-01 5.011863e-01 4.745378e-01 4.267942e-01 3.981339e-01 5.080820e-01 4.527493e-01 4.201400e-01 4.057738e-01 4.621664e-01 3.364834e-01 3.753097e-01 4.858762e-01 5.721450e-01 3.878589e-01 5.304868e-01 5.087780e-01 4.031191e-01 4.409595e-01 4.180978e-01 5.244299e-01 4.443336e-01 4.940948e-01 4.520657e-01 2.964134e-01 5.553589e-01 4.588687e-01 4.781461e-01 4.248121e-01 4.702068e-01 4.714187e-01 4.173596e-01 4.634694e-01 5.041838e-01 3.404863e-01 3.414673e-01 2.328185e-01 3.619463e-01 4.953153e-01 4.949307e-01 4.644350e-01 3.994436e-01 5.015556e-01 4.858924e-01 4.784109e-01 3.137222e-01 4.306062e-01 4.090195e-01 4.443418e-01 3.346549e-01 3.915115e-01 3.982194e-01 4.332856e-01 4.218412e-01 3.860775e-01 3.929587e-01 3.955280e-01 4.029195e-01 4.928395e-01 3.836676e-01 4.011682e-01 4.658457e-01 4.142943e-01 3.722033e-01 4.327202e-01 4.253813e-01 3.104105e-01 3.837155e-01 4.028957e-01 4.537711e-01 5.084603e-01 4.877080e-01 5.069071e-01 4.466900e-01 5.153023e-01 4.316150e-01 3.295195e-01 3.807117e-01 4.400975e-01 4.700375e-01 4.969321e-01 3.316575e-01 3.839689e-01 3.461911e-01 4.438559e-01 3.723210e-01 4.361236e-01 4.684907e-01 5.099471e-01 4.238449e-01 5.528312e-01 4.437758e-01 4.686936e-01 5.359821e-01 4.054370e-01 4.277562e-01 4.096203e-01 3.794106e-01 4.321720e-01 4.557835e-01 4.443999e-01 3.828127e-01 4.363332e-01 3.396655e-01 3.670772e-01 3.706618e-01 3.882164e-01 4.149564e-01 4.111761e-01 5.101668e-01 4.003966e-01 4.654216e-01 4.546107e-01 4.474583e-01 5.108804e-01 2.903517e-01 4.063369e-01 3.925567e-01 3.595815e-01 4.353380e-01 3.888615e-01 4.094276e-01 4.493590e-01 4.748946e-01 3.667595e-01 4.973544e-01 5.093094e-01 4.956687e-01 4.174745e-01 5.299814e-01 4.772385e-01 4.741903e-01 4.843950e-01 4.166766e-01
<VARIANCE> 142
 2.102371e-02 6.404032e-03 2.110796e-02 2.213969e-02 1.525627e-02 2.709594e-02 5.704097e-03 1.865610e-02 3.104222e-02 7.696325e-03 2.144663e-02 1.338926e-02 2.898817e-02 2.412497e-02 2.125753e-02 6.657785e-03 3.561976e-03 1.034993e-02 2.275874e-02 1.576753e-02 1.798884e-02 1.291680e-02 1.425696e-02 1.126074e-02 8.816479e-03 2.644779e-02 2.165969e-02 6.050084e-03 8.389028e-03 1.624755e-02 1.131155e-02 3.736767e-03 2.124239e-02 1.580533e-02 2.680655e-03 1.531011e-02 1.436888e-02 2.937988e-02 2.274935e-02 3.362962e-02 2.322150e-02 1.481961e-02 4.536621e-03 1.812047e-02 2.986772e-02 6.751510e-03 7.403750e-03 3.730370e-02 5.954916e-03 1.211308e-02 6.257483e-03 4.122572e-02 1.208560e-02 1.037069e-02 3.671522e-03 8.415925e-03 2.174008e-02 1.997495e-02 1.772457e-02 4.718640e-02 1.628549e-02 1.554599e-03 1.238002e-02 7.812387e-03 2.526156e-02 8.766711e-03 4.484566e-02 1.538144e-02 1.834042e-02 2.122398e-02 7.953257e-03 1.358525e-02 2.213416e-03 8.580782e-03 2.817349e-02 2.363211e-02 8.387057e-03 1.833278e-02 9.329683e-03 1.256162e-02 4.322714e-03 1.722816e-02 1.295592e-02 6.167523e-03 1.372458e-02 1.307976e-02 2.295719e-02 8.414968e-03 1.887848e-03 1.042585e-02 1.357337e-02 2.726329e-02 2.123382e-03 4.230852e-03 1.418442e-02 9.917073e-03 6.619341e-03 2.236541e-02 3.244974e-02 1.258434e-02 1.094950e-02 9.784920e-03 1.162034e-02 1.247420e-02 2.858887e-02 6.527481e-03 1.714289e-02 1.658502e-02 2.255528e-02 2.538143e-02 7.053832e-03 6.645100e-03 2.525689e-02 3.133477e-02 6.414151e-03 1.452236e-02 9.913237e-03 6.340149e-03 3.359483e-03 1.103421e-02 7.170216e-03 3.594895e-03 4.228245e-03 1.230689e-02 1.457939e-02 4.787926e-03 2.349630e-03 1.274452e-02 3.900740e-03 1.429275e-02 1.507648e-02 1.454613e-02 2.373369e-02 2.129891e-02 2.603220e-02 1.094209e-02 1.287766e-02 2.157253e-02 1.868870e-02 1.251198e-02 7.616064e-03 8.889242e-03
<GCONST> -3.653077e+02
<TRANSP> 4
 0.000000e+00 1.000000e+00 0.000000e+00 0.000000e+00
 0.000000e+00 5.000000e-01 5.000000e-01 0.000000e+00
 0.000000e+00 0.000000e+00 5.000000e-01 5.000000e-01
 0.000000e+00 0.000000e+00 0.000000e+00 0.000000e+00
<ENDHMM>
