~o
<STREAMINFO> 1 142
<VECSIZE> 142<NULLD><USER><DIAGC>
~h "medic"
<BEGINHMM>
<NUMSTATES> 4
<STATE> 2
<MEAN> 142
 4.728632e-01 4.920783e-01 3.299975e-01 4.101577e-01 3.474038e-01 2.191830e-01 2.672128e-01 2.644090e-01 3.687769e-01 4.522113e-01 4.290839e-01 4.906164e-01 3.489111e-01 4.090327e-01 3.541425e-01 3.303605e-01 4.096259e-01 3.878395e-01 2.770788e-01 2.508140e-01 3.544090e-01 4.363406e-01 2.983550e-01 4.545839e-01 5.038331e-01 3.544873e-01 4.133067e-01 4.187727e-01 4.817328e-01 4.833857e-01 4.452808e-01 4.202118e-01 3.034141e-01 4.696740e-01 4.316173e-01 4.026460e-01 3.743694e-01 3.933337e-01 4.959876e-01 2.477160e-01 4.408069e-01 5.178691e-01 4.358752e-01 2.483329e-01 2.065319e-01 4.460651e-01 4.334827e-01 3.288553e-01 3.542230e-01 3.354081e-01 5.006881e-01 3.287941e-01 4.436688e-01 3.052779e-01 4.455700e-01 5.374497e-01 4.325594e-01 2.710742e-01 3.178329e-01 2.693684e-01 3.195229e-01 4.424214e-01 4.003103e-01 4.669691e-01 4.643513e-01 4.924889e-01 3.287909e-01 2.940279e-01 3.672509e-01 4.573239e-01 3.626751e-01 3.887177e-01 4.029769e-01 3.983592e-01 2.010073e-01 2.864023e-01 3.622361e-01 5.091674e-01 4.488124e-01 4.563447e-01 5.710925e-01 4.390831e-01 4.422333e-01 3.805019e-01 2.900653e-01 3.285550e-01 3.575980e-01 4.327485e-01 4.756635e-01 3.167168e-01 4.296151e-01 2.549422e-01 4.657834e-01 4.235453e-01 4.803823e-01 5.263696e-01 4.379461e-01 3.292289e-01 4.927492e-01 3.971260e-01 4.488130e-01 4.327089e-01 3.598123e-01 4.549958e-01 3.287341e-01 3.285354e-01 3.589742e-01 4.187572e-01 2.980950e-01 2.779835e-01 4.392163e-01 4.224459e-01 3.296919e-01 4.177503e-01 3.496528e-01 4.169976e-01 4.511521e-01 4.414287e-01 5.124442e-01 4.021968e-01 4.329447e-01 4.634471e-01 4.491487e-01 3.516971e-01 2.768441e-01 4.397714e-01 4.910407e-01 4.430624e-01 5.170363e-01 2.977145e-01 2.993251e-01 4.542244e-01 3.586291e-01 4.348430e-01 4.335585e-01 4.340608e-01 3.767338e-01 4.120472e-01 3.146075e-01 3.909838e-01 5.007349e-01 3.421619e-01
<VARIANCE> 142
 2.362599e-02 1.012345e-02 7.386071e-03 2.079676e-02 8.527502e-03 1.114183e-02 3.403988e-03 1.132769e-02 4.221003e-03 9.149959e-03 8.128141e-03 1.012704e-02 6.276545e-03 1.157039e-02 3.346859e-03 1.682194e-02 6.631520e-03 5.364732e-03 8.115155e-03 1.198074e-02 5.353573e-03 1.248024e-02 8.957277e-03 5.575311e-03 1.000000e-03 1.196378e-02 1.383925e-02 9.622590e-03 3.002820e-03 9.257420e-03 2.826006e-03 1.830329e-02 9.831600e-03 2.192444e-02 2.815108e-03 2.099354e-02 3.375159e-03 2.285194e-02 1.149422e-02 9.175942e-03 6.670563e-03 4.628405e-03 1.838375e-02 3.586155e-03 6.694749e-03 1.341135e-02 1.061623e-02 3.083512e-03 2.245420e-03 8.863561e-03 1.891378e-03 9.037094e-03 1.683976e-02 7.410000e-03 5.523006e-03 6.008388e-03 3.408894e-02 2.903683e-03 1.646601e-02 1.270027e-02 8.497463e-03 9.603569e-03 3.482994e-03 5.054406e-03 9.900857e-03 2.868110e-02 1.441968e-02 7.620106e-03 1.087658e-02 4.148421e-03 1.172584e-02 1.770740e-02 4.183225e-03 1.653521e-02 1.137836e-02 6.157689e-03 6.065059e-03 4.280287e-02 8.952978e-03 5.293414e-03 4.350060e-03 8.470467e-03 5.462008e-03 5.546487e-03 7.798971e-03 8.565690e-03 4.230069e-03 4.776440e-03 6.208631e-03 1.092522e-02 7.660238e-03 1.286180e-02 1.205383e-02 2.075410e-02 9.538477e-03 1.263827e-02 1.449655e-03 3.529261e-03 7.650490e-03 1.436511e-02 7.313577e-03 9.437410e-03 1.773815e-02 6.845752e-03 1.599517e-02 2.250752e-03 3.545602e-03 1.125373e-02 8.756197e-03 3.001797e-03 1.225263e-02 2.145709e-02 2.687381e-02 1.041444e-02 4.266897e-03 6.604174e-03 2.352097e-02 2.030742e-02 1.781313e-03 1.135670e-02 8.738353e-03 5.962215e-03 2.984292e-03 1.725131e-02 5.762690e-03 2.567736e-03 6.073443e-03 4.144713e-03 1.635281e-02 7.247877e-03 8.117973e-03 2.801215e-03 6.109711e-03 7.062460e-03 3.555541e-03 6.844865e-03 1.299156e-02 3.764678e-03 3.729948e-03 8.935457e-03 2.352537e-02 1.250186e-02
<GCONST> -4.263717e+02
<STATE> 3
<MEAN> 142
 6.528334e-01 3.678097e-01 4.350578e-01 4.371895e-01 3.568788e-01 3.462792e-01 4.155153e-01 4.272344e-01 3.848507e-01 3.996870e-01 5.020568e-01 4.540128e-01 4.586926e-01 4.864661e-01 3.113388e-01 4.288706e-01 3.787045e-01 4.060192e-01 3.924643e-01 4.112591e-01 3.950543e-01 4.727567e-01 4.294134e-01 4.380358e-01 4.749031e-01 4.467065e-01 4.645921e-01 4.780081e-01 4.181055e-01 4.182918e-01 5.076963e-01 3.997226e-01 5.501149e-01 4.378167e-01 5.001278e-01 3.075990e-01 3.776166e-01 4.033481e-01 2.646675e-01 4.442977e-01 4.017329e-01 3.346220e-01 3.921323e-01 2.751738e-01 3.557130e-01 4.483694e-01 4.526575e-01 3.970921e-01 3.992277e-01 3.961542e-01 5.690803e-01 4.039126e-01 4.727637e-01 3.171168e-01 4.930982e-01 3.473138e-01 3.670927e-01 3.998562e-01 3.541276e-01 4.607983e-01 5.477595e-01 4.782692e-01 3.819120e-01 4.606454e-01 4.156775e-01 5.395553e-01 4.567411e-01 4.379777e-01 5.091291e-01 3.292236e-01 4.779892e-01 4.651392e-01 4.429359e-01 4.422295e-01 4.379640e-01 4.867579e-01 4.885138e-01 4.512164e-01 4.189314e-01 4.291791e-01 4.500615e-01 3.062471e-01 3.720229e-01 4.004590e-01 4.642981e-01 4.547268e-01 4.794693e-01 4.799224e-01 4.234792e-01 3.946400e-01 3.612650e-01 4.445044e-01 4.806934e-01 4.497482e-01 4.449406e-01 5.097060e-01 4.463815e-01 4.587517e-01 3.910277e-01 4.901261e-01 4.398833e-01 4.734441e-01 4.163260e-01 3.449830e-01 3.978448e-01 3.459437e-01 4.166826e-01 4.208317e-01 4.962443e-01 4.065828e-01 4.540588e-01 3.745900e-01 5.226197e-01 2.612723e-01 3.528299e-01 5.446441e-01 3.959729e-01 4.606333e-01 4.829056e-01 4.122726e-01 3.725385e-01 4.707991e-01 4.757437e-01 3.864948e-01 3.984495e-01 4.381709e-01 4.213741e-01 3.442811e-01 3.874490e-01 3.915705e-01 4.732362e-01 4.052657e-01 4.305548e-01 4.824213e-01 3.428060e-01 3.809889e-01 5.151689e-01 3.870873e-01 3.996170e-01 3.337593e-01 4.380549e-01 4.976990e-01
<VARIANCE> 142
 1.404792e-02 3.020330e-03 1.914731e-02 3.855148e-02 2.932423e-02 8.087530e-03 1.484659e-02 7.207709e-03 5.778861e-03 4.851418e-03 8.794216e-03 1.613528e-02 1.052014e-02 2.595694e-02 7.925763e-03 3.929406e-02 1.616207e-02 3.539936e-03 9.323017e-03 7.893125e-03 2.393817e-02 3.013698e-02 1.565471e-02 1.315019e-02 5.841239e-03 6.423503e-03 1.311214e-02 3.593446e-03 2.206767e-03 2.647941e-03 8.758840e-03 3.835604e-03 3.403259e-02 1.727895e-02 2.184162e-03 1.780308e-02 6.788038e-03 2.178289e-02 8.095323e-03 3.479037e-02 1.152472e-02 3.703456e-03 1.952983e-03 1.038349e-02 3.654865e-02 5.517670e-03 2.654979e-02 4.706391e-03 1.020970e-02 7.981040e-03 3.077089e-03 8.249944e-03 3.136490e-03 1.442144e-02 7.876218e-03 4.987818e-03 1.105050e-02 1.387902e-02 6.698235e-03 6.347433e-02 7.047908e-03 2.035565e-02 1.250099e-02 9.536028e-03 1.064831e-02 2.617190e-02 1.167249e-02 1.826086e-02 1.473403e-02 1.641962e-02 5.438658e-03 5.669541e-03 1.045183e-02 5.380519e-03 1.331654e-02 1.334808e-02 8.220067e-03 1.593338e-02 1.353055e-03 2.856195e-02 3.087974e-03 8.154976e-03 1.326514e-02 3.664528e-03 1.630034e-02 1.191683e-02 5.983195e-03 1.959883e-02 7.003228e-03 1.039868e-02 1.053486e-02 2.518852e-02 2.074243e-03 1.238823e-02 7.725947e-03 4.548225e-03 6.095920e-03 1.244069e-02 8.751553e-03 3.992244e-03 2.390696e-03 2.855507e-02 6.927026e-03 2.048973e-03 6.728919e-03 2.899924e-03 2.554348e-02 1.010810e-02 1.806725e-02 1.721457e-02 1.204134e-02 8.139841e-03 7.646018e-02 1.664981e-02 7.474566e-03 2.926799e-03 9.477876e-03 1.756736e-02 8.407769e-03 3.828976e-03 3.391301e-03 4.267015e-03 5.937029e-03 2.874263e-03 5.184436e-03 1.579119e-03 1.675481e-03 8.123349e-03 9.348336e-03 5.578253e-03 3.350022e-02 9.044227e-03 2.153595e-02 2.983847e-03 7.815449e-03 1.938995e-02 2.186950e-02 7.161985e-03 1.711858e-02 1.306314e-02 1.883501e-02 4.702330e-03
<GCONST> -4.053386e+02
<TRANSP> 4
 0.000000e+00 1.000000e+00 0.000000e+00 0.000000e+00
 0.000000e+00 5.000000e-01 5.000000e-01 0.000000e+00
 0.000000e+00 0.000000e+00 5.000000e-01 5.000000e-01
 0.000000e+00 0.000000e+00 0.000000e+00 0.000000e+00
<ENDHMM>
