~o
<STREAMINFO> 1 142
<VECSIZE> 142<NULLD><USER><DIAGC>
~h "misundertanding"
<BEGINHMM>
<NUMSTATES> 4
<STATE> 2
<MEAN> 142
 8.240964e-01 3.507394e-01 4.619012e-01 3.958026e-01 3.199404e-01 3.704117e-01 4.464433e-01 4.002391e-01 3.059852e-01 3.586754e-01 5.262804e-01 4.580349e-01 4.170987e-01 5.171688e-01 2.626556e-01 3.465374e-01 3.423211e-01 3.476530e-01 3.901900e-01 4.314620e-01 5.484455e-01 5.592265e-01 4.800391e-01 4.645368e-01 4.796391e-01 3.809176e-01 4.807287e-01 3.315532e-01 3.570625e-01 3.176725e-01 4.723095e-01 4.861507e-01 5.405053e-01 3.782850e-01 4.142185e-01 3.789545e-01 3.534251e-01 2.957855e-01 3.011212e-01 2.563790e-01 2.233648e-01 4.017224e-01 2.955069e-01 4.845744e-01 2.436783e-01 3.879408e-01 5.387450e-01 3.669421e-01 4.664426e-01 4.139392e-01 5.416569e-01 4.193313e-01 4.177460e-01 2.451897e-01 5.157589e-01 3.040853e-01 5.735337e-01 4.428571e-01 4.303847e-01 3.550312e-01 4.660343e-01 4.775847e-01 3.563496e-01 4.106457e-01 3.381887e-01 4.866698e-01 3.268506e-01 4.711923e-01 4.905913e-01 3.467018e-01 4.636484e-01 4.802438e-01 4.667425e-01 4.678655e-01 3.927624e-01 4.086956e-01 4.914053e-01 4.739209e-01 4.624611e-01 4.548700e-01 3.762172e-01 3.931511e-01 3.222789e-01 4.963498e-01 2.902138e-01 5.067628e-01 4.114935e-01 4.379426e-01 4.354852e-01 3.782135e-01 3.864112e-01 4.110156e-01 3.475636e-01 3.795091e-01 4.073245e-01 4.081169e-01 3.689639e-01 2.595880e-01 4.025444e-01 4.392994e-01 3.513958e-01 5.359403e-01 4.042143e-01 2.753101e-01 4.007682e-01 3.763333e-01 4.255118e-01 3.303988e-01 4.739262e-01 3.873450e-01 4.376965e-01 4.188524e-01 3.570436e-01 3.498855e-01 3.229478e-01 3.696181e-01 3.799882e-01 4.534402e-01 3.713374e-01 5.023816e-01 4.725114e-01 5.295680e-01 5.276420e-01 4.068821e-01 4.677694e-01 4.635153e-01 3.497848e-01 3.217288e-01 2.977250e-01 4.607716e-01 4.010359e-01 3.985559e-01 4.712301e-01 4.218682e-01 3.435270e-01 4.418583e-01 4.568369e-01 3.576406e-01 3.270406e-01 3.753996e-01 5.308560e-01 4.857263e-01
<VARIANCE> 142
 4.423910e-02 7.936302e-03 2.779758e-03 1.542878e-02 2.229462e-02 4.344570e-03 3.564321e-03 3.166460e-03 3.800782e-03 3.578235e-03 2.464145e-02 7.203898e-03 1.032207e-02 2.226041e-02 1.143578e-02 5.963415e-03 3.134446e-03 4.006538e-03 4.445919e-03 1.741559e-02 1.099957e-02 1.346728e-02 3.560430e-03 9.315639e-03 6.969867e-03 6.302503e-03 6.862952e-03 3.386416e-03 2.750140e-03 6.712765e-03 2.310481e-03 3.929835e-03 1.549483e-02 1.005711e-02 1.977607e-03 2.542060e-03 1.290600e-02 9.513459e-03 6.050735e-03 1.992150e-02 6.237319e-03 1.427766e-03 1.050399e-02 1.410204e-02 7.570891e-03 9.214931e-03 1.728861e-02 2.537732e-03 1.367370e-02 4.722669e-03 6.980631e-03 6.618181e-03 3.244347e-03 6.158730e-03 7.380647e-03 1.593915e-03 1.590027e-02 4.462510e-03 5.958986e-03 4.811313e-02 2.993369e-03 4.299460e-03 5.417402e-03 1.042515e-03 2.998269e-03 4.777974e-03 5.886625e-03 1.789410e-02 9.177598e-03 3.238868e-03 4.530673e-03 2.022197e-02 1.301171e-02 2.132013e-03 1.174244e-02 1.055217e-02 8.145693e-03 4.142395e-03 6.205419e-03 8.674906e-03 1.884169e-03 3.591379e-03 2.543418e-03 6.680155e-03 1.013012e-02 8.981816e-03 4.712515e-03 3.826088e-03 1.078610e-02 2.464304e-03 1.385746e-02 9.262615e-03 1.418302e-03 7.889692e-03 4.879807e-03 4.323302e-03 2.009060e-03 2.918109e-03 1.923346e-02 5.735968e-03 1.578185e-03 3.215291e-03 4.987986e-03 3.206111e-03 1.425432e-02 3.137195e-03 7.715494e-03 4.031382e-03 8.022472e-03 8.556384e-03 7.776284e-03 5.206324e-03 1.966876e-02 6.251909e-03 2.289174e-03 3.553820e-03 2.934636e-03 6.348578e-03 4.762978e-03 8.393447e-03 3.652610e-03 7.982474e-03 8.443061e-03 1.262590e-02 5.121869e-03 7.028446e-03 2.580929e-03 1.645661e-03 3.194070e-03 3.640735e-03 7.261770e-03 2.071079e-03 2.479088e-02 2.342056e-03 5.165896e-03 2.036764e-02 2.773961e-03 6.229562e-03 1.832982e-02 5.884616e-03 2.031215e-03 9.359289e-03
<GCONST> -4.656751e+02
<STATE> 3
<MEAN> 142
 5.497400e-01 3.361737e-01 3.456462e-01 3.107512e-01 3.403164e-01 3.963576e-01 3.235271e-01 3.237580e-01 4.261886e-01 4.896806e-01 4.689600e-01 4.472949e-01 4.400198e-01 5.607790e-01 4.431319e-01 3.144584e-01 3.625289e-01 3.129257e-01 3.826340e-01 4.108521e-01 4.295384e-01 4.099732e-01 3.485683e-01 4.083598e-01 5.069816e-01 3.991421e-01 4.062314e-01 4.138209e-01 3.826448e-01 4.429871e-01 4.520696e-01 3.438433e-01 3.314228e-01 4.572586e-01 4.661086e-01 3.650067e-01 4.670160e-01 4.598940e-01 3.571661e-01 3.855755e-01 4.317074e-01 4.455356e-01 3.815159e-01 3.955871e-01 2.695646e-01 3.839750e-01 4.053901e-01 5.023150e-01 4.462550e-01 3.641900e-01 4.573522e-01 4.732092e-01 4.777498e-01 2.934864e-01 4.117981e-01 3.392522e-01 4.840525e-01 3.940054e-01 3.940764e-01 3.368948e-01 4.346150e-01 4.498279e-01 3.643564e-01 4.288047e-01 4.462415e-01 3.537614e-01 4.479390e-01 4.410439e-01 3.711860e-01 4.809783e-01 5.003783e-01 3.970508e-01 3.933464e-01 4.341584e-01 3.245663e-01 3.815956e-01 4.030954e-01 3.922793e-01 4.759414e-01 3.978609e-01 4.590315e-01 3.737078e-01 4.389309e-01 3.994872e-01 3.494797e-01 3.542641e-01 4.039581e-01 4.509656e-01 4.899006e-01 4.127950e-01 3.259316e-01 3.364174e-01 4.188481e-01 3.903415e-01 4.095825e-01 4.456316e-01 3.951944e-01 3.684870e-01 5.093361e-01 4.687856e-01 4.231877e-01 4.263265e-01 3.459697e-01 3.886130e-01 4.061852e-01 3.169171e-01 4.419550e-01 4.308551e-01 4.799552e-01 4.389715e-01 4.019542e-01 3.660760e-01 3.512531e-01 3.777326e-01 3.271019e-01 3.961713e-01 3.336856e-01 4.785008e-01 4.346049e-01 3.913192e-01 4.198980e-01 3.423226e-01 3.927152e-01 3.719174e-01 4.496190e-01 3.548172e-01 4.074029e-01 3.910595e-01 4.125690e-01 4.354247e-01 3.787282e-01 3.833596e-01 3.792469e-01 4.263335e-01 4.362787e-01 4.490569e-01 3.334256e-01 4.082190e-01 4.563880e-01 3.555924e-01 4.148632e-01 3.957781e-01
<VARIANCE> 142
 2.283874e-02 1.034456e-02 1.125566e-02 5.615123e-03 1.220696e-02 4.731029e-02 5.575662e-03 4.274246e-03 8.440264e-03 2.259900e-02 1.108185e-02 1.315725e-02 2.301598e-02 1.789730e-02 2.078326e-02 7.466543e-03 1.774584e-02 6.121826e-03 2.793705e-02 1.092509e-02 1.829518e-02 1.597575e-02 6.782938e-03 1.038932e-02 6.763849e-03 8.864193e-03 1.800697e-02 7.117791e-03 1.803483e-02 1.586924e-02 2.536672e-03 5.347109e-03 7.984735e-03 1.866006e-02 1.256280e-03 1.188298e-02 1.620404e-02 2.789034e-02 2.325528e-02 1.184067e-02 5.541535e-03 1.376831e-02 2.146947e-03 1.994030e-02 3.354250e-03 7.845487e-03 9.896684e-03 4.518399e-03 2.530236e-02 6.532527e-03 2.463235e-03 2.198899e-02 1.277215e-02 5.133075e-03 1.217046e-02 4.533982e-03 3.257899e-02 3.095013e-02 1.477581e-02 3.312063e-02 1.244780e-02 7.186349e-03 6.348848e-03 2.918258e-03 8.500390e-03 4.285437e-03 2.409950e-02 3.698400e-02 9.313560e-03 5.646148e-03 2.440546e-03 1.245813e-02 5.343127e-03 4.057641e-03 1.768437e-02 1.776243e-02 1.750436e-03 2.675333e-02 8.112236e-03 2.060631e-02 3.394553e-03 6.879543e-03 2.497950e-02 1.125427e-02 6.412166e-03 4.793875e-03 1.103400e-02 1.749938e-02 9.680071e-03 3.244996e-03 1.505786e-02 1.547672e-02 6.740401e-03 2.156292e-02 6.646935e-03 5.275446e-03 3.129561e-03 1.557188e-02 1.807317e-02 3.821585e-03 3.027447e-03 9.821664e-03 1.407727e-02 8.477467e-03 9.468478e-03 7.717199e-03 1.374810e-02 1.164793e-02 3.080149e-02 5.705229e-02 6.143138e-03 1.005133e-02 9.512959e-03 2.101218e-02 6.861025e-03 1.725553e-02 1.000000e-03 9.150111e-03 1.553123e-02 1.058109e-02 3.348076e-03 1.020914e-02 1.163145e-02 2.262588e-03 2.216801e-02 4.268018e-03 7.561879e-03 6.662630e-03 1.517647e-02 2.062259e-02 5.428431e-03 2.085887e-02 2.598885e-02 5.867279e-03 2.540089e-02 8.636166e-03 6.184486e-03 6.083624e-03 1.111066e-02 2.280942e-02 2.286555e-02 5.388956e-03
<GCONST> -3.942576e+02
<TRANSP> 4
 0.000000e+00 1.000000e+00 0.000000e+00 0.000000e+00
 0.000000e+00 5.000000e-01 5.000000e-01 0.000000e+00
 0.000000e+00 0.000000e+00 5.000000e-01 5.000000e-01
 0.000000e+00 0.000000e+00 0.000000e+00 0.000000e+00
<ENDHMM>
