~o
<STREAMINFO> 1 142
<VECSIZE> 142<NULLD><USER><DIAGC>
~h "morning"
<BEGINHMM>
<NUMSTATES> 4
<STATE> 2
<MEAN> 142
 6.012354e-01 3.314801e-01 3.056492e-01 3.259330e-01 2.337724e-01 3.090254e-01 3.777996e-01 2.587962e-01 3.810069e-01 3.780121e-01 4.236226e-01 4.383244e-01 3.878658e-01 4.345499e-01 3.069904e-01 2.881179e-01 3.822065e-01 3.954135e-01 2.702716e-01 3.643659e-01 3.967806e-01 3.761423e-01 3.395488e-01 4.023902e-01 4.342134e-01 4.060137e-01 3.759620e-01 3.611705e-01 3.724800e-01 4.043389e-01 4.391794e-01 3.911127e-01 4.034423e-01 3.830907e-01 4.323210e-01 2.760416e-01 3.169510e-01 2.680741e-01 2.888535e-01 3.171745e-01 2.660663e-01 3.585593e-01 3.504839e-01 2.792554e-01 2.795037e-01 3.827302e-01 3.874888e-01 3.725722e-01 3.343107e-01 3.461748e-01 4.600686e-01 3.503729e-01 4.108181e-01 2.949728e-01 4.049176e-01 3.487701e-01 3.564391e-01 2.956125e-01 3.097452e-01 2.950074e-01 3.982214e-01 3.901257e-01 3.714617e-01 3.688517e-01 3.945256e-01 4.127002e-01 2.790366e-01 3.738474e-01 4.270420e-01 3.652062e-01 4.294877e-01 4.195637e-01 3.937965e-01 4.321668e-01 3.157832e-01 3.385909e-01 4.290605e-01 3.855869e-01 4.250550e-01 3.476817e-01 4.253810e-01 3.282206e-01 2.920695e-01 3.402887e-01 4.031208e-01 3.920733e-01 3.943179e-01 4.143636e-01 4.212172e-01 3.630060e-01 3.456375e-01 3.470884e-01 4.086280e-01 3.558167e-01 4.080805e-01 4.696125e-01 3.910691e-01 3.003727e-01 3.618941e-01 4.478032e-01 3.724243e-01 4.343097e-01 3.680401e-01 3.487217e-01 2.816843e-01 2.627650e-01 3.413520e-01 3.650805e-01 3.469793e-01 3.278901e-01 3.974944e-01 3.281697e-01 3.367804e-01 2.669086e-01 3.126608e-01 4.697189e-01 3.384674e-01 3.614200e-01 3.993862e-01 4.186155e-01 3.940946e-01 4.599391e-01 3.698389e-01 4.122239e-01 3.685649e-01 3.682404e-01 4.418241e-01 3.347024e-01 3.278544e-01 4.007267e-01 3.756879e-01 3.478129e-01 3.688526e-01 3.900825e-01 3.332960e-01 3.588920e-01 4.255760e-01 3.651214e-01 3.348393e-01 3.049245e-01 3.576519e-01 4.668326e-01
<VARIANCE> 142
 1.906262e-02 7.163020e-03 4.364537e-03 1.323486e-02 1.107781e-02 2.147050e-02 2.367777e-02 8.404822e-03 2.180981e-03 1.326112e-02 9.093584e-03 8.939239e-03 7.552467e-03 6.751798e-03 1.193297e-02 1.885136e-02 3.045738e-03 1.093576e-02 2.408341e-03 1.275804e-02 7.837378e-03 1.137761e-02 5.298922e-03 8.319853e-03 3.602682e-03 3.490933e-03 3.678627e-03 2.779217e-03 4.754499e-03 9.804843e-03 2.851086e-03 7.976696e-03 1.687248e-02 3.001996e-03 3.109835e-03 9.616599e-03 6.041720e-03 1.159745e-02 6.024904e-03 2.031757e-02 9.164079e-03 3.113734e-03 1.073203e-02 8.152765e-03 1.278194e-02 8.318515e-03 1.062090e-02 3.598761e-03 4.315475e-03 4.368926e-03 9.738737e-03 7.624659e-03 1.155240e-02 9.473732e-03 4.933476e-03 6.617708e-03 5.548625e-03 5.230329e-03 8.237648e-03 1.887113e-02 2.187969e-02 9.471876e-03 5.303052e-03 5.213319e-03 1.115445e-02 1.129027e-02 1.158465e-02 1.404313e-02 3.208158e-03 1.798118e-02 4.865027e-03 3.125567e-02 9.689883e-03 5.361636e-03 5.885275e-03 9.493698e-03 3.044217e-03 2.575914e-02 8.529120e-03 1.412133e-02 1.504102e-02 6.408863e-03 8.007010e-03 7.785939e-03 2.170653e-02 2.149581e-02 4.844871e-03 3.411860e-03 6.422227e-03 2.734208e-02 1.035721e-02 4.146836e-02 7.064693e-03 5.277959e-03 8.973771e-03 4.328542e-03 6.252989e-03 1.326527e-02 9.312254e-03 2.353335e-03 1.430468e-02 1.505648e-02 6.723589e-03 1.814016e-02 4.164658e-03 5.975155e-03 1.069366e-02 9.360653e-03 6.409890e-03 1.109814e-02 9.617569e-03 1.432919e-02 2.430414e-02 5.462267e-03 6.772217e-03 1.297587e-02 2.221710e-02 1.594534e-02 4.373342e-03 1.788132e-02 7.374433e-03 1.282151e-02 1.185465e-02 6.520016e-02 1.440955e-02 3.172267e-03 7.309883e-03 1.993734e-02 1.819341e-02 5.150388e-03 1.900128e-02 1.475324e-02 2.456115e-02 1.247653e-02 1.278590e-02 1.373588e-02 1.786754e-02 8.570507e-03 2.883353e-02 8.223000e-03 8.282479e-03 1.165174e-02
<GCONST> -4.083156e+02
<STATE> 3
<MEAN> 142
 6.356125e-01 3.591217e-01 3.714469e-01 3.678867e-01 3.340804e-01 3.468587e-01 4.326654e-01 4.205006e-01 3.841305e-01 4.071593e-01 4.101050e-01 4.229855e-01 4.476604e-01 4.272786e-01 3.368332e-01 3.760678e-01 4.553051e-01 4.071678e-01 3.247096e-01 4.235784e-01 4.448705e-01 4.831225e-01 3.935986e-01 4.636153e-01 4.529668e-01 4.380514e-01 4.022475e-01 3.786224e-01 4.100283e-01 4.142703e-01 5.106252e-01 4.457684e-01 4.437305e-01 4.845144e-01 4.152665e-01 4.023477e-01 3.671173e-01 4.248898e-01 3.642511e-01 4.434967e-01 3.824359e-01 4.623336e-01 3.425143e-01 3.657869e-01 2.559560e-01 3.867746e-01 4.362457e-01 4.614267e-01 4.243722e-01 3.434246e-01 5.018163e-01 4.553564e-01 4.363034e-01 3.076253e-01 4.898071e-01 3.638712e-01 4.224055e-01 3.209434e-01 3.643614e-01 3.384750e-01 4.658224e-01 4.614764e-01 3.955261e-01 4.298972e-01 4.195442e-01 4.563209e-01 4.256291e-01 4.220899e-01 4.735648e-01 4.035333e-01 4.562722e-01 4.664741e-01 4.239742e-01 3.934075e-01 3.322605e-01 4.284565e-01 4.828727e-01 4.082168e-01 4.882545e-01 4.388170e-01 4.441916e-01 3.688820e-01 4.138099e-01 3.888573e-01 3.474077e-01 4.700991e-01 4.233119e-01 4.126682e-01 4.423467e-01 3.849271e-01 3.848614e-01 3.881314e-01 4.007554e-01 3.533736e-01 4.235685e-01 4.345332e-01 4.309776e-01 3.508195e-01 4.961772e-01 4.540893e-01 3.948033e-01 5.127745e-01 3.574848e-01 3.812466e-01 3.485230e-01 3.372343e-01 4.071322e-01 4.332796e-01 4.055513e-01 3.683632e-01 4.232101e-01 3.669058e-01 3.578417e-01 3.644179e-01 3.713821e-01 4.307088e-01 3.455688e-01 4.362192e-01 4.303511e-01 4.398926e-01 4.277575e-01 5.062488e-01 4.724709e-01 4.097235e-01 3.968702e-01 4.267186e-01 4.119444e-01 3.752518e-01 3.570469e-01 3.915360e-01 4.335859e-01 3.641764e-01 4.325162e-01 4.492758e-01 4.053041e-01 4.330289e-01 4.570812e-01 4.366411e-01 4.312676e-01 3.673631e-01 4.781302e-01 4.640192e-01
<VARIANCE> 142
 4.015795e-02 8.682311e-03 2.511529e-02 1.641575e-02 1.258829e-02 2.591505e-02 1.022233e-02 1.528255e-02 1.370701e-02 7.336413e-03 6.338383e-03 1.099189e-02 1.329210e-02 2.574988e-03 9.667190e-03 1.202162e-02 8.490006e-03 5.759524e-03 1.611795e-02 1.386062e-02 1.215124e-02 1.178496e-02 1.848731e-02 1.140956e-02 4.216652e-03 1.123319e-02 2.167452e-02 2.464605e-03 7.857605e-03 8.241614e-03 5.124292e-03 7.225668e-03 3.150148e-02 8.550250e-03 2.530472e-03 6.320462e-03 1.934002e-02 3.998084e-02 1.398750e-02 6.213032e-02 2.959299e-02 1.751737e-02 1.390290e-02 1.072538e-02 7.291862e-03 6.550974e-03 1.977065e-02 2.580415e-02 1.446102e-02 1.025849e-02 1.140611e-02 3.401816e-02 5.128860e-03 8.464177e-03 1.081586e-02 9.765251e-03 1.086864e-02 1.043081e-02 9.545933e-03 4.838063e-02 1.536693e-02 5.024937e-03 3.691547e-03 5.679383e-03 1.670608e-02 9.644987e-03 3.873336e-02 3.422559e-02 8.187271e-03 2.428086e-02 7.432474e-03 1.340548e-02 3.465873e-03 3.661588e-03 1.797653e-02 1.031093e-02 8.145142e-03 1.283530e-02 7.342491e-03 1.018743e-02 5.887771e-03 5.096475e-03 2.396554e-02 1.991519e-02 1.311547e-02 2.709381e-02 8.029801e-03 4.941580e-03 8.496071e-03 1.485796e-02 1.788227e-02 2.959507e-02 3.846427e-03 1.079655e-02 7.962974e-03 5.144718e-03 3.463797e-03 1.569831e-02 2.732994e-02 4.642988e-03 1.055883e-02 9.752071e-03 8.266891e-03 2.285401e-02 1.416599e-02 5.813514e-03 1.792885e-02 1.191588e-02 9.843475e-03 2.079411e-02 6.523435e-03 4.988960e-03 1.767113e-02 4.320512e-03 5.561706e-03 5.231881e-03 9.268317e-03 4.972900e-03 4.745503e-03 1.495500e-02 8.186466e-03 9.171630e-03 8.611732e-03 1.916404e-02 9.875272e-03 6.820151e-03 1.665168e-03 1.941454e-02 1.759554e-02 8.459951e-03 1.617172e-02 4.722523e-03 1.658256e-02 1.003204e-02 7.733373e-03 1.210055e-02 1.657090e-02 9.553100e-03 4.061578e-02 4.105764e-03 6.060212e-03 1.180811e-02
<GCONST> -3.838303e+02
<TRANSP> 4
 0.000000e+00 1.000000e+00 0.000000e+00 0.000000e+00
 0.000000e+00 5.000000e-01 5.000000e-01 0.000000e+00
 0.000000e+00 0.000000e+00 5.000000e-01 5.000000e-01
 0.000000e+00 0.000000e+00 0.000000e+00 0.000000e+00
<ENDHMM>
