~o
<STREAMINFO> 1 142
<VECSIZE> 142<NULLD><USER><DIAGC>
~h "mother"
<BEGINHMM>
<NUMSTATES> 4
<STATE> 2
<MEAN> 142
 5.566134e-01 3.637013e-01 3.012889e-01 3.134058e-01 2.837805e-01 2.182994e-01 3.371314e-01 2.919296e-01 3.398043e-01 4.669721e-01 4.327846e-01 4.088266e-01 3.781628e-01 4.402132e-01 3.841626e-01 3.244202e-01 4.048936e-01 4.163289e-01 2.561284e-01 3.225901e-01 4.379711e-01 4.785330e-01 3.302805e-01 5.072770e-01 4.851406e-01 3.719603e-01 4.306728e-01 3.724053e-01 4.756766e-01 3.888506e-01 4.759744e-01 4.035697e-01 2.943145e-01 4.907044e-01 4.445021e-01 3.923155e-01 3.670813e-01 4.087170e-01 4.545555e-01 2.986728e-01 3.936738e-01 4.910564e-01 3.265227e-01 3.064390e-01 2.045550e-01 3.504988e-01 3.968509e-01 4.094163e-01 4.080878e-01 3.068174e-01 4.455487e-01 4.204365e-01 4.544360e-01 2.663975e-01 3.510658e-01 3.698210e-01 4.047572e-01 3.221417e-01 2.960716e-01 3.197211e-01 4.359596e-01 4.315048e-01 3.536467e-01 4.027022e-01 3.600794e-01 3.917936e-01 3.929036e-01 3.604438e-01 3.964484e-01 4.262132e-01 4.184573e-01 3.107613e-01 4.051468e-01 3.837018e-01 3.112121e-01 3.351456e-01 3.505467e-01 3.865211e-01 4.550635e-01 4.528948e-01 4.676345e-01 3.634897e-01 4.585866e-01 3.746565e-01 2.993850e-01 3.408510e-01 3.796118e-01 4.225160e-01 4.693047e-01 3.172424e-01 3.447232e-01 2.567754e-01 4.062669e-01 3.293225e-01 3.980967e-01 4.238347e-01 3.918752e-01 3.527120e-01 4.621006e-01 3.804077e-01 3.998426e-01 4.506257e-01 2.960684e-01 3.804646e-01 2.951964e-01 3.027032e-01 3.723525e-01 3.872529e-01 3.757940e-01 3.002430e-01 3.646946e-01 3.390843e-01 2.706924e-01 3.573814e-01 3.580886e-01 3.315926e-01 4.236173e-01 4.313382e-01 3.855989e-01 3.439321e-01 3.753794e-01 4.371853e-01 4.392037e-01 3.342119e-01 3.576495e-01 3.736942e-01 3.894994e-01 4.113663e-01 4.063304e-01 3.687821e-01 3.214926e-01 4.323564e-01 3.186499e-01 4.211904e-01 4.148756e-01 3.918096e-01 4.306774e-01 4.933860e-01 3.448623e-01 4.347564e-01 4.135457e-01 3.851515e-01
<VARIANCE> 142
 3.037976e-02 5.684017e-03 1.596280e-02 4.893870e-03 2.141658e-03 1.937139e-02 8.766724e-03 4.210529e-03 1.574484e-03 5.959431e-03 1.327439e-02 3.045831e-03 9.068775e-03 1.034229e-02 2.411771e-02 9.596023e-03 6.144716e-03 1.883676e-02 1.100781e-02 1.251274e-02 1.221464e-02 8.567243e-03 1.049051e-02 6.941025e-03 3.095913e-03 4.452592e-03 5.511310e-03 8.320981e-03 8.155139e-03 3.495011e-03 2.744902e-03 1.128551e-02 1.654950e-02 1.379655e-02 2.041617e-03 3.478733e-02 1.389978e-02 8.088992e-03 1.648107e-02 9.168927e-03 2.344895e-03 1.016085e-02 5.083330e-03 9.506832e-03 9.651078e-03 1.197434e-02 4.699561e-03 8.826481e-03 5.571324e-03 5.385456e-03 3.305505e-03 9.708980e-03 3.395880e-03 1.985843e-03 1.245338e-02 6.695975e-03 1.008082e-02 6.657874e-03 2.471711e-03 6.990225e-03 1.374096e-02 6.230614e-03 2.441898e-03 4.405865e-03 1.971873e-03 9.943981e-03 1.846525e-02 7.413307e-03 3.735703e-03 6.728293e-03 9.442369e-03 1.696761e-02 2.272266e-03 9.396159e-03 2.011698e-02 1.085757e-02 7.422673e-03 1.419375e-02 3.687080e-03 5.423210e-03 3.555787e-03 1.428396e-02 8.000400e-03 6.116420e-03 3.728044e-03 1.625596e-02 3.795242e-03 4.409096e-03 2.533210e-03 4.104916e-03 3.325270e-03 6.602325e-03 8.028199e-03 5.208359e-03 3.706331e-03 9.182812e-03 1.295980e-02 6.319666e-03 2.191019e-02 1.200136e-02 2.989259e-03 5.487059e-03 3.456123e-03 2.780732e-03 7.752495e-03 4.560865e-03 1.026072e-02 4.542158e-03 1.013586e-02 1.002573e-02 3.382334e-03 3.199073e-03 5.893178e-03 7.238292e-03 1.181329e-02 9.170679e-03 5.025174e-03 4.048353e-03 2.365452e-03 3.097849e-03 3.771134e-03 2.105376e-02 6.157962e-03 1.220055e-02 1.134957e-02 4.614990e-03 8.528670e-03 5.712424e-03 5.519094e-03 1.441705e-02 1.051971e-02 2.070600e-02 8.785442e-03 5.635756e-03 3.569879e-02 5.257413e-03 1.264171e-02 3.056530e-02 1.382810e-02 6.813977e-03 3.228833e-03 1.546873e-02
<GCONST> -4.407991e+02
<STATE> 3
<MEAN> 142
 6.466781e-01 3.559757e-01 3.671100e-01 3.697879e-01 2.985655e-01 2.988699e-01 3.898092e-01 3.114215e-01 3.662900e-01 3.781492e-01 4.275810e-01 4.125330e-01 3.580984e-01 4.309934e-01 3.087559e-01 3.617899e-01 3.541636e-01 3.599387e-01 2.989595e-01 3.203750e-01 4.753679e-01 4.656484e-01 4.088694e-01 4.411706e-01 4.645413e-01 3.794141e-01 4.182194e-01 3.985391e-01 4.087791e-01 3.858076e-01 4.650913e-01 4.318842e-01 4.505112e-01 4.330072e-01 4.144373e-01 3.413130e-01 3.831733e-01 2.876367e-01 3.061657e-01 3.332250e-01 3.284860e-01 4.180754e-01 3.377005e-01 2.940949e-01 2.867879e-01 3.717518e-01 4.522241e-01 3.569445e-01 3.916530e-01 3.745906e-01 5.071344e-01 3.548259e-01 3.913776e-01 2.891199e-01 4.606790e-01 3.375526e-01 3.909433e-01 3.067442e-01 3.408706e-01 3.933499e-01 4.084624e-01 4.707222e-01 3.579640e-01 3.892961e-01 3.668253e-01 4.815536e-01 2.990905e-01 3.803698e-01 4.169123e-01 3.291246e-01 4.170380e-01 4.472326e-01 3.912882e-01 3.767815e-01 3.148349e-01 3.648206e-01 4.614945e-01 4.652916e-01 4.176113e-01 4.337500e-01 4.344231e-01 3.860015e-01 3.738324e-01 4.699681e-01 3.399003e-01 4.477462e-01 3.748068e-01 4.158397e-01 4.812256e-01 3.907418e-01 3.557568e-01 3.573193e-01 3.828721e-01 3.415823e-01 4.570042e-01 4.251847e-01 3.995555e-01 2.960192e-01 3.917083e-01 4.432756e-01 3.453815e-01 4.706641e-01 3.434131e-01 3.536556e-01 3.127202e-01 2.670417e-01 3.655272e-01 3.472607e-01 4.270436e-01 4.042313e-01 3.786743e-01 3.639663e-01 3.654488e-01 3.237957e-01 3.321339e-01 4.172539e-01 3.905188e-01 4.493225e-01 4.458823e-01 4.563920e-01 4.238697e-01 4.780417e-01 4.472325e-01 4.052242e-01 3.660968e-01 3.913286e-01 4.182167e-01 3.090713e-01 3.336154e-01 3.928541e-01 3.852668e-01 3.826567e-01 3.859005e-01 3.876943e-01 3.611695e-01 3.798020e-01 4.339255e-01 3.986161e-01 3.418973e-01 3.913512e-01 4.543576e-01 4.354863e-01
<VARIANCE> 142
 3.156935e-02 5.933551e-03 1.746893e-02 2.586418e-02 1.452378e-02 1.397884e-02 1.353255e-02 5.864218e-03 2.683494e-03 3.082802e-03 8.272049e-03 1.031986e-02 1.105778e-02 4.807863e-03 1.290802e-02 2.070439e-02 5.914485e-03 9.015015e-03 1.854906e-02 1.771456e-02 6.704158e-03 9.176771e-03 1.317299e-02 3.847795e-03 4.458306e-03 3.313574e-03 1.511342e-02 8.722354e-03 8.024511e-03 1.365821e-02 6.557447e-03 1.099434e-02 1.147184e-02 1.050411e-02 2.739460e-03 7.761954e-03 1.942101e-02 6.573598e-03 8.067964e-03 2.242517e-02 9.327074e-03 5.563520e-03 9.437026e-03 1.042223e-02 1.939134e-02 6.730848e-03 1.046526e-02 7.059853e-03 8.601137e-03 1.643571e-02 1.614477e-02 9.652812e-03 6.050041e-03 5.831413e-03 7.562703e-03 5.253234e-03 1.413158e-02 4.238922e-03 8.241116e-03 6.239859e-02 1.640931e-02 1.618654e-02 7.596252e-03 1.090430e-02 7.320543e-03 6.683592e-03 1.319913e-02 1.693968e-02 7.287744e-03 1.219895e-02 2.651343e-03 2.102090e-02 4.847181e-03 4.250963e-03 1.412493e-02 8.285477e-03 3.894243e-03 2.556654e-02 4.765918e-03 1.847234e-02 4.861517e-03 7.356210e-03 4.940308e-03 1.120347e-02 1.519975e-02 1.195331e-02 1.000000e-03 2.286049e-03 9.186630e-03 2.556456e-02 1.547612e-02 1.838845e-02 1.082628e-02 9.243971e-03 8.117581e-03 7.179090e-03 3.578776e-03 6.504933e-03 6.212374e-03 4.737098e-03 3.410079e-03 3.879055e-03 5.427958e-03 1.185703e-02 8.121038e-03 3.785547e-03 1.517633e-02 8.958735e-03 1.216615e-02 1.696452e-02 8.409574e-03 1.774054e-02 1.773355e-02 4.231830e-03 5.700162e-03 5.469477e-03 2.125305e-02 1.166779e-02 1.116576e-02 5.781021e-03 6.677074e-03 1.093668e-02 1.929496e-02 4.168634e-02 4.637863e-03 6.179193e-03 1.471228e-02 9.216035e-03 9.673569e-03 5.661832e-03 1.305176e-02 1.108284e-02 2.695118e-02 1.150045e-02 1.832471e-02 9.266631e-03 8.186724e-03 1.015090e-02 1.655183e-02 8.307871e-03 5.758290e-03 7.634597e-03
<GCONST> -4.055297e+02
<TRANSP> 4
 0.000000e+00 1.000000e+00 0.000000e+00 0.000000e+00
 0.000000e+00 5.000000e-01 5.000000e-01 0.000000e+00
 0.000000e+00 0.000000e+00 5.000000e-01 5.000000e-01
 0.000000e+00 0.000000e+00 0.000000e+00 0.000000e+00
<ENDHMM>
