~o
<STREAMINFO> 1 142
<VECSIZE> 142<NULLD><USER><DIAGC>
~h "name"
<BEGINHMM>
<NUMSTATES> 4
<STATE> 2
<MEAN> 142
 5.321637e-01 3.040375e-01 3.861983e-01 3.563551e-01 2.970819e-01 4.211371e-01 3.404602e-01 4.110211e-01 3.760152e-01 4.443976e-01 5.040542e-01 3.372820e-01 2.913182e-01 5.329486e-01 4.147846e-01 3.628611e-01 3.774084e-01 3.125947e-01 4.362862e-01 3.297152e-01 5.377874e-01 5.438296e-01 4.184788e-01 4.340602e-01 5.449761e-01 3.855166e-01 5.047998e-01 3.266745e-01 3.795666e-01 2.657520e-01 4.691530e-01 3.683166e-01 3.279220e-01 6.650731e-01 4.365591e-01 4.124012e-01 4.796995e-01 3.347999e-01 3.935112e-01 3.948902e-01 3.660001e-01 5.057414e-01 3.446290e-01 3.954040e-01 1.794947e-01 3.274781e-01 4.198187e-01 4.953648e-01 5.318069e-01 3.533581e-01 4.527125e-01 3.822208e-01 4.471854e-01 2.398284e-01 3.064857e-01 3.519743e-01 5.273090e-01 4.846607e-01 3.900499e-01 4.390900e-01 4.153933e-01 4.045075e-01 3.973057e-01 4.183632e-01 3.634665e-01 4.025403e-01 4.341180e-01 5.117746e-01 3.832226e-01 3.921094e-01 4.182038e-01 3.430623e-01 4.093287e-01 4.622321e-01 3.512039e-01 3.124302e-01 3.944011e-01 3.295691e-01 5.420401e-01 5.544195e-01 4.001417e-01 3.274289e-01 3.547461e-01 4.689068e-01 3.478264e-01 3.302642e-01 3.946002e-01 3.446050e-01 4.837932e-01 3.547521e-01 2.229635e-01 3.149538e-01 3.362602e-01 3.226155e-01 3.527544e-01 3.729408e-01 3.899212e-01 2.831205e-01 4.886484e-01 4.848837e-01 4.481582e-01 5.382622e-01 3.405685e-01 2.998933e-01 4.524085e-01 2.956261e-01 3.845572e-01 3.392535e-01 4.925617e-01 5.906543e-01 3.564703e-01 2.957888e-01 2.747681e-01 3.667003e-01 2.846047e-01 2.935919e-01 3.484071e-01 5.136399e-01 3.183405e-01 4.471664e-01 4.133886e-01 3.688225e-01 3.345188e-01 2.596448e-01 5.315260e-01 3.992033e-01 2.957303e-01 3.221138e-01 2.778249e-01 5.491017e-01 4.356561e-01 2.770892e-01 2.437425e-01 4.026054e-01 3.276576e-01 4.618722e-01 3.798612e-01 4.357292e-01 4.454216e-01 4.105546e-01 3.105401e-01 4.092553e-01
<VARIANCE> 142
 1.164021e-02 4.644437e-03 9.136045e-03 4.565616e-03 8.498748e-03 3.804043e-02 1.042478e-02 3.654586e-03 7.698151e-03 3.154508e-03 7.780975e-03 1.158576e-02 7.191497e-03 1.327243e-02 7.477876e-03 3.559358e-03 9.397429e-03 6.852769e-03 2.878767e-02 1.351218e-02 1.514907e-02 7.805038e-03 9.815881e-03 4.793035e-03 8.368915e-03 3.180436e-03 1.043188e-02 3.059166e-03 3.106180e-03 3.054244e-03 2.356900e-03 5.672078e-03 4.484287e-03 1.842549e-02 2.012367e-03 7.761052e-03 9.752324e-03 4.272206e-03 4.430212e-03 9.376086e-03 2.661398e-03 1.339633e-02 2.407368e-03 1.126461e-02 6.382862e-03 2.887071e-03 5.592810e-03 2.434460e-03 1.360595e-02 8.212604e-03 3.189089e-03 3.048183e-03 5.010589e-03 3.159091e-03 8.819398e-03 1.081217e-02 3.402538e-02 1.810418e-02 1.634459e-02 1.757534e-02 6.479795e-03 6.147227e-03 7.487907e-03 3.651634e-03 5.245194e-03 2.699815e-03 5.321793e-03 2.835352e-02 5.773555e-03 2.202267e-03 4.523470e-03 9.791826e-03 5.124140e-03 2.282780e-03 1.339221e-02 9.083984e-03 2.713244e-03 3.884009e-03 3.371358e-03 7.918641e-03 4.028192e-03 1.000000e-03 6.348273e-03 1.239438e-02 1.357347e-02 7.511415e-03 5.693117e-03 3.721296e-03 2.498037e-03 1.238303e-02 8.061053e-03 4.059929e-03 1.109044e-02 3.516806e-03 2.925370e-03 6.128049e-03 3.315488e-03 9.919676e-03 2.841010e-03 3.129042e-03 6.912938e-03 1.100807e-02 2.100114e-03 2.041100e-03 2.340059e-02 1.526604e-03 3.240790e-03 1.454186e-03 1.893760e-02 3.935472e-02 2.920225e-03 7.298084e-03 6.884973e-03 4.202022e-03 8.758015e-03 1.030319e-02 3.115613e-03 9.593200e-03 5.009978e-03 2.137551e-02 1.501643e-03 8.473496e-03 1.048600e-02 1.076452e-02 1.582137e-02 7.092087e-03 3.822190e-03 9.967186e-03 8.516568e-03 9.543887e-03 2.784503e-03 3.849500e-03 1.498548e-02 3.628036e-03 3.320906e-03 5.559458e-03 5.975347e-03 3.273249e-03 7.516125e-03 4.184735e-03 4.182536e-03 3.413414e-03
<GCONST> -4.621043e+02
<STATE> 3
<MEAN> 142
 6.336203e-01 3.284305e-01 3.509725e-01 3.313808e-01 2.825027e-01 3.592253e-01 3.913532e-01 3.313260e-01 3.714791e-01 3.182418e-01 4.498073e-01 4.751607e-01 4.861710e-01 4.746732e-01 2.813715e-01 3.717003e-01 3.251642e-01 3.917228e-01 3.679262e-01 4.995766e-01 4.102595e-01 3.676157e-01 4.303272e-01 3.726892e-01 4.455995e-01 4.648218e-01 3.856472e-01 4.228710e-01 3.559645e-01 3.745826e-01 4.293623e-01 4.170149e-01 4.303793e-01 4.056755e-01 4.031247e-01 3.269137e-01 2.867464e-01 3.701664e-01 2.629350e-01 3.249123e-01 3.828573e-01 3.989950e-01 3.176449e-01 3.492789e-01 2.796676e-01 3.889076e-01 4.142278e-01 4.114363e-01 3.304251e-01 3.439052e-01 4.685251e-01 4.679886e-01 4.071832e-01 3.277334e-01 4.620709e-01 3.349694e-01 3.801211e-01 3.210778e-01 3.617036e-01 2.804525e-01 4.930370e-01 4.923061e-01 4.435211e-01 4.220466e-01 4.600922e-01 4.384538e-01 4.150694e-01 4.150319e-01 4.155182e-01 3.486987e-01 4.941458e-01 4.862418e-01 3.661200e-01 4.210231e-01 4.568600e-01 4.667595e-01 5.052521e-01 3.748531e-01 4.192805e-01 3.517680e-01 4.710255e-01 3.363326e-01 3.699308e-01 3.982167e-01 3.733091e-01 4.309470e-01 4.589590e-01 4.444728e-01 4.423243e-01 3.621698e-01 3.401659e-01 3.835611e-01 4.373606e-01 3.975312e-01 3.741257e-01 5.178645e-01 4.660045e-01 4.431973e-01 4.073204e-01 4.516185e-01 4.074979e-01 3.960724e-01 3.964414e-01 3.646658e-01 2.710571e-01 2.982693e-01 4.383899e-01 3.547948e-01 4.464969e-01 3.373028e-01 3.590262e-01 3.482131e-01 3.340746e-01 2.701833e-01 3.223798e-01 5.034328e-01 3.426854e-01 3.869535e-01 4.288174e-01 3.643599e-01 4.414718e-01 4.626658e-01 4.470611e-01 3.840315e-01 4.112147e-01 3.768749e-01 4.109215e-01 4.603146e-01 3.878274e-01 4.011087e-01 4.131312e-01 3.799331e-01 5.185287e-01 4.958771e-01 3.188709e-01 3.721751e-01 4.117718e-01 4.036210e-01 3.989426e-01 3.046923e-01 4.268792e-01 4.467584e-01
<VARIANCE> 142
 1.914712e-02 1.149726e-03 1.385007e-02 2.051611e-02 2.479539e-02 1.446979e-02 1.983787e-02 2.137181e-03 1.013567e-02 4.171730e-03 8.242215e-03 1.356028e-02 1.155103e-02 1.743271e-02 9.926260e-03 1.973604e-02 7.172160e-03 9.457489e-03 1.874856e-02 1.197989e-02 1.105403e-02 1.745537e-02 8.167644e-03 3.738559e-03 1.721082e-03 7.849656e-03 4.916822e-03 5.489300e-03 6.269502e-03 8.164422e-03 1.513725e-03 1.544026e-02 2.319061e-02 6.234654e-03 6.299633e-03 5.403753e-03 8.146474e-03 1.949244e-02 1.068101e-02 1.577060e-02 1.104405e-02 5.805411e-03 8.494794e-03 7.136371e-03 1.865255e-02 3.225109e-03 3.098497e-03 2.603094e-03 1.431219e-02 8.935157e-03 8.073558e-03 1.559331e-02 1.129791e-02 5.823275e-03 5.972885e-03 2.322990e-03 1.528577e-02 7.931002e-03 4.755305e-03 1.407871e-02 2.086271e-02 1.630283e-02 1.192293e-02 1.637472e-02 2.148345e-02 1.682762e-02 4.152469e-02 1.338834e-02 4.986086e-03 1.425021e-02 6.365217e-03 1.333817e-02 3.471523e-03 4.787007e-03 5.475888e-03 1.162110e-02 6.601520e-03 1.004479e-02 6.380772e-03 2.081505e-02 1.494056e-02 1.716704e-03 4.247640e-03 1.771368e-02 1.711851e-02 1.820046e-02 1.762102e-02 1.487270e-02 7.867234e-03 1.626560e-02 8.259527e-03 2.202149e-02 3.326432e-02 1.597019e-02 1.257802e-02 1.143136e-02 9.079618e-03 3.724788e-02 6.890703e-03 6.538542e-03 5.298926e-03 9.026282e-03 1.113717e-02 8.105056e-03 8.769266e-03 5.769724e-03 9.021192e-03 1.027996e-02 1.472065e-02 2.300354e-02 8.659671e-03 5.479786e-03 1.541902e-02 9.632173e-03 3.939962e-03 1.426404e-02 1.004446e-02 2.572678e-03 5.510744e-03 9.674790e-03 5.180142e-03 9.388254e-03 1.213251e-02 3.503274e-02 8.143617e-03 2.798091e-03 8.809653e-03 4.894355e-02 3.535563e-02 4.001331e-03 1.466949e-02 1.205041e-02 2.858083e-02 1.385898e-02 9.482594e-03 1.138877e-02 2.005400e-02 3.985395e-03 3.562630e-02 9.839935e-03 9.330657e-03 5.736621e-03
<GCONST> -3.977801e+02
<TRANSP> 4
 0.000000e+00 1.000000e+00 0.000000e+00 0.000000e+00
 0.000000e+00 5.000000e-01 5.000000e-01 0.000000e+00
 0.000000e+00 0.000000e+00 5.000000e-01 5.000000e-01
 0.000000e+00 0.000000e+00 0.000000e+00 0.000000e+00
<ENDHMM>
