~o
<STREAMINFO> 1 142
<VECSIZE> 142<NULLD><USER><DIAGC>
~h "nurse"
<BEGINHMM>
<NUMSTATES> 4
<STATE> 2
<MEAN> 142
 5.611897e-01 4.244893e-01 3.036456e-01 3.575368e-01 2.958367e-01 2.340466e-01 3.425621e-01 3.134207e-01 3.532780e-01 4.214899e-01 3.581617e-01 4.369035e-01 3.255417e-01 4.217793e-01 3.867865e-01 3.156485e-01 4.130173e-01 4.469956e-01 2.433098e-01 3.015158e-01 4.343921e-01 4.699559e-01 3.074295e-01 4.896060e-01 4.459761e-01 3.693027e-01 3.680626e-01 4.126383e-01 4.499982e-01 4.225528e-01 4.392242e-01 4.341439e-01 4.029914e-01 4.694428e-01 4.648488e-01 4.037184e-01 3.642546e-01 3.078973e-01 4.286628e-01 3.310814e-01 3.938931e-01 5.031803e-01 3.061320e-01 2.632603e-01 2.052070e-01 4.198048e-01 4.658958e-01 3.957902e-01 4.310737e-01 2.880298e-01 4.678249e-01 3.591989e-01 3.812520e-01 2.634761e-01 4.563899e-01 4.314538e-01 2.753344e-01 2.795958e-01 2.961936e-01 2.847884e-01 4.213289e-01 4.538580e-01 3.538755e-01 3.905312e-01 3.724934e-01 4.813138e-01 3.541908e-01 2.978607e-01 3.586428e-01 3.626558e-01 4.286053e-01 3.732375e-01 4.232522e-01 4.137325e-01 2.639360e-01 3.205993e-01 4.412863e-01 4.726548e-01 4.207062e-01 4.028469e-01 4.803371e-01 4.150565e-01 4.247736e-01 3.899201e-01 3.041885e-01 4.036386e-01 3.814759e-01 4.213425e-01 4.530228e-01 3.154871e-01 3.591721e-01 2.517374e-01 4.860213e-01 3.325976e-01 4.572464e-01 4.735238e-01 5.087309e-01 3.462631e-01 4.814842e-01 4.165852e-01 4.144089e-01 4.682020e-01 3.619273e-01 3.854140e-01 3.128998e-01 2.680655e-01 3.189198e-01 3.786176e-01 3.280629e-01 3.212090e-01 3.602776e-01 3.947728e-01 3.591373e-01 4.058290e-01 3.791887e-01 3.842151e-01 3.669958e-01 4.488107e-01 4.453487e-01 3.777518e-01 4.484165e-01 4.873382e-01 4.364874e-01 3.422943e-01 3.794656e-01 4.249025e-01 4.288216e-01 3.638188e-01 3.528220e-01 3.675646e-01 3.910402e-01 4.675457e-01 3.271904e-01 3.896334e-01 4.253690e-01 4.220544e-01 4.276446e-01 4.994428e-01 3.823331e-01 4.642450e-01 4.814532e-01 4.806512e-01
<VARIANCE> 142
 1.568772e-02 3.197740e-03 1.254027e-02 1.048954e-02 7.931707e-03 1.837865e-02 1.315520e-02 1.023663e-02 6.526474e-03 9.884806e-03 8.740536e-03 4.880910e-03 7.987978e-03 1.067339e-02 1.364581e-02 1.146075e-02 8.081545e-03 1.138331e-02 1.104497e-02 1.017066e-02 6.975438e-03 1.285069e-02 9.181236e-03 9.654970e-03 3.664315e-03 7.981240e-03 4.626850e-03 7.883419e-03 6.757179e-03 7.025095e-03 1.903442e-03 1.453231e-03 2.595728e-02 1.451613e-02 1.689426e-03 1.594905e-02 8.863501e-03 7.504977e-03 1.292911e-02 1.329133e-02 1.160855e-02 4.277928e-03 9.246710e-03 3.878198e-03 8.680016e-03 6.751095e-03 6.802967e-03 7.282557e-03 1.529923e-02 1.941883e-03 4.564151e-03 5.118869e-03 1.024412e-02 7.629432e-03 7.302267e-03 4.814015e-03 9.392042e-03 1.156945e-02 8.282307e-03 7.035648e-03 2.893374e-02 5.627087e-03 4.282339e-03 1.846564e-03 4.234122e-03 2.559267e-02 1.025102e-02 1.161141e-02 6.494818e-03 8.738413e-03 6.831745e-03 1.682006e-02 2.093748e-03 5.174049e-03 1.114739e-02 6.823224e-03 1.274170e-02 3.624532e-02 9.464284e-03 1.314660e-02 2.892443e-03 7.410896e-03 1.841518e-02 4.730375e-03 8.460444e-03 1.598260e-02 8.351919e-03 2.617112e-03 4.028097e-03 1.106109e-02 2.448108e-03 1.125408e-02 5.130150e-03 5.637975e-03 7.703837e-03 4.061892e-03 4.854491e-03 6.752196e-03 1.868801e-02 9.935956e-03 9.951033e-03 7.078252e-03 5.481570e-03 1.118362e-02 6.820075e-03 8.522475e-03 3.529909e-03 8.946240e-03 4.546630e-03 1.011690e-02 3.282310e-03 4.740195e-03 8.848791e-03 1.996203e-02 6.919012e-03 5.147540e-03 5.230303e-03 1.135199e-02 2.696536e-03 1.149169e-02 5.496522e-03 8.233022e-03 6.806717e-03 1.625898e-02 1.977475e-02 6.879424e-03 3.675964e-03 8.208691e-03 7.976732e-03 7.606455e-03 9.759220e-03 2.269306e-02 1.080088e-02 5.998255e-03 2.520084e-02 2.080939e-02 2.155421e-02 1.203381e-02 8.721809e-03 1.469953e-02 7.559218e-03 2.333609e-02
<GCONST> -4.241836e+02
<STATE> 3
<MEAN> 142
 7.008168e-01 3.517868e-01 4.097961e-01 3.834814e-01 3.075231e-01 4.539456e-01 4.452657e-01 3.379499e-01 3.690646e-01 3.657289e-01 4.822375e-01 4.835978e-01 4.466093e-01 4.974513e-01 3.122346e-01 4.006529e-01 3.383302e-01 3.710299e-01 3.395717e-01 4.138842e-01 4.889005e-01 4.477090e-01 4.285106e-01 4.261847e-01 4.445482e-01 4.250433e-01 4.383764e-01 3.704165e-01 3.857838e-01 3.721408e-01 4.837677e-01 4.127389e-01 4.781681e-01 4.221362e-01 4.593739e-01 3.406284e-01 3.237344e-01 3.092355e-01 2.996128e-01 3.347879e-01 3.326119e-01 4.105300e-01 3.005440e-01 3.446461e-01 3.072718e-01 4.251848e-01 4.824482e-01 4.041688e-01 4.055502e-01 3.669034e-01 5.237080e-01 3.668624e-01 4.128180e-01 2.800182e-01 5.126410e-01 3.530191e-01 4.374249e-01 3.443142e-01 3.777017e-01 3.984985e-01 4.948178e-01 3.742127e-01 3.572734e-01 3.839225e-01 3.781346e-01 4.986324e-01 3.548627e-01 4.358865e-01 4.701442e-01 3.567696e-01 4.519511e-01 5.685000e-01 4.391007e-01 4.568662e-01 3.941998e-01 4.008214e-01 5.082197e-01 4.083982e-01 4.269276e-01 4.031488e-01 4.071422e-01 3.543708e-01 3.629525e-01 4.752428e-01 3.778507e-01 5.305189e-01 4.318106e-01 4.694383e-01 4.832160e-01 4.735664e-01 3.883325e-01 4.652811e-01 4.041117e-01 3.804025e-01 4.042597e-01 4.514891e-01 4.196222e-01 3.061870e-01 3.930756e-01 4.244358e-01 3.570008e-01 4.784957e-01 3.899318e-01 3.418442e-01 3.310221e-01 3.228616e-01 4.035014e-01 3.409212e-01 4.491719e-01 4.151737e-01 4.075748e-01 4.120920e-01 3.611741e-01 2.939505e-01 3.579363e-01 4.775672e-01 3.541185e-01 3.996599e-01 4.258754e-01 4.318830e-01 3.794239e-01 5.075666e-01 4.432820e-01 4.756530e-01 4.635260e-01 3.936633e-01 4.221619e-01 3.296530e-01 3.155072e-01 4.390025e-01 4.093977e-01 3.976471e-01 4.458986e-01 3.941400e-01 3.259435e-01 3.964438e-01 5.007858e-01 3.554088e-01 3.874815e-01 3.676456e-01 4.496351e-01 4.827527e-01
<VARIANCE> 142
 2.318706e-02 6.335913e-03 9.202617e-03 2.254869e-02 1.777872e-02 2.007858e-02 1.467905e-02 8.872002e-03 9.768474e-03 6.554924e-03 2.099595e-02 1.966260e-02 1.400006e-02 2.255556e-02 1.325391e-02 2.438535e-02 5.553447e-03 5.359151e-03 6.271468e-03 1.400878e-02 1.597345e-02 1.639627e-02 7.019409e-03 1.187191e-02 5.533529e-03 7.467892e-03 1.675129e-02 7.145960e-03 3.583366e-03 1.182704e-02 4.913812e-03 5.695436e-03 1.897161e-02 1.416583e-02 3.665412e-03 6.202174e-03 1.189780e-02 1.178086e-02 1.369708e-02 1.928120e-02 1.266372e-02 1.084762e-02 8.710182e-03 7.876562e-03 2.024406e-02 6.317261e-03 1.352049e-02 3.824208e-03 1.159827e-02 6.336137e-03 8.712978e-03 8.916031e-03 6.835603e-03 4.815761e-03 9.067730e-03 5.524532e-03 2.317779e-02 1.109461e-02 5.172515e-03 3.770073e-02 1.485226e-02 6.013388e-03 3.688800e-03 8.973072e-03 8.067577e-03 1.232941e-02 1.107820e-02 1.483958e-02 9.438026e-03 9.465789e-03 7.584152e-03 2.069885e-02 6.095102e-03 6.346202e-03 7.394878e-03 1.196222e-02 6.237947e-03 1.511591e-02 8.234145e-03 3.200023e-02 4.384540e-03 2.234921e-03 5.538557e-03 7.905990e-03 1.676158e-02 1.220469e-02 1.479306e-02 9.721213e-03 7.922704e-03 1.508764e-02 1.022522e-02 3.085181e-02 4.467826e-03 1.080036e-02 8.605049e-03 2.763540e-03 6.739204e-03 1.087365e-02 9.487002e-03 4.425707e-03 5.250854e-03 8.458956e-03 7.323118e-03 8.104930e-03 1.340221e-02 7.341051e-03 4.637997e-03 8.223152e-03 1.935825e-02 1.545483e-02 8.839468e-03 1.031682e-02 2.118148e-02 1.330635e-02 3.953272e-03 1.637114e-02 6.771791e-03 9.638579e-03 3.874105e-03 1.242981e-02 3.644682e-03 1.086796e-02 1.142047e-02 3.915997e-02 8.187539e-03 2.994313e-03 4.610348e-03 8.926910e-03 1.520238e-02 7.168291e-03 1.729110e-02 5.860974e-03 2.164849e-02 4.835522e-03 6.616744e-03 1.005304e-02 1.279063e-02 8.441610e-03 3.098800e-02 1.226136e-02 4.831268e-03 7.635597e-03
<GCONST> -3.988866e+02
<TRANSP> 4
 0.000000e+00 1.000000e+00 0.000000e+00 0.000000e+00
 0.000000e+00 5.000000e-01 5.000000e-01 0.000000e+00
 0.000000e+00 0.000000e+00 5.000000e-01 5.000000e-01
 0.000000e+00 0.000000e+00 0.000000e+00 0.000000e+00
<ENDHMM>
