~o
<STREAMINFO> 1 142
<VECSIZE> 142<NULLD><USER><DIAGC>
~h "pass_out"
<BEGINHMM>
<NUMSTATES> 4
<STATE> 2
<MEAN> 142
 6.127039e-01 3.790243e-01 3.743637e-01 3.837985e-01 3.010621e-01 3.080004e-01 3.885265e-01 3.287829e-01 3.710772e-01 3.768657e-01 4.186497e-01 4.398191e-01 3.542046e-01 4.444821e-01 3.466503e-01 3.180009e-01 3.674045e-01 3.746260e-01 2.699602e-01 3.372173e-01 4.713073e-01 4.960622e-01 3.207250e-01 4.698089e-01 4.767977e-01 4.196033e-01 3.928518e-01 3.657731e-01 4.367913e-01 3.703923e-01 4.174328e-01 4.942989e-01 4.422984e-01 4.523653e-01 4.255215e-01 3.312486e-01 3.733965e-01 2.560813e-01 3.337214e-01 3.450337e-01 2.935973e-01 4.108388e-01 2.741638e-01 3.071923e-01 2.448744e-01 3.925024e-01 4.413446e-01 3.816373e-01 4.038371e-01 3.522387e-01 4.683706e-01 3.609602e-01 4.421435e-01 2.319575e-01 4.638604e-01 4.225467e-01 3.891832e-01 3.217518e-01 2.946033e-01 3.713458e-01 3.917532e-01 4.449931e-01 4.125146e-01 3.802480e-01 3.626452e-01 4.386950e-01 2.835485e-01 3.942398e-01 4.507914e-01 3.697030e-01 4.490899e-01 4.323486e-01 3.890055e-01 4.171292e-01 2.929372e-01 3.333893e-01 4.774187e-01 4.966534e-01 4.553460e-01 4.252352e-01 4.444021e-01 4.065391e-01 3.513289e-01 4.387578e-01 3.226431e-01 4.343497e-01 4.082197e-01 4.309424e-01 4.580171e-01 3.473267e-01 3.818804e-01 3.429810e-01 4.045887e-01 3.471776e-01 4.308884e-01 4.638944e-01 4.006946e-01 3.100648e-01 4.099711e-01 4.846717e-01 3.742610e-01 5.371434e-01 3.707681e-01 3.535239e-01 3.090745e-01 2.637085e-01 3.693951e-01 3.400058e-01 3.949213e-01 4.057581e-01 4.171903e-01 3.595106e-01 3.899193e-01 3.447059e-01 3.591187e-01 3.918362e-01 3.478935e-01 4.605899e-01 4.438821e-01 4.227942e-01 4.397476e-01 4.802494e-01 4.558949e-01 3.690417e-01 3.669580e-01 3.892816e-01 4.239852e-01 3.208272e-01 3.000041e-01 3.920643e-01 4.125698e-01 3.800548e-01 3.691765e-01 3.914613e-01 3.647017e-01 4.267966e-01 4.146575e-01 4.243513e-01 3.702265e-01 4.018692e-01 4.288504e-01 4.922087e-01
<VARIANCE> 142
 6.129050e-02 4.774175e-03 2.682460e-03 1.333148e-02 2.690527e-02 2.684421e-02 1.413649e-02 1.302820e-02 4.290197e-03 1.878460e-02 4.687734e-03 1.679334e-03 7.620024e-03 8.518685e-03 1.522735e-02 6.396770e-03 3.669898e-03 5.963324e-03 6.541066e-03 1.259303e-02 9.226047e-03 2.731050e-03 1.571338e-02 3.761949e-03 6.640927e-03 7.244857e-03 7.924769e-03 5.171699e-03 6.334255e-03 1.519248e-02 1.860372e-03 7.769139e-03 5.733647e-03 6.854302e-03 2.012794e-03 9.747653e-03 1.353365e-02 8.320116e-03 1.017477e-02 3.087850e-02 1.520133e-02 4.633426e-03 5.910635e-03 2.605000e-02 5.440424e-03 4.190995e-03 7.112522e-03 5.931599e-03 6.298152e-03 4.853173e-03 5.953251e-03 1.272721e-02 1.185427e-02 5.823377e-03 6.042124e-03 1.525337e-02 1.662104e-02 8.389422e-03 1.961714e-02 4.765069e-02 8.104733e-03 9.990130e-03 2.028185e-03 2.428798e-03 5.394836e-03 3.470422e-03 1.244567e-02 1.440404e-02 6.978556e-03 5.729854e-03 9.866260e-03 2.227828e-02 5.804964e-03 3.691828e-03 1.569852e-02 9.315474e-03 5.159168e-03 2.778296e-02 1.126367e-02 4.253607e-03 1.181459e-02 4.283409e-03 3.676748e-03 1.262591e-02 1.419279e-02 8.141509e-03 2.420345e-03 1.000000e-03 2.615754e-03 1.247515e-02 2.622488e-03 1.411640e-02 6.853077e-03 3.288712e-03 5.574019e-03 1.186078e-02 3.863891e-03 1.382901e-02 5.663614e-03 4.788709e-03 5.334193e-03 1.030284e-02 4.131482e-03 1.294309e-02 9.416617e-03 3.516367e-03 6.138481e-03 7.789500e-03 9.618792e-03 1.284038e-02 3.316216e-03 7.400880e-03 1.316210e-02 6.267898e-03 6.971476e-03 3.472588e-03 6.822505e-03 4.998371e-03 9.529032e-03 1.029960e-02 6.879169e-03 9.982514e-03 3.485085e-03 2.074871e-02 1.967078e-02 6.067836e-03 3.198899e-03 8.448016e-03 5.918806e-03 1.375298e-02 6.599424e-03 1.274031e-02 2.543012e-02 6.571583e-03 2.033969e-02 6.668834e-03 3.493305e-03 5.840560e-03 1.946683e-02 9.403135e-03 7.645158e-03 4.251568e-03
<GCONST> -4.310794e+02
<STATE> 3
<MEAN> 142
 4.972223e-01 3.719052e-01 4.854672e-01 4.101537e-01 4.082952e-01 4.732502e-01 4.562570e-01 3.582157e-01 4.383244e-01 4.636339e-01 5.652363e-01 4.505205e-01 3.797007e-01 5.927197e-01 3.923614e-01 4.002517e-01 3.864581e-01 3.934713e-01 4.791645e-01 4.170913e-01 5.733308e-01 5.297691e-01 4.793327e-01 4.828570e-01 5.688142e-01 4.418775e-01 5.400689e-01 4.135327e-01 4.317848e-01 4.690408e-01 5.212413e-01 3.876580e-01 3.853574e-01 4.894328e-01 4.804961e-01 3.745454e-01 4.622866e-01 3.597188e-01 4.342186e-01 4.835625e-01 4.008264e-01 4.143412e-01 4.403319e-01 3.898193e-01 3.082489e-01 4.162935e-01 4.462808e-01 4.292449e-01 4.633811e-01 4.196454e-01 4.904248e-01 4.114166e-01 5.068772e-01 2.970679e-01 4.040301e-01 4.644717e-01 5.298032e-01 4.678847e-01 4.596329e-01 4.917218e-01 4.677956e-01 4.820243e-01 3.598379e-01 3.980535e-01 4.360368e-01 4.267768e-01 3.799475e-01 5.456725e-01 4.238599e-01 4.391068e-01 4.652630e-01 4.284091e-01 3.437546e-01 5.159881e-01 4.492984e-01 3.950373e-01 4.410778e-01 4.300500e-01 5.110062e-01 5.193622e-01 4.875228e-01 3.894722e-01 3.838992e-01 4.785702e-01 4.404265e-01 4.138320e-01 3.905821e-01 4.433685e-01 5.391961e-01 4.422877e-01 3.749039e-01 3.869911e-01 4.749056e-01 4.172269e-01 4.192159e-01 4.858058e-01 4.697311e-01 3.981757e-01 4.817236e-01 5.198160e-01 4.435633e-01 4.668565e-01 4.279262e-01 4.298127e-01 4.753034e-01 3.341914e-01 3.918065e-01 4.163891e-01 5.613042e-01 5.219908e-01 4.438400e-01 4.269828e-01 3.680809e-01 4.152113e-01 4.169571e-01 4.512172e-01 4.829296e-01 4.567644e-01 4.409480e-01 4.983092e-01 4.721031e-01 4.451765e-01 4.292439e-01 4.251541e-01 4.957621e-01 3.991616e-01 4.452929e-01 4.410358e-01 3.997701e-01 4.758647e-01 4.636984e-01 4.478646e-01 3.596183e-01 4.500381e-01 3.971324e-01 4.533426e-01 4.566373e-01 4.214601e-01 4.786248e-01 4.320786e-01 3.991672e-01 4.254605e-01
<VARIANCE> 142
 1.485800e-02 7.874058e-03 1.351379e-02 8.819866e-03 2.517194e-02 3.426931e-02 2.221835e-02 1.787768e-02 8.966506e-03 4.559304e-03 8.618204e-03 8.332231e-03 7.311849e-03 1.244433e-02 5.383773e-03 1.685135e-02 2.099263e-03 2.485868e-02 1.059889e-02 8.109367e-03 3.829872e-02 2.281659e-02 1.596337e-02 6.804086e-03 1.963032e-02 4.319191e-03 1.314410e-02 1.266816e-02 1.170652e-02 1.874728e-02 4.909215e-03 2.728036e-03 1.303824e-02 7.039052e-03 4.889191e-03 6.998004e-03 1.050905e-02 1.617474e-02 9.855091e-03 4.501471e-02 8.421469e-03 1.042605e-02 9.984978e-03 1.371193e-02 1.495354e-02 6.703996e-03 9.827022e-03 5.112390e-03 1.671733e-02 9.351123e-03 3.583156e-03 4.919261e-03 7.081555e-03 8.546113e-03 6.763471e-03 1.483989e-02 5.575508e-02 2.040577e-02 1.401582e-02 1.946690e-02 1.223681e-02 1.595457e-02 3.998383e-03 5.913815e-03 3.388580e-02 1.412876e-02 8.605424e-03 2.652494e-02 9.045991e-03 4.892807e-03 4.327421e-03 9.582659e-03 2.537267e-03 3.428728e-03 2.619890e-02 4.240961e-03 1.209183e-02 9.524445e-03 9.663371e-03 2.817402e-02 3.079887e-02 3.584790e-03 2.632185e-03 1.211343e-02 1.882378e-02 1.192757e-02 4.181771e-03 7.056381e-03 5.596404e-03 1.470447e-02 1.388884e-02 2.124658e-02 3.146394e-02 1.507634e-02 3.245120e-03 1.550164e-02 9.672456e-03 4.465931e-02 1.344530e-02 1.084988e-02 2.973749e-03 1.303458e-02 7.846718e-03 1.033236e-02 1.983377e-02 1.952992e-02 4.956415e-03 4.417070e-03 1.800661e-02 4.469671e-02 7.189645e-03 1.722705e-02 2.319159e-02 6.656614e-03 1.778857e-02 1.718291e-02 1.072232e-02 1.652856e-02 1.061919e-02 1.302720e-02 2.729955e-03 3.132880e-03 3.020611e-03 3.177324e-02 3.884579e-02 1.620106e-03 1.966146e-02 5.061475e-02 2.232184e-02 1.802146e-02 2.899359e-02 1.163905e-02 3.353188e-02 1.676606e-02 1.409098e-02 7.651959e-03 1.076220e-02 5.579234e-03 4.308435e-02 4.074304e-03 4.190554e-03 7.078682e-03
<GCONST> -3.810506e+02
<TRANSP> 4
 0.000000e+00 1.000000e+00 0.000000e+00 0.000000e+00
 0.000000e+00 5.000000e-01 5.000000e-01 0.000000e+00
 0.000000e+00 0.000000e+00 5.000000e-01 5.000000e-01
 0.000000e+00 0.000000e+00 0.000000e+00 0.000000e+00
<ENDHMM>
