~o
<STREAMINFO> 1 142
<VECSIZE> 142<NULLD><USER><DIAGC>
~h "philosophy"
<BEGINHMM>
<NUMSTATES> 4
<STATE> 2
<MEAN> 142
 5.600467e-01 3.245743e-01 4.204005e-01 3.867759e-01 3.397890e-01 3.691102e-01 3.755974e-01 2.610357e-01 3.515319e-01 4.420353e-01 4.674177e-01 3.962056e-01 3.356971e-01 5.201418e-01 2.906795e-01 3.184395e-01 3.416131e-01 3.643089e-01 4.259362e-01 3.418890e-01 4.765371e-01 5.016617e-01 4.564499e-01 4.896902e-01 5.274069e-01 3.559279e-01 4.696059e-01 4.173251e-01 4.604378e-01 3.970779e-01 4.719239e-01 3.552969e-01 3.609313e-01 5.068413e-01 4.367239e-01 3.326656e-01 4.117919e-01 3.389722e-01 3.737794e-01 3.489489e-01 3.783700e-01 4.329278e-01 3.948641e-01 3.050029e-01 2.209999e-01 3.522449e-01 4.386046e-01 3.738828e-01 4.235643e-01 4.191719e-01 4.970813e-01 3.673882e-01 4.282477e-01 2.814776e-01 4.236612e-01 3.744881e-01 4.222669e-01 3.820657e-01 4.316618e-01 4.480176e-01 4.219915e-01 4.063400e-01 3.630872e-01 4.031622e-01 3.717584e-01 3.954578e-01 3.835037e-01 4.687618e-01 4.040507e-01 3.989304e-01 4.423893e-01 4.092952e-01 3.423618e-01 4.085736e-01 3.272171e-01 3.449745e-01 4.177708e-01 3.636644e-01 4.933622e-01 4.740572e-01 4.600578e-01 3.940413e-01 3.372417e-01 4.567518e-01 3.758608e-01 3.393794e-01 3.754071e-01 4.337660e-01 5.125104e-01 3.744369e-01 3.478655e-01 3.031138e-01 4.069152e-01 3.895139e-01 3.987967e-01 4.201450e-01 4.189234e-01 3.385088e-01 4.854557e-01 4.596144e-01 4.266415e-01 4.706423e-01 3.568173e-01 3.809907e-01 3.829562e-01 3.282613e-01 3.705776e-01 4.106377e-01 4.641571e-01 4.585162e-01 3.902838e-01 3.778501e-01 3.515669e-01 3.322493e-01 3.582654e-01 4.033354e-01 4.029856e-01 4.269073e-01 4.254876e-01 4.173412e-01 4.240163e-01 4.179631e-01 4.175569e-01 3.972581e-01 4.264527e-01 3.743092e-01 4.131101e-01 3.667189e-01 4.457654e-01 4.094211e-01 3.612322e-01 4.105631e-01 3.223568e-01 3.855216e-01 3.499645e-01 4.540115e-01 3.783624e-01 3.763630e-01 3.637131e-01 3.678859e-01 4.147240e-01 4.174184e-01
<VARIANCE> 142
 1.790166e-02 4.743918e-03 1.456042e-02 1.386562e-02 9.500059e-03 4.409712e-02 1.947110e-02 1.213847e-02 5.284760e-03 6.240634e-03 1.115685e-02 1.903935e-02 5.112130e-03 1.580597e-02 7.359975e-03 1.876867e-02 2.439317e-03 1.959269e-02 2.279690e-02 1.179439e-02 3.025929e-02 2.477843e-02 7.261292e-03 5.892393e-03 5.311492e-03 4.746044e-03 1.413698e-02 3.502852e-02 1.462864e-02 1.850962e-02 1.089000e-02 9.624966e-03 1.493016e-02 1.613318e-02 2.427493e-03 6.885659e-03 1.946329e-02 1.263944e-02 5.660869e-03 1.416653e-02 1.017471e-02 9.103191e-03 7.351016e-03 1.789323e-02 1.572516e-02 6.090550e-03 1.988208e-02 5.667690e-03 2.638861e-02 1.252125e-02 1.429131e-03 1.063120e-02 3.737557e-03 5.909285e-03 9.512135e-03 9.847990e-03 2.164795e-02 2.788417e-02 1.404459e-02 4.688334e-02 1.292776e-02 2.116569e-03 6.115451e-03 1.177004e-02 1.634358e-02 1.001607e-02 1.084257e-02 3.722384e-02 7.474989e-03 1.274569e-02 7.719341e-03 7.371406e-03 3.293999e-03 2.062277e-03 2.569968e-02 4.687683e-03 5.522432e-03 1.160709e-02 3.657476e-03 1.194785e-02 1.023326e-02 6.434135e-03 6.369494e-03 1.580797e-02 2.121700e-02 1.262908e-02 3.229766e-03 5.880822e-03 7.388216e-03 1.037002e-02 2.941703e-02 1.748466e-02 1.303079e-02 3.811426e-02 2.878844e-03 6.629560e-03 3.899996e-03 1.862761e-02 1.369841e-02 8.976108e-03 2.421857e-03 1.215453e-02 7.744042e-03 1.146889e-02 1.899098e-02 8.918018e-03 1.557489e-02 1.152278e-02 2.099282e-02 4.632298e-02 5.452357e-03 2.052613e-02 1.657267e-02 3.515048e-03 1.227623e-02 6.657443e-03 1.156692e-02 9.232197e-03 1.271157e-02 1.137629e-02 3.746178e-03 1.260999e-02 7.134605e-03 2.074129e-02 1.507017e-02 4.927518e-03 1.352508e-02 1.254404e-02 4.459993e-02 1.565208e-02 1.233650e-02 3.961855e-03 1.052059e-02 3.747727e-03 5.395553e-03 1.179169e-02 2.014811e-02 2.657981e-03 1.397939e-02 7.129554e-03 1.167889e-02 1.077911e-02
<GCONST> -3.890637e+02
<STATE> 3
<MEAN> 142
 5.561779e-01 3.285194e-01 3.520811e-01 3.783948e-01 3.750188e-01 4.237193e-01 4.692952e-01 4.269092e-01 3.597731e-01 4.483252e-01 3.795371e-01 3.861089e-01 4.321935e-01 4.731562e-01 4.593763e-01 5.192731e-01 4.206502e-01 3.944058e-01 3.086769e-01 3.950508e-01 5.110115e-01 4.828718e-01 3.473285e-01 4.849013e-01 4.632646e-01 4.133255e-01 3.578970e-01 3.922412e-01 4.038605e-01 4.211296e-01 4.892871e-01 4.234547e-01 3.685039e-01 4.679631e-01 4.041575e-01 5.263749e-01 4.358930e-01 5.103203e-01 4.117320e-01 6.419795e-01 5.367641e-01 4.330449e-01 3.006857e-01 4.026173e-01 2.774806e-01 3.492983e-01 4.836272e-01 5.271631e-01 5.460122e-01 3.148570e-01 4.722673e-01 5.209421e-01 4.392184e-01 3.108162e-01 4.752744e-01 3.184451e-01 3.693635e-01 2.988814e-01 3.900900e-01 4.345715e-01 4.702853e-01 4.770763e-01 4.132523e-01 3.782590e-01 4.182741e-01 3.811991e-01 5.205573e-01 5.058882e-01 5.109460e-01 4.567240e-01 4.616593e-01 4.238769e-01 3.936218e-01 3.882431e-01 3.641079e-01 4.628935e-01 4.974805e-01 3.832183e-01 4.989136e-01 4.082480e-01 5.079932e-01 4.323602e-01 5.355092e-01 4.673776e-01 4.003959e-01 4.912783e-01 3.686189e-01 4.093712e-01 4.979452e-01 3.773470e-01 2.652894e-01 4.076492e-01 4.369916e-01 2.933228e-01 4.510139e-01 4.458840e-01 5.346999e-01 4.368892e-01 5.714336e-01 4.129325e-01 4.386051e-01 4.945635e-01 3.461910e-01 3.942239e-01 4.051219e-01 3.007464e-01 3.491698e-01 4.435115e-01 4.337603e-01 4.756253e-01 3.639041e-01 3.073329e-01 3.959900e-01 3.730301e-01 3.403389e-01 3.682597e-01 2.634358e-01 4.440141e-01 3.773005e-01 4.068075e-01 4.511180e-01 4.156936e-01 3.840908e-01 3.994187e-01 4.011216e-01 3.501391e-01 3.598857e-01 4.469705e-01 3.088389e-01 3.692164e-01 5.234979e-01 4.614907e-01 4.473392e-01 4.445421e-01 4.572013e-01 5.334237e-01 5.087798e-01 4.977834e-01 6.471986e-01 3.745802e-01 4.635637e-01 4.326316e-01
<VARIANCE> 142
 9.245880e-03 2.318169e-03 1.201666e-02 6.884170e-03 5.790907e-03 2.251922e-02 1.632658e-02 3.163218e-02 2.736904e-03 3.006346e-03 1.272497e-02 9.158753e-03 1.100312e-02 9.616174e-03 3.046834e-02 4.666081e-02 7.148372e-03 1.053587e-02 2.365320e-02 8.144055e-03 1.512535e-02 1.201422e-02 1.460191e-02 2.766221e-03 6.192840e-03 5.113127e-03 1.909234e-02 1.676432e-02 9.592257e-03 9.577260e-03 5.260231e-03 9.145165e-03 7.347818e-03 8.200025e-03 2.238713e-03 3.908715e-02 1.019038e-02 3.559135e-02 4.522588e-03 8.471993e-02 2.949234e-02 4.406639e-03 1.094845e-02 1.757837e-02 1.020579e-02 3.139743e-03 1.100875e-02 2.465481e-02 2.577309e-02 1.597110e-02 1.269551e-03 2.831237e-02 2.073655e-03 3.833122e-03 6.988875e-03 7.277451e-03 1.391924e-02 1.989746e-02 8.430624e-03 2.283794e-02 8.252176e-03 5.565026e-03 5.923102e-03 6.131157e-03 9.808861e-03 5.259217e-03 2.434588e-02 1.850530e-02 1.307379e-02 9.940674e-03 4.083159e-03 3.886292e-03 4.016073e-03 1.407624e-03 1.356346e-02 1.432399e-02 8.207729e-03 5.735306e-03 1.820281e-03 9.778656e-03 7.542162e-03 4.647880e-03 4.021787e-02 7.584592e-03 1.029093e-02 2.669114e-02 1.583129e-03 3.315032e-03 3.670424e-03 5.088384e-03 1.982589e-02 1.754826e-02 7.092515e-03 2.599538e-02 3.698854e-03 3.681004e-03 1.379864e-02 1.913043e-02 1.350561e-02 6.184370e-03 1.367859e-03 6.210140e-03 3.810079e-03 5.996222e-03 9.164886e-03 4.860901e-03 7.759946e-03 6.817006e-03 1.094805e-02 2.157023e-02 3.202189e-03 1.413352e-02 9.263720e-03 3.142356e-03 6.124896e-03 4.247839e-03 2.239852e-02 4.524898e-03 7.993581e-03 5.455635e-03 2.583496e-03 6.420430e-03 4.434508e-03 9.974884e-03 7.926994e-03 2.951312e-03 9.297982e-03 1.324853e-02 3.686530e-02 9.184910e-03 2.854922e-02 4.315106e-03 2.014571e-02 5.441898e-03 1.347104e-02 1.132006e-02 2.327758e-02 1.534135e-02 8.033384e-02 3.441807e-03 7.941102e-03 5.345483e-03
<GCONST> -4.108326e+02
<TRANSP> 4
 0.000000e+00 1.000000e+00 0.000000e+00 0.000000e+00
 0.000000e+00 5.000000e-01 5.000000e-01 0.000000e+00
 0.000000e+00 0.000000e+00 5.000000e-01 5.000000e-01
 0.000000e+00 0.000000e+00 0.000000e+00 0.000000e+00
<ENDHMM>
