~o
<STREAMINFO> 1 142
<VECSIZE> 142<NULLD><USER><DIAGC>
~h "queen"
<BEGINHMM>
<NUMSTATES> 4
<STATE> 2
<MEAN> 142
 5.780914e-01 3.763097e-01 3.421155e-01 2.995959e-01 2.776840e-01 2.386085e-01 2.936692e-01 1.671827e-01 4.067393e-01 4.298904e-01 6.121948e-01 5.477999e-01 4.091769e-01 5.800070e-01 3.244112e-01 1.869333e-01 3.006264e-01 4.370603e-01 3.845274e-01 3.567756e-01 2.500239e-01 2.628404e-01 3.354334e-01 3.226908e-01 4.708610e-01 3.700485e-01 4.054629e-01 5.094506e-01 5.102696e-01 4.694750e-01 4.564138e-01 2.928084e-01 2.581595e-01 3.390272e-01 4.843316e-01 2.022761e-01 3.683618e-01 4.515009e-01 3.737375e-01 2.899837e-01 4.376052e-01 4.603246e-01 4.576050e-01 2.420913e-01 2.539565e-01 3.867001e-01 2.538110e-01 3.254373e-01 2.133164e-01 4.467027e-01 4.287419e-01 4.200420e-01 4.836517e-01 3.581507e-01 4.158311e-01 4.979916e-01 4.324642e-01 2.959140e-01 3.033644e-01 2.418959e-01 3.400957e-01 3.862458e-01 4.391676e-01 4.893992e-01 4.870659e-01 3.595959e-01 3.684286e-01 2.523300e-01 3.423774e-01 4.882389e-01 4.692352e-01 3.606239e-01 3.638209e-01 3.879572e-01 2.614904e-01 3.431267e-01 3.588581e-01 3.882625e-01 4.214541e-01 3.686052e-01 5.382720e-01 3.919240e-01 3.537255e-01 2.923317e-01 3.617782e-01 2.527868e-01 4.069276e-01 5.128646e-01 4.242605e-01 3.388337e-01 4.755562e-01 2.294417e-01 4.962440e-01 5.387080e-01 3.833605e-01 4.684723e-01 3.739310e-01 4.583918e-01 4.097342e-01 4.163113e-01 4.395082e-01 3.322655e-01 3.720306e-01 4.690147e-01 3.033666e-01 2.320890e-01 4.588819e-01 5.061232e-01 3.846197e-01 2.434771e-01 4.729497e-01 4.386980e-01 2.749369e-01 2.923088e-01 3.905323e-01 3.999549e-01 4.677912e-01 3.417802e-01 5.096049e-01 3.775724e-01 4.039808e-01 3.857735e-01 4.339631e-01 4.291713e-01 2.671439e-01 3.991457e-01 5.267537e-01 5.165142e-01 6.549345e-01 3.073111e-01 2.711198e-01 3.625387e-01 4.154323e-01 4.194549e-01 3.755130e-01 4.136437e-01 3.463392e-01 3.695422e-01 2.516561e-01 2.716268e-01 3.349888e-01 4.649932e-01
<VARIANCE> 142
 4.082387e-03 3.105750e-03 2.815149e-03 1.000000e-03 1.522973e-03 2.838602e-03 3.900002e-03 8.711467e-03 2.871990e-03 8.619207e-03 1.123932e-02 8.863632e-03 2.766289e-03 1.021681e-02 2.696677e-03 4.429287e-03 9.333970e-03 1.468798e-02 1.252263e-02 6.722613e-03 5.778932e-03 6.401593e-03 2.478481e-03 9.976276e-03 1.188099e-03 4.474109e-03 5.763087e-03 3.529802e-02 1.220644e-02 1.607314e-02 1.000000e-03 2.059024e-03 1.023536e-02 3.305758e-03 4.011350e-03 7.679092e-03 2.661597e-03 1.018342e-03 2.703530e-03 1.867935e-02 4.724486e-03 1.652485e-03 6.577659e-03 1.181581e-03 5.276261e-03 4.118599e-03 3.834192e-03 5.422924e-03 5.793747e-03 1.428204e-02 1.259312e-03 4.657564e-03 3.934707e-03 1.466377e-03 3.466493e-03 1.000000e-03 2.436217e-02 1.262409e-03 5.707808e-03 1.611101e-03 6.174257e-03 1.708474e-03 2.003419e-03 6.571212e-03 1.924303e-02 2.760158e-03 3.894447e-03 7.466899e-03 2.286412e-03 3.102995e-03 1.439607e-03 1.045299e-02 5.718910e-03 1.190880e-03 6.547429e-03 2.453520e-03 1.208022e-03 4.241127e-03 1.000000e-03 4.734015e-03 6.613399e-03 9.723119e-03 2.605143e-03 3.528373e-03 5.341342e-03 4.710039e-03 1.039561e-03 2.805942e-03 2.317500e-03 6.420817e-03 1.806509e-02 3.273027e-03 7.962176e-03 3.159074e-02 1.054967e-03 7.505908e-03 3.807732e-03 5.331357e-03 4.893219e-03 1.140046e-03 1.015688e-03 4.212488e-03 8.642416e-03 7.923786e-03 1.954467e-03 1.266362e-03 9.083715e-03 5.433805e-03 1.786817e-03 7.557165e-03 4.149488e-03 2.028174e-02 8.846287e-03 2.133470e-03 9.394092e-03 1.220841e-02 5.223622e-03 3.865362e-03 1.362430e-02 4.289629e-03 7.924993e-03 4.418567e-03 1.013777e-02 3.683403e-02 1.004606e-02 2.851411e-03 8.713355e-03 5.233909e-03 3.583318e-02 1.285631e-03 1.163961e-02 7.388089e-03 3.338355e-03 3.454652e-03 7.391496e-03 1.000000e-03 7.364266e-03 2.420119e-03 1.789794e-02 1.711909e-03 2.321028e-03 2.229698e-03
<GCONST> -5.074353e+02
<STATE> 3
<MEAN> 142
 5.807218e-01 3.412470e-01 2.934589e-01 3.036005e-01 2.741733e-01 2.957184e-01 3.861273e-01 3.240712e-01 3.304037e-01 3.893119e-01 4.002209e-01 3.995386e-01 3.699891e-01 4.188860e-01 3.075470e-01 3.212964e-01 4.411335e-01 4.376860e-01 3.027042e-01 3.313427e-01 3.885694e-01 4.065138e-01 3.314894e-01 4.030049e-01 4.448219e-01 3.899539e-01 4.200507e-01 4.128309e-01 4.595429e-01 3.795123e-01 4.353509e-01 3.698139e-01 3.748784e-01 4.385286e-01 4.312575e-01 3.344727e-01 2.956836e-01 4.231465e-01 4.131839e-01 4.450456e-01 4.142013e-01 5.095958e-01 3.091932e-01 2.758248e-01 2.476699e-01 3.697998e-01 3.638819e-01 4.158848e-01 3.663693e-01 3.101359e-01 4.050753e-01 4.250233e-01 3.837719e-01 3.383364e-01 4.252746e-01 4.593371e-01 3.924960e-01 3.042828e-01 3.772726e-01 3.164782e-01 4.630709e-01 4.129951e-01 3.619403e-01 4.052496e-01 4.419505e-01 4.433025e-01 4.108790e-01 3.573792e-01 4.266998e-01 4.201999e-01 4.337126e-01 3.321705e-01 3.602152e-01 4.127120e-01 3.783638e-01 3.698261e-01 4.209770e-01 2.982140e-01 4.122400e-01 3.910717e-01 5.537115e-01 3.213184e-01 4.501779e-01 3.842616e-01 3.559836e-01 3.597127e-01 3.533824e-01 4.319248e-01 5.116785e-01 3.730255e-01 3.255226e-01 3.351936e-01 5.799417e-01 3.814741e-01 3.833282e-01 5.018613e-01 4.864297e-01 3.799942e-01 4.521699e-01 4.012922e-01 4.361000e-01 3.814782e-01 2.719713e-01 3.753013e-01 3.310948e-01 2.577016e-01 3.505373e-01 3.972825e-01 3.515282e-01 3.770085e-01 3.456032e-01 3.302713e-01 2.984705e-01 2.880874e-01 3.284021e-01 3.580090e-01 4.165932e-01 3.928019e-01 4.579254e-01 3.093086e-01 3.375866e-01 4.160305e-01 3.720416e-01 4.156305e-01 3.474104e-01 3.869442e-01 3.940538e-01 4.989342e-01 3.887133e-01 3.537226e-01 4.563251e-01 3.937419e-01 4.138346e-01 4.306140e-01 3.601553e-01 3.821744e-01 4.976362e-01 4.684312e-01 4.844349e-01 3.493617e-01 3.570022e-01 4.033436e-01
<VARIANCE> 142
 2.230610e-02 1.228145e-02 7.608442e-03 1.640044e-03 5.771252e-03 1.133355e-02 6.637112e-03 1.762871e-02 8.448620e-03 8.651724e-03 9.905727e-03 5.662457e-03 1.506138e-03 5.511529e-03 1.445357e-02 4.538702e-03 9.097510e-03 6.334501e-03 1.870471e-03 6.232214e-03 1.369348e-02 1.459649e-02 1.000000e-03 4.430919e-03 2.807369e-03 1.788722e-03 6.983486e-03 6.710941e-03 3.973467e-03 7.224642e-03 2.421274e-03 5.210424e-03 2.241159e-02 7.621085e-03 4.780930e-03 5.923915e-03 7.243703e-03 5.344415e-03 2.450802e-03 6.992636e-02 3.239476e-03 4.558598e-03 9.699764e-03 5.159327e-03 4.408996e-03 8.918663e-03 3.489636e-03 2.163524e-02 7.457275e-03 1.016782e-02 1.000000e-03 8.200881e-03 9.152623e-03 3.892968e-03 5.310199e-03 2.184663e-03 1.831121e-02 6.953559e-03 3.205336e-03 2.327978e-03 6.181037e-03 2.716730e-03 1.000000e-03 3.440560e-03 3.289302e-02 5.149545e-03 1.838850e-02 1.593967e-02 4.774337e-03 4.088677e-03 4.576358e-03 1.338523e-02 7.353778e-03 3.908818e-03 1.824886e-02 5.802345e-03 1.627206e-03 1.181176e-03 1.000000e-03 6.480232e-03 1.395119e-02 1.337087e-03 3.876708e-03 4.531734e-03 1.351581e-02 1.040939e-02 2.407448e-03 2.466992e-03 1.000000e-03 1.315079e-03 9.324173e-03 3.337874e-03 1.838626e-02 3.242748e-03 3.183016e-03 2.011360e-02 5.518078e-03 7.977406e-03 4.776489e-03 4.934681e-03 4.946001e-03 8.205556e-03 1.645681e-03 1.090063e-02 1.074481e-02 4.231359e-03 7.153994e-03 6.036340e-03 6.345125e-03 2.379323e-02 5.361464e-03 4.925332e-03 8.231591e-03 7.248536e-03 6.145318e-03 1.179276e-02 1.226975e-02 1.081970e-02 1.360572e-02 2.795874e-03 4.438827e-03 1.303952e-02 6.795463e-03 1.782936e-02 1.016349e-02 4.625355e-03 2.036692e-02 2.776871e-02 2.861465e-02 4.310443e-03 2.615233e-02 5.567739e-03 1.330843e-02 1.019675e-02 5.607648e-03 3.670749e-03 1.045058e-02 2.557990e-03 4.429645e-02 3.378527e-03 7.816334e-03 3.719281e-03
<GCONST> -4.606520e+02
<TRANSP> 4
 0.000000e+00 1.000000e+00 0.000000e+00 0.000000e+00
 0.000000e+00 5.000000e-01 5.000000e-01 0.000000e+00
 0.000000e+00 0.000000e+00 5.000000e-01 5.000000e-01
 0.000000e+00 0.000000e+00 0.000000e+00 0.000000e+00
<ENDHMM>
