~o
<STREAMINFO> 1 142
<VECSIZE> 142<NULLD><USER><DIAGC>
~h "red"
<BEGINHMM>
<NUMSTATES> 4
<STATE> 2
<MEAN> 142
 5.635347e-01 3.168949e-01 3.951387e-01 3.434938e-01 2.720225e-01 2.850067e-01 3.665793e-01 3.545758e-01 3.495623e-01 4.290338e-01 4.637536e-01 4.074609e-01 3.677397e-01 4.057043e-01 3.151491e-01 3.210477e-01 3.748118e-01 3.485023e-01 3.688676e-01 3.513017e-01 4.429366e-01 4.318777e-01 4.353321e-01 3.839547e-01 4.848559e-01 3.746656e-01 4.407559e-01 3.919028e-01 4.053754e-01 3.584734e-01 4.730047e-01 3.478758e-01 4.052461e-01 4.546186e-01 4.157882e-01 3.458070e-01 3.940799e-01 3.578507e-01 3.699540e-01 4.384443e-01 3.559888e-01 3.931898e-01 3.309881e-01 2.722194e-01 1.976612e-01 3.685732e-01 4.210858e-01 4.486021e-01 4.450576e-01 3.441606e-01 4.412642e-01 4.067524e-01 4.318666e-01 2.845295e-01 3.944191e-01 4.247083e-01 4.437546e-01 3.688968e-01 3.899336e-01 3.296518e-01 4.420905e-01 4.931563e-01 3.632420e-01 4.365075e-01 3.935759e-01 4.632931e-01 3.773776e-01 4.600771e-01 4.361054e-01 3.916168e-01 4.578376e-01 3.582581e-01 4.040038e-01 4.523099e-01 3.512832e-01 3.438169e-01 4.711326e-01 4.119109e-01 4.663294e-01 4.875216e-01 4.879644e-01 3.119103e-01 3.484678e-01 3.940570e-01 3.614477e-01 3.209724e-01 4.103299e-01 4.308172e-01 4.532093e-01 3.191710e-01 3.017716e-01 2.852719e-01 4.498632e-01 4.028410e-01 4.051504e-01 5.049719e-01 4.691594e-01 3.255017e-01 4.555662e-01 4.349390e-01 4.651687e-01 4.323661e-01 3.342713e-01 3.346600e-01 3.783200e-01 2.940281e-01 3.357827e-01 3.954917e-01 3.634257e-01 3.772627e-01 3.780613e-01 3.259049e-01 3.233129e-01 3.667414e-01 4.063532e-01 4.204518e-01 3.587393e-01 4.404677e-01 4.289352e-01 3.434083e-01 3.498352e-01 4.329317e-01 4.147311e-01 3.150814e-01 4.336548e-01 3.959118e-01 3.928292e-01 3.768775e-01 3.654513e-01 4.286938e-01 4.623515e-01 4.105201e-01 3.148606e-01 4.904492e-01 3.811263e-01 4.458689e-01 4.397322e-01 4.005542e-01 4.270884e-01 3.207791e-01 4.241894e-01 4.688469e-01
<VARIANCE> 142
 2.466893e-02 4.441948e-03 8.052284e-03 5.115749e-03 5.389391e-03 9.833799e-03 1.567290e-02 4.605668e-03 2.677788e-03 8.140792e-03 5.180322e-03 1.944545e-03 1.964957e-03 2.760200e-03 6.609709e-03 5.915549e-03 4.333341e-03 1.115881e-02 1.023876e-02 8.206351e-03 7.689100e-03 7.970301e-03 1.254947e-02 4.083825e-03 5.024177e-03 1.456021e-03 1.784387e-03 1.035820e-02 6.019319e-03 2.421282e-03 2.710161e-03 6.028109e-03 2.930657e-02 8.567027e-03 1.565125e-03 6.567223e-03 9.013266e-03 8.331155e-03 1.015631e-02 1.835796e-02 1.099117e-02 6.210957e-03 9.373984e-03 7.299045e-03 7.504449e-03 1.611128e-02 1.264166e-02 2.780588e-03 9.021561e-03 3.559502e-03 3.741101e-03 4.820840e-03 6.334519e-03 5.232005e-03 9.877668e-03 1.003300e-02 4.593311e-02 4.730118e-03 5.744101e-03 3.836631e-03 1.979702e-02 1.535178e-02 3.852499e-03 3.468783e-03 4.817805e-03 2.719568e-02 6.386787e-03 1.126035e-02 2.841175e-03 1.356454e-02 1.827807e-03 1.532245e-02 4.566792e-03 4.140843e-03 1.435607e-02 3.071754e-03 8.319914e-03 1.427463e-02 1.362636e-02 9.335290e-03 9.440939e-03 2.937503e-03 7.347467e-03 4.145046e-03 7.281828e-03 2.738605e-02 2.982494e-03 1.000000e-03 6.720083e-03 9.094381e-03 8.623550e-03 9.463448e-03 2.101370e-02 3.637577e-03 3.496013e-03 1.365551e-02 1.884454e-03 3.881782e-03 8.446850e-03 8.464801e-03 1.213430e-02 1.076744e-02 5.958925e-03 2.010585e-03 8.628807e-03 2.624037e-03 6.772474e-03 1.101839e-02 4.222502e-03 1.246008e-02 6.226380e-03 1.495539e-03 1.776688e-02 8.297547e-03 1.365447e-02 1.356445e-02 8.028423e-03 8.531418e-03 5.879879e-03 5.402912e-03 4.278044e-03 1.065772e-02 4.931317e-03 8.579882e-03 1.558759e-02 1.162164e-02 1.261031e-02 1.564283e-02 1.158358e-02 5.485558e-03 9.988215e-03 6.504861e-03 1.234932e-02 1.472265e-02 2.171664e-03 3.771239e-03 2.177877e-02 6.142472e-03 2.893011e-02 2.837360e-03 1.476070e-02 3.727917e-03
<GCONST> -4.458580e+02
<STATE> 3
<MEAN> 142
 7.683405e-01 3.138622e-01 3.644018e-01 3.355356e-01 2.533787e-01 3.635596e-01 4.142149e-01 3.560089e-01 3.110279e-01 3.606377e-01 4.164196e-01 4.321226e-01 3.919428e-01 4.173930e-01 2.766585e-01 3.176457e-01 3.500968e-01 3.698130e-01 3.155843e-01 4.428470e-01 4.505146e-01 4.168965e-01 4.262390e-01 3.673387e-01 4.223009e-01 3.829118e-01 3.884228e-01 3.739078e-01 3.665844e-01 2.997560e-01 4.530561e-01 4.411369e-01 4.892457e-01 4.055349e-01 4.114727e-01 3.582136e-01 2.691534e-01 3.183361e-01 2.992679e-01 2.851177e-01 3.236556e-01 4.095095e-01 2.941968e-01 4.224120e-01 2.535209e-01 3.734168e-01 3.850295e-01 3.670149e-01 3.704315e-01 3.259966e-01 4.585584e-01 4.087381e-01 3.904510e-01 2.511040e-01 4.532908e-01 3.344921e-01 4.392142e-01 3.701366e-01 3.700453e-01 2.821146e-01 4.931122e-01 4.705678e-01 4.116480e-01 4.376079e-01 3.761629e-01 4.308676e-01 3.366838e-01 3.840479e-01 4.719799e-01 3.546004e-01 4.880680e-01 5.117757e-01 3.932892e-01 3.673251e-01 4.321908e-01 3.849765e-01 4.816017e-01 3.707022e-01 4.347623e-01 4.028320e-01 4.305821e-01 3.574710e-01 3.665842e-01 4.328476e-01 3.324154e-01 4.709433e-01 4.154322e-01 4.431093e-01 4.637337e-01 4.365735e-01 3.605157e-01 4.057026e-01 3.940028e-01 3.487802e-01 3.564856e-01 4.533008e-01 4.030354e-01 3.461011e-01 3.432000e-01 4.049547e-01 3.327489e-01 4.328409e-01 3.442800e-01 3.287264e-01 2.804460e-01 3.026990e-01 4.146940e-01 3.044409e-01 3.950893e-01 3.832403e-01 3.958181e-01 3.646733e-01 3.158830e-01 2.713916e-01 3.304706e-01 3.991975e-01 3.902965e-01 3.536986e-01 4.313580e-01 3.744798e-01 4.175439e-01 4.549943e-01 4.551637e-01 4.527028e-01 4.325097e-01 4.331845e-01 3.899543e-01 3.780413e-01 3.617606e-01 4.402826e-01 3.784930e-01 3.625064e-01 4.919367e-01 3.990900e-01 3.101099e-01 3.572767e-01 4.566233e-01 3.705082e-01 3.355367e-01 3.241284e-01 4.195271e-01 5.004927e-01
<VARIANCE> 142
 4.473357e-02 5.836575e-03 9.829598e-03 5.717949e-03 1.576892e-03 2.666496e-02 2.877989e-02 1.517674e-02 1.783689e-03 2.047920e-03 6.503259e-03 5.065711e-03 8.024369e-03 1.124636e-02 3.440297e-03 1.446629e-02 6.266188e-03 5.991875e-03 6.994941e-03 2.311359e-02 6.508886e-03 1.028139e-02 4.842612e-03 2.834140e-03 2.098146e-03 2.738029e-03 3.790082e-03 3.093459e-03 7.639786e-03 2.656086e-03 1.189684e-03 1.003617e-02 2.882561e-02 1.504274e-02 1.689994e-03 1.217163e-02 5.903811e-03 8.161101e-03 6.782624e-03 1.598687e-02 8.379992e-03 1.007120e-02 3.693936e-03 2.438908e-02 2.669293e-02 1.359222e-02 6.560401e-03 3.189009e-03 7.338283e-03 4.699445e-03 2.473527e-03 5.804257e-03 6.037781e-03 5.247935e-03 1.521044e-02 6.494086e-03 1.811950e-02 1.344916e-02 7.877590e-03 8.092377e-03 1.371373e-02 4.652692e-03 3.933919e-03 5.938897e-03 5.079122e-03 1.115275e-02 1.087253e-02 6.957601e-03 1.104400e-02 4.324611e-03 5.435886e-03 2.639975e-02 5.668308e-03 5.358201e-03 1.387006e-02 6.376040e-03 8.409971e-03 1.723045e-02 6.074582e-03 4.195778e-03 3.831740e-03 3.360361e-03 3.744790e-03 1.849826e-02 2.494019e-02 2.682978e-02 1.442470e-03 1.950271e-03 8.954654e-03 1.791204e-02 5.911016e-03 1.775107e-02 1.088388e-02 7.834023e-03 2.545581e-03 3.477699e-03 7.957319e-03 9.346777e-03 5.872956e-03 4.060602e-03 3.422816e-03 1.042167e-02 4.510128e-03 4.369802e-03 7.123614e-03 2.671829e-03 6.613027e-03 1.214865e-02 8.387646e-03 2.341251e-02 5.286032e-03 2.541030e-03 1.000394e-02 8.810318e-03 3.954443e-03 5.039233e-03 5.439477e-03 1.937540e-03 1.948985e-03 1.464368e-02 6.747944e-03 2.046375e-02 1.723356e-02 1.231447e-02 2.565699e-02 9.360759e-03 3.787159e-03 7.898295e-03 5.696142e-03 1.588088e-02 1.054836e-02 3.590791e-03 1.803776e-02 4.522997e-03 1.299095e-03 1.827686e-03 1.446035e-02 3.653587e-03 2.828336e-02 3.945522e-03 1.761485e-02 1.266667e-02
<GCONST> -4.422561e+02
<TRANSP> 4
 0.000000e+00 1.000000e+00 0.000000e+00 0.000000e+00
 0.000000e+00 5.000000e-01 5.000000e-01 0.000000e+00
 0.000000e+00 0.000000e+00 5.000000e-01 5.000000e-01
 0.000000e+00 0.000000e+00 0.000000e+00 0.000000e+00
<ENDHMM>
