~o
<STREAMINFO> 1 142
<VECSIZE> 142<NULLD><USER><DIAGC>
~h "rooster"
<BEGINHMM>
<NUMSTATES> 4
<STATE> 2
<MEAN> 142
 5.201294e-01 3.406267e-01 3.523387e-01 3.967803e-01 3.307368e-01 3.327278e-01 4.043572e-01 3.550564e-01 3.586036e-01 4.186496e-01 4.614476e-01 3.507395e-01 3.368994e-01 4.341203e-01 3.784371e-01 4.182348e-01 3.932666e-01 3.877799e-01 3.306559e-01 3.516700e-01 4.522942e-01 4.871669e-01 4.130342e-01 4.686810e-01 4.809240e-01 3.664699e-01 4.311164e-01 3.075237e-01 4.063211e-01 3.679586e-01 4.723493e-01 3.940559e-01 3.549191e-01 5.569572e-01 3.837259e-01 3.935433e-01 3.775673e-01 3.773712e-01 3.897754e-01 3.537930e-01 3.831671e-01 4.724999e-01 3.686397e-01 3.102178e-01 2.339330e-01 3.730365e-01 4.180094e-01 4.495413e-01 4.705262e-01 3.570938e-01 5.234515e-01 3.860849e-01 4.022174e-01 2.833363e-01 3.799075e-01 3.876652e-01 4.596800e-01 3.546433e-01 3.685647e-01 4.237197e-01 4.592279e-01 3.946650e-01 3.695096e-01 4.032914e-01 3.548843e-01 4.563979e-01 4.079833e-01 4.411272e-01 3.616685e-01 3.900633e-01 4.443063e-01 3.500205e-01 4.023763e-01 3.955994e-01 3.149576e-01 3.437313e-01 4.268866e-01 2.970975e-01 4.793902e-01 4.777904e-01 4.835783e-01 3.810332e-01 4.076563e-01 4.113842e-01 4.034039e-01 3.777174e-01 3.558131e-01 4.106577e-01 4.937904e-01 3.713587e-01 3.220217e-01 3.291983e-01 4.071299e-01 3.239862e-01 3.937806e-01 4.710288e-01 4.676408e-01 3.317787e-01 4.548171e-01 4.375234e-01 4.126995e-01 4.399363e-01 3.476234e-01 3.892792e-01 3.937557e-01 3.142385e-01 3.703724e-01 3.653564e-01 4.086573e-01 4.407299e-01 3.625499e-01 3.485444e-01 3.222465e-01 3.657577e-01 3.074601e-01 3.976651e-01 4.239514e-01 3.938160e-01 4.233356e-01 3.656900e-01 4.287633e-01 4.256912e-01 3.891433e-01 3.294434e-01 4.105161e-01 3.499091e-01 3.565041e-01 3.931404e-01 3.645389e-01 4.156324e-01 4.374317e-01 4.042059e-01 3.373075e-01 4.758158e-01 3.850764e-01 3.981518e-01 4.224696e-01 4.578762e-01 4.421344e-01 4.146375e-01 3.861219e-01 3.754160e-01
<VARIANCE> 142
 2.088054e-02 5.367790e-03 1.938960e-02 1.219255e-02 6.815617e-03 4.627050e-02 4.361387e-02 2.582116e-03 6.886034e-03 9.268607e-03 1.576559e-02 9.074366e-03 3.128107e-03 1.299484e-02 1.061093e-02 1.432307e-02 2.013524e-03 9.110873e-03 2.381797e-02 1.085855e-02 1.613307e-02 1.410782e-02 7.546307e-03 1.118392e-02 8.801054e-03 4.012324e-03 1.354574e-02 1.111396e-02 3.839401e-03 4.569329e-03 7.540455e-03 9.963189e-03 2.443033e-02 3.675290e-02 3.295311e-03 8.337010e-03 1.287009e-02 6.607956e-03 1.057500e-02 2.381905e-02 6.428581e-03 2.918981e-03 9.682070e-03 7.910983e-03 2.131841e-02 7.561947e-03 1.042792e-02 1.093308e-02 2.494838e-02 7.266558e-03 6.003207e-03 1.849860e-03 7.048349e-03 4.386010e-03 1.014176e-02 5.545175e-03 3.067216e-02 2.796478e-02 1.106093e-02 2.064408e-02 1.962940e-02 3.616864e-03 4.683352e-03 8.748638e-03 1.060268e-02 1.274450e-02 6.993797e-03 2.197847e-02 1.083295e-02 6.956340e-03 3.924533e-03 7.200326e-03 1.005732e-03 6.305614e-03 1.655640e-02 8.711663e-03 1.482956e-02 1.436252e-02 1.222355e-02 6.694046e-03 8.678853e-03 2.865738e-03 5.265397e-03 5.832121e-03 5.652257e-02 1.333609e-02 2.682692e-03 1.788275e-03 1.850324e-03 3.151034e-03 1.329125e-02 9.244215e-03 1.940184e-02 7.049877e-03 2.761025e-03 1.886308e-02 6.176369e-03 3.863922e-03 3.151741e-03 1.262463e-02 8.831637e-03 1.047535e-02 5.583732e-03 5.960555e-03 4.052908e-02 5.660519e-03 6.171972e-03 1.875210e-03 1.592699e-02 5.337039e-02 4.291198e-03 4.684537e-03 3.668980e-02 4.772287e-03 3.585563e-03 1.681112e-03 1.898924e-02 7.327517e-03 6.693515e-03 1.968522e-02 2.400709e-03 9.579603e-03 5.963774e-03 7.042040e-03 2.665923e-02 6.573253e-03 1.606980e-02 1.863148e-02 1.992563e-02 3.143116e-02 2.239765e-02 7.489111e-03 6.984527e-03 1.037302e-02 5.421704e-03 2.789971e-03 2.202173e-02 5.170766e-03 3.500065e-02 4.424836e-03 1.003128e-02 1.432800e-02
<GCONST> -4.101068e+02
<STATE> 3
<MEAN> 142
 7.570387e-01 3.713008e-01 4.285768e-01 3.480022e-01 2.579406e-01 3.539235e-01 3.907519e-01 3.748311e-01 3.236825e-01 4.100533e-01 4.967600e-01 4.297633e-01 3.901847e-01 5.206409e-01 2.989367e-01 3.154382e-01 3.684037e-01 3.917557e-01 3.759851e-01 4.604772e-01 5.054943e-01 5.156390e-01 4.573284e-01 4.536420e-01 4.792956e-01 3.908149e-01 4.560267e-01 3.756405e-01 4.097570e-01 3.520786e-01 4.609206e-01 4.694062e-01 4.432474e-01 4.196540e-01 4.215086e-01 3.346040e-01 3.495552e-01 3.265350e-01 3.318799e-01 2.721447e-01 3.434383e-01 4.239696e-01 3.352345e-01 3.798229e-01 2.319086e-01 4.382807e-01 4.881528e-01 3.907700e-01 4.136736e-01 3.825681e-01 4.867336e-01 4.271282e-01 4.600913e-01 2.480074e-01 5.070371e-01 3.549796e-01 5.310212e-01 3.879096e-01 3.908989e-01 3.077789e-01 4.493153e-01 4.553059e-01 3.688691e-01 4.155527e-01 3.943561e-01 4.497366e-01 3.737421e-01 3.943282e-01 4.259732e-01 3.377134e-01 4.732392e-01 4.711621e-01 4.007374e-01 4.454369e-01 4.227180e-01 3.665642e-01 4.698560e-01 4.398712e-01 4.890758e-01 4.342611e-01 4.376020e-01 3.984217e-01 3.797451e-01 4.744560e-01 2.828631e-01 4.402288e-01 3.960860e-01 4.329946e-01 4.365880e-01 3.800353e-01 3.858262e-01 3.625210e-01 4.177784e-01 3.692335e-01 4.100290e-01 5.027037e-01 4.104249e-01 3.441134e-01 4.147403e-01 4.353134e-01 3.879172e-01 5.315449e-01 3.838443e-01 3.491042e-01 3.496801e-01 3.615857e-01 4.189100e-01 3.713274e-01 4.320427e-01 3.790118e-01 4.219559e-01 3.958748e-01 3.100726e-01 3.550852e-01 3.768089e-01 3.896885e-01 4.083422e-01 4.118842e-01 4.494564e-01 4.901704e-01 4.454425e-01 5.732595e-01 5.010762e-01 4.350117e-01 4.512342e-01 4.542896e-01 4.174918e-01 3.583316e-01 3.309682e-01 4.627369e-01 4.144620e-01 4.132791e-01 4.078328e-01 4.498489e-01 3.537112e-01 3.902258e-01 4.531910e-01 3.884875e-01 3.008684e-01 3.856279e-01 4.623425e-01 4.687196e-01
<VARIANCE> 142
 4.834596e-02 1.053346e-02 1.044623e-02 5.018911e-03 4.749948e-03 1.917881e-02 8.704172e-03 8.733139e-03 2.316104e-03 4.550382e-03 1.517006e-02 5.916490e-03 5.702936e-03 1.306174e-02 1.921034e-02 5.800359e-03 3.219526e-03 5.903237e-03 1.116370e-02 1.055135e-02 1.138529e-02 1.414837e-02 1.222155e-02 1.048683e-02 5.214458e-03 2.807858e-03 1.119297e-02 1.001677e-02 7.708273e-03 1.030655e-02 3.241898e-03 6.361741e-03 2.310098e-02 9.639103e-03 1.000000e-03 7.949086e-03 9.024064e-03 5.613469e-03 1.186303e-02 4.539031e-03 1.679151e-02 3.387498e-03 8.439108e-03 2.175039e-02 4.180256e-03 7.230173e-03 1.078711e-02 5.770300e-03 8.481133e-03 9.596191e-03 5.622672e-03 7.298553e-03 9.142713e-03 4.583081e-03 1.175619e-02 9.589733e-03 2.563559e-02 7.347574e-03 1.227648e-02 1.111070e-02 1.266975e-02 6.655933e-03 5.361812e-03 5.149915e-03 2.205934e-02 8.598129e-03 1.149061e-02 8.359004e-03 9.061492e-03 4.861423e-03 3.547685e-03 1.928202e-02 5.644687e-03 3.933844e-03 9.424788e-03 1.054010e-02 4.572886e-03 1.754833e-02 5.928436e-03 7.807674e-03 1.583190e-02 5.130870e-03 7.888285e-03 8.981293e-03 6.209708e-03 1.231846e-02 1.439326e-03 2.368860e-03 2.674648e-03 9.042662e-03 1.146534e-02 1.546373e-02 2.277587e-02 8.626853e-03 8.868855e-03 1.255454e-02 4.448886e-03 8.482565e-03 6.499007e-03 3.226157e-03 3.078743e-03 1.297969e-02 6.940001e-03 8.659285e-03 1.026860e-02 9.231012e-03 1.143897e-02 8.278081e-03 1.389930e-02 1.051952e-02 7.427826e-03 6.733250e-03 4.827425e-03 1.094954e-02 5.047585e-03 5.623510e-03 1.112759e-02 6.090093e-03 1.678400e-02 1.257985e-02 1.490303e-03 8.193078e-03 1.495831e-02 1.567049e-02 1.284353e-02 3.667517e-03 9.405274e-03 3.001706e-02 1.577261e-02 9.511499e-03 3.049637e-03 1.068035e-02 3.059293e-02 1.002583e-02 1.799260e-02 4.589085e-03 5.671132e-03 1.084513e-02 3.964786e-03 7.799562e-03 1.241151e-02 9.683942e-03
<GCONST> -4.218076e+02
<TRANSP> 4
 0.000000e+00 1.000000e+00 0.000000e+00 0.000000e+00
 0.000000e+00 5.000000e-01 5.000000e-01 0.000000e+00
 0.000000e+00 0.000000e+00 5.000000e-01 5.000000e-01
 0.000000e+00 0.000000e+00 0.000000e+00 0.000000e+00
<ENDHMM>
