~o
<STREAMINFO> 1 142
<VECSIZE> 142<NULLD><USER><DIAGC>
~h "sad"
<BEGINHMM>
<NUMSTATES> 4
<STATE> 2
<MEAN> 142
 5.636196e-01 4.444147e-01 3.357991e-01 2.915736e-01 2.707755e-01 2.513792e-01 2.913544e-01 2.969222e-01 3.574185e-01 4.682115e-01 4.908466e-01 4.671913e-01 3.738440e-01 5.089350e-01 3.808561e-01 2.874005e-01 4.474246e-01 4.489820e-01 2.907546e-01 3.811163e-01 3.886290e-01 4.055571e-01 3.292229e-01 4.851985e-01 4.722848e-01 3.620289e-01 4.174847e-01 4.042695e-01 4.497867e-01 4.451796e-01 4.548498e-01 3.893515e-01 2.828865e-01 4.520897e-01 4.607181e-01 3.132395e-01 4.128506e-01 4.121421e-01 4.275787e-01 2.875393e-01 4.037763e-01 5.385592e-01 3.926378e-01 2.950042e-01 2.318408e-01 4.454869e-01 3.990770e-01 4.171238e-01 3.340027e-01 3.259692e-01 4.383633e-01 4.161987e-01 5.002617e-01 3.051555e-01 4.032786e-01 4.205332e-01 4.695335e-01 3.102141e-01 2.925743e-01 2.780670e-01 3.818134e-01 3.945839e-01 3.995725e-01 3.972781e-01 4.454344e-01 4.039054e-01 4.098301e-01 2.937918e-01 3.704109e-01 3.914257e-01 4.349856e-01 3.516332e-01 4.331029e-01 4.720688e-01 2.596221e-01 3.560828e-01 4.000214e-01 3.495494e-01 4.502209e-01 4.274899e-01 5.405472e-01 4.002249e-01 4.393879e-01 3.427643e-01 3.336810e-01 3.295667e-01 3.732735e-01 4.592382e-01 4.403306e-01 3.063258e-01 3.559614e-01 2.524987e-01 5.062388e-01 3.572005e-01 4.396688e-01 5.042989e-01 4.468136e-01 4.082950e-01 4.741103e-01 3.891290e-01 4.741562e-01 4.271332e-01 3.228428e-01 4.157864e-01 3.309729e-01 3.223346e-01 3.756007e-01 3.897428e-01 3.903178e-01 3.169790e-01 3.621742e-01 3.819466e-01 2.634028e-01 3.616179e-01 3.428667e-01 4.132761e-01 4.024876e-01 4.221950e-01 4.460897e-01 3.936827e-01 4.737880e-01 4.977022e-01 3.918509e-01 3.458908e-01 3.327168e-01 4.292021e-01 4.981082e-01 4.872970e-01 4.020709e-01 3.944800e-01 3.398480e-01 4.293826e-01 3.925111e-01 4.676233e-01 3.856654e-01 4.240299e-01 4.055526e-01 4.380178e-01 3.558995e-01 4.064791e-01 3.936824e-01 3.962103e-01
<VARIANCE> 142
 8.941580e-03 1.620311e-02 5.254130e-03 3.515620e-03 5.319841e-03 1.609678e-02 8.260280e-03 5.834399e-03 3.672440e-03 4.113033e-03 1.718513e-02 3.094963e-03 4.461801e-03 1.368533e-02 3.385969e-03 6.461909e-03 1.105285e-02 1.690638e-02 6.138902e-03 4.360834e-03 8.769221e-03 1.927671e-02 2.709922e-03 1.350232e-02 4.267931e-03 2.563976e-03 8.611763e-03 1.433091e-02 5.316425e-03 5.061733e-03 1.397530e-03 1.009987e-02 1.048407e-02 6.868337e-03 4.347207e-03 6.015960e-03 4.410647e-03 1.137241e-02 7.595192e-03 8.718810e-03 1.570611e-02 2.166665e-02 6.561799e-03 3.662248e-03 8.798182e-03 1.426962e-02 7.399299e-03 2.707167e-03 4.014255e-03 3.658407e-03 4.921995e-03 4.420994e-03 7.061876e-03 3.983586e-03 3.548894e-03 1.318288e-02 2.789065e-02 4.014974e-03 4.563785e-03 5.716152e-03 1.207193e-02 1.770979e-03 2.833073e-03 2.858866e-03 3.704441e-02 4.712831e-03 9.539693e-03 2.056492e-03 6.336614e-03 7.491680e-03 3.689527e-03 8.177808e-03 4.381248e-03 8.448799e-03 1.789172e-02 5.363942e-03 2.802824e-03 7.983555e-03 6.341499e-03 1.391990e-02 2.189479e-02 5.825317e-03 5.840562e-03 5.928567e-03 9.144953e-03 5.913442e-03 2.618790e-03 4.624120e-03 2.043419e-03 1.134426e-02 5.329896e-03 1.189489e-02 3.662674e-02 7.102413e-03 7.803909e-03 1.530911e-02 7.638576e-03 3.125874e-02 2.084845e-02 7.224673e-03 7.446990e-03 1.999791e-02 1.050844e-02 1.246677e-02 7.079361e-03 1.543809e-02 1.139152e-02 5.208107e-03 1.372140e-02 6.463964e-03 4.911641e-03 1.204616e-02 1.142739e-02 4.962879e-03 7.858650e-03 1.156497e-02 1.240407e-02 1.637323e-02 7.028878e-03 6.312915e-03 3.922495e-03 3.278428e-03 3.873722e-03 3.325100e-02 6.494070e-03 7.029766e-03 1.170975e-02 5.516556e-02 2.420370e-02 4.956715e-03 1.314890e-02 9.256803e-03 3.571777e-02 1.477914e-02 4.334526e-03 7.539541e-03 5.445998e-03 7.741204e-03 9.942992e-03 6.864428e-03 4.980575e-03 1.785645e-02
<GCONST> -4.323007e+02
<STATE> 3
<MEAN> 142
 6.686988e-01 4.237111e-01 3.809650e-01 3.442286e-01 3.277034e-01 3.324422e-01 4.068041e-01 3.190183e-01 3.155688e-01 3.990236e-01 4.326660e-01 4.975093e-01 4.032123e-01 4.293069e-01 2.947809e-01 3.678226e-01 4.188476e-01 4.009308e-01 2.922089e-01 3.938282e-01 4.178181e-01 3.926231e-01 3.831345e-01 4.160838e-01 4.306585e-01 3.680772e-01 3.980443e-01 4.314018e-01 3.811030e-01 3.772903e-01 4.376904e-01 4.574152e-01 4.894892e-01 4.132328e-01 4.543869e-01 3.613719e-01 3.244139e-01 3.094768e-01 3.393545e-01 3.505653e-01 3.304860e-01 4.210420e-01 3.292003e-01 3.639810e-01 2.969977e-01 5.018877e-01 4.211386e-01 3.980668e-01 3.357823e-01 3.239021e-01 4.830125e-01 3.816618e-01 4.189057e-01 2.864574e-01 5.339873e-01 3.953092e-01 3.964382e-01 3.114718e-01 3.246442e-01 3.116213e-01 4.397585e-01 4.508482e-01 4.310515e-01 4.183147e-01 4.264179e-01 4.909466e-01 3.072312e-01 3.694958e-01 4.565124e-01 3.795785e-01 4.851275e-01 4.813694e-01 4.231547e-01 4.235634e-01 3.367851e-01 3.908420e-01 5.114228e-01 4.244562e-01 4.231600e-01 4.001036e-01 4.654925e-01 3.488007e-01 3.527680e-01 3.954838e-01 3.736345e-01 4.729388e-01 4.031820e-01 4.686956e-01 4.363517e-01 3.882850e-01 4.189537e-01 3.781849e-01 4.696587e-01 4.082963e-01 4.134365e-01 4.850434e-01 4.476314e-01 3.311325e-01 4.364116e-01 3.981522e-01 3.714756e-01 4.546454e-01 3.316528e-01 3.365317e-01 2.748684e-01 2.849441e-01 3.733898e-01 3.538012e-01 3.824580e-01 3.652701e-01 3.988532e-01 4.055615e-01 3.813331e-01 3.331105e-01 4.097263e-01 4.508984e-01 3.589808e-01 3.752244e-01 4.625172e-01 4.215506e-01 3.822064e-01 5.402476e-01 4.679728e-01 4.849782e-01 4.653801e-01 4.483502e-01 4.577813e-01 3.709141e-01 4.302996e-01 4.151605e-01 4.063880e-01 3.804331e-01 4.350607e-01 3.768796e-01 3.535464e-01 3.816487e-01 4.921741e-01 3.755536e-01 3.643446e-01 4.048908e-01 4.663188e-01 5.227281e-01
<VARIANCE> 142
 3.416981e-02 2.721863e-02 4.446052e-03 9.852117e-03 2.173250e-02 1.701199e-02 2.962581e-02 1.004737e-02 2.560861e-03 7.884374e-03 8.052813e-03 8.643835e-03 6.823848e-03 5.110755e-03 1.179002e-02 1.503844e-02 6.870523e-03 6.154602e-03 7.402152e-03 7.463331e-03 8.134393e-03 1.146702e-02 5.379056e-03 8.959033e-03 3.748422e-03 7.766474e-03 6.725508e-03 1.815769e-02 5.185758e-03 1.706136e-02 4.126633e-03 3.023021e-03 2.333360e-02 7.238726e-03 4.691132e-03 9.544761e-03 6.769001e-03 1.485516e-02 2.242905e-02 2.775050e-02 9.698192e-03 1.773043e-02 1.739139e-02 1.245056e-02 3.197568e-02 1.111694e-02 4.431206e-03 1.792212e-02 8.991731e-03 3.533739e-03 2.629427e-03 1.089890e-02 1.051023e-02 1.178571e-02 7.978708e-03 2.182935e-02 1.230371e-02 1.402699e-02 3.572413e-03 1.377357e-02 2.629990e-02 5.589416e-03 1.402498e-02 9.864678e-03 1.346223e-02 3.604370e-03 1.289682e-02 7.749890e-03 5.961227e-03 1.883304e-02 8.383720e-03 2.169936e-02 5.589556e-03 5.697374e-03 1.731389e-02 1.037314e-02 5.393913e-03 2.390381e-02 3.521103e-03 2.275512e-02 7.696804e-03 7.978112e-03 5.387169e-03 7.215376e-03 2.390874e-02 7.955986e-03 3.556474e-03 3.332688e-03 2.125495e-03 3.110151e-02 1.433797e-02 2.515110e-02 1.126182e-02 9.313578e-03 9.751050e-03 4.953164e-03 8.408825e-03 9.828523e-03 3.321462e-02 3.596479e-03 9.897753e-03 4.796143e-03 3.624066e-03 2.810706e-02 2.840141e-03 6.686300e-03 4.247481e-03 1.659264e-02 4.687657e-03 2.720511e-02 1.831540e-02 1.837236e-02 4.940777e-02 2.072258e-02 1.382433e-02 1.314918e-02 2.569031e-02 1.474039e-02 1.441835e-02 3.637501e-03 5.394205e-03 5.163796e-03 7.460169e-03 2.476165e-02 3.067984e-02 7.465946e-03 1.058626e-02 1.885833e-02 3.063229e-02 1.456418e-02 2.454957e-02 1.269602e-02 1.572255e-02 8.204570e-03 9.677678e-03 1.297391e-02 2.499350e-02 1.264319e-02 3.312758e-02 8.795178e-03 7.329294e-03 2.030256e-02
<GCONST> -3.886269e+02
<TRANSP> 4
 0.000000e+00 1.000000e+00 0.000000e+00 0.000000e+00
 0.000000e+00 5.000000e-01 5.000000e-01 0.000000e+00
 0.000000e+00 0.000000e+00 5.000000e-01 5.000000e-01
 0.000000e+00 0.000000e+00 0.000000e+00 0.000000e+00
<ENDHMM>
