~o
<STREAMINFO> 1 142
<VECSIZE> 142<NULLD><USER><DIAGC>
~h "scream"
<BEGINHMM>
<NUMSTATES> 4
<STATE> 2
<MEAN> 142
 4.968374e-01 3.804153e-01 2.740323e-01 3.650017e-01 3.039099e-01 2.570712e-01 3.172297e-01 3.129008e-01 3.642723e-01 4.597807e-01 3.900771e-01 4.474703e-01 3.313459e-01 4.177626e-01 3.478903e-01 3.370933e-01 4.289793e-01 4.420940e-01 2.492325e-01 2.790345e-01 4.004426e-01 4.218791e-01 3.123164e-01 4.716745e-01 4.515620e-01 3.419032e-01 3.926355e-01 3.528754e-01 4.415507e-01 4.269541e-01 4.332158e-01 3.691408e-01 3.553740e-01 5.259541e-01 4.236702e-01 4.044153e-01 3.670592e-01 3.851970e-01 4.476323e-01 3.146111e-01 4.093920e-01 4.982869e-01 3.883213e-01 2.647476e-01 2.230894e-01 3.778484e-01 3.542277e-01 3.776199e-01 3.695993e-01 3.156230e-01 4.813165e-01 3.772615e-01 4.332294e-01 3.061309e-01 3.732335e-01 3.941468e-01 3.558705e-01 2.750461e-01 3.367816e-01 3.198476e-01 3.740374e-01 4.077017e-01 4.231295e-01 4.214342e-01 4.194499e-01 3.935990e-01 3.858307e-01 3.583217e-01 3.765821e-01 4.635516e-01 4.156099e-01 4.055719e-01 4.301490e-01 3.981380e-01 2.601229e-01 3.090851e-01 4.091695e-01 3.160524e-01 4.535504e-01 4.007986e-01 5.127266e-01 3.865499e-01 4.121570e-01 3.793441e-01 3.138326e-01 3.985869e-01 3.907789e-01 4.271800e-01 4.829851e-01 3.482867e-01 3.877993e-01 3.089221e-01 4.013582e-01 3.775848e-01 3.880863e-01 4.034226e-01 4.367173e-01 3.592175e-01 4.937522e-01 3.761428e-01 4.118745e-01 4.546050e-01 3.561780e-01 4.642727e-01 2.776855e-01 2.792390e-01 3.628115e-01 4.093448e-01 3.448012e-01 3.144768e-01 4.106520e-01 3.917925e-01 2.748408e-01 3.402457e-01 3.441487e-01 4.181906e-01 4.273115e-01 3.567557e-01 4.249043e-01 3.167133e-01 4.046671e-01 4.074308e-01 3.647328e-01 4.352883e-01 3.189752e-01 3.861569e-01 4.239804e-01 4.449326e-01 4.417753e-01 3.370679e-01 3.095091e-01 4.204817e-01 3.851595e-01 3.737056e-01 3.713505e-01 4.124651e-01 3.533207e-01 4.193143e-01 3.505323e-01 4.053421e-01 4.510323e-01 3.645605e-01
<VARIANCE> 142
 1.700690e-02 8.750886e-03 3.934781e-03 9.759433e-03 2.120208e-02 2.022330e-02 8.597779e-03 1.908960e-02 5.236540e-03 5.894294e-03 4.413687e-03 1.079539e-02 7.054682e-03 1.342543e-02 8.593524e-03 1.668172e-02 1.940924e-02 8.785248e-03 1.773751e-03 5.350794e-03 4.560269e-03 1.729381e-02 6.662063e-03 1.151854e-02 4.805992e-03 3.249714e-03 2.234414e-03 8.968268e-03 6.631639e-03 1.006211e-02 2.760292e-03 4.980613e-03 1.482571e-02 3.902068e-02 3.087545e-03 1.036140e-02 1.004722e-02 2.877795e-03 1.594724e-02 1.023110e-02 3.650215e-03 2.152481e-02 4.685783e-03 3.964568e-03 1.539993e-02 6.345827e-03 8.198095e-03 1.169121e-02 7.221000e-03 4.642021e-03 5.351905e-03 5.156581e-03 2.714370e-03 4.616673e-03 3.951356e-03 1.018743e-02 2.059457e-03 1.780662e-03 4.770947e-03 9.622243e-03 8.092799e-03 4.139493e-03 9.823953e-03 3.595181e-03 7.956010e-03 5.514188e-03 6.763144e-03 4.537418e-03 9.875844e-03 4.894676e-03 4.802010e-03 3.725303e-02 5.640115e-03 3.843575e-03 1.611741e-02 8.301150e-03 6.947314e-03 2.849337e-02 7.870866e-03 2.477279e-02 1.030287e-02 8.916136e-03 4.813817e-03 5.486197e-03 9.162333e-03 2.238712e-02 5.200918e-03 9.544850e-03 4.936002e-03 1.819685e-02 1.015853e-02 2.977283e-02 8.375257e-03 1.558656e-02 5.279039e-03 6.984280e-03 5.310881e-03 3.073768e-03 3.320265e-02 1.783681e-03 1.673782e-02 8.185576e-03 9.445944e-03 8.451645e-03 2.319872e-03 7.719259e-03 9.656659e-03 7.376186e-03 1.198682e-02 7.121574e-03 4.538560e-03 1.888979e-02 9.482488e-03 1.639433e-02 4.895533e-03 1.699673e-02 1.370460e-02 1.244095e-02 6.459552e-03 3.465033e-03 1.379622e-02 5.451772e-03 9.782551e-03 6.804606e-02 5.501891e-03 3.598557e-03 1.183855e-02 4.602824e-03 6.530257e-03 5.876658e-03 1.595395e-02 1.007299e-02 2.988638e-02 6.277900e-03 8.557158e-03 1.541277e-02 1.783002e-02 8.156023e-03 1.587316e-02 1.516642e-02 1.317528e-02 1.054820e-02
<GCONST> -4.221658e+02
<STATE> 3
<MEAN> 142
 5.779924e-01 3.447815e-01 3.736503e-01 3.519612e-01 3.065704e-01 2.840998e-01 3.909217e-01 3.736770e-01 3.411697e-01 4.096949e-01 4.296001e-01 4.189186e-01 3.623801e-01 4.190109e-01 3.686790e-01 3.510815e-01 4.323729e-01 3.966146e-01 3.239023e-01 3.575304e-01 4.562132e-01 5.089803e-01 3.857488e-01 4.818677e-01 4.780340e-01 3.592842e-01 4.062416e-01 3.669071e-01 4.303050e-01 3.594086e-01 4.564387e-01 3.806092e-01 4.203290e-01 5.102087e-01 4.615603e-01 3.820373e-01 3.464344e-01 3.113665e-01 4.119471e-01 4.112646e-01 3.567924e-01 4.647574e-01 3.348641e-01 3.136159e-01 2.292478e-01 3.889490e-01 4.094068e-01 4.302695e-01 3.956513e-01 3.256398e-01 4.318910e-01 4.041921e-01 4.123634e-01 2.725023e-01 4.066806e-01 3.949449e-01 3.849332e-01 3.394879e-01 3.604558e-01 3.144571e-01 4.310844e-01 4.093787e-01 3.431726e-01 3.710055e-01 3.548542e-01 4.318951e-01 3.641877e-01 4.233467e-01 4.082252e-01 3.829284e-01 4.587699e-01 3.910098e-01 3.940810e-01 4.498076e-01 3.132010e-01 3.304245e-01 4.494406e-01 3.787910e-01 4.922521e-01 4.443372e-01 4.347626e-01 3.446112e-01 3.939625e-01 4.192938e-01 3.042248e-01 3.550855e-01 3.882211e-01 4.223878e-01 4.538016e-01 3.620026e-01 3.273989e-01 3.437466e-01 4.327691e-01 3.378880e-01 4.267725e-01 4.230057e-01 4.590614e-01 3.214405e-01 4.691923e-01 4.379762e-01 4.038402e-01 4.615754e-01 3.173941e-01 3.504905e-01 3.214694e-01 3.098486e-01 3.331564e-01 3.814739e-01 3.468447e-01 4.177445e-01 3.489256e-01 3.382849e-01 3.217337e-01 3.479845e-01 3.226218e-01 3.560055e-01 3.847496e-01 4.293544e-01 4.037991e-01 3.665401e-01 3.864342e-01 4.394636e-01 4.132083e-01 3.659512e-01 4.553426e-01 4.183873e-01 4.032553e-01 3.633755e-01 3.448245e-01 4.256339e-01 4.221718e-01 3.670825e-01 3.341841e-01 4.187596e-01 3.616020e-01 4.195814e-01 4.555093e-01 4.129902e-01 4.627877e-01 3.934464e-01 4.165081e-01 4.341536e-01
<VARIANCE> 142
 3.698725e-02 2.798279e-03 4.383650e-03 1.287756e-02 1.505232e-02 2.585441e-02 1.835643e-02 5.539996e-03 3.222552e-03 1.297753e-02 3.818169e-03 5.166199e-03 5.873201e-03 5.251369e-03 1.367225e-02 7.227745e-03 4.623820e-03 1.088899e-02 5.822357e-03 9.270799e-03 6.932045e-03 1.141025e-02 5.377361e-03 9.766125e-03 6.021657e-03 2.483344e-03 2.607841e-03 4.698079e-03 7.317412e-03 6.813222e-03 1.917233e-03 3.573624e-03 1.425521e-02 1.753251e-02 8.996880e-03 1.109199e-02 9.052488e-03 7.293114e-03 2.154263e-02 2.276007e-02 2.106834e-03 1.665138e-02 1.015949e-02 6.515848e-03 1.991679e-02 7.546583e-03 6.085480e-03 1.084495e-02 5.112874e-03 3.557276e-03 4.078354e-03 4.227113e-03 5.449615e-03 5.060923e-03 1.101543e-02 6.604456e-03 1.075697e-02 7.664962e-03 4.950379e-03 6.959652e-03 1.960399e-02 8.735474e-03 4.263347e-03 3.806463e-03 2.935889e-03 8.300583e-03 6.115483e-03 7.817805e-03 9.673652e-03 3.382011e-03 6.408005e-03 2.709974e-02 6.257426e-03 5.673924e-03 1.717917e-02 8.107328e-03 5.799370e-03 1.573436e-02 1.096032e-02 1.848581e-02 3.808314e-03 2.596393e-03 7.187699e-03 4.632612e-03 1.253405e-02 2.158334e-02 4.447682e-03 3.536780e-03 1.843079e-03 1.970013e-02 8.905563e-03 2.021996e-02 1.478097e-02 7.146929e-03 6.594640e-03 9.454240e-03 7.128921e-03 4.773644e-03 1.927343e-02 8.470501e-03 8.184844e-03 6.917157e-03 3.498700e-03 8.581420e-03 4.748179e-03 7.902085e-03 7.327653e-03 1.373713e-02 3.881735e-03 1.282244e-02 7.325394e-03 7.107623e-03 9.035848e-03 1.402174e-02 9.899047e-03 6.539349e-03 1.210419e-02 1.511084e-02 5.681634e-03 4.595994e-03 5.142588e-03 1.086413e-02 1.351839e-02 3.379873e-02 9.755310e-03 6.411503e-03 5.396758e-03 3.674130e-03 1.269161e-02 3.503690e-03 1.889076e-02 5.877006e-03 1.559824e-02 8.263168e-03 8.889845e-03 9.282867e-03 2.646589e-02 1.071190e-02 4.147013e-02 6.629765e-03 1.329705e-02 1.216535e-02
<GCONST> -4.251417e+02
<TRANSP> 4
 0.000000e+00 1.000000e+00 0.000000e+00 0.000000e+00
 0.000000e+00 5.000000e-01 5.000000e-01 0.000000e+00
 0.000000e+00 0.000000e+00 5.000000e-01 5.000000e-01
 0.000000e+00 0.000000e+00 0.000000e+00 0.000000e+00
<ENDHMM>
