~o
<STREAMINFO> 1 142
<VECSIZE> 142<NULLD><USER><DIAGC>
~h "shower"
<BEGINHMM>
<NUMSTATES> 4
<STATE> 2
<MEAN> 142
 5.084673e-01 3.725537e-01 3.986944e-01 4.488465e-01 4.107460e-01 2.786003e-01 3.570917e-01 3.269022e-01 3.592125e-01 4.616834e-01 5.053506e-01 3.750658e-01 3.115148e-01 4.416083e-01 3.585064e-01 4.194471e-01 4.026501e-01 3.298123e-01 3.078462e-01 2.714531e-01 4.827889e-01 5.036891e-01 3.472334e-01 4.674290e-01 4.954782e-01 3.393587e-01 4.814829e-01 3.887452e-01 4.251697e-01 3.755422e-01 4.978911e-01 4.333282e-01 3.649549e-01 5.469943e-01 4.501168e-01 4.118176e-01 4.398363e-01 3.347235e-01 4.598065e-01 3.729551e-01 3.988423e-01 5.056179e-01 4.079987e-01 2.795327e-01 2.257648e-01 3.979563e-01 4.551102e-01 4.025984e-01 4.638986e-01 3.597022e-01 5.346911e-01 3.395145e-01 4.073159e-01 2.871673e-01 3.686071e-01 4.010979e-01 4.462157e-01 3.527317e-01 3.451344e-01 4.272484e-01 3.861018e-01 4.397271e-01 3.855200e-01 3.955658e-01 3.812885e-01 5.058824e-01 3.474439e-01 4.501166e-01 4.113936e-01 3.978260e-01 3.946953e-01 3.475930e-01 4.336150e-01 3.558069e-01 2.897356e-01 3.382528e-01 4.104497e-01 4.263324e-01 4.952133e-01 5.156272e-01 4.709633e-01 3.595200e-01 3.914047e-01 4.660795e-01 3.586576e-01 3.765472e-01 3.681998e-01 4.063146e-01 4.905050e-01 3.647299e-01 3.019700e-01 3.395408e-01 3.722405e-01 3.060406e-01 4.731816e-01 4.141535e-01 4.129193e-01 2.744694e-01 5.124789e-01 4.126208e-01 3.993711e-01 4.947129e-01 3.190349e-01 3.859705e-01 3.427675e-01 3.274313e-01 3.368422e-01 3.924370e-01 3.973460e-01 4.149520e-01 3.723399e-01 3.459981e-01 3.793315e-01 4.458154e-01 3.500395e-01 3.648986e-01 4.015029e-01 4.471173e-01 4.099957e-01 3.765820e-01 4.161745e-01 4.505703e-01 4.198631e-01 3.332781e-01 3.666350e-01 4.188810e-01 3.808078e-01 3.685834e-01 3.784288e-01 3.590636e-01 3.826526e-01 3.964635e-01 3.063325e-01 3.821784e-01 4.006494e-01 4.735076e-01 3.915821e-01 4.320508e-01 4.058843e-01 4.763704e-01 4.777017e-01 3.904958e-01
<VARIANCE> 142
 1.255178e-02 1.356600e-02 1.286412e-02 2.189635e-02 1.625958e-02 1.742076e-02 2.146505e-02 6.303438e-03 7.549903e-03 3.800839e-03 1.780090e-02 1.611969e-02 9.363805e-03 1.854701e-02 9.039640e-03 1.774978e-02 1.307240e-02 7.575544e-03 8.129445e-03 7.340877e-03 1.558980e-02 1.933411e-02 6.577934e-03 4.184682e-03 5.051297e-03 2.509149e-03 1.529685e-02 1.242062e-02 4.171834e-03 1.430934e-02 7.013503e-03 7.829362e-03 1.268728e-02 2.919995e-02 3.591660e-03 1.806428e-02 1.600556e-02 2.159903e-02 1.214678e-02 2.179648e-02 1.569936e-02 1.546877e-02 1.009902e-02 4.561035e-03 2.036618e-02 1.492329e-02 2.215829e-02 5.099080e-03 1.606529e-02 1.333398e-02 1.274232e-02 1.008134e-02 2.709354e-03 3.638794e-03 1.100968e-02 1.451655e-02 1.193027e-02 6.239933e-03 4.636969e-03 5.327317e-02 1.567467e-02 6.130806e-03 6.036164e-03 1.296534e-02 1.350001e-02 3.067309e-02 1.554001e-02 1.844137e-02 7.866165e-03 1.163004e-02 7.048807e-03 5.852924e-03 9.360194e-03 4.571735e-03 1.863380e-02 8.733247e-03 5.953016e-03 1.475924e-02 4.372391e-03 8.294946e-03 4.732060e-03 7.978392e-03 7.125336e-03 1.420519e-02 1.750906e-02 1.162989e-02 2.995074e-03 6.653358e-03 5.945939e-03 9.773392e-03 1.158135e-02 1.335203e-02 7.034126e-03 1.447778e-02 6.597778e-03 8.733316e-03 2.596602e-03 1.277909e-02 4.023842e-03 6.798847e-03 7.197954e-03 1.164029e-02 5.191538e-03 1.030565e-02 7.853143e-03 5.435503e-03 1.341536e-02 4.246564e-03 2.534153e-02 2.064919e-02 5.740908e-03 1.161475e-02 2.538989e-02 8.184915e-03 7.288496e-03 9.072034e-03 9.516472e-03 5.292373e-03 1.461870e-02 1.047286e-02 2.984103e-03 1.936131e-02 1.029202e-02 1.304555e-02 6.800586e-03 6.072165e-03 6.740003e-03 2.040901e-02 2.055298e-02 9.815218e-03 1.664688e-02 8.188661e-03 1.608937e-02 5.794897e-03 6.617310e-03 1.667002e-02 1.067032e-02 6.390329e-03 1.823772e-02 1.147186e-02 2.379057e-02 1.157652e-02
<GCONST> -3.927696e+02
<STATE> 3
<MEAN> 142
 6.271614e-01 3.278973e-01 3.878635e-01 3.420526e-01 3.218439e-01 3.660941e-01 3.585986e-01 3.250932e-01 4.180163e-01 4.047852e-01 4.887411e-01 4.950502e-01 4.211628e-01 4.969290e-01 2.439481e-01 2.985552e-01 3.438261e-01 3.905426e-01 3.676294e-01 4.028352e-01 4.670553e-01 4.436106e-01 4.144662e-01 4.064008e-01 4.905203e-01 4.096956e-01 4.159744e-01 3.881460e-01 4.291348e-01 4.116881e-01 4.642861e-01 4.181012e-01 3.943540e-01 4.760661e-01 4.321177e-01 3.077215e-01 3.030920e-01 3.735217e-01 3.740118e-01 3.167586e-01 3.825141e-01 4.313885e-01 3.799692e-01 3.434980e-01 2.128608e-01 3.775176e-01 4.307805e-01 3.977499e-01 3.733311e-01 3.937123e-01 5.028146e-01 4.343530e-01 4.556731e-01 3.165540e-01 4.478352e-01 4.299209e-01 4.894490e-01 3.743906e-01 4.019752e-01 3.234020e-01 4.642747e-01 4.407762e-01 4.031512e-01 4.380440e-01 4.486392e-01 4.349279e-01 3.828273e-01 4.138880e-01 4.353086e-01 4.154240e-01 4.760862e-01 4.844398e-01 3.936265e-01 4.432333e-01 3.742641e-01 4.054851e-01 4.739399e-01 4.212011e-01 4.862593e-01 4.187965e-01 4.973712e-01 3.204930e-01 4.088433e-01 4.657572e-01 3.059499e-01 3.842066e-01 4.188201e-01 4.795203e-01 5.139333e-01 3.404087e-01 3.964541e-01 3.232419e-01 4.339906e-01 4.136424e-01 3.936787e-01 4.982812e-01 4.010306e-01 3.585000e-01 4.336185e-01 4.696984e-01 4.092720e-01 4.643710e-01 4.015717e-01 4.335685e-01 3.176263e-01 3.229112e-01 4.187680e-01 4.166127e-01 4.313675e-01 3.432569e-01 4.309371e-01 3.938254e-01 3.036376e-01 3.136301e-01 4.006478e-01 4.687586e-01 4.526626e-01 3.980245e-01 4.535285e-01 4.188423e-01 4.065519e-01 4.920024e-01 4.813048e-01 3.951508e-01 4.128407e-01 3.817742e-01 4.175053e-01 4.212607e-01 4.073918e-01 4.304138e-01 3.777955e-01 3.844236e-01 4.541979e-01 4.613687e-01 3.472406e-01 3.922551e-01 4.025263e-01 3.497426e-01 3.595001e-01 3.384061e-01 4.528794e-01 4.496631e-01
<VARIANCE> 142
 4.585836e-02 8.717037e-03 8.661184e-03 4.226074e-03 4.516636e-03 2.360143e-02 1.253124e-02 5.964127e-03 1.686127e-02 6.558003e-03 1.556183e-02 1.040709e-02 9.393836e-03 1.918939e-02 1.095248e-02 6.109967e-03 4.348870e-03 8.379340e-03 1.190238e-02 2.142098e-02 1.134611e-02 1.275039e-02 1.464515e-02 2.891028e-03 4.490142e-03 1.117900e-02 9.565999e-03 7.171272e-03 5.840606e-03 7.967962e-03 6.709802e-03 8.068501e-03 2.930088e-02 5.810008e-03 2.006717e-03 1.494416e-02 1.090205e-02 2.835909e-02 8.415708e-03 9.206153e-03 1.932681e-02 1.206649e-02 1.380840e-02 1.963251e-02 6.531499e-03 1.836209e-02 5.147744e-03 9.126796e-03 5.965941e-03 7.975024e-03 7.126925e-03 2.742741e-02 9.332329e-03 9.779657e-03 1.124412e-02 5.132355e-03 1.109635e-02 1.036932e-02 8.701310e-03 1.148119e-02 1.388536e-02 5.126760e-03 1.281233e-03 3.977878e-03 2.803908e-02 1.485283e-02 2.157007e-02 7.348608e-03 6.796575e-03 1.450513e-02 7.637281e-03 1.467973e-02 8.170044e-03 4.368570e-03 1.395549e-02 1.245911e-02 6.579018e-03 4.699487e-03 8.487261e-03 7.133347e-03 1.153305e-02 5.966234e-03 9.777032e-03 9.256382e-03 6.690914e-03 3.200308e-02 8.246131e-03 7.460370e-03 6.406748e-03 7.702588e-03 7.928078e-03 1.808215e-02 1.300204e-02 9.801155e-03 3.664426e-03 9.311160e-03 4.005169e-03 2.339923e-02 7.614140e-03 1.586893e-02 1.167223e-02 6.963843e-03 8.831899e-03 1.790531e-02 5.734103e-03 3.822814e-03 6.491760e-03 1.486251e-02 1.405776e-02 6.144682e-03 4.477754e-03 3.618415e-03 4.232347e-03 6.921130e-03 4.083979e-03 1.183586e-02 1.015319e-02 4.289664e-03 7.324819e-03 1.000851e-02 6.157028e-03 1.951204e-02 7.872242e-03 2.611041e-02 1.161484e-02 6.885218e-03 1.040041e-02 2.159985e-02 1.746847e-02 1.731806e-02 7.452642e-03 6.849565e-03 2.427254e-02 9.470261e-03 8.653586e-03 6.752700e-03 1.612996e-02 4.550017e-03 1.423976e-02 5.567108e-03 6.090518e-03 1.205337e-02
<GCONST> -4.038743e+02
<TRANSP> 4
 0.000000e+00 1.000000e+00 0.000000e+00 0.000000e+00
 0.000000e+00 5.000000e-01 5.000000e-01 0.000000e+00
 0.000000e+00 0.000000e+00 5.000000e-01 5.000000e-01
 0.000000e+00 0.000000e+00 0.000000e+00 0.000000e+00
<ENDHMM>
