~o
<STREAMINFO> 1 142
<VECSIZE> 142<NULLD><USER><DIAGC>
~h "sister"
<BEGINHMM>
<NUMSTATES> 4
<STATE> 2
<MEAN> 142
 5.598611e-01 3.809687e-01 2.979993e-01 2.603235e-01 2.740305e-01 2.041190e-01 2.940211e-01 2.942045e-01 3.456113e-01 4.096160e-01 3.774172e-01 3.812123e-01 3.221983e-01 4.255415e-01 3.676058e-01 3.203928e-01 4.688425e-01 3.461206e-01 2.212798e-01 3.330044e-01 4.473522e-01 4.370472e-01 3.037224e-01 4.902952e-01 4.533463e-01 3.739406e-01 3.816245e-01 3.507476e-01 3.883421e-01 3.578100e-01 4.562173e-01 4.635553e-01 3.170816e-01 4.610070e-01 4.246825e-01 3.184633e-01 3.648722e-01 3.549237e-01 3.356090e-01 3.104751e-01 2.924210e-01 4.946624e-01 3.089761e-01 2.662905e-01 1.829488e-01 4.258721e-01 4.810164e-01 3.662440e-01 4.202134e-01 3.134650e-01 4.144259e-01 3.358306e-01 3.903946e-01 2.969830e-01 4.310526e-01 3.448256e-01 3.205608e-01 2.294001e-01 2.443783e-01 2.512157e-01 3.112206e-01 3.898695e-01 3.585902e-01 3.847156e-01 3.153127e-01 4.558580e-01 3.230818e-01 3.156899e-01 3.555237e-01 3.343597e-01 4.474350e-01 3.805557e-01 4.570541e-01 3.977851e-01 1.969935e-01 3.758574e-01 4.130880e-01 4.326621e-01 4.494984e-01 3.646127e-01 3.968201e-01 3.919562e-01 3.365833e-01 3.937161e-01 3.126961e-01 4.455515e-01 4.129188e-01 3.772482e-01 4.681642e-01 2.522959e-01 2.725962e-01 2.376373e-01 3.833763e-01 3.061301e-01 4.336963e-01 3.668869e-01 3.963332e-01 2.452539e-01 4.390526e-01 4.269519e-01 3.729111e-01 5.150894e-01 3.458638e-01 2.905642e-01 2.812890e-01 3.282902e-01 2.638988e-01 3.653624e-01 3.038099e-01 3.835236e-01 3.271669e-01 2.995090e-01 3.020786e-01 3.246993e-01 3.083244e-01 3.735211e-01 2.995372e-01 4.688204e-01 3.435173e-01 4.486275e-01 4.731777e-01 5.264984e-01 4.380410e-01 2.549061e-01 2.947334e-01 3.850183e-01 3.773478e-01 2.696466e-01 2.496283e-01 3.447914e-01 3.641911e-01 3.860931e-01 2.740130e-01 4.049898e-01 3.474261e-01 3.853546e-01 3.944359e-01 4.549033e-01 3.669472e-01 4.308881e-01 4.217884e-01 5.106664e-01
<VARIANCE> 142
 9.444012e-03 9.306777e-03 3.235398e-03 2.077981e-03 9.852241e-03 4.369501e-03 1.603501e-03 9.664100e-03 5.113974e-03 3.555750e-03 2.950323e-03 4.941842e-03 2.716678e-03 8.582626e-03 7.042724e-03 8.510452e-03 1.271408e-02 8.125128e-03 2.121754e-03 1.031597e-03 4.301793e-03 7.582990e-03 1.000000e-03 2.888186e-03 3.275970e-03 2.402456e-03 1.404033e-02 5.649474e-03 1.348894e-02 1.456253e-02 1.000000e-03 4.849784e-03 4.308237e-03 1.769389e-03 3.945888e-03 8.694366e-03 4.821913e-03 2.642163e-02 1.023779e-02 4.111605e-02 1.592241e-02 1.475339e-02 3.607442e-03 3.611522e-03 1.000000e-03 3.695952e-03 6.286136e-03 8.758827e-03 8.257926e-03 7.621673e-03 3.704320e-03 1.088099e-02 8.437600e-03 8.633682e-03 8.038282e-03 4.323096e-03 7.569084e-03 4.077386e-03 3.790972e-03 1.022406e-02 4.533123e-03 4.913865e-03 3.981303e-03 6.843531e-03 5.712226e-03 3.626526e-03 1.607467e-02 1.025856e-02 2.976176e-03 9.450626e-03 6.296553e-03 7.644252e-03 7.776598e-03 6.927114e-03 1.726293e-03 9.754938e-03 7.336225e-03 1.074697e-02 3.234926e-03 2.892227e-03 5.051016e-03 3.604698e-03 5.867397e-03 3.432472e-03 2.523839e-03 1.376889e-02 1.000000e-03 5.879164e-03 1.321970e-03 1.769290e-03 6.300610e-03 5.661227e-03 6.703600e-03 6.473425e-03 9.209385e-03 6.900075e-03 2.664578e-03 1.312049e-02 1.193048e-02 1.983906e-03 2.807933e-03 9.363397e-03 6.953587e-03 1.444257e-02 3.255961e-03 2.658728e-03 4.086429e-03 1.212771e-02 4.710008e-03 1.090505e-02 4.776123e-03 1.187484e-02 1.092356e-02 2.179440e-03 8.819581e-03 2.909088e-03 1.139166e-02 1.824309e-03 5.204985e-03 6.215937e-03 3.402534e-03 6.610969e-03 3.241483e-03 8.477652e-03 1.154672e-03 2.148581e-03 7.320618e-03 1.224529e-02 9.637784e-03 8.946115e-03 1.173274e-02 9.191608e-03 1.692344e-02 6.415745e-03 1.611192e-03 3.841401e-03 2.512411e-03 4.353588e-03 4.702089e-02 1.785389e-03 3.060840e-03 1.265460e-02
<GCONST> -4.801338e+02
<STATE> 3
<MEAN> 142
 6.578192e-01 3.116216e-01 3.047069e-01 3.273917e-01 2.908616e-01 1.691772e-01 3.434868e-01 2.984523e-01 3.472807e-01 3.371361e-01 3.901833e-01 3.482923e-01 4.186521e-01 3.838198e-01 1.956650e-01 3.131997e-01 3.610702e-01 3.695711e-01 2.347700e-01 3.849371e-01 4.081152e-01 4.608290e-01 3.343242e-01 4.173092e-01 4.613649e-01 3.436227e-01 3.328999e-01 2.830749e-01 3.811358e-01 3.303964e-01 4.238421e-01 4.684946e-01 3.502432e-01 3.872453e-01 3.907385e-01 3.258267e-01 3.611687e-01 2.684267e-01 2.866038e-01 2.009960e-01 2.420436e-01 4.366994e-01 2.744199e-01 2.748855e-01 1.649191e-01 3.593503e-01 4.909792e-01 3.437355e-01 3.746449e-01 2.637863e-01 4.582515e-01 3.595566e-01 3.716223e-01 2.976102e-01 4.233072e-01 3.392882e-01 3.742103e-01 2.334774e-01 2.269770e-01 2.360105e-01 3.334198e-01 3.989912e-01 4.145861e-01 3.426855e-01 3.549551e-01 5.429673e-01 3.130836e-01 3.169321e-01 3.836409e-01 2.748243e-01 4.559196e-01 3.615207e-01 4.025110e-01 3.833946e-01 2.337458e-01 3.101870e-01 4.259628e-01 5.490043e-01 4.330139e-01 4.479541e-01 3.904386e-01 3.619249e-01 2.281972e-01 3.431622e-01 2.633735e-01 4.235714e-01 3.687646e-01 3.869374e-01 3.756416e-01 1.359446e-01 2.905171e-01 2.045730e-01 3.631110e-01 2.901118e-01 4.231799e-01 4.642205e-01 3.622980e-01 2.759980e-01 4.500569e-01 4.401426e-01 3.644180e-01 5.029440e-01 3.627840e-01 2.981541e-01 2.478231e-01 3.222273e-01 3.052521e-01 3.508758e-01 3.401000e-01 2.767036e-01 3.348565e-01 2.036058e-01 3.760508e-01 2.487705e-01 2.839465e-01 4.012418e-01 2.308559e-01 4.640578e-01 3.367087e-01 5.260658e-01 4.883792e-01 5.513033e-01 4.851281e-01 2.524707e-01 3.341830e-01 4.009191e-01 3.283104e-01 2.964730e-01 2.656333e-01 3.297401e-01 3.696964e-01 4.093740e-01 3.025454e-01 3.903952e-01 3.126759e-01 4.297021e-01 3.664975e-01 3.557338e-01 2.958400e-01 2.831562e-01 4.946212e-01 4.959680e-01
<VARIANCE> 142
 5.403709e-03 2.497812e-03 1.000000e-03 4.705181e-03 1.584395e-02 1.000000e-03 1.000000e-03 2.933277e-03 1.739592e-03 9.162314e-03 1.000000e-03 7.056557e-03 1.922783e-02 2.382515e-03 7.920272e-03 9.752770e-03 3.765181e-03 1.771160e-03 1.000000e-03 2.342488e-02 1.617581e-03 1.202054e-03 3.445272e-03 2.355454e-03 2.207448e-03 2.970980e-03 2.871670e-03 1.608151e-03 4.533079e-03 2.844009e-03 1.006457e-03 1.215636e-03 3.814823e-03 2.132464e-03 1.000000e-03 3.143236e-03 1.017235e-02 4.882836e-03 1.238566e-02 7.754778e-03 3.816949e-03 1.430511e-02 2.249551e-03 1.000000e-03 4.198893e-03 1.341704e-03 1.000000e-03 2.989680e-03 1.637769e-03 2.041079e-03 4.689603e-03 8.667871e-03 2.229199e-03 1.759626e-03 2.390408e-03 1.000000e-03 1.718447e-03 1.205333e-03 3.495727e-03 3.363258e-03 1.000000e-03 1.000000e-03 2.222507e-03 1.273663e-03 2.251166e-03 2.162698e-03 6.281721e-03 2.097540e-03 1.000000e-03 3.770695e-03 1.000000e-03 7.392750e-03 1.011871e-02 1.177005e-03 1.798005e-03 2.729383e-03 6.306148e-03 1.350490e-02 1.527954e-03 2.542816e-03 1.000000e-03 1.042440e-03 3.670297e-03 1.690366e-03 1.064582e-03 2.576139e-03 1.000000e-03 1.000000e-03 5.812710e-03 2.702358e-03 1.171088e-03 1.000000e-03 1.061084e-03 1.975534e-03 3.744281e-03 5.902197e-03 1.000000e-03 2.419934e-03 4.354695e-03 2.000407e-03 1.027119e-03 4.186255e-03 8.025538e-03 4.158360e-03 1.850306e-03 1.000000e-03 1.121877e-03 5.810012e-03 2.845673e-03 3.496493e-03 2.669339e-03 6.775637e-03 5.437766e-03 5.744253e-03 2.665383e-03 7.192045e-03 2.239839e-03 2.714854e-03 1.080649e-03 1.973715e-02 1.000000e-03 2.566888e-03 5.908208e-03 1.471699e-03 2.849172e-03 1.000000e-03 2.369232e-03 3.140413e-03 5.183353e-03 1.172422e-03 3.487139e-03 3.378559e-03 3.079797e-03 1.464819e-02 1.000000e-03 9.150201e-03 3.503425e-03 5.501606e-03 7.907649e-03 4.626232e-03 3.453936e-03 1.964980e-03
<GCONST> -5.754634e+02
<TRANSP> 4
 0.000000e+00 1.000000e+00 0.000000e+00 0.000000e+00
 0.000000e+00 5.000000e-01 5.000000e-01 0.000000e+00
 0.000000e+00 0.000000e+00 5.000000e-01 5.000000e-01
 0.000000e+00 0.000000e+00 0.000000e+00 0.000000e+00
<ENDHMM>
