~o
<STREAMINFO> 1 142
<VECSIZE> 142<NULLD><USER><DIAGC>
~h "sky"
<BEGINHMM>
<NUMSTATES> 4
<STATE> 2
<MEAN> 142
 4.560705e-01 4.285694e-01 3.581682e-01 3.346550e-01 3.161734e-01 3.359282e-01 2.977450e-01 3.133658e-01 4.876678e-01 4.610816e-01 3.974935e-01 4.730551e-01 4.012351e-01 4.198296e-01 3.219473e-01 2.901615e-01 4.089032e-01 4.479193e-01 4.142386e-01 3.962599e-01 4.895226e-01 4.450538e-01 4.316639e-01 4.262276e-01 4.891609e-01 4.218401e-01 3.586712e-01 3.741359e-01 4.652412e-01 5.339636e-01 4.473654e-01 3.887334e-01 2.977005e-01 4.811227e-01 4.181600e-01 3.886207e-01 3.373446e-01 4.307303e-01 4.211186e-01 3.739968e-01 4.746247e-01 4.408916e-01 4.964423e-01 3.695527e-01 2.197329e-01 3.847780e-01 3.788703e-01 4.336530e-01 3.545174e-01 4.601060e-01 5.006755e-01 4.974290e-01 4.413572e-01 3.478803e-01 4.120217e-01 4.757849e-01 3.938819e-01 3.866342e-01 4.110975e-01 2.865595e-01 3.618901e-01 4.234172e-01 4.215322e-01 4.728951e-01 5.113991e-01 4.169801e-01 4.567330e-01 3.665545e-01 3.675918e-01 5.037978e-01 4.877656e-01 4.130989e-01 2.850356e-01 3.606736e-01 2.963213e-01 3.955163e-01 3.507397e-01 4.452026e-01 5.278867e-01 4.328547e-01 5.150275e-01 4.034829e-01 3.813298e-01 4.020570e-01 3.662047e-01 2.841948e-01 4.359559e-01 4.455128e-01 4.615063e-01 3.545219e-01 4.831257e-01 2.007848e-01 4.456329e-01 4.633729e-01 4.416023e-01 4.918168e-01 4.194925e-01 4.085533e-01 4.781043e-01 5.442557e-01 4.746331e-01 4.415106e-01 3.837669e-01 5.575286e-01 2.700473e-01 3.021024e-01 4.374999e-01 5.615981e-01 3.601479e-01 3.379375e-01 4.730692e-01 4.562693e-01 3.565730e-01 4.128931e-01 3.665915e-01 4.056204e-01 4.776630e-01 3.878506e-01 5.779694e-01 4.599057e-01 4.580501e-01 3.766505e-01 4.377691e-01 4.136629e-01 3.880099e-01 4.073847e-01 4.806272e-01 4.426793e-01 5.272275e-01 3.899887e-01 3.878790e-01 4.535129e-01 3.706262e-01 4.441374e-01 4.973588e-01 4.453190e-01 3.963422e-01 4.295196e-01 4.301871e-01 3.992596e-01 4.214232e-01 3.797932e-01
<VARIANCE> 142
 8.689160e-03 1.093937e-02 1.421819e-02 3.545698e-03 2.127012e-03 2.777802e-02 5.855949e-03 1.024834e-02 1.843451e-02 3.434927e-03 1.312458e-02 3.340981e-03 1.247071e-02 1.533953e-02 1.426746e-02 1.385270e-03 4.523693e-03 1.812586e-03 3.323746e-02 2.448113e-02 1.737725e-02 6.770262e-03 2.884447e-02 4.808872e-03 1.881871e-03 7.944850e-03 1.179402e-02 9.082170e-03 4.839194e-03 6.860408e-03 1.878133e-03 1.509180e-03 7.993557e-03 9.630172e-03 1.732872e-03 7.402299e-03 1.219282e-02 3.662017e-02 4.239141e-03 6.245561e-03 7.035081e-03 1.251700e-02 1.714314e-02 3.457841e-02 6.827010e-03 1.238720e-02 8.113316e-03 3.387654e-02 3.164250e-03 1.097233e-02 2.195020e-02 4.922500e-02 2.162808e-02 4.458638e-03 2.951669e-03 6.927559e-03 3.614648e-02 1.900261e-02 1.376387e-02 2.246912e-03 1.092115e-02 1.212712e-03 5.762105e-03 8.800589e-03 9.481752e-03 7.702377e-03 4.077104e-02 8.157474e-03 1.064836e-02 2.013385e-02 7.075372e-03 1.944760e-02 7.635893e-03 1.000000e-03 1.584480e-02 1.529280e-02 7.469851e-03 2.696862e-02 2.225251e-02 5.775281e-03 3.951267e-03 1.284617e-02 3.724579e-03 3.487297e-03 3.711317e-03 1.173616e-02 8.900655e-03 8.392271e-03 2.512413e-03 5.475634e-03 8.386229e-03 9.143834e-03 9.731160e-03 7.083366e-03 1.315335e-02 1.367596e-02 7.405239e-03 1.543993e-02 1.187137e-02 2.076998e-02 8.376288e-03 2.451378e-03 5.095862e-03 2.109882e-02 7.121630e-03 8.131698e-03 2.216079e-02 1.884556e-02 2.074709e-03 6.888041e-03 5.478977e-03 1.722765e-02 4.224075e-03 1.790710e-03 4.096944e-03 7.452839e-03 2.110715e-02 1.007811e-02 5.836620e-03 1.188269e-02 7.952562e-03 4.191005e-03 3.374392e-03 1.562849e-02 1.837689e-02 1.099857e-02 2.990568e-03 8.189978e-03 2.126896e-02 1.465532e-02 1.786376e-02 5.049309e-03 1.061732e-02 1.719780e-02 1.778356e-02 1.325935e-03 2.890891e-03 1.330740e-02 1.380146e-02 1.090957e-03 6.085051e-03 1.264775e-02
<GCONST> -4.202729e+02
<STATE> 3
<MEAN> 142
 6.102838e-01 3.655320e-01 3.965441e-01 3.054939e-01 2.653512e-01 3.744491e-01 4.049807e-01 3.577394e-01 3.810576e-01 4.240277e-01 5.020490e-01 4.165687e-01 3.640490e-01 5.117776e-01 3.542533e-01 3.475406e-01 3.717130e-01 3.567251e-01 3.733889e-01 3.454538e-01 5.515774e-01 5.472738e-01 4.064098e-01 4.551336e-01 5.053675e-01 3.642847e-01 4.884923e-01 3.224343e-01 3.984219e-01 3.573267e-01 4.594074e-01 3.907385e-01 3.971553e-01 5.180050e-01 4.514419e-01 3.514906e-01 3.653353e-01 3.284357e-01 4.003483e-01 3.750122e-01 3.179830e-01 4.356704e-01 3.507177e-01 3.166086e-01 2.020072e-01 3.627136e-01 4.269645e-01 4.255550e-01 4.714172e-01 3.517796e-01 5.194266e-01 4.149366e-01 4.599029e-01 2.540620e-01 3.922512e-01 3.857611e-01 5.334471e-01 3.989791e-01 4.280204e-01 3.693745e-01 4.353707e-01 3.808117e-01 3.553926e-01 3.818263e-01 3.660239e-01 4.637242e-01 3.907915e-01 4.637578e-01 4.372167e-01 4.168942e-01 4.439756e-01 3.861479e-01 4.253241e-01 4.089742e-01 3.500258e-01 3.710306e-01 4.304575e-01 3.838520e-01 4.957514e-01 5.117166e-01 3.840161e-01 3.370570e-01 3.643572e-01 4.827066e-01 3.108439e-01 3.712965e-01 3.718377e-01 4.245622e-01 4.963396e-01 3.506806e-01 3.384723e-01 3.598371e-01 3.743058e-01 3.490845e-01 4.301575e-01 4.107730e-01 4.032637e-01 2.814715e-01 4.714812e-01 4.551169e-01 3.895258e-01 5.063045e-01 3.603046e-01 3.495143e-01 4.185559e-01 3.595268e-01 3.574715e-01 3.736422e-01 4.150217e-01 4.271871e-01 4.169513e-01 3.526703e-01 3.030196e-01 3.732928e-01 3.159671e-01 3.686752e-01 4.030617e-01 4.476878e-01 4.039724e-01 4.246888e-01 3.992707e-01 4.733422e-01 3.964975e-01 4.018625e-01 4.787794e-01 3.899886e-01 3.953075e-01 3.521338e-01 2.908005e-01 4.644823e-01 4.026242e-01 3.534477e-01 3.417070e-01 3.928042e-01 3.295077e-01 4.446993e-01 4.377184e-01 4.174489e-01 3.965263e-01 3.871916e-01 4.212371e-01 3.812014e-01
<VARIANCE> 142
 2.654283e-02 6.379027e-03 8.856549e-03 2.160424e-03 4.566719e-03 2.328849e-02 6.602835e-03 3.786970e-03 4.222370e-03 7.057582e-03 2.081219e-02 1.217312e-02 9.855725e-03 2.434628e-02 1.107269e-02 3.065534e-03 5.765850e-03 4.544121e-03 1.218615e-02 1.203026e-02 1.999250e-02 1.497635e-02 5.418336e-03 2.624260e-03 6.369262e-03 4.093035e-03 8.194556e-03 4.709644e-03 4.152462e-03 1.504290e-02 4.943846e-03 4.254714e-03 2.237297e-02 1.798758e-02 2.870793e-03 6.818242e-03 7.823022e-03 1.142175e-02 1.262289e-02 1.535866e-02 8.702343e-03 1.421257e-02 1.152010e-02 7.203224e-03 1.529265e-02 5.719909e-03 7.786891e-03 9.840027e-03 6.160581e-03 4.648831e-03 1.047377e-02 5.843212e-03 4.253276e-03 1.098122e-02 9.845142e-03 7.159538e-03 3.930451e-02 1.144494e-02 1.476519e-02 7.770952e-03 9.542864e-03 6.711103e-03 3.676605e-03 2.381989e-03 7.050806e-03 5.382562e-03 7.133958e-03 8.363593e-03 5.363855e-03 1.193493e-02 2.133106e-03 3.926842e-02 1.188245e-02 4.559019e-03 1.677431e-02 9.160106e-03 4.038183e-03 2.123116e-02 5.944915e-03 1.734421e-02 9.952352e-03 2.784562e-03 1.558596e-02 5.775748e-03 5.997618e-03 1.691959e-02 6.671984e-03 3.677676e-03 6.694425e-03 2.184438e-02 1.314707e-02 3.137594e-02 8.469475e-03 6.531916e-03 3.755438e-03 5.696974e-03 1.204816e-02 3.769977e-03 1.640126e-02 2.661601e-03 1.109995e-02 4.954947e-03 6.439395e-03 1.850524e-02 1.728304e-02 8.083897e-03 3.787708e-03 2.876383e-03 1.275385e-02 1.563253e-02 1.145715e-02 1.053010e-02 3.122784e-03 3.058431e-03 4.552689e-03 2.857314e-02 9.949090e-03 1.946644e-02 5.942306e-03 1.856950e-02 7.759088e-03 1.212743e-02 1.654370e-02 6.352627e-02 6.433135e-03 7.015286e-03 1.070743e-02 1.316869e-02 1.837305e-02 7.215055e-03 1.445784e-02 3.009734e-03 2.964329e-02 3.407765e-03 4.786872e-03 5.958445e-03 1.854644e-02 7.626814e-03 2.748675e-02 5.044807e-03 6.380722e-03 1.662600e-02
<GCONST> -4.153104e+02
<TRANSP> 4
 0.000000e+00 1.000000e+00 0.000000e+00 0.000000e+00
 0.000000e+00 5.000000e-01 5.000000e-01 0.000000e+00
 0.000000e+00 0.000000e+00 5.000000e-01 5.000000e-01
 0.000000e+00 0.000000e+00 0.000000e+00 0.000000e+00
<ENDHMM>
