~o
<STREAMINFO> 1 142
<VECSIZE> 142<NULLD><USER><DIAGC>
~h "swallow"
<BEGINHMM>
<NUMSTATES> 4
<STATE> 2
<MEAN> 142
 6.780956e-01 3.283800e-01 3.392601e-01 3.052963e-01 2.209483e-01 3.642642e-01 3.799213e-01 3.767488e-01 3.484350e-01 4.060967e-01 4.417330e-01 4.077841e-01 3.986458e-01 4.820247e-01 3.407031e-01 3.592171e-01 3.570075e-01 3.904094e-01 3.024936e-01 4.223583e-01 4.430546e-01 4.650627e-01 3.941702e-01 4.394125e-01 4.413022e-01 4.314242e-01 4.050725e-01 3.442590e-01 3.860278e-01 3.670988e-01 4.528276e-01 4.411411e-01 4.139803e-01 4.178229e-01 4.185297e-01 3.389086e-01 3.269923e-01 3.220601e-01 3.241234e-01 3.175225e-01 3.261457e-01 3.959745e-01 3.003324e-01 3.527140e-01 2.103492e-01 3.819114e-01 4.108164e-01 4.432532e-01 4.183809e-01 3.346218e-01 4.541263e-01 4.502715e-01 4.842295e-01 2.333841e-01 4.543464e-01 3.348078e-01 4.513999e-01 3.427703e-01 3.789418e-01 3.050916e-01 4.876749e-01 4.088816e-01 3.785034e-01 4.075121e-01 3.985016e-01 4.304067e-01 3.932871e-01 4.132292e-01 4.202681e-01 3.818690e-01 4.140752e-01 4.389321e-01 4.011294e-01 4.021390e-01 3.686745e-01 3.836930e-01 4.414219e-01 3.663478e-01 5.008961e-01 4.080964e-01 4.024441e-01 3.770579e-01 3.907576e-01 4.531130e-01 3.309583e-01 4.271198e-01 3.966763e-01 4.276720e-01 4.586674e-01 3.686210e-01 3.549226e-01 3.685172e-01 3.993989e-01 3.202148e-01 3.725280e-01 5.044539e-01 4.190541e-01 3.471279e-01 4.212719e-01 4.514476e-01 3.804501e-01 4.811313e-01 3.376769e-01 3.056820e-01 3.273854e-01 3.210883e-01 4.216942e-01 3.452350e-01 4.332452e-01 3.667901e-01 4.032625e-01 3.413133e-01 3.041914e-01 2.959316e-01 3.541019e-01 4.020146e-01 3.727764e-01 3.923928e-01 3.968183e-01 3.966141e-01 3.885891e-01 5.154729e-01 4.272400e-01 4.286357e-01 4.274828e-01 3.864939e-01 3.777139e-01 3.496228e-01 3.262421e-01 4.242648e-01 3.987604e-01 3.771182e-01 3.881105e-01 4.384452e-01 3.914071e-01 3.662120e-01 4.692749e-01 4.110171e-01 3.694085e-01 3.890537e-01 3.897372e-01 4.579805e-01
<VARIANCE> 142
 5.030072e-02 7.041461e-03 2.515767e-02 5.201831e-03 5.438883e-03 1.644435e-02 1.264384e-02 1.035825e-02 7.331402e-03 1.230649e-02 5.632029e-03 5.792871e-03 1.942403e-02 8.290787e-03 3.097514e-02 1.338028e-02 3.302301e-03 1.619970e-02 8.429465e-03 7.336976e-03 7.654607e-03 5.565341e-03 8.270002e-03 8.959843e-03 3.490398e-03 1.587377e-02 7.693536e-03 1.015806e-02 1.054700e-02 2.570770e-02 2.311121e-03 4.878953e-03 3.837387e-02 4.520374e-03 1.118581e-03 2.127689e-02 1.015355e-02 3.617469e-02 1.649527e-02 1.381893e-02 3.473997e-02 7.308905e-03 4.314231e-03 1.794553e-02 7.094255e-03 4.838961e-03 3.170320e-03 1.753181e-02 6.184224e-03 7.847319e-03 5.132617e-03 3.171011e-02 1.566971e-02 1.434839e-02 6.146999e-03 3.206058e-03 1.687046e-02 4.202823e-03 9.526289e-03 8.870550e-03 1.634527e-02 4.912977e-03 7.054345e-03 1.438594e-02 1.035799e-02 1.272525e-02 6.980784e-02 3.650853e-03 6.998284e-03 2.557870e-02 4.675755e-03 2.449816e-02 7.689179e-03 8.196799e-03 1.485965e-02 2.049788e-02 4.988856e-03 1.061496e-02 8.831267e-03 9.851246e-03 9.699345e-03 5.257803e-03 2.209982e-02 8.287846e-03 9.189370e-03 8.063404e-03 3.898539e-03 4.183652e-03 1.229885e-03 8.500064e-03 6.683271e-03 1.255754e-02 6.060130e-03 3.042798e-03 6.813635e-03 3.770024e-03 1.442888e-02 1.553115e-02 1.330248e-02 3.237159e-03 3.428370e-03 2.109372e-02 2.830925e-03 1.358732e-02 5.419101e-03 2.424617e-03 1.014813e-02 1.767362e-02 1.169173e-02 1.406065e-02 1.223076e-02 2.214187e-03 8.631029e-03 8.890182e-03 4.290186e-03 8.410432e-03 3.266496e-03 7.029608e-03 2.628209e-03 6.352341e-03 3.125828e-03 8.243063e-03 5.195022e-03 1.068955e-02 1.654117e-02 7.199784e-03 1.921546e-03 1.344835e-02 1.033664e-02 7.359555e-03 4.899416e-03 2.113495e-02 2.829629e-02 1.448876e-02 4.459138e-02 1.409310e-02 9.372320e-03 3.755312e-02 2.532304e-02 1.703825e-02 7.136574e-03 7.888135e-03
<GCONST> -4.083163e+02
<STATE> 3
<MEAN> 142
 6.414316e-01 3.029808e-01 4.271027e-01 4.587266e-01 3.940134e-01 4.864256e-01 5.908544e-01 3.521598e-01 3.268569e-01 3.413787e-01 4.247322e-01 4.051846e-01 4.031922e-01 4.356367e-01 3.207372e-01 4.900391e-01 4.006459e-01 3.559428e-01 3.798916e-01 4.614024e-01 5.446814e-01 4.773443e-01 4.195473e-01 4.498221e-01 4.506821e-01 4.432272e-01 4.171776e-01 4.142495e-01 3.388183e-01 3.630536e-01 4.742746e-01 3.779040e-01 5.772364e-01 4.436348e-01 4.378707e-01 3.553664e-01 3.561668e-01 2.479050e-01 2.933530e-01 4.958217e-01 3.014010e-01 3.553108e-01 2.801216e-01 4.039022e-01 4.135844e-01 4.392720e-01 4.224564e-01 4.715557e-01 4.484114e-01 3.392924e-01 4.991451e-01 3.679904e-01 3.593936e-01 2.600434e-01 5.101297e-01 3.107479e-01 3.873280e-01 4.385635e-01 3.650182e-01 4.415604e-01 6.171234e-01 4.618297e-01 3.164444e-01 3.470292e-01 3.509049e-01 5.415364e-01 2.968099e-01 5.069708e-01 4.821390e-01 3.125616e-01 5.150102e-01 4.603686e-01 4.221752e-01 4.676466e-01 4.251093e-01 4.069427e-01 5.119879e-01 4.305140e-01 3.893282e-01 5.105302e-01 4.033579e-01 3.130083e-01 3.383282e-01 4.602922e-01 5.307277e-01 5.163234e-01 3.863969e-01 3.827197e-01 4.704804e-01 4.986655e-01 2.944570e-01 4.343526e-01 4.511794e-01 3.483988e-01 4.590365e-01 4.353472e-01 4.996974e-01 2.818303e-01 4.190079e-01 4.977174e-01 3.548024e-01 4.737254e-01 3.109277e-01 2.996955e-01 3.437971e-01 2.396439e-01 3.382508e-01 2.793542e-01 4.517713e-01 5.830808e-01 3.167928e-01 3.269809e-01 5.297521e-01 3.330199e-01 3.393826e-01 4.325727e-01 2.843730e-01 4.240897e-01 4.120172e-01 4.006020e-01 3.736135e-01 5.041348e-01 4.103584e-01 3.994168e-01 6.049108e-01 3.789294e-01 4.234193e-01 2.915055e-01 2.432802e-01 5.118039e-01 5.555308e-01 3.640952e-01 3.646503e-01 3.618033e-01 3.541865e-01 4.104897e-01 6.226738e-01 4.076561e-01 5.798891e-01 3.759081e-01 3.986506e-01 5.391284e-01
<VARIANCE> 142
 2.421074e-02 3.234112e-03 4.603020e-03 1.916178e-02 1.448139e-02 1.676967e-02 2.567199e-02 2.971767e-03 1.642330e-03 3.939267e-03 4.250139e-03 9.734422e-03 4.327497e-03 5.683247e-03 1.239171e-02 1.748874e-02 6.571566e-03 1.296472e-02 1.540625e-02 2.423673e-03 6.049763e-03 5.334981e-03 2.109022e-03 6.004125e-03 6.697793e-03 5.227262e-03 7.530780e-03 7.776513e-03 4.871469e-03 8.583271e-03 2.806491e-03 8.445957e-03 2.145349e-02 4.771980e-03 2.075991e-03 3.759148e-03 1.078503e-02 6.211947e-03 3.089478e-03 2.843125e-02 1.125338e-02 2.110481e-03 5.134611e-03 1.957849e-02 3.131271e-02 1.439288e-02 2.455431e-03 3.587154e-03 1.143972e-02 3.157732e-03 8.879581e-03 3.794802e-03 9.330819e-03 7.990803e-03 4.573402e-03 3.697280e-03 2.603258e-02 1.862467e-02 1.302333e-02 1.646296e-02 1.350414e-02 3.671993e-03 3.379775e-03 4.532214e-03 3.638959e-03 1.381872e-02 1.453350e-02 1.725037e-02 3.150670e-03 8.661788e-03 2.557395e-03 1.060618e-02 5.851479e-03 4.777168e-03 3.593078e-03 2.559026e-03 6.727523e-03 1.426948e-02 8.708194e-03 8.238509e-03 3.799523e-03 2.642638e-03 4.108049e-03 6.206861e-03 2.459549e-02 4.662892e-03 2.276501e-03 1.757517e-03 6.634341e-03 1.054607e-02 1.505547e-02 9.499736e-03 6.806341e-03 3.689973e-03 5.654547e-03 5.632313e-03 1.353733e-02 7.972095e-03 3.266580e-03 3.086334e-03 1.631947e-03 7.181186e-03 1.482405e-03 4.453938e-03 6.823561e-03 2.709830e-03 7.777967e-03 3.226677e-03 8.491878e-03 3.030449e-02 7.786990e-03 5.885975e-03 3.768576e-02 4.190086e-03 4.888392e-03 3.034991e-03 7.906494e-03 5.807491e-03 6.354056e-03 7.574341e-03 4.043965e-03 1.719497e-02 6.883360e-03 6.352725e-03 2.291714e-02 7.241880e-03 2.854110e-03 3.486081e-03 9.404897e-03 1.679251e-02 1.549430e-02 5.654317e-03 8.489106e-03 2.737391e-03 5.181423e-03 5.964954e-03 1.814872e-02 7.054443e-03 4.274483e-02 3.093272e-03 1.145610e-02 1.844084e-02
<GCONST> -4.476742e+02
<TRANSP> 4
 0.000000e+00 1.000000e+00 0.000000e+00 0.000000e+00
 0.000000e+00 5.000000e-01 5.000000e-01 0.000000e+00
 0.000000e+00 0.000000e+00 5.000000e-01 5.000000e-01
 0.000000e+00 0.000000e+00 0.000000e+00 0.000000e+00
<ENDHMM>
