~o
<STREAMINFO> 1 142
<VECSIZE> 142<NULLD><USER><DIAGC>
~h "take"
<BEGINHMM>
<NUMSTATES> 4
<STATE> 2
<MEAN> 142
 5.664273e-01 3.289409e-01 3.447492e-01 3.185390e-01 2.798289e-01 3.286954e-01 3.476351e-01 4.075595e-01 3.857567e-01 4.211042e-01 4.591882e-01 3.744836e-01 3.647659e-01 4.385638e-01 3.212292e-01 3.941133e-01 4.249934e-01 4.055329e-01 3.630501e-01 3.405784e-01 4.565818e-01 4.838211e-01 3.656061e-01 4.657639e-01 5.072054e-01 4.201317e-01 4.278406e-01 3.849846e-01 3.858039e-01 3.703634e-01 4.904166e-01 3.999946e-01 3.566595e-01 4.889024e-01 4.162154e-01 3.996149e-01 3.947667e-01 3.218274e-01 3.861137e-01 3.956531e-01 3.851114e-01 4.525065e-01 3.600510e-01 3.295608e-01 2.225397e-01 3.967694e-01 4.197369e-01 4.883007e-01 4.436242e-01 3.397725e-01 4.855236e-01 4.097627e-01 4.599802e-01 2.801729e-01 3.884737e-01 3.849431e-01 4.486029e-01 3.778784e-01 3.992243e-01 3.287818e-01 3.906157e-01 5.242403e-01 3.758948e-01 4.181955e-01 4.371349e-01 4.069180e-01 4.008381e-01 4.503310e-01 4.053084e-01 4.161147e-01 4.298348e-01 3.465447e-01 4.231467e-01 3.426443e-01 3.333666e-01 3.527242e-01 4.632907e-01 3.865780e-01 5.065090e-01 4.476910e-01 4.336254e-01 3.575663e-01 3.426640e-01 4.489419e-01 3.743117e-01 3.712892e-01 3.717248e-01 3.773212e-01 4.537255e-01 3.423091e-01 2.954550e-01 2.660848e-01 4.067948e-01 3.439518e-01 4.325101e-01 4.589167e-01 4.402368e-01 3.181625e-01 4.634022e-01 4.977100e-01 3.929588e-01 4.576882e-01 3.456888e-01 3.695785e-01 3.748848e-01 2.713529e-01 3.786528e-01 3.996409e-01 3.835557e-01 4.035237e-01 3.641257e-01 3.405007e-01 2.905289e-01 3.760983e-01 3.997720e-01 3.954955e-01 3.805609e-01 4.110298e-01 4.126242e-01 4.092639e-01 4.099880e-01 4.240738e-01 3.794973e-01 3.738593e-01 4.459018e-01 3.557407e-01 4.422391e-01 3.582788e-01 3.274785e-01 4.447278e-01 4.301569e-01 3.709077e-01 3.500101e-01 4.179485e-01 3.887680e-01 4.197170e-01 4.133972e-01 4.574017e-01 4.179112e-01 4.138805e-01 3.972782e-01 3.947197e-01
<VARIANCE> 142
 3.008734e-03 5.622960e-03 2.920773e-02 5.019977e-03 1.395119e-02 2.362933e-02 2.139648e-03 1.269716e-02 2.597290e-03 5.278999e-03 8.816739e-03 7.910560e-03 6.479772e-03 4.196316e-03 2.179426e-02 8.076503e-03 6.438615e-03 1.520771e-02 2.243104e-02 1.177677e-02 1.177364e-02 9.850877e-03 1.182696e-02 1.171813e-03 1.271035e-02 1.689671e-02 9.421921e-03 7.681785e-03 5.019584e-03 5.732607e-03 2.663013e-03 2.766934e-02 9.202639e-03 1.122048e-02 1.153255e-03 1.535528e-02 3.089061e-02 4.751610e-03 9.152540e-03 5.210676e-03 7.014235e-03 6.771003e-03 7.367748e-03 7.585881e-03 2.071287e-02 1.648437e-02 6.994448e-03 2.301183e-02 2.288204e-02 9.122453e-03 1.049601e-02 5.693089e-03 6.968855e-03 1.000000e-03 6.693401e-03 1.705006e-03 1.364569e-02 2.747487e-02 2.602792e-02 2.057318e-02 2.948525e-03 3.041964e-02 7.294611e-03 7.824413e-03 4.961812e-03 6.033995e-03 2.529935e-02 2.103012e-02 3.753906e-03 4.705391e-03 2.088290e-03 1.478541e-02 4.943872e-03 3.138079e-03 8.572668e-03 4.305630e-03 2.241463e-03 8.516725e-03 1.122330e-02 3.388935e-02 9.854992e-03 1.320268e-02 1.891401e-02 1.156985e-02 5.430020e-03 1.799192e-02 2.843540e-03 2.312732e-03 3.638890e-03 2.558602e-02 1.887572e-02 1.461562e-02 1.845171e-02 5.199566e-03 5.114188e-03 3.607474e-03 1.364408e-02 1.199385e-02 7.619738e-03 1.634932e-02 5.052434e-03 3.004394e-03 6.322801e-03 8.310778e-03 1.891455e-02 1.039728e-02 6.086417e-03 5.259501e-03 1.166839e-02 3.893717e-02 8.794012e-03 1.937839e-02 1.548913e-02 2.110982e-02 8.192547e-03 8.524965e-03 8.782594e-03 8.441844e-03 9.454967e-03 4.257085e-03 1.010828e-02 1.560108e-02 1.463211e-02 6.680886e-02 1.795930e-02 5.022166e-03 3.161008e-02 1.965004e-02 8.201993e-03 2.197967e-02 1.369849e-02 2.206975e-02 1.317168e-02 1.212583e-02 5.300196e-02 2.725916e-02 1.117603e-02 5.491408e-02 1.220533e-02 1.077401e-02 9.380630e-03 6.031629e-03
<GCONST> -4.014076e+02
<STATE> 3
<MEAN> 142
 5.510556e-01 4.090068e-01 3.557226e-01 4.415061e-01 4.184999e-01 2.460184e-01 4.361065e-01 3.737281e-01 4.071795e-01 3.913661e-01 4.531572e-01 4.713164e-01 4.069770e-01 4.972486e-01 3.911064e-01 4.883892e-01 4.015621e-01 3.849066e-01 2.618553e-01 3.563043e-01 4.437266e-01 4.755914e-01 3.532029e-01 4.771062e-01 4.427050e-01 4.520483e-01 3.611199e-01 4.576569e-01 4.126365e-01 4.727165e-01 4.672762e-01 4.479523e-01 5.564218e-01 4.177469e-01 4.557609e-01 3.442527e-01 3.938245e-01 2.505152e-01 3.267453e-01 5.171746e-01 2.768490e-01 4.353611e-01 2.849238e-01 2.869816e-01 3.799684e-01 4.935446e-01 5.091960e-01 4.266355e-01 3.908390e-01 2.976859e-01 5.055225e-01 3.170721e-01 4.429310e-01 2.338862e-01 5.319910e-01 3.726745e-01 2.565008e-01 3.238898e-01 2.011678e-01 4.065571e-01 4.901232e-01 5.517631e-01 3.952853e-01 3.726496e-01 3.869448e-01 5.401288e-01 2.947215e-01 4.325502e-01 5.152749e-01 2.579915e-01 4.730627e-01 2.969679e-01 3.913454e-01 4.373222e-01 3.004718e-01 3.794068e-01 5.232065e-01 6.303406e-01 3.998603e-01 4.321942e-01 4.754866e-01 3.806280e-01 2.756521e-01 3.772013e-01 4.719313e-01 4.282894e-01 4.734107e-01 4.152150e-01 3.892888e-01 3.883772e-01 3.261235e-01 3.582490e-01 5.322750e-01 3.509782e-01 5.403510e-01 5.157841e-01 5.047660e-01 3.067685e-01 4.489627e-01 5.418296e-01 4.466096e-01 5.047492e-01 3.722945e-01 3.053190e-01 3.044001e-01 2.577534e-01 3.032613e-01 3.729073e-01 3.656308e-01 3.663355e-01 3.150525e-01 3.399233e-01 7.097551e-01 3.708896e-01 3.563238e-01 4.415981e-01 2.997553e-01 5.587193e-01 4.273510e-01 4.532249e-01 4.185707e-01 5.109800e-01 4.876480e-01 2.872896e-01 3.769330e-01 3.977647e-01 4.520350e-01 2.772715e-01 2.799231e-01 3.976857e-01 5.777231e-01 4.905345e-01 3.271868e-01 4.412434e-01 4.121240e-01 4.647230e-01 4.981514e-01 4.718784e-01 4.722778e-01 3.992880e-01 4.521289e-01 5.406496e-01
<VARIANCE> 142
 6.947821e-03 5.486808e-03 1.362508e-02 1.685375e-02 2.418754e-02 1.092825e-02 2.282640e-02 1.730429e-02 5.338562e-03 4.725211e-03 3.262512e-03 6.346517e-03 9.121147e-03 5.328972e-03 7.371869e-03 4.758125e-02 1.202515e-02 4.813954e-03 1.137123e-02 8.546122e-03 4.955522e-03 7.591172e-03 1.549460e-02 1.000000e-03 1.981803e-03 6.802180e-03 3.165695e-03 1.035857e-02 1.000000e-03 5.338844e-03 9.272519e-03 3.697553e-03 5.278135e-02 2.619711e-03 1.000000e-03 4.963398e-03 4.172317e-03 5.244132e-03 7.933667e-03 2.911117e-02 5.286782e-03 8.376718e-03 9.665659e-03 8.955493e-03 2.991112e-02 1.934488e-02 3.587871e-03 4.706876e-03 4.622907e-03 1.935860e-03 7.421317e-03 4.008021e-03 5.173976e-03 4.947817e-03 8.330992e-03 3.529423e-03 6.949742e-03 2.293873e-02 1.381081e-02 3.018986e-02 3.204855e-02 1.423565e-02 4.935580e-03 1.103210e-03 3.120548e-03 2.367942e-02 7.248193e-03 2.069945e-02 1.031156e-02 8.574085e-03 3.437270e-03 8.738561e-03 1.000000e-03 1.627363e-03 9.839277e-03 2.187501e-02 8.078208e-03 1.449986e-02 4.472633e-03 1.408097e-02 4.953070e-03 1.160141e-02 3.146257e-03 2.183177e-03 2.533328e-02 1.286550e-02 2.208427e-03 4.782043e-03 1.076610e-03 1.793002e-02 3.519839e-03 2.159060e-02 9.242326e-03 8.068123e-03 3.611246e-03 1.431348e-03 9.494894e-03 6.693657e-03 1.444582e-03 3.992278e-03 2.002966e-03 7.364837e-03 4.654071e-03 3.826412e-03 4.957893e-03 3.608879e-03 5.753517e-03 1.452126e-03 2.429289e-03 1.573988e-02 1.560578e-03 2.409728e-03 5.668007e-02 3.055934e-03 3.681557e-03 6.919103e-03 2.661648e-03 4.211343e-03 2.742138e-03 4.523424e-03 8.964378e-03 2.903939e-03 5.130382e-03 1.780748e-02 1.310064e-02 1.556318e-03 5.092539e-03 5.985192e-03 2.663990e-03 2.956551e-03 2.595078e-02 4.294319e-03 7.263350e-03 1.712886e-03 8.259948e-03 5.235652e-03 3.055059e-02 1.475891e-02 2.289208e-02 5.172418e-03 5.275303e-03 4.237039e-03
<GCONST> -4.579837e+02
<TRANSP> 4
 0.000000e+00 1.000000e+00 0.000000e+00 0.000000e+00
 0.000000e+00 5.000000e-01 5.000000e-01 0.000000e+00
 0.000000e+00 0.000000e+00 5.000000e-01 5.000000e-01
 0.000000e+00 0.000000e+00 0.000000e+00 0.000000e+00
<ENDHMM>
