~o
<STREAMINFO> 1 142
<VECSIZE> 142<NULLD><USER><DIAGC>
~h "they"
<BEGINHMM>
<NUMSTATES> 4
<STATE> 2
<MEAN> 142
 4.784633e-01 3.666060e-01 3.152176e-01 3.782005e-01 3.440895e-01 2.821370e-01 3.057127e-01 3.145273e-01 4.190994e-01 4.455990e-01 3.669973e-01 4.167860e-01 3.588112e-01 3.909578e-01 3.864732e-01 3.514187e-01 4.217508e-01 3.823071e-01 3.239008e-01 3.451375e-01 5.140365e-01 4.482881e-01 3.780796e-01 4.753350e-01 5.359470e-01 3.931985e-01 3.874317e-01 3.557233e-01 4.673179e-01 4.368756e-01 4.404575e-01 4.603338e-01 3.280734e-01 5.805910e-01 4.096935e-01 4.254242e-01 3.786783e-01 5.208435e-01 4.594711e-01 3.410832e-01 4.746108e-01 5.151991e-01 4.113891e-01 3.357020e-01 1.848580e-01 3.165727e-01 4.108561e-01 4.393975e-01 3.927554e-01 3.314612e-01 5.043769e-01 4.732186e-01 4.087366e-01 3.311962e-01 4.157530e-01 3.945265e-01 3.432533e-01 3.267161e-01 3.700189e-01 3.103819e-01 3.625962e-01 4.175023e-01 4.051162e-01 4.638208e-01 4.528782e-01 3.927505e-01 4.587488e-01 3.754774e-01 3.720171e-01 4.550937e-01 4.427800e-01 3.949646e-01 3.432658e-01 3.596431e-01 2.459606e-01 3.979514e-01 3.656956e-01 4.139697e-01 5.112648e-01 4.574472e-01 5.093076e-01 3.791478e-01 4.028669e-01 4.157688e-01 3.057690e-01 3.329923e-01 3.890259e-01 4.222663e-01 4.532188e-01 3.092966e-01 3.831064e-01 2.413945e-01 4.004627e-01 3.279964e-01 4.624766e-01 4.412565e-01 4.502351e-01 3.852104e-01 5.469342e-01 4.943338e-01 4.155408e-01 4.832591e-01 3.651135e-01 4.946378e-01 3.069132e-01 2.979512e-01 3.622761e-01 4.522555e-01 2.987223e-01 3.363631e-01 3.918687e-01 3.795337e-01 2.990563e-01 4.006486e-01 3.929310e-01 3.902778e-01 3.989147e-01 4.354555e-01 4.352984e-01 3.590038e-01 4.354591e-01 4.312888e-01 4.243310e-01 3.511614e-01 3.531077e-01 3.589226e-01 4.174565e-01 4.267548e-01 4.401101e-01 3.779874e-01 3.612583e-01 4.183206e-01 3.425158e-01 4.401274e-01 4.576614e-01 4.678370e-01 3.474823e-01 4.691496e-01 4.020527e-01 4.454279e-01 5.012570e-01 3.622163e-01
<VARIANCE> 142
 6.738010e-03 2.329160e-02 5.647716e-03 6.270331e-03 9.322188e-03 3.656555e-02 2.374479e-03 9.560329e-03 1.803186e-02 2.858352e-03 6.203351e-03 1.481494e-02 9.312315e-03 9.939128e-03 1.032704e-02 3.103177e-03 2.283596e-02 8.611169e-03 2.484498e-02 3.026186e-02 2.486382e-03 1.147095e-02 2.456208e-02 1.100694e-02 5.211613e-03 1.529520e-02 8.565599e-03 5.450534e-03 5.893092e-03 1.036081e-02 3.355908e-03 4.327039e-03 7.821381e-03 1.501058e-02 2.183445e-03 8.746705e-03 7.356127e-03 2.458428e-02 3.486166e-03 1.242208e-02 9.738346e-03 1.615398e-02 7.642326e-03 3.573311e-02 4.952827e-03 1.278993e-02 5.141826e-03 1.175361e-02 4.155903e-03 1.959442e-02 1.468342e-02 3.959071e-02 1.146427e-02 6.095250e-03 1.099036e-02 5.000486e-03 9.812763e-03 1.393094e-02 2.193643e-02 5.937140e-03 3.458710e-03 1.095321e-03 3.880819e-03 4.742658e-03 1.523499e-02 9.138299e-03 2.427235e-02 1.117793e-02 5.377137e-03 1.508813e-02 4.492373e-03 1.125045e-02 8.280089e-03 4.998886e-03 8.685115e-03 1.566909e-02 6.231248e-03 2.342241e-02 1.228750e-02 2.377803e-03 3.334846e-03 3.948063e-03 6.727355e-03 9.404143e-03 3.943467e-03 1.431344e-02 3.892812e-03 1.027051e-02 1.000000e-03 3.919554e-03 9.011704e-03 8.027907e-03 5.514519e-03 9.012917e-03 2.977394e-03 8.342245e-03 1.650427e-03 8.740612e-03 5.966310e-03 2.119645e-02 7.471618e-03 1.844821e-03 2.014424e-02 2.012933e-02 5.899105e-03 6.666656e-03 1.738828e-02 1.230261e-02 4.278875e-03 4.595848e-03 7.562036e-03 5.813248e-03 8.292576e-03 5.278945e-03 8.320259e-03 6.084033e-03 5.118604e-03 6.313942e-03 3.768402e-03 1.819422e-02 2.626117e-03 1.362214e-02 1.415782e-02 3.655771e-03 1.330926e-02 6.816446e-03 2.563419e-03 7.961175e-03 3.344740e-03 1.642235e-02 8.499810e-03 2.604840e-03 1.453762e-02 1.577661e-02 1.408089e-02 8.581423e-03 5.627515e-03 7.324410e-03 1.566325e-02 2.678393e-03 1.770261e-03 7.522780e-03
<GCONST> -4.285403e+02
<STATE> 3
<MEAN> 142
 5.938768e-01 3.780220e-01 3.819541e-01 3.382423e-01 3.085240e-01 2.283062e-01 3.538700e-01 3.142490e-01 3.699287e-01 4.018319e-01 4.948478e-01 3.815067e-01 3.240795e-01 4.577282e-01 3.602079e-01 3.485624e-01 3.988514e-01 3.454929e-01 2.935415e-01 3.277051e-01 4.972036e-01 5.114533e-01 3.714246e-01 4.572248e-01 5.062301e-01 3.827735e-01 4.312638e-01 3.458045e-01 4.084738e-01 3.787037e-01 4.475900e-01 5.109644e-01 3.878060e-01 4.728839e-01 4.409672e-01 3.364832e-01 3.819146e-01 2.797550e-01 3.536570e-01 3.160122e-01 3.191071e-01 3.876393e-01 3.152006e-01 2.697257e-01 1.684859e-01 3.634594e-01 4.778915e-01 3.913000e-01 4.633481e-01 3.407523e-01 5.036647e-01 3.516945e-01 4.283673e-01 2.685751e-01 4.692890e-01 3.946912e-01 4.305349e-01 3.527317e-01 3.357227e-01 3.442011e-01 3.921603e-01 4.395569e-01 3.807907e-01 3.523545e-01 3.650363e-01 4.429420e-01 3.365690e-01 4.156732e-01 4.422626e-01 3.341808e-01 4.194552e-01 3.626129e-01 3.964121e-01 4.145172e-01 2.529429e-01 3.695637e-01 4.742236e-01 4.978888e-01 4.878996e-01 4.457202e-01 4.324380e-01 4.119470e-01 3.211615e-01 4.497827e-01 3.269095e-01 4.520032e-01 3.858942e-01 4.244452e-01 4.628898e-01 3.109772e-01 3.272465e-01 2.976094e-01 3.916631e-01 3.266172e-01 4.463127e-01 4.280531e-01 4.340566e-01 2.780004e-01 4.176052e-01 4.584929e-01 3.942419e-01 5.102450e-01 3.876542e-01 3.072681e-01 3.851800e-01 3.288927e-01 3.228855e-01 3.829631e-01 3.563719e-01 3.654360e-01 3.626611e-01 3.694847e-01 3.222452e-01 3.828087e-01 3.379529e-01 3.571167e-01 3.640001e-01 4.775638e-01 4.016407e-01 4.383362e-01 4.857784e-01 5.259371e-01 4.534112e-01 3.410684e-01 3.285267e-01 3.872441e-01 3.948226e-01 2.741286e-01 2.802865e-01 4.260783e-01 3.641203e-01 4.287513e-01 3.252531e-01 4.071291e-01 4.347123e-01 5.205736e-01 4.010881e-01 4.308488e-01 3.441159e-01 4.696451e-01 4.384085e-01 4.977934e-01
<VARIANCE> 142
 4.016538e-02 1.279867e-02 7.063841e-03 7.801274e-03 1.956305e-02 5.598638e-03 9.128029e-03 1.545140e-02 4.969258e-03 2.760904e-03 1.588953e-02 1.352304e-02 3.309103e-03 1.354548e-02 1.626492e-02 2.326275e-03 3.228894e-03 3.138627e-03 1.382616e-02 1.437839e-02 5.344495e-03 5.520754e-03 1.319010e-02 4.417910e-03 3.251878e-03 5.335520e-03 7.174760e-03 9.597025e-03 9.811257e-03 7.905125e-03 1.679751e-03 5.903117e-03 1.414938e-02 1.368148e-02 2.771897e-03 1.047267e-02 1.097666e-02 8.787161e-03 1.575018e-02 2.454151e-02 1.135965e-02 3.523446e-03 5.721368e-03 2.650660e-02 8.177776e-03 4.788049e-03 2.332383e-03 7.809622e-03 1.441769e-03 1.422399e-02 4.588682e-03 8.605201e-03 3.374394e-03 6.467893e-03 1.096998e-02 1.320795e-02 2.809941e-02 5.447332e-03 9.190306e-03 8.487567e-03 1.000000e-03 8.051414e-03 6.698534e-03 8.424749e-03 8.308341e-03 9.343089e-03 1.094315e-02 1.301837e-02 8.713680e-03 1.481284e-02 9.108888e-03 1.823258e-02 1.080814e-02 9.288929e-03 1.949541e-02 4.348641e-03 5.331324e-03 1.376349e-02 3.735535e-03 4.648837e-03 7.765816e-03 7.939026e-03 5.629360e-03 3.755657e-03 1.033835e-02 9.554494e-03 4.970313e-03 2.899365e-03 2.767358e-03 1.251386e-02 1.311478e-02 2.333504e-02 5.233869e-03 8.411013e-03 5.192194e-03 4.537600e-03 7.162984e-03 7.852848e-03 1.038769e-02 6.367734e-03 5.273314e-03 7.114536e-03 9.736036e-03 1.101860e-02 7.969446e-03 1.192264e-02 1.447731e-02 6.274023e-03 1.088895e-02 4.887765e-03 9.305887e-03 1.106358e-02 1.231811e-02 1.035025e-02 2.485116e-03 4.682480e-03 5.721504e-03 5.340680e-03 8.465471e-03 1.915175e-02 1.033106e-02 6.950107e-03 1.206021e-02 9.636656e-03 6.118176e-03 1.125046e-02 2.208945e-03 1.052004e-02 7.584395e-03 1.572230e-02 1.307023e-02 1.389643e-02 3.401412e-02 5.977772e-03 2.998656e-02 6.980706e-03 2.455289e-03 2.232967e-02 1.179396e-02 6.533167e-03 6.705542e-03 6.798004e-03
<GCONST> -4.257584e+02
<TRANSP> 4
 0.000000e+00 1.000000e+00 0.000000e+00 0.000000e+00
 0.000000e+00 5.000000e-01 5.000000e-01 0.000000e+00
 0.000000e+00 0.000000e+00 5.000000e-01 5.000000e-01
 0.000000e+00 0.000000e+00 0.000000e+00 0.000000e+00
<ENDHMM>
