~o
<STREAMINFO> 1 142
<VECSIZE> 142<NULLD><USER><DIAGC>
~h "thing"
<BEGINHMM>
<NUMSTATES> 4
<STATE> 2
<MEAN> 142
 7.057084e-01 3.139858e-01 3.947980e-01 3.504269e-01 2.736360e-01 3.593689e-01 4.091826e-01 3.466984e-01 3.257264e-01 3.419404e-01 3.959339e-01 4.456898e-01 3.842725e-01 4.052903e-01 3.166235e-01 2.956004e-01 3.828963e-01 4.064173e-01 3.053856e-01 4.042650e-01 4.583554e-01 3.939091e-01 3.990977e-01 4.102620e-01 4.442653e-01 3.863479e-01 3.548840e-01 3.900991e-01 3.791755e-01 3.453584e-01 4.509186e-01 4.233256e-01 5.256622e-01 3.964970e-01 4.394390e-01 3.879150e-01 2.892250e-01 3.191805e-01 2.897571e-01 4.084541e-01 2.958596e-01 3.608901e-01 3.373053e-01 3.313526e-01 2.656189e-01 4.220136e-01 4.193849e-01 4.025889e-01 3.569996e-01 3.052196e-01 4.702349e-01 3.740735e-01 3.693286e-01 2.534574e-01 4.629112e-01 3.564183e-01 3.715684e-01 3.424749e-01 3.453463e-01 3.151013e-01 4.476510e-01 4.953069e-01 3.606513e-01 3.880903e-01 3.951895e-01 4.829703e-01 3.010767e-01 3.620848e-01 4.569137e-01 3.266153e-01 5.022007e-01 4.993689e-01 4.076278e-01 4.294208e-01 3.886817e-01 3.592548e-01 4.785505e-01 4.299226e-01 3.848054e-01 3.710020e-01 4.413366e-01 3.566287e-01 3.341847e-01 4.368104e-01 3.774663e-01 4.940121e-01 4.044262e-01 4.306011e-01 4.380957e-01 3.980339e-01 3.803456e-01 4.063381e-01 4.315348e-01 3.548031e-01 4.138502e-01 5.159060e-01 4.424709e-01 3.485122e-01 3.730560e-01 4.329228e-01 4.081128e-01 4.493181e-01 3.598493e-01 3.485384e-01 2.733583e-01 2.592315e-01 3.423863e-01 3.317362e-01 3.292932e-01 3.699225e-01 3.998581e-01 3.412848e-01 3.754582e-01 2.776246e-01 4.141650e-01 4.562602e-01 3.353431e-01 3.772148e-01 4.106123e-01 3.625903e-01 3.711974e-01 4.897361e-01 4.363196e-01 4.775663e-01 4.357255e-01 4.261054e-01 4.414861e-01 3.552131e-01 3.652073e-01 4.308475e-01 4.452594e-01 4.283852e-01 4.512552e-01 4.445189e-01 3.514069e-01 3.239833e-01 4.597729e-01 3.936127e-01 3.725989e-01 3.218565e-01 4.675284e-01 4.644777e-01
<VARIANCE> 142
 4.375671e-02 7.918570e-03 7.373261e-03 6.235633e-03 1.945906e-03 7.057123e-03 6.982238e-03 1.824782e-02 3.958195e-03 2.805477e-03 1.287702e-03 2.618290e-03 5.183961e-03 1.000000e-03 1.130056e-02 6.539930e-03 1.476391e-03 3.784954e-03 1.446963e-03 1.290452e-02 3.047238e-03 8.263326e-03 6.835289e-03 6.339507e-03 1.591346e-03 3.322419e-03 4.752763e-03 3.456985e-03 3.267390e-03 1.452594e-02 1.946012e-03 1.100556e-02 2.565458e-02 3.970148e-03 3.110918e-03 9.968597e-03 4.410578e-03 1.799317e-02 1.209796e-02 3.451567e-02 8.651609e-03 2.843339e-03 6.563032e-03 1.121053e-02 4.658238e-03 6.222170e-03 4.766728e-03 4.390157e-03 2.947892e-03 1.251189e-03 5.556261e-03 2.415466e-03 1.426566e-03 5.130112e-03 9.544432e-03 1.104189e-02 6.068315e-03 4.334903e-03 4.416943e-03 7.047888e-03 2.391405e-02 3.429240e-03 5.345699e-03 3.608646e-03 2.610017e-03 2.625858e-02 5.493380e-03 4.545883e-03 5.977932e-03 9.543998e-03 4.608179e-03 2.628597e-02 6.596396e-03 2.814135e-03 8.477009e-03 7.003657e-03 7.076605e-03 8.763106e-03 2.560481e-03 9.348077e-03 1.633735e-02 5.313011e-03 9.699061e-03 6.499626e-03 1.597176e-02 2.404797e-02 4.609832e-03 1.072154e-03 1.888359e-03 1.438692e-03 3.946130e-03 1.989658e-02 1.119493e-02 3.826079e-03 9.313037e-03 1.595904e-03 9.803782e-03 5.448546e-03 3.837159e-03 3.832450e-03 1.153819e-02 4.653872e-03 1.918948e-03 9.480632e-03 3.255920e-03 4.624236e-03 6.479677e-03 7.455073e-03 3.253598e-03 7.032598e-03 1.724722e-03 8.079438e-03 1.135947e-02 7.948723e-03 3.972005e-03 2.467015e-03 8.797013e-03 3.783137e-03 2.342501e-03 3.514852e-03 4.401847e-03 1.579846e-02 6.451303e-03 1.079871e-02 1.010828e-02 5.961260e-03 6.063456e-03 9.214535e-03 2.953134e-03 7.053131e-03 9.855171e-03 1.696734e-02 1.264902e-02 3.721276e-03 1.077354e-02 7.350645e-03 1.343643e-02 7.374182e-03 1.587626e-02 2.433021e-03 6.502619e-03 5.146057e-03
<GCONST> -4.715589e+02
<STATE> 3
<MEAN> 142
 5.886755e-01 4.215255e-01 3.307004e-01 4.038447e-01 2.902875e-01 2.437655e-01 3.209747e-01 3.313600e-01 3.061230e-01 4.234744e-01 4.099969e-01 3.881841e-01 4.459265e-01 4.341048e-01 3.920229e-01 3.083162e-01 3.981221e-01 5.186454e-01 2.573852e-01 3.380177e-01 4.387268e-01 4.755348e-01 3.629830e-01 5.149203e-01 4.856964e-01 3.807578e-01 4.514920e-01 3.921016e-01 4.748687e-01 3.765875e-01 4.237438e-01 4.607550e-01 3.621575e-01 4.455684e-01 4.751668e-01 4.229494e-01 3.856439e-01 4.745918e-01 4.619896e-01 2.989362e-01 4.260289e-01 5.345150e-01 3.577739e-01 3.078405e-01 1.899162e-01 3.924123e-01 5.060313e-01 4.013677e-01 4.257250e-01 3.386447e-01 4.285937e-01 4.396420e-01 4.217344e-01 2.902817e-01 5.220131e-01 4.839880e-01 4.188947e-01 2.759384e-01 3.859523e-01 2.763017e-01 3.642487e-01 4.949550e-01 4.098171e-01 3.942232e-01 4.018512e-01 4.940134e-01 4.574128e-01 3.437394e-01 3.957948e-01 4.135448e-01 4.517757e-01 3.515213e-01 4.511039e-01 3.617133e-01 3.053217e-01 3.768898e-01 4.266250e-01 5.746221e-01 4.430528e-01 3.927667e-01 5.365437e-01 4.523626e-01 4.872532e-01 4.752011e-01 3.274859e-01 4.049073e-01 3.798665e-01 3.833629e-01 4.937667e-01 2.909886e-01 4.039058e-01 2.777541e-01 4.558005e-01 3.392864e-01 5.478621e-01 4.764836e-01 5.190594e-01 4.379464e-01 4.735480e-01 3.986666e-01 4.552725e-01 5.440757e-01 3.290594e-01 3.969049e-01 3.503318e-01 3.448367e-01 3.807394e-01 4.473848e-01 3.493623e-01 3.384907e-01 3.974501e-01 3.766795e-01 3.719158e-01 3.641009e-01 5.038948e-01 4.107742e-01 3.964020e-01 4.593265e-01 4.398252e-01 4.237334e-01 4.598738e-01 5.893410e-01 5.455314e-01 4.282363e-01 3.418822e-01 4.094907e-01 4.693984e-01 4.547679e-01 4.394583e-01 3.416801e-01 3.668677e-01 5.572785e-01 3.873955e-01 5.000337e-01 4.902777e-01 4.606373e-01 4.098309e-01 5.483929e-01 3.095810e-01 4.458863e-01 5.064974e-01 4.497411e-01
<VARIANCE> 142
 4.210345e-02 7.904815e-03 3.804313e-03 1.192672e-02 4.828299e-03 1.420491e-02 1.138038e-02 1.597644e-02 2.869391e-03 3.777645e-03 1.000000e-03 5.712844e-03 4.024446e-03 3.601278e-03 2.407590e-02 6.382524e-03 3.919798e-03 2.896212e-02 4.290980e-03 1.679277e-02 6.663706e-03 5.410894e-03 1.025100e-02 2.493819e-03 1.474577e-03 1.420953e-02 7.876742e-03 6.306751e-03 2.324436e-03 3.337664e-03 1.145385e-03 3.777770e-03 2.255131e-02 8.061963e-03 3.112209e-03 1.416323e-02 1.911824e-02 2.147320e-02 8.381096e-03 1.262326e-02 1.370287e-02 4.905566e-03 8.594262e-03 1.127250e-02 6.757767e-03 9.144227e-03 3.300868e-03 1.074480e-02 7.099973e-03 1.737115e-03 1.432323e-03 1.177455e-02 6.363316e-03 5.228360e-03 8.466003e-03 4.299808e-03 4.829394e-03 2.424472e-03 1.102064e-02 2.256610e-03 3.033909e-02 2.040962e-03 2.015958e-03 5.738960e-03 4.647560e-03 1.432547e-02 2.083368e-02 5.278424e-03 2.475016e-03 2.162506e-03 5.386796e-03 1.711263e-02 2.497299e-03 9.411512e-03 1.139736e-02 1.153817e-02 7.308392e-03 1.401780e-02 1.290720e-03 1.601187e-03 4.599951e-03 7.566966e-03 1.360067e-02 1.374428e-03 6.722756e-03 1.372833e-02 2.073318e-03 3.915747e-03 4.519057e-03 3.148213e-03 7.285764e-03 1.391016e-02 5.795659e-03 7.966505e-03 1.494170e-02 1.765273e-03 9.424813e-03 8.138934e-03 6.492063e-03 8.398120e-03 3.589035e-03 8.146004e-03 7.751181e-03 5.653789e-03 1.798704e-02 3.381570e-03 3.316928e-03 5.685520e-03 2.787888e-03 2.882860e-03 1.140621e-02 9.297889e-03 2.181272e-03 7.731382e-03 1.515596e-02 6.674166e-03 4.076054e-03 6.888473e-03 2.585435e-03 5.796439e-03 4.067177e-03 7.705355e-03 2.877533e-03 1.803909e-02 1.769047e-02 2.755076e-03 2.640016e-03 9.265800e-03 6.828439e-03 1.283021e-02 9.851958e-03 1.634163e-02 1.414161e-02 4.236525e-03 5.660354e-02 1.124481e-02 1.924955e-02 3.742662e-02 1.349651e-02 4.935761e-03 4.113830e-03 9.125909e-03
<GCONST> -4.541874e+02
<TRANSP> 4
 0.000000e+00 1.000000e+00 0.000000e+00 0.000000e+00
 0.000000e+00 5.000000e-01 5.000000e-01 0.000000e+00
 0.000000e+00 0.000000e+00 5.000000e-01 5.000000e-01
 0.000000e+00 0.000000e+00 0.000000e+00 0.000000e+00
<ENDHMM>
