~o
<STREAMINFO> 1 142
<VECSIZE> 142<NULLD><USER><DIAGC>
~h "turkey"
<BEGINHMM>
<NUMSTATES> 4
<STATE> 2
<MEAN> 142
 5.234609e-01 3.045295e-01 3.288281e-01 3.267644e-01 3.568480e-01 2.638251e-01 4.093291e-01 3.473172e-01 3.771418e-01 4.144250e-01 4.680963e-01 4.504539e-01 3.874207e-01 4.369611e-01 4.117239e-01 3.535163e-01 4.052234e-01 3.926146e-01 2.832226e-01 3.804358e-01 4.545654e-01 4.737642e-01 3.499145e-01 4.719244e-01 5.065681e-01 3.832314e-01 4.139772e-01 3.660921e-01 4.386461e-01 3.876129e-01 4.441662e-01 3.694117e-01 3.534700e-01 5.095807e-01 4.064979e-01 4.082777e-01 3.934446e-01 4.008479e-01 4.268343e-01 4.842849e-01 3.906811e-01 4.821736e-01 3.216894e-01 3.196551e-01 2.065391e-01 3.643234e-01 4.492266e-01 4.802916e-01 4.385013e-01 2.775398e-01 4.404731e-01 4.630783e-01 4.395050e-01 2.995024e-01 4.114932e-01 3.759569e-01 4.704509e-01 3.290033e-01 3.618552e-01 3.742913e-01 4.486713e-01 4.492943e-01 4.004013e-01 3.656554e-01 4.480196e-01 4.230875e-01 4.709363e-01 4.716441e-01 4.249423e-01 4.232267e-01 4.273695e-01 3.241056e-01 3.970235e-01 4.266871e-01 2.850051e-01 3.541342e-01 4.616165e-01 3.801711e-01 4.888068e-01 4.335058e-01 5.156571e-01 3.885069e-01 4.584897e-01 3.891454e-01 4.017130e-01 3.612838e-01 3.220921e-01 3.973517e-01 4.653084e-01 2.942106e-01 2.986746e-01 2.765022e-01 4.490454e-01 3.456017e-01 3.936248e-01 4.692018e-01 5.098637e-01 3.275346e-01 5.301847e-01 4.623432e-01 4.524869e-01 4.175384e-01 2.904674e-01 3.774646e-01 3.623619e-01 3.192411e-01 3.679085e-01 4.400010e-01 3.704979e-01 4.396183e-01 3.452904e-01 3.373959e-01 3.366059e-01 3.834277e-01 3.716857e-01 3.994623e-01 3.282751e-01 4.529770e-01 4.041140e-01 3.489549e-01 4.084367e-01 4.287755e-01 4.127119e-01 3.446880e-01 4.367915e-01 3.886943e-01 4.171158e-01 4.462964e-01 3.120427e-01 4.255573e-01 4.913852e-01 4.074322e-01 3.651080e-01 5.329979e-01 4.801341e-01 4.631712e-01 4.370832e-01 5.088179e-01 5.109050e-01 4.013184e-01 4.050590e-01 4.037931e-01
<VARIANCE> 142
 1.485574e-02 1.263826e-02 8.993136e-03 2.375315e-03 1.320397e-03 1.271908e-02 1.427621e-02 4.623483e-03 2.416729e-03 7.065371e-03 1.282850e-02 4.048146e-03 3.347107e-03 1.306615e-02 1.514673e-02 7.520233e-03 2.117672e-03 1.547870e-02 2.540237e-03 6.421336e-03 8.772597e-03 8.411827e-03 9.710559e-03 4.582348e-03 4.411269e-03 3.876904e-03 1.544110e-02 1.624008e-02 5.267015e-03 4.356653e-03 1.597770e-03 6.254633e-03 1.311630e-02 5.216714e-03 5.847288e-03 1.647491e-02 9.212104e-03 4.706289e-03 8.233729e-03 6.273659e-02 1.142378e-02 1.180610e-02 8.550436e-03 7.686833e-03 1.354426e-02 9.580627e-03 1.818184e-02 8.913872e-03 7.168963e-03 5.117390e-03 2.969867e-03 2.860350e-03 5.160107e-03 8.653960e-03 3.843258e-03 8.618789e-03 2.292840e-02 2.269775e-03 6.558048e-03 5.590426e-03 7.997449e-03 4.174969e-03 1.138835e-03 2.349167e-03 3.135689e-02 4.185324e-03 1.342564e-02 6.567762e-03 2.681365e-03 3.799457e-03 1.206218e-02 7.824618e-03 3.603636e-03 6.813628e-03 9.161713e-03 3.916573e-03 4.314041e-03 1.006927e-02 7.263102e-03 1.083183e-02 1.795506e-02 1.194689e-02 1.556909e-02 8.238029e-03 1.694053e-02 1.984259e-02 3.217251e-03 1.009196e-03 2.800756e-03 1.136967e-02 7.404189e-03 5.773542e-03 3.353847e-02 5.397626e-03 6.087912e-03 1.806174e-02 8.900138e-03 8.310053e-03 2.444097e-03 8.420153e-03 5.801565e-03 7.042026e-03 1.832671e-03 9.713254e-03 6.845563e-03 2.822488e-02 2.999150e-03 1.786480e-03 7.561717e-03 2.270398e-02 3.291705e-03 6.154252e-03 5.723238e-03 1.150974e-02 1.221211e-02 5.379430e-03 1.673388e-02 2.003582e-02 6.310336e-03 5.158578e-03 9.433147e-03 7.232171e-03 5.965985e-03 3.330506e-02 1.920186e-02 4.837238e-03 1.595150e-02 3.191894e-02 1.031688e-02 9.862246e-03 2.938375e-02 1.995954e-02 1.905198e-02 7.409097e-03 3.211660e-02 9.619926e-03 1.026263e-02 3.657414e-02 3.119152e-02 1.055066e-02 7.592823e-03 6.853671e-03
<GCONST> -4.284022e+02
<STATE> 3
<MEAN> 142
 7.871364e-01 3.938400e-01 3.918800e-01 2.861400e-01 2.460977e-01 3.571644e-01 4.553710e-01 4.198459e-01 3.436320e-01 3.818762e-01 4.241669e-01 4.308011e-01 4.070198e-01 4.674283e-01 3.276922e-01 3.608314e-01 4.169305e-01 5.019860e-01 3.204885e-01 4.436448e-01 5.119873e-01 5.014461e-01 4.166245e-01 4.820448e-01 4.591743e-01 4.388049e-01 4.253399e-01 3.908730e-01 4.368790e-01 3.733252e-01 4.777317e-01 4.956240e-01 5.091951e-01 4.638688e-01 4.613822e-01 4.459675e-01 3.002931e-01 3.868425e-01 3.950580e-01 3.133992e-01 3.714787e-01 4.959037e-01 2.987073e-01 4.745723e-01 2.283739e-01 4.455615e-01 4.118813e-01 4.473639e-01 4.681236e-01 3.798114e-01 5.067425e-01 5.089372e-01 4.884117e-01 2.637233e-01 5.026567e-01 3.767547e-01 5.098989e-01 3.735848e-01 3.495637e-01 2.797318e-01 5.614548e-01 4.857388e-01 3.956694e-01 4.203514e-01 3.580059e-01 5.035012e-01 4.353425e-01 3.827971e-01 4.473468e-01 3.736593e-01 5.138435e-01 4.585550e-01 5.137311e-01 4.678344e-01 3.713099e-01 4.640239e-01 4.682696e-01 4.519080e-01 4.900341e-01 4.336952e-01 4.465264e-01 3.911492e-01 4.898759e-01 4.555840e-01 2.970191e-01 4.751735e-01 3.661291e-01 4.151571e-01 4.736941e-01 3.556370e-01 4.295545e-01 4.225351e-01 4.706224e-01 3.701673e-01 3.910762e-01 4.792483e-01 4.693883e-01 3.936360e-01 4.197231e-01 4.261967e-01 3.859130e-01 4.957760e-01 3.357669e-01 3.588816e-01 3.351283e-01 3.073240e-01 4.628180e-01 4.071839e-01 4.320845e-01 3.551112e-01 4.244506e-01 3.912610e-01 2.923749e-01 3.241642e-01 3.974631e-01 4.097998e-01 4.111562e-01 4.110552e-01 4.529871e-01 4.171581e-01 4.186160e-01 5.848771e-01 5.081577e-01 4.397776e-01 4.500386e-01 4.390942e-01 4.435565e-01 4.102054e-01 3.367774e-01 4.448132e-01 4.211462e-01 4.331836e-01 4.414128e-01 4.809686e-01 4.099070e-01 3.885858e-01 5.518025e-01 4.579635e-01 3.787270e-01 3.908586e-01 4.630043e-01 4.905698e-01
<VARIANCE> 142
 5.958255e-02 5.218518e-03 2.759259e-02 2.900633e-03 4.474972e-03 1.519478e-02 7.379220e-03 2.414794e-03 3.719525e-03 3.757405e-03 7.734423e-03 1.000000e-03 2.079707e-03 3.366091e-03 5.597788e-02 9.416500e-03 7.002418e-03 2.035561e-02 1.611370e-02 7.397451e-03 6.998750e-03 1.890724e-03 9.762340e-03 4.447278e-03 1.193044e-03 2.961312e-03 9.692669e-03 2.867826e-03 8.772814e-03 1.105364e-02 3.278172e-03 6.414718e-03 3.613901e-02 5.341208e-03 2.219249e-03 1.462991e-02 8.347850e-03 3.399649e-02 1.938831e-02 1.988868e-02 2.427735e-02 7.283387e-03 2.809483e-03 1.077631e-02 5.832883e-03 9.004504e-03 5.584424e-03 8.946190e-03 2.296452e-03 9.724122e-03 2.630729e-03 1.061063e-02 7.493093e-03 3.503925e-03 2.117122e-02 6.159422e-03 8.817210e-03 1.408421e-02 4.981587e-03 2.937672e-03 8.692949e-03 3.017722e-03 2.625490e-03 4.777669e-03 6.503684e-03 5.430638e-03 2.512407e-02 2.283352e-03 7.875188e-03 1.136735e-02 3.290391e-03 2.679214e-02 4.017540e-03 5.918640e-03 1.213391e-02 3.035892e-03 5.924877e-03 8.182560e-03 2.124086e-03 4.441064e-03 1.090504e-02 1.155746e-02 3.960453e-02 1.317411e-02 7.945929e-03 1.240014e-02 3.722048e-03 1.524534e-03 3.669705e-03 4.433870e-03 3.814707e-03 9.113487e-03 1.025781e-02 3.856423e-03 1.000000e-03 3.735993e-03 1.974624e-02 7.984894e-03 6.914018e-03 9.728267e-03 2.491309e-03 5.589473e-03 1.169361e-02 2.991997e-03 1.813651e-03 1.229757e-02 8.943185e-03 5.123497e-03 4.827698e-03 6.725048e-03 4.600480e-03 1.601441e-03 2.649407e-03 3.102825e-03 2.575890e-03 5.582356e-03 2.842190e-03 4.924158e-03 1.372403e-03 1.073634e-02 8.354737e-03 1.334196e-02 1.306393e-02 6.780283e-03 7.319995e-03 3.997640e-03 6.433457e-03 2.047475e-02 2.234004e-03 6.014820e-03 3.703136e-03 8.983339e-03 1.500081e-02 3.860001e-03 2.519176e-02 2.828272e-03 7.507279e-03 2.701180e-02 1.895801e-02 2.608033e-03 7.162267e-03 1.425591e-02
<GCONST> -4.548951e+02
<TRANSP> 4
 0.000000e+00 1.000000e+00 0.000000e+00 0.000000e+00
 0.000000e+00 5.000000e-01 5.000000e-01 0.000000e+00
 0.000000e+00 0.000000e+00 5.000000e-01 5.000000e-01
 0.000000e+00 0.000000e+00 0.000000e+00 0.000000e+00
<ENDHMM>
