~o
<STREAMINFO> 1 142
<VECSIZE> 142<NULLD><USER><DIAGC>
~h "virtual"
<BEGINHMM>
<NUMSTATES> 4
<STATE> 2
<MEAN> 142
 5.814641e-01 3.076676e-01 4.045505e-01 4.186350e-01 3.865256e-01 4.072714e-01 3.990596e-01 2.947669e-01 3.369950e-01 4.130854e-01 5.411432e-01 4.113820e-01 4.009444e-01 5.450066e-01 3.311032e-01 3.112876e-01 3.411716e-01 3.582730e-01 3.734285e-01 4.037816e-01 4.930028e-01 4.460037e-01 4.314201e-01 4.354168e-01 4.995396e-01 4.023675e-01 4.895011e-01 4.363246e-01 3.974427e-01 3.923429e-01 5.186231e-01 3.777459e-01 3.595371e-01 4.398328e-01 4.465913e-01 3.297406e-01 4.000052e-01 3.779325e-01 3.342050e-01 3.780085e-01 3.460753e-01 3.780699e-01 3.954121e-01 3.371066e-01 3.013892e-01 3.971506e-01 4.450386e-01 3.720717e-01 4.019679e-01 3.947672e-01 5.350242e-01 3.877578e-01 4.351800e-01 2.742430e-01 4.045683e-01 3.690313e-01 4.815328e-01 4.055771e-01 4.099324e-01 4.199615e-01 4.263375e-01 4.670494e-01 3.243999e-01 3.947180e-01 4.072273e-01 3.815347e-01 3.273805e-01 4.535787e-01 4.381640e-01 4.180731e-01 4.571614e-01 3.715037e-01 3.384485e-01 4.298723e-01 3.798348e-01 3.492768e-01 4.300540e-01 4.239371e-01 4.469768e-01 4.404161e-01 4.685491e-01 3.399806e-01 3.430529e-01 4.494786e-01 4.232458e-01 3.841114e-01 3.829007e-01 4.349078e-01 5.036082e-01 4.050591e-01 3.240684e-01 3.549809e-01 4.289207e-01 4.363903e-01 4.097885e-01 4.492097e-01 4.277707e-01 3.468468e-01 4.132052e-01 4.438247e-01 4.183785e-01 4.435108e-01 3.450304e-01 4.165773e-01 3.696091e-01 2.913929e-01 3.657082e-01 4.055840e-01 4.972408e-01 4.082091e-01 4.103978e-01 3.710308e-01 3.682212e-01 3.706158e-01 4.011788e-01 4.444487e-01 4.005619e-01 4.267877e-01 4.218150e-01 4.293292e-01 4.007506e-01 4.070041e-01 4.230866e-01 4.373500e-01 4.446542e-01 3.731290e-01 4.178590e-01 3.783738e-01 3.938444e-01 4.521762e-01 4.117956e-01 4.362010e-01 3.601167e-01 4.348827e-01 3.962952e-01 4.425779e-01 4.086434e-01 4.026841e-01 3.853192e-01 3.401118e-01 4.350854e-01 4.090478e-01
<VARIANCE> 142
 2.302036e-02 7.888359e-03 1.973797e-02 1.514645e-02 2.283458e-02 3.863252e-02 3.123025e-02 1.007321e-02 2.954046e-03 1.619710e-03 3.073687e-02 8.886769e-03 7.670367e-03 2.230743e-02 7.618663e-03 2.701140e-02 2.506227e-03 1.344332e-02 1.355215e-02 1.037527e-02 2.264155e-02 3.579114e-02 1.534476e-02 9.046843e-03 3.019330e-03 5.449707e-03 1.893595e-02 1.716161e-02 9.157420e-03 1.737225e-02 6.043914e-03 5.017476e-03 2.040504e-02 6.375395e-03 3.679985e-03 6.366600e-03 1.387708e-02 2.371958e-02 1.231695e-02 3.932187e-02 6.478473e-03 8.998105e-03 8.600200e-03 2.261206e-02 1.348321e-02 1.099937e-02 2.851975e-02 5.284700e-03 1.790099e-02 6.057970e-03 8.640506e-03 7.693294e-03 5.329120e-03 4.739810e-03 5.281702e-03 1.364958e-02 1.962713e-02 2.362928e-02 6.938629e-03 4.741395e-02 1.235761e-02 1.203664e-02 5.369324e-03 1.005623e-02 2.011991e-02 1.620509e-02 6.889158e-03 3.835078e-02 1.247368e-02 1.302266e-02 6.601905e-03 1.303715e-02 6.704788e-03 8.182637e-03 2.000252e-02 6.196945e-03 1.348377e-02 6.079127e-03 7.009824e-03 2.182868e-02 1.469236e-02 5.253765e-03 5.738353e-03 2.016669e-02 2.078599e-02 2.038411e-02 5.196972e-03 6.936114e-03 7.890495e-03 1.403615e-02 7.445093e-03 3.158905e-02 1.436527e-02 2.913588e-02 1.381309e-03 7.167146e-03 8.741258e-03 2.020692e-02 5.959139e-03 1.090768e-02 8.361993e-03 1.890101e-02 3.926447e-03 9.713938e-03 8.817091e-03 1.510688e-02 8.869172e-03 9.354485e-03 3.808622e-02 5.690832e-02 4.789941e-03 1.344882e-02 2.229169e-02 2.051382e-03 1.198276e-02 1.364843e-02 4.233210e-03 7.235375e-03 2.027334e-02 1.934835e-02 5.378245e-03 1.150350e-02 3.464631e-03 1.965187e-02 3.124665e-02 4.256123e-03 7.635698e-03 1.853629e-02 2.852852e-02 1.411913e-02 1.756875e-02 1.128503e-02 1.629071e-02 4.941898e-03 6.528869e-03 7.344270e-03 7.943039e-03 5.698796e-03 2.557182e-02 5.547464e-03 5.934708e-03 5.344005e-03
<GCONST> -3.811323e+02
<STATE> 3
<MEAN> 142
 4.461974e-01 4.197756e-01 3.715181e-01 4.662947e-01 4.880485e-01 2.685582e-01 4.297894e-01 3.046305e-01 4.043175e-01 4.337128e-01 4.281949e-01 4.370455e-01 4.044971e-01 4.281603e-01 4.151683e-01 4.535211e-01 4.410185e-01 4.477731e-01 3.114558e-01 3.370498e-01 4.335621e-01 4.128528e-01 3.758369e-01 4.578098e-01 5.208807e-01 4.200072e-01 4.329576e-01 4.512903e-01 4.496882e-01 4.338991e-01 4.702130e-01 4.478985e-01 4.307501e-01 5.055819e-01 4.077492e-01 4.284565e-01 4.180571e-01 3.717301e-01 4.196744e-01 4.561456e-01 4.175264e-01 5.122532e-01 4.300825e-01 2.849945e-01 3.400869e-01 4.408250e-01 5.153586e-01 4.239885e-01 4.153978e-01 3.555784e-01 5.307229e-01 4.042083e-01 3.753246e-01 3.473502e-01 4.709825e-01 4.585347e-01 3.374301e-01 3.147065e-01 3.706476e-01 3.884040e-01 4.307829e-01 4.777298e-01 4.312386e-01 4.316589e-01 4.761910e-01 5.664539e-01 3.676479e-01 4.526085e-01 4.477747e-01 4.354258e-01 4.426557e-01 3.745929e-01 4.397933e-01 3.616845e-01 2.480664e-01 3.726577e-01 4.785403e-01 5.041556e-01 4.657627e-01 4.680942e-01 5.087151e-01 3.998082e-01 4.278266e-01 4.168547e-01 4.007040e-01 4.386237e-01 4.138601e-01 4.171553e-01 4.789422e-01 3.616213e-01 3.714920e-01 4.116794e-01 4.701257e-01 3.768284e-01 5.098967e-01 4.320106e-01 4.640743e-01 3.434214e-01 5.455977e-01 4.707149e-01 4.247074e-01 5.087233e-01 3.758778e-01 5.040641e-01 3.049086e-01 3.920362e-01 4.244425e-01 4.532227e-01 3.900975e-01 4.071750e-01 3.841640e-01 3.618395e-01 5.026092e-01 4.412995e-01 3.979681e-01 4.264157e-01 3.747504e-01 4.681124e-01 4.707451e-01 4.445518e-01 4.775749e-01 4.821027e-01 4.555279e-01 3.586242e-01 3.894039e-01 4.153611e-01 4.355234e-01 3.902382e-01 4.270626e-01 3.353592e-01 4.688162e-01 4.609036e-01 3.874416e-01 4.265103e-01 4.492298e-01 4.885732e-01 4.541815e-01 4.867505e-01 4.954467e-01 4.773582e-01 5.515388e-01 4.015447e-01
<VARIANCE> 142
 9.063672e-03 1.757968e-02 9.964231e-03 1.780690e-02 1.255940e-02 1.200926e-02 1.138272e-02 1.567607e-02 2.803582e-02 6.183680e-03 6.766691e-03 1.316353e-02 2.621344e-02 1.586807e-02 8.531103e-03 1.219497e-02 1.294378e-02 4.413210e-03 8.234778e-03 2.797643e-02 1.090769e-02 1.039241e-02 1.024687e-02 5.684621e-03 2.470602e-03 1.968403e-02 2.277711e-02 9.668873e-03 4.836861e-03 1.706536e-02 3.709259e-03 1.154801e-02 1.734061e-02 4.868786e-03 1.979810e-03 1.411157e-02 8.780266e-03 4.157456e-02 2.163859e-02 2.980906e-02 9.181914e-03 1.128326e-02 1.557950e-02 1.311612e-02 2.099361e-02 1.745237e-02 1.887314e-02 3.063861e-02 6.926925e-03 5.464854e-03 1.973155e-03 4.372566e-02 1.481886e-02 9.665246e-03 2.420911e-03 1.297374e-02 8.062596e-03 3.931718e-03 2.267243e-03 4.807162e-02 2.091457e-02 5.810287e-03 2.049292e-02 9.787761e-03 2.130338e-02 4.629365e-02 4.897263e-02 1.922534e-02 3.125388e-03 2.318811e-02 1.433773e-02 4.253967e-03 1.596937e-02 7.676792e-03 9.673680e-03 1.015500e-02 7.021695e-03 5.821958e-03 1.368525e-02 7.606146e-03 3.411934e-03 6.713395e-03 6.764236e-03 1.480815e-02 1.925268e-02 1.047678e-02 1.168325e-02 5.356849e-03 7.440106e-03 4.092409e-03 2.498026e-02 1.953617e-02 8.381668e-03 1.573506e-02 5.548152e-03 8.205979e-03 2.413253e-03 2.004894e-02 1.243904e-02 1.555726e-02 6.740564e-03 7.045291e-03 7.708577e-03 2.108088e-02 2.403581e-03 8.088449e-03 3.549415e-02 1.911360e-02 1.333320e-02 1.487663e-02 1.108232e-02 4.649259e-03 4.820657e-02 1.389714e-02 1.059923e-02 2.273218e-03 1.600125e-02 4.984502e-03 1.256252e-02 1.698730e-02 5.491273e-03 2.896523e-02 4.433258e-03 1.400689e-02 1.337426e-02 3.710767e-03 1.404183e-03 1.292196e-02 2.215436e-02 1.303920e-02 3.199587e-02 6.212718e-03 9.260065e-03 1.760432e-02 8.367214e-03 1.648564e-03 1.571078e-02 2.182565e-02 2.110049e-02 1.451679e-02 3.005345e-02 1.360921e-02
<GCONST> -3.824369e+02
<TRANSP> 4
 0.000000e+00 1.000000e+00 0.000000e+00 0.000000e+00
 0.000000e+00 5.000000e-01 5.000000e-01 0.000000e+00
 0.000000e+00 0.000000e+00 5.000000e-01 5.000000e-01
 0.000000e+00 0.000000e+00 0.000000e+00 0.000000e+00
<ENDHMM>
