~o
<STREAMINFO> 1 142
<VECSIZE> 142<NULLD><USER><DIAGC>
~h "water"
<BEGINHMM>
<NUMSTATES> 4
<STATE> 2
<MEAN> 142
 6.842409e-01 3.652330e-01 3.821874e-01 3.315339e-01 2.599168e-01 2.818172e-01 3.488588e-01 2.866073e-01 3.427857e-01 4.016466e-01 4.841770e-01 4.577079e-01 3.919981e-01 5.103852e-01 2.654049e-01 2.762468e-01 3.847391e-01 3.965089e-01 3.499188e-01 3.994894e-01 4.444939e-01 4.448566e-01 3.915147e-01 4.583141e-01 4.700601e-01 3.862579e-01 3.954777e-01 4.183295e-01 4.845214e-01 3.776900e-01 4.453090e-01 4.550823e-01 4.388280e-01 4.053677e-01 4.306826e-01 3.291950e-01 3.351809e-01 2.923804e-01 3.761434e-01 2.625112e-01 3.352069e-01 4.504244e-01 3.435245e-01 3.253517e-01 2.313885e-01 3.830384e-01 4.306457e-01 3.552214e-01 3.755852e-01 3.725102e-01 4.562694e-01 3.988833e-01 4.667803e-01 2.738687e-01 4.814398e-01 3.933811e-01 4.085438e-01 3.413969e-01 3.433430e-01 2.509442e-01 4.300767e-01 4.695139e-01 3.764243e-01 4.018940e-01 3.593219e-01 4.496198e-01 2.709233e-01 3.399813e-01 4.296682e-01 3.741393e-01 4.811232e-01 4.212155e-01 4.470036e-01 4.248720e-01 3.220480e-01 3.267326e-01 4.371926e-01 4.832268e-01 4.679046e-01 3.992441e-01 4.455208e-01 4.224752e-01 3.740430e-01 4.255744e-01 3.092906e-01 4.063737e-01 3.634955e-01 4.558845e-01 4.326558e-01 3.413292e-01 3.892364e-01 2.864186e-01 4.424987e-01 3.919449e-01 4.354644e-01 4.501107e-01 3.898568e-01 3.182226e-01 4.065718e-01 4.093431e-01 4.099800e-01 4.926515e-01 3.629089e-01 3.937107e-01 2.643374e-01 3.240882e-01 4.215946e-01 3.741319e-01 3.653707e-01 3.009462e-01 4.211054e-01 4.003672e-01 3.201731e-01 3.479005e-01 4.002892e-01 4.022897e-01 4.205991e-01 4.273665e-01 4.310369e-01 3.984931e-01 4.589617e-01 5.149449e-01 4.570995e-01 3.831801e-01 3.923021e-01 4.112748e-01 4.373610e-01 3.711471e-01 4.522767e-01 3.989642e-01 3.205851e-01 4.164940e-01 3.887622e-01 3.879249e-01 4.175259e-01 4.227678e-01 4.272147e-01 3.387851e-01 2.879795e-01 3.849963e-01 4.556547e-01 5.004023e-01
<VARIANCE> 142
 4.716624e-02 1.955229e-03 2.083519e-03 3.434498e-03 1.079511e-02 1.683419e-02 1.963560e-02 1.834433e-02 1.662263e-03 3.611423e-03 1.576451e-02 9.153433e-03 2.118226e-03 1.710675e-02 5.102532e-03 7.381468e-03 1.857510e-03 8.880494e-03 7.469591e-03 5.559286e-03 1.087599e-02 1.819868e-02 2.661166e-03 9.187639e-03 7.113887e-03 5.121546e-03 2.504484e-03 3.300626e-02 1.104316e-02 1.366957e-02 1.016904e-03 1.010094e-02 2.915222e-02 4.964665e-03 1.000000e-03 3.243562e-03 9.312610e-03 7.251611e-03 5.010834e-03 9.454705e-03 1.620948e-02 6.456411e-03 7.856397e-03 2.093152e-02 2.615582e-03 4.441733e-03 1.149005e-02 5.071688e-03 8.107577e-03 1.059184e-02 1.000000e-03 6.761523e-03 6.684680e-03 4.963364e-03 3.714323e-03 7.369700e-03 6.999654e-03 3.305839e-03 5.088113e-03 2.773658e-03 2.146808e-02 4.253245e-03 1.905780e-03 8.283304e-03 1.405730e-02 9.175364e-03 6.824235e-03 3.569648e-03 8.382400e-03 1.000154e-02 2.704326e-03 1.834187e-02 8.450488e-03 5.083189e-03 4.005423e-03 3.592156e-03 6.398162e-03 1.249696e-02 3.264000e-03 1.100788e-02 1.306189e-02 6.101167e-03 3.528993e-03 5.582104e-03 3.732326e-03 2.000425e-02 3.526150e-03 1.762686e-03 4.148006e-03 6.787172e-03 1.822761e-02 1.091854e-02 4.975608e-03 3.230052e-02 6.593998e-03 3.751199e-03 2.554493e-03 1.044591e-02 4.514792e-03 4.714000e-03 6.405315e-03 1.839684e-02 5.557344e-03 1.790810e-02 1.000000e-03 4.815199e-03 8.558852e-03 1.363671e-02 2.781122e-03 5.348832e-03 7.586865e-03 1.351194e-02 4.424101e-03 5.806715e-03 4.738898e-03 5.877094e-03 1.077757e-02 9.776861e-03 1.268625e-02 3.203167e-03 5.337839e-03 6.149967e-03 8.270232e-03 2.634264e-02 6.316965e-03 1.841795e-03 8.303458e-03 1.322549e-02 5.092840e-02 1.113530e-02 8.494904e-03 4.388396e-03 2.816893e-02 7.073193e-03 1.889887e-02 1.251000e-02 2.095055e-02 1.980747e-03 6.651318e-03 7.196823e-03 1.091348e-02 3.710344e-03
<GCONST> -4.477139e+02
<STATE> 3
<MEAN> 142
 5.132046e-01 2.601983e-01 3.295288e-01 3.104416e-01 3.332565e-01 2.376881e-01 3.509995e-01 3.045685e-01 3.343837e-01 3.521128e-01 4.269302e-01 3.780912e-01 3.906870e-01 4.552679e-01 2.873044e-01 3.513891e-01 3.765852e-01 2.983244e-01 3.214839e-01 3.506782e-01 4.725097e-01 4.230306e-01 3.441695e-01 4.176080e-01 4.980185e-01 3.462373e-01 4.230977e-01 3.591832e-01 3.867473e-01 3.713398e-01 4.607987e-01 3.073241e-01 3.228858e-01 4.659285e-01 3.678111e-01 3.615118e-01 3.530584e-01 3.531552e-01 3.747000e-01 4.295363e-01 3.637832e-01 3.990537e-01 3.456655e-01 2.819432e-01 1.969864e-01 3.082166e-01 4.024050e-01 4.426239e-01 3.831436e-01 2.949083e-01 4.431311e-01 4.565037e-01 3.991345e-01 3.076293e-01 4.187536e-01 3.360570e-01 4.720391e-01 3.323111e-01 3.942224e-01 3.192217e-01 3.985803e-01 5.228880e-01 3.743750e-01 3.689973e-01 3.926287e-01 3.610912e-01 3.907665e-01 4.685790e-01 4.619158e-01 4.108402e-01 4.272789e-01 2.875406e-01 3.653146e-01 3.983278e-01 2.883638e-01 3.371902e-01 5.217381e-01 3.453080e-01 5.163598e-01 3.789016e-01 5.226512e-01 3.392083e-01 3.236931e-01 4.127642e-01 3.403561e-01 3.183050e-01 3.090246e-01 4.027793e-01 4.771472e-01 2.964895e-01 2.391911e-01 2.807770e-01 4.555551e-01 3.339919e-01 4.282855e-01 4.417081e-01 4.954227e-01 3.085589e-01 4.696189e-01 4.670926e-01 5.121574e-01 3.948028e-01 2.955714e-01 3.219997e-01 3.385155e-01 2.598066e-01 3.605447e-01 3.889607e-01 4.164917e-01 3.433848e-01 3.351627e-01 3.019615e-01 3.543020e-01 3.615147e-01 3.370992e-01 3.650863e-01 3.289407e-01 4.327880e-01 3.554782e-01 3.482383e-01 4.005654e-01 3.827319e-01 3.958055e-01 3.016767e-01 4.384511e-01 2.759353e-01 3.865195e-01 4.398460e-01 2.950929e-01 4.276824e-01 4.578248e-01 3.955689e-01 3.465762e-01 4.668568e-01 3.967165e-01 4.909447e-01 3.509464e-01 4.210085e-01 5.146046e-01 3.411450e-01 3.654067e-01 4.137200e-01
<VARIANCE> 142
 9.008576e-03 3.199139e-03 2.621009e-03 1.335480e-03 1.483480e-03 1.627170e-02 1.330122e-02 9.306322e-03 1.000000e-03 2.682756e-03 2.420417e-03 3.423210e-03 1.040978e-03 4.027260e-03 5.712303e-03 5.354810e-03 4.049716e-03 3.037580e-03 2.858116e-03 1.460120e-02 3.909348e-03 1.617875e-02 1.771301e-03 5.303363e-03 5.107839e-03 4.436499e-03 8.185612e-03 5.346674e-03 5.974719e-03 3.291113e-03 3.067889e-03 3.548141e-03 7.974267e-03 6.122570e-03 1.000000e-03 5.172242e-03 2.167454e-03 1.239266e-03 1.414382e-03 6.533114e-02 7.265478e-03 1.396468e-03 8.282523e-03 8.155341e-03 1.573805e-02 7.233530e-03 2.988576e-03 6.950300e-03 1.953002e-03 7.744118e-03 1.000000e-03 3.545108e-03 2.794685e-03 2.794042e-03 2.466131e-03 5.196054e-03 1.131996e-02 1.000000e-03 5.123607e-03 1.375770e-03 2.737880e-03 4.691103e-03 1.477832e-03 3.333993e-03 2.554901e-02 2.451900e-03 7.944115e-03 9.444561e-03 1.008962e-03 2.948794e-03 5.588995e-03 8.497745e-03 1.584386e-03 4.816978e-03 2.449100e-03 6.073527e-03 3.730314e-03 3.657906e-03 4.734505e-03 2.356915e-03 4.662071e-03 1.782697e-03 2.170696e-03 6.946836e-03 9.346855e-03 1.133789e-02 1.351004e-03 1.097405e-03 1.758268e-03 4.398717e-03 4.167913e-03 3.173201e-03 2.694202e-02 5.863606e-03 1.899871e-03 1.796683e-02 4.638346e-03 1.715333e-02 3.256723e-03 2.007894e-03 4.663581e-03 7.164967e-03 4.780743e-03 3.046524e-03 1.000000e-03 4.837517e-03 5.601033e-03 5.124283e-03 3.364758e-03 1.457491e-02 3.656740e-03 2.275678e-03 1.045498e-02 1.175451e-03 8.761745e-03 1.716133e-03 8.292436e-03 5.061103e-03 4.342721e-03 3.205892e-03 1.000000e-03 3.647980e-03 8.215256e-03 1.731400e-02 8.110072e-03 3.768742e-03 1.214093e-02 2.458962e-02 2.656389e-02 1.690386e-03 1.807976e-02 3.590110e-03 1.879258e-02 1.339188e-02 4.862450e-03 4.888363e-03 1.194033e-02 2.789759e-03 2.245103e-02 1.690745e-03 2.604710e-03 1.925079e-03
<GCONST> -5.099509e+02
<TRANSP> 4
 0.000000e+00 1.000000e+00 0.000000e+00 0.000000e+00
 0.000000e+00 5.000000e-01 5.000000e-01 0.000000e+00
 0.000000e+00 0.000000e+00 5.000000e-01 5.000000e-01
 0.000000e+00 0.000000e+00 0.000000e+00 0.000000e+00
<ENDHMM>
