~o
<STREAMINFO> 1 142
<VECSIZE> 142<NULLD><USER><DIAGC>
~h "wife"
<BEGINHMM>
<NUMSTATES> 4
<STATE> 2
<MEAN> 142
 5.056958e-01 4.104650e-01 2.923798e-01 3.692317e-01 3.459353e-01 2.350653e-01 3.310041e-01 2.888857e-01 3.609246e-01 4.719756e-01 4.074571e-01 4.753041e-01 3.325837e-01 3.780401e-01 3.206414e-01 3.453997e-01 4.771275e-01 4.348654e-01 2.756258e-01 2.717411e-01 4.037125e-01 4.259894e-01 3.616401e-01 4.905797e-01 4.727024e-01 3.850381e-01 4.478587e-01 3.549317e-01 4.733176e-01 4.790724e-01 4.734492e-01 3.922012e-01 3.262929e-01 5.057222e-01 3.925125e-01 4.095774e-01 3.326671e-01 3.510390e-01 4.875709e-01 3.037259e-01 4.020457e-01 5.336825e-01 4.478939e-01 2.663875e-01 2.191462e-01 4.214562e-01 3.986864e-01 3.588643e-01 3.773058e-01 3.387620e-01 4.693408e-01 3.638687e-01 4.533449e-01 3.087395e-01 3.989895e-01 4.350734e-01 4.350109e-01 2.964630e-01 3.819905e-01 3.191493e-01 3.450658e-01 4.658301e-01 3.971348e-01 4.413235e-01 4.618655e-01 4.845210e-01 3.638065e-01 3.793538e-01 3.673559e-01 4.871583e-01 3.731294e-01 3.867349e-01 4.283346e-01 3.803579e-01 2.293941e-01 3.688996e-01 3.862690e-01 3.485027e-01 5.152452e-01 4.333309e-01 5.317108e-01 3.918942e-01 4.292347e-01 4.289635e-01 3.083828e-01 3.545445e-01 3.590316e-01 3.863010e-01 4.612989e-01 3.363734e-01 4.008271e-01 3.119089e-01 4.129707e-01 3.898440e-01 4.133311e-01 4.484846e-01 4.466368e-01 3.366649e-01 4.905556e-01 4.146886e-01 4.178430e-01 4.662923e-01 3.279973e-01 5.022447e-01 2.796143e-01 3.532767e-01 4.360526e-01 4.294722e-01 3.401459e-01 3.138168e-01 4.195150e-01 4.191039e-01 2.590326e-01 4.424279e-01 4.211636e-01 4.404900e-01 4.845274e-01 3.800499e-01 4.460754e-01 3.591274e-01 4.294779e-01 4.910643e-01 4.246605e-01 4.328642e-01 3.644989e-01 4.047175e-01 4.308191e-01 4.816723e-01 4.874153e-01 3.398516e-01 3.093211e-01 4.173443e-01 3.826056e-01 4.056813e-01 3.852069e-01 4.543970e-01 3.962381e-01 3.878893e-01 3.479824e-01 4.126371e-01 5.199102e-01 3.096119e-01
<VARIANCE> 142
 1.024488e-02 1.166632e-02 4.208483e-03 1.334176e-02 8.842404e-03 2.425819e-02 6.066781e-03 1.772854e-02 3.330518e-03 8.441125e-03 4.184149e-03 1.561889e-02 4.164768e-03 7.823054e-03 3.258216e-03 1.198529e-02 1.436090e-02 2.427383e-02 5.135326e-03 7.822600e-03 7.411808e-03 1.927340e-02 8.629764e-03 6.674486e-03 3.530084e-03 1.747776e-02 6.421334e-03 8.418220e-03 3.992605e-03 1.467674e-02 3.410375e-03 8.999714e-03 1.401641e-02 1.420137e-02 1.589334e-03 1.144402e-02 2.084979e-03 8.968580e-03 1.360961e-02 8.475009e-03 4.710729e-03 2.993209e-02 1.295937e-02 3.419124e-03 1.291428e-02 1.274696e-02 8.600706e-03 3.437033e-03 4.127457e-03 9.855910e-03 5.440677e-03 6.769807e-03 4.214147e-03 7.523569e-03 5.320303e-03 1.955993e-02 6.384026e-03 2.150501e-03 5.059621e-03 3.427457e-03 9.153404e-03 9.425976e-03 1.261963e-03 8.252387e-03 2.091855e-02 3.901294e-02 1.215435e-02 8.556692e-03 9.923220e-03 9.560824e-03 5.102924e-03 3.199578e-02 1.401068e-02 7.193470e-03 1.610004e-02 7.961537e-03 4.462649e-03 1.490302e-02 1.090469e-02 1.587488e-02 1.073883e-02 3.991195e-03 6.981078e-03 6.462988e-03 5.234702e-03 2.195580e-02 3.880695e-03 3.186530e-03 2.857163e-03 1.855195e-02 1.548503e-02 2.772174e-02 2.250681e-02 1.312069e-02 8.370945e-03 1.115677e-02 6.738340e-03 2.787626e-02 8.438841e-03 4.427662e-03 1.472637e-02 8.619775e-03 9.311344e-03 1.875068e-02 3.424690e-03 1.397175e-02 5.526420e-03 1.051966e-02 9.553408e-03 2.517593e-03 1.415270e-02 1.759855e-02 5.967491e-03 1.125470e-02 3.102440e-03 1.684580e-02 1.878472e-02 1.894629e-02 6.980795e-03 1.827022e-03 6.086086e-03 1.539235e-02 1.227531e-02 5.537526e-02 6.140380e-03 6.327472e-03 1.189252e-02 2.587516e-02 2.591444e-02 6.091566e-03 1.352618e-02 7.696386e-03 3.003845e-02 8.992679e-03 5.472854e-03 1.597676e-02 1.010000e-02 4.732315e-03 3.875996e-03 1.627734e-02 2.659209e-02 4.705258e-03
<GCONST> -4.114012e+02
<STATE> 3
<MEAN> 142
 6.438957e-01 4.192092e-01 3.872888e-01 3.371643e-01 2.585640e-01 3.463691e-01 4.035003e-01 4.238187e-01 3.701474e-01 4.110687e-01 4.577918e-01 4.536652e-01 3.905717e-01 4.607857e-01 3.654208e-01 3.933898e-01 4.249424e-01 4.365701e-01 3.035530e-01 3.956336e-01 5.131160e-01 5.439211e-01 4.330818e-01 4.724474e-01 4.474716e-01 4.570706e-01 4.205460e-01 3.918273e-01 4.581689e-01 4.182146e-01 4.964063e-01 5.124381e-01 4.564673e-01 4.754112e-01 4.304807e-01 4.682525e-01 3.663108e-01 3.533922e-01 3.827308e-01 3.085093e-01 3.793704e-01 4.520629e-01 3.262951e-01 3.560702e-01 2.460649e-01 4.192286e-01 4.608782e-01 4.317144e-01 4.730179e-01 3.203420e-01 4.298031e-01 4.391444e-01 4.641147e-01 2.977869e-01 4.714159e-01 4.193261e-01 4.391517e-01 3.498830e-01 3.732124e-01 3.445994e-01 4.642448e-01 5.220082e-01 4.219095e-01 4.590756e-01 3.969729e-01 4.817479e-01 3.954503e-01 3.762405e-01 4.487886e-01 4.295657e-01 4.640661e-01 4.602157e-01 4.386699e-01 3.943251e-01 3.600512e-01 4.009307e-01 4.494729e-01 4.554803e-01 4.767883e-01 4.422441e-01 4.416554e-01 4.330853e-01 4.092323e-01 4.315512e-01 3.246704e-01 4.526194e-01 3.871265e-01 4.070714e-01 4.270552e-01 3.579910e-01 3.856118e-01 3.927783e-01 3.867160e-01 3.843337e-01 4.456938e-01 4.798826e-01 4.583974e-01 3.647225e-01 4.299446e-01 4.813923e-01 4.028289e-01 5.209531e-01 3.981803e-01 3.706836e-01 3.785981e-01 3.862522e-01 4.055314e-01 4.011655e-01 3.990531e-01 3.782873e-01 4.349717e-01 4.062192e-01 3.219762e-01 3.710692e-01 4.489159e-01 4.305032e-01 4.016123e-01 4.549725e-01 4.496842e-01 4.438789e-01 4.792290e-01 5.529689e-01 5.288738e-01 4.230593e-01 4.135662e-01 4.414302e-01 3.598666e-01 3.800984e-01 3.763899e-01 4.079898e-01 4.159189e-01 4.391958e-01 3.845486e-01 4.572240e-01 4.086947e-01 3.870719e-01 4.772032e-01 4.502610e-01 3.435292e-01 4.606653e-01 5.441335e-01 4.556956e-01
<VARIANCE> 142
 5.170437e-02 2.952975e-03 1.956656e-02 4.102812e-03 7.041381e-03 1.442183e-02 1.422323e-02 8.682497e-03 5.708722e-03 5.782114e-03 2.901207e-02 3.072038e-03 8.933921e-03 2.725184e-02 2.603909e-02 4.072306e-03 2.446444e-03 1.103401e-02 2.235354e-02 2.160954e-02 1.163780e-02 8.719915e-03 2.743513e-02 7.599170e-03 7.764127e-03 1.608442e-02 7.179742e-03 3.209800e-03 1.753013e-02 1.381184e-02 1.027165e-02 1.185607e-02 2.081888e-02 6.017801e-03 5.107917e-03 1.765586e-02 1.367340e-02 8.960159e-03 1.881533e-02 4.149170e-03 1.063648e-02 7.480151e-03 8.582279e-03 7.728751e-03 5.224324e-03 5.879546e-03 2.662344e-03 3.516293e-03 8.325894e-03 9.684551e-03 3.732234e-03 3.114789e-03 2.874543e-03 2.910506e-03 1.000298e-02 1.038029e-02 3.034575e-02 9.313858e-03 1.204567e-02 8.610414e-03 9.047220e-03 1.999883e-02 1.281055e-02 1.060616e-02 1.228011e-02 1.010487e-02 7.605720e-03 1.028626e-02 8.741334e-03 8.223362e-03 8.671002e-03 1.871369e-02 3.869226e-03 8.532722e-03 2.165287e-02 6.633963e-03 7.877507e-03 7.111791e-03 3.557038e-03 4.960563e-03 6.467850e-03 1.163738e-02 1.189303e-02 7.663834e-03 3.810724e-03 2.155809e-02 6.383686e-03 4.603091e-03 5.490560e-03 9.738008e-03 5.116639e-03 2.168941e-02 6.740414e-03 3.678149e-03 5.547820e-03 5.166289e-03 9.004648e-03 5.037243e-03 6.043564e-03 9.185039e-03 5.948594e-03 3.254764e-03 4.418950e-03 1.066548e-02 1.659741e-02 1.622011e-02 1.797430e-03 3.493984e-03 1.145384e-02 7.381618e-03 3.733287e-03 1.241952e-02 2.470449e-03 8.950742e-03 9.066329e-03 2.661723e-03 1.066862e-02 4.879937e-03 6.258050e-03 6.912218e-03 3.622455e-03 5.270476e-03 6.143157e-03 1.908660e-02 1.288354e-02 2.289608e-03 1.188785e-02 1.020561e-02 6.464278e-03 6.743004e-03 4.396996e-03 2.572628e-02 1.819072e-02 6.856042e-03 3.364608e-02 1.096142e-02 6.256105e-03 2.113280e-02 8.450018e-03 1.841773e-02 7.401091e-03 9.448659e-03
<GCONST> -4.190466e+02
<TRANSP> 4
 0.000000e+00 1.000000e+00 0.000000e+00 0.000000e+00
 0.000000e+00 5.000000e-01 5.000000e-01 0.000000e+00
 0.000000e+00 0.000000e+00 5.000000e-01 5.000000e-01
 0.000000e+00 0.000000e+00 0.000000e+00 0.000000e+00
<ENDHMM>
