~o
<STREAMINFO> 1 142
<VECSIZE> 142<NULLD><USER><DIAGC>
~h "wine"
<BEGINHMM>
<NUMSTATES> 4
<STATE> 2
<MEAN> 142
 6.722243e-01 3.984242e-01 3.696957e-01 3.608335e-01 2.942642e-01 3.077587e-01 3.088850e-01 3.290420e-01 3.623403e-01 3.988011e-01 4.437505e-01 4.869530e-01 3.987710e-01 4.656869e-01 3.009279e-01 3.039192e-01 3.970233e-01 4.178788e-01 3.304986e-01 3.967054e-01 4.363756e-01 4.066592e-01 4.154151e-01 4.267788e-01 4.508470e-01 4.270476e-01 4.305272e-01 4.300872e-01 3.588921e-01 4.225318e-01 4.569519e-01 4.266605e-01 3.974244e-01 4.217406e-01 4.210560e-01 3.995306e-01 3.158982e-01 3.629930e-01 3.369206e-01 2.760999e-01 3.784029e-01 4.208003e-01 3.910338e-01 3.509920e-01 2.520573e-01 4.526645e-01 4.086796e-01 3.319708e-01 3.680110e-01 3.644094e-01 4.742177e-01 4.140995e-01 4.498358e-01 3.224356e-01 4.809485e-01 3.877912e-01 4.381460e-01 3.354922e-01 3.878112e-01 2.810852e-01 4.219491e-01 4.680419e-01 4.142558e-01 4.731261e-01 4.758936e-01 4.616169e-01 3.833501e-01 3.530650e-01 3.933758e-01 3.989992e-01 4.620254e-01 4.740353e-01 3.732387e-01 4.008012e-01 3.133293e-01 3.804618e-01 3.986310e-01 3.989513e-01 4.643601e-01 4.077168e-01 4.923511e-01 3.999144e-01 3.642823e-01 4.077954e-01 3.103439e-01 3.786767e-01 4.426202e-01 4.321014e-01 4.365984e-01 3.842713e-01 4.303156e-01 2.887762e-01 3.758726e-01 4.905620e-01 4.156001e-01 4.635287e-01 4.143989e-01 3.471143e-01 3.644192e-01 4.117756e-01 3.778369e-01 4.179349e-01 4.042031e-01 4.109549e-01 3.165224e-01 3.158951e-01 4.147301e-01 4.418738e-01 4.054465e-01 3.196696e-01 4.455016e-01 4.745972e-01 2.685810e-01 3.749427e-01 3.946542e-01 4.433576e-01 4.325508e-01 3.468527e-01 5.000193e-01 4.019900e-01 4.156345e-01 4.426237e-01 4.752523e-01 4.525091e-01 3.663092e-01 4.446303e-01 4.381000e-01 3.889257e-01 4.931214e-01 3.553158e-01 3.478790e-01 3.993696e-01 4.347922e-01 4.110366e-01 3.654715e-01 3.915588e-01 4.042607e-01 3.875227e-01 3.189828e-01 3.549008e-01 4.864717e-01 4.091648e-01
<VARIANCE> 142
 6.139211e-02 2.353619e-03 1.419145e-02 4.832935e-03 2.396823e-03 1.473293e-02 1.044955e-02 9.740413e-03 4.258304e-03 7.654523e-03 1.603331e-02 7.913932e-03 4.836961e-03 2.610577e-02 1.218648e-02 8.055288e-03 4.058480e-03 1.733981e-03 1.134669e-02 1.280060e-02 6.858291e-03 1.140778e-02 7.892075e-03 3.249542e-03 1.279709e-03 6.788987e-03 8.070027e-03 1.027961e-02 4.400432e-03 2.795017e-02 2.912557e-03 1.075390e-02 2.462941e-02 2.414995e-02 1.000000e-03 1.605930e-02 4.923498e-03 1.885083e-02 1.123811e-02 4.217324e-03 1.945408e-02 4.223817e-03 1.770373e-02 1.758815e-02 1.857965e-03 1.553083e-03 3.575692e-03 5.142879e-03 5.181711e-03 5.313616e-03 4.912302e-03 4.033319e-03 1.063331e-02 6.459114e-03 7.737613e-03 1.646533e-02 1.816068e-02 6.476377e-03 7.784872e-03 6.058239e-03 6.236929e-03 3.255137e-03 3.878160e-03 5.540153e-03 5.827514e-03 3.081049e-03 9.221970e-03 8.272682e-03 1.638429e-02 1.648627e-02 6.700116e-03 2.305611e-02 7.677767e-03 2.829406e-03 1.259391e-02 4.962781e-03 1.516338e-02 1.119931e-02 1.268624e-02 7.557117e-03 1.133922e-02 5.816718e-03 4.338919e-03 4.996437e-03 5.013389e-03 1.819956e-02 1.000000e-03 3.931467e-03 3.685460e-03 4.355613e-03 1.041683e-02 1.780489e-02 5.784167e-03 2.076210e-02 4.810952e-03 2.784895e-03 1.725977e-03 7.307855e-03 7.937440e-03 4.451103e-03 3.681067e-03 1.024511e-02 7.231477e-03 1.989732e-02 7.863373e-03 4.822662e-03 5.175437e-03 2.339000e-02 7.361957e-03 8.648752e-03 1.534883e-02 1.572222e-02 2.161422e-03 6.519463e-03 1.719553e-03 6.745812e-03 1.865772e-02 4.860469e-03 6.044533e-03 1.352605e-02 9.874511e-03 1.502754e-02 1.177554e-02 5.384624e-03 8.552697e-03 8.776466e-03 7.323258e-03 9.699519e-03 3.284638e-02 9.735984e-03 7.866803e-03 1.739264e-03 1.844157e-02 5.881945e-03 4.956618e-03 4.836699e-03 2.088949e-03 9.997659e-03 5.652566e-03 5.523736e-03 4.783758e-03 1.833813e-02
<GCONST> -4.386457e+02
<STATE> 3
<MEAN> 142
 6.500708e-01 3.598973e-01 4.041443e-01 3.634634e-01 3.490703e-01 3.427486e-01 3.776388e-01 3.590027e-01 3.376957e-01 4.113302e-01 4.127796e-01 3.651039e-01 3.377964e-01 4.536701e-01 3.072905e-01 3.475810e-01 3.943136e-01 3.974478e-01 3.321830e-01 3.623892e-01 4.669591e-01 5.152921e-01 4.009613e-01 4.529115e-01 4.815975e-01 3.841295e-01 4.651696e-01 3.486350e-01 4.126298e-01 3.150024e-01 4.658850e-01 4.627855e-01 4.024588e-01 4.947392e-01 3.945999e-01 4.090433e-01 3.836538e-01 3.339441e-01 3.729606e-01 3.367258e-01 3.536460e-01 4.889497e-01 3.076538e-01 3.405838e-01 1.839126e-01 4.333997e-01 4.499716e-01 4.159738e-01 4.533570e-01 2.874971e-01 4.646720e-01 3.505507e-01 4.141816e-01 2.527502e-01 4.323540e-01 3.454053e-01 4.581715e-01 3.547135e-01 3.445472e-01 3.460845e-01 3.968694e-01 4.815076e-01 4.079829e-01 4.477300e-01 3.980505e-01 4.647151e-01 3.429950e-01 4.030702e-01 4.535020e-01 3.576155e-01 4.370756e-01 4.296257e-01 4.290654e-01 4.089384e-01 3.237899e-01 3.414002e-01 4.665393e-01 4.113654e-01 4.765818e-01 4.757592e-01 4.314785e-01 3.959538e-01 3.571902e-01 4.523124e-01 3.053147e-01 4.553216e-01 4.171897e-01 3.917193e-01 4.506354e-01 3.286409e-01 3.002688e-01 3.083907e-01 3.872173e-01 3.045562e-01 4.024838e-01 4.565479e-01 4.229766e-01 3.239520e-01 4.880286e-01 4.714308e-01 3.729957e-01 5.225568e-01 3.250812e-01 3.635057e-01 3.753285e-01 3.027182e-01 3.867858e-01 3.535616e-01 4.176168e-01 4.302192e-01 3.542591e-01 3.220946e-01 3.125871e-01 3.830791e-01 3.828884e-01 3.718036e-01 3.448337e-01 4.422611e-01 4.107325e-01 4.546928e-01 4.215601e-01 4.986645e-01 4.767460e-01 3.544043e-01 4.488359e-01 4.022295e-01 3.365954e-01 3.556704e-01 3.361613e-01 4.342489e-01 4.000418e-01 3.810931e-01 3.126394e-01 3.993158e-01 3.615704e-01 4.178810e-01 4.156736e-01 4.080472e-01 3.583942e-01 4.119376e-01 4.892268e-01 4.237738e-01
<VARIANCE> 142
 3.701792e-02 1.252335e-02 1.553329e-02 4.647389e-03 1.609785e-02 4.860532e-02 7.004318e-03 6.304017e-03 4.091177e-03 5.684324e-03 9.415569e-03 6.293165e-03 5.627422e-03 1.472416e-02 1.600833e-02 1.056589e-02 1.480103e-02 9.322893e-03 2.963247e-02 4.683790e-03 5.404050e-03 5.489372e-03 1.221865e-02 1.035423e-02 1.005479e-02 6.490232e-03 7.606842e-03 4.355875e-03 6.709558e-03 7.850677e-03 1.226273e-03 1.344948e-02 2.970242e-02 1.249178e-02 2.087921e-03 1.428951e-02 2.033304e-02 8.513940e-03 2.182851e-02 1.651128e-02 9.683121e-03 2.141893e-02 9.939139e-03 1.739093e-02 4.271743e-03 8.454724e-03 2.398529e-03 1.185100e-02 1.054751e-02 9.172175e-03 1.014282e-02 4.032120e-03 3.218272e-03 2.261553e-03 7.431553e-03 8.852651e-03 3.532095e-02 2.369902e-02 2.088053e-02 1.906141e-02 1.560890e-02 2.217376e-02 8.163644e-03 1.000989e-02 6.235951e-03 3.227406e-03 1.046642e-02 2.814722e-02 6.385408e-03 6.372200e-03 5.812892e-03 2.188330e-02 8.371804e-03 4.514247e-03 1.764901e-02 3.565847e-03 7.292437e-03 1.427504e-02 4.772853e-03 8.760660e-03 3.421204e-03 7.876418e-03 7.844207e-03 1.296771e-02 1.110712e-02 1.683294e-02 2.415045e-03 6.396372e-03 3.684543e-03 1.123389e-02 7.710652e-03 1.129315e-02 4.191103e-03 5.301046e-03 4.302389e-03 3.540905e-03 4.802749e-03 6.775460e-03 2.990665e-02 3.088525e-03 1.083590e-02 1.543713e-03 1.703947e-03 6.946729e-03 1.644807e-02 5.564941e-03 3.701881e-03 9.967339e-03 1.751240e-02 4.749809e-02 5.053774e-03 9.004424e-03 6.783707e-03 1.564598e-02 8.769254e-03 3.529674e-03 6.396193e-03 4.763067e-03 8.674020e-03 8.458530e-03 3.820430e-03 1.077020e-02 1.281162e-02 1.112261e-02 2.262796e-02 3.974566e-03 6.767486e-03 1.296424e-02 1.399597e-02 1.726695e-02 6.886611e-03 1.067519e-02 2.407896e-02 1.793848e-03 9.079109e-03 1.340644e-02 1.016402e-02 7.475020e-03 7.796564e-03 1.105412e-02 2.109166e-02 1.024410e-02
<GCONST> -4.133184e+02
<TRANSP> 4
 0.000000e+00 1.000000e+00 0.000000e+00 0.000000e+00
 0.000000e+00 5.000000e-01 5.000000e-01 0.000000e+00
 0.000000e+00 0.000000e+00 5.000000e-01 5.000000e-01
 0.000000e+00 0.000000e+00 0.000000e+00 0.000000e+00
<ENDHMM>
