~o
<STREAMINFO> 1 142
<VECSIZE> 142<NULLD><USER><DIAGC>
~h "woman"
<BEGINHMM>
<NUMSTATES> 4
<STATE> 2
<MEAN> 142
 5.448275e-01 4.284812e-01 2.993212e-01 3.293147e-01 3.069666e-01 3.314382e-01 3.862159e-01 3.180902e-01 4.644421e-01 4.588373e-01 4.058301e-01 5.133980e-01 4.510401e-01 4.119685e-01 3.741248e-01 3.554145e-01 3.839909e-01 4.398749e-01 3.146443e-01 3.574570e-01 3.902192e-01 4.086377e-01 3.255414e-01 4.082309e-01 4.707946e-01 4.256995e-01 3.814742e-01 3.859290e-01 4.553698e-01 4.624738e-01 4.531457e-01 4.189759e-01 3.623155e-01 4.753689e-01 4.051775e-01 4.559231e-01 3.653874e-01 4.875444e-01 4.677479e-01 3.910033e-01 4.179521e-01 4.862157e-01 4.196420e-01 2.884149e-01 2.468763e-01 3.997287e-01 3.745228e-01 4.278777e-01 3.624934e-01 3.829229e-01 5.526765e-01 4.378902e-01 4.733681e-01 3.964614e-01 4.031368e-01 4.267342e-01 4.213796e-01 2.780220e-01 3.604282e-01 3.724151e-01 4.571436e-01 3.789285e-01 4.782543e-01 4.460018e-01 5.010937e-01 4.174130e-01 4.790848e-01 3.872173e-01 4.544839e-01 5.358151e-01 4.015947e-01 4.880264e-01 4.216438e-01 3.785152e-01 3.197962e-01 4.233153e-01 4.507661e-01 3.266157e-01 4.503243e-01 4.119958e-01 5.334934e-01 3.871053e-01 4.174249e-01 3.679817e-01 3.796311e-01 4.170348e-01 4.509339e-01 5.279396e-01 4.712816e-01 3.812525e-01 4.642540e-01 3.704989e-01 4.549978e-01 3.838713e-01 3.536238e-01 4.362579e-01 4.270188e-01 3.849024e-01 5.135800e-01 4.437244e-01 3.484319e-01 4.460679e-01 3.741252e-01 5.354474e-01 2.728259e-01 3.105132e-01 4.767504e-01 4.887929e-01 4.170038e-01 3.332358e-01 4.788327e-01 3.961040e-01 2.755932e-01 3.787306e-01 4.024532e-01 4.983946e-01 4.216622e-01 3.478900e-01 4.545926e-01 3.935645e-01 4.145975e-01 4.481920e-01 4.250953e-01 5.109538e-01 3.372168e-01 3.891011e-01 4.792763e-01 4.821739e-01 4.645745e-01 3.646392e-01 3.464321e-01 3.878166e-01 4.978129e-01 4.238830e-01 4.136207e-01 4.119703e-01 4.178842e-01 4.805470e-01 4.185325e-01 3.720942e-01 4.169005e-01 3.340546e-01
<VARIANCE> 142
 1.358285e-02 1.977821e-02 2.377605e-03 1.074395e-02 6.037913e-03 2.321330e-02 1.225311e-02 4.227439e-03 1.265334e-02 5.603566e-03 1.171123e-02 1.098501e-02 6.149359e-03 8.726416e-03 3.904491e-03 4.085724e-03 2.807703e-03 5.221988e-03 8.195694e-03 1.613250e-02 9.740497e-03 1.374301e-02 8.362241e-03 8.164407e-03 5.139467e-03 1.555245e-02 1.224534e-02 1.945548e-02 7.625535e-03 1.780472e-02 2.476030e-03 4.853589e-03 1.803563e-02 1.440450e-02 2.265366e-03 1.832680e-02 9.506251e-03 2.691563e-02 2.142924e-02 8.435970e-03 1.271051e-02 1.502557e-02 1.187668e-02 8.494386e-03 1.524282e-02 1.770548e-02 4.153244e-03 1.839103e-02 1.150033e-02 5.982172e-03 3.886654e-03 4.423071e-02 1.007912e-02 9.846555e-03 4.928079e-03 1.748281e-02 7.996168e-03 3.198365e-03 4.417291e-03 4.264344e-02 6.373329e-03 6.357114e-03 1.244366e-02 1.227376e-02 2.179319e-02 6.396531e-03 3.893154e-02 7.957750e-03 2.735920e-03 1.821456e-02 4.007533e-03 1.866983e-02 4.209860e-03 1.387333e-03 2.097216e-02 5.573469e-03 5.060031e-03 1.567589e-02 8.019956e-03 1.382364e-02 3.889594e-03 1.090622e-02 3.734059e-03 8.630169e-03 1.118307e-02 1.373127e-02 7.365694e-03 2.158652e-03 1.560879e-03 2.181888e-02 5.568421e-03 3.140289e-02 4.333689e-03 7.922705e-03 8.964783e-03 8.842316e-03 9.197596e-03 1.334516e-02 3.446538e-02 4.978913e-03 1.548269e-02 3.243203e-03 5.891755e-03 1.704561e-02 3.697867e-03 6.012638e-03 1.218040e-02 1.322928e-02 4.374442e-03 1.154125e-02 5.724480e-03 1.464900e-02 1.373161e-02 9.971735e-03 1.525366e-02 1.700731e-02 2.442995e-02 1.972944e-02 1.066292e-02 7.309316e-03 5.605161e-03 9.756909e-03 1.661620e-02 6.253724e-02 3.593782e-03 1.755804e-02 5.978516e-03 1.259937e-02 2.856663e-02 3.018119e-03 9.805041e-03 6.804366e-03 1.279458e-02 1.837444e-02 1.869510e-02 1.516846e-02 1.188359e-02 6.166827e-03 1.952379e-02 8.796533e-03 6.718038e-03 5.108421e-03
<GCONST> -4.026068e+02
<STATE> 3
<MEAN> 142
 5.806305e-01 3.435704e-01 3.849756e-01 3.296971e-01 3.406921e-01 4.496637e-01 4.306618e-01 3.323520e-01 4.278445e-01 4.072779e-01 5.210682e-01 4.605666e-01 4.451556e-01 5.856680e-01 3.293018e-01 3.518873e-01 3.985551e-01 4.755394e-01 4.036907e-01 4.525450e-01 4.779430e-01 4.410468e-01 4.852241e-01 4.382703e-01 5.044374e-01 4.890801e-01 4.140018e-01 4.138820e-01 4.504354e-01 4.958130e-01 4.979211e-01 3.977593e-01 3.858718e-01 4.580697e-01 4.273431e-01 3.415336e-01 3.217170e-01 4.091509e-01 3.490045e-01 4.027759e-01 4.061720e-01 4.299195e-01 3.518609e-01 3.592570e-01 3.309051e-01 4.160836e-01 4.179186e-01 4.435910e-01 3.870783e-01 3.774895e-01 5.163166e-01 4.781793e-01 4.629415e-01 3.335293e-01 4.319730e-01 3.993636e-01 4.733846e-01 4.060559e-01 4.017334e-01 3.936756e-01 5.535402e-01 4.276590e-01 4.088441e-01 4.258442e-01 4.467932e-01 4.336741e-01 4.159705e-01 4.295273e-01 4.433973e-01 4.494388e-01 5.430240e-01 4.341177e-01 3.550959e-01 4.562641e-01 3.643731e-01 4.459258e-01 4.253666e-01 4.242711e-01 4.595797e-01 4.232329e-01 5.072106e-01 3.605091e-01 3.572440e-01 3.923565e-01 4.328993e-01 3.728622e-01 4.278464e-01 4.960637e-01 4.785689e-01 3.657957e-01 4.209439e-01 3.271927e-01 5.266266e-01 4.008641e-01 3.873505e-01 5.261540e-01 4.385537e-01 4.867773e-01 4.657238e-01 5.535765e-01 4.287344e-01 4.167539e-01 3.480969e-01 4.426949e-01 3.394061e-01 3.202271e-01 4.507132e-01 4.408261e-01 4.450334e-01 4.010656e-01 3.993817e-01 3.776214e-01 4.300033e-01 3.031999e-01 3.562581e-01 5.083657e-01 3.981367e-01 4.124758e-01 4.768071e-01 4.030953e-01 4.207440e-01 4.642675e-01 4.591779e-01 4.021296e-01 4.522676e-01 3.635309e-01 4.273729e-01 4.779538e-01 4.016163e-01 4.589185e-01 4.601584e-01 4.231136e-01 4.743629e-01 5.382563e-01 3.824965e-01 3.727058e-01 4.824501e-01 4.618222e-01 3.961514e-01 3.842335e-01 3.918819e-01 4.784510e-01
<VARIANCE> 142
 2.965461e-02 1.258237e-02 6.717278e-03 6.267347e-03 1.167934e-02 1.871937e-02 6.818459e-03 3.093099e-03 5.725114e-03 6.046726e-03 2.224596e-02 4.519679e-03 2.829429e-03 1.515511e-02 1.198767e-02 1.354539e-02 1.071877e-02 2.109539e-02 1.747598e-02 1.297825e-02 2.298004e-02 2.553552e-02 2.594634e-02 1.099509e-02 5.038321e-03 8.446289e-03 1.473001e-02 1.711850e-02 1.094119e-02 5.790830e-03 1.326406e-02 9.464187e-03 3.170776e-02 5.761004e-03 8.065482e-03 9.665083e-03 1.703337e-02 4.598292e-03 1.401128e-02 1.827374e-02 3.623881e-03 9.208968e-03 1.198492e-02 1.646421e-02 1.710080e-02 3.535081e-02 1.194298e-02 4.661894e-03 8.080568e-03 5.468490e-03 9.848020e-03 2.659086e-02 5.009095e-03 5.885592e-03 1.465974e-02 9.499243e-03 2.976929e-02 2.170727e-02 2.455537e-02 7.433260e-03 6.797843e-03 1.462394e-02 3.580292e-03 1.713324e-03 3.690516e-02 1.335597e-02 1.235765e-02 4.962506e-03 9.616283e-03 2.094501e-02 4.536267e-03 1.049813e-02 1.356166e-02 4.230412e-03 6.291194e-03 1.062506e-03 9.986108e-03 2.241950e-02 1.042453e-02 1.124053e-02 1.857310e-02 8.325303e-03 8.227496e-03 6.199335e-03 9.108757e-03 1.723859e-02 3.033022e-03 1.000000e-03 2.175505e-03 5.071304e-03 1.262600e-03 1.005565e-02 2.496377e-02 2.101276e-03 2.015558e-02 8.174296e-03 2.085857e-02 2.490356e-02 4.466630e-03 1.041850e-02 5.042934e-03 1.903698e-02 3.353572e-03 7.571121e-03 2.135028e-02 3.016343e-02 7.804180e-03 9.070153e-03 1.541710e-02 9.402905e-03 3.440469e-03 5.414705e-03 5.935252e-02 9.649743e-03 1.163241e-02 5.773106e-03 1.278012e-02 1.520867e-02 4.907740e-03 1.180251e-02 4.313289e-03 2.743244e-02 4.683510e-03 2.354320e-02 1.266574e-02 8.023474e-03 1.791073e-02 3.821143e-02 2.460425e-02 9.228019e-03 1.295895e-02 1.453101e-02 1.436343e-02 5.638205e-03 9.223161e-03 8.699660e-03 1.716538e-02 7.883399e-03 1.584431e-02 1.313792e-02 1.433355e-02 1.192163e-02
<GCONST> -3.926147e+02
<TRANSP> 4
 0.000000e+00 1.000000e+00 0.000000e+00 0.000000e+00
 0.000000e+00 5.000000e-01 5.000000e-01 0.000000e+00
 0.000000e+00 0.000000e+00 5.000000e-01 5.000000e-01
 0.000000e+00 0.000000e+00 0.000000e+00 0.000000e+00
<ENDHMM>
