~o
<STREAMINFO> 1 72
<VECSIZE> 72<NULLD><USER><DIAGC>
~h "downright1"
<BEGINHMM>
<NUMSTATES> 8
<STATE> 2
<MEAN> 72
 1.000000e+00 1.000000e+00 1.000000e+00 1.000000e+00 1.000000e+00 1.000000e+00 1.000000e+00 1.000000e+00 1.000000e+00 1.000000e+00 1.000000e+00 1.000000e+00 1.000000e+00 1.000000e+00 1.000000e+00 1.000000e+00 1.000000e+00 1.000000e+00 1.000000e+00 1.000000e+00 1.000000e+00 1.000000e+00 1.000000e+00 1.000000e+00 9.866667e-01 9.866667e-01 1.000000e+00 1.000000e+00 1.000000e+00 1.000000e+00 1.000000e+00 1.000000e+00 9.333333e-01 9.333333e-01 1.000000e+00 1.000000e+00 1.000000e+00 1.000000e+00 1.000000e+00 1.000000e+00 8.666667e-01 8.800000e-01 9.333334e-01 9.333333e-01 9.200000e-01 9.866667e-01 1.000000e+00 1.000000e+00 8.933333e-01 7.600000e-01 7.466667e-01 7.733334e-01 7.866667e-01 8.000001e-01 9.066667e-01 1.000000e+00 8.266667e-01 6.133333e-01 5.733333e-01 4.666667e-01 4.666667e-01 5.600000e-01 7.333333e-01 9.466667e-01 6.266666e-01 5.866666e-01 2.399999e-01 1.733333e-01 2.133333e-01 4.000000e-01 5.866667e-01 8.400000e-01
<VARIANCE> 72
 1.000000e-03 1.000000e-03 1.000000e-03 1.000000e-03 1.000000e-03 1.000000e-03 1.000000e-03 1.000000e-03 1.000000e-03 1.000000e-03 1.000000e-03 1.000000e-03 1.000000e-03 1.000000e-03 1.000000e-03 1.000000e-03 1.000000e-03 1.000000e-03 1.000000e-03 1.000000e-03 1.000000e-03 1.000000e-03 1.000000e-03 1.000000e-03 1.315557e-02 1.315557e-02 1.000000e-03 1.000000e-03 1.000000e-03 1.000000e-03 1.000000e-03 1.000000e-03 6.222223e-02 6.222219e-02 1.000000e-03 1.000000e-03 1.000000e-03 1.000000e-03 1.000000e-03 1.000000e-03 1.155556e-01 1.056000e-01 6.222218e-02 6.222222e-02 7.360005e-02 1.315557e-02 1.000000e-03 1.000000e-03 9.528890e-02 1.824000e-01 1.891554e-01 1.752888e-01 1.678223e-01 1.600000e-01 8.462225e-02 1.000000e-03 1.432889e-01 2.371556e-01 2.446222e-01 2.488890e-01 2.488890e-01 2.464000e-01 1.955554e-01 5.048878e-02 2.339556e-01 2.424888e-01 1.824000e-01 1.432890e-01 1.678223e-01 2.399999e-01 2.424888e-01 1.344001e-01
<GCONST> -2.084771e+02
<STATE> 3
<MEAN> 72
 1.000000e+00 1.000000e+00 1.000000e+00 1.000000e+00 1.000000e+00 1.000000e+00 1.000000e+00 1.000000e+00 1.000000e+00 1.000000e+00 1.000000e+00 9.193549e-01 1.000000e+00 1.000000e+00 1.000000e+00 1.000000e+00 1.000000e+00 9.677419e-01 8.870968e-01 9.354839e-01 9.032258e-01 9.677419e-01 9.677419e-01 9.677419e-01 9.838710e-01 9.354839e-01 8.548387e-01 8.709677e-01 7.580645e-01 8.709677e-01 8.387097e-01 8.870968e-01 1.000000e+00 9.516129e-01 8.387097e-01 7.419355e-01 5.967742e-01 6.290323e-01 5.161290e-01 7.096774e-01 1.000000e+00 9.838710e-01 8.548387e-01 6.935484e-01 5.322581e-01 1.451613e-01 2.096774e-01 3.548387e-01 1.000000e+00 1.000000e+00 9.193549e-01 6.935484e-01 4.838710e-01 1.451613e-01 1.612904e-02 1.774193e-01 1.000000e+00 1.000000e+00 9.838710e-01 8.387097e-01 5.322581e-01 3.387097e-01 6.451613e-02 1.129032e-01 1.000000e+00 1.000000e+00 1.000000e+00 9.677419e-01 7.419355e-01 5.000000e-01 3.064516e-01 1.290322e-01
<VARIANCE> 72
 1.000000e-03 1.000000e-03 1.000000e-03 1.000000e-03 1.000000e-03 1.000000e-03 1.000000e-03 1.000000e-03 1.000000e-03 1.000000e-03 1.000000e-03 7.414149e-02 1.000000e-03 1.000000e-03 1.000000e-03 1.000000e-03 1.000000e-03 3.121747e-02 1.001561e-01 6.035379e-02 8.740892e-02 3.121747e-02 3.121747e-02 3.121747e-02 1.586892e-02 6.035379e-02 1.240895e-01 1.123829e-01 1.834027e-01 1.123828e-01 1.352757e-01 1.001561e-01 1.000000e-03 4.604575e-02 1.352756e-01 1.914673e-01 2.406347e-01 2.333507e-01 2.497398e-01 2.060355e-01 1.000000e-03 1.586892e-02 1.240896e-01 2.125389e-01 2.489593e-01 1.240896e-01 1.657127e-01 2.289282e-01 1.000000e-03 1.000000e-03 7.414149e-02 2.125389e-01 2.497398e-01 1.240896e-01 1.586892e-02 1.459417e-01 1.000000e-03 1.000000e-03 1.586892e-02 1.352757e-01 2.489593e-01 2.239853e-01 6.035379e-02 1.001561e-01 1.000000e-03 1.000000e-03 1.000000e-03 3.121747e-02 1.914672e-01 2.500000e-01 2.125389e-01 1.123829e-01
<GCONST> -1.489665e+02
<STATE> 4
<MEAN> 72
 1.000000e+00 1.000000e+00 1.000000e+00 1.000000e+00 9.761904e-01 8.809524e-01 9.523810e-01 9.761904e-01 1.000000e+00 1.000000e+00 1.000000e+00 1.000000e+00 8.571429e-01 6.904762e-01 8.095238e-01 8.809524e-01 1.000000e+00 1.000000e+00 1.000000e+00 1.000000e+00 8.095238e-01 6.428571e-01 5.714286e-01 5.952381e-01 1.000000e+00 1.000000e+00 1.000000e+00 1.000000e+00 9.523810e-01 6.666667e-01 4.047619e-01 1.666667e-01 1.000000e+00 1.000000e+00 1.000000e+00 1.000000e+00 1.000000e+00 7.857143e-01 3.095238e-01 0.000000e+00 1.000000e+00 1.000000e+00 1.000000e+00 1.000000e+00 1.000000e+00 9.523810e-01 5.238096e-01 9.523810e-02 1.000000e+00 1.000000e+00 1.000000e+00 1.000000e+00 1.000000e+00 1.000000e+00 8.571429e-01 4.285714e-01 1.000000e+00 1.000000e+00 1.000000e+00 1.000000e+00 1.000000e+00 1.000000e+00 1.000000e+00 7.380952e-01 1.000000e+00 1.000000e+00 1.000000e+00 1.000000e+00 1.000000e+00 1.000000e+00 1.000000e+00 9.523810e-01
<VARIANCE> 72
 1.000000e-03 1.000000e-03 1.000000e-03 1.000000e-03 2.324263e-02 1.048753e-01 4.535148e-02 2.324263e-02 1.000000e-03 1.000000e-03 1.000000e-03 1.000000e-03 1.224490e-01 2.137189e-01 1.541950e-01 1.048753e-01 1.000000e-03 1.000000e-03 1.000000e-03 1.000000e-03 1.541950e-01 2.295918e-01 2.448979e-01 2.409297e-01 1.000000e-03 1.000000e-03 1.000000e-03 1.000000e-03 4.535145e-02 2.222222e-01 2.409298e-01 1.388888e-01 1.000000e-03 1.000000e-03 1.000000e-03 1.000000e-03 1.000000e-03 1.683674e-01 2.137189e-01 1.000000e-03 1.000000e-03 1.000000e-03 1.000000e-03 1.000000e-03 1.000000e-03 4.535147e-02 2.494330e-01 8.616785e-02 1.000000e-03 1.000000e-03 1.000000e-03 1.000000e-03 1.000000e-03 1.000000e-03 1.224490e-01 2.448979e-01 1.000000e-03 1.000000e-03 1.000000e-03 1.000000e-03 1.000000e-03 1.000000e-03 1.000000e-03 1.933106e-01 1.000000e-03 1.000000e-03 1.000000e-03 1.000000e-03 1.000000e-03 1.000000e-03 1.000000e-03 4.535148e-02
<GCONST> -2.456445e+02
<STATE> 5
<MEAN> 72
 1.000000e+00 1.000000e+00 1.000000e+00 1.000000e+00 1.000000e+00 1.000000e+00 7.083333e-01 5.000000e-01 1.000000e+00 1.000000e+00 1.000000e+00 1.000000e+00 1.000000e+00 1.000000e+00 6.666666e-01 5.625000e-01 1.000000e+00 1.000000e+00 1.000000e+00 1.000000e+00 1.000000e+00 1.000000e+00 8.958333e-01 4.583333e-01 1.000000e+00 1.000000e+00 1.000000e+00 1.000000e+00 1.000000e+00 1.000000e+00 1.000000e+00 5.833333e-01 1.000000e+00 1.000000e+00 1.000000e+00 1.000000e+00 1.000000e+00 1.000000e+00 1.000000e+00 7.708334e-01 1.000000e+00 1.000000e+00 1.000000e+00 1.000000e+00 1.000000e+00 1.000000e+00 1.000000e+00 1.000000e+00 1.000000e+00 1.000000e+00 1.000000e+00 1.000000e+00 1.000000e+00 1.000000e+00 1.000000e+00 1.000000e+00 1.000000e+00 1.000000e+00 1.000000e+00 1.000000e+00 1.000000e+00 1.000000e+00 1.000000e+00 1.000000e+00 1.000000e+00 1.000000e+00 1.000000e+00 1.000000e+00 1.000000e+00 1.000000e+00 1.000000e+00 1.000000e+00
<VARIANCE> 72
 1.000000e-03 1.000000e-03 1.000000e-03 1.000000e-03 1.000000e-03 1.000000e-03 2.065973e-01 2.500000e-01 1.000000e-03 1.000000e-03 1.000000e-03 1.000000e-03 1.000000e-03 1.000000e-03 2.222222e-01 2.460938e-01 1.000000e-03 1.000000e-03 1.000000e-03 1.000000e-03 1.000000e-03 1.000000e-03 9.331598e-02 2.482640e-01 1.000000e-03 1.000000e-03 1.000000e-03 1.000000e-03 1.000000e-03 1.000000e-03 1.000000e-03 2.430555e-01 1.000000e-03 1.000000e-03 1.000000e-03 1.000000e-03 1.000000e-03 1.000000e-03 1.000000e-03 1.766493e-01 1.000000e-03 1.000000e-03 1.000000e-03 1.000000e-03 1.000000e-03 1.000000e-03 1.000000e-03 1.000000e-03 1.000000e-03 1.000000e-03 1.000000e-03 1.000000e-03 1.000000e-03 1.000000e-03 1.000000e-03 1.000000e-03 1.000000e-03 1.000000e-03 1.000000e-03 1.000000e-03 1.000000e-03 1.000000e-03 1.000000e-03 1.000000e-03 1.000000e-03 1.000000e-03 1.000000e-03 1.000000e-03 1.000000e-03 1.000000e-03 1.000000e-03 1.000000e-03
<GCONST> -3.225517e+02
<STATE> 6
<MEAN> 72
 1.000000e+00 1.000000e+00 1.000000e+00 1.000000e+00 1.000000e+00 1.000000e+00 1.000000e+00 1.000000e+00 1.000000e+00 1.000000e+00 1.000000e+00 1.000000e+00 1.000000e+00 1.000000e+00 1.000000e+00 1.000000e+00 1.000000e+00 1.000000e+00 1.000000e+00 1.000000e+00 1.000000e+00 1.000000e+00 1.000000e+00 1.000000e+00 1.000000e+00 1.000000e+00 1.000000e+00 1.000000e+00 1.000000e+00 1.000000e+00 1.000000e+00 1.000000e+00 1.000000e+00 1.000000e+00 1.000000e+00 1.000000e+00 1.000000e+00 1.000000e+00 1.000000e+00 1.000000e+00 1.000000e+00 1.000000e+00 1.000000e+00 1.000000e+00 1.000000e+00 1.000000e+00 1.000000e+00 1.000000e+00 1.000000e+00 1.000000e+00 1.000000e+00 1.000000e+00 1.000000e+00 1.000000e+00 1.000000e+00 1.000000e+00 1.000000e+00 1.000000e+00 1.000000e+00 1.000000e+00 1.000000e+00 1.000000e+00 1.000000e+00 1.000000e+00 1.000000e+00 1.000000e+00 1.000000e+00 1.000000e+00 1.000000e+00 1.000000e+00 1.000000e+00 1.000000e+00
<VARIANCE> 72
 1.000000e-03 1.000000e-03 1.000000e-03 1.000000e-03 1.000000e-03 1.000000e-03 1.000000e-03 1.000000e-03 1.000000e-03 1.000000e-03 1.000000e-03 1.000000e-03 1.000000e-03 1.000000e-03 1.000000e-03 1.000000e-03 1.000000e-03 1.000000e-03 1.000000e-03 1.000000e-03 1.000000e-03 1.000000e-03 1.000000e-03 1.000000e-03 1.000000e-03 1.000000e-03 1.000000e-03 1.000000e-03 1.000000e-03 1.000000e-03 1.000000e-03 1.000000e-03 1.000000e-03 1.000000e-03 1.000000e-03 1.000000e-03 1.000000e-03 1.000000e-03 1.000000e-03 1.000000e-03 1.000000e-03 1.000000e-03 1.000000e-03 1.000000e-03 1.000000e-03 1.000000e-03 1.000000e-03 1.000000e-03 1.000000e-03 1.000000e-03 1.000000e-03 1.000000e-03 1.000000e-03 1.000000e-03 1.000000e-03 1.000000e-03 1.000000e-03 1.000000e-03 1.000000e-03 1.000000e-03 1.000000e-03 1.000000e-03 1.000000e-03 1.000000e-03 1.000000e-03 1.000000e-03 1.000000e-03 1.000000e-03 1.000000e-03 1.000000e-03 1.000000e-03 1.000000e-03
<GCONST> -3.650312e+02
<STATE> 7
<MEAN> 72
 1.000000e+00 1.000000e+00 1.000000e+00 1.000000e+00 1.000000e+00 1.000000e+00 1.000000e+00 1.000000e+00 1.000000e+00 1.000000e+00 1.000000e+00 1.000000e+00 1.000000e+00 1.000000e+00 1.000000e+00 1.000000e+00 1.000000e+00 1.000000e+00 1.000000e+00 1.000000e+00 1.000000e+00 1.000000e+00 1.000000e+00 1.000000e+00 1.000000e+00 1.000000e+00 1.000000e+00 1.000000e+00 1.000000e+00 1.000000e+00 1.000000e+00 1.000000e+00 1.000000e+00 1.000000e+00 1.000000e+00 1.000000e+00 1.000000e+00 1.000000e+00 1.000000e+00 1.000000e+00 1.000000e+00 1.000000e+00 1.000000e+00 1.000000e+00 1.000000e+00 1.000000e+00 1.000000e+00 1.000000e+00 1.000000e+00 1.000000e+00 1.000000e+00 1.000000e+00 1.000000e+00 1.000000e+00 1.000000e+00 1.000000e+00 1.000000e+00 1.000000e+00 1.000000e+00 1.000000e+00 1.000000e+00 1.000000e+00 1.000000e+00 1.000000e+00 1.000000e+00 1.000000e+00 1.000000e+00 1.000000e+00 1.000000e+00 1.000000e+00 1.000000e+00 1.000000e+00
<VARIANCE> 72
 1.000000e-03 1.000000e-03 1.000000e-03 1.000000e-03 1.000000e-03 1.000000e-03 1.000000e-03 1.000000e-03 1.000000e-03 1.000000e-03 1.000000e-03 1.000000e-03 1.000000e-03 1.000000e-03 1.000000e-03 1.000000e-03 1.000000e-03 1.000000e-03 1.000000e-03 1.000000e-03 1.000000e-03 1.000000e-03 1.000000e-03 1.000000e-03 1.000000e-03 1.000000e-03 1.000000e-03 1.000000e-03 1.000000e-03 1.000000e-03 1.000000e-03 1.000000e-03 1.000000e-03 1.000000e-03 1.000000e-03 1.000000e-03 1.000000e-03 1.000000e-03 1.000000e-03 1.000000e-03 1.000000e-03 1.000000e-03 1.000000e-03 1.000000e-03 1.000000e-03 1.000000e-03 1.000000e-03 1.000000e-03 1.000000e-03 1.000000e-03 1.000000e-03 1.000000e-03 1.000000e-03 1.000000e-03 1.000000e-03 1.000000e-03 1.000000e-03 1.000000e-03 1.000000e-03 1.000000e-03 1.000000e-03 1.000000e-03 1.000000e-03 1.000000e-03 1.000000e-03 1.000000e-03 1.000000e-03 1.000000e-03 1.000000e-03 1.000000e-03 1.000000e-03 1.000000e-03
<GCONST> -3.650312e+02
<TRANSP> 8
 0.000000e+00 1.000000e+00 0.000000e+00 0.000000e+00 0.000000e+00 0.000000e+00 0.000000e+00 0.000000e+00
 0.000000e+00 6.266667e-01 3.733334e-01 0.000000e+00 0.000000e+00 0.000000e+00 0.000000e+00 0.000000e+00
 0.000000e+00 0.000000e+00 5.483871e-01 4.516129e-01 0.000000e+00 0.000000e+00 0.000000e+00 0.000000e+00
 0.000000e+00 0.000000e+00 0.000000e+00 3.333333e-01 6.666667e-01 0.000000e+00 0.000000e+00 0.000000e+00
 0.000000e+00 0.000000e+00 0.000000e+00 0.000000e+00 4.166667e-01 5.833333e-01 0.000000e+00 0.000000e+00
 0.000000e+00 0.000000e+00 0.000000e+00 0.000000e+00 0.000000e+00 8.478261e-01 1.521739e-01 0.000000e+00
 0.000000e+00 0.000000e+00 0.000000e+00 0.000000e+00 0.000000e+00 0.000000e+00 0.000000e+00 1.000000e+00
 0.000000e+00 0.000000e+00 0.000000e+00 0.000000e+00 0.000000e+00 0.000000e+00 0.000000e+00 0.000000e+00
<ENDHMM>
~h "bunny"
<BEGINHMM>
<NUMSTATES> 8
<STATE> 2
<MEAN> 72
 1.000000e+00 1.000000e+00 1.000000e+00 1.000000e+00 1.000000e+00 9.076087e-01 7.608696e-01 5.869565e-01 1.000000e+00 1.000000e+00 1.000000e+00 1.000000e+00 9.456521e-01 8.478261e-01 7.065217e-01 5.000000e-01 1.000000e+00 1.000000e+00 1.000000e+00 1.000000e+00 9.347826e-01 8.369565e-01 6.793478e-01 3.586957e-01 1.000000e+00 1.000000e+00 1.000000e+00 1.000000e+00 9.945652e-01 8.532609e-01 6.630435e-01 4.293478e-01 1.000000e+00 1.000000e+00 1.000000e+00 1.000000e+00 9.402173e-01 8.586957e-01 6.956522e-01 4.728261e-01 1.000000e+00 1.000000e+00 1.000000e+00 1.000000e+00 9.836956e-01 8.532609e-01 7.282608e-01 4.891304e-01 1.000000e+00 1.000000e+00 1.000000e+00 1.000000e+00 1.000000e+00 9.402174e-01 8.641304e-01 6.250000e-01 1.000000e+00 1.000000e+00 1.000000e+00 1.000000e+00 1.000000e+00 9.619565e-01 9.076087e-01 7.119565e-01 2.771738e-01 1.000000e+00 1.000000e+00 1.000000e+00 1.000000e+00 1.000000e+00 8.804348e-01 8.478261e-01
<VARIANCE> 72
 1.000000e-03 1.000000e-03 1.000000e-03 1.000000e-03 1.000000e-03 8.385517e-02 1.819471e-01 2.424384e-01 1.000000e-03 1.000000e-03 1.000000e-03 1.000000e-03 5.139411e-02 1.290171e-01 2.073486e-01 2.500000e-01 1.000000e-03 1.000000e-03 1.000000e-03 1.000000e-03 6.096414e-02 1.364601e-01 2.178342e-01 2.300330e-01 1.000000e-03 1.000000e-03 1.000000e-03 1.000000e-03 5.405261e-03 1.252066e-01 2.234165e-01 2.450087e-01 1.000000e-03 1.000000e-03 1.000000e-03 1.000000e-03 5.620882e-02 1.213371e-01 2.117207e-01 2.492614e-01 1.000000e-03 1.000000e-03 1.000000e-03 1.000000e-03 1.603852e-02 1.252065e-01 1.978970e-01 2.498818e-01 1.000000e-03 1.000000e-03 1.000000e-03 1.000000e-03 1.000000e-03 5.620873e-02 1.174092e-01 2.343750e-01 1.000000e-03 1.000000e-03 1.000000e-03 1.000000e-03 1.000000e-03 3.659609e-02 8.385524e-02 2.050746e-01 2.003486e-01 1.000000e-03 1.000000e-03 1.000000e-03 1.000000e-03 1.000000e-03 1.052693e-01 1.290172e-01
<GCONST> -2.124407e+02
<STATE> 3
<MEAN> 72
 1.000000e+00 1.000000e+00 9.642857e-01 8.857143e-01 7.214286e-01 5.142857e-01 3.857142e-01 2.357143e-01 1.000000e+00 1.000000e+00 9.428571e-01 7.071429e-01 5.785714e-01 3.285713e-01 1.071429e-01 1.142857e-01 1.000000e+00 9.857143e-01 8.785714e-01 6.571428e-01 3.928571e-01 1.642857e-01 5.000001e-02 1.428572e-01 9.928572e-01 9.285714e-01 8.214285e-01 5.928571e-01 3.857143e-01 1.785714e-01 8.571417e-02 3.357144e-01 9.857143e-01 9.500000e-01 8.142857e-01 7.142857e-01 4.714285e-01 2.285714e-01 2.142857e-01 5.000001e-01 1.000000e+00 9.928572e-01 9.142857e-01 7.500000e-01 4.642857e-01 2.857143e-01 4.000000e-01 6.714286e-01 1.000000e+00 1.000000e+00 9.857143e-01 8.357142e-01 5.642856e-01 4.285713e-01 5.142858e-01 8.214286e-01 1.000000e+00 1.000000e+00 9.928572e-01 8.428571e-01 5.642857e-01 5.428571e-01 6.000001e-01 8.928572e-01 3.142858e-01 1.000000e+00 9.500000e-01 8.571429e-01 6.499999e-01 7.714285e-01 7.642857e-01 9.428572e-01
<VARIANCE> 72
 1.000000e-03 1.000000e-03 3.443879e-02 1.012246e-01 2.009696e-01 2.497959e-01 2.369388e-01 1.801530e-01 1.000000e-03 1.000000e-03 5.387758e-02 2.070921e-01 2.438267e-01 2.206124e-01 9.566313e-02 1.012246e-01 1.000000e-03 1.408163e-02 1.066836e-01 2.253064e-01 2.385203e-01 1.372959e-01 4.750004e-02 1.224492e-01 7.091837e-03 6.632661e-02 1.466838e-01 2.413778e-01 2.369384e-01 1.466835e-01 7.836735e-02 2.230099e-01 1.408164e-02 4.750004e-02 1.512246e-01 2.040816e-01 2.491836e-01 1.763264e-01 1.683672e-01 2.500000e-01 1.000000e-03 7.091838e-03 7.836746e-02 1.875000e-01 2.487243e-01 2.040816e-01 2.400001e-01 2.206124e-01 1.000000e-03 1.000000e-03 1.408164e-02 1.372958e-01 2.458676e-01 2.448980e-01 2.497959e-01 1.466836e-01 1.000000e-03 1.000000e-03 7.091837e-03 1.324488e-01 2.458676e-01 2.481633e-01 2.400000e-01 9.566312e-02 2.155102e-01 1.000000e-03 4.750004e-02 1.224487e-01 2.274999e-01 1.763264e-01 1.801530e-01 5.387752e-02
<GCONST> -7.509272e+01
<STATE> 4
<MEAN> 72
 8.928573e-01 7.232130e-01 4.642848e-01 2.410710e-01 6.249991e-02 8.928563e-03 1.160730e-01 4.732153e-01 8.392860e-01 4.999990e-01 2.410728e-01 1.696425e-01 0.000000e+00 4.464277e-02 4.553581e-01 8.214289e-01 6.964291e-01 4.464295e-01 3.124993e-01 1.428569e-01 0.000000e+00 4.107154e-01 8.214290e-01 9.732143e-01 7.589290e-01 6.160721e-01 4.732152e-01 1.696425e-01 2.232156e-01 7.232149e-01 9.553572e-01 1.000000e+00 8.660716e-01 7.053577e-01 4.107135e-01 1.339283e-01 4.910724e-01 8.750003e-01 1.000000e+00 1.000000e+00 9.285716e-01 7.053577e-01 4.285724e-01 4.107154e-01 7.053577e-01 1.000000e+00 1.000000e+00 1.000000e+00 9.464287e-01 7.232147e-01 4.374992e-01 5.625007e-01 8.839288e-01 1.000000e+00 1.000000e+00 1.000000e+00 8.928574e-01 6.964291e-01 6.339292e-01 7.589290e-01 9.464287e-01 1.000000e+00 1.000000e+00 1.000000e+00 2.678567e-01 8.571430e-01 8.392860e-01 8.839288e-01 9.910715e-01 1.000000e+00 1.000000e+00 1.000000e+00
<VARIANCE> 72
 9.566297e-02 2.001757e-01 2.487246e-01 1.829557e-01 5.859366e-02 8.848833e-03 1.026001e-01 2.492824e-01 1.348853e-01 2.500000e-01 1.829568e-01 1.408641e-01 1.000000e-03 4.264984e-02 2.480071e-01 1.466836e-01 2.114157e-01 2.471301e-01 2.148436e-01 1.224487e-01 1.000000e-03 2.420283e-01 1.466836e-01 2.606819e-02 1.829557e-01 2.365272e-01 2.492824e-01 1.408640e-01 1.733905e-01 2.001753e-01 4.264979e-02 1.000000e-03 1.159915e-01 2.078284e-01 2.420282e-01 1.159914e-01 2.499200e-01 1.093749e-01 1.000000e-03 1.000000e-03 6.632645e-02 2.078283e-01 2.448978e-01 2.420283e-01 2.078283e-01 1.000000e-03 1.000000e-03 1.000000e-03 5.070145e-02 2.001751e-01 2.460936e-01 2.460936e-01 1.025987e-01 1.000000e-03 1.000000e-03 1.000000e-03 9.566303e-02 2.114157e-01 2.320631e-01 1.829557e-01 5.070138e-02 1.000000e-03 1.000000e-03 1.000000e-03 1.961092e-01 1.224487e-01 1.348851e-01 1.025987e-01 8.848811e-03 1.000000e-03 1.000000e-03 1.000000e-03
<GCONST> -9.550596e+01
<STATE> 5
<MEAN> 72
 3.028159e-01 1.760566e-01 4.225359e-02 8.450714e-02 3.169019e-01 4.718317e-01 7.042249e-01 7.957743e-01 1.619707e-01 9.859169e-02 2.816767e-02 3.098596e-01 5.563387e-01 8.309872e-01 9.225351e-01 1.000000e+00 2.746469e-01 1.267594e-01 2.535215e-01 4.929584e-01 7.535222e-01 1.000000e+00 1.000000e+00 1.000000e+00 3.450695e-01 3.309850e-01 4.436612e-01 6.760573e-01 1.000000e+00 1.000000e+00 1.000000e+00 1.000000e+00 4.507034e-01 4.859148e-01 5.704234e-01 9.154942e-01 1.000000e+00 1.000000e+00 1.000000e+00 1.000000e+00 6.056333e-01 5.774643e-01 7.183095e-01 1.000000e+00 1.000000e+00 1.000000e+00 1.000000e+00 1.000000e+00 6.197178e-01 6.901404e-01 9.084520e-01 1.000000e+00 1.000000e+00 1.000000e+00 1.000000e+00 1.000000e+00 7.394364e-01 8.098589e-01 1.000000e+00 1.000000e+00 1.000000e+00 1.000000e+00 1.000000e+00 1.000000e+00 1.760565e-01 9.436619e-01 1.000000e+00 1.000000e+00 1.000000e+00 1.000000e+00 1.000000e+00 1.000000e+00
<VARIANCE> 72
 2.111185e-01 1.450609e-01 4.046813e-02 7.736565e-02 2.164753e-01 2.492065e-01 2.082920e-01 1.625175e-01 1.357360e-01 8.887118e-02 2.737427e-02 2.138464e-01 2.468258e-01 1.404475e-01 7.146420e-02 1.000000e-03 1.992161e-01 1.106913e-01 1.892484e-01 2.499505e-01 1.857262e-01 1.000000e-03 1.000000e-03 1.000000e-03 2.259968e-01 2.214337e-01 2.468258e-01 2.190037e-01 1.000000e-03 1.000000e-03 1.000000e-03 1.000000e-03 2.475701e-01 2.498017e-01 2.450404e-01 7.736445e-02 1.000000e-03 1.000000e-03 1.000000e-03 1.000000e-03 2.388415e-01 2.439997e-01 2.023409e-01 1.000000e-03 1.000000e-03 1.000000e-03 1.000000e-03 1.000000e-03 2.356679e-01 2.138463e-01 8.316686e-02 1.000000e-03 1.000000e-03 1.000000e-03 1.000000e-03 1.000000e-03 1.926705e-01 1.539876e-01 1.000000e-03 1.000000e-03 1.000000e-03 1.000000e-03 1.000000e-03 1.000000e-03 1.450608e-01 5.316406e-02 1.000000e-03 1.000000e-03 1.000000e-03 1.000000e-03 1.000000e-03 1.000000e-03
<GCONST> -1.731613e+02
<STATE> 6
<MEAN> 72
 0.000000e+00 2.748092e-01 6.641222e-01 8.854962e-01 9.312977e-01 9.618320e-01 9.847328e-01 9.923664e-01 2.671755e-01 6.412213e-01 1.000000e+00 1.000000e+00 1.000000e+00 1.000000e+00 1.000000e+00 1.000000e+00 5.877863e-01 8.778626e-01 1.000000e+00 1.000000e+00 1.000000e+00 1.000000e+00 1.000000e+00 1.000000e+00 8.396947e-01 1.000000e+00 1.000000e+00 1.000000e+00 1.000000e+00 1.000000e+00 1.000000e+00 1.000000e+00 1.000000e+00 1.000000e+00 1.000000e+00 1.000000e+00 1.000000e+00 1.000000e+00 1.000000e+00 1.000000e+00 1.000000e+00 1.000000e+00 1.000000e+00 1.000000e+00 1.000000e+00 1.000000e+00 1.000000e+00 1.000000e+00 1.000000e+00 1.000000e+00 1.000000e+00 1.000000e+00 1.000000e+00 1.000000e+00 1.000000e+00 1.000000e+00 1.000000e+00 1.000000e+00 1.000000e+00 1.000000e+00 1.000000e+00 1.000000e+00 1.000000e+00 1.000000e+00 2.442747e-01 1.000000e+00 1.000000e+00 1.000000e+00 1.000000e+00 1.000000e+00 1.000000e+00 1.000000e+00
<VARIANCE> 72
 1.000000e-03 1.992889e-01 2.230641e-01 1.013927e-01 6.398236e-02 3.671111e-02 1.503407e-02 7.575331e-03 1.957926e-01 2.300564e-01 1.000000e-03 1.000000e-03 1.000000e-03 1.000000e-03 1.000000e-03 1.000000e-03 2.422936e-01 1.072197e-01 1.000000e-03 1.000000e-03 1.000000e-03 1.000000e-03 1.000000e-03 1.000000e-03 1.346074e-01 1.000000e-03 1.000000e-03 1.000000e-03 1.000000e-03 1.000000e-03 1.000000e-03 1.000000e-03 1.000000e-03 1.000000e-03 1.000000e-03 1.000000e-03 1.000000e-03 1.000000e-03 1.000000e-03 1.000000e-03 1.000000e-03 1.000000e-03 1.000000e-03 1.000000e-03 1.000000e-03 1.000000e-03 1.000000e-03 1.000000e-03 1.000000e-03 1.000000e-03 1.000000e-03 1.000000e-03 1.000000e-03 1.000000e-03 1.000000e-03 1.000000e-03 1.000000e-03 1.000000e-03 1.000000e-03 1.000000e-03 1.000000e-03 1.000000e-03 1.000000e-03 1.000000e-03 1.846049e-01 1.000000e-03 1.000000e-03 1.000000e-03 1.000000e-03 1.000000e-03 1.000000e-03 1.000000e-03
<GCONST> -3.062121e+02
<STATE> 7
<MEAN> 72
 9.902439e-01 1.000000e+00 1.000000e+00 1.000000e+00 1.000000e+00 1.000000e+00 1.000000e+00 1.000000e+00 1.000000e+00 1.000000e+00 1.000000e+00 1.000000e+00 1.000000e+00 1.000000e+00 1.000000e+00 1.000000e+00 1.000000e+00 1.000000e+00 1.000000e+00 1.000000e+00 1.000000e+00 1.000000e+00 1.000000e+00 1.000000e+00 1.000000e+00 1.000000e+00 1.000000e+00 1.000000e+00 1.000000e+00 1.000000e+00 1.000000e+00 1.000000e+00 1.000000e+00 1.000000e+00 1.000000e+00 1.000000e+00 1.000000e+00 1.000000e+00 1.000000e+00 1.000000e+00 1.000000e+00 1.000000e+00 1.000000e+00 1.000000e+00 1.000000e+00 1.000000e+00 1.000000e+00 1.000000e+00 1.000000e+00 1.000000e+00 1.000000e+00 1.000000e+00 1.000000e+00 1.000000e+00 1.000000e+00 1.000000e+00 1.000000e+00 1.000000e+00 1.000000e+00 1.000000e+00 1.000000e+00 1.000000e+00 1.000000e+00 1.000000e+00 2.780487e-01 1.000000e+00 1.000000e+00 1.000000e+00 1.000000e+00 1.000000e+00 1.000000e+00 1.000000e+00
<VARIANCE> 72
 9.660888e-03 1.000000e-03 1.000000e-03 1.000000e-03 1.000000e-03 1.000000e-03 1.000000e-03 1.000000e-03 1.000000e-03 1.000000e-03 1.000000e-03 1.000000e-03 1.000000e-03 1.000000e-03 1.000000e-03 1.000000e-03 1.000000e-03 1.000000e-03 1.000000e-03 1.000000e-03 1.000000e-03 1.000000e-03 1.000000e-03 1.000000e-03 1.000000e-03 1.000000e-03 1.000000e-03 1.000000e-03 1.000000e-03 1.000000e-03 1.000000e-03 1.000000e-03 1.000000e-03 1.000000e-03 1.000000e-03 1.000000e-03 1.000000e-03 1.000000e-03 1.000000e-03 1.000000e-03 1.000000e-03 1.000000e-03 1.000000e-03 1.000000e-03 1.000000e-03 1.000000e-03 1.000000e-03 1.000000e-03 1.000000e-03 1.000000e-03 1.000000e-03 1.000000e-03 1.000000e-03 1.000000e-03 1.000000e-03 1.000000e-03 1.000000e-03 1.000000e-03 1.000000e-03 1.000000e-03 1.000000e-03 1.000000e-03 1.000000e-03 1.000000e-03 2.007375e-01 1.000000e-03 1.000000e-03 1.000000e-03 1.000000e-03 1.000000e-03 1.000000e-03 1.000000e-03
<GCONST> -3.574612e+02
<TRANSP> 8
 0.000000e+00 1.000000e+00 0.000000e+00 0.000000e+00 0.000000e+00 0.000000e+00 0.000000e+00 0.000000e+00
 0.000000e+00 8.586957e-01 1.413043e-01 0.000000e+00 0.000000e+00 0.000000e+00 0.000000e+00 0.000000e+00
 0.000000e+00 0.000000e+00 8.142857e-01 1.857143e-01 0.000000e+00 0.000000e+00 0.000000e+00 0.000000e+00
 0.000000e+00 0.000000e+00 0.000000e+00 7.678576e-01 2.321425e-01 0.000000e+00 0.000000e+00 0.000000e+00
 0.000000e+00 0.000000e+00 0.000000e+00 0.000000e+00 8.169011e-01 1.830989e-01 0.000000e+00 0.000000e+00
 0.000000e+00 0.000000e+00 0.000000e+00 0.000000e+00 0.000000e+00 8.015267e-01 1.984733e-01 0.000000e+00
 0.000000e+00 0.000000e+00 0.000000e+00 0.000000e+00 0.000000e+00 0.000000e+00 8.731707e-01 1.268293e-01
 0.000000e+00 0.000000e+00 0.000000e+00 0.000000e+00 0.000000e+00 0.000000e+00 0.000000e+00 0.000000e+00
<ENDHMM>
~h "circleleft5"
<BEGINHMM>
<NUMSTATES> 8
<STATE> 2
<MEAN> 72
 1.000000e+00 1.000000e+00 1.000000e+00 9.932886e-01 8.657718e-01 6.979865e-01 5.570470e-01 3.758389e-01 1.000000e+00 1.000000e+00 1.000000e+00 9.328859e-01 7.986578e-01 6.510067e-01 4.563758e-01 3.422818e-01 1.000000e+00 1.000000e+00 9.932886e-01 8.590604e-01 7.315436e-01 5.637584e-01 4.161074e-01 2.617449e-01 1.000000e+00 1.000000e+00 9.261745e-01 7.986577e-01 6.577181e-01 5.234900e-01 3.691275e-01 2.684563e-01 1.000000e+00 9.664430e-01 8.187920e-01 7.315436e-01 5.838926e-01 4.429530e-01 3.691275e-01 3.087249e-01 9.932886e-01 8.993288e-01 7.919463e-01 6.577181e-01 5.302013e-01 4.966443e-01 4.563758e-01 3.758389e-01 9.261745e-01 8.187920e-01 7.114094e-01 5.906040e-01 4.697987e-01 4.697987e-01 4.563758e-01 4.832214e-01 9.060403e-01 7.583892e-01 6.375839e-01 5.302013e-01 3.825504e-01 4.295302e-01 4.630872e-01 4.697987e-01 0.000000e+00 8.926175e-01 5.973154e-01 5.234900e-01 4.362416e-01 4.161074e-01 4.161074e-01 4.429530e-01
<VARIANCE> 72
 1.000000e-03 1.000000e-03 1.000000e-03 6.666367e-03 1.162108e-01 2.108010e-01 2.467456e-01 2.345839e-01 1.000000e-03 1.000000e-03 1.000000e-03 6.260973e-02 1.608036e-01 2.271967e-01 2.480968e-01 2.251250e-01 1.000000e-03 1.000000e-03 6.666367e-03 1.210757e-01 1.963877e-01 2.459352e-01 2.429621e-01 1.932344e-01 1.000000e-03 1.000000e-03 6.837533e-02 1.608036e-01 2.251250e-01 2.494484e-01 2.328724e-01 1.963878e-01 1.000000e-03 3.243097e-02 1.483717e-01 1.963877e-01 2.429621e-01 2.467457e-01 2.328724e-01 2.134136e-01 6.666379e-03 9.053647e-02 1.647675e-01 2.251250e-01 2.490877e-01 2.499889e-01 2.480968e-01 2.345839e-01 6.837533e-02 1.483717e-01 2.053060e-01 2.417910e-01 2.490877e-01 2.490877e-01 2.480968e-01 2.497183e-01 8.513125e-02 1.832350e-01 2.310708e-01 2.490877e-01 2.362057e-01 2.450340e-01 2.486373e-01 2.490877e-01 1.000000e-03 9.585149e-02 2.405296e-01 2.494484e-01 2.459352e-01 2.429621e-01 2.429621e-01 2.467457e-01
<GCONST> -6.048574e+01
<STATE> 3
<MEAN> 72
 6.303317e-01 4.360189e-01 2.511848e-01 1.563981e-01 1.990522e-01 3.507109e-01 5.308058e-01 6.350711e-01 5.260664e-01 3.270142e-01 1.848342e-01 2.085308e-01 3.364927e-01 5.118483e-01 6.682464e-01 7.962086e-01 4.265403e-01 2.748815e-01 1.658768e-01 3.412322e-01 5.308058e-01 7.393364e-01 8.341233e-01 9.194313e-01 4.218010e-01 3.080569e-01 3.080569e-01 5.165877e-01 7.488152e-01 8.957346e-01 9.857820e-01 9.763033e-01 4.360189e-01 4.407583e-01 5.355451e-01 7.061611e-01 9.383886e-01 1.000000e+00 1.000000e+00 1.000000e+00 5.450237e-01 5.639810e-01 6.587678e-01 8.104265e-01 9.715640e-01 1.000000e+00 1.000000e+00 1.000000e+00 6.587678e-01 6.635071e-01 7.440758e-01 8.720379e-01 9.810427e-01 1.000000e+00 1.000000e+00 1.000000e+00 7.345971e-01 7.582939e-01 8.151659e-01 9.052132e-01 1.000000e+00 1.000000e+00 1.000000e+00 1.000000e+00 0.000000e+00 8.815166e-01 8.767772e-01 9.383886e-01 1.000000e+00 1.000000e+00 1.000000e+00 1.000000e+00
<VARIANCE> 72
 2.330136e-01 2.459065e-01 1.880910e-01 1.319377e-01 1.594302e-01 2.277125e-01 2.490506e-01 2.317563e-01 2.493205e-01 2.200756e-01 1.506708e-01 1.650456e-01 2.232657e-01 2.498601e-01 2.216933e-01 1.622603e-01 2.446041e-01 1.993217e-01 1.383618e-01 2.247931e-01 2.490506e-01 1.927184e-01 1.383618e-01 7.407755e-02 2.438849e-01 2.131576e-01 2.131576e-01 2.497250e-01 1.880910e-01 9.339414e-02 1.401587e-02 2.313513e-02 2.459064e-01 2.464903e-01 2.487362e-01 2.074979e-01 5.781531e-02 1.000000e-03 1.000000e-03 1.000000e-03 2.479729e-01 2.459064e-01 2.247931e-01 1.536355e-01 2.762746e-02 1.000000e-03 1.000000e-03 1.000000e-03 2.247931e-01 2.232657e-01 1.904270e-01 1.115879e-01 1.859794e-02 1.000000e-03 1.000000e-03 1.000000e-03 1.949641e-01 1.832844e-01 1.506708e-01 8.580213e-02 1.000000e-03 1.000000e-03 1.000000e-03 1.000000e-03 1.000000e-03 1.044449e-01 1.080389e-01 5.781531e-02 1.000000e-03 1.000000e-03 1.000000e-03 1.000000e-03
<GCONST> -9.383125e+01
<STATE> 4
<MEAN> 72
 1.000000e+00 1.000000e+00 1.000000e+00 1.000000e+00 1.000000e+00 9.779736e-01 9.162997e-01 8.678417e-01 1.000000e+00 1.000000e+00 1.000000e+00 1.000000e+00 1.000000e+00 9.867842e-01 9.207050e-01 8.766522e-01 1.000000e+00 1.000000e+00 1.000000e+00 1.000000e+00 1.000000e+00 9.559472e-01 9.251102e-01 8.722469e-01 1.000000e+00 1.000000e+00 1.000000e+00 1.000000e+00 9.955947e-01 9.603525e-01 9.118944e-01 8.810575e-01 1.000000e+00 1.000000e+00 1.000000e+00 1.000000e+00 1.000000e+00 9.735683e-01 9.515420e-01 9.162980e-01 1.000000e+00 1.000000e+00 1.000000e+00 1.000000e+00 1.000000e+00 9.911894e-01 9.867842e-01 9.074874e-01 1.000000e+00 1.000000e+00 1.000000e+00 1.000000e+00 1.000000e+00 1.000000e+00 9.911877e-01 8.898662e-01 1.000000e+00 1.000000e+00 1.000000e+00 1.000000e+00 1.000000e+00 1.000000e+00 9.339191e-01 8.281924e-01 0.000000e+00 1.000000e+00 1.000000e+00 1.000000e+00 1.000000e+00 9.955947e-01 8.986768e-01 8.193818e-01
<VARIANCE> 72
 1.000000e-03 1.000000e-03 1.000000e-03 1.000000e-03 1.000000e-03 2.154123e-02 7.669453e-02 1.146923e-01 1.000000e-03 1.000000e-03 1.000000e-03 1.000000e-03 1.000000e-03 1.304117e-02 7.300722e-02 1.081333e-01 1.000000e-03 1.000000e-03 1.000000e-03 1.000000e-03 1.000000e-03 4.211220e-02 6.928135e-02 1.114324e-01 1.000000e-03 1.000000e-03 1.000000e-03 1.000000e-03 4.385874e-03 3.807563e-02 8.034310e-02 1.047952e-01 1.000000e-03 1.000000e-03 1.000000e-03 1.000000e-03 1.000000e-03 2.573299e-02 4.610973e-02 7.669578e-02 1.000000e-03 1.000000e-03 1.000000e-03 1.000000e-03 1.000000e-03 8.732915e-03 1.304119e-02 8.395387e-02 1.000000e-03 1.000000e-03 1.000000e-03 1.000000e-03 1.000000e-03 1.000000e-03 8.734642e-03 9.800426e-02 1.000000e-03 1.000000e-03 1.000000e-03 1.000000e-03 1.000000e-03 1.000000e-03 6.171435e-02 1.422900e-01 1.000000e-03 1.000000e-03 1.000000e-03 1.000000e-03 1.000000e-03 4.385889e-03 9.105691e-02 1.479955e-01
<GCONST> -2.670851e+02
<STATE> 5
<MEAN> 72
 1.000000e+00 1.000000e+00 1.000000e+00 9.932886e-01 8.993289e-01 6.107382e-01 3.825504e-01 3.154362e-01 1.000000e+00 1.000000e+00 1.000000e+00 9.530202e-01 7.114094e-01 4.496644e-01 3.221477e-01 2.348993e-01 1.000000e+00 1.000000e+00 9.932886e-01 8.791946e-01 5.570471e-01 3.557047e-01 2.818792e-01 1.812080e-01 1.000000e+00 9.932886e-01 9.194630e-01 6.375840e-01 4.093960e-01 3.154362e-01 2.348993e-01 2.080510e-01 1.000000e+00 9.664429e-01 7.114093e-01 4.563758e-01 3.422818e-01 2.550336e-01 2.885879e-01 3.624160e-01 1.000000e+00 8.859059e-01 5.167786e-01 3.624161e-01 2.617450e-01 2.013423e-01 4.093933e-01 5.302013e-01 9.865772e-01 7.046979e-01 4.093960e-01 2.953020e-01 2.147651e-01 1.342255e-01 4.765100e-01 6.711409e-01 9.597315e-01 5.771812e-01 3.355705e-01 2.550336e-01 1.543624e-01 1.073799e-01 4.966443e-01 7.248322e-01 0.000000e+00 8.791946e-01 3.154362e-01 2.013423e-01 1.677825e-01 2.080510e-01 5.704697e-01 7.382551e-01
<VARIANCE> 72
 1.000000e-03 1.000000e-03 1.000000e-03 6.666367e-03 9.053646e-02 2.377371e-01 2.362057e-01 2.159365e-01 1.000000e-03 1.000000e-03 1.000000e-03 4.477274e-02 2.053060e-01 2.474663e-01 2.183685e-01 1.797216e-01 1.000000e-03 1.000000e-03 6.666367e-03 1.062115e-01 2.467456e-01 2.291790e-01 2.024235e-01 1.483717e-01 1.000000e-03 6.666367e-03 7.405075e-02 2.310708e-01 2.417910e-01 2.159365e-01 1.797216e-01 1.647659e-01 1.000000e-03 3.243098e-02 2.053060e-01 2.480968e-01 2.251250e-01 1.899917e-01 2.053049e-01 2.310708e-01 1.000000e-03 1.010766e-01 2.497183e-01 2.310707e-01 1.932344e-01 1.608036e-01 2.417902e-01 2.490877e-01 1.324265e-02 2.080988e-01 2.417910e-01 2.080990e-01 1.686410e-01 1.162092e-01 2.494484e-01 2.207108e-01 3.864688e-02 2.440429e-01 2.229631e-01 1.899917e-01 1.305347e-01 9.584961e-02 2.499889e-01 1.994507e-01 1.000000e-03 1.062115e-01 2.159365e-01 1.608036e-01 1.396314e-01 1.647659e-01 2.450340e-01 1.932344e-01
<GCONST> -6.827296e+01
<STATE> 6
<MEAN> 72
 1.000000e+00 1.000000e+00 1.000000e+00 1.000000e+00 1.000000e+00 1.000000e+00 8.831163e-01 6.233747e-01 1.000000e+00 1.000000e+00 1.000000e+00 1.000000e+00 1.000000e+00 1.000000e+00 7.402585e-01 4.675297e-01 1.000000e+00 1.000000e+00 1.000000e+00 1.000000e+00 1.000000e+00 8.051938e-01 5.844134e-01 3.246718e-01 1.000000e+00 1.000000e+00 1.000000e+00 1.000000e+00 9.350646e-01 6.363618e-01 4.025943e-01 1.818191e-01 1.000000e+00 1.000000e+00 1.000000e+00 9.610388e-01 7.272713e-01 5.194780e-01 2.597416e-01 1.298708e-01 1.000000e+00 1.000000e+00 9.870129e-01 7.532455e-01 5.454522e-01 3.506460e-01 1.688321e-01 1.688320e-01 1.000000e+00 1.000000e+00 8.181809e-01 5.974005e-01 4.155814e-01 1.948062e-01 1.298708e-01 3.116899e-01 1.000000e+00 1.000000e+00 7.402584e-01 4.675297e-01 2.597364e-01 1.428579e-01 9.090953e-02 4.415607e-01 0.000000e+00 1.000000e+00 6.493488e-01 3.246719e-01 1.688321e-01 7.792245e-02 1.168837e-01 4.805219e-01
<VARIANCE> 72
 1.000000e-03 1.000000e-03 1.000000e-03 1.000000e-03 1.000000e-03 1.000000e-03 1.032220e-01 2.347785e-01 1.000000e-03 1.000000e-03 1.000000e-03 1.000000e-03 1.000000e-03 1.000000e-03 1.922759e-01 2.489457e-01 1.000000e-03 1.000000e-03 1.000000e-03 1.000000e-03 1.000000e-03 1.568568e-01 2.428745e-01 2.192600e-01 1.000000e-03 1.000000e-03 1.000000e-03 1.000000e-03 6.071883e-02 2.314054e-01 2.405120e-01 1.487609e-01 1.000000e-03 1.000000e-03 1.000000e-03 3.744327e-02 1.983477e-01 2.496207e-01 1.922759e-01 1.130043e-01 1.000000e-03 1.000000e-03 1.281842e-02 1.858666e-01 2.479340e-01 2.276933e-01 1.403278e-01 1.403278e-01 1.000000e-03 1.000000e-03 1.487609e-01 2.405133e-01 2.428735e-01 1.568568e-01 1.130043e-01 2.145395e-01 1.000000e-03 1.000000e-03 1.922759e-01 2.489458e-01 1.922733e-01 1.224495e-01 8.264501e-02 2.465848e-01 1.000000e-03 1.000000e-03 2.276949e-01 2.192600e-01 1.403278e-01 7.185056e-02 1.032219e-01 2.496207e-01
<GCONST> -1.630741e+02
<STATE> 7
<MEAN> 72
 1.000000e+00 1.000000e+00 1.000000e+00 1.000000e+00 1.000000e+00 1.000000e+00 1.000000e+00 1.000000e+00 1.000000e+00 1.000000e+00 1.000000e+00 1.000000e+00 1.000000e+00 1.000000e+00 1.000000e+00 1.000000e+00 1.000000e+00 1.000000e+00 1.000000e+00 1.000000e+00 1.000000e+00 1.000000e+00 1.000000e+00 1.000000e+00 1.000000e+00 1.000000e+00 1.000000e+00 1.000000e+00 1.000000e+00 1.000000e+00 1.000000e+00 1.000000e+00 1.000000e+00 1.000000e+00 1.000000e+00 1.000000e+00 1.000000e+00 1.000000e+00 1.000000e+00 1.000000e+00 1.000000e+00 1.000000e+00 1.000000e+00 1.000000e+00 1.000000e+00 1.000000e+00 1.000000e+00 1.000000e+00 1.000000e+00 1.000000e+00 1.000000e+00 1.000000e+00 1.000000e+00 1.000000e+00 1.000000e+00 1.000000e+00 1.000000e+00 1.000000e+00 1.000000e+00 1.000000e+00 1.000000e+00 1.000000e+00 1.000000e+00 9.914163e-01 0.000000e+00 1.000000e+00 1.000000e+00 1.000000e+00 1.000000e+00 1.000000e+00 1.000000e+00 9.613734e-01
<VARIANCE> 72
 1.000000e-03 1.000000e-03 1.000000e-03 1.000000e-03 1.000000e-03 1.000000e-03 1.000000e-03 1.000000e-03 1.000000e-03 1.000000e-03 1.000000e-03 1.000000e-03 1.000000e-03 1.000000e-03 1.000000e-03 1.000000e-03 1.000000e-03 1.000000e-03 1.000000e-03 1.000000e-03 1.000000e-03 1.000000e-03 1.000000e-03 1.000000e-03 1.000000e-03 1.000000e-03 1.000000e-03 1.000000e-03 1.000000e-03 1.000000e-03 1.000000e-03 1.000000e-03 1.000000e-03 1.000000e-03 1.000000e-03 1.000000e-03 1.000000e-03 1.000000e-03 1.000000e-03 1.000000e-03 1.000000e-03 1.000000e-03 1.000000e-03 1.000000e-03 1.000000e-03 1.000000e-03 1.000000e-03 1.000000e-03 1.000000e-03 1.000000e-03 1.000000e-03 1.000000e-03 1.000000e-03 1.000000e-03 1.000000e-03 1.000000e-03 1.000000e-03 1.000000e-03 1.000000e-03 1.000000e-03 1.000000e-03 1.000000e-03 1.000000e-03 8.510002e-03 1.000000e-03 1.000000e-03 1.000000e-03 1.000000e-03 1.000000e-03 1.000000e-03 1.000000e-03 3.713457e-02
<GCONST> -3.592755e+02
<TRANSP> 8
 0.000000e+00 1.000000e+00 0.000000e+00 0.000000e+00 0.000000e+00 0.000000e+00 0.000000e+00 0.000000e+00
 0.000000e+00 8.120806e-01 1.879195e-01 0.000000e+00 0.000000e+00 0.000000e+00 0.000000e+00 0.000000e+00
 0.000000e+00 0.000000e+00 8.672986e-01 1.327014e-01 0.000000e+00 0.000000e+00 0.000000e+00 0.000000e+00
 0.000000e+00 0.000000e+00 0.000000e+00 8.766522e-01 1.233478e-01 0.000000e+00 0.000000e+00 0.000000e+00
 0.000000e+00 0.000000e+00 0.000000e+00 0.000000e+00 8.120806e-01 1.879195e-01 0.000000e+00 0.000000e+00
 0.000000e+00 0.000000e+00 0.000000e+00 0.000000e+00 0.000000e+00 6.363618e-01 3.636383e-01 0.000000e+00
 0.000000e+00 0.000000e+00 0.000000e+00 0.000000e+00 0.000000e+00 0.000000e+00 8.798283e-01 1.201717e-01
 0.000000e+00 0.000000e+00 0.000000e+00 0.000000e+00 0.000000e+00 0.000000e+00 0.000000e+00 0.000000e+00
<ENDHMM>
~h "down1"
<BEGINHMM>
<NUMSTATES> 8
<STATE> 2
<MEAN> 72
 1.000000e+00 1.000000e+00 1.000000e+00 1.000000e+00 1.000000e+00 1.000000e+00 1.000000e+00 1.000000e+00 1.000000e+00 1.000000e+00 1.000000e+00 1.000000e+00 1.000000e+00 1.000000e+00 1.000000e+00 1.000000e+00 1.000000e+00 1.000000e+00 1.000000e+00 1.000000e+00 1.000000e+00 1.000000e+00 1.000000e+00 1.000000e+00 1.000000e+00 1.000000e+00 1.000000e+00 1.000000e+00 1.000000e+00 1.000000e+00 1.000000e+00 1.000000e+00 1.000000e+00 1.000000e+00 1.000000e+00 1.000000e+00 1.000000e+00 1.000000e+00 1.000000e+00 1.000000e+00 1.000000e+00 1.000000e+00 1.000000e+00 1.000000e+00 1.000000e+00 9.058823e-01 8.823530e-01 8.823530e-01 1.000000e+00 1.000000e+00 1.000000e+00 9.411765e-01 7.647059e-01 6.235294e-01 5.882353e-01 6.117647e-01 1.000000e+00 1.000000e+00 1.000000e+00 8.117647e-01 5.411764e-01 3.529412e-01 2.588235e-01 2.705882e-01 1.000000e+00 1.000000e+00 8.941177e-01 6.588235e-01 2.823529e-01 1.176471e-01 0.000000e+00 0.000000e+00
<VARIANCE> 72
 1.000000e-03 1.000000e-03 1.000000e-03 1.000000e-03 1.000000e-03 1.000000e-03 1.000000e-03 1.000000e-03 1.000000e-03 1.000000e-03 1.000000e-03 1.000000e-03 1.000000e-03 1.000000e-03 1.000000e-03 1.000000e-03 1.000000e-03 1.000000e-03 1.000000e-03 1.000000e-03 1.000000e-03 1.000000e-03 1.000000e-03 1.000000e-03 1.000000e-03 1.000000e-03 1.000000e-03 1.000000e-03 1.000000e-03 1.000000e-03 1.000000e-03 1.000000e-03 1.000000e-03 1.000000e-03 1.000000e-03 1.000000e-03 1.000000e-03 1.000000e-03 1.000000e-03 1.000000e-03 1.000000e-03 1.000000e-03 1.000000e-03 1.000000e-03 1.000000e-03 8.525953e-02 1.038062e-01 1.038062e-01 1.000000e-03 1.000000e-03 1.000000e-03 5.536342e-02 1.799309e-01 2.347405e-01 2.422145e-01 2.375086e-01 1.000000e-03 1.000000e-03 1.000000e-03 1.528029e-01 2.483046e-01 2.283735e-01 1.918340e-01 1.973704e-01 1.000000e-03 1.000000e-03 9.467121e-02 2.247752e-01 2.026298e-01 1.038061e-01 1.000000e-03 1.000000e-03
<GCONST> -2.792396e+02
<STATE> 3
<MEAN> 72
 1.000000e+00 1.000000e+00 1.000000e+00 1.000000e+00 1.000000e+00 1.000000e+00 1.000000e+00 1.000000e+00 1.000000e+00 1.000000e+00 1.000000e+00 1.000000e+00 1.000000e+00 1.000000e+00 1.000000e+00 1.000000e+00 1.000000e+00 1.000000e+00 1.000000e+00 1.000000e+00 1.000000e+00 1.000000e+00 1.000000e+00 1.000000e+00 1.000000e+00 1.000000e+00 1.000000e+00 9.464286e-01 9.107143e-01 8.035714e-01 8.035714e-01 8.928571e-01 1.000000e+00 1.000000e+00 9.464286e-01 7.500000e-01 5.892857e-01 3.571428e-01 3.214286e-01 4.107143e-01 1.000000e+00 1.000000e+00 8.571429e-01 5.357143e-01 1.428571e-01 5.357143e-02 3.571431e-02 7.142856e-02 1.000000e+00 1.000000e+00 7.500001e-01 3.750000e-01 1.785715e-02 0.000000e+00 0.000000e+00 0.000000e+00 8.035714e-01 6.071429e-01 3.750000e-01 2.678572e-01 5.357144e-02 1.785715e-02 0.000000e+00 5.357143e-02 7.857143e-01 6.785715e-01 5.357143e-01 4.821428e-01 4.464286e-01 4.107143e-01 3.750000e-01 4.464286e-01
<VARIANCE> 72
 1.000000e-03 1.000000e-03 1.000000e-03 1.000000e-03 1.000000e-03 1.000000e-03 1.000000e-03 1.000000e-03 1.000000e-03 1.000000e-03 1.000000e-03 1.000000e-03 1.000000e-03 1.000000e-03 1.000000e-03 1.000000e-03 1.000000e-03 1.000000e-03 1.000000e-03 1.000000e-03 1.000000e-03 1.000000e-03 1.000000e-03 1.000000e-03 1.000000e-03 1.000000e-03 1.000000e-03 5.070150e-02 8.131377e-02 1.578444e-01 1.578444e-01 9.566325e-02 1.000000e-03 1.000000e-03 5.070150e-02 1.875000e-01 2.420280e-01 2.295918e-01 2.181122e-01 2.420280e-01 1.000000e-03 1.000000e-03 1.224490e-01 2.487244e-01 1.224490e-01 5.070149e-02 3.443880e-02 6.632662e-02 1.000000e-03 1.000000e-03 1.875000e-01 2.343750e-01 1.753827e-02 1.000000e-03 1.000000e-03 1.000000e-03 1.578444e-01 2.385205e-01 2.343750e-01 1.961097e-01 5.070150e-02 1.753827e-02 1.000000e-03 5.070150e-02 1.683674e-01 2.181123e-01 2.487245e-01 2.496812e-01 2.471301e-01 2.420280e-01 2.343750e-01 2.471302e-01
<GCONST> -1.952158e+02
<STATE> 4
<MEAN> 72
 1.000000e+00 1.000000e+00 1.000000e+00 9.846154e-01 1.000000e+00 9.846154e-01 9.538462e-01 9.692308e-01 1.000000e+00 1.000000e+00 9.692308e-01 8.153846e-01 7.846154e-01 6.000000e-01 6.000000e-01 7.230769e-01 1.000000e+00 1.000000e+00 8.615385e-01 6.923076e-01 4.307692e-01 2.153846e-01 2.615385e-01 3.076923e-01 1.000000e+00 9.538462e-01 7.384616e-01 4.769232e-01 7.692307e-02 0.000000e+00 0.000000e+00 0.000000e+00 8.153846e-01 7.538462e-01 6.000000e-01 3.538462e-01 3.076922e-02 0.000000e+00 0.000000e+00 0.000000e+00 7.692307e-01 6.923077e-01 5.846154e-01 4.153847e-01 3.076923e-01 3.076923e-01 3.076923e-01 3.538462e-01 8.307692e-01 7.846154e-01 7.538462e-01 7.692308e-01 7.076923e-01 6.923077e-01 6.615385e-01 6.923077e-01 1.000000e+00 1.000000e+00 1.000000e+00 1.000000e+00 1.000000e+00 9.846154e-01 9.692308e-01 9.846154e-01 1.000000e+00 1.000000e+00 1.000000e+00 1.000000e+00 1.000000e+00 1.000000e+00 1.000000e+00 1.000000e+00
<VARIANCE> 72
 1.000000e-03 1.000000e-03 1.000000e-03 1.514793e-02 1.000000e-03 1.514793e-02 4.402366e-02 2.982249e-02 1.000000e-03 1.000000e-03 2.982249e-02 1.505323e-01 1.689941e-01 2.399999e-01 2.399999e-01 2.002368e-01 1.000000e-03 1.000000e-03 1.192900e-01 2.130176e-01 2.452070e-01 1.689941e-01 1.931360e-01 2.130176e-01 1.000000e-03 4.402366e-02 1.931361e-01 2.494674e-01 7.100589e-02 1.000000e-03 1.000000e-03 1.000000e-03 1.505325e-01 1.855621e-01 2.399999e-01 2.286390e-01 2.982249e-02 1.000000e-03 1.000000e-03 1.000000e-03 1.775147e-01 2.130176e-01 2.428402e-01 2.428402e-01 2.130177e-01 2.130177e-01 2.130177e-01 2.286390e-01 1.405915e-01 1.689941e-01 1.855621e-01 1.775147e-01 2.068639e-01 2.130176e-01 2.239054e-01 2.130177e-01 1.000000e-03 1.000000e-03 1.000000e-03 1.000000e-03 1.000000e-03 1.514793e-02 2.982249e-02 1.514793e-02 1.000000e-03 1.000000e-03 1.000000e-03 1.000000e-03 1.000000e-03 1.000000e-03 1.000000e-03 1.000000e-03
<GCONST> -1.540232e+02
<STATE> 5
<MEAN> 72
 9.189189e-01 8.243243e-01 7.567568e-01 4.999999e-01 2.432432e-01 0.000000e+00 1.351352e-02 6.756756e-02 9.054054e-01 8.378378e-01 6.486486e-01 4.189189e-01 1.756757e-01 6.756755e-02 1.351352e-02 0.000000e+00 8.783784e-01 7.702703e-01 6.486486e-01 5.270270e-01 3.648649e-01 3.378378e-01 3.243243e-01 3.108108e-01 8.378379e-01 7.972972e-01 7.567568e-01 7.567568e-01 7.027028e-01 6.891892e-01 6.216216e-01 6.216216e-01 1.000000e+00 1.000000e+00 1.000000e+00 9.594594e-01 9.459459e-01 9.189189e-01 9.324324e-01 9.459459e-01 1.000000e+00 1.000000e+00 1.000000e+00 1.000000e+00 1.000000e+00 1.000000e+00 1.000000e+00 1.000000e+00 1.000000e+00 1.000000e+00 1.000000e+00 1.000000e+00 1.000000e+00 1.000000e+00 1.000000e+00 1.000000e+00 1.000000e+00 1.000000e+00 1.000000e+00 1.000000e+00 1.000000e+00 1.000000e+00 1.000000e+00 1.000000e+00 1.000000e+00 1.000000e+00 1.000000e+00 1.000000e+00 1.000000e+00 1.000000e+00 1.000000e+00 1.000000e+00
<VARIANCE> 72
 7.450697e-02 1.448137e-01 1.840758e-01 2.500000e-01 1.840759e-01 1.000000e-03 1.333091e-02 6.300215e-02 8.564657e-02 1.358656e-01 2.279034e-01 2.434259e-01 1.448137e-01 6.300219e-02 1.333091e-02 1.000000e-03 1.068299e-01 1.769538e-01 2.279034e-01 2.492696e-01 2.317385e-01 2.237035e-01 2.191381e-01 2.142074e-01 1.358656e-01 1.616142e-01 1.840758e-01 1.840758e-01 2.089116e-01 2.142074e-01 2.352082e-01 2.352082e-01 1.000000e-03 1.000000e-03 1.000000e-03 3.889691e-02 5.113219e-02 7.450695e-02 6.300216e-02 5.113219e-02 1.000000e-03 1.000000e-03 1.000000e-03 1.000000e-03 1.000000e-03 1.000000e-03 1.000000e-03 1.000000e-03 1.000000e-03 1.000000e-03 1.000000e-03 1.000000e-03 1.000000e-03 1.000000e-03 1.000000e-03 1.000000e-03 1.000000e-03 1.000000e-03 1.000000e-03 1.000000e-03 1.000000e-03 1.000000e-03 1.000000e-03 1.000000e-03 1.000000e-03 1.000000e-03 1.000000e-03 1.000000e-03 1.000000e-03 1.000000e-03 1.000000e-03 1.000000e-03
<GCONST> -1.966168e+02
<STATE> 6
<MEAN> 72
 1.000000e+00 9.545454e-01 7.727273e-01 5.909091e-01 4.090909e-01 1.363636e-01 9.090909e-02 0.000000e+00 1.000000e+00 1.000000e+00 1.000000e+00 1.000000e+00 1.000000e+00 1.000000e+00 1.000000e+00 1.000000e+00 1.000000e+00 1.000000e+00 1.000000e+00 1.000000e+00 1.000000e+00 1.000000e+00 1.000000e+00 1.000000e+00 1.000000e+00 1.000000e+00 1.000000e+00 1.000000e+00 1.000000e+00 1.000000e+00 1.000000e+00 1.000000e+00 1.000000e+00 1.000000e+00 1.000000e+00 1.000000e+00 1.000000e+00 1.000000e+00 1.000000e+00 1.000000e+00 1.000000e+00 1.000000e+00 1.000000e+00 1.000000e+00 1.000000e+00 1.000000e+00 1.000000e+00 1.000000e+00 1.000000e+00 1.000000e+00 1.000000e+00 1.000000e+00 1.000000e+00 1.000000e+00 1.000000e+00 1.000000e+00 1.000000e+00 1.000000e+00 1.000000e+00 1.000000e+00 1.000000e+00 1.000000e+00 1.000000e+00 1.000000e+00 1.000000e+00 1.000000e+00 1.000000e+00 1.000000e+00 1.000000e+00 1.000000e+00 1.000000e+00 1.000000e+00
<VARIANCE> 72
 1.000000e-03 4.338844e-02 1.756199e-01 2.417356e-01 2.417355e-01 1.177686e-01 8.264463e-02 1.000000e-03 1.000000e-03 1.000000e-03 1.000000e-03 1.000000e-03 1.000000e-03 1.000000e-03 1.000000e-03 1.000000e-03 1.000000e-03 1.000000e-03 1.000000e-03 1.000000e-03 1.000000e-03 1.000000e-03 1.000000e-03 1.000000e-03 1.000000e-03 1.000000e-03 1.000000e-03 1.000000e-03 1.000000e-03 1.000000e-03 1.000000e-03 1.000000e-03 1.000000e-03 1.000000e-03 1.000000e-03 1.000000e-03 1.000000e-03 1.000000e-03 1.000000e-03 1.000000e-03 1.000000e-03 1.000000e-03 1.000000e-03 1.000000e-03 1.000000e-03 1.000000e-03 1.000000e-03 1.000000e-03 1.000000e-03 1.000000e-03 1.000000e-03 1.000000e-03 1.000000e-03 1.000000e-03 1.000000e-03 1.000000e-03 1.000000e-03 1.000000e-03 1.000000e-03 1.000000e-03 1.000000e-03 1.000000e-03 1.000000e-03 1.000000e-03 1.000000e-03 1.000000e-03 1.000000e-03 1.000000e-03 1.000000e-03 1.000000e-03 1.000000e-03 1.000000e-03
<GCONST> -3.359338e+02
<STATE> 7
<MEAN> 72
 1.000000e+00 1.000000e+00 1.000000e+00 1.000000e+00 1.000000e+00 1.000000e+00 1.000000e+00 1.000000e+00 1.000000e+00 1.000000e+00 1.000000e+00 1.000000e+00 1.000000e+00 1.000000e+00 1.000000e+00 1.000000e+00 1.000000e+00 1.000000e+00 1.000000e+00 1.000000e+00 1.000000e+00 1.000000e+00 1.000000e+00 1.000000e+00 1.000000e+00 1.000000e+00 1.000000e+00 1.000000e+00 1.000000e+00 1.000000e+00 1.000000e+00 1.000000e+00 1.000000e+00 1.000000e+00 1.000000e+00 1.000000e+00 1.000000e+00 1.000000e+00 1.000000e+00 1.000000e+00 1.000000e+00 1.000000e+00 1.000000e+00 1.000000e+00 1.000000e+00 1.000000e+00 1.000000e+00 1.000000e+00 1.000000e+00 1.000000e+00 1.000000e+00 1.000000e+00 1.000000e+00 1.000000e+00 1.000000e+00 1.000000e+00 1.000000e+00 1.000000e+00 1.000000e+00 1.000000e+00 1.000000e+00 1.000000e+00 1.000000e+00 1.000000e+00 1.000000e+00 1.000000e+00 1.000000e+00 1.000000e+00 1.000000e+00 1.000000e+00 1.000000e+00 1.000000e+00
<VARIANCE> 72
 1.000000e-03 1.000000e-03 1.000000e-03 1.000000e-03 1.000000e-03 1.000000e-03 1.000000e-03 1.000000e-03 1.000000e-03 1.000000e-03 1.000000e-03 1.000000e-03 1.000000e-03 1.000000e-03 1.000000e-03 1.000000e-03 1.000000e-03 1.000000e-03 1.000000e-03 1.000000e-03 1.000000e-03 1.000000e-03 1.000000e-03 1.000000e-03 1.000000e-03 1.000000e-03 1.000000e-03 1.000000e-03 1.000000e-03 1.000000e-03 1.000000e-03 1.000000e-03 1.000000e-03 1.000000e-03 1.000000e-03 1.000000e-03 1.000000e-03 1.000000e-03 1.000000e-03 1.000000e-03 1.000000e-03 1.000000e-03 1.000000e-03 1.000000e-03 1.000000e-03 1.000000e-03 1.000000e-03 1.000000e-03 1.000000e-03 1.000000e-03 1.000000e-03 1.000000e-03 1.000000e-03 1.000000e-03 1.000000e-03 1.000000e-03 1.000000e-03 1.000000e-03 1.000000e-03 1.000000e-03 1.000000e-03 1.000000e-03 1.000000e-03 1.000000e-03 1.000000e-03 1.000000e-03 1.000000e-03 1.000000e-03 1.000000e-03 1.000000e-03 1.000000e-03 1.000000e-03
<GCONST> -3.650312e+02
<TRANSP> 8
 0.000000e+00 1.000000e+00 0.000000e+00 0.000000e+00 0.000000e+00 0.000000e+00 0.000000e+00 0.000000e+00
 0.000000e+00 8.235294e-01 1.764706e-01 0.000000e+00 0.000000e+00 0.000000e+00 0.000000e+00 0.000000e+00
 0.000000e+00 0.000000e+00 7.321429e-01 2.678571e-01 0.000000e+00 0.000000e+00 0.000000e+00 0.000000e+00
 0.000000e+00 0.000000e+00 0.000000e+00 7.692308e-01 2.307692e-01 0.000000e+00 0.000000e+00 0.000000e+00
 0.000000e+00 0.000000e+00 0.000000e+00 0.000000e+00 7.972973e-01 2.027027e-01 0.000000e+00 0.000000e+00
 0.000000e+00 0.000000e+00 0.000000e+00 0.000000e+00 0.000000e+00 3.181818e-01 6.818182e-01 0.000000e+00
 0.000000e+00 0.000000e+00 0.000000e+00 0.000000e+00 0.000000e+00 0.000000e+00 8.728814e-01 1.271186e-01
 0.000000e+00 0.000000e+00 0.000000e+00 0.000000e+00 0.000000e+00 0.000000e+00 0.000000e+00 0.000000e+00
<ENDHMM>
~h "down2"
<BEGINHMM>
<NUMSTATES> 8
<STATE> 2
<MEAN> 72
 1.000000e+00 1.000000e+00 1.000000e+00 1.000000e+00 1.000000e+00 1.000000e+00 1.000000e+00 1.000000e+00 1.000000e+00 1.000000e+00 1.000000e+00 1.000000e+00 1.000000e+00 1.000000e+00 1.000000e+00 1.000000e+00 1.000000e+00 1.000000e+00 1.000000e+00 1.000000e+00 1.000000e+00 1.000000e+00 1.000000e+00 9.602646e-01 1.000000e+00 1.000000e+00 1.000000e+00 1.000000e+00 1.000000e+00 9.735096e-01 8.543043e-01 7.549666e-01 1.000000e+00 1.000000e+00 1.000000e+00 1.000000e+00 9.867546e-01 8.211917e-01 6.556289e-01 5.827813e-01 1.000000e+00 9.933775e-01 9.933775e-01 9.933775e-01 9.536424e-01 6.887414e-01 4.768210e-01 4.105959e-01 1.000000e+00 9.205294e-01 8.807943e-01 8.675493e-01 8.278142e-01 5.496686e-01 3.576157e-01 2.317880e-01 9.933775e-01 9.139073e-01 8.079471e-01 8.079471e-01 7.152319e-01 4.370860e-01 1.456953e-01 8.609308e-02 9.933775e-01 9.271523e-01 7.947021e-01 7.615891e-01 6.158938e-01 4.635764e-01 1.523182e-01 1.788082e-01
<VARIANCE> 72
 1.000000e-03 1.000000e-03 1.000000e-03 1.000000e-03 1.000000e-03 1.000000e-03 1.000000e-03 1.000000e-03 1.000000e-03 1.000000e-03 1.000000e-03 1.000000e-03 1.000000e-03 1.000000e-03 1.000000e-03 1.000000e-03 1.000000e-03 1.000000e-03 1.000000e-03 1.000000e-03 1.000000e-03 1.000000e-03 1.000000e-03 3.815654e-02 1.000000e-03 1.000000e-03 1.000000e-03 1.000000e-03 1.000000e-03 2.578866e-02 1.244683e-01 1.849921e-01 1.000000e-03 1.000000e-03 1.000000e-03 1.000000e-03 1.307000e-02 1.468358e-01 2.257796e-01 2.431475e-01 1.000000e-03 6.578660e-03 6.578660e-03 6.578660e-03 4.420861e-02 2.143767e-01 2.494626e-01 2.420068e-01 1.000000e-03 7.315488e-02 1.049956e-01 1.149074e-01 1.425377e-01 2.475329e-01 2.297267e-01 1.780623e-01 6.578665e-03 7.868072e-02 1.551686e-01 1.551686e-01 2.036752e-01 2.460416e-01 1.244680e-01 7.868101e-02 6.578662e-03 6.754100e-02 1.631507e-01 1.815708e-01 2.365686e-01 2.486733e-01 1.291175e-01 1.468361e-01
<GCONST> -1.954501e+02
<STATE> 3
<MEAN> 72
 1.000000e+00 1.000000e+00 1.000000e+00 1.000000e+00 9.893617e-01 9.042553e-01 7.127658e-01 6.170210e-01 1.000000e+00 1.000000e+00 1.000000e+00 1.000000e+00 9.574468e-01 6.702126e-01 3.829783e-01 2.553186e-01 1.000000e+00 1.000000e+00 9.787234e-01 9.680851e-01 7.553189e-01 3.723400e-01 1.063824e-01 0.000000e+00 9.680851e-01 8.617021e-01 7.978722e-01 7.553190e-01 5.744678e-01 9.574476e-02 1.063831e-02 0.000000e+00 9.468085e-01 8.404254e-01 7.978722e-01 7.234040e-01 4.787237e-01 6.382984e-02 0.000000e+00 3.191492e-02 9.574468e-01 8.297871e-01 6.914892e-01 5.106379e-01 2.978719e-01 2.021278e-01 2.553193e-01 4.148939e-01 9.893617e-01 8.829793e-01 6.808516e-01 6.382983e-01 6.170217e-01 5.531918e-01 5.851068e-01 7.340431e-01 1.000000e+00 9.574468e-01 7.872339e-01 7.446807e-01 7.765956e-01 8.723410e-01 9.361708e-01 1.000000e+00 1.000000e+00 9.680851e-01 8.829786e-01 8.936176e-01 9.787241e-01 1.000000e+00 1.000000e+00 1.000000e+00
<VARIANCE> 72
 1.000000e-03 1.000000e-03 1.000000e-03 1.000000e-03 1.052514e-02 8.657771e-02 2.047308e-01 2.363062e-01 1.000000e-03 1.000000e-03 1.000000e-03 1.000000e-03 4.074245e-02 2.210276e-01 2.363061e-01 1.901309e-01 1.000000e-03 1.000000e-03 2.082391e-02 3.089635e-02 1.848122e-01 2.337032e-01 9.506521e-02 1.000000e-03 3.089633e-02 1.191715e-01 1.612721e-01 1.848122e-01 2.444547e-01 8.657774e-02 1.052514e-02 1.000000e-03 5.036229e-02 1.341106e-01 1.612721e-01 2.000908e-01 2.495471e-01 5.975552e-02 1.000000e-03 3.089634e-02 4.074245e-02 1.412406e-01 2.133318e-01 2.498869e-01 2.091443e-01 1.612722e-01 1.901314e-01 2.427570e-01 1.052514e-02 1.033268e-01 2.172926e-01 2.308736e-01 2.363061e-01 2.471706e-01 2.427568e-01 1.952238e-01 1.000000e-03 4.074245e-02 1.674966e-01 1.901314e-01 1.734949e-01 1.113621e-01 5.975497e-02 1.000000e-03 1.000000e-03 3.089634e-02 1.033273e-01 9.506524e-02 2.082327e-02 1.000000e-03 1.000000e-03 1.000000e-03
<GCONST> -1.188907e+02
<STATE> 4
<MEAN> 72
 9.430894e-01 8.699187e-01 7.886178e-01 7.560976e-01 5.365854e-01 1.138211e-01 0.000000e+00 0.000000e+00 9.674796e-01 8.536586e-01 7.317073e-01 6.747968e-01 2.926829e-01 2.439024e-02 6.504066e-02 1.544715e-01 9.674796e-01 8.130081e-01 5.853658e-01 5.121951e-01 3.658536e-01 3.414634e-01 3.739837e-01 4.634146e-01 9.674796e-01 9.268292e-01 7.723577e-01 6.747968e-01 6.341464e-01 6.097561e-01 6.747968e-01 7.398374e-01 1.000000e+00 9.268292e-01 8.373984e-01 7.642276e-01 7.723577e-01 8.536585e-01 9.268292e-01 1.000000e+00 9.918699e-01 9.593496e-01 8.536586e-01 9.430894e-01 1.000000e+00 1.000000e+00 1.000000e+00 1.000000e+00 1.000000e+00 1.000000e+00 1.000000e+00 1.000000e+00 1.000000e+00 1.000000e+00 1.000000e+00 1.000000e+00 1.000000e+00 1.000000e+00 1.000000e+00 1.000000e+00 1.000000e+00 1.000000e+00 1.000000e+00 1.000000e+00 1.000000e+00 1.000000e+00 1.000000e+00 1.000000e+00 1.000000e+00 1.000000e+00 1.000000e+00 1.000000e+00
<VARIANCE> 72
 5.367169e-02 1.131601e-01 1.666995e-01 1.844140e-01 2.486612e-01 1.008660e-01 1.000000e-03 1.000000e-03 3.146278e-02 1.249256e-01 1.963119e-01 2.194460e-01 2.070197e-01 2.379536e-02 6.081044e-02 1.306102e-01 3.146278e-02 1.520257e-01 2.427125e-01 2.498512e-01 2.320046e-01 2.248663e-01 2.341201e-01 2.486613e-01 3.146278e-02 6.781676e-02 1.758212e-01 2.194460e-01 2.320046e-01 2.379537e-01 2.194460e-01 1.924778e-01 1.000000e-03 6.781676e-02 1.361625e-01 1.801836e-01 1.758212e-01 1.249256e-01 6.781675e-02 1.000000e-03 8.063985e-03 3.899789e-02 1.249256e-01 5.367177e-02 1.000000e-03 1.000000e-03 1.000000e-03 1.000000e-03 1.000000e-03 1.000000e-03 1.000000e-03 1.000000e-03 1.000000e-03 1.000000e-03 1.000000e-03 1.000000e-03 1.000000e-03 1.000000e-03 1.000000e-03 1.000000e-03 1.000000e-03 1.000000e-03 1.000000e-03 1.000000e-03 1.000000e-03 1.000000e-03 1.000000e-03 1.000000e-03 1.000000e-03 1.000000e-03 1.000000e-03 1.000000e-03
<GCONST> -1.752106e+02
<STATE> 5
<MEAN> 72
 1.000000e+00 8.918919e-01 7.162162e-01 4.459460e-01 4.189189e-01 4.729730e-01 5.810811e-01 7.432432e-01 1.000000e+00 9.054054e-01 7.027027e-01 6.891892e-01 8.378378e-01 1.000000e+00 1.000000e+00 1.000000e+00 1.000000e+00 9.864865e-01 1.000000e+00 1.000000e+00 1.000000e+00 1.000000e+00 1.000000e+00 1.000000e+00 1.000000e+00 1.000000e+00 1.000000e+00 1.000000e+00 1.000000e+00 1.000000e+00 1.000000e+00 1.000000e+00 1.000000e+00 1.000000e+00 1.000000e+00 1.000000e+00 1.000000e+00 1.000000e+00 1.000000e+00 1.000000e+00 1.000000e+00 1.000000e+00 1.000000e+00 1.000000e+00 1.000000e+00 1.000000e+00 1.000000e+00 1.000000e+00 1.000000e+00 1.000000e+00 1.000000e+00 1.000000e+00 1.000000e+00 1.000000e+00 1.000000e+00 1.000000e+00 1.000000e+00 1.000000e+00 1.000000e+00 1.000000e+00 1.000000e+00 1.000000e+00 1.000000e+00 1.000000e+00 1.000000e+00 1.000000e+00 1.000000e+00 1.000000e+00 1.000000e+00 1.000000e+00 1.000000e+00 1.000000e+00
<VARIANCE> 72
 1.000000e-03 9.642070e-02 2.032504e-01 2.470783e-01 2.434259e-01 2.492696e-01 2.434259e-01 1.908326e-01 1.000000e-03 8.564658e-02 2.089115e-01 2.142074e-01 1.358656e-01 1.000000e-03 1.000000e-03 1.000000e-03 1.000000e-03 1.333090e-02 1.000000e-03 1.000000e-03 1.000000e-03 1.000000e-03 1.000000e-03 1.000000e-03 1.000000e-03 1.000000e-03 1.000000e-03 1.000000e-03 1.000000e-03 1.000000e-03 1.000000e-03 1.000000e-03 1.000000e-03 1.000000e-03 1.000000e-03 1.000000e-03 1.000000e-03 1.000000e-03 1.000000e-03 1.000000e-03 1.000000e-03 1.000000e-03 1.000000e-03 1.000000e-03 1.000000e-03 1.000000e-03 1.000000e-03 1.000000e-03 1.000000e-03 1.000000e-03 1.000000e-03 1.000000e-03 1.000000e-03 1.000000e-03 1.000000e-03 1.000000e-03 1.000000e-03 1.000000e-03 1.000000e-03 1.000000e-03 1.000000e-03 1.000000e-03 1.000000e-03 1.000000e-03 1.000000e-03 1.000000e-03 1.000000e-03 1.000000e-03 1.000000e-03 1.000000e-03 1.000000e-03 1.000000e-03
<GCONST> -3.052180e+02
<STATE> 6
<MEAN> 72
 1.000000e+00 1.000000e+00 1.000000e+00 1.000000e+00 1.000000e+00 1.000000e+00 1.000000e+00 1.000000e+00 1.000000e+00 1.000000e+00 1.000000e+00 1.000000e+00 1.000000e+00 1.000000e+00 1.000000e+00 1.000000e+00 1.000000e+00 1.000000e+00 1.000000e+00 1.000000e+00 1.000000e+00 1.000000e+00 1.000000e+00 1.000000e+00 1.000000e+00 1.000000e+00 1.000000e+00 1.000000e+00 1.000000e+00 1.000000e+00 1.000000e+00 1.000000e+00 1.000000e+00 1.000000e+00 1.000000e+00 1.000000e+00 1.000000e+00 1.000000e+00 1.000000e+00 1.000000e+00 1.000000e+00 1.000000e+00 1.000000e+00 1.000000e+00 1.000000e+00 1.000000e+00 1.000000e+00 1.000000e+00 1.000000e+00 1.000000e+00 1.000000e+00 1.000000e+00 1.000000e+00 1.000000e+00 1.000000e+00 1.000000e+00 1.000000e+00 1.000000e+00 1.000000e+00 1.000000e+00 1.000000e+00 1.000000e+00 1.000000e+00 1.000000e+00 1.000000e+00 1.000000e+00 1.000000e+00 1.000000e+00 1.000000e+00 1.000000e+00 1.000000e+00 1.000000e+00
<VARIANCE> 72
 1.000000e-03 1.000000e-03 1.000000e-03 1.000000e-03 1.000000e-03 1.000000e-03 1.000000e-03 1.000000e-03 1.000000e-03 1.000000e-03 1.000000e-03 1.000000e-03 1.000000e-03 1.000000e-03 1.000000e-03 1.000000e-03 1.000000e-03 1.000000e-03 1.000000e-03 1.000000e-03 1.000000e-03 1.000000e-03 1.000000e-03 1.000000e-03 1.000000e-03 1.000000e-03 1.000000e-03 1.000000e-03 1.000000e-03 1.000000e-03 1.000000e-03 1.000000e-03 1.000000e-03 1.000000e-03 1.000000e-03 1.000000e-03 1.000000e-03 1.000000e-03 1.000000e-03 1.000000e-03 1.000000e-03 1.000000e-03 1.000000e-03 1.000000e-03 1.000000e-03 1.000000e-03 1.000000e-03 1.000000e-03 1.000000e-03 1.000000e-03 1.000000e-03 1.000000e-03 1.000000e-03 1.000000e-03 1.000000e-03 1.000000e-03 1.000000e-03 1.000000e-03 1.000000e-03 1.000000e-03 1.000000e-03 1.000000e-03 1.000000e-03 1.000000e-03 1.000000e-03 1.000000e-03 1.000000e-03 1.000000e-03 1.000000e-03 1.000000e-03 1.000000e-03 1.000000e-03
<GCONST> -3.650312e+02
<STATE> 7
<MEAN> 72
 1.000000e+00 1.000000e+00 1.000000e+00 1.000000e+00 1.000000e+00 1.000000e+00 1.000000e+00 1.000000e+00 1.000000e+00 1.000000e+00 1.000000e+00 1.000000e+00 1.000000e+00 1.000000e+00 1.000000e+00 1.000000e+00 1.000000e+00 1.000000e+00 1.000000e+00 1.000000e+00 1.000000e+00 1.000000e+00 1.000000e+00 1.000000e+00 1.000000e+00 1.000000e+00 1.000000e+00 1.000000e+00 1.000000e+00 1.000000e+00 1.000000e+00 1.000000e+00 1.000000e+00 1.000000e+00 1.000000e+00 1.000000e+00 1.000000e+00 1.000000e+00 1.000000e+00 1.000000e+00 1.000000e+00 1.000000e+00 1.000000e+00 1.000000e+00 1.000000e+00 1.000000e+00 1.000000e+00 1.000000e+00 1.000000e+00 1.000000e+00 1.000000e+00 1.000000e+00 1.000000e+00 1.000000e+00 1.000000e+00 1.000000e+00 1.000000e+00 1.000000e+00 1.000000e+00 1.000000e+00 1.000000e+00 1.000000e+00 1.000000e+00 1.000000e+00 1.000000e+00 1.000000e+00 1.000000e+00 1.000000e+00 1.000000e+00 1.000000e+00 1.000000e+00 1.000000e+00
<VARIANCE> 72
 1.000000e-03 1.000000e-03 1.000000e-03 1.000000e-03 1.000000e-03 1.000000e-03 1.000000e-03 1.000000e-03 1.000000e-03 1.000000e-03 1.000000e-03 1.000000e-03 1.000000e-03 1.000000e-03 1.000000e-03 1.000000e-03 1.000000e-03 1.000000e-03 1.000000e-03 1.000000e-03 1.000000e-03 1.000000e-03 1.000000e-03 1.000000e-03 1.000000e-03 1.000000e-03 1.000000e-03 1.000000e-03 1.000000e-03 1.000000e-03 1.000000e-03 1.000000e-03 1.000000e-03 1.000000e-03 1.000000e-03 1.000000e-03 1.000000e-03 1.000000e-03 1.000000e-03 1.000000e-03 1.000000e-03 1.000000e-03 1.000000e-03 1.000000e-03 1.000000e-03 1.000000e-03 1.000000e-03 1.000000e-03 1.000000e-03 1.000000e-03 1.000000e-03 1.000000e-03 1.000000e-03 1.000000e-03 1.000000e-03 1.000000e-03 1.000000e-03 1.000000e-03 1.000000e-03 1.000000e-03 1.000000e-03 1.000000e-03 1.000000e-03 1.000000e-03 1.000000e-03 1.000000e-03 1.000000e-03 1.000000e-03 1.000000e-03 1.000000e-03 1.000000e-03 1.000000e-03
<GCONST> -3.650312e+02
<TRANSP> 8
 0.000000e+00 1.000000e+00 0.000000e+00 0.000000e+00 0.000000e+00 0.000000e+00 0.000000e+00 0.000000e+00
 0.000000e+00 7.284769e-01 2.715230e-01 0.000000e+00 0.000000e+00 0.000000e+00 0.000000e+00 0.000000e+00
 0.000000e+00 0.000000e+00 5.638295e-01 4.361705e-01 0.000000e+00 0.000000e+00 0.000000e+00 0.000000e+00
 0.000000e+00 0.000000e+00 0.000000e+00 6.666667e-01 3.333333e-01 0.000000e+00 0.000000e+00 0.000000e+00
 0.000000e+00 0.000000e+00 0.000000e+00 0.000000e+00 4.459459e-01 5.540541e-01 0.000000e+00 0.000000e+00
 0.000000e+00 0.000000e+00 0.000000e+00 0.000000e+00 0.000000e+00 8.519856e-01 1.480144e-01 0.000000e+00
 0.000000e+00 0.000000e+00 0.000000e+00 0.000000e+00 0.000000e+00 0.000000e+00 0.000000e+00 1.000000e+00
 0.000000e+00 0.000000e+00 0.000000e+00 0.000000e+00 0.000000e+00 0.000000e+00 0.000000e+00 0.000000e+00
<ENDHMM>
~h "right1"
<BEGINHMM>
<NUMSTATES> 8
<STATE> 2
<MEAN> 72
 1.000000e+00 1.000000e+00 1.000000e+00 1.000000e+00 1.000000e+00 1.000000e+00 1.000000e+00 1.000000e+00 9.661017e-01 1.000000e+00 1.000000e+00 1.000000e+00 1.000000e+00 1.000000e+00 1.000000e+00 1.000000e+00 9.152542e-01 1.000000e+00 1.000000e+00 1.000000e+00 1.000000e+00 1.000000e+00 1.000000e+00 1.000000e+00 8.813559e-01 1.000000e+00 1.000000e+00 1.000000e+00 1.000000e+00 1.000000e+00 1.000000e+00 1.000000e+00 7.966102e-01 9.491525e-01 1.000000e+00 1.000000e+00 1.000000e+00 1.000000e+00 1.000000e+00 1.000000e+00 5.593221e-01 7.118644e-01 7.288135e-01 8.813559e-01 1.000000e+00 1.000000e+00 1.000000e+00 1.000000e+00 2.372882e-01 3.050847e-01 5.254237e-01 7.118644e-01 8.983051e-01 1.000000e+00 1.000000e+00 1.000000e+00 5.084747e-02 1.694915e-01 4.237288e-01 6.779661e-01 8.813559e-01 9.830508e-01 1.000000e+00 1.000000e+00 0.000000e+00 1.694915e-01 4.237288e-01 6.610169e-01 8.644068e-01 1.000000e+00 1.000000e+00 1.000000e+00
<VARIANCE> 72
 1.000000e-03 1.000000e-03 1.000000e-03 1.000000e-03 1.000000e-03 1.000000e-03 1.000000e-03 1.000000e-03 3.274921e-02 1.000000e-03 1.000000e-03 1.000000e-03 1.000000e-03 1.000000e-03 1.000000e-03 1.000000e-03 7.756391e-02 1.000000e-03 1.000000e-03 1.000000e-03 1.000000e-03 1.000000e-03 1.000000e-03 1.000000e-03 1.045676e-01 1.000000e-03 1.000000e-03 1.000000e-03 1.000000e-03 1.000000e-03 1.000000e-03 1.000000e-03 1.620225e-01 4.826197e-02 1.000000e-03 1.000000e-03 1.000000e-03 1.000000e-03 1.000000e-03 1.000000e-03 2.464809e-01 2.051135e-01 1.976443e-01 1.045676e-01 1.000000e-03 1.000000e-03 1.000000e-03 1.000000e-03 1.809826e-01 2.120081e-01 2.493535e-01 2.051135e-01 9.135301e-02 1.000000e-03 1.000000e-03 1.000000e-03 4.826196e-02 1.407642e-01 2.441828e-01 2.183279e-01 1.045676e-01 1.666190e-02 1.000000e-03 1.000000e-03 1.000000e-03 1.407642e-01 2.441827e-01 2.240734e-01 1.172076e-01 1.000000e-03 1.000000e-03 1.000000e-03
<GCONST> -2.491062e+02
<STATE> 3
<MEAN> 72
 9.772727e-01 9.772727e-01 9.772727e-01 9.545454e-01 1.000000e+00 1.000000e+00 1.000000e+00 1.000000e+00 9.545454e-01 8.863636e-01 8.181818e-01 7.954546e-01 9.772727e-01 1.000000e+00 1.000000e+00 1.000000e+00 9.545454e-01 7.272727e-01 7.045454e-01 7.272727e-01 9.318182e-01 9.772727e-01 1.000000e+00 1.000000e+00 9.545454e-01 6.818182e-01 7.272727e-01 6.818182e-01 9.090909e-01 9.545454e-01 9.772727e-01 1.000000e+00 9.090909e-01 6.363636e-01 6.136364e-01 5.681819e-01 7.727273e-01 7.727273e-01 9.318182e-01 9.772727e-01 8.863636e-01 5.909091e-01 4.318182e-01 1.136364e-01 2.272727e-01 2.727273e-01 6.136364e-01 8.636364e-01 9.090909e-01 5.681818e-01 2.272727e-01 2.272728e-02 2.272728e-02 1.818182e-01 5.000000e-01 8.181818e-01 8.409091e-01 5.227273e-01 1.363636e-01 2.272728e-02 6.818182e-02 1.818182e-01 4.772727e-01 7.727273e-01 7.727273e-01 5.000000e-01 9.090910e-02 0.000000e+00 4.545455e-02 2.500000e-01 5.909091e-01 8.863636e-01
<VARIANCE> 72
 2.221075e-02 2.221075e-02 2.221075e-02 4.338844e-02 1.000000e-03 1.000000e-03 1.000000e-03 1.000000e-03 4.338843e-02 1.007231e-01 1.487603e-01 1.627066e-01 2.221075e-02 1.000000e-03 1.000000e-03 1.000000e-03 4.338843e-02 1.983471e-01 2.081612e-01 1.983471e-01 6.353305e-02 2.221075e-02 1.000000e-03 1.000000e-03 4.338844e-02 2.169421e-01 1.983471e-01 2.169421e-01 8.264463e-02 4.338843e-02 2.221075e-02 1.000000e-03 8.264463e-02 2.314050e-01 2.370867e-01 2.453513e-01 1.756198e-01 1.756198e-01 6.353305e-02 2.221075e-02 1.007231e-01 2.417356e-01 2.453513e-01 1.007231e-01 1.756199e-01 1.983471e-01 2.370867e-01 1.177686e-01 8.264463e-02 2.453513e-01 1.756199e-01 2.221075e-02 2.221075e-02 1.487603e-01 2.500000e-01 1.487603e-01 1.337810e-01 2.494835e-01 1.177686e-01 2.221075e-02 6.353306e-02 1.487603e-01 2.494835e-01 1.756199e-01 1.756198e-01 2.500000e-01 8.264463e-02 1.000000e-03 4.338843e-02 1.875000e-01 2.417356e-01 1.007231e-01
<GCONST> -8.385914e+01
<STATE> 4
<MEAN> 72
 1.000000e+00 1.000000e+00 1.000000e+00 9.565217e-01 9.565217e-01 9.782609e-01 8.695652e-01 9.130435e-01 1.000000e+00 1.000000e+00 1.000000e+00 9.565217e-01 8.913044e-01 8.913044e-01 8.478261e-01 9.347826e-01 1.000000e+00 1.000000e+00 1.000000e+00 9.565217e-01 8.695652e-01 7.826087e-01 7.826087e-01 8.043478e-01 1.000000e+00 1.000000e+00 1.000000e+00 9.782609e-01 7.391304e-01 7.608696e-01 7.391304e-01 8.043478e-01 1.000000e+00 1.000000e+00 1.000000e+00 9.782609e-01 7.173913e-01 6.521739e-01 4.347826e-01 4.347826e-01 1.000000e+00 1.000000e+00 1.000000e+00 9.565217e-01 6.521739e-01 3.478261e-01 6.521741e-02 8.695652e-02 1.000000e+00 1.000000e+00 1.000000e+00 8.695652e-01 5.869565e-01 2.608696e-01 4.347827e-02 8.695653e-02 1.000000e+00 1.000000e+00 1.000000e+00 8.043478e-01 5.000000e-01 1.956522e-01 8.695654e-02 1.086956e-01 1.000000e+00 1.000000e+00 1.000000e+00 7.173913e-01 3.913044e-01 8.695653e-02 0.000000e+00 1.086956e-01
<VARIANCE> 72
 1.000000e-03 1.000000e-03 1.000000e-03 4.158791e-02 4.158791e-02 2.126655e-02 1.134215e-01 7.939509e-02 1.000000e-03 1.000000e-03 1.000000e-03 4.158791e-02 9.688096e-02 9.688086e-02 1.290171e-01 6.096408e-02 1.000000e-03 1.000000e-03 1.000000e-03 4.158791e-02 1.134215e-01 1.701323e-01 1.701323e-01 1.573724e-01 1.000000e-03 1.000000e-03 1.000000e-03 2.126654e-02 1.928166e-01 1.819470e-01 1.928166e-01 1.573724e-01 1.000000e-03 1.000000e-03 1.000000e-03 2.126654e-02 2.027410e-01 2.268432e-01 2.457467e-01 2.457467e-01 1.000000e-03 1.000000e-03 1.000000e-03 4.158791e-02 2.268432e-01 2.268431e-01 6.096413e-02 7.939509e-02 1.000000e-03 1.000000e-03 1.000000e-03 1.134215e-01 2.424384e-01 1.928166e-01 4.158786e-02 7.939509e-02 1.000000e-03 1.000000e-03 1.000000e-03 1.573725e-01 2.500000e-01 1.573725e-01 7.939509e-02 9.688087e-02 1.000000e-03 1.000000e-03 1.000000e-03 2.027410e-01 2.381852e-01 7.939509e-02 1.000000e-03 9.688091e-02
<GCONST> -1.601660e+02
<STATE> 5
<MEAN> 72
 1.000000e+00 1.000000e+00 1.000000e+00 1.000000e+00 1.000000e+00 1.000000e+00 1.000000e+00 9.696970e-01 1.000000e+00 1.000000e+00 1.000000e+00 1.000000e+00 1.000000e+00 1.000000e+00 1.000000e+00 9.090909e-01 1.000000e+00 1.000000e+00 1.000000e+00 1.000000e+00 1.000000e+00 1.000000e+00 1.000000e+00 8.787879e-01 1.000000e+00 1.000000e+00 1.000000e+00 1.000000e+00 1.000000e+00 1.000000e+00 1.000000e+00 8.787879e-01 1.000000e+00 1.000000e+00 1.000000e+00 1.000000e+00 1.000000e+00 1.000000e+00 1.000000e+00 7.878788e-01 1.000000e+00 1.000000e+00 1.000000e+00 1.000000e+00 1.000000e+00 1.000000e+00 1.000000e+00 5.757576e-01 1.000000e+00 1.000000e+00 1.000000e+00 1.000000e+00 1.000000e+00 1.000000e+00 8.787879e-01 3.939394e-01 1.000000e+00 1.000000e+00 1.000000e+00 1.000000e+00 1.000000e+00 1.000000e+00 6.666667e-01 3.030303e-01 1.000000e+00 1.000000e+00 1.000000e+00 1.000000e+00 1.000000e+00 1.000000e+00 5.454546e-01 0.000000e+00
<VARIANCE> 72
 1.000000e-03 1.000000e-03 1.000000e-03 1.000000e-03 1.000000e-03 1.000000e-03 1.000000e-03 2.938476e-02 1.000000e-03 1.000000e-03 1.000000e-03 1.000000e-03 1.000000e-03 1.000000e-03 1.000000e-03 8.264462e-02 1.000000e-03 1.000000e-03 1.000000e-03 1.000000e-03 1.000000e-03 1.000000e-03 1.000000e-03 1.065198e-01 1.000000e-03 1.000000e-03 1.000000e-03 1.000000e-03 1.000000e-03 1.000000e-03 1.000000e-03 1.065198e-01 1.000000e-03 1.000000e-03 1.000000e-03 1.000000e-03 1.000000e-03 1.000000e-03 1.000000e-03 1.671258e-01 1.000000e-03 1.000000e-03 1.000000e-03 1.000000e-03 1.000000e-03 1.000000e-03 1.000000e-03 2.442608e-01 1.000000e-03 1.000000e-03 1.000000e-03 1.000000e-03 1.000000e-03 1.000000e-03 1.065197e-01 2.387511e-01 1.000000e-03 1.000000e-03 1.000000e-03 1.000000e-03 1.000000e-03 1.000000e-03 2.222223e-01 2.112029e-01 1.000000e-03 1.000000e-03 1.000000e-03 1.000000e-03 1.000000e-03 1.000000e-03 2.479339e-01 1.000000e-03
<GCONST> -3.108691e+02
<STATE> 6
<MEAN> 72
 1.000000e+00 1.000000e+00 1.000000e+00 1.000000e+00 1.000000e+00 1.000000e+00 1.000000e+00 1.000000e+00 1.000000e+00 1.000000e+00 1.000000e+00 1.000000e+00 1.000000e+00 1.000000e+00 1.000000e+00 1.000000e+00 1.000000e+00 1.000000e+00 1.000000e+00 1.000000e+00 1.000000e+00 1.000000e+00 1.000000e+00 1.000000e+00 1.000000e+00 1.000000e+00 1.000000e+00 1.000000e+00 1.000000e+00 1.000000e+00 1.000000e+00 1.000000e+00 1.000000e+00 1.000000e+00 1.000000e+00 1.000000e+00 1.000000e+00 1.000000e+00 1.000000e+00 1.000000e+00 1.000000e+00 1.000000e+00 1.000000e+00 1.000000e+00 1.000000e+00 1.000000e+00 1.000000e+00 1.000000e+00 1.000000e+00 1.000000e+00 1.000000e+00 1.000000e+00 1.000000e+00 1.000000e+00 1.000000e+00 1.000000e+00 1.000000e+00 1.000000e+00 1.000000e+00 1.000000e+00 1.000000e+00 1.000000e+00 1.000000e+00 1.000000e+00 1.000000e+00 1.000000e+00 1.000000e+00 1.000000e+00 1.000000e+00 1.000000e+00 1.000000e+00 1.000000e+00
<VARIANCE> 72
 1.000000e-03 1.000000e-03 1.000000e-03 1.000000e-03 1.000000e-03 1.000000e-03 1.000000e-03 1.000000e-03 1.000000e-03 1.000000e-03 1.000000e-03 1.000000e-03 1.000000e-03 1.000000e-03 1.000000e-03 1.000000e-03 1.000000e-03 1.000000e-03 1.000000e-03 1.000000e-03 1.000000e-03 1.000000e-03 1.000000e-03 1.000000e-03 1.000000e-03 1.000000e-03 1.000000e-03 1.000000e-03 1.000000e-03 1.000000e-03 1.000000e-03 1.000000e-03 1.000000e-03 1.000000e-03 1.000000e-03 1.000000e-03 1.000000e-03 1.000000e-03 1.000000e-03 1.000000e-03 1.000000e-03 1.000000e-03 1.000000e-03 1.000000e-03 1.000000e-03 1.000000e-03 1.000000e-03 1.000000e-03 1.000000e-03 1.000000e-03 1.000000e-03 1.000000e-03 1.000000e-03 1.000000e-03 1.000000e-03 1.000000e-03 1.000000e-03 1.000000e-03 1.000000e-03 1.000000e-03 1.000000e-03 1.000000e-03 1.000000e-03 1.000000e-03 1.000000e-03 1.000000e-03 1.000000e-03 1.000000e-03 1.000000e-03 1.000000e-03 1.000000e-03 1.000000e-03
<GCONST> -3.650312e+02
<STATE> 7
<MEAN> 72
 1.000000e+00 1.000000e+00 1.000000e+00 1.000000e+00 1.000000e+00 1.000000e+00 1.000000e+00 1.000000e+00 1.000000e+00 1.000000e+00 1.000000e+00 1.000000e+00 1.000000e+00 1.000000e+00 1.000000e+00 1.000000e+00 1.000000e+00 1.000000e+00 1.000000e+00 1.000000e+00 1.000000e+00 1.000000e+00 1.000000e+00 1.000000e+00 1.000000e+00 1.000000e+00 1.000000e+00 1.000000e+00 1.000000e+00 1.000000e+00 1.000000e+00 1.000000e+00 1.000000e+00 1.000000e+00 1.000000e+00 1.000000e+00 1.000000e+00 1.000000e+00 1.000000e+00 1.000000e+00 1.000000e+00 1.000000e+00 1.000000e+00 1.000000e+00 1.000000e+00 1.000000e+00 1.000000e+00 1.000000e+00 1.000000e+00 1.000000e+00 1.000000e+00 1.000000e+00 1.000000e+00 1.000000e+00 1.000000e+00 1.000000e+00 1.000000e+00 1.000000e+00 1.000000e+00 1.000000e+00 1.000000e+00 1.000000e+00 1.000000e+00 1.000000e+00 1.000000e+00 1.000000e+00 1.000000e+00 1.000000e+00 1.000000e+00 1.000000e+00 1.000000e+00 1.000000e+00
<VARIANCE> 72
 1.000000e-03 1.000000e-03 1.000000e-03 1.000000e-03 1.000000e-03 1.000000e-03 1.000000e-03 1.000000e-03 1.000000e-03 1.000000e-03 1.000000e-03 1.000000e-03 1.000000e-03 1.000000e-03 1.000000e-03 1.000000e-03 1.000000e-03 1.000000e-03 1.000000e-03 1.000000e-03 1.000000e-03 1.000000e-03 1.000000e-03 1.000000e-03 1.000000e-03 1.000000e-03 1.000000e-03 1.000000e-03 1.000000e-03 1.000000e-03 1.000000e-03 1.000000e-03 1.000000e-03 1.000000e-03 1.000000e-03 1.000000e-03 1.000000e-03 1.000000e-03 1.000000e-03 1.000000e-03 1.000000e-03 1.000000e-03 1.000000e-03 1.000000e-03 1.000000e-03 1.000000e-03 1.000000e-03 1.000000e-03 1.000000e-03 1.000000e-03 1.000000e-03 1.000000e-03 1.000000e-03 1.000000e-03 1.000000e-03 1.000000e-03 1.000000e-03 1.000000e-03 1.000000e-03 1.000000e-03 1.000000e-03 1.000000e-03 1.000000e-03 1.000000e-03 1.000000e-03 1.000000e-03 1.000000e-03 1.000000e-03 1.000000e-03 1.000000e-03 1.000000e-03 1.000000e-03
<GCONST> -3.650312e+02
<TRANSP> 8
 0.000000e+00 1.000000e+00 0.000000e+00 0.000000e+00 0.000000e+00 0.000000e+00 0.000000e+00 0.000000e+00
 0.000000e+00 7.118644e-01 2.881356e-01 0.000000e+00 0.000000e+00 0.000000e+00 0.000000e+00 0.000000e+00
 0.000000e+00 0.000000e+00 6.136364e-01 3.863636e-01 0.000000e+00 0.000000e+00 0.000000e+00 0.000000e+00
 0.000000e+00 0.000000e+00 0.000000e+00 6.304348e-01 3.695652e-01 0.000000e+00 0.000000e+00 0.000000e+00
 0.000000e+00 0.000000e+00 0.000000e+00 0.000000e+00 4.848485e-01 5.151515e-01 0.000000e+00 0.000000e+00
 0.000000e+00 0.000000e+00 0.000000e+00 0.000000e+00 0.000000e+00 8.454545e-01 1.545455e-01 0.000000e+00
 0.000000e+00 0.000000e+00 0.000000e+00 0.000000e+00 0.000000e+00 0.000000e+00 0.000000e+00 1.000000e+00
 0.000000e+00 0.000000e+00 0.000000e+00 0.000000e+00 0.000000e+00 0.000000e+00 0.000000e+00 0.000000e+00
<ENDHMM>
~h "circleright5"
<BEGINHMM>
<NUMSTATES> 8
<STATE> 2
<MEAN> 72
 1.000000e+00 1.000000e+00 1.000000e+00 1.000000e+00 9.961832e-01 8.854962e-01 7.366413e-01 5.496184e-01 1.000000e+00 1.000000e+00 1.000000e+00 1.000000e+00 9.732824e-01 8.969466e-01 6.603054e-01 4.809160e-01 1.000000e+00 1.000000e+00 1.000000e+00 1.000000e+00 9.694657e-01 8.778626e-01 6.679389e-01 3.244274e-01 1.000000e+00 1.000000e+00 1.000000e+00 1.000000e+00 9.961832e-01 8.740458e-01 6.183206e-01 2.251908e-01 1.000000e+00 1.000000e+00 1.000000e+00 1.000000e+00 9.961832e-01 8.893130e-01 6.106870e-01 2.671755e-01 1.000000e+00 1.000000e+00 1.000000e+00 1.000000e+00 9.961832e-01 9.351145e-01 6.106870e-01 3.129771e-01 1.000000e+00 1.000000e+00 1.000000e+00 1.000000e+00 1.000000e+00 9.236641e-01 6.488549e-01 4.312977e-01 1.000000e+00 1.000000e+00 1.000000e+00 1.000000e+00 1.000000e+00 9.465649e-01 7.175574e-01 5.343511e-01 1.000000e+00 1.000000e+00 1.000000e+00 1.000000e+00 9.961832e-01 9.732824e-01 7.824427e-01 6.488549e-01
<VARIANCE> 72
 1.000000e-03 1.000000e-03 1.000000e-03 1.000000e-03 3.802224e-03 1.013927e-01 1.940012e-01 2.475374e-01 1.000000e-03 1.000000e-03 1.000000e-03 1.000000e-03 2.600373e-02 9.243354e-02 2.243018e-01 2.496356e-01 1.000000e-03 1.000000e-03 1.000000e-03 1.000000e-03 2.960192e-02 1.072197e-01 2.217964e-01 2.191737e-01 1.000000e-03 1.000000e-03 1.000000e-03 1.000000e-03 3.802202e-03 1.100899e-01 2.360004e-01 1.744802e-01 1.000000e-03 1.000000e-03 1.000000e-03 1.000000e-03 3.802224e-03 9.843546e-02 2.377490e-01 1.957933e-01 1.000000e-03 1.000000e-03 1.000000e-03 1.000000e-03 3.802224e-03 6.067543e-02 2.377488e-01 2.150219e-01 1.000000e-03 1.000000e-03 1.000000e-03 1.000000e-03 1.000000e-03 7.050858e-02 2.278421e-01 2.452793e-01 1.000000e-03 1.000000e-03 1.000000e-03 1.000000e-03 1.000000e-03 5.057981e-02 2.026686e-01 2.488195e-01 1.000000e-03 1.000000e-03 1.000000e-03 1.000000e-03 3.802224e-03 2.600373e-02 1.702263e-01 2.278420e-01
<GCONST> -2.160080e+02
<STATE> 3
<MEAN> 72
 8.000032e-01 5.793169e-01 3.862008e-01 2.137897e-01 6.206799e-02 1.034467e-01 3.793043e-01 6.275762e-01 7.586246e-01 5.103368e-01 3.793044e-01 2.551684e-01 1.931004e-01 2.965471e-01 5.861976e-01 7.999871e-01 7.517123e-01 5.655243e-01 4.344760e-01 3.586151e-01 3.379256e-01 6.206799e-01 7.861943e-01 9.310356e-01 7.931067e-01 5.930941e-01 5.172332e-01 5.655084e-01 6.689550e-01 7.724016e-01 9.310356e-01 9.724143e-01 7.930909e-01 7.448159e-01 7.792981e-01 8.965374e-01 9.034340e-01 9.448285e-01 9.793107e-01 1.000000e+00 9.034340e-01 8.689519e-01 9.655178e-01 9.931036e-01 9.723985e-01 9.931036e-01 1.000000e+00 1.000000e+00 9.931036e-01 1.000000e+00 1.000000e+00 1.000000e+00 1.000000e+00 1.000000e+00 1.000000e+00 1.000000e+00 1.000000e+00 1.000000e+00 1.000000e+00 1.000000e+00 1.000000e+00 1.000000e+00 1.000000e+00 1.000000e+00 1.000000e+00 1.000000e+00 1.000000e+00 1.000000e+00 1.000000e+00 1.000000e+00 1.000000e+00 1.000000e+00
<VARIANCE> 72
 1.599983e-01 2.437086e-01 2.370496e-01 1.680835e-01 5.821556e-02 9.274542e-02 2.354325e-01 2.337245e-01 1.831133e-01 2.498931e-01 2.354325e-01 1.900575e-01 1.558129e-01 2.086070e-01 2.425701e-01 1.600076e-01 1.866410e-01 2.457065e-01 2.457067e-01 2.300104e-01 2.237317e-01 2.354366e-01 1.680928e-01 6.420827e-02 1.640884e-01 2.413337e-01 2.497027e-01 2.457087e-01 2.214540e-01 1.757973e-01 6.420825e-02 2.682478e-02 1.640975e-01 1.900651e-01 1.719926e-01 9.275801e-02 8.724102e-02 5.212771e-02 2.026127e-02 1.000000e-03 8.724099e-02 1.138746e-01 3.329321e-02 6.848887e-03 2.683968e-02 6.848882e-03 1.000000e-03 1.000000e-03 6.848885e-03 1.000000e-03 1.000000e-03 1.000000e-03 1.000000e-03 1.000000e-03 1.000000e-03 1.000000e-03 1.000000e-03 1.000000e-03 1.000000e-03 1.000000e-03 1.000000e-03 1.000000e-03 1.000000e-03 1.000000e-03 1.000000e-03 1.000000e-03 1.000000e-03 1.000000e-03 1.000000e-03 1.000000e-03 1.000000e-03 1.000000e-03
<GCONST> -1.472685e+02
<STATE> 4
<MEAN> 72
 9.868417e-01 8.289424e-01 6.052818e-01 4.079073e-01 1.578996e-01 0.000000e+00 1.315828e-01 2.763241e-01 9.473670e-01 6.315984e-01 4.079073e-01 1.842162e-01 0.000000e+00 3.947468e-02 3.157990e-01 4.736985e-01 7.500231e-01 4.868265e-01 2.105328e-01 1.315830e-02 0.000000e+00 6.579129e-02 5.131735e-01 6.842008e-01 7.105176e-01 2.894826e-01 0.000000e+00 0.000000e+00 0.000000e+00 2.631658e-01 7.631506e-01 9.342085e-01 6.184401e-01 1.052664e-01 0.000000e+00 6.579150e-02 9.210788e-02 4.473514e-01 9.210502e-01 1.000000e+00 4.079073e-01 1.315831e-02 1.183940e-01 2.631353e-01 2.894824e-01 6.842009e-01 9.868417e-01 1.000000e+00 4.210351e-01 1.973437e-01 3.684017e-01 4.999846e-01 4.868263e-01 8.289421e-01 1.000000e+00 1.000000e+00 6.184093e-01 3.947182e-01 5.263013e-01 7.631506e-01 6.842008e-01 9.736834e-01 1.000000e+00 1.000000e+00 7.368340e-01 5.394595e-01 7.236757e-01 9.342085e-01 8.947336e-01 1.000000e+00 1.000000e+00 1.000000e+00
<VARIANCE> 72
 1.298517e-02 1.417969e-01 2.389158e-01 2.415189e-01 1.329673e-01 1.000000e-03 1.142687e-01 1.999690e-01 4.986272e-02 2.326817e-01 2.415189e-01 1.502806e-01 1.000000e-03 3.791647e-02 2.160698e-01 2.493081e-01 1.874885e-01 2.498265e-01 1.662087e-01 1.298516e-02 1.000000e-03 6.146280e-02 2.498265e-01 2.160702e-01 2.056824e-01 2.056825e-01 1.000000e-03 1.000000e-03 1.000000e-03 1.939094e-01 1.807518e-01 6.146299e-02 2.359719e-01 9.418546e-02 1.000000e-03 6.146296e-02 8.362404e-02 2.472280e-01 7.271674e-02 1.000000e-03 2.415189e-01 1.298516e-02 1.043768e-01 1.938952e-01 2.056824e-01 2.160702e-01 1.298516e-02 1.000000e-03 2.437646e-01 1.583991e-01 2.326817e-01 2.500000e-01 2.498264e-01 1.417970e-01 1.000000e-03 1.000000e-03 2.359792e-01 2.389158e-01 2.493082e-01 1.807518e-01 2.160702e-01 2.562405e-02 1.000000e-03 1.000000e-03 1.939097e-01 2.484429e-01 1.999691e-01 6.146301e-02 9.418552e-02 1.000000e-03 1.000000e-03 1.000000e-03
<GCONST> -9.194378e+01
<STATE> 5
<MEAN> 72
 1.000000e+00 1.000000e+00 1.000000e+00 1.000000e+00 1.000000e+00 8.493151e-01 6.438356e-01 3.287672e-01 1.000000e+00 1.000000e+00 1.000000e+00 1.000000e+00 9.452055e-01 7.260274e-01 3.835616e-01 2.054794e-01 1.000000e+00 1.000000e+00 1.000000e+00 1.000000e+00 7.808219e-01 5.616438e-01 2.602740e-01 1.369863e-02 1.000000e+00 1.000000e+00 1.000000e+00 8.356165e-01 6.027398e-01 3.150685e-01 1.095890e-01 0.000000e+00 1.000000e+00 1.000000e+00 9.041096e-01 6.301370e-01 3.698630e-01 1.917808e-01 0.000000e+00 1.643835e-01 1.000000e+00 9.589041e-01 6.712329e-01 4.109589e-01 1.917808e-01 0.000000e+00 8.219179e-02 3.561644e-01 1.000000e+00 9.178082e-01 5.616438e-01 3.150685e-01 2.739726e-02 0.000000e+00 1.369863e-01 5.068493e-01 9.863014e-01 7.808219e-01 4.383562e-01 1.780822e-01 2.739725e-02 2.739725e-02 2.328767e-01 5.753425e-01 9.589041e-01 6.986302e-01 4.383562e-01 9.589040e-02 5.479451e-02 1.643836e-01 3.424658e-01 6.164383e-01
<VARIANCE> 72
 1.000000e-03 1.000000e-03 1.000000e-03 1.000000e-03 1.000000e-03 1.279790e-01 2.293113e-01 2.206793e-01 1.000000e-03 1.000000e-03 1.000000e-03 1.000000e-03 5.179206e-02 1.989115e-01 2.364421e-01 1.632577e-01 1.000000e-03 1.000000e-03 1.000000e-03 1.000000e-03 1.711392e-01 2.461999e-01 1.925313e-01 1.351097e-02 1.000000e-03 1.000000e-03 1.000000e-03 1.373616e-01 2.394446e-01 2.158003e-01 9.757925e-02 1.000000e-03 1.000000e-03 1.000000e-03 8.669538e-02 2.330644e-01 2.330645e-01 1.550009e-01 1.000000e-03 1.373616e-01 1.000000e-03 3.940702e-02 2.206793e-01 2.420717e-01 1.550009e-01 1.000000e-03 7.543626e-02 2.293113e-01 1.000000e-03 7.543626e-02 2.462000e-01 2.158003e-01 2.664666e-02 1.000000e-03 1.182211e-01 2.499531e-01 1.351097e-02 1.711392e-01 2.462000e-01 1.463690e-01 2.664665e-02 2.664665e-02 1.786452e-01 2.443236e-01 3.940704e-02 2.105462e-01 2.462000e-01 8.669540e-02 5.179205e-02 1.373616e-01 2.251830e-01 2.364421e-01
<GCONST> -1.329729e+02
<STATE> 6
<MEAN> 72
 1.000000e+00 1.000000e+00 1.000000e+00 1.000000e+00 1.000000e+00 1.000000e+00 1.000000e+00 1.000000e+00 1.000000e+00 1.000000e+00 1.000000e+00 1.000000e+00 1.000000e+00 1.000000e+00 1.000000e+00 1.000000e+00 1.000000e+00 1.000000e+00 1.000000e+00 1.000000e+00 1.000000e+00 1.000000e+00 1.000000e+00 9.333333e-01 1.000000e+00 1.000000e+00 1.000000e+00 1.000000e+00 1.000000e+00 1.000000e+00 1.000000e+00 8.111111e-01 1.000000e+00 1.000000e+00 1.000000e+00 1.000000e+00 1.000000e+00 1.000000e+00 8.666666e-01 6.444445e-01 1.000000e+00 1.000000e+00 1.000000e+00 1.000000e+00 1.000000e+00 9.222223e-01 7.000000e-01 3.777778e-01 1.000000e+00 1.000000e+00 1.000000e+00 1.000000e+00 1.000000e+00 8.000000e-01 4.777777e-01 1.555556e-01 1.000000e+00 1.000000e+00 1.000000e+00 1.000000e+00 8.666667e-01 6.555555e-01 3.888889e-01 9.999999e-02 1.000000e+00 1.000000e+00 1.000000e+00 1.000000e+00 8.444445e-01 5.888889e-01 2.888889e-01 3.333335e-02
<VARIANCE> 72
 1.000000e-03 1.000000e-03 1.000000e-03 1.000000e-03 1.000000e-03 1.000000e-03 1.000000e-03 1.000000e-03 1.000000e-03 1.000000e-03 1.000000e-03 1.000000e-03 1.000000e-03 1.000000e-03 1.000000e-03 1.000000e-03 1.000000e-03 1.000000e-03 1.000000e-03 1.000000e-03 1.000000e-03 1.000000e-03 1.000000e-03 6.222231e-02 1.000000e-03 1.000000e-03 1.000000e-03 1.000000e-03 1.000000e-03 1.000000e-03 1.000000e-03 1.532097e-01 1.000000e-03 1.000000e-03 1.000000e-03 1.000000e-03 1.000000e-03 1.000000e-03 1.155555e-01 2.291358e-01 1.000000e-03 1.000000e-03 1.000000e-03 1.000000e-03 1.000000e-03 7.172825e-02 2.100000e-01 2.350617e-01 1.000000e-03 1.000000e-03 1.000000e-03 1.000000e-03 1.000000e-03 1.600000e-01 2.495063e-01 1.313580e-01 1.000000e-03 1.000000e-03 1.000000e-03 1.000000e-03 1.155555e-01 2.258025e-01 2.376543e-01 9.000010e-02 1.000000e-03 1.000000e-03 1.000000e-03 1.000000e-03 1.313581e-01 2.420987e-01 2.054321e-01 3.222223e-02
<GCONST> -2.758271e+02
<STATE> 7
<MEAN> 72
 1.000000e+00 1.000000e+00 1.000000e+00 1.000000e+00 1.000000e+00 1.000000e+00 1.000000e+00 1.000000e+00 1.000000e+00 1.000000e+00 1.000000e+00 1.000000e+00 1.000000e+00 1.000000e+00 1.000000e+00 1.000000e+00 1.000000e+00 1.000000e+00 1.000000e+00 1.000000e+00 1.000000e+00 1.000000e+00 1.000000e+00 1.000000e+00 1.000000e+00 1.000000e+00 1.000000e+00 1.000000e+00 1.000000e+00 1.000000e+00 1.000000e+00 1.000000e+00 1.000000e+00 1.000000e+00 1.000000e+00 1.000000e+00 1.000000e+00 1.000000e+00 1.000000e+00 1.000000e+00 1.000000e+00 1.000000e+00 1.000000e+00 1.000000e+00 1.000000e+00 1.000000e+00 1.000000e+00 1.000000e+00 1.000000e+00 1.000000e+00 1.000000e+00 1.000000e+00 1.000000e+00 1.000000e+00 1.000000e+00 1.000000e+00 1.000000e+00 1.000000e+00 1.000000e+00 1.000000e+00 1.000000e+00 1.000000e+00 1.000000e+00 1.000000e+00 1.000000e+00 1.000000e+00 1.000000e+00 1.000000e+00 1.000000e+00 1.000000e+00 1.000000e+00 1.000000e+00
<VARIANCE> 72
 1.000000e-03 1.000000e-03 1.000000e-03 1.000000e-03 1.000000e-03 1.000000e-03 1.000000e-03 1.000000e-03 1.000000e-03 1.000000e-03 1.000000e-03 1.000000e-03 1.000000e-03 1.000000e-03 1.000000e-03 1.000000e-03 1.000000e-03 1.000000e-03 1.000000e-03 1.000000e-03 1.000000e-03 1.000000e-03 1.000000e-03 1.000000e-03 1.000000e-03 1.000000e-03 1.000000e-03 1.000000e-03 1.000000e-03 1.000000e-03 1.000000e-03 1.000000e-03 1.000000e-03 1.000000e-03 1.000000e-03 1.000000e-03 1.000000e-03 1.000000e-03 1.000000e-03 1.000000e-03 1.000000e-03 1.000000e-03 1.000000e-03 1.000000e-03 1.000000e-03 1.000000e-03 1.000000e-03 1.000000e-03 1.000000e-03 1.000000e-03 1.000000e-03 1.000000e-03 1.000000e-03 1.000000e-03 1.000000e-03 1.000000e-03 1.000000e-03 1.000000e-03 1.000000e-03 1.000000e-03 1.000000e-03 1.000000e-03 1.000000e-03 1.000000e-03 1.000000e-03 1.000000e-03 1.000000e-03 1.000000e-03 1.000000e-03 1.000000e-03 1.000000e-03 1.000000e-03
<GCONST> -3.650312e+02
<TRANSP> 8
 0.000000e+00 1.000000e+00 0.000000e+00 0.000000e+00 0.000000e+00 0.000000e+00 0.000000e+00 0.000000e+00
 0.000000e+00 8.587786e-01 1.412214e-01 0.000000e+00 0.000000e+00 0.000000e+00 0.000000e+00 0.000000e+00
 0.000000e+00 0.000000e+00 7.448316e-01 2.551683e-01 0.000000e+00 0.000000e+00 0.000000e+00 0.000000e+00
 0.000000e+00 0.000000e+00 0.000000e+00 5.131432e-01 4.868568e-01 0.000000e+00 0.000000e+00 0.000000e+00
 0.000000e+00 0.000000e+00 0.000000e+00 0.000000e+00 4.931507e-01 5.068493e-01 0.000000e+00 0.000000e+00
 0.000000e+00 0.000000e+00 0.000000e+00 0.000000e+00 0.000000e+00 5.888889e-01 4.111111e-01 0.000000e+00
 0.000000e+00 0.000000e+00 0.000000e+00 0.000000e+00 0.000000e+00 0.000000e+00 8.715278e-01 1.284722e-01
 0.000000e+00 0.000000e+00 0.000000e+00 0.000000e+00 0.000000e+00 0.000000e+00 0.000000e+00 0.000000e+00
<ENDHMM>
~h "upright1"
<BEGINHMM>
<NUMSTATES> 8
<STATE> 2
<MEAN> 72
 7.142858e-02 2.857143e-02 1.285714e-01 1.714286e-01 1.428572e-01 1.428572e-01 1.571429e-01 1.428572e-01 4.000000e-01 4.000000e-01 4.142857e-01 4.428571e-01 4.714285e-01 4.857143e-01 5.000000e-01 5.285714e-01 7.142857e-01 6.714286e-01 6.714286e-01 7.000000e-01 7.142857e-01 7.428572e-01 7.714286e-01 7.714286e-01 8.714285e-01 9.142857e-01 9.571428e-01 9.571428e-01 9.857143e-01 9.857143e-01 9.857143e-01 9.857143e-01 1.000000e+00 1.000000e+00 1.000000e+00 9.857143e-01 9.857143e-01 9.857143e-01 9.857143e-01 9.857143e-01 1.000000e+00 1.000000e+00 1.000000e+00 9.857143e-01 9.857143e-01 9.857143e-01 9.857143e-01 9.857143e-01 1.000000e+00 1.000000e+00 1.000000e+00 9.857143e-01 9.857143e-01 9.857143e-01 9.857143e-01 9.857143e-01 1.000000e+00 1.000000e+00 1.000000e+00 9.857143e-01 9.857143e-01 9.857143e-01 9.857143e-01 9.857143e-01 1.000000e+00 1.000000e+00 9.857143e-01 9.857143e-01 9.857143e-01 9.857143e-01 9.857143e-01 9.857143e-01
<VARIANCE> 72
 6.632660e-02 2.775512e-02 1.120408e-01 1.420408e-01 1.224490e-01 1.224490e-01 1.324490e-01 1.224490e-01 2.399999e-01 2.399999e-01 2.426532e-01 2.467347e-01 2.491836e-01 2.497959e-01 2.500000e-01 2.491837e-01 2.040816e-01 2.206121e-01 2.206121e-01 2.100000e-01 2.040816e-01 1.910203e-01 1.763265e-01 1.763266e-01 1.120408e-01 7.836731e-02 4.102043e-02 4.102043e-02 1.408164e-02 1.408164e-02 1.408164e-02 1.408164e-02 1.000000e-03 1.000000e-03 1.000000e-03 1.408164e-02 1.408164e-02 1.408164e-02 1.408164e-02 1.408164e-02 1.000000e-03 1.000000e-03 1.000000e-03 1.408164e-02 1.408164e-02 1.408164e-02 1.408164e-02 1.408164e-02 1.000000e-03 1.000000e-03 1.000000e-03 1.408164e-02 1.408164e-02 1.408164e-02 1.408164e-02 1.408164e-02 1.000000e-03 1.000000e-03 1.000000e-03 1.408164e-02 1.408164e-02 1.408164e-02 1.408164e-02 1.408164e-02 1.000000e-03 1.000000e-03 1.408164e-02 1.408164e-02 1.408164e-02 1.408164e-02 1.408164e-02 1.408164e-02
<GCONST> -1.462607e+02
<STATE> 3
<MEAN> 72
 9.591837e-01 8.163266e-01 7.142857e-01 6.938776e-01 6.938776e-01 7.142857e-01 8.571429e-01 7.755102e-01 8.979592e-01 5.510204e-01 4.693877e-01 4.285714e-01 3.877551e-01 4.081633e-01 4.693878e-01 5.510204e-01 6.734694e-01 4.489796e-01 2.244898e-01 1.020408e-01 8.163267e-02 2.040817e-02 1.224490e-01 1.632653e-01 7.755102e-01 5.306122e-01 8.163265e-02 4.081633e-02 4.081633e-02 6.122451e-02 6.122451e-02 1.020408e-01 7.551020e-01 5.102041e-01 3.877551e-01 3.673470e-01 3.673470e-01 4.081633e-01 4.081633e-01 4.489796e-01 9.183673e-01 7.346939e-01 6.530612e-01 6.734694e-01 6.938776e-01 7.142857e-01 7.142857e-01 7.959183e-01 8.571429e-01 8.367347e-01 8.775510e-01 9.591837e-01 9.795918e-01 9.795918e-01 9.795918e-01 1.000000e+00 1.000000e+00 1.000000e+00 1.000000e+00 1.000000e+00 1.000000e+00 1.000000e+00 1.000000e+00 1.000000e+00 1.000000e+00 1.000000e+00 1.000000e+00 1.000000e+00 1.000000e+00 1.000000e+00 1.000000e+00 1.000000e+00
<VARIANCE> 72
 3.915034e-02 1.499375e-01 2.040816e-01 2.124115e-01 2.124115e-01 2.040816e-01 1.224490e-01 1.740941e-01 9.162842e-02 2.473970e-01 2.490629e-01 2.448980e-01 2.374011e-01 2.415660e-01 2.490629e-01 2.473970e-01 2.199082e-01 2.473969e-01 1.740941e-01 9.162845e-02 7.496870e-02 1.999169e-02 1.074552e-01 1.366098e-01 1.740941e-01 2.490629e-01 7.496874e-02 3.915033e-02 3.915033e-02 5.747603e-02 5.747603e-02 9.162842e-02 1.849230e-01 2.498959e-01 2.374011e-01 2.324032e-01 2.324032e-01 2.415660e-01 2.415660e-01 2.473969e-01 7.496871e-02 1.949187e-01 2.265722e-01 2.199083e-01 2.124115e-01 2.040816e-01 2.040816e-01 1.624323e-01 1.224490e-01 1.366098e-01 1.074552e-01 3.915033e-02 1.999169e-02 1.999169e-02 1.999169e-02 1.000000e-03 1.000000e-03 1.000000e-03 1.000000e-03 1.000000e-03 1.000000e-03 1.000000e-03 1.000000e-03 1.000000e-03 1.000000e-03 1.000000e-03 1.000000e-03 1.000000e-03 1.000000e-03 1.000000e-03 1.000000e-03 1.000000e-03
<GCONST> -9.742158e+01
<STATE> 4
<MEAN> 72
 1.000000e+00 1.000000e+00 1.000000e+00 1.000000e+00 1.000000e+00 1.000000e+00 1.000000e+00 1.000000e+00 1.000000e+00 1.000000e+00 1.000000e+00 1.000000e+00 1.000000e+00 1.000000e+00 1.000000e+00 1.000000e+00 1.000000e+00 1.000000e+00 1.000000e+00 1.000000e+00 1.000000e+00 1.000000e+00 1.000000e+00 1.000000e+00 1.000000e+00 1.000000e+00 9.591837e-01 8.775510e-01 7.959183e-01 7.551020e-01 6.734694e-01 7.551020e-01 1.000000e+00 1.000000e+00 8.571429e-01 6.530612e-01 4.897959e-01 4.489796e-01 3.877551e-01 3.877551e-01 1.000000e+00 9.795918e-01 8.163266e-01 4.897959e-01 2.448980e-01 1.020408e-01 4.081633e-02 4.081633e-02 1.000000e+00 9.183673e-01 7.551020e-01 4.489796e-01 1.428572e-01 8.163267e-02 1.020408e-01 1.224490e-01 9.591837e-01 8.163266e-01 6.734694e-01 5.714286e-01 3.673470e-01 3.469388e-01 3.265306e-01 4.081633e-01 1.000000e+00 8.979592e-01 7.551020e-01 7.346939e-01 6.734694e-01 6.122449e-01 6.734694e-01 6.734694e-01
<VARIANCE> 72
 1.000000e-03 1.000000e-03 1.000000e-03 1.000000e-03 1.000000e-03 1.000000e-03 1.000000e-03 1.000000e-03 1.000000e-03 1.000000e-03 1.000000e-03 1.000000e-03 1.000000e-03 1.000000e-03 1.000000e-03 1.000000e-03 1.000000e-03 1.000000e-03 1.000000e-03 1.000000e-03 1.000000e-03 1.000000e-03 1.000000e-03 1.000000e-03 1.000000e-03 1.000000e-03 3.915034e-02 1.074552e-01 1.624323e-01 1.849230e-01 2.199082e-01 1.849229e-01 1.000000e-03 1.000000e-03 1.224490e-01 2.265722e-01 2.498959e-01 2.473969e-01 2.374011e-01 2.374011e-01 1.000000e-03 1.999168e-02 1.499375e-01 2.498959e-01 1.849229e-01 9.162842e-02 3.915034e-02 3.915034e-02 1.000000e-03 7.496873e-02 1.849229e-01 2.473969e-01 1.224490e-01 7.496870e-02 9.162842e-02 1.074552e-01 3.915033e-02 1.499375e-01 2.199082e-01 2.448980e-01 2.324032e-01 2.265722e-01 2.199084e-01 2.415660e-01 1.000000e-03 9.162845e-02 1.849230e-01 1.949188e-01 2.199082e-01 2.374011e-01 2.199083e-01 2.199083e-01
<GCONST> -1.616112e+02
<STATE> 5
<MEAN> 72
 1.000000e+00 1.000000e+00 1.000000e+00 1.000000e+00 1.000000e+00 1.000000e+00 1.000000e+00 1.000000e+00 1.000000e+00 1.000000e+00 1.000000e+00 1.000000e+00 1.000000e+00 1.000000e+00 1.000000e+00 1.000000e+00 1.000000e+00 1.000000e+00 1.000000e+00 1.000000e+00 1.000000e+00 1.000000e+00 1.000000e+00 1.000000e+00 1.000000e+00 1.000000e+00 1.000000e+00 1.000000e+00 1.000000e+00 1.000000e+00 1.000000e+00 1.000000e+00 1.000000e+00 1.000000e+00 1.000000e+00 1.000000e+00 1.000000e+00 1.000000e+00 1.000000e+00 1.000000e+00 1.000000e+00 1.000000e+00 1.000000e+00 1.000000e+00 1.000000e+00 1.000000e+00 1.000000e+00 9.583333e-01 1.000000e+00 1.000000e+00 1.000000e+00 1.000000e+00 1.000000e+00 8.541667e-01 7.083333e-01 6.041667e-01 1.000000e+00 1.000000e+00 1.000000e+00 1.000000e+00 8.750000e-01 5.833333e-01 4.375000e-01 3.333333e-01 1.000000e+00 1.000000e+00 1.000000e+00 9.791667e-01 8.125000e-01 5.000000e-01 2.083333e-01 4.166666e-02
<VARIANCE> 72
 1.000000e-03 1.000000e-03 1.000000e-03 1.000000e-03 1.000000e-03 1.000000e-03 1.000000e-03 1.000000e-03 1.000000e-03 1.000000e-03 1.000000e-03 1.000000e-03 1.000000e-03 1.000000e-03 1.000000e-03 1.000000e-03 1.000000e-03 1.000000e-03 1.000000e-03 1.000000e-03 1.000000e-03 1.000000e-03 1.000000e-03 1.000000e-03 1.000000e-03 1.000000e-03 1.000000e-03 1.000000e-03 1.000000e-03 1.000000e-03 1.000000e-03 1.000000e-03 1.000000e-03 1.000000e-03 1.000000e-03 1.000000e-03 1.000000e-03 1.000000e-03 1.000000e-03 1.000000e-03 1.000000e-03 1.000000e-03 1.000000e-03 1.000000e-03 1.000000e-03 1.000000e-03 1.000000e-03 3.993056e-02 1.000000e-03 1.000000e-03 1.000000e-03 1.000000e-03 1.000000e-03 1.245660e-01 2.065973e-01 2.391492e-01 1.000000e-03 1.000000e-03 1.000000e-03 1.000000e-03 1.093750e-01 2.430555e-01 2.460938e-01 2.222222e-01 1.000000e-03 1.000000e-03 1.000000e-03 2.039931e-02 1.523438e-01 2.500000e-01 1.649305e-01 3.993059e-02
<GCONST> -3.022582e+02
<STATE> 6
<MEAN> 72
 1.000000e+00 1.000000e+00 1.000000e+00 1.000000e+00 1.000000e+00 1.000000e+00 1.000000e+00 1.000000e+00 1.000000e+00 1.000000e+00 1.000000e+00 1.000000e+00 1.000000e+00 1.000000e+00 1.000000e+00 1.000000e+00 1.000000e+00 1.000000e+00 1.000000e+00 1.000000e+00 1.000000e+00 1.000000e+00 1.000000e+00 1.000000e+00 1.000000e+00 1.000000e+00 1.000000e+00 1.000000e+00 1.000000e+00 1.000000e+00 1.000000e+00 1.000000e+00 1.000000e+00 1.000000e+00 1.000000e+00 1.000000e+00 1.000000e+00 1.000000e+00 1.000000e+00 1.000000e+00 1.000000e+00 1.000000e+00 1.000000e+00 1.000000e+00 1.000000e+00 1.000000e+00 1.000000e+00 1.000000e+00 1.000000e+00 1.000000e+00 1.000000e+00 1.000000e+00 1.000000e+00 1.000000e+00 1.000000e+00 1.000000e+00 1.000000e+00 1.000000e+00 1.000000e+00 1.000000e+00 1.000000e+00 1.000000e+00 1.000000e+00 1.000000e+00 1.000000e+00 1.000000e+00 1.000000e+00 1.000000e+00 1.000000e+00 1.000000e+00 1.000000e+00 1.000000e+00
<VARIANCE> 72
 1.000000e-03 1.000000e-03 1.000000e-03 1.000000e-03 1.000000e-03 1.000000e-03 1.000000e-03 1.000000e-03 1.000000e-03 1.000000e-03 1.000000e-03 1.000000e-03 1.000000e-03 1.000000e-03 1.000000e-03 1.000000e-03 1.000000e-03 1.000000e-03 1.000000e-03 1.000000e-03 1.000000e-03 1.000000e-03 1.000000e-03 1.000000e-03 1.000000e-03 1.000000e-03 1.000000e-03 1.000000e-03 1.000000e-03 1.000000e-03 1.000000e-03 1.000000e-03 1.000000e-03 1.000000e-03 1.000000e-03 1.000000e-03 1.000000e-03 1.000000e-03 1.000000e-03 1.000000e-03 1.000000e-03 1.000000e-03 1.000000e-03 1.000000e-03 1.000000e-03 1.000000e-03 1.000000e-03 1.000000e-03 1.000000e-03 1.000000e-03 1.000000e-03 1.000000e-03 1.000000e-03 1.000000e-03 1.000000e-03 1.000000e-03 1.000000e-03 1.000000e-03 1.000000e-03 1.000000e-03 1.000000e-03 1.000000e-03 1.000000e-03 1.000000e-03 1.000000e-03 1.000000e-03 1.000000e-03 1.000000e-03 1.000000e-03 1.000000e-03 1.000000e-03 1.000000e-03
<GCONST> -3.650312e+02
<STATE> 7
<MEAN> 72
 1.000000e+00 1.000000e+00 1.000000e+00 1.000000e+00 1.000000e+00 1.000000e+00 1.000000e+00 1.000000e+00 1.000000e+00 1.000000e+00 1.000000e+00 1.000000e+00 1.000000e+00 1.000000e+00 1.000000e+00 1.000000e+00 1.000000e+00 1.000000e+00 1.000000e+00 1.000000e+00 1.000000e+00 1.000000e+00 1.000000e+00 1.000000e+00 1.000000e+00 1.000000e+00 1.000000e+00 1.000000e+00 1.000000e+00 1.000000e+00 1.000000e+00 1.000000e+00 1.000000e+00 1.000000e+00 1.000000e+00 1.000000e+00 1.000000e+00 1.000000e+00 1.000000e+00 1.000000e+00 1.000000e+00 1.000000e+00 1.000000e+00 1.000000e+00 1.000000e+00 1.000000e+00 1.000000e+00 1.000000e+00 1.000000e+00 1.000000e+00 1.000000e+00 1.000000e+00 1.000000e+00 1.000000e+00 1.000000e+00 1.000000e+00 1.000000e+00 1.000000e+00 1.000000e+00 1.000000e+00 1.000000e+00 1.000000e+00 1.000000e+00 1.000000e+00 1.000000e+00 1.000000e+00 1.000000e+00 1.000000e+00 1.000000e+00 1.000000e+00 1.000000e+00 1.000000e+00
<VARIANCE> 72
 1.000000e-03 1.000000e-03 1.000000e-03 1.000000e-03 1.000000e-03 1.000000e-03 1.000000e-03 1.000000e-03 1.000000e-03 1.000000e-03 1.000000e-03 1.000000e-03 1.000000e-03 1.000000e-03 1.000000e-03 1.000000e-03 1.000000e-03 1.000000e-03 1.000000e-03 1.000000e-03 1.000000e-03 1.000000e-03 1.000000e-03 1.000000e-03 1.000000e-03 1.000000e-03 1.000000e-03 1.000000e-03 1.000000e-03 1.000000e-03 1.000000e-03 1.000000e-03 1.000000e-03 1.000000e-03 1.000000e-03 1.000000e-03 1.000000e-03 1.000000e-03 1.000000e-03 1.000000e-03 1.000000e-03 1.000000e-03 1.000000e-03 1.000000e-03 1.000000e-03 1.000000e-03 1.000000e-03 1.000000e-03 1.000000e-03 1.000000e-03 1.000000e-03 1.000000e-03 1.000000e-03 1.000000e-03 1.000000e-03 1.000000e-03 1.000000e-03 1.000000e-03 1.000000e-03 1.000000e-03 1.000000e-03 1.000000e-03 1.000000e-03 1.000000e-03 1.000000e-03 1.000000e-03 1.000000e-03 1.000000e-03 1.000000e-03 1.000000e-03 1.000000e-03 1.000000e-03
<GCONST> -3.650312e+02
<TRANSP> 8
 0.000000e+00 1.000000e+00 0.000000e+00 0.000000e+00 0.000000e+00 0.000000e+00 0.000000e+00 0.000000e+00
 0.000000e+00 7.142857e-01 2.857143e-01 0.000000e+00 0.000000e+00 0.000000e+00 0.000000e+00 0.000000e+00
 0.000000e+00 0.000000e+00 5.918368e-01 4.081633e-01 0.000000e+00 0.000000e+00 0.000000e+00 0.000000e+00
 0.000000e+00 0.000000e+00 0.000000e+00 5.918368e-01 4.081633e-01 0.000000e+00 0.000000e+00 0.000000e+00
 0.000000e+00 0.000000e+00 0.000000e+00 0.000000e+00 5.833333e-01 4.166667e-01 0.000000e+00 0.000000e+00
 0.000000e+00 0.000000e+00 0.000000e+00 0.000000e+00 0.000000e+00 8.425197e-01 1.574803e-01 0.000000e+00
 0.000000e+00 0.000000e+00 0.000000e+00 0.000000e+00 0.000000e+00 0.000000e+00 0.000000e+00 1.000000e+00
 0.000000e+00 0.000000e+00 0.000000e+00 0.000000e+00 0.000000e+00 0.000000e+00 0.000000e+00 0.000000e+00
<ENDHMM>
~h "downleft1"
<BEGINHMM>
<NUMSTATES> 8
<STATE> 2
<MEAN> 72
