~o
<STREAMINFO> 1 72
<VECSIZE> 72<NULLD><USER><DIAGC>
~h "bunny"
<BEGINHMM>
<NUMSTATES> 8
<STATE> 2
<MEAN> 72
 1.000000e+00 1.000000e+00 1.000000e+00 1.000000e+00 1.000000e+00 9.044945e-01 7.640450e-01 6.067415e-01 1.000000e+00 1.000000e+00 1.000000e+00 1.000000e+00 9.438202e-01 8.595506e-01 7.303370e-01 5.168540e-01 1.000000e+00 1.000000e+00 1.000000e+00 1.000000e+00 9.606742e-01 8.651685e-01 7.022473e-01 3.707865e-01 1.000000e+00 1.000000e+00 1.000000e+00 1.000000e+00 9.943820e-01 8.595506e-01 6.629213e-01 4.438202e-01 1.000000e+00 1.000000e+00 1.000000e+00 1.000000e+00 9.382022e-01 8.764045e-01 7.191011e-01 4.887640e-01 1.000000e+00 1.000000e+00 1.000000e+00 1.000000e+00 9.831461e-01 8.483146e-01 7.528089e-01 5.056179e-01 1.000000e+00 1.000000e+00 1.000000e+00 1.000000e+00 1.000000e+00 9.438202e-01 8.876404e-01 6.348315e-01 1.000000e+00 1.000000e+00 1.000000e+00 1.000000e+00 1.000000e+00 9.887640e-01 9.101124e-01 7.303371e-01 2.865169e-01 1.000000e+00 1.000000e+00 1.000000e+00 1.000000e+00 1.000000e+00 8.820225e-01 8.483146e-01
<VARIANCE> 72
 1.000000e-02 1.000000e-02 1.000000e-02 1.000000e-02 1.000000e-02 8.638427e-02 1.802804e-01 2.386060e-01 1.000000e-02 1.000000e-02 1.000000e-02 1.000000e-02 5.302358e-02 1.207232e-01 1.969448e-01 2.497160e-01 1.000000e-02 1.000000e-02 1.000000e-02 1.000000e-02 3.777929e-02 1.166519e-01 2.090963e-01 2.333035e-01 1.000000e-02 1.000000e-02 1.000000e-02 1.000000e-02 1.000000e-02 1.207232e-01 2.234567e-01 2.468437e-01 1.000000e-02 1.000000e-02 1.000000e-02 1.000000e-02 5.797859e-02 1.083197e-01 2.019950e-01 2.498741e-01 1.000000e-02 1.000000e-02 1.000000e-02 1.000000e-02 1.656984e-02 1.286768e-01 1.860878e-01 2.499686e-01 1.000000e-02 1.000000e-02 1.000000e-02 1.000000e-02 1.000000e-02 5.302355e-02 9.973492e-02 2.318204e-01 1.000000e-02 1.000000e-02 1.000000e-02 1.000000e-02 1.000000e-02 1.110971e-02 8.180773e-02 1.969446e-01 2.044252e-01 1.000000e-02 1.000000e-02 1.000000e-02 1.000000e-02 1.000000e-02 1.040589e-01 1.286768e-01
<GCONST> -1.221085e+02
<STATE> 3
<MEAN> 72
 1.000000e+00 1.000000e+00 9.657534e-01 8.904110e-01 7.328767e-01 5.342466e-01 3.972603e-01 2.260274e-01 1.000000e+00 1.000000e+00 9.452055e-01 7.191781e-01 5.958904e-01 3.356164e-01 1.027397e-01 1.095890e-01 1.000000e+00 9.863014e-01 8.835617e-01 6.712328e-01 3.835617e-01 1.575343e-01 4.794521e-02 1.369863e-01 9.931507e-01 9.315069e-01 8.287671e-01 6.095890e-01 4.109589e-01 1.986301e-01 1.095890e-01 3.219179e-01 9.863014e-01 9.520548e-01 8.219179e-01 7.260274e-01 4.931507e-01 2.328767e-01 2.054794e-01 4.794520e-01 1.000000e+00 9.931507e-01 9.178082e-01 7.602741e-01 4.863013e-01 3.150685e-01 3.835616e-01 6.438357e-01 1.000000e+00 1.000000e+00 9.863014e-01 8.424658e-01 5.821918e-01 4.452055e-01 5.000000e-01 8.013698e-01 1.000000e+00 1.000000e+00 9.931507e-01 8.493150e-01 5.821918e-01 5.273973e-01 6.095890e-01 8.630137e-01 3.013699e-01 1.000000e+00 9.520548e-01 8.630137e-01 6.643836e-01 7.808219e-01 7.671233e-01 9.383562e-01
<VARIANCE> 72
 1.000000e-02 1.000000e-02 3.307373e-02 9.757922e-02 1.957680e-01 2.488273e-01 2.394446e-01 1.749389e-01 1.000000e-02 1.000000e-02 5.179217e-02 2.019611e-01 2.408051e-01 2.229781e-01 9.218416e-02 9.757920e-02 1.000000e-02 1.351098e-02 1.028803e-01 2.206792e-01 2.364421e-01 1.327173e-01 4.564651e-02 1.182210e-01 1.000000e-02 6.380177e-02 1.419122e-01 2.379902e-01 2.420720e-01 1.591759e-01 9.757922e-02 2.182870e-01 1.351097e-02 4.564651e-02 1.463690e-01 1.989118e-01 2.499535e-01 1.786452e-01 1.632576e-01 2.495775e-01 1.000000e-02 1.000000e-02 7.543640e-02 1.822573e-01 2.498120e-01 2.158003e-01 2.364421e-01 2.293116e-01 1.000000e-02 1.000000e-02 1.351097e-02 1.327173e-01 2.432448e-01 2.469974e-01 2.500000e-01 1.591760e-01 1.000000e-02 1.000000e-02 1.000000e-02 1.279790e-01 2.432447e-01 2.492494e-01 2.379901e-01 1.182210e-01 2.105463e-01 1.000000e-02 4.564653e-02 1.182212e-01 2.229782e-01 1.711389e-01 1.786452e-01 5.784387e-02
<GCONST> -4.905678e+01
<STATE> 4
<MEAN> 72
 8.965517e-01 7.241380e-01 4.655172e-01 2.327586e-01 6.034484e-02 8.620698e-03 1.206897e-01 4.741379e-01 8.362069e-01 4.827586e-01 2.413793e-01 1.637931e-01 0.000000e+00 4.310344e-02 4.568965e-01 8.275862e-01 6.810345e-01 4.482759e-01 3.017241e-01 1.379310e-01 0.000000e+00 4.310344e-01 8.275862e-01 9.741379e-01 7.413793e-01 6.120689e-01 4.655172e-01 1.637931e-01 2.500000e-01 7.327586e-01 9.568965e-01 1.000000e+00 8.620690e-01 6.982759e-01 3.965517e-01 1.379310e-01 5.086207e-01 8.793104e-01 1.000000e+00 1.000000e+00 9.137931e-01 6.982759e-01 4.224138e-01 4.310344e-01 7.155172e-01 1.000000e+00 1.000000e+00 1.000000e+00 9.482759e-01 7.068965e-01 4.310345e-01 5.775862e-01 8.879310e-01 1.000000e+00 1.000000e+00 1.000000e+00 8.793103e-01 6.810344e-01 6.465517e-01 7.672414e-01 9.482759e-01 1.000000e+00 1.000000e+00 1.000000e+00 2.672413e-01 8.362069e-01 8.448276e-01 8.879310e-01 9.913793e-01 1.000000e+00 1.000000e+00 1.000000e+00
<VARIANCE> 72
 9.274660e-02 1.997623e-01 2.488111e-01 1.785819e-01 5.670338e-02 1.000000e-02 1.061237e-01 2.493314e-01 1.369647e-01 2.497025e-01 1.831153e-01 1.369648e-01 1.000000e-02 4.124554e-02 2.481420e-01 1.426875e-01 2.172267e-01 2.473245e-01 2.106867e-01 1.189060e-01 1.000000e-02 2.452437e-01 1.426875e-01 2.519320e-02 1.917362e-01 2.374403e-01 2.488111e-01 1.369648e-01 1.875000e-01 1.958236e-01 4.124554e-02 1.000000e-02 1.189060e-01 2.106867e-01 2.392984e-01 1.189061e-01 2.499256e-01 1.061237e-01 1.000000e-02 1.000000e-02 7.877526e-02 2.106868e-01 2.439803e-01 2.452437e-01 2.035524e-01 1.000000e-02 1.000000e-02 1.000000e-02 4.904872e-02 2.071937e-01 2.452437e-01 2.439804e-01 9.950963e-02 1.000000e-02 1.000000e-02 1.000000e-02 1.061238e-01 2.172268e-01 2.285226e-01 1.785819e-01 4.904876e-02 1.000000e-02 1.000000e-02 1.000000e-02 1.958234e-01 1.369647e-01 1.310939e-01 9.950973e-02 1.000000e-02 1.000000e-02 1.000000e-02 1.000000e-02
<GCONST> -5.600833e+01
<STATE> 5
<MEAN> 72
 2.826087e-01 1.594203e-01 2.898551e-02 8.695655e-02 3.260869e-01 4.855072e-01 7.173913e-01 8.043478e-01 1.449276e-01 1.014493e-01 2.173914e-02 3.188406e-01 5.724638e-01 8.550724e-01 9.347826e-01 1.000000e+00 2.753623e-01 1.159420e-01 2.608697e-01 5.072463e-01 7.753623e-01 1.000000e+00 1.000000e+00 1.000000e+00 3.478261e-01 3.260869e-01 4.492753e-01 6.956522e-01 1.000000e+00 1.000000e+00 1.000000e+00 1.000000e+00 4.420290e-01 4.855072e-01 5.869565e-01 9.347826e-01 1.000000e+00 1.000000e+00 1.000000e+00 1.000000e+00 6.086956e-01 5.797102e-01 7.318841e-01 1.000000e+00 1.000000e+00 1.000000e+00 1.000000e+00 1.000000e+00 6.086957e-01 7.028986e-01 9.275362e-01 1.000000e+00 1.000000e+00 1.000000e+00 1.000000e+00 1.000000e+00 7.463769e-01 8.260869e-01 1.000000e+00 1.000000e+00 1.000000e+00 1.000000e+00 1.000000e+00 1.000000e+00 1.739131e-01 9.637681e-01 1.000000e+00 1.000000e+00 1.000000e+00 1.000000e+00 1.000000e+00 1.000000e+00
<VARIANCE> 72
 2.027411e-01 1.340053e-01 2.814537e-02 7.939508e-02 2.197543e-01 2.497898e-01 2.027411e-01 1.573724e-01 1.239235e-01 9.115739e-02 2.126651e-02 2.171814e-01 2.447488e-01 1.239234e-01 6.096414e-02 1.000000e-02 1.995379e-01 1.024996e-01 1.928166e-01 2.499473e-01 1.741757e-01 1.000000e-02 1.000000e-02 1.000000e-02 2.268432e-01 2.197543e-01 2.474270e-01 2.117205e-01 1.000000e-02 1.000000e-02 1.000000e-02 1.000000e-02 2.466390e-01 2.497899e-01 2.424385e-01 6.096411e-02 1.000000e-02 1.000000e-02 1.000000e-02 1.000000e-02 2.381849e-01 2.436461e-01 1.962297e-01 1.000000e-02 1.000000e-02 1.000000e-02 1.000000e-02 1.000000e-02 2.381848e-01 2.088324e-01 6.721272e-02 1.000000e-02 1.000000e-02 1.000000e-02 1.000000e-02 1.000000e-02 1.892986e-01 1.436672e-01 1.000000e-02 1.000000e-02 1.000000e-02 1.000000e-02 1.000000e-02 1.000000e-02 1.436673e-01 3.491912e-02 1.000000e-02 1.000000e-02 1.000000e-02 1.000000e-02 1.000000e-02 1.000000e-02
<GCONST> -9.715424e+01
<STATE> 6
<MEAN> 72
 0.000000e+00 2.748091e-01 6.641222e-01 8.854962e-01 9.312977e-01 9.618320e-01 9.847328e-01 9.923664e-01 2.671756e-01 6.412213e-01 1.000000e+00 1.000000e+00 1.000000e+00 1.000000e+00 1.000000e+00 1.000000e+00 5.877863e-01 8.778626e-01 1.000000e+00 1.000000e+00 1.000000e+00 1.000000e+00 1.000000e+00 1.000000e+00 8.396946e-01 1.000000e+00 1.000000e+00 1.000000e+00 1.000000e+00 1.000000e+00 1.000000e+00 1.000000e+00 1.000000e+00 1.000000e+00 1.000000e+00 1.000000e+00 1.000000e+00 1.000000e+00 1.000000e+00 1.000000e+00 1.000000e+00 1.000000e+00 1.000000e+00 1.000000e+00 1.000000e+00 1.000000e+00 1.000000e+00 1.000000e+00 1.000000e+00 1.000000e+00 1.000000e+00 1.000000e+00 1.000000e+00 1.000000e+00 1.000000e+00 1.000000e+00 1.000000e+00 1.000000e+00 1.000000e+00 1.000000e+00 1.000000e+00 1.000000e+00 1.000000e+00 1.000000e+00 2.442748e-01 1.000000e+00 1.000000e+00 1.000000e+00 1.000000e+00 1.000000e+00 1.000000e+00 1.000000e+00
<VARIANCE> 72
 1.000000e-02 1.992890e-01 2.230641e-01 1.013927e-01 6.398236e-02 3.671111e-02 1.503407e-02 1.000000e-02 1.957927e-01 2.300564e-01 1.000000e-02 1.000000e-02 1.000000e-02 1.000000e-02 1.000000e-02 1.000000e-02 2.422936e-01 1.072197e-01 1.000000e-02 1.000000e-02 1.000000e-02 1.000000e-02 1.000000e-02 1.000000e-02 1.346074e-01 1.000000e-02 1.000000e-02 1.000000e-02 1.000000e-02 1.000000e-02 1.000000e-02 1.000000e-02 1.000000e-02 1.000000e-02 1.000000e-02 1.000000e-02 1.000000e-02 1.000000e-02 1.000000e-02 1.000000e-02 1.000000e-02 1.000000e-02 1.000000e-02 1.000000e-02 1.000000e-02 1.000000e-02 1.000000e-02 1.000000e-02 1.000000e-02 1.000000e-02 1.000000e-02 1.000000e-02 1.000000e-02 1.000000e-02 1.000000e-02 1.000000e-02 1.000000e-02 1.000000e-02 1.000000e-02 1.000000e-02 1.000000e-02 1.000000e-02 1.000000e-02 1.000000e-02 1.846049e-01 1.000000e-02 1.000000e-02 1.000000e-02 1.000000e-02 1.000000e-02 1.000000e-02 1.000000e-02
<GCONST> -1.700819e+02
<STATE> 7
<MEAN> 72
 9.902439e-01 1.000000e+00 1.000000e+00 1.000000e+00 1.000000e+00 1.000000e+00 1.000000e+00 1.000000e+00 1.000000e+00 1.000000e+00 1.000000e+00 1.000000e+00 1.000000e+00 1.000000e+00 1.000000e+00 1.000000e+00 1.000000e+00 1.000000e+00 1.000000e+00 1.000000e+00 1.000000e+00 1.000000e+00 1.000000e+00 1.000000e+00 1.000000e+00 1.000000e+00 1.000000e+00 1.000000e+00 1.000000e+00 1.000000e+00 1.000000e+00 1.000000e+00 1.000000e+00 1.000000e+00 1.000000e+00 1.000000e+00 1.000000e+00 1.000000e+00 1.000000e+00 1.000000e+00 1.000000e+00 1.000000e+00 1.000000e+00 1.000000e+00 1.000000e+00 1.000000e+00 1.000000e+00 1.000000e+00 1.000000e+00 1.000000e+00 1.000000e+00 1.000000e+00 1.000000e+00 1.000000e+00 1.000000e+00 1.000000e+00 1.000000e+00 1.000000e+00 1.000000e+00 1.000000e+00 1.000000e+00 1.000000e+00 1.000000e+00 1.000000e+00 2.780487e-01 1.000000e+00 1.000000e+00 1.000000e+00 1.000000e+00 1.000000e+00 1.000000e+00 1.000000e+00
<VARIANCE> 72
 1.000000e-02 1.000000e-02 1.000000e-02 1.000000e-02 1.000000e-02 1.000000e-02 1.000000e-02 1.000000e-02 1.000000e-02 1.000000e-02 1.000000e-02 1.000000e-02 1.000000e-02 1.000000e-02 1.000000e-02 1.000000e-02 1.000000e-02 1.000000e-02 1.000000e-02 1.000000e-02 1.000000e-02 1.000000e-02 1.000000e-02 1.000000e-02 1.000000e-02 1.000000e-02 1.000000e-02 1.000000e-02 1.000000e-02 1.000000e-02 1.000000e-02 1.000000e-02 1.000000e-02 1.000000e-02 1.000000e-02 1.000000e-02 1.000000e-02 1.000000e-02 1.000000e-02 1.000000e-02 1.000000e-02 1.000000e-02 1.000000e-02 1.000000e-02 1.000000e-02 1.000000e-02 1.000000e-02 1.000000e-02 1.000000e-02 1.000000e-02 1.000000e-02 1.000000e-02 1.000000e-02 1.000000e-02 1.000000e-02 1.000000e-02 1.000000e-02 1.000000e-02 1.000000e-02 1.000000e-02 1.000000e-02 1.000000e-02 1.000000e-02 1.000000e-02 2.007375e-01 1.000000e-02 1.000000e-02 1.000000e-02 1.000000e-02 1.000000e-02 1.000000e-02 1.000000e-02
<GCONST> -1.962457e+02
<TRANSP> 8
 0.000000e+00 1.000000e+00 0.000000e+00 0.000000e+00 0.000000e+00 0.000000e+00 0.000000e+00 0.000000e+00
 0.000000e+00 8.539326e-01 1.460674e-01 0.000000e+00 0.000000e+00 0.000000e+00 0.000000e+00 0.000000e+00
 0.000000e+00 0.000000e+00 8.219178e-01 1.780822e-01 0.000000e+00 0.000000e+00 0.000000e+00 0.000000e+00
 0.000000e+00 0.000000e+00 0.000000e+00 7.758621e-01 2.241379e-01 0.000000e+00 0.000000e+00 0.000000e+00
 0.000000e+00 0.000000e+00 0.000000e+00 0.000000e+00 8.115942e-01 1.884058e-01 0.000000e+00 0.000000e+00
 0.000000e+00 0.000000e+00 0.000000e+00 0.000000e+00 0.000000e+00 8.015267e-01 1.984733e-01 0.000000e+00
 0.000000e+00 0.000000e+00 0.000000e+00 0.000000e+00 0.000000e+00 0.000000e+00 8.731707e-01 1.268293e-01
 0.000000e+00 0.000000e+00 0.000000e+00 0.000000e+00 0.000000e+00 0.000000e+00 0.000000e+00 0.000000e+00
<ENDHMM>
