~o
<STREAMINFO> 1 72
<VECSIZE> 72<NULLD><USER><DIAGC>
~h "right1"
<BEGINHMM>
<NUMSTATES> 8
<STATE> 2
<MEAN> 72
 1.000000e+00 1.000000e+00 1.000000e+00 1.000000e+00 1.000000e+00 1.000000e+00 1.000000e+00 1.000000e+00 9.661017e-01 1.000000e+00 1.000000e+00 1.000000e+00 1.000000e+00 1.000000e+00 1.000000e+00 1.000000e+00 9.152542e-01 1.000000e+00 1.000000e+00 1.000000e+00 1.000000e+00 1.000000e+00 1.000000e+00 1.000000e+00 8.813559e-01 1.000000e+00 1.000000e+00 1.000000e+00 1.000000e+00 1.000000e+00 1.000000e+00 1.000000e+00 7.966102e-01 9.491525e-01 1.000000e+00 1.000000e+00 1.000000e+00 1.000000e+00 1.000000e+00 1.000000e+00 5.593220e-01 7.118644e-01 7.288135e-01 8.813559e-01 1.000000e+00 1.000000e+00 1.000000e+00 1.000000e+00 2.372881e-01 3.050848e-01 5.254237e-01 7.118644e-01 8.983051e-01 1.000000e+00 1.000000e+00 1.000000e+00 5.084744e-02 1.694915e-01 4.237288e-01 6.779661e-01 8.813559e-01 9.830508e-01 1.000000e+00 1.000000e+00 6.083563e-22 1.694915e-01 4.237288e-01 6.610169e-01 8.644068e-01 1.000000e+00 1.000000e+00 1.000000e+00
<VARIANCE> 72
 1.000000e-02 1.000000e-02 1.000000e-02 1.000000e-02 1.000000e-02 1.000000e-02 1.000000e-02 1.000000e-02 3.274921e-02 1.000000e-02 1.000000e-02 1.000000e-02 1.000000e-02 1.000000e-02 1.000000e-02 1.000000e-02 7.756391e-02 1.000000e-02 1.000000e-02 1.000000e-02 1.000000e-02 1.000000e-02 1.000000e-02 1.000000e-02 1.045677e-01 1.000000e-02 1.000000e-02 1.000000e-02 1.000000e-02 1.000000e-02 1.000000e-02 1.000000e-02 1.620225e-01 4.826197e-02 1.000000e-02 1.000000e-02 1.000000e-02 1.000000e-02 1.000000e-02 1.000000e-02 2.464809e-01 2.051135e-01 1.976443e-01 1.045676e-01 1.000000e-02 1.000000e-02 1.000000e-02 1.000000e-02 1.809826e-01 2.120081e-01 2.493535e-01 2.051135e-01 9.135301e-02 1.000000e-02 1.000000e-02 1.000000e-02 4.826196e-02 1.407642e-01 2.441828e-01 2.183279e-01 1.045676e-01 1.666190e-02 1.000000e-02 1.000000e-02 1.000000e-02 1.407642e-01 2.441827e-01 2.240734e-01 1.172076e-01 1.000000e-02 1.000000e-02 1.000000e-02
<GCONST> -1.385821e+02
<STATE> 3
<MEAN> 72
 9.777778e-01 9.777778e-01 9.777778e-01 9.555556e-01 1.000000e+00 1.000000e+00 1.000000e+00 1.000000e+00 9.555556e-01 8.888889e-01 8.222222e-01 8.000000e-01 9.777778e-01 1.000000e+00 1.000000e+00 1.000000e+00 9.555556e-01 7.333333e-01 7.111111e-01 7.333333e-01 9.111111e-01 9.777778e-01 1.000000e+00 1.000000e+00 9.555556e-01 6.888889e-01 7.333333e-01 6.888889e-01 8.888889e-01 9.555556e-01 9.777778e-01 1.000000e+00 9.111111e-01 6.444445e-01 6.222222e-01 5.777777e-01 7.555556e-01 7.777778e-01 9.333333e-01 9.777778e-01 8.888889e-01 6.000000e-01 4.444444e-01 1.111111e-01 2.222222e-01 2.666667e-01 6.000000e-01 8.666667e-01 9.111111e-01 5.777777e-01 2.444444e-01 2.222222e-02 2.222222e-02 1.777778e-01 4.888889e-01 8.000000e-01 8.444445e-01 5.333334e-01 1.555556e-01 2.222222e-02 6.666667e-02 1.777778e-01 4.666667e-01 7.555556e-01 7.777778e-01 5.111111e-01 1.111111e-01 3.646948e-23 4.444444e-02 2.444445e-01 5.777777e-01 8.888889e-01
<VARIANCE> 72
 2.172839e-02 2.172839e-02 2.172839e-02 4.246913e-02 1.000000e-02 1.000000e-02 1.000000e-02 1.000000e-02 4.246913e-02 9.876546e-02 1.461728e-01 1.600000e-01 2.172839e-02 1.000000e-02 1.000000e-02 1.000000e-02 4.246914e-02 1.955556e-01 2.054322e-01 1.955556e-01 8.098763e-02 2.172839e-02 1.000000e-02 1.000000e-02 4.246913e-02 2.143211e-01 1.955556e-01 2.143210e-01 9.876545e-02 4.246914e-02 2.172839e-02 1.000000e-02 8.098765e-02 2.291358e-01 2.350617e-01 2.439506e-01 1.846914e-01 1.728395e-01 6.222221e-02 2.172839e-02 9.876546e-02 2.400000e-01 2.469136e-01 9.876551e-02 1.728395e-01 1.955556e-01 2.399999e-01 1.155556e-01 8.098764e-02 2.439505e-01 1.846913e-01 2.172839e-02 2.172839e-02 1.461728e-01 2.498766e-01 1.600000e-01 1.313580e-01 2.488890e-01 1.313581e-01 2.172839e-02 6.222222e-02 1.461728e-01 2.488890e-01 1.846913e-01 1.728395e-01 2.498766e-01 9.876546e-02 1.000000e-02 4.246913e-02 1.846914e-01 2.439505e-01 9.876551e-02
<GCONST> -5.838621e+01
<STATE> 4
<MEAN> 72
 1.000000e+00 1.000000e+00 1.000000e+00 9.555556e-01 9.555556e-01 9.777778e-01 8.666667e-01 9.111111e-01 1.000000e+00 1.000000e+00 1.000000e+00 9.555556e-01 8.888889e-01 8.888889e-01 8.444445e-01 9.333333e-01 1.000000e+00 1.000000e+00 1.000000e+00 9.555556e-01 8.888889e-01 7.777778e-01 7.777778e-01 8.000000e-01 1.000000e+00 1.000000e+00 1.000000e+00 9.777778e-01 7.555555e-01 7.555556e-01 7.333333e-01 8.000000e-01 1.000000e+00 1.000000e+00 1.000000e+00 9.777778e-01 7.333333e-01 6.444445e-01 4.222222e-01 4.222222e-01 1.000000e+00 1.000000e+00 1.000000e+00 9.777778e-01 6.666667e-01 3.555556e-01 6.666668e-02 6.666669e-02 1.000000e+00 1.000000e+00 1.000000e+00 8.888889e-01 6.000000e-01 2.666667e-01 4.444444e-02 8.888889e-02 1.000000e+00 1.000000e+00 1.000000e+00 8.222222e-01 5.111111e-01 2.000000e-01 8.888888e-02 1.111111e-01 1.000000e+00 1.000000e+00 1.000000e+00 7.333333e-01 4.000000e-01 8.888888e-02 -1.988175e-22 8.888888e-02
<VARIANCE> 72
 1.000000e-02 1.000000e-02 1.000000e-02 4.246913e-02 4.246913e-02 2.172839e-02 1.155556e-01 8.098764e-02 1.000000e-02 1.000000e-02 1.000000e-02 4.246913e-02 9.876550e-02 9.876550e-02 1.313580e-01 6.222223e-02 1.000000e-02 1.000000e-02 1.000000e-02 4.246913e-02 9.876547e-02 1.728395e-01 1.728395e-01 1.600000e-01 1.000000e-02 1.000000e-02 1.000000e-02 2.172839e-02 1.846914e-01 1.846913e-01 1.955556e-01 1.600000e-01 1.000000e-02 1.000000e-02 1.000000e-02 2.172839e-02 1.955556e-01 2.291358e-01 2.439506e-01 2.439506e-01 1.000000e-02 1.000000e-02 1.000000e-02 2.172839e-02 2.222222e-01 2.291358e-01 6.222218e-02 6.222216e-02 1.000000e-02 1.000000e-02 1.000000e-02 9.876549e-02 2.400000e-01 1.955556e-01 4.246913e-02 8.098762e-02 1.000000e-02 1.000000e-02 1.000000e-02 1.461728e-01 2.498766e-01 1.600000e-01 8.098762e-02 9.876550e-02 1.000000e-02 1.000000e-02 1.000000e-02 1.955556e-01 2.399999e-01 8.098765e-02 1.000000e-02 8.098762e-02
<GCONST> -9.674117e+01
<STATE> 5
<MEAN> 72
 1.000000e+00 1.000000e+00 1.000000e+00 1.000000e+00 1.000000e+00 1.000000e+00 1.000000e+00 9.696970e-01 1.000000e+00 1.000000e+00 1.000000e+00 1.000000e+00 1.000000e+00 1.000000e+00 1.000000e+00 9.090909e-01 1.000000e+00 1.000000e+00 1.000000e+00 1.000000e+00 1.000000e+00 1.000000e+00 1.000000e+00 8.787879e-01 1.000000e+00 1.000000e+00 1.000000e+00 1.000000e+00 1.000000e+00 1.000000e+00 1.000000e+00 8.787879e-01 1.000000e+00 1.000000e+00 1.000000e+00 1.000000e+00 1.000000e+00 1.000000e+00 1.000000e+00 7.878788e-01 1.000000e+00 1.000000e+00 1.000000e+00 1.000000e+00 1.000000e+00 1.000000e+00 1.000000e+00 5.757576e-01 1.000000e+00 1.000000e+00 1.000000e+00 1.000000e+00 1.000000e+00 1.000000e+00 8.787879e-01 3.939394e-01 1.000000e+00 1.000000e+00 1.000000e+00 1.000000e+00 1.000000e+00 1.000000e+00 6.666667e-01 3.030303e-01 1.000000e+00 1.000000e+00 1.000000e+00 1.000000e+00 1.000000e+00 1.000000e+00 5.454546e-01 -4.271100e-20
<VARIANCE> 72
 1.000000e-02 1.000000e-02 1.000000e-02 1.000000e-02 1.000000e-02 1.000000e-02 1.000000e-02 2.938476e-02 1.000000e-02 1.000000e-02 1.000000e-02 1.000000e-02 1.000000e-02 1.000000e-02 1.000000e-02 8.264463e-02 1.000000e-02 1.000000e-02 1.000000e-02 1.000000e-02 1.000000e-02 1.000000e-02 1.000000e-02 1.065198e-01 1.000000e-02 1.000000e-02 1.000000e-02 1.000000e-02 1.000000e-02 1.000000e-02 1.000000e-02 1.065198e-01 1.000000e-02 1.000000e-02 1.000000e-02 1.000000e-02 1.000000e-02 1.000000e-02 1.000000e-02 1.671258e-01 1.000000e-02 1.000000e-02 1.000000e-02 1.000000e-02 1.000000e-02 1.000000e-02 1.000000e-02 2.442608e-01 1.000000e-02 1.000000e-02 1.000000e-02 1.000000e-02 1.000000e-02 1.000000e-02 1.065197e-01 2.387511e-01 1.000000e-02 1.000000e-02 1.000000e-02 1.000000e-02 1.000000e-02 1.000000e-02 2.222223e-01 2.112030e-01 1.000000e-02 1.000000e-02 1.000000e-02 1.000000e-02 1.000000e-02 1.000000e-02 2.479339e-01 1.000000e-02
<GCONST> -1.704115e+02
<STATE> 6
<MEAN> 72
 1.000000e+00 1.000000e+00 1.000000e+00 1.000000e+00 1.000000e+00 1.000000e+00 1.000000e+00 1.000000e+00 1.000000e+00 1.000000e+00 1.000000e+00 1.000000e+00 1.000000e+00 1.000000e+00 1.000000e+00 1.000000e+00 1.000000e+00 1.000000e+00 1.000000e+00 1.000000e+00 1.000000e+00 1.000000e+00 1.000000e+00 1.000000e+00 1.000000e+00 1.000000e+00 1.000000e+00 1.000000e+00 1.000000e+00 1.000000e+00 1.000000e+00 1.000000e+00 1.000000e+00 1.000000e+00 1.000000e+00 1.000000e+00 1.000000e+00 1.000000e+00 1.000000e+00 1.000000e+00 1.000000e+00 1.000000e+00 1.000000e+00 1.000000e+00 1.000000e+00 1.000000e+00 1.000000e+00 1.000000e+00 1.000000e+00 1.000000e+00 1.000000e+00 1.000000e+00 1.000000e+00 1.000000e+00 1.000000e+00 1.000000e+00 1.000000e+00 1.000000e+00 1.000000e+00 1.000000e+00 1.000000e+00 1.000000e+00 1.000000e+00 1.000000e+00 1.000000e+00 1.000000e+00 1.000000e+00 1.000000e+00 1.000000e+00 1.000000e+00 1.000000e+00 1.000000e+00
<VARIANCE> 72
 1.000000e-02 1.000000e-02 1.000000e-02 1.000000e-02 1.000000e-02 1.000000e-02 1.000000e-02 1.000000e-02 1.000000e-02 1.000000e-02 1.000000e-02 1.000000e-02 1.000000e-02 1.000000e-02 1.000000e-02 1.000000e-02 1.000000e-02 1.000000e-02 1.000000e-02 1.000000e-02 1.000000e-02 1.000000e-02 1.000000e-02 1.000000e-02 1.000000e-02 1.000000e-02 1.000000e-02 1.000000e-02 1.000000e-02 1.000000e-02 1.000000e-02 1.000000e-02 1.000000e-02 1.000000e-02 1.000000e-02 1.000000e-02 1.000000e-02 1.000000e-02 1.000000e-02 1.000000e-02 1.000000e-02 1.000000e-02 1.000000e-02 1.000000e-02 1.000000e-02 1.000000e-02 1.000000e-02 1.000000e-02 1.000000e-02 1.000000e-02 1.000000e-02 1.000000e-02 1.000000e-02 1.000000e-02 1.000000e-02 1.000000e-02 1.000000e-02 1.000000e-02 1.000000e-02 1.000000e-02 1.000000e-02 1.000000e-02 1.000000e-02 1.000000e-02 1.000000e-02 1.000000e-02 1.000000e-02 1.000000e-02 1.000000e-02 1.000000e-02 1.000000e-02 1.000000e-02
<GCONST> -1.992451e+02
<STATE> 7
<MEAN> 72
 1.000000e+00 1.000000e+00 1.000000e+00 1.000000e+00 1.000000e+00 1.000000e+00 1.000000e+00 1.000000e+00 1.000000e+00 1.000000e+00 1.000000e+00 1.000000e+00 1.000000e+00 1.000000e+00 1.000000e+00 1.000000e+00 1.000000e+00 1.000000e+00 1.000000e+00 1.000000e+00 1.000000e+00 1.000000e+00 1.000000e+00 1.000000e+00 1.000000e+00 1.000000e+00 1.000000e+00 1.000000e+00 1.000000e+00 1.000000e+00 1.000000e+00 1.000000e+00 1.000000e+00 1.000000e+00 1.000000e+00 1.000000e+00 1.000000e+00 1.000000e+00 1.000000e+00 1.000000e+00 1.000000e+00 1.000000e+00 1.000000e+00 1.000000e+00 1.000000e+00 1.000000e+00 1.000000e+00 1.000000e+00 1.000000e+00 1.000000e+00 1.000000e+00 1.000000e+00 1.000000e+00 1.000000e+00 1.000000e+00 1.000000e+00 1.000000e+00 1.000000e+00 1.000000e+00 1.000000e+00 1.000000e+00 1.000000e+00 1.000000e+00 1.000000e+00 1.000000e+00 1.000000e+00 1.000000e+00 1.000000e+00 1.000000e+00 1.000000e+00 1.000000e+00 1.000000e+00
<VARIANCE> 72
 1.000000e-02 1.000000e-02 1.000000e-02 1.000000e-02 1.000000e-02 1.000000e-02 1.000000e-02 1.000000e-02 1.000000e-02 1.000000e-02 1.000000e-02 1.000000e-02 1.000000e-02 1.000000e-02 1.000000e-02 1.000000e-02 1.000000e-02 1.000000e-02 1.000000e-02 1.000000e-02 1.000000e-02 1.000000e-02 1.000000e-02 1.000000e-02 1.000000e-02 1.000000e-02 1.000000e-02 1.000000e-02 1.000000e-02 1.000000e-02 1.000000e-02 1.000000e-02 1.000000e-02 1.000000e-02 1.000000e-02 1.000000e-02 1.000000e-02 1.000000e-02 1.000000e-02 1.000000e-02 1.000000e-02 1.000000e-02 1.000000e-02 1.000000e-02 1.000000e-02 1.000000e-02 1.000000e-02 1.000000e-02 1.000000e-02 1.000000e-02 1.000000e-02 1.000000e-02 1.000000e-02 1.000000e-02 1.000000e-02 1.000000e-02 1.000000e-02 1.000000e-02 1.000000e-02 1.000000e-02 1.000000e-02 1.000000e-02 1.000000e-02 1.000000e-02 1.000000e-02 1.000000e-02 1.000000e-02 1.000000e-02 1.000000e-02 1.000000e-02 1.000000e-02 1.000000e-02
<GCONST> -1.992451e+02
<TRANSP> 8
 0.000000e+00 1.000000e+00 0.000000e+00 0.000000e+00 0.000000e+00 0.000000e+00 0.000000e+00 0.000000e+00
 0.000000e+00 7.118644e-01 2.881356e-01 0.000000e+00 0.000000e+00 0.000000e+00 0.000000e+00 0.000000e+00
 0.000000e+00 0.000000e+00 6.222222e-01 3.777778e-01 0.000000e+00 0.000000e+00 0.000000e+00 0.000000e+00
 0.000000e+00 0.000000e+00 0.000000e+00 6.222222e-01 3.777778e-01 0.000000e+00 0.000000e+00 0.000000e+00
 0.000000e+00 0.000000e+00 0.000000e+00 0.000000e+00 4.848485e-01 5.151515e-01 0.000000e+00 0.000000e+00
 0.000000e+00 0.000000e+00 0.000000e+00 0.000000e+00 0.000000e+00 8.454546e-01 1.545455e-01 0.000000e+00
 0.000000e+00 0.000000e+00 0.000000e+00 0.000000e+00 0.000000e+00 0.000000e+00 0.000000e+00 1.000000e+00
 0.000000e+00 0.000000e+00 0.000000e+00 0.000000e+00 0.000000e+00 0.000000e+00 0.000000e+00 0.000000e+00
<ENDHMM>
