~o
<STREAMINFO> 1 72
<VECSIZE> 72<NULLD><USER><DIAGC>
~h "upright1"
<BEGINHMM>
<NUMSTATES> 8
<STATE> 2
<MEAN> 72
 7.142857e-02 2.857144e-02 1.285714e-01 1.714286e-01 1.428571e-01 1.428571e-01 1.571428e-01 1.428571e-01 4.000000e-01 4.000000e-01 4.142857e-01 4.428571e-01 4.714286e-01 4.857143e-01 5.000000e-01 5.285714e-01 7.142857e-01 6.714286e-01 6.714286e-01 7.000000e-01 7.142857e-01 7.428572e-01 7.714286e-01 7.714286e-01 8.714285e-01 9.142857e-01 9.571429e-01 9.571429e-01 9.857143e-01 9.857143e-01 9.857143e-01 9.857143e-01 1.000000e+00 1.000000e+00 1.000000e+00 9.857143e-01 9.857143e-01 9.857143e-01 9.857143e-01 9.857143e-01 1.000000e+00 1.000000e+00 1.000000e+00 9.857143e-01 9.857143e-01 9.857143e-01 9.857143e-01 9.857143e-01 1.000000e+00 1.000000e+00 1.000000e+00 9.857143e-01 9.857143e-01 9.857143e-01 9.857143e-01 9.857143e-01 1.000000e+00 1.000000e+00 1.000000e+00 9.857143e-01 9.857143e-01 9.857143e-01 9.857143e-01 9.857143e-01 1.000000e+00 1.000000e+00 9.857143e-01 9.857143e-01 9.857143e-01 9.857143e-01 9.857143e-01 9.857143e-01
<VARIANCE> 72
 6.632660e-02 2.775512e-02 1.120408e-01 1.420409e-01 1.224490e-01 1.224490e-01 1.324490e-01 1.224490e-01 2.399999e-01 2.399999e-01 2.426532e-01 2.467347e-01 2.491837e-01 2.497959e-01 2.500000e-01 2.491837e-01 2.040817e-01 2.206121e-01 2.206121e-01 2.100000e-01 2.040817e-01 1.910204e-01 1.763265e-01 1.763266e-01 1.120407e-01 7.836731e-02 4.102044e-02 4.102044e-02 1.408163e-02 1.408163e-02 1.408163e-02 1.408163e-02 1.000000e-02 1.000000e-02 1.000000e-02 1.408163e-02 1.408163e-02 1.408163e-02 1.408163e-02 1.408163e-02 1.000000e-02 1.000000e-02 1.000000e-02 1.408163e-02 1.408163e-02 1.408163e-02 1.408163e-02 1.408163e-02 1.000000e-02 1.000000e-02 1.000000e-02 1.408163e-02 1.408163e-02 1.408163e-02 1.408163e-02 1.408163e-02 1.000000e-02 1.000000e-02 1.000000e-02 1.408163e-02 1.408163e-02 1.408163e-02 1.408163e-02 1.408163e-02 1.000000e-02 1.000000e-02 1.408163e-02 1.408163e-02 1.408163e-02 1.408163e-02 1.408163e-02 1.408163e-02
<GCONST> -1.140245e+02
<STATE> 3
<MEAN> 72
 9.600000e-01 8.200000e-01 7.200000e-01 7.000000e-01 7.000000e-01 7.200000e-01 8.600000e-01 7.800000e-01 9.000000e-01 5.600000e-01 4.800000e-01 4.400000e-01 4.000000e-01 4.200000e-01 4.800000e-01 5.600000e-01 6.800000e-01 4.600000e-01 2.400000e-01 1.200000e-01 9.999999e-02 4.000001e-02 1.400000e-01 1.800000e-01 7.800000e-01 5.400000e-01 8.000000e-02 4.000000e-02 4.000001e-02 6.000001e-02 6.000001e-02 9.999999e-02 7.600000e-01 5.200000e-01 3.800000e-01 3.600000e-01 3.600000e-01 4.000000e-01 4.000000e-01 4.400000e-01 9.200000e-01 7.400000e-01 6.600000e-01 6.600000e-01 6.800000e-01 7.000000e-01 7.000000e-01 7.800000e-01 8.600000e-01 8.200000e-01 8.600000e-01 9.600000e-01 9.800000e-01 9.800000e-01 9.800000e-01 1.000000e+00 1.000000e+00 1.000000e+00 1.000000e+00 1.000000e+00 1.000000e+00 1.000000e+00 1.000000e+00 1.000000e+00 1.000000e+00 1.000000e+00 1.000000e+00 1.000000e+00 1.000000e+00 1.000000e+00 1.000000e+00 1.000000e+00
<VARIANCE> 72
 3.840002e-02 1.476000e-01 2.016000e-01 2.100000e-01 2.100000e-01 2.016000e-01 1.204000e-01 1.715999e-01 9.000004e-02 2.463999e-01 2.496001e-01 2.463999e-01 2.399999e-01 2.436001e-01 2.496001e-01 2.463999e-01 2.176000e-01 2.484001e-01 1.824000e-01 1.056000e-01 9.000009e-02 3.840002e-02 1.204000e-01 1.476001e-01 1.716000e-01 2.484001e-01 7.360003e-02 3.840002e-02 3.840002e-02 5.639992e-02 5.639992e-02 9.000006e-02 1.824000e-01 2.496000e-01 2.355999e-01 2.303999e-01 2.303999e-01 2.399999e-01 2.399999e-01 2.463999e-01 7.360005e-02 1.923999e-01 2.244000e-01 2.244000e-01 2.176000e-01 2.100000e-01 2.100000e-01 1.715999e-01 1.204000e-01 1.476000e-01 1.204000e-01 3.840002e-02 1.960001e-02 1.960001e-02 1.960001e-02 1.000000e-02 1.000000e-02 1.000000e-02 1.000000e-02 1.000000e-02 1.000000e-02 1.000000e-02 1.000000e-02 1.000000e-02 1.000000e-02 1.000000e-02 1.000000e-02 1.000000e-02 1.000000e-02 1.000000e-02 1.000000e-02 1.000000e-02
<GCONST> -5.715494e+01
<STATE> 4
<MEAN> 72
 1.000000e+00 1.000000e+00 1.000000e+00 1.000000e+00 1.000000e+00 1.000000e+00 1.000000e+00 1.000000e+00 1.000000e+00 1.000000e+00 1.000000e+00 1.000000e+00 1.000000e+00 1.000000e+00 1.000000e+00 1.000000e+00 1.000000e+00 1.000000e+00 1.000000e+00 1.000000e+00 1.000000e+00 1.000000e+00 1.000000e+00 1.000000e+00 1.000000e+00 1.000000e+00 9.791667e-01 8.958334e-01 8.125000e-01 7.708333e-01 6.875000e-01 7.708333e-01 1.000000e+00 1.000000e+00 8.750000e-01 6.666667e-01 5.000000e-01 4.583333e-01 3.958333e-01 3.958333e-01 1.000000e+00 9.791667e-01 8.125000e-01 5.000000e-01 2.500000e-01 1.041667e-01 4.166666e-02 4.166667e-02 1.000000e+00 9.375000e-01 7.708334e-01 4.375000e-01 1.250000e-01 6.250001e-02 8.333334e-02 1.041667e-01 9.583333e-01 8.125000e-01 6.666667e-01 5.625000e-01 3.541667e-01 3.333333e-01 3.125000e-01 3.958333e-01 1.000000e+00 8.958333e-01 7.500000e-01 7.291666e-01 6.666667e-01 6.041667e-01 6.666667e-01 6.666667e-01
<VARIANCE> 72
 1.000000e-02 1.000000e-02 1.000000e-02 1.000000e-02 1.000000e-02 1.000000e-02 1.000000e-02 1.000000e-02 1.000000e-02 1.000000e-02 1.000000e-02 1.000000e-02 1.000000e-02 1.000000e-02 1.000000e-02 1.000000e-02 1.000000e-02 1.000000e-02 1.000000e-02 1.000000e-02 1.000000e-02 1.000000e-02 1.000000e-02 1.000000e-02 1.000000e-02 1.000000e-02 2.039931e-02 9.331600e-02 1.523438e-01 1.766493e-01 2.148438e-01 1.766493e-01 1.000000e-02 1.000000e-02 1.093750e-01 2.222222e-01 2.500000e-01 2.482640e-01 2.391492e-01 2.391492e-01 1.000000e-02 2.039931e-02 1.523438e-01 2.500000e-01 1.875000e-01 9.331604e-02 3.993059e-02 3.993059e-02 1.000000e-02 5.859375e-02 1.766493e-01 2.460938e-01 1.093750e-01 5.859375e-02 7.638886e-02 9.331609e-02 3.993058e-02 1.523438e-01 2.222222e-01 2.460938e-01 2.287326e-01 2.222222e-01 2.148438e-01 2.391492e-01 1.000000e-02 9.331597e-02 1.875000e-01 1.974827e-01 2.222222e-01 2.391492e-01 2.222222e-01 2.222222e-01
<GCONST> -9.212228e+01
<STATE> 5
<MEAN> 72
 1.000000e+00 1.000000e+00 1.000000e+00 1.000000e+00 1.000000e+00 1.000000e+00 1.000000e+00 1.000000e+00 1.000000e+00 1.000000e+00 1.000000e+00 1.000000e+00 1.000000e+00 1.000000e+00 1.000000e+00 1.000000e+00 1.000000e+00 1.000000e+00 1.000000e+00 1.000000e+00 1.000000e+00 1.000000e+00 1.000000e+00 1.000000e+00 1.000000e+00 1.000000e+00 1.000000e+00 1.000000e+00 1.000000e+00 1.000000e+00 1.000000e+00 1.000000e+00 1.000000e+00 1.000000e+00 1.000000e+00 1.000000e+00 1.000000e+00 1.000000e+00 1.000000e+00 1.000000e+00 1.000000e+00 1.000000e+00 1.000000e+00 1.000000e+00 1.000000e+00 1.000000e+00 1.000000e+00 9.583333e-01 1.000000e+00 1.000000e+00 1.000000e+00 1.000000e+00 1.000000e+00 8.541667e-01 7.083333e-01 6.041667e-01 1.000000e+00 1.000000e+00 1.000000e+00 1.000000e+00 8.750000e-01 5.833333e-01 4.375000e-01 3.333333e-01 1.000000e+00 1.000000e+00 1.000000e+00 9.791667e-01 8.125000e-01 5.000000e-01 2.083333e-01 4.166667e-02
<VARIANCE> 72
 1.000000e-02 1.000000e-02 1.000000e-02 1.000000e-02 1.000000e-02 1.000000e-02 1.000000e-02 1.000000e-02 1.000000e-02 1.000000e-02 1.000000e-02 1.000000e-02 1.000000e-02 1.000000e-02 1.000000e-02 1.000000e-02 1.000000e-02 1.000000e-02 1.000000e-02 1.000000e-02 1.000000e-02 1.000000e-02 1.000000e-02 1.000000e-02 1.000000e-02 1.000000e-02 1.000000e-02 1.000000e-02 1.000000e-02 1.000000e-02 1.000000e-02 1.000000e-02 1.000000e-02 1.000000e-02 1.000000e-02 1.000000e-02 1.000000e-02 1.000000e-02 1.000000e-02 1.000000e-02 1.000000e-02 1.000000e-02 1.000000e-02 1.000000e-02 1.000000e-02 1.000000e-02 1.000000e-02 3.993056e-02 1.000000e-02 1.000000e-02 1.000000e-02 1.000000e-02 1.000000e-02 1.245660e-01 2.065973e-01 2.391492e-01 1.000000e-02 1.000000e-02 1.000000e-02 1.000000e-02 1.093750e-01 2.430555e-01 2.460938e-01 2.222222e-01 1.000000e-02 1.000000e-02 1.000000e-02 2.039931e-02 1.523438e-01 2.500000e-01 1.649305e-01 3.993059e-02
<GCONST> -1.664056e+02
<STATE> 6
<MEAN> 72
 1.000000e+00 1.000000e+00 1.000000e+00 1.000000e+00 1.000000e+00 1.000000e+00 1.000000e+00 1.000000e+00 1.000000e+00 1.000000e+00 1.000000e+00 1.000000e+00 1.000000e+00 1.000000e+00 1.000000e+00 1.000000e+00 1.000000e+00 1.000000e+00 1.000000e+00 1.000000e+00 1.000000e+00 1.000000e+00 1.000000e+00 1.000000e+00 1.000000e+00 1.000000e+00 1.000000e+00 1.000000e+00 1.000000e+00 1.000000e+00 1.000000e+00 1.000000e+00 1.000000e+00 1.000000e+00 1.000000e+00 1.000000e+00 1.000000e+00 1.000000e+00 1.000000e+00 1.000000e+00 1.000000e+00 1.000000e+00 1.000000e+00 1.000000e+00 1.000000e+00 1.000000e+00 1.000000e+00 1.000000e+00 1.000000e+00 1.000000e+00 1.000000e+00 1.000000e+00 1.000000e+00 1.000000e+00 1.000000e+00 1.000000e+00 1.000000e+00 1.000000e+00 1.000000e+00 1.000000e+00 1.000000e+00 1.000000e+00 1.000000e+00 1.000000e+00 1.000000e+00 1.000000e+00 1.000000e+00 1.000000e+00 1.000000e+00 1.000000e+00 1.000000e+00 1.000000e+00
<VARIANCE> 72
 1.000000e-02 1.000000e-02 1.000000e-02 1.000000e-02 1.000000e-02 1.000000e-02 1.000000e-02 1.000000e-02 1.000000e-02 1.000000e-02 1.000000e-02 1.000000e-02 1.000000e-02 1.000000e-02 1.000000e-02 1.000000e-02 1.000000e-02 1.000000e-02 1.000000e-02 1.000000e-02 1.000000e-02 1.000000e-02 1.000000e-02 1.000000e-02 1.000000e-02 1.000000e-02 1.000000e-02 1.000000e-02 1.000000e-02 1.000000e-02 1.000000e-02 1.000000e-02 1.000000e-02 1.000000e-02 1.000000e-02 1.000000e-02 1.000000e-02 1.000000e-02 1.000000e-02 1.000000e-02 1.000000e-02 1.000000e-02 1.000000e-02 1.000000e-02 1.000000e-02 1.000000e-02 1.000000e-02 1.000000e-02 1.000000e-02 1.000000e-02 1.000000e-02 1.000000e-02 1.000000e-02 1.000000e-02 1.000000e-02 1.000000e-02 1.000000e-02 1.000000e-02 1.000000e-02 1.000000e-02 1.000000e-02 1.000000e-02 1.000000e-02 1.000000e-02 1.000000e-02 1.000000e-02 1.000000e-02 1.000000e-02 1.000000e-02 1.000000e-02 1.000000e-02 1.000000e-02
<GCONST> -1.992451e+02
<STATE> 7
<MEAN> 72
 1.000000e+00 1.000000e+00 1.000000e+00 1.000000e+00 1.000000e+00 1.000000e+00 1.000000e+00 1.000000e+00 1.000000e+00 1.000000e+00 1.000000e+00 1.000000e+00 1.000000e+00 1.000000e+00 1.000000e+00 1.000000e+00 1.000000e+00 1.000000e+00 1.000000e+00 1.000000e+00 1.000000e+00 1.000000e+00 1.000000e+00 1.000000e+00 1.000000e+00 1.000000e+00 1.000000e+00 1.000000e+00 1.000000e+00 1.000000e+00 1.000000e+00 1.000000e+00 1.000000e+00 1.000000e+00 1.000000e+00 1.000000e+00 1.000000e+00 1.000000e+00 1.000000e+00 1.000000e+00 1.000000e+00 1.000000e+00 1.000000e+00 1.000000e+00 1.000000e+00 1.000000e+00 1.000000e+00 1.000000e+00 1.000000e+00 1.000000e+00 1.000000e+00 1.000000e+00 1.000000e+00 1.000000e+00 1.000000e+00 1.000000e+00 1.000000e+00 1.000000e+00 1.000000e+00 1.000000e+00 1.000000e+00 1.000000e+00 1.000000e+00 1.000000e+00 1.000000e+00 1.000000e+00 1.000000e+00 1.000000e+00 1.000000e+00 1.000000e+00 1.000000e+00 1.000000e+00
<VARIANCE> 72
 1.000000e-02 1.000000e-02 1.000000e-02 1.000000e-02 1.000000e-02 1.000000e-02 1.000000e-02 1.000000e-02 1.000000e-02 1.000000e-02 1.000000e-02 1.000000e-02 1.000000e-02 1.000000e-02 1.000000e-02 1.000000e-02 1.000000e-02 1.000000e-02 1.000000e-02 1.000000e-02 1.000000e-02 1.000000e-02 1.000000e-02 1.000000e-02 1.000000e-02 1.000000e-02 1.000000e-02 1.000000e-02 1.000000e-02 1.000000e-02 1.000000e-02 1.000000e-02 1.000000e-02 1.000000e-02 1.000000e-02 1.000000e-02 1.000000e-02 1.000000e-02 1.000000e-02 1.000000e-02 1.000000e-02 1.000000e-02 1.000000e-02 1.000000e-02 1.000000e-02 1.000000e-02 1.000000e-02 1.000000e-02 1.000000e-02 1.000000e-02 1.000000e-02 1.000000e-02 1.000000e-02 1.000000e-02 1.000000e-02 1.000000e-02 1.000000e-02 1.000000e-02 1.000000e-02 1.000000e-02 1.000000e-02 1.000000e-02 1.000000e-02 1.000000e-02 1.000000e-02 1.000000e-02 1.000000e-02 1.000000e-02 1.000000e-02 1.000000e-02 1.000000e-02 1.000000e-02
<GCONST> -1.992451e+02
<TRANSP> 8
 0.000000e+00 1.000000e+00 0.000000e+00 0.000000e+00 0.000000e+00 0.000000e+00 0.000000e+00 0.000000e+00
 0.000000e+00 7.142857e-01 2.857143e-01 0.000000e+00 0.000000e+00 0.000000e+00 0.000000e+00 0.000000e+00
 0.000000e+00 0.000000e+00 6.000000e-01 4.000000e-01 0.000000e+00 0.000000e+00 0.000000e+00 0.000000e+00
 0.000000e+00 0.000000e+00 0.000000e+00 5.833333e-01 4.166667e-01 0.000000e+00 0.000000e+00 0.000000e+00
 0.000000e+00 0.000000e+00 0.000000e+00 0.000000e+00 5.833333e-01 4.166667e-01 0.000000e+00 0.000000e+00
 0.000000e+00 0.000000e+00 0.000000e+00 0.000000e+00 0.000000e+00 8.425197e-01 1.574803e-01 0.000000e+00
 0.000000e+00 0.000000e+00 0.000000e+00 0.000000e+00 0.000000e+00 0.000000e+00 0.000000e+00 1.000000e+00
 0.000000e+00 0.000000e+00 0.000000e+00 0.000000e+00 0.000000e+00 0.000000e+00 0.000000e+00 0.000000e+00
<ENDHMM>
