~o
<STREAMINFO> 1 142
<VECSIZE> 142<NULLD><USER><DIAGC>
~h "america"
<BEGINHMM>
<NUMSTATES> 4
<STATE> 2
<MEAN> 142
 5.448483e-01 3.170853e-01 3.187962e-01 3.121938e-01 3.090341e-01 5.406014e-01 4.402589e-01 4.045927e-01 4.475335e-01 4.536072e-01 3.844901e-01 4.673173e-01 5.165776e-01 4.417350e-01 4.689438e-01 3.918601e-01 4.329118e-01 3.835387e-01 3.453092e-01 3.745852e-01 4.373823e-01 4.113738e-01 3.374916e-01 4.079360e-01 4.247137e-01 4.707843e-01 3.893438e-01 3.997400e-01 3.757354e-01 5.167417e-01 4.965948e-01 3.709449e-01 4.013394e-01 4.649542e-01 4.097503e-01 4.419327e-01 3.796651e-01 4.832568e-01 3.816130e-01 4.941894e-01 5.031652e-01 3.444663e-01 3.857638e-01 4.181329e-01 3.194561e-01 3.325997e-01 3.683975e-01 5.215732e-01 5.116284e-01 4.052733e-01 5.639930e-01 5.057341e-01 5.282164e-01 3.429926e-01 3.993986e-01 2.797585e-01 4.561058e-01 3.636742e-01 4.436045e-01 4.012256e-01 5.460634e-01 4.135601e-01 3.766471e-01 4.575980e-01 5.019341e-01 3.760926e-01 5.777372e-01 5.155886e-01 4.764701e-01 5.745367e-01 4.301680e-01 5.370336e-01 4.399128e-01 3.890261e-01 4.215535e-01 4.818035e-01 4.125225e-01 2.590466e-01 4.428881e-01 3.088152e-01 4.874886e-01 3.672303e-01 4.885317e-01 4.554536e-01 4.193110e-01 4.758704e-01 4.374579e-01 4.447162e-01 5.306859e-01 4.922702e-01 3.500098e-01 4.765688e-01 4.353484e-01 3.752697e-01 3.731179e-01 4.425686e-01 4.626180e-01 4.118258e-01 4.490618e-01 4.712632e-01 3.489994e-01 4.326059e-01 3.601397e-01 4.606131e-01 3.381777e-01 2.562100e-01 4.495986e-01 4.400306e-01 5.092375e-01 4.646089e-01 4.489778e-01 4.338690e-01 3.376984e-01 3.690493e-01 3.342167e-01 5.180052e-01 4.208009e-01 3.209879e-01 3.934169e-01 3.714592e-01 3.796297e-01 3.607228e-01 2.940356e-01 5.608767e-01 4.331771e-01 3.133627e-01 4.798194e-01 4.651590e-01 3.413925e-01 4.101822e-01 3.969986e-01 4.048904e-01 4.631600e-01 3.902114e-01 4.158469e-01 4.257725e-01 5.057948e-01 4.570192e-01 5.064060e-01 3.648650e-01 3.812188e-01 3.364641e-01
<VARIANCE> 142
 2.000000e-01 2.000000e-01 2.000000e-01 2.000000e-01 2.000000e-01 2.000000e-01 2.000000e-01 2.000000e-01 2.000000e-01 2.000000e-01 2.000000e-01 2.000000e-01 2.000000e-01 2.000000e-01 2.000000e-01 2.000000e-01 2.000000e-01 2.000000e-01 2.000000e-01 2.000000e-01 2.000000e-01 2.000000e-01 2.000000e-01 2.000000e-01 2.000000e-01 2.000000e-01 2.000000e-01 2.000000e-01 2.000000e-01 2.000000e-01 2.000000e-01 2.000000e-01 2.000000e-01 2.000000e-01 2.000000e-01 2.000000e-01 2.000000e-01 2.000000e-01 2.000000e-01 2.000000e-01 2.000000e-01 2.000000e-01 2.000000e-01 2.000000e-01 2.000000e-01 2.000000e-01 2.000000e-01 2.000000e-01 2.000000e-01 2.000000e-01 2.000000e-01 2.000000e-01 2.000000e-01 2.000000e-01 2.000000e-01 2.000000e-01 2.000000e-01 2.000000e-01 2.000000e-01 2.000000e-01 2.000000e-01 2.000000e-01 2.000000e-01 2.000000e-01 2.000000e-01 2.000000e-01 2.000000e-01 2.000000e-01 2.000000e-01 2.000000e-01 2.000000e-01 2.000000e-01 2.000000e-01 2.000000e-01 2.000000e-01 2.000000e-01 2.000000e-01 2.000000e-01 2.000000e-01 2.000000e-01 2.000000e-01 2.000000e-01 2.000000e-01 2.000000e-01 2.000000e-01 2.000000e-01 2.000000e-01 2.000000e-01 2.000000e-01 2.000000e-01 2.000000e-01 2.000000e-01 2.000000e-01 2.000000e-01 2.000000e-01 2.000000e-01 2.000000e-01 2.000000e-01 2.000000e-01 2.000000e-01 2.000000e-01 2.000000e-01 2.000000e-01 2.000000e-01 2.000000e-01 2.000000e-01 2.000000e-01 2.000000e-01 2.000000e-01 2.000000e-01 2.000000e-01 2.000000e-01 2.000000e-01 2.000000e-01 2.000000e-01 2.000000e-01 2.000000e-01 2.000000e-01 2.000000e-01 2.000000e-01 2.000000e-01 2.000000e-01 2.000000e-01 2.000000e-01 2.000000e-01 2.000000e-01 2.000000e-01 2.000000e-01 2.000000e-01 2.000000e-01 2.000000e-01 2.000000e-01 2.000000e-01 2.000000e-01 2.000000e-01 2.000000e-01 2.000000e-01 2.000000e-01 2.000000e-01 2.000000e-01 2.000000e-01 2.000000e-01
<GCONST> 3.243863e+01
<STATE> 3
<MEAN> 142
 5.181156e-01 3.865520e-01 3.671819e-01 3.117793e-01 2.913251e-01 2.573310e-01 3.355896e-01 2.994014e-01 4.010886e-01 4.202654e-01 4.584112e-01 4.132303e-01 3.646551e-01 4.757059e-01 3.921774e-01 2.983223e-01 3.881248e-01 3.523765e-01 2.788549e-01 3.125786e-01 4.495018e-01 4.770149e-01 3.263877e-01 4.734320e-01 4.615346e-01 3.724189e-01 3.555559e-01 3.839274e-01 4.714494e-01 4.286439e-01 4.908818e-01 4.075146e-01 3.719626e-01 4.463555e-01 4.301491e-01 3.814734e-01 4.044414e-01 3.458833e-01 3.812140e-01 4.058846e-01 3.835991e-01 4.504491e-01 3.306275e-01 2.757079e-01 2.038261e-01 3.720816e-01 4.839781e-01 4.414058e-01 4.198997e-01 3.283721e-01 4.348419e-01 3.287409e-01 4.234805e-01 2.571074e-01 4.012870e-01 3.716403e-01 3.912418e-01 3.417455e-01 3.183102e-01 3.476721e-01 3.746910e-01 4.450001e-01 3.628351e-01 3.875028e-01 3.507655e-01 4.553300e-01 3.209380e-01 3.531063e-01 3.896192e-01 3.630526e-01 4.442193e-01 3.488281e-01 4.041753e-01 4.535220e-01 2.965388e-01 3.231147e-01 4.544566e-01 5.672038e-01 4.493322e-01 4.122240e-01 4.483170e-01 4.031067e-01 3.925706e-01 3.977750e-01 3.586415e-01 3.669852e-01 3.980899e-01 4.293364e-01 4.285031e-01 3.114206e-01 3.302252e-01 2.365330e-01 4.415776e-01 3.207923e-01 5.041608e-01 4.700655e-01 4.406208e-01 3.092724e-01 4.574381e-01 4.859605e-01 4.603793e-01 4.497286e-01 3.450255e-01 3.399209e-01 2.823540e-01 2.803868e-01 3.207983e-01 4.271822e-01 3.548362e-01 3.934822e-01 3.740553e-01 3.316888e-01 3.662920e-01 3.794545e-01 3.309912e-01 4.310085e-01 3.188840e-01 4.876399e-01 4.646355e-01 4.268485e-01 4.268143e-01 4.703103e-01 4.340166e-01 2.851351e-01 3.969813e-01 4.062285e-01 4.146068e-01 3.403929e-01 3.777488e-01 4.130966e-01 3.962603e-01 4.657689e-01 2.745019e-01 4.268703e-01 5.058560e-01 4.495877e-01 3.827468e-01 4.544079e-01 3.661549e-01 4.371521e-01 4.139282e-01 4.881175e-01
<VARIANCE> 142
 2.000000e-01 2.000000e-01 2.000000e-01 2.000000e-01 2.000000e-01 2.000000e-01 2.000000e-01 2.000000e-01 2.000000e-01 2.000000e-01 2.000000e-01 2.000000e-01 2.000000e-01 2.000000e-01 2.000000e-01 2.000000e-01 2.000000e-01 2.000000e-01 2.000000e-01 2.000000e-01 2.000000e-01 2.000000e-01 2.000000e-01 2.000000e-01 2.000000e-01 2.000000e-01 2.000000e-01 2.000000e-01 2.000000e-01 2.000000e-01 2.000000e-01 2.000000e-01 2.000000e-01 2.000000e-01 2.000000e-01 2.000000e-01 2.000000e-01 2.000000e-01 2.000000e-01 2.000000e-01 2.000000e-01 2.000000e-01 2.000000e-01 2.000000e-01 2.000000e-01 2.000000e-01 2.000000e-01 2.000000e-01 2.000000e-01 2.000000e-01 2.000000e-01 2.000000e-01 2.000000e-01 2.000000e-01 2.000000e-01 2.000000e-01 2.000000e-01 2.000000e-01 2.000000e-01 2.000000e-01 2.000000e-01 2.000000e-01 2.000000e-01 2.000000e-01 2.000000e-01 2.000000e-01 2.000000e-01 2.000000e-01 2.000000e-01 2.000000e-01 2.000000e-01 2.000000e-01 2.000000e-01 2.000000e-01 2.000000e-01 2.000000e-01 2.000000e-01 2.000000e-01 2.000000e-01 2.000000e-01 2.000000e-01 2.000000e-01 2.000000e-01 2.000000e-01 2.000000e-01 2.000000e-01 2.000000e-01 2.000000e-01 2.000000e-01 2.000000e-01 2.000000e-01 2.000000e-01 2.000000e-01 2.000000e-01 2.000000e-01 2.000000e-01 2.000000e-01 2.000000e-01 2.000000e-01 2.000000e-01 2.000000e-01 2.000000e-01 2.000000e-01 2.000000e-01 2.000000e-01 2.000000e-01 2.000000e-01 2.000000e-01 2.000000e-01 2.000000e-01 2.000000e-01 2.000000e-01 2.000000e-01 2.000000e-01 2.000000e-01 2.000000e-01 2.000000e-01 2.000000e-01 2.000000e-01 2.000000e-01 2.000000e-01 2.000000e-01 2.000000e-01 2.000000e-01 2.000000e-01 2.000000e-01 2.000000e-01 2.000000e-01 2.000000e-01 2.000000e-01 2.000000e-01 2.000000e-01 2.000000e-01 2.000000e-01 2.000000e-01 2.000000e-01 2.000000e-01 2.000000e-01 2.000000e-01 2.000000e-01 2.000000e-01 2.000000e-01
<GCONST> 3.243863e+01
<TRANSP> 4
 0.000000e+00 1.000000e+00 0.000000e+00 0.000000e+00
 0.000000e+00 8.650962e-01 1.349038e-01 0.000000e+00
 0.000000e+00 0.000000e+00 8.589027e-01 1.410974e-01
 0.000000e+00 0.000000e+00 0.000000e+00 0.000000e+00
<ENDHMM>
