~o
<STREAMINFO> 1 142
<VECSIZE> 142<NULLD><USER><DIAGC>
~h "apologize"
<BEGINHMM>
<NUMSTATES> 4
<STATE> 2
<MEAN> 142
 4.997307e-01 3.660432e-01 3.829821e-01 5.177721e-01 4.224693e-01 3.418650e-01 4.769906e-01 2.901660e-01 3.762486e-01 3.988014e-01 4.631183e-01 3.458219e-01 3.455893e-01 4.867769e-01 3.939198e-01 3.904841e-01 3.308999e-01 3.457298e-01 3.070990e-01 2.077532e-01 5.628779e-01 5.667808e-01 3.952371e-01 4.838575e-01 5.219650e-01 3.246864e-01 5.682829e-01 3.165873e-01 4.403310e-01 3.570636e-01 5.583588e-01 4.036527e-01 4.309747e-01 4.275381e-01 4.205035e-01 3.344200e-01 4.801473e-01 3.077578e-01 4.149751e-01 4.465779e-01 3.710454e-01 4.311803e-01 3.307100e-01 2.466174e-01 2.666598e-01 3.298787e-01 5.682154e-01 3.563707e-01 5.096017e-01 4.153513e-01 4.901314e-01 2.571013e-01 3.834029e-01 2.195871e-01 4.327558e-01 4.678220e-01 3.963523e-01 3.776322e-01 4.048758e-01 6.408728e-01 3.874015e-01 3.938673e-01 3.804405e-01 3.709947e-01 3.217245e-01 4.751142e-01 2.983839e-01 4.831777e-01 4.967903e-01 3.476254e-01 3.276184e-01 3.660911e-01 3.288720e-01 3.817653e-01 2.981312e-01 3.128126e-01 4.824063e-01 4.913834e-01 4.131412e-01 5.029607e-01 5.197325e-01 3.864907e-01 3.938272e-01 5.011637e-01 4.760950e-01 3.955242e-01 4.196333e-01 4.040686e-01 5.157471e-01 4.451715e-01 3.269246e-01 4.086491e-01 4.362691e-01 3.219794e-01 5.015839e-01 4.188574e-01 4.242794e-01 2.929896e-01 4.517963e-01 4.496982e-01 4.207194e-01 5.109968e-01 3.235727e-01 3.067602e-01 4.249717e-01 2.769478e-01 3.185045e-01 3.232767e-01 5.426552e-01 4.940752e-01 3.279855e-01 3.924775e-01 5.125046e-01 3.817512e-01 3.241178e-01 3.171929e-01 3.708756e-01 5.583832e-01 4.112479e-01 4.253917e-01 3.876914e-01 4.007298e-01 4.293234e-01 3.362420e-01 3.289273e-01 3.116840e-01 4.075322e-01 3.621787e-01 2.890513e-01 3.548685e-01 4.113279e-01 4.497049e-01 2.737638e-01 3.999377e-01 4.106139e-01 5.452005e-01 4.288530e-01 4.515980e-01 4.386619e-01 4.510328e-01 4.244041e-01 4.453207e-01
<VARIANCE> 142
 2.000000e-01 2.000000e-01 2.000000e-01 2.000000e-01 2.000000e-01 2.000000e-01 2.000000e-01 2.000000e-01 2.000000e-01 2.000000e-01 2.000000e-01 2.000000e-01 2.000000e-01 2.000000e-01 2.000000e-01 2.000000e-01 2.000000e-01 2.000000e-01 2.000000e-01 2.000000e-01 2.000000e-01 2.000000e-01 2.000000e-01 2.000000e-01 2.000000e-01 2.000000e-01 2.000000e-01 2.000000e-01 2.000000e-01 2.000000e-01 2.000000e-01 2.000000e-01 2.000000e-01 2.000000e-01 2.000000e-01 2.000000e-01 2.000000e-01 2.000000e-01 2.000000e-01 2.000000e-01 2.000000e-01 2.000000e-01 2.000000e-01 2.000000e-01 2.000000e-01 2.000000e-01 2.000000e-01 2.000000e-01 2.000000e-01 2.000000e-01 2.000000e-01 2.000000e-01 2.000000e-01 2.000000e-01 2.000000e-01 2.000000e-01 2.000000e-01 2.000000e-01 2.000000e-01 2.000000e-01 2.000000e-01 2.000000e-01 2.000000e-01 2.000000e-01 2.000000e-01 2.000000e-01 2.000000e-01 2.000000e-01 2.000000e-01 2.000000e-01 2.000000e-01 2.000000e-01 2.000000e-01 2.000000e-01 2.000000e-01 2.000000e-01 2.000000e-01 2.000000e-01 2.000000e-01 2.000000e-01 2.000000e-01 2.000000e-01 2.000000e-01 2.000000e-01 2.000000e-01 2.000000e-01 2.000000e-01 2.000000e-01 2.000000e-01 2.000000e-01 2.000000e-01 2.000000e-01 2.000000e-01 2.000000e-01 2.000000e-01 2.000000e-01 2.000000e-01 2.000000e-01 2.000000e-01 2.000000e-01 2.000000e-01 2.000000e-01 2.000000e-01 2.000000e-01 2.000000e-01 2.000000e-01 2.000000e-01 2.000000e-01 2.000000e-01 2.000000e-01 2.000000e-01 2.000000e-01 2.000000e-01 2.000000e-01 2.000000e-01 2.000000e-01 2.000000e-01 2.000000e-01 2.000000e-01 2.000000e-01 2.000000e-01 2.000000e-01 2.000000e-01 2.000000e-01 2.000000e-01 2.000000e-01 2.000000e-01 2.000000e-01 2.000000e-01 2.000000e-01 2.000000e-01 2.000000e-01 2.000000e-01 2.000000e-01 2.000000e-01 2.000000e-01 2.000000e-01 2.000000e-01 2.000000e-01 2.000000e-01 2.000000e-01 2.000000e-01
<GCONST> 3.243863e+01
<STATE> 3
<MEAN> 142
 5.830479e-01 3.158489e-01 3.293335e-01 3.213274e-01 2.942815e-01 3.602216e-01 3.757117e-01 4.273534e-01 3.156822e-01 4.294311e-01 5.935600e-01 4.075357e-01 4.206536e-01 6.594955e-01 4.990324e-01 4.047342e-01 4.449473e-01 4.508121e-01 3.088686e-01 3.305180e-01 5.742327e-01 5.819563e-01 4.223983e-01 5.776997e-01 5.385898e-01 3.616952e-01 5.041716e-01 3.365880e-01 5.099929e-01 3.902900e-01 5.703723e-01 4.606642e-01 2.871150e-01 4.936062e-01 4.379691e-01 4.354250e-01 4.326240e-01 5.005391e-01 4.929368e-01 3.596178e-01 3.695792e-01 5.193402e-01 2.672781e-01 4.537249e-01 1.660736e-01 2.929275e-01 5.291529e-01 4.791182e-01 5.342360e-01 3.646281e-01 5.090585e-01 4.824705e-01 5.412167e-01 2.060475e-01 3.891772e-01 3.273994e-01 5.911534e-01 3.807597e-01 4.132321e-01 4.210080e-01 4.153876e-01 4.101866e-01 3.418964e-01 3.724624e-01 3.055593e-01 3.973939e-01 4.880314e-01 4.621652e-01 3.350454e-01 4.682522e-01 3.999223e-01 2.808520e-01 4.201734e-01 4.725805e-01 2.791339e-01 3.475103e-01 3.557082e-01 3.832376e-01 5.271181e-01 4.907216e-01 4.566066e-01 4.717619e-01 5.580986e-01 4.458866e-01 3.550289e-01 3.466103e-01 3.377909e-01 3.869237e-01 4.741136e-01 3.357339e-01 3.488370e-01 3.286864e-01 4.434402e-01 3.210113e-01 3.794854e-01 4.186272e-01 4.107415e-01 3.290153e-01 4.886132e-01 3.846790e-01 4.292858e-01 5.251446e-01 2.638158e-01 3.344389e-01 4.762433e-01 3.670926e-01 4.378524e-01 4.056692e-01 4.795694e-01 3.891983e-01 3.772466e-01 3.604317e-01 2.751593e-01 3.914528e-01 3.087876e-01 2.904015e-01 4.276546e-01 4.797200e-01 3.245170e-01 4.799709e-01 4.822854e-01 4.577039e-01 3.879771e-01 3.004472e-01 4.834406e-01 3.874763e-01 4.065700e-01 4.152091e-01 2.996886e-01 4.702942e-01 3.598531e-01 4.416344e-01 2.852535e-01 4.895552e-01 4.511517e-01 4.588794e-01 4.517494e-01 4.956228e-01 4.149397e-01 4.308766e-01 4.407864e-01 3.610796e-01
<VARIANCE> 142
 2.000000e-01 2.000000e-01 2.000000e-01 2.000000e-01 2.000000e-01 2.000000e-01 2.000000e-01 2.000000e-01 2.000000e-01 2.000000e-01 2.000000e-01 2.000000e-01 2.000000e-01 2.000000e-01 2.000000e-01 2.000000e-01 2.000000e-01 2.000000e-01 2.000000e-01 2.000000e-01 2.000000e-01 2.000000e-01 2.000000e-01 2.000000e-01 2.000000e-01 2.000000e-01 2.000000e-01 2.000000e-01 2.000000e-01 2.000000e-01 2.000000e-01 2.000000e-01 2.000000e-01 2.000000e-01 2.000000e-01 2.000000e-01 2.000000e-01 2.000000e-01 2.000000e-01 2.000000e-01 2.000000e-01 2.000000e-01 2.000000e-01 2.000000e-01 2.000000e-01 2.000000e-01 2.000000e-01 2.000000e-01 2.000000e-01 2.000000e-01 2.000000e-01 2.000000e-01 2.000000e-01 2.000000e-01 2.000000e-01 2.000000e-01 2.000000e-01 2.000000e-01 2.000000e-01 2.000000e-01 2.000000e-01 2.000000e-01 2.000000e-01 2.000000e-01 2.000000e-01 2.000000e-01 2.000000e-01 2.000000e-01 2.000000e-01 2.000000e-01 2.000000e-01 2.000000e-01 2.000000e-01 2.000000e-01 2.000000e-01 2.000000e-01 2.000000e-01 2.000000e-01 2.000000e-01 2.000000e-01 2.000000e-01 2.000000e-01 2.000000e-01 2.000000e-01 2.000000e-01 2.000000e-01 2.000000e-01 2.000000e-01 2.000000e-01 2.000000e-01 2.000000e-01 2.000000e-01 2.000000e-01 2.000000e-01 2.000000e-01 2.000000e-01 2.000000e-01 2.000000e-01 2.000000e-01 2.000000e-01 2.000000e-01 2.000000e-01 2.000000e-01 2.000000e-01 2.000000e-01 2.000000e-01 2.000000e-01 2.000000e-01 2.000000e-01 2.000000e-01 2.000000e-01 2.000000e-01 2.000000e-01 2.000000e-01 2.000000e-01 2.000000e-01 2.000000e-01 2.000000e-01 2.000000e-01 2.000000e-01 2.000000e-01 2.000000e-01 2.000000e-01 2.000000e-01 2.000000e-01 2.000000e-01 2.000000e-01 2.000000e-01 2.000000e-01 2.000000e-01 2.000000e-01 2.000000e-01 2.000000e-01 2.000000e-01 2.000000e-01 2.000000e-01 2.000000e-01 2.000000e-01 2.000000e-01 2.000000e-01 2.000000e-01 2.000000e-01
<GCONST> 3.243863e+01
<TRANSP> 4
 0.000000e+00 1.000000e+00 0.000000e+00 0.000000e+00
 0.000000e+00 8.764462e-01 1.235539e-01 0.000000e+00
 0.000000e+00 0.000000e+00 8.306912e-01 1.693088e-01
 0.000000e+00 0.000000e+00 0.000000e+00 0.000000e+00
<ENDHMM>
