~o
<STREAMINFO> 1 142
<VECSIZE> 142<NULLD><USER><DIAGC>
~h "appreciate"
<BEGINHMM>
<NUMSTATES> 4
<STATE> 2
<MEAN> 142
 6.146402e-01 3.621001e-01 3.047632e-01 2.553341e-01 2.158384e-01 2.894320e-01 3.098305e-01 3.948286e-01 3.744921e-01 4.265033e-01 4.651010e-01 4.228899e-01 3.804328e-01 5.164816e-01 3.072784e-01 3.229284e-01 4.394576e-01 3.890268e-01 2.956618e-01 3.850213e-01 4.736859e-01 4.554491e-01 3.810186e-01 4.834066e-01 4.598105e-01 4.500127e-01 3.927822e-01 3.627235e-01 4.474321e-01 3.686399e-01 5.192823e-01 4.782246e-01 3.713914e-01 4.335666e-01 4.519072e-01 3.003747e-01 3.094626e-01 2.679952e-01 2.896814e-01 2.789677e-01 3.168478e-01 4.241372e-01 2.963346e-01 3.294320e-01 1.769403e-01 3.779308e-01 3.938149e-01 4.149839e-01 3.484755e-01 3.389109e-01 4.125004e-01 3.398126e-01 4.660878e-01 2.362556e-01 3.925714e-01 3.885670e-01 3.699800e-01 3.040408e-01 2.653754e-01 2.666840e-01 3.519112e-01 4.543453e-01 3.655099e-01 4.553455e-01 3.612326e-01 4.256255e-01 2.589209e-01 3.046961e-01 3.370304e-01 3.019944e-01 4.802181e-01 4.036257e-01 4.447576e-01 4.479996e-01 3.117546e-01 3.440123e-01 3.919039e-01 4.404037e-01 4.492420e-01 3.948909e-01 3.962949e-01 3.516730e-01 3.156547e-01 3.571949e-01 3.100523e-01 3.626596e-01 4.029566e-01 3.727456e-01 4.232015e-01 2.699152e-01 3.287585e-01 2.686021e-01 3.984801e-01 2.823724e-01 3.979828e-01 4.712196e-01 4.018528e-01 2.701099e-01 4.239002e-01 4.811604e-01 3.675374e-01 4.807850e-01 3.315458e-01 2.921742e-01 3.029233e-01 2.725330e-01 3.221337e-01 3.297012e-01 3.556992e-01 3.487424e-01 3.823969e-01 3.310238e-01 3.062879e-01 3.090136e-01 3.276889e-01 3.870263e-01 3.732807e-01 4.151632e-01 4.102018e-01 4.307061e-01 4.162347e-01 5.164990e-01 4.073866e-01 2.469384e-01 4.471259e-01 3.942979e-01 3.752687e-01 2.846607e-01 3.233093e-01 4.322426e-01 3.581571e-01 3.503198e-01 2.754413e-01 4.184071e-01 3.680656e-01 3.181421e-01 4.132922e-01 3.714427e-01 2.634012e-01 4.225160e-01 4.100872e-01 4.923761e-01
<VARIANCE> 142
 2.000000e-01 2.000000e-01 2.000000e-01 2.000000e-01 2.000000e-01 2.000000e-01 2.000000e-01 2.000000e-01 2.000000e-01 2.000000e-01 2.000000e-01 2.000000e-01 2.000000e-01 2.000000e-01 2.000000e-01 2.000000e-01 2.000000e-01 2.000000e-01 2.000000e-01 2.000000e-01 2.000000e-01 2.000000e-01 2.000000e-01 2.000000e-01 2.000000e-01 2.000000e-01 2.000000e-01 2.000000e-01 2.000000e-01 2.000000e-01 2.000000e-01 2.000000e-01 2.000000e-01 2.000000e-01 2.000000e-01 2.000000e-01 2.000000e-01 2.000000e-01 2.000000e-01 2.000000e-01 2.000000e-01 2.000000e-01 2.000000e-01 2.000000e-01 2.000000e-01 2.000000e-01 2.000000e-01 2.000000e-01 2.000000e-01 2.000000e-01 2.000000e-01 2.000000e-01 2.000000e-01 2.000000e-01 2.000000e-01 2.000000e-01 2.000000e-01 2.000000e-01 2.000000e-01 2.000000e-01 2.000000e-01 2.000000e-01 2.000000e-01 2.000000e-01 2.000000e-01 2.000000e-01 2.000000e-01 2.000000e-01 2.000000e-01 2.000000e-01 2.000000e-01 2.000000e-01 2.000000e-01 2.000000e-01 2.000000e-01 2.000000e-01 2.000000e-01 2.000000e-01 2.000000e-01 2.000000e-01 2.000000e-01 2.000000e-01 2.000000e-01 2.000000e-01 2.000000e-01 2.000000e-01 2.000000e-01 2.000000e-01 2.000000e-01 2.000000e-01 2.000000e-01 2.000000e-01 2.000000e-01 2.000000e-01 2.000000e-01 2.000000e-01 2.000000e-01 2.000000e-01 2.000000e-01 2.000000e-01 2.000000e-01 2.000000e-01 2.000000e-01 2.000000e-01 2.000000e-01 2.000000e-01 2.000000e-01 2.000000e-01 2.000000e-01 2.000000e-01 2.000000e-01 2.000000e-01 2.000000e-01 2.000000e-01 2.000000e-01 2.000000e-01 2.000000e-01 2.000000e-01 2.000000e-01 2.000000e-01 2.000000e-01 2.000000e-01 2.000000e-01 2.000000e-01 2.000000e-01 2.000000e-01 2.000000e-01 2.000000e-01 2.000000e-01 2.000000e-01 2.000000e-01 2.000000e-01 2.000000e-01 2.000000e-01 2.000000e-01 2.000000e-01 2.000000e-01 2.000000e-01 2.000000e-01 2.000000e-01 2.000000e-01 2.000000e-01
<GCONST> 3.243863e+01
<STATE> 3
<MEAN> 142
 7.274947e-01 3.482946e-01 4.246759e-01 3.390783e-01 2.584179e-01 4.197371e-01 3.956533e-01 4.040966e-01 3.661913e-01 3.926846e-01 6.071124e-01 4.733264e-01 5.159474e-01 6.464601e-01 3.191759e-01 3.232090e-01 3.184439e-01 3.544532e-01 4.148712e-01 4.805343e-01 5.201054e-01 5.234438e-01 4.871262e-01 4.667934e-01 5.383799e-01 4.080998e-01 4.902269e-01 3.922953e-01 4.169087e-01 3.580066e-01 5.240961e-01 4.144221e-01 3.833441e-01 4.654953e-01 4.914764e-01 3.323673e-01 3.762662e-01 4.330337e-01 3.223931e-01 2.771152e-01 3.787404e-01 4.077837e-01 3.371782e-01 4.158702e-01 1.813687e-01 3.832071e-01 5.297213e-01 4.633896e-01 4.266256e-01 4.160098e-01 4.880777e-01 4.666244e-01 4.611492e-01 2.954147e-01 4.820006e-01 3.216643e-01 5.606681e-01 4.125815e-01 4.473343e-01 3.457692e-01 4.830149e-01 4.133679e-01 3.658161e-01 4.651134e-01 4.038423e-01 4.192357e-01 4.338792e-01 4.434556e-01 4.283313e-01 4.138096e-01 5.319862e-01 4.677801e-01 4.161431e-01 4.716007e-01 4.424380e-01 4.524075e-01 4.610899e-01 4.253488e-01 4.940500e-01 4.211836e-01 4.087251e-01 3.391702e-01 3.617737e-01 4.586193e-01 3.023278e-01 4.204184e-01 4.915772e-01 5.178454e-01 4.333680e-01 3.292229e-01 3.546216e-01 3.622158e-01 3.836718e-01 4.255834e-01 3.907352e-01 4.650095e-01 4.211864e-01 3.869651e-01 4.318034e-01 4.342473e-01 4.215229e-01 4.952435e-01 4.087829e-01 3.420567e-01 4.400728e-01 4.274986e-01 4.422322e-01 4.236400e-01 5.238076e-01 3.987778e-01 4.464076e-01 4.085035e-01 2.884960e-01 2.922456e-01 3.402462e-01 4.522947e-01 3.889318e-01 4.317670e-01 4.288582e-01 4.871980e-01 4.392793e-01 5.247770e-01 4.739768e-01 3.672434e-01 5.094411e-01 4.318797e-01 3.831701e-01 3.712266e-01 3.845968e-01 4.749388e-01 3.973157e-01 4.104635e-01 4.542231e-01 4.913741e-01 3.266346e-01 4.299598e-01 4.175580e-01 3.829930e-01 2.941542e-01 3.552205e-01 4.465783e-01 5.113173e-01
<VARIANCE> 142
 2.000000e-01 2.000000e-01 2.000000e-01 2.000000e-01 2.000000e-01 2.000000e-01 2.000000e-01 2.000000e-01 2.000000e-01 2.000000e-01 2.000000e-01 2.000000e-01 2.000000e-01 2.000000e-01 2.000000e-01 2.000000e-01 2.000000e-01 2.000000e-01 2.000000e-01 2.000000e-01 2.000000e-01 2.000000e-01 2.000000e-01 2.000000e-01 2.000000e-01 2.000000e-01 2.000000e-01 2.000000e-01 2.000000e-01 2.000000e-01 2.000000e-01 2.000000e-01 2.000000e-01 2.000000e-01 2.000000e-01 2.000000e-01 2.000000e-01 2.000000e-01 2.000000e-01 2.000000e-01 2.000000e-01 2.000000e-01 2.000000e-01 2.000000e-01 2.000000e-01 2.000000e-01 2.000000e-01 2.000000e-01 2.000000e-01 2.000000e-01 2.000000e-01 2.000000e-01 2.000000e-01 2.000000e-01 2.000000e-01 2.000000e-01 2.000000e-01 2.000000e-01 2.000000e-01 2.000000e-01 2.000000e-01 2.000000e-01 2.000000e-01 2.000000e-01 2.000000e-01 2.000000e-01 2.000000e-01 2.000000e-01 2.000000e-01 2.000000e-01 2.000000e-01 2.000000e-01 2.000000e-01 2.000000e-01 2.000000e-01 2.000000e-01 2.000000e-01 2.000000e-01 2.000000e-01 2.000000e-01 2.000000e-01 2.000000e-01 2.000000e-01 2.000000e-01 2.000000e-01 2.000000e-01 2.000000e-01 2.000000e-01 2.000000e-01 2.000000e-01 2.000000e-01 2.000000e-01 2.000000e-01 2.000000e-01 2.000000e-01 2.000000e-01 2.000000e-01 2.000000e-01 2.000000e-01 2.000000e-01 2.000000e-01 2.000000e-01 2.000000e-01 2.000000e-01 2.000000e-01 2.000000e-01 2.000000e-01 2.000000e-01 2.000000e-01 2.000000e-01 2.000000e-01 2.000000e-01 2.000000e-01 2.000000e-01 2.000000e-01 2.000000e-01 2.000000e-01 2.000000e-01 2.000000e-01 2.000000e-01 2.000000e-01 2.000000e-01 2.000000e-01 2.000000e-01 2.000000e-01 2.000000e-01 2.000000e-01 2.000000e-01 2.000000e-01 2.000000e-01 2.000000e-01 2.000000e-01 2.000000e-01 2.000000e-01 2.000000e-01 2.000000e-01 2.000000e-01 2.000000e-01 2.000000e-01 2.000000e-01 2.000000e-01 2.000000e-01
<GCONST> 3.243863e+01
<TRANSP> 4
 0.000000e+00 1.000000e+00 0.000000e+00 0.000000e+00
 0.000000e+00 8.445724e-01 1.554276e-01 0.000000e+00
 0.000000e+00 0.000000e+00 8.884692e-01 1.115308e-01
 0.000000e+00 0.000000e+00 0.000000e+00 0.000000e+00
<ENDHMM>
