~o
<STREAMINFO> 1 142
<VECSIZE> 142<NULLD><USER><DIAGC>
~h "bald"
<BEGINHMM>
<NUMSTATES> 4
<STATE> 2
<MEAN> 142
 5.283713e-01 2.907653e-01 3.089169e-01 3.968388e-01 3.724025e-01 4.030692e-01 5.072576e-01 4.233585e-01 4.314665e-01 3.896971e-01 3.894266e-01 4.212613e-01 4.323810e-01 4.284833e-01 4.411281e-01 5.225106e-01 4.215772e-01 3.277105e-01 3.205687e-01 4.481691e-01 4.972973e-01 4.548735e-01 3.827922e-01 4.598821e-01 4.192033e-01 4.886749e-01 3.513319e-01 3.719011e-01 3.601358e-01 4.474491e-01 4.838549e-01 4.242629e-01 4.612432e-01 4.483275e-01 3.953421e-01 3.898032e-01 3.561541e-01 4.364801e-01 3.490818e-01 6.538308e-01 4.487836e-01 3.866991e-01 3.069890e-01 3.494164e-01 3.127800e-01 3.460079e-01 4.669944e-01 5.719873e-01 5.049748e-01 3.197279e-01 5.376255e-01 4.897567e-01 4.138290e-01 3.937452e-01 4.789940e-01 3.470631e-01 3.218789e-01 3.701329e-01 3.555019e-01 4.130988e-01 5.929856e-01 4.491327e-01 3.453156e-01 3.788357e-01 4.318231e-01 4.904509e-01 4.872935e-01 4.904244e-01 4.284830e-01 3.930069e-01 5.025816e-01 3.906083e-01 3.609088e-01 3.897236e-01 3.727970e-01 4.825079e-01 4.763828e-01 4.338056e-01 4.556465e-01 4.638492e-01 4.432922e-01 3.516770e-01 4.527680e-01 3.987190e-01 5.044705e-01 4.802898e-01 4.552060e-01 4.208867e-01 4.486813e-01 4.225433e-01 2.882172e-01 4.318202e-01 4.283938e-01 3.313846e-01 4.059822e-01 4.680541e-01 4.786469e-01 3.357747e-01 5.024564e-01 4.819005e-01 3.859735e-01 4.174327e-01 3.717954e-01 3.850809e-01 3.795197e-01 3.001790e-01 3.556217e-01 4.202729e-01 4.109227e-01 4.831990e-01 3.586902e-01 3.310872e-01 5.166702e-01 3.097963e-01 3.091003e-01 4.486592e-01 2.854816e-01 4.592320e-01 4.035138e-01 3.921902e-01 3.982004e-01 4.229180e-01 4.182479e-01 3.489126e-01 4.199737e-01 3.227389e-01 3.657029e-01 3.497770e-01 2.194385e-01 4.019054e-01 5.917009e-01 3.795807e-01 4.241772e-01 4.667656e-01 4.073091e-01 4.506449e-01 5.641338e-01 4.965618e-01 6.807624e-01 3.737067e-01 4.098871e-01 4.629695e-01
<VARIANCE> 142
 2.000000e-01 2.000000e-01 2.000000e-01 2.000000e-01 2.000000e-01 2.000000e-01 2.000000e-01 2.000000e-01 2.000000e-01 2.000000e-01 2.000000e-01 2.000000e-01 2.000000e-01 2.000000e-01 2.000000e-01 2.000000e-01 2.000000e-01 2.000000e-01 2.000000e-01 2.000000e-01 2.000000e-01 2.000000e-01 2.000000e-01 2.000000e-01 2.000000e-01 2.000000e-01 2.000000e-01 2.000000e-01 2.000000e-01 2.000000e-01 2.000000e-01 2.000000e-01 2.000000e-01 2.000000e-01 2.000000e-01 2.000000e-01 2.000000e-01 2.000000e-01 2.000000e-01 2.000000e-01 2.000000e-01 2.000000e-01 2.000000e-01 2.000000e-01 2.000000e-01 2.000000e-01 2.000000e-01 2.000000e-01 2.000000e-01 2.000000e-01 2.000000e-01 2.000000e-01 2.000000e-01 2.000000e-01 2.000000e-01 2.000000e-01 2.000000e-01 2.000000e-01 2.000000e-01 2.000000e-01 2.000000e-01 2.000000e-01 2.000000e-01 2.000000e-01 2.000000e-01 2.000000e-01 2.000000e-01 2.000000e-01 2.000000e-01 2.000000e-01 2.000000e-01 2.000000e-01 2.000000e-01 2.000000e-01 2.000000e-01 2.000000e-01 2.000000e-01 2.000000e-01 2.000000e-01 2.000000e-01 2.000000e-01 2.000000e-01 2.000000e-01 2.000000e-01 2.000000e-01 2.000000e-01 2.000000e-01 2.000000e-01 2.000000e-01 2.000000e-01 2.000000e-01 2.000000e-01 2.000000e-01 2.000000e-01 2.000000e-01 2.000000e-01 2.000000e-01 2.000000e-01 2.000000e-01 2.000000e-01 2.000000e-01 2.000000e-01 2.000000e-01 2.000000e-01 2.000000e-01 2.000000e-01 2.000000e-01 2.000000e-01 2.000000e-01 2.000000e-01 2.000000e-01 2.000000e-01 2.000000e-01 2.000000e-01 2.000000e-01 2.000000e-01 2.000000e-01 2.000000e-01 2.000000e-01 2.000000e-01 2.000000e-01 2.000000e-01 2.000000e-01 2.000000e-01 2.000000e-01 2.000000e-01 2.000000e-01 2.000000e-01 2.000000e-01 2.000000e-01 2.000000e-01 2.000000e-01 2.000000e-01 2.000000e-01 2.000000e-01 2.000000e-01 2.000000e-01 2.000000e-01 2.000000e-01 2.000000e-01 2.000000e-01 2.000000e-01
<GCONST> 3.243863e+01
<STATE> 3
<MEAN> 142
 6.295732e-01 3.412617e-01 3.197807e-01 3.319425e-01 2.853262e-01 2.917992e-01 3.820515e-01 2.948091e-01 3.404373e-01 3.971828e-01 4.096372e-01 4.083924e-01 3.512726e-01 4.484312e-01 3.405721e-01 3.231729e-01 3.717369e-01 3.904131e-01 3.094783e-01 3.081613e-01 4.258264e-01 4.518227e-01 3.558554e-01 4.459872e-01 4.432824e-01 3.573905e-01 4.213462e-01 4.217188e-01 4.133516e-01 3.661632e-01 4.666470e-01 3.858870e-01 3.875579e-01 4.211384e-01 4.271290e-01 3.277145e-01 3.768817e-01 3.306100e-01 3.264245e-01 3.230295e-01 3.663672e-01 3.885041e-01 3.109613e-01 2.949731e-01 2.154084e-01 3.869466e-01 4.174466e-01 3.909268e-01 3.829554e-01 3.251636e-01 4.754851e-01 3.395445e-01 4.105818e-01 2.660968e-01 4.461656e-01 3.628976e-01 4.314206e-01 3.219309e-01 3.630468e-01 3.515412e-01 4.194753e-01 4.477108e-01 3.455935e-01 3.682282e-01 4.131888e-01 4.063735e-01 3.427359e-01 3.921233e-01 4.525321e-01 3.715425e-01 4.289771e-01 4.240592e-01 3.761142e-01 3.622276e-01 3.111029e-01 3.379928e-01 4.629619e-01 4.119603e-01 4.495446e-01 3.935237e-01 4.497783e-01 3.795485e-01 3.664620e-01 4.560818e-01 3.428656e-01 4.068263e-01 4.089792e-01 4.248719e-01 4.780008e-01 4.036004e-01 3.551065e-01 3.392954e-01 4.092988e-01 3.695416e-01 3.990572e-01 4.480496e-01 4.108665e-01 3.328275e-01 4.114638e-01 4.137565e-01 3.775688e-01 4.415758e-01 3.531817e-01 3.314890e-01 3.214372e-01 2.708586e-01 3.791273e-01 3.602617e-01 3.912125e-01 3.318816e-01 3.840014e-01 3.824785e-01 3.081241e-01 3.211652e-01 3.881779e-01 4.058445e-01 3.850190e-01 3.986579e-01 4.247762e-01 3.968001e-01 3.925799e-01 4.630601e-01 4.464492e-01 4.441560e-01 3.767198e-01 3.940121e-01 4.295581e-01 3.362845e-01 3.239202e-01 3.745849e-01 3.767794e-01 4.143216e-01 3.827680e-01 3.742338e-01 4.060290e-01 4.122855e-01 4.017772e-01 4.382423e-01 3.594784e-01 3.832158e-01 3.899512e-01 4.076563e-01
<VARIANCE> 142
 2.000000e-01 2.000000e-01 2.000000e-01 2.000000e-01 2.000000e-01 2.000000e-01 2.000000e-01 2.000000e-01 2.000000e-01 2.000000e-01 2.000000e-01 2.000000e-01 2.000000e-01 2.000000e-01 2.000000e-01 2.000000e-01 2.000000e-01 2.000000e-01 2.000000e-01 2.000000e-01 2.000000e-01 2.000000e-01 2.000000e-01 2.000000e-01 2.000000e-01 2.000000e-01 2.000000e-01 2.000000e-01 2.000000e-01 2.000000e-01 2.000000e-01 2.000000e-01 2.000000e-01 2.000000e-01 2.000000e-01 2.000000e-01 2.000000e-01 2.000000e-01 2.000000e-01 2.000000e-01 2.000000e-01 2.000000e-01 2.000000e-01 2.000000e-01 2.000000e-01 2.000000e-01 2.000000e-01 2.000000e-01 2.000000e-01 2.000000e-01 2.000000e-01 2.000000e-01 2.000000e-01 2.000000e-01 2.000000e-01 2.000000e-01 2.000000e-01 2.000000e-01 2.000000e-01 2.000000e-01 2.000000e-01 2.000000e-01 2.000000e-01 2.000000e-01 2.000000e-01 2.000000e-01 2.000000e-01 2.000000e-01 2.000000e-01 2.000000e-01 2.000000e-01 2.000000e-01 2.000000e-01 2.000000e-01 2.000000e-01 2.000000e-01 2.000000e-01 2.000000e-01 2.000000e-01 2.000000e-01 2.000000e-01 2.000000e-01 2.000000e-01 2.000000e-01 2.000000e-01 2.000000e-01 2.000000e-01 2.000000e-01 2.000000e-01 2.000000e-01 2.000000e-01 2.000000e-01 2.000000e-01 2.000000e-01 2.000000e-01 2.000000e-01 2.000000e-01 2.000000e-01 2.000000e-01 2.000000e-01 2.000000e-01 2.000000e-01 2.000000e-01 2.000000e-01 2.000000e-01 2.000000e-01 2.000000e-01 2.000000e-01 2.000000e-01 2.000000e-01 2.000000e-01 2.000000e-01 2.000000e-01 2.000000e-01 2.000000e-01 2.000000e-01 2.000000e-01 2.000000e-01 2.000000e-01 2.000000e-01 2.000000e-01 2.000000e-01 2.000000e-01 2.000000e-01 2.000000e-01 2.000000e-01 2.000000e-01 2.000000e-01 2.000000e-01 2.000000e-01 2.000000e-01 2.000000e-01 2.000000e-01 2.000000e-01 2.000000e-01 2.000000e-01 2.000000e-01 2.000000e-01 2.000000e-01 2.000000e-01 2.000000e-01 2.000000e-01
<GCONST> 3.243863e+01
<TRANSP> 4
 0.000000e+00 1.000000e+00 0.000000e+00 0.000000e+00
 0.000000e+00 8.402119e-01 1.597882e-01 0.000000e+00
 0.000000e+00 0.000000e+00 8.856061e-01 1.143940e-01
 0.000000e+00 0.000000e+00 0.000000e+00 0.000000e+00
<ENDHMM>
