~o
<STREAMINFO> 1 142
<VECSIZE> 142<NULLD><USER><DIAGC>
~h "believe"
<BEGINHMM>
<NUMSTATES> 4
<STATE> 2
<MEAN> 142
 6.590040e-01 3.842251e-01 4.086522e-01 3.477821e-01 3.426580e-01 3.339795e-01 4.998518e-01 3.850233e-01 3.916577e-01 3.621239e-01 4.754530e-01 4.427962e-01 4.083816e-01 5.032557e-01 3.003223e-01 3.963425e-01 4.075188e-01 3.863223e-01 3.319502e-01 4.535424e-01 5.077779e-01 4.847583e-01 4.137437e-01 4.835002e-01 4.452115e-01 4.129310e-01 4.303077e-01 3.992890e-01 4.091687e-01 3.649035e-01 4.634647e-01 4.505726e-01 5.162026e-01 4.449731e-01 4.319520e-01 3.211800e-01 3.143279e-01 2.691441e-01 3.386930e-01 3.444459e-01 3.152853e-01 4.472349e-01 2.756349e-01 3.739679e-01 2.878530e-01 4.010029e-01 4.643231e-01 4.260353e-01 4.327625e-01 3.497151e-01 4.979193e-01 4.035672e-01 4.061729e-01 2.821960e-01 4.814636e-01 4.000638e-01 4.096468e-01 3.627530e-01 3.557017e-01 3.391518e-01 5.493581e-01 4.893297e-01 4.223044e-01 3.805927e-01 3.692096e-01 4.984443e-01 2.979936e-01 4.475152e-01 4.504937e-01 3.105505e-01 4.899700e-01 4.332469e-01 4.258447e-01 4.417854e-01 3.750085e-01 3.898401e-01 4.680353e-01 4.306470e-01 4.503733e-01 4.696108e-01 4.341500e-01 3.829937e-01 3.428828e-01 4.264081e-01 3.756715e-01 4.868411e-01 3.752725e-01 4.217272e-01 4.761189e-01 3.482580e-01 3.499409e-01 3.700995e-01 4.148721e-01 3.511318e-01 4.271933e-01 4.537783e-01 4.453140e-01 3.002015e-01 4.148635e-01 4.806429e-01 3.713346e-01 5.004681e-01 3.863565e-01 3.365405e-01 3.301460e-01 3.393941e-01 3.681271e-01 3.823403e-01 4.225936e-01 4.121739e-01 3.953710e-01 3.603966e-01 4.089983e-01 3.172878e-01 3.344493e-01 3.859584e-01 3.582937e-01 4.406865e-01 4.581518e-01 4.497372e-01 4.298331e-01 5.152041e-01 4.874435e-01 3.592390e-01 4.579075e-01 4.138096e-01 3.664995e-01 3.309575e-01 3.138956e-01 4.325117e-01 4.476389e-01 3.592880e-01 3.807878e-01 4.379560e-01 3.360276e-01 3.814439e-01 5.403449e-01 4.048127e-01 4.014801e-01 4.034367e-01 4.773311e-01 5.064754e-01
<VARIANCE> 142
 2.000000e-01 2.000000e-01 2.000000e-01 2.000000e-01 2.000000e-01 2.000000e-01 2.000000e-01 2.000000e-01 2.000000e-01 2.000000e-01 2.000000e-01 2.000000e-01 2.000000e-01 2.000000e-01 2.000000e-01 2.000000e-01 2.000000e-01 2.000000e-01 2.000000e-01 2.000000e-01 2.000000e-01 2.000000e-01 2.000000e-01 2.000000e-01 2.000000e-01 2.000000e-01 2.000000e-01 2.000000e-01 2.000000e-01 2.000000e-01 2.000000e-01 2.000000e-01 2.000000e-01 2.000000e-01 2.000000e-01 2.000000e-01 2.000000e-01 2.000000e-01 2.000000e-01 2.000000e-01 2.000000e-01 2.000000e-01 2.000000e-01 2.000000e-01 2.000000e-01 2.000000e-01 2.000000e-01 2.000000e-01 2.000000e-01 2.000000e-01 2.000000e-01 2.000000e-01 2.000000e-01 2.000000e-01 2.000000e-01 2.000000e-01 2.000000e-01 2.000000e-01 2.000000e-01 2.000000e-01 2.000000e-01 2.000000e-01 2.000000e-01 2.000000e-01 2.000000e-01 2.000000e-01 2.000000e-01 2.000000e-01 2.000000e-01 2.000000e-01 2.000000e-01 2.000000e-01 2.000000e-01 2.000000e-01 2.000000e-01 2.000000e-01 2.000000e-01 2.000000e-01 2.000000e-01 2.000000e-01 2.000000e-01 2.000000e-01 2.000000e-01 2.000000e-01 2.000000e-01 2.000000e-01 2.000000e-01 2.000000e-01 2.000000e-01 2.000000e-01 2.000000e-01 2.000000e-01 2.000000e-01 2.000000e-01 2.000000e-01 2.000000e-01 2.000000e-01 2.000000e-01 2.000000e-01 2.000000e-01 2.000000e-01 2.000000e-01 2.000000e-01 2.000000e-01 2.000000e-01 2.000000e-01 2.000000e-01 2.000000e-01 2.000000e-01 2.000000e-01 2.000000e-01 2.000000e-01 2.000000e-01 2.000000e-01 2.000000e-01 2.000000e-01 2.000000e-01 2.000000e-01 2.000000e-01 2.000000e-01 2.000000e-01 2.000000e-01 2.000000e-01 2.000000e-01 2.000000e-01 2.000000e-01 2.000000e-01 2.000000e-01 2.000000e-01 2.000000e-01 2.000000e-01 2.000000e-01 2.000000e-01 2.000000e-01 2.000000e-01 2.000000e-01 2.000000e-01 2.000000e-01 2.000000e-01 2.000000e-01 2.000000e-01 2.000000e-01
<GCONST> 3.243863e+01
<STATE> 3
<MEAN> 142
 4.844564e-01 3.895158e-01 3.077737e-01 3.547049e-01 3.511011e-01 2.170878e-01 2.878463e-01 3.236784e-01 3.706400e-01 4.932082e-01 4.203199e-01 4.705324e-01 3.295197e-01 4.115670e-01 3.441493e-01 3.083826e-01 4.730733e-01 4.612934e-01 3.073374e-01 3.420247e-01 3.674187e-01 4.152962e-01 3.434710e-01 4.772424e-01 4.803759e-01 3.710887e-01 3.984704e-01 4.466027e-01 5.026076e-01 4.573843e-01 4.650144e-01 3.588828e-01 3.124129e-01 5.318385e-01 4.424647e-01 3.639724e-01 3.826891e-01 3.910108e-01 4.752434e-01 3.371602e-01 4.184507e-01 5.119615e-01 4.279464e-01 3.243168e-01 2.461642e-01 4.081770e-01 3.765508e-01 3.535861e-01 3.625161e-01 3.736630e-01 4.708135e-01 4.015162e-01 4.536952e-01 3.072211e-01 3.983388e-01 4.545785e-01 3.498273e-01 2.841540e-01 3.330938e-01 2.965617e-01 3.398012e-01 4.746643e-01 3.611725e-01 4.361475e-01 4.600154e-01 3.693314e-01 3.777362e-01 3.278260e-01 3.214088e-01 4.890231e-01 4.382464e-01 3.673917e-01 3.814997e-01 4.208601e-01 2.409439e-01 3.382581e-01 3.593011e-01 3.851278e-01 4.842472e-01 4.196291e-01 5.105382e-01 3.753988e-01 4.391741e-01 3.537802e-01 3.413281e-01 3.128099e-01 3.929091e-01 4.073342e-01 4.857299e-01 3.668424e-01 4.384505e-01 2.589462e-01 4.304961e-01 4.186481e-01 4.288231e-01 4.569252e-01 4.093571e-01 3.913061e-01 5.083563e-01 4.072284e-01 4.507377e-01 4.412893e-01 3.408147e-01 4.925840e-01 2.871915e-01 3.199683e-01 3.665656e-01 4.619125e-01 2.922262e-01 3.124957e-01 4.249591e-01 4.489227e-01 3.095313e-01 4.368226e-01 3.783289e-01 4.000741e-01 4.452226e-01 3.825226e-01 4.717659e-01 3.817530e-01 4.164857e-01 4.257854e-01 4.103310e-01 4.182241e-01 3.452100e-01 4.196808e-01 4.786888e-01 4.575454e-01 5.088117e-01 3.476209e-01 3.396527e-01 4.442639e-01 3.332594e-01 4.205361e-01 4.107174e-01 4.082878e-01 3.818124e-01 4.206276e-01 3.438277e-01 4.100679e-01 4.796490e-01 3.625834e-01
<VARIANCE> 142
 2.000000e-01 2.000000e-01 2.000000e-01 2.000000e-01 2.000000e-01 2.000000e-01 2.000000e-01 2.000000e-01 2.000000e-01 2.000000e-01 2.000000e-01 2.000000e-01 2.000000e-01 2.000000e-01 2.000000e-01 2.000000e-01 2.000000e-01 2.000000e-01 2.000000e-01 2.000000e-01 2.000000e-01 2.000000e-01 2.000000e-01 2.000000e-01 2.000000e-01 2.000000e-01 2.000000e-01 2.000000e-01 2.000000e-01 2.000000e-01 2.000000e-01 2.000000e-01 2.000000e-01 2.000000e-01 2.000000e-01 2.000000e-01 2.000000e-01 2.000000e-01 2.000000e-01 2.000000e-01 2.000000e-01 2.000000e-01 2.000000e-01 2.000000e-01 2.000000e-01 2.000000e-01 2.000000e-01 2.000000e-01 2.000000e-01 2.000000e-01 2.000000e-01 2.000000e-01 2.000000e-01 2.000000e-01 2.000000e-01 2.000000e-01 2.000000e-01 2.000000e-01 2.000000e-01 2.000000e-01 2.000000e-01 2.000000e-01 2.000000e-01 2.000000e-01 2.000000e-01 2.000000e-01 2.000000e-01 2.000000e-01 2.000000e-01 2.000000e-01 2.000000e-01 2.000000e-01 2.000000e-01 2.000000e-01 2.000000e-01 2.000000e-01 2.000000e-01 2.000000e-01 2.000000e-01 2.000000e-01 2.000000e-01 2.000000e-01 2.000000e-01 2.000000e-01 2.000000e-01 2.000000e-01 2.000000e-01 2.000000e-01 2.000000e-01 2.000000e-01 2.000000e-01 2.000000e-01 2.000000e-01 2.000000e-01 2.000000e-01 2.000000e-01 2.000000e-01 2.000000e-01 2.000000e-01 2.000000e-01 2.000000e-01 2.000000e-01 2.000000e-01 2.000000e-01 2.000000e-01 2.000000e-01 2.000000e-01 2.000000e-01 2.000000e-01 2.000000e-01 2.000000e-01 2.000000e-01 2.000000e-01 2.000000e-01 2.000000e-01 2.000000e-01 2.000000e-01 2.000000e-01 2.000000e-01 2.000000e-01 2.000000e-01 2.000000e-01 2.000000e-01 2.000000e-01 2.000000e-01 2.000000e-01 2.000000e-01 2.000000e-01 2.000000e-01 2.000000e-01 2.000000e-01 2.000000e-01 2.000000e-01 2.000000e-01 2.000000e-01 2.000000e-01 2.000000e-01 2.000000e-01 2.000000e-01 2.000000e-01 2.000000e-01 2.000000e-01
<GCONST> 3.243863e+01
<TRANSP> 4
 0.000000e+00 1.000000e+00 0.000000e+00 0.000000e+00
 0.000000e+00 8.824264e-01 1.175736e-01 0.000000e+00
 0.000000e+00 0.000000e+00 8.520239e-01 1.479761e-01
 0.000000e+00 0.000000e+00 0.000000e+00 0.000000e+00
<ENDHMM>
