~o
<STREAMINFO> 1 142
<VECSIZE> 142<NULLD><USER><DIAGC>
~h "cafeteria"
<BEGINHMM>
<NUMSTATES> 4
<STATE> 2
<MEAN> 142
 7.071709e-01 4.148969e-01 3.913916e-01 3.639373e-01 3.091633e-01 3.222586e-01 3.662964e-01 3.783644e-01 3.351208e-01 4.467542e-01 4.606301e-01 5.040085e-01 3.967848e-01 4.867287e-01 3.106168e-01 3.359101e-01 4.140055e-01 4.760429e-01 3.243105e-01 4.307489e-01 4.135472e-01 4.427067e-01 3.820203e-01 4.855877e-01 4.381085e-01 3.724968e-01 4.379523e-01 4.679908e-01 4.417205e-01 4.111099e-01 4.367025e-01 4.399441e-01 4.234378e-01 4.243735e-01 4.122586e-01 3.981913e-01 3.742347e-01 4.126007e-01 4.198840e-01 3.308946e-01 4.154136e-01 4.883963e-01 3.797278e-01 4.036534e-01 2.598449e-01 4.602103e-01 4.235202e-01 3.864334e-01 3.970648e-01 3.800008e-01 5.119122e-01 4.467547e-01 4.483845e-01 3.112251e-01 5.048635e-01 3.713365e-01 4.774501e-01 3.464417e-01 3.586518e-01 2.802511e-01 4.493391e-01 4.545398e-01 4.116881e-01 4.047930e-01 4.743718e-01 4.420751e-01 3.950508e-01 3.563313e-01 4.109347e-01 4.213988e-01 4.724056e-01 4.397431e-01 4.497367e-01 4.762603e-01 3.569133e-01 4.097174e-01 4.688027e-01 4.927689e-01 4.874893e-01 4.233244e-01 5.322118e-01 4.221023e-01 4.451507e-01 4.081043e-01 3.175686e-01 4.145660e-01 4.087098e-01 4.613534e-01 4.617761e-01 3.697743e-01 4.159512e-01 3.493291e-01 5.275526e-01 3.831230e-01 4.460641e-01 5.436895e-01 4.903552e-01 4.481526e-01 4.838698e-01 4.208275e-01 4.539832e-01 5.033558e-01 3.503435e-01 4.181140e-01 3.222475e-01 2.977447e-01 4.441805e-01 4.280860e-01 4.146828e-01 3.236735e-01 4.256876e-01 4.205945e-01 3.653746e-01 3.959489e-01 3.922877e-01 4.786409e-01 3.924681e-01 4.349108e-01 4.787498e-01 4.192109e-01 4.403523e-01 5.173751e-01 4.890432e-01 4.589273e-01 3.917365e-01 4.546450e-01 4.787027e-01 5.225314e-01 4.332846e-01 3.854613e-01 4.614421e-01 4.857748e-01 5.082040e-01 4.870109e-01 4.019800e-01 4.319871e-01 4.338162e-01 4.474917e-01 3.600093e-01 3.958007e-01 4.845374e-01 4.398176e-01
<VARIANCE> 142
 2.000000e-01 2.000000e-01 2.000000e-01 2.000000e-01 2.000000e-01 2.000000e-01 2.000000e-01 2.000000e-01 2.000000e-01 2.000000e-01 2.000000e-01 2.000000e-01 2.000000e-01 2.000000e-01 2.000000e-01 2.000000e-01 2.000000e-01 2.000000e-01 2.000000e-01 2.000000e-01 2.000000e-01 2.000000e-01 2.000000e-01 2.000000e-01 2.000000e-01 2.000000e-01 2.000000e-01 2.000000e-01 2.000000e-01 2.000000e-01 2.000000e-01 2.000000e-01 2.000000e-01 2.000000e-01 2.000000e-01 2.000000e-01 2.000000e-01 2.000000e-01 2.000000e-01 2.000000e-01 2.000000e-01 2.000000e-01 2.000000e-01 2.000000e-01 2.000000e-01 2.000000e-01 2.000000e-01 2.000000e-01 2.000000e-01 2.000000e-01 2.000000e-01 2.000000e-01 2.000000e-01 2.000000e-01 2.000000e-01 2.000000e-01 2.000000e-01 2.000000e-01 2.000000e-01 2.000000e-01 2.000000e-01 2.000000e-01 2.000000e-01 2.000000e-01 2.000000e-01 2.000000e-01 2.000000e-01 2.000000e-01 2.000000e-01 2.000000e-01 2.000000e-01 2.000000e-01 2.000000e-01 2.000000e-01 2.000000e-01 2.000000e-01 2.000000e-01 2.000000e-01 2.000000e-01 2.000000e-01 2.000000e-01 2.000000e-01 2.000000e-01 2.000000e-01 2.000000e-01 2.000000e-01 2.000000e-01 2.000000e-01 2.000000e-01 2.000000e-01 2.000000e-01 2.000000e-01 2.000000e-01 2.000000e-01 2.000000e-01 2.000000e-01 2.000000e-01 2.000000e-01 2.000000e-01 2.000000e-01 2.000000e-01 2.000000e-01 2.000000e-01 2.000000e-01 2.000000e-01 2.000000e-01 2.000000e-01 2.000000e-01 2.000000e-01 2.000000e-01 2.000000e-01 2.000000e-01 2.000000e-01 2.000000e-01 2.000000e-01 2.000000e-01 2.000000e-01 2.000000e-01 2.000000e-01 2.000000e-01 2.000000e-01 2.000000e-01 2.000000e-01 2.000000e-01 2.000000e-01 2.000000e-01 2.000000e-01 2.000000e-01 2.000000e-01 2.000000e-01 2.000000e-01 2.000000e-01 2.000000e-01 2.000000e-01 2.000000e-01 2.000000e-01 2.000000e-01 2.000000e-01 2.000000e-01 2.000000e-01 2.000000e-01 2.000000e-01
<GCONST> 3.243863e+01
<STATE> 3
<MEAN> 142
 5.317410e-01 3.020804e-01 4.711290e-01 4.581796e-01 4.977567e-01 4.549695e-01 5.611628e-01 3.354268e-01 3.060711e-01 3.588130e-01 4.483112e-01 3.893892e-01 3.675297e-01 4.975917e-01 3.926212e-01 4.865516e-01 3.818040e-01 3.331994e-01 3.557144e-01 4.253795e-01 5.748415e-01 5.189771e-01 4.280737e-01 4.937746e-01 4.925051e-01 3.693790e-01 4.519002e-01 4.446487e-01 3.652848e-01 3.456285e-01 4.920044e-01 3.721765e-01 5.015758e-01 4.772120e-01 4.485223e-01 3.622279e-01 4.256418e-01 2.896740e-01 3.279907e-01 6.020948e-01 3.126316e-01 4.096248e-01 3.201318e-01 3.543959e-01 3.811890e-01 3.914116e-01 5.203112e-01 4.613036e-01 5.153254e-01 3.670395e-01 5.248795e-01 3.660190e-01 3.424501e-01 2.524224e-01 4.709117e-01 3.014742e-01 3.688305e-01 4.079083e-01 3.688481e-01 5.087804e-01 5.092990e-01 4.947053e-01 3.145867e-01 3.254484e-01 3.452728e-01 5.127785e-01 2.955072e-01 5.839663e-01 4.831784e-01 3.476714e-01 5.258287e-01 3.672335e-01 3.578121e-01 4.594239e-01 3.873798e-01 3.384120e-01 5.342242e-01 5.119784e-01 4.238466e-01 5.604285e-01 4.182863e-01 3.812797e-01 3.331506e-01 4.775830e-01 4.954284e-01 4.899760e-01 3.719578e-01 3.973265e-01 5.203562e-01 4.329923e-01 2.486008e-01 4.653824e-01 4.389648e-01 3.340793e-01 4.874084e-01 4.310662e-01 5.162458e-01 2.664008e-01 4.873411e-01 4.971997e-01 4.389587e-01 4.737791e-01 3.037812e-01 3.351615e-01 3.831288e-01 3.277392e-01 3.007027e-01 3.729206e-01 4.655156e-01 5.610883e-01 3.082741e-01 2.824375e-01 5.690470e-01 3.772819e-01 3.316259e-01 3.998155e-01 2.728287e-01 5.075327e-01 3.596267e-01 4.293375e-01 4.099576e-01 4.212745e-01 4.380118e-01 3.450182e-01 5.569789e-01 3.539281e-01 4.126666e-01 3.137060e-01 2.528997e-01 4.742493e-01 6.321766e-01 4.595708e-01 3.429752e-01 3.817507e-01 4.135329e-01 4.883811e-01 5.363289e-01 4.727043e-01 6.086881e-01 4.140970e-01 4.512770e-01 4.832751e-01
<VARIANCE> 142
 2.000000e-01 2.000000e-01 2.000000e-01 2.000000e-01 2.000000e-01 2.000000e-01 2.000000e-01 2.000000e-01 2.000000e-01 2.000000e-01 2.000000e-01 2.000000e-01 2.000000e-01 2.000000e-01 2.000000e-01 2.000000e-01 2.000000e-01 2.000000e-01 2.000000e-01 2.000000e-01 2.000000e-01 2.000000e-01 2.000000e-01 2.000000e-01 2.000000e-01 2.000000e-01 2.000000e-01 2.000000e-01 2.000000e-01 2.000000e-01 2.000000e-01 2.000000e-01 2.000000e-01 2.000000e-01 2.000000e-01 2.000000e-01 2.000000e-01 2.000000e-01 2.000000e-01 2.000000e-01 2.000000e-01 2.000000e-01 2.000000e-01 2.000000e-01 2.000000e-01 2.000000e-01 2.000000e-01 2.000000e-01 2.000000e-01 2.000000e-01 2.000000e-01 2.000000e-01 2.000000e-01 2.000000e-01 2.000000e-01 2.000000e-01 2.000000e-01 2.000000e-01 2.000000e-01 2.000000e-01 2.000000e-01 2.000000e-01 2.000000e-01 2.000000e-01 2.000000e-01 2.000000e-01 2.000000e-01 2.000000e-01 2.000000e-01 2.000000e-01 2.000000e-01 2.000000e-01 2.000000e-01 2.000000e-01 2.000000e-01 2.000000e-01 2.000000e-01 2.000000e-01 2.000000e-01 2.000000e-01 2.000000e-01 2.000000e-01 2.000000e-01 2.000000e-01 2.000000e-01 2.000000e-01 2.000000e-01 2.000000e-01 2.000000e-01 2.000000e-01 2.000000e-01 2.000000e-01 2.000000e-01 2.000000e-01 2.000000e-01 2.000000e-01 2.000000e-01 2.000000e-01 2.000000e-01 2.000000e-01 2.000000e-01 2.000000e-01 2.000000e-01 2.000000e-01 2.000000e-01 2.000000e-01 2.000000e-01 2.000000e-01 2.000000e-01 2.000000e-01 2.000000e-01 2.000000e-01 2.000000e-01 2.000000e-01 2.000000e-01 2.000000e-01 2.000000e-01 2.000000e-01 2.000000e-01 2.000000e-01 2.000000e-01 2.000000e-01 2.000000e-01 2.000000e-01 2.000000e-01 2.000000e-01 2.000000e-01 2.000000e-01 2.000000e-01 2.000000e-01 2.000000e-01 2.000000e-01 2.000000e-01 2.000000e-01 2.000000e-01 2.000000e-01 2.000000e-01 2.000000e-01 2.000000e-01 2.000000e-01 2.000000e-01 2.000000e-01
<GCONST> 3.243863e+01
<TRANSP> 4
 0.000000e+00 1.000000e+00 0.000000e+00 0.000000e+00
 0.000000e+00 8.574508e-01 1.425491e-01 0.000000e+00
 0.000000e+00 0.000000e+00 8.648930e-01 1.351070e-01
 0.000000e+00 0.000000e+00 0.000000e+00 0.000000e+00
<ENDHMM>
