~o
<STREAMINFO> 1 142
<VECSIZE> 142<NULLD><USER><DIAGC>
~h "chief"
<BEGINHMM>
<NUMSTATES> 4
<STATE> 2
<MEAN> 142
 7.150214e-01 4.075570e-01 3.742227e-01 3.167223e-01 2.959457e-01 4.128233e-01 3.843732e-01 3.546441e-01 2.942870e-01 4.233660e-01 4.259468e-01 4.395402e-01 3.872997e-01 4.265695e-01 4.413609e-01 3.305822e-01 4.010146e-01 4.983940e-01 2.826433e-01 3.839397e-01 4.742361e-01 4.267553e-01 3.584511e-01 4.231095e-01 4.041329e-01 3.944150e-01 4.439979e-01 4.412756e-01 3.884667e-01 3.765076e-01 4.446242e-01 4.362955e-01 4.331380e-01 4.145658e-01 4.336860e-01 4.276935e-01 3.739347e-01 3.277644e-01 3.945221e-01 2.772489e-01 4.188568e-01 4.346882e-01 3.605772e-01 3.684548e-01 2.343071e-01 4.610508e-01 3.937356e-01 4.322336e-01 3.996727e-01 2.928626e-01 4.950606e-01 3.826532e-01 4.555649e-01 2.760355e-01 4.594011e-01 3.083616e-01 4.401031e-01 3.128500e-01 3.549623e-01 2.924789e-01 4.348853e-01 4.424432e-01 3.891208e-01 3.754979e-01 4.399389e-01 4.385924e-01 4.367430e-01 3.926757e-01 4.508373e-01 4.161052e-01 4.213833e-01 5.026710e-01 4.616111e-01 3.372131e-01 3.534008e-01 3.783269e-01 4.572023e-01 3.786892e-01 4.054446e-01 3.558002e-01 4.286955e-01 3.974763e-01 4.414661e-01 4.698893e-01 3.492308e-01 4.989096e-01 3.740959e-01 4.354133e-01 4.744430e-01 4.681765e-01 4.241769e-01 4.456726e-01 4.438253e-01 3.036852e-01 4.067321e-01 4.761867e-01 4.845996e-01 3.387283e-01 4.174166e-01 3.593429e-01 3.241377e-01 4.695377e-01 2.976657e-01 3.765039e-01 3.226458e-01 2.751040e-01 4.001808e-01 3.548245e-01 3.638290e-01 3.344260e-01 3.770131e-01 4.150390e-01 2.923116e-01 3.776557e-01 4.451627e-01 4.420435e-01 4.417461e-01 3.582247e-01 4.487813e-01 3.559952e-01 4.251178e-01 4.931730e-01 4.385830e-01 6.125587e-01 3.666071e-01 4.594991e-01 4.647794e-01 4.067115e-01 3.834287e-01 4.062488e-01 3.663860e-01 4.620988e-01 4.781711e-01 3.989721e-01 4.757551e-01 4.210955e-01 4.830398e-01 5.252297e-01 3.540201e-01 4.305753e-01 4.243730e-01 3.779369e-01
<VARIANCE> 142
 2.000000e-01 2.000000e-01 2.000000e-01 2.000000e-01 2.000000e-01 2.000000e-01 2.000000e-01 2.000000e-01 2.000000e-01 2.000000e-01 2.000000e-01 2.000000e-01 2.000000e-01 2.000000e-01 2.000000e-01 2.000000e-01 2.000000e-01 2.000000e-01 2.000000e-01 2.000000e-01 2.000000e-01 2.000000e-01 2.000000e-01 2.000000e-01 2.000000e-01 2.000000e-01 2.000000e-01 2.000000e-01 2.000000e-01 2.000000e-01 2.000000e-01 2.000000e-01 2.000000e-01 2.000000e-01 2.000000e-01 2.000000e-01 2.000000e-01 2.000000e-01 2.000000e-01 2.000000e-01 2.000000e-01 2.000000e-01 2.000000e-01 2.000000e-01 2.000000e-01 2.000000e-01 2.000000e-01 2.000000e-01 2.000000e-01 2.000000e-01 2.000000e-01 2.000000e-01 2.000000e-01 2.000000e-01 2.000000e-01 2.000000e-01 2.000000e-01 2.000000e-01 2.000000e-01 2.000000e-01 2.000000e-01 2.000000e-01 2.000000e-01 2.000000e-01 2.000000e-01 2.000000e-01 2.000000e-01 2.000000e-01 2.000000e-01 2.000000e-01 2.000000e-01 2.000000e-01 2.000000e-01 2.000000e-01 2.000000e-01 2.000000e-01 2.000000e-01 2.000000e-01 2.000000e-01 2.000000e-01 2.000000e-01 2.000000e-01 2.000000e-01 2.000000e-01 2.000000e-01 2.000000e-01 2.000000e-01 2.000000e-01 2.000000e-01 2.000000e-01 2.000000e-01 2.000000e-01 2.000000e-01 2.000000e-01 2.000000e-01 2.000000e-01 2.000000e-01 2.000000e-01 2.000000e-01 2.000000e-01 2.000000e-01 2.000000e-01 2.000000e-01 2.000000e-01 2.000000e-01 2.000000e-01 2.000000e-01 2.000000e-01 2.000000e-01 2.000000e-01 2.000000e-01 2.000000e-01 2.000000e-01 2.000000e-01 2.000000e-01 2.000000e-01 2.000000e-01 2.000000e-01 2.000000e-01 2.000000e-01 2.000000e-01 2.000000e-01 2.000000e-01 2.000000e-01 2.000000e-01 2.000000e-01 2.000000e-01 2.000000e-01 2.000000e-01 2.000000e-01 2.000000e-01 2.000000e-01 2.000000e-01 2.000000e-01 2.000000e-01 2.000000e-01 2.000000e-01 2.000000e-01 2.000000e-01 2.000000e-01 2.000000e-01 2.000000e-01
<GCONST> 3.243863e+01
<STATE> 3
<MEAN> 142
 5.513955e-01 3.089204e-01 3.458402e-01 3.422524e-01 2.465880e-01 2.622955e-01 2.829597e-01 3.511364e-01 3.313641e-01 4.552909e-01 4.697303e-01 3.031148e-01 3.020094e-01 4.923607e-01 2.813144e-01 3.177031e-01 3.929793e-01 2.943344e-01 3.004571e-01 3.130535e-01 4.937553e-01 5.671023e-01 3.705601e-01 5.298825e-01 5.205537e-01 3.361137e-01 4.454767e-01 2.616752e-01 3.693028e-01 2.697655e-01 4.609401e-01 4.070670e-01 3.251628e-01 6.025336e-01 4.404490e-01 3.465996e-01 3.575891e-01 2.604932e-01 3.608230e-01 2.809479e-01 2.893805e-01 4.835235e-01 3.279634e-01 2.707491e-01 9.061213e-02 3.424625e-01 4.605166e-01 3.980101e-01 4.708967e-01 3.116029e-01 4.857171e-01 3.537649e-01 4.322276e-01 2.621606e-01 3.384739e-01 3.008746e-01 4.084264e-01 3.317899e-01 2.811490e-01 3.480084e-01 3.625521e-01 3.707402e-01 3.622223e-01 3.596909e-01 3.004418e-01 4.155749e-01 3.659406e-01 3.987439e-01 3.861933e-01 3.557302e-01 4.220494e-01 3.136652e-01 4.086572e-01 4.237661e-01 2.665476e-01 2.911590e-01 4.283989e-01 3.688409e-01 5.218675e-01 5.114105e-01 3.329997e-01 3.368193e-01 3.159688e-01 4.305386e-01 2.667248e-01 3.352956e-01 3.510738e-01 3.601607e-01 4.653442e-01 2.871463e-01 2.336354e-01 2.723209e-01 2.711866e-01 2.437889e-01 3.567244e-01 3.215042e-01 3.386713e-01 2.493542e-01 5.028613e-01 4.370821e-01 3.903828e-01 5.049843e-01 2.915071e-01 2.768809e-01 3.275224e-01 3.387847e-01 2.983730e-01 3.593127e-01 3.569031e-01 4.032359e-01 3.151277e-01 2.420731e-01 2.913267e-01 3.182478e-01 2.609739e-01 3.100463e-01 3.293212e-01 4.581244e-01 2.915120e-01 3.764677e-01 4.034953e-01 4.537333e-01 3.746743e-01 2.339327e-01 4.070191e-01 3.806421e-01 3.052565e-01 2.668054e-01 2.997735e-01 4.800342e-01 3.023422e-01 3.359235e-01 2.215640e-01 3.943854e-01 3.607119e-01 4.569745e-01 3.370233e-01 4.256451e-01 3.301270e-01 3.820929e-01 4.103537e-01 3.898587e-01
<VARIANCE> 142
 2.000000e-01 2.000000e-01 2.000000e-01 2.000000e-01 2.000000e-01 2.000000e-01 2.000000e-01 2.000000e-01 2.000000e-01 2.000000e-01 2.000000e-01 2.000000e-01 2.000000e-01 2.000000e-01 2.000000e-01 2.000000e-01 2.000000e-01 2.000000e-01 2.000000e-01 2.000000e-01 2.000000e-01 2.000000e-01 2.000000e-01 2.000000e-01 2.000000e-01 2.000000e-01 2.000000e-01 2.000000e-01 2.000000e-01 2.000000e-01 2.000000e-01 2.000000e-01 2.000000e-01 2.000000e-01 2.000000e-01 2.000000e-01 2.000000e-01 2.000000e-01 2.000000e-01 2.000000e-01 2.000000e-01 2.000000e-01 2.000000e-01 2.000000e-01 2.000000e-01 2.000000e-01 2.000000e-01 2.000000e-01 2.000000e-01 2.000000e-01 2.000000e-01 2.000000e-01 2.000000e-01 2.000000e-01 2.000000e-01 2.000000e-01 2.000000e-01 2.000000e-01 2.000000e-01 2.000000e-01 2.000000e-01 2.000000e-01 2.000000e-01 2.000000e-01 2.000000e-01 2.000000e-01 2.000000e-01 2.000000e-01 2.000000e-01 2.000000e-01 2.000000e-01 2.000000e-01 2.000000e-01 2.000000e-01 2.000000e-01 2.000000e-01 2.000000e-01 2.000000e-01 2.000000e-01 2.000000e-01 2.000000e-01 2.000000e-01 2.000000e-01 2.000000e-01 2.000000e-01 2.000000e-01 2.000000e-01 2.000000e-01 2.000000e-01 2.000000e-01 2.000000e-01 2.000000e-01 2.000000e-01 2.000000e-01 2.000000e-01 2.000000e-01 2.000000e-01 2.000000e-01 2.000000e-01 2.000000e-01 2.000000e-01 2.000000e-01 2.000000e-01 2.000000e-01 2.000000e-01 2.000000e-01 2.000000e-01 2.000000e-01 2.000000e-01 2.000000e-01 2.000000e-01 2.000000e-01 2.000000e-01 2.000000e-01 2.000000e-01 2.000000e-01 2.000000e-01 2.000000e-01 2.000000e-01 2.000000e-01 2.000000e-01 2.000000e-01 2.000000e-01 2.000000e-01 2.000000e-01 2.000000e-01 2.000000e-01 2.000000e-01 2.000000e-01 2.000000e-01 2.000000e-01 2.000000e-01 2.000000e-01 2.000000e-01 2.000000e-01 2.000000e-01 2.000000e-01 2.000000e-01 2.000000e-01 2.000000e-01 2.000000e-01 2.000000e-01
<GCONST> 3.243863e+01
<TRANSP> 4
 0.000000e+00 1.000000e+00 0.000000e+00 0.000000e+00
 0.000000e+00 7.876340e-01 2.123660e-01 0.000000e+00
 0.000000e+00 0.000000e+00 8.968131e-01 1.031869e-01
 0.000000e+00 0.000000e+00 0.000000e+00 0.000000e+00
<ENDHMM>
