~o
<STREAMINFO> 1 142
<VECSIZE> 142<NULLD><USER><DIAGC>
~h "collect"
<BEGINHMM>
<NUMSTATES> 4
<STATE> 2
<MEAN> 142
 7.278538e-01 4.495634e-01 4.287219e-01 3.616939e-01 3.032466e-01 3.357461e-01 4.338408e-01 3.751104e-01 3.320963e-01 3.665940e-01 4.579600e-01 4.730496e-01 4.388496e-01 4.840100e-01 2.973332e-01 3.312289e-01 3.867437e-01 4.119339e-01 3.655616e-01 4.319415e-01 4.435963e-01 4.199406e-01 4.111364e-01 4.301732e-01 4.589358e-01 4.141911e-01 4.358751e-01 4.707842e-01 3.962068e-01 4.009911e-01 4.398732e-01 4.465677e-01 5.261689e-01 3.765445e-01 4.411145e-01 3.957776e-01 3.419625e-01 3.269504e-01 3.338270e-01 3.496628e-01 3.189391e-01 4.302783e-01 3.371229e-01 3.685052e-01 2.757483e-01 4.899932e-01 4.563718e-01 3.918902e-01 3.919349e-01 3.914202e-01 4.947657e-01 4.176905e-01 4.048613e-01 3.006012e-01 5.475817e-01 3.991048e-01 4.144441e-01 3.788513e-01 3.468340e-01 2.849725e-01 4.949774e-01 4.942870e-01 4.208535e-01 4.361917e-01 4.161910e-01 5.318717e-01 3.398957e-01 3.423676e-01 4.470029e-01 3.467939e-01 4.949678e-01 4.886372e-01 4.405441e-01 4.143964e-01 4.020460e-01 4.209383e-01 5.048682e-01 5.115986e-01 4.084460e-01 4.396586e-01 4.502822e-01 3.875074e-01 3.501655e-01 4.209784e-01 3.482196e-01 4.755700e-01 4.043110e-01 4.336998e-01 4.002412e-01 3.824651e-01 4.439527e-01 3.638994e-01 4.478436e-01 4.589822e-01 4.321920e-01 4.820645e-01 4.313926e-01 3.394791e-01 3.659267e-01 4.528191e-01 3.682494e-01 4.592730e-01 3.938327e-01 3.725011e-01 3.468511e-01 2.976431e-01 4.090523e-01 3.955015e-01 3.777732e-01 3.606910e-01 4.577498e-01 4.155693e-01 3.916353e-01 3.395906e-01 4.116358e-01 4.391294e-01 4.013565e-01 4.229439e-01 4.872078e-01 4.595191e-01 4.378746e-01 5.420872e-01 5.380163e-01 4.530548e-01 4.397146e-01 4.957248e-01 4.371793e-01 3.668990e-01 3.974797e-01 4.125173e-01 4.249262e-01 4.187356e-01 4.791547e-01 4.114282e-01 3.900920e-01 3.887248e-01 4.886722e-01 4.167990e-01 3.436199e-01 3.808937e-01 4.946769e-01 5.101415e-01
<VARIANCE> 142
 2.000000e-01 2.000000e-01 2.000000e-01 2.000000e-01 2.000000e-01 2.000000e-01 2.000000e-01 2.000000e-01 2.000000e-01 2.000000e-01 2.000000e-01 2.000000e-01 2.000000e-01 2.000000e-01 2.000000e-01 2.000000e-01 2.000000e-01 2.000000e-01 2.000000e-01 2.000000e-01 2.000000e-01 2.000000e-01 2.000000e-01 2.000000e-01 2.000000e-01 2.000000e-01 2.000000e-01 2.000000e-01 2.000000e-01 2.000000e-01 2.000000e-01 2.000000e-01 2.000000e-01 2.000000e-01 2.000000e-01 2.000000e-01 2.000000e-01 2.000000e-01 2.000000e-01 2.000000e-01 2.000000e-01 2.000000e-01 2.000000e-01 2.000000e-01 2.000000e-01 2.000000e-01 2.000000e-01 2.000000e-01 2.000000e-01 2.000000e-01 2.000000e-01 2.000000e-01 2.000000e-01 2.000000e-01 2.000000e-01 2.000000e-01 2.000000e-01 2.000000e-01 2.000000e-01 2.000000e-01 2.000000e-01 2.000000e-01 2.000000e-01 2.000000e-01 2.000000e-01 2.000000e-01 2.000000e-01 2.000000e-01 2.000000e-01 2.000000e-01 2.000000e-01 2.000000e-01 2.000000e-01 2.000000e-01 2.000000e-01 2.000000e-01 2.000000e-01 2.000000e-01 2.000000e-01 2.000000e-01 2.000000e-01 2.000000e-01 2.000000e-01 2.000000e-01 2.000000e-01 2.000000e-01 2.000000e-01 2.000000e-01 2.000000e-01 2.000000e-01 2.000000e-01 2.000000e-01 2.000000e-01 2.000000e-01 2.000000e-01 2.000000e-01 2.000000e-01 2.000000e-01 2.000000e-01 2.000000e-01 2.000000e-01 2.000000e-01 2.000000e-01 2.000000e-01 2.000000e-01 2.000000e-01 2.000000e-01 2.000000e-01 2.000000e-01 2.000000e-01 2.000000e-01 2.000000e-01 2.000000e-01 2.000000e-01 2.000000e-01 2.000000e-01 2.000000e-01 2.000000e-01 2.000000e-01 2.000000e-01 2.000000e-01 2.000000e-01 2.000000e-01 2.000000e-01 2.000000e-01 2.000000e-01 2.000000e-01 2.000000e-01 2.000000e-01 2.000000e-01 2.000000e-01 2.000000e-01 2.000000e-01 2.000000e-01 2.000000e-01 2.000000e-01 2.000000e-01 2.000000e-01 2.000000e-01 2.000000e-01 2.000000e-01 2.000000e-01
<GCONST> 3.243863e+01
<STATE> 3
<MEAN> 142
 5.591711e-01 2.957638e-01 3.591424e-01 3.636232e-01 3.037057e-01 3.063981e-01 3.648060e-01 3.817299e-01 3.581981e-01 3.974776e-01 5.487074e-01 3.574701e-01 3.738643e-01 5.536891e-01 3.158208e-01 3.570476e-01 3.829437e-01 3.176425e-01 3.313331e-01 3.800088e-01 5.443900e-01 5.637442e-01 3.764742e-01 5.074694e-01 4.986922e-01 3.656792e-01 4.443293e-01 2.877235e-01 4.282929e-01 3.135120e-01 4.972793e-01 4.147672e-01 3.472603e-01 5.414817e-01 4.232564e-01 3.243466e-01 3.760190e-01 3.245986e-01 3.749196e-01 3.578347e-01 3.227616e-01 4.537300e-01 3.079061e-01 3.651161e-01 1.444281e-01 3.087108e-01 5.070839e-01 4.535047e-01 4.799723e-01 3.310960e-01 5.103984e-01 4.260584e-01 4.688735e-01 2.427973e-01 3.890435e-01 3.547895e-01 4.657219e-01 3.731297e-01 3.190245e-01 3.732505e-01 3.783755e-01 4.027189e-01 3.557563e-01 3.712789e-01 3.242450e-01 4.141591e-01 3.994938e-01 4.286227e-01 4.264812e-01 3.746833e-01 4.186729e-01 3.201096e-01 3.762885e-01 3.960328e-01 3.064764e-01 3.525938e-01 4.477955e-01 4.254794e-01 5.304214e-01 4.962839e-01 3.789526e-01 3.428914e-01 3.705733e-01 4.526358e-01 2.843237e-01 3.452206e-01 3.634713e-01 3.895996e-01 4.712700e-01 2.889000e-01 2.553118e-01 2.767833e-01 3.215032e-01 3.054756e-01 4.048627e-01 3.823295e-01 3.644607e-01 2.942149e-01 4.568002e-01 4.602731e-01 4.079145e-01 4.785543e-01 3.045453e-01 2.925127e-01 3.791693e-01 3.504514e-01 3.343867e-01 3.945528e-01 3.895607e-01 4.472679e-01 3.402909e-01 2.925791e-01 3.434772e-01 3.364156e-01 2.992439e-01 3.192574e-01 3.412350e-01 5.021086e-01 3.427409e-01 4.700901e-01 4.025839e-01 4.652030e-01 4.186814e-01 2.525317e-01 4.637901e-01 3.592579e-01 3.051194e-01 3.246511e-01 2.502671e-01 4.572677e-01 3.704130e-01 3.535474e-01 2.875297e-01 4.498174e-01 3.289463e-01 4.443652e-01 4.029244e-01 4.065169e-01 3.776231e-01 3.671757e-01 4.348264e-01 4.099878e-01
<VARIANCE> 142
 2.000000e-01 2.000000e-01 2.000000e-01 2.000000e-01 2.000000e-01 2.000000e-01 2.000000e-01 2.000000e-01 2.000000e-01 2.000000e-01 2.000000e-01 2.000000e-01 2.000000e-01 2.000000e-01 2.000000e-01 2.000000e-01 2.000000e-01 2.000000e-01 2.000000e-01 2.000000e-01 2.000000e-01 2.000000e-01 2.000000e-01 2.000000e-01 2.000000e-01 2.000000e-01 2.000000e-01 2.000000e-01 2.000000e-01 2.000000e-01 2.000000e-01 2.000000e-01 2.000000e-01 2.000000e-01 2.000000e-01 2.000000e-01 2.000000e-01 2.000000e-01 2.000000e-01 2.000000e-01 2.000000e-01 2.000000e-01 2.000000e-01 2.000000e-01 2.000000e-01 2.000000e-01 2.000000e-01 2.000000e-01 2.000000e-01 2.000000e-01 2.000000e-01 2.000000e-01 2.000000e-01 2.000000e-01 2.000000e-01 2.000000e-01 2.000000e-01 2.000000e-01 2.000000e-01 2.000000e-01 2.000000e-01 2.000000e-01 2.000000e-01 2.000000e-01 2.000000e-01 2.000000e-01 2.000000e-01 2.000000e-01 2.000000e-01 2.000000e-01 2.000000e-01 2.000000e-01 2.000000e-01 2.000000e-01 2.000000e-01 2.000000e-01 2.000000e-01 2.000000e-01 2.000000e-01 2.000000e-01 2.000000e-01 2.000000e-01 2.000000e-01 2.000000e-01 2.000000e-01 2.000000e-01 2.000000e-01 2.000000e-01 2.000000e-01 2.000000e-01 2.000000e-01 2.000000e-01 2.000000e-01 2.000000e-01 2.000000e-01 2.000000e-01 2.000000e-01 2.000000e-01 2.000000e-01 2.000000e-01 2.000000e-01 2.000000e-01 2.000000e-01 2.000000e-01 2.000000e-01 2.000000e-01 2.000000e-01 2.000000e-01 2.000000e-01 2.000000e-01 2.000000e-01 2.000000e-01 2.000000e-01 2.000000e-01 2.000000e-01 2.000000e-01 2.000000e-01 2.000000e-01 2.000000e-01 2.000000e-01 2.000000e-01 2.000000e-01 2.000000e-01 2.000000e-01 2.000000e-01 2.000000e-01 2.000000e-01 2.000000e-01 2.000000e-01 2.000000e-01 2.000000e-01 2.000000e-01 2.000000e-01 2.000000e-01 2.000000e-01 2.000000e-01 2.000000e-01 2.000000e-01 2.000000e-01 2.000000e-01 2.000000e-01 2.000000e-01
<GCONST> 3.243863e+01
<TRANSP> 4
 0.000000e+00 1.000000e+00 0.000000e+00 0.000000e+00
 0.000000e+00 8.762024e-01 1.237976e-01 0.000000e+00
 0.000000e+00 0.000000e+00 8.450025e-01 1.549975e-01
 0.000000e+00 0.000000e+00 0.000000e+00 0.000000e+00
<ENDHMM>
