~o
<STREAMINFO> 1 142
<VECSIZE> 142<NULLD><USER><DIAGC>
~h "column"
<BEGINHMM>
<NUMSTATES> 4
<STATE> 2
<MEAN> 142
 6.275083e-01 3.571821e-01 4.664803e-01 3.243475e-01 2.573494e-01 4.125382e-01 3.478524e-01 3.777659e-01 3.160465e-01 4.426063e-01 5.837421e-01 3.002104e-01 3.117106e-01 6.613106e-01 2.842478e-01 3.334377e-01 3.697847e-01 3.124378e-01 4.945153e-01 4.007925e-01 6.673282e-01 6.374128e-01 4.764285e-01 4.897667e-01 5.684096e-01 3.483050e-01 5.589499e-01 3.787236e-01 4.506042e-01 3.168571e-01 5.318658e-01 4.335875e-01 3.266597e-01 5.116751e-01 4.481536e-01 3.397266e-01 4.111308e-01 2.470308e-01 4.129850e-01 2.576678e-01 2.870179e-01 4.549466e-01 3.155583e-01 3.485678e-01 1.369057e-01 3.599275e-01 5.138873e-01 4.521340e-01 5.619041e-01 3.916549e-01 4.870536e-01 3.614865e-01 4.049554e-01 1.810619e-01 3.767748e-01 3.912199e-01 6.534118e-01 4.765375e-01 4.772715e-01 4.179009e-01 3.820069e-01 3.712463e-01 2.889655e-01 3.184011e-01 2.722266e-01 4.054959e-01 3.195589e-01 5.349240e-01 3.698941e-01 3.034540e-01 4.458773e-01 3.526160e-01 4.216384e-01 4.677028e-01 4.312719e-01 3.292332e-01 4.006469e-01 4.028570e-01 5.301434e-01 5.050822e-01 3.428236e-01 3.738196e-01 3.649535e-01 5.712270e-01 2.845943e-01 3.714335e-01 3.118989e-01 3.862370e-01 4.862555e-01 2.990469e-01 2.414644e-01 2.971437e-01 3.217085e-01 2.615300e-01 4.136276e-01 3.788032e-01 4.401492e-01 2.005864e-01 4.897010e-01 4.335434e-01 4.208640e-01 5.762070e-01 3.078482e-01 2.684038e-01 4.826399e-01 3.583685e-01 3.234561e-01 3.408190e-01 5.379695e-01 5.001349e-01 3.310255e-01 3.097652e-01 2.524546e-01 3.715042e-01 2.662442e-01 3.246287e-01 3.450846e-01 4.820553e-01 3.379279e-01 5.463009e-01 4.407201e-01 5.580639e-01 4.262730e-01 2.340580e-01 4.973771e-01 3.879197e-01 3.458354e-01 2.395373e-01 2.369000e-01 4.915747e-01 4.014347e-01 4.037105e-01 1.843169e-01 3.805029e-01 3.453326e-01 4.574197e-01 4.107834e-01 3.916322e-01 2.980404e-01 4.177354e-01 4.267527e-01 4.366258e-01
<VARIANCE> 142
 2.000000e-01 2.000000e-01 2.000000e-01 2.000000e-01 2.000000e-01 2.000000e-01 2.000000e-01 2.000000e-01 2.000000e-01 2.000000e-01 2.000000e-01 2.000000e-01 2.000000e-01 2.000000e-01 2.000000e-01 2.000000e-01 2.000000e-01 2.000000e-01 2.000000e-01 2.000000e-01 2.000000e-01 2.000000e-01 2.000000e-01 2.000000e-01 2.000000e-01 2.000000e-01 2.000000e-01 2.000000e-01 2.000000e-01 2.000000e-01 2.000000e-01 2.000000e-01 2.000000e-01 2.000000e-01 2.000000e-01 2.000000e-01 2.000000e-01 2.000000e-01 2.000000e-01 2.000000e-01 2.000000e-01 2.000000e-01 2.000000e-01 2.000000e-01 2.000000e-01 2.000000e-01 2.000000e-01 2.000000e-01 2.000000e-01 2.000000e-01 2.000000e-01 2.000000e-01 2.000000e-01 2.000000e-01 2.000000e-01 2.000000e-01 2.000000e-01 2.000000e-01 2.000000e-01 2.000000e-01 2.000000e-01 2.000000e-01 2.000000e-01 2.000000e-01 2.000000e-01 2.000000e-01 2.000000e-01 2.000000e-01 2.000000e-01 2.000000e-01 2.000000e-01 2.000000e-01 2.000000e-01 2.000000e-01 2.000000e-01 2.000000e-01 2.000000e-01 2.000000e-01 2.000000e-01 2.000000e-01 2.000000e-01 2.000000e-01 2.000000e-01 2.000000e-01 2.000000e-01 2.000000e-01 2.000000e-01 2.000000e-01 2.000000e-01 2.000000e-01 2.000000e-01 2.000000e-01 2.000000e-01 2.000000e-01 2.000000e-01 2.000000e-01 2.000000e-01 2.000000e-01 2.000000e-01 2.000000e-01 2.000000e-01 2.000000e-01 2.000000e-01 2.000000e-01 2.000000e-01 2.000000e-01 2.000000e-01 2.000000e-01 2.000000e-01 2.000000e-01 2.000000e-01 2.000000e-01 2.000000e-01 2.000000e-01 2.000000e-01 2.000000e-01 2.000000e-01 2.000000e-01 2.000000e-01 2.000000e-01 2.000000e-01 2.000000e-01 2.000000e-01 2.000000e-01 2.000000e-01 2.000000e-01 2.000000e-01 2.000000e-01 2.000000e-01 2.000000e-01 2.000000e-01 2.000000e-01 2.000000e-01 2.000000e-01 2.000000e-01 2.000000e-01 2.000000e-01 2.000000e-01 2.000000e-01 2.000000e-01 2.000000e-01 2.000000e-01
<GCONST> 3.243863e+01
<STATE> 3
<MEAN> 142
 6.779498e-01 3.872586e-01 3.671036e-01 3.267234e-01 2.106976e-01 2.519461e-01 3.430816e-01 3.275191e-01 3.231915e-01 3.490558e-01 4.522393e-01 4.637662e-01 4.093636e-01 4.918437e-01 3.176935e-01 2.872791e-01 3.577234e-01 3.571209e-01 3.007683e-01 4.106404e-01 4.523119e-01 4.613742e-01 3.917190e-01 4.455802e-01 4.303646e-01 3.930577e-01 3.382523e-01 3.719101e-01 3.923163e-01 3.424269e-01 4.522811e-01 4.495912e-01 4.530366e-01 3.633947e-01 4.561100e-01 3.430596e-01 3.539295e-01 2.757536e-01 2.902703e-01 2.435263e-01 2.515606e-01 4.267273e-01 2.604657e-01 3.513787e-01 2.030434e-01 4.360875e-01 4.644538e-01 3.636730e-01 3.947764e-01 3.445337e-01 4.413976e-01 4.130625e-01 3.783236e-01 2.688104e-01 4.738134e-01 3.236250e-01 3.460270e-01 3.223435e-01 2.914789e-01 2.217831e-01 3.897003e-01 3.894189e-01 3.672511e-01 3.949072e-01 3.612839e-01 4.398493e-01 3.242994e-01 3.145219e-01 4.119524e-01 2.913692e-01 4.755794e-01 4.193065e-01 4.860326e-01 4.291511e-01 3.086747e-01 4.201347e-01 4.827108e-01 5.339227e-01 4.115779e-01 4.036260e-01 4.153900e-01 4.108019e-01 3.059108e-01 3.998604e-01 2.998883e-01 4.696515e-01 4.209274e-01 4.229679e-01 3.957951e-01 3.174587e-01 3.571857e-01 2.433884e-01 4.246733e-01 3.926370e-01 4.723854e-01 4.700263e-01 4.166539e-01 2.637335e-01 3.583758e-01 4.350423e-01 3.916276e-01 4.532720e-01 3.719145e-01 2.879182e-01 3.116590e-01 3.149960e-01 3.185852e-01 3.830258e-01 3.424930e-01 3.779985e-01 3.805286e-01 3.721271e-01 3.521915e-01 3.170661e-01 2.855498e-01 3.683549e-01 3.083794e-01 4.397396e-01 4.072528e-01 4.720275e-01 4.686273e-01 5.510076e-01 4.843093e-01 3.102487e-01 3.822801e-01 4.187099e-01 4.268019e-01 2.871085e-01 2.976829e-01 4.026973e-01 3.925398e-01 4.418227e-01 4.209002e-01 4.095716e-01 4.170606e-01 3.855860e-01 4.425362e-01 4.101502e-01 3.248692e-01 3.559994e-01 4.659464e-01 5.621477e-01
<VARIANCE> 142
 2.000000e-01 2.000000e-01 2.000000e-01 2.000000e-01 2.000000e-01 2.000000e-01 2.000000e-01 2.000000e-01 2.000000e-01 2.000000e-01 2.000000e-01 2.000000e-01 2.000000e-01 2.000000e-01 2.000000e-01 2.000000e-01 2.000000e-01 2.000000e-01 2.000000e-01 2.000000e-01 2.000000e-01 2.000000e-01 2.000000e-01 2.000000e-01 2.000000e-01 2.000000e-01 2.000000e-01 2.000000e-01 2.000000e-01 2.000000e-01 2.000000e-01 2.000000e-01 2.000000e-01 2.000000e-01 2.000000e-01 2.000000e-01 2.000000e-01 2.000000e-01 2.000000e-01 2.000000e-01 2.000000e-01 2.000000e-01 2.000000e-01 2.000000e-01 2.000000e-01 2.000000e-01 2.000000e-01 2.000000e-01 2.000000e-01 2.000000e-01 2.000000e-01 2.000000e-01 2.000000e-01 2.000000e-01 2.000000e-01 2.000000e-01 2.000000e-01 2.000000e-01 2.000000e-01 2.000000e-01 2.000000e-01 2.000000e-01 2.000000e-01 2.000000e-01 2.000000e-01 2.000000e-01 2.000000e-01 2.000000e-01 2.000000e-01 2.000000e-01 2.000000e-01 2.000000e-01 2.000000e-01 2.000000e-01 2.000000e-01 2.000000e-01 2.000000e-01 2.000000e-01 2.000000e-01 2.000000e-01 2.000000e-01 2.000000e-01 2.000000e-01 2.000000e-01 2.000000e-01 2.000000e-01 2.000000e-01 2.000000e-01 2.000000e-01 2.000000e-01 2.000000e-01 2.000000e-01 2.000000e-01 2.000000e-01 2.000000e-01 2.000000e-01 2.000000e-01 2.000000e-01 2.000000e-01 2.000000e-01 2.000000e-01 2.000000e-01 2.000000e-01 2.000000e-01 2.000000e-01 2.000000e-01 2.000000e-01 2.000000e-01 2.000000e-01 2.000000e-01 2.000000e-01 2.000000e-01 2.000000e-01 2.000000e-01 2.000000e-01 2.000000e-01 2.000000e-01 2.000000e-01 2.000000e-01 2.000000e-01 2.000000e-01 2.000000e-01 2.000000e-01 2.000000e-01 2.000000e-01 2.000000e-01 2.000000e-01 2.000000e-01 2.000000e-01 2.000000e-01 2.000000e-01 2.000000e-01 2.000000e-01 2.000000e-01 2.000000e-01 2.000000e-01 2.000000e-01 2.000000e-01 2.000000e-01 2.000000e-01 2.000000e-01 2.000000e-01
<GCONST> 3.243863e+01
<TRANSP> 4
 0.000000e+00 1.000000e+00 0.000000e+00 0.000000e+00
 0.000000e+00 8.366231e-01 1.633769e-01 0.000000e+00
 0.000000e+00 0.000000e+00 8.816653e-01 1.183346e-01
 0.000000e+00 0.000000e+00 0.000000e+00 0.000000e+00
<ENDHMM>
