~o
<STREAMINFO> 1 142
<VECSIZE> 142<NULLD><USER><DIAGC>
~h "daughter"
<BEGINHMM>
<NUMSTATES> 4
<STATE> 2
<MEAN> 142
 5.727839e-01 3.833614e-01 3.795391e-01 3.689145e-01 3.080319e-01 4.341726e-01 3.625820e-01 4.746546e-01 3.880609e-01 5.029604e-01 5.481007e-01 4.076443e-01 4.127379e-01 5.872116e-01 5.046236e-01 4.790044e-01 4.491292e-01 4.753528e-01 2.997326e-01 4.046370e-01 5.848743e-01 5.596004e-01 3.616430e-01 5.086973e-01 5.385559e-01 3.823950e-01 5.388551e-01 3.518896e-01 4.890299e-01 4.367577e-01 5.471150e-01 4.749090e-01 2.663051e-01 5.463254e-01 4.677131e-01 4.834574e-01 5.081401e-01 4.348959e-01 5.446646e-01 3.819965e-01 4.482266e-01 5.468329e-01 3.333358e-01 4.386294e-01 1.851433e-01 3.741315e-01 5.054784e-01 5.330153e-01 5.580570e-01 3.612863e-01 4.817677e-01 4.682471e-01 5.457383e-01 2.583375e-01 3.874137e-01 4.603731e-01 5.817674e-01 3.766073e-01 4.095535e-01 3.820956e-01 4.158712e-01 4.084938e-01 3.636364e-01 3.815988e-01 3.893082e-01 4.137934e-01 5.397649e-01 4.034880e-01 3.301761e-01 4.429481e-01 4.385138e-01 2.914257e-01 4.732596e-01 4.110327e-01 3.181220e-01 3.740224e-01 3.803029e-01 4.002372e-01 5.521377e-01 5.227906e-01 4.780676e-01 4.543021e-01 5.702242e-01 4.617610e-01 3.260126e-01 3.663812e-01 3.150958e-01 3.587505e-01 5.333847e-01 3.097299e-01 3.233337e-01 3.370283e-01 4.299283e-01 3.239486e-01 4.068623e-01 4.928579e-01 5.004299e-01 3.762250e-01 5.615966e-01 4.118632e-01 4.266751e-01 5.218582e-01 3.325873e-01 4.338196e-01 5.061347e-01 3.571520e-01 4.046616e-01 4.520410e-01 4.864107e-01 4.333883e-01 4.040137e-01 3.871645e-01 2.419280e-01 4.516253e-01 3.982332e-01 3.167187e-01 4.224342e-01 4.222402e-01 4.103017e-01 5.170131e-01 5.037972e-01 5.048963e-01 4.274218e-01 3.620346e-01 4.708584e-01 3.996992e-01 4.368617e-01 4.115158e-01 3.570945e-01 4.911027e-01 4.294581e-01 4.866065e-01 3.232571e-01 4.510628e-01 5.322244e-01 4.873482e-01 4.453708e-01 6.047290e-01 4.805120e-01 4.535150e-01 4.363293e-01 3.621035e-01
<VARIANCE> 142
 2.000000e-01 2.000000e-01 2.000000e-01 2.000000e-01 2.000000e-01 2.000000e-01 2.000000e-01 2.000000e-01 2.000000e-01 2.000000e-01 2.000000e-01 2.000000e-01 2.000000e-01 2.000000e-01 2.000000e-01 2.000000e-01 2.000000e-01 2.000000e-01 2.000000e-01 2.000000e-01 2.000000e-01 2.000000e-01 2.000000e-01 2.000000e-01 2.000000e-01 2.000000e-01 2.000000e-01 2.000000e-01 2.000000e-01 2.000000e-01 2.000000e-01 2.000000e-01 2.000000e-01 2.000000e-01 2.000000e-01 2.000000e-01 2.000000e-01 2.000000e-01 2.000000e-01 2.000000e-01 2.000000e-01 2.000000e-01 2.000000e-01 2.000000e-01 2.000000e-01 2.000000e-01 2.000000e-01 2.000000e-01 2.000000e-01 2.000000e-01 2.000000e-01 2.000000e-01 2.000000e-01 2.000000e-01 2.000000e-01 2.000000e-01 2.000000e-01 2.000000e-01 2.000000e-01 2.000000e-01 2.000000e-01 2.000000e-01 2.000000e-01 2.000000e-01 2.000000e-01 2.000000e-01 2.000000e-01 2.000000e-01 2.000000e-01 2.000000e-01 2.000000e-01 2.000000e-01 2.000000e-01 2.000000e-01 2.000000e-01 2.000000e-01 2.000000e-01 2.000000e-01 2.000000e-01 2.000000e-01 2.000000e-01 2.000000e-01 2.000000e-01 2.000000e-01 2.000000e-01 2.000000e-01 2.000000e-01 2.000000e-01 2.000000e-01 2.000000e-01 2.000000e-01 2.000000e-01 2.000000e-01 2.000000e-01 2.000000e-01 2.000000e-01 2.000000e-01 2.000000e-01 2.000000e-01 2.000000e-01 2.000000e-01 2.000000e-01 2.000000e-01 2.000000e-01 2.000000e-01 2.000000e-01 2.000000e-01 2.000000e-01 2.000000e-01 2.000000e-01 2.000000e-01 2.000000e-01 2.000000e-01 2.000000e-01 2.000000e-01 2.000000e-01 2.000000e-01 2.000000e-01 2.000000e-01 2.000000e-01 2.000000e-01 2.000000e-01 2.000000e-01 2.000000e-01 2.000000e-01 2.000000e-01 2.000000e-01 2.000000e-01 2.000000e-01 2.000000e-01 2.000000e-01 2.000000e-01 2.000000e-01 2.000000e-01 2.000000e-01 2.000000e-01 2.000000e-01 2.000000e-01 2.000000e-01 2.000000e-01 2.000000e-01 2.000000e-01
<GCONST> 3.243863e+01
<STATE> 3
<MEAN> 142
 5.830573e-01 3.893746e-01 3.458930e-01 4.020742e-01 3.797383e-01 2.102762e-01 3.106953e-01 2.360646e-01 3.270459e-01 4.391147e-01 4.199062e-01 4.326923e-01 4.043242e-01 4.161705e-01 2.763233e-01 3.004543e-01 3.872528e-01 4.325056e-01 2.691023e-01 3.020772e-01 3.791791e-01 3.994080e-01 3.191022e-01 4.490363e-01 4.654675e-01 3.152506e-01 4.210715e-01 3.992230e-01 4.515584e-01 3.836767e-01 4.451825e-01 3.927915e-01 3.244454e-01 4.472298e-01 4.312982e-01 3.503676e-01 3.386180e-01 4.252482e-01 3.989463e-01 2.678963e-01 4.043073e-01 5.000482e-01 3.885407e-01 2.451856e-01 2.106202e-01 4.125790e-01 4.275937e-01 3.398573e-01 3.682451e-01 3.344537e-01 4.882876e-01 3.447823e-01 3.711571e-01 3.000131e-01 4.781040e-01 4.096272e-01 3.652245e-01 2.674333e-01 3.619823e-01 2.811741e-01 3.549415e-01 4.646533e-01 3.811612e-01 4.345205e-01 4.356494e-01 5.074367e-01 3.780127e-01 3.298598e-01 3.990967e-01 4.151802e-01 4.287291e-01 3.808680e-01 4.267976e-01 3.577803e-01 2.990989e-01 3.767521e-01 4.022954e-01 4.499550e-01 4.399821e-01 4.245813e-01 4.815770e-01 3.821254e-01 4.029234e-01 4.341294e-01 3.234122e-01 3.972678e-01 3.744666e-01 4.203302e-01 4.771000e-01 2.994093e-01 3.908992e-01 2.403288e-01 4.297172e-01 3.664199e-01 4.529209e-01 4.202447e-01 4.012657e-01 3.813560e-01 4.673447e-01 3.653299e-01 3.977285e-01 4.765978e-01 3.346488e-01 4.098814e-01 2.947221e-01 3.311871e-01 3.928297e-01 3.851407e-01 3.483736e-01 3.154467e-01 3.941016e-01 3.710756e-01 3.410399e-01 3.574684e-01 3.726537e-01 4.256671e-01 3.960502e-01 4.121856e-01 4.312893e-01 3.407804e-01 4.216452e-01 5.055854e-01 4.501162e-01 3.910557e-01 3.109334e-01 3.978415e-01 4.302385e-01 4.531700e-01 4.657595e-01 3.190622e-01 2.826200e-01 4.492688e-01 3.886778e-01 3.779252e-01 3.664825e-01 4.351216e-01 3.929397e-01 3.925198e-01 3.179859e-01 3.887893e-01 5.001732e-01 4.110262e-01
<VARIANCE> 142
 2.000000e-01 2.000000e-01 2.000000e-01 2.000000e-01 2.000000e-01 2.000000e-01 2.000000e-01 2.000000e-01 2.000000e-01 2.000000e-01 2.000000e-01 2.000000e-01 2.000000e-01 2.000000e-01 2.000000e-01 2.000000e-01 2.000000e-01 2.000000e-01 2.000000e-01 2.000000e-01 2.000000e-01 2.000000e-01 2.000000e-01 2.000000e-01 2.000000e-01 2.000000e-01 2.000000e-01 2.000000e-01 2.000000e-01 2.000000e-01 2.000000e-01 2.000000e-01 2.000000e-01 2.000000e-01 2.000000e-01 2.000000e-01 2.000000e-01 2.000000e-01 2.000000e-01 2.000000e-01 2.000000e-01 2.000000e-01 2.000000e-01 2.000000e-01 2.000000e-01 2.000000e-01 2.000000e-01 2.000000e-01 2.000000e-01 2.000000e-01 2.000000e-01 2.000000e-01 2.000000e-01 2.000000e-01 2.000000e-01 2.000000e-01 2.000000e-01 2.000000e-01 2.000000e-01 2.000000e-01 2.000000e-01 2.000000e-01 2.000000e-01 2.000000e-01 2.000000e-01 2.000000e-01 2.000000e-01 2.000000e-01 2.000000e-01 2.000000e-01 2.000000e-01 2.000000e-01 2.000000e-01 2.000000e-01 2.000000e-01 2.000000e-01 2.000000e-01 2.000000e-01 2.000000e-01 2.000000e-01 2.000000e-01 2.000000e-01 2.000000e-01 2.000000e-01 2.000000e-01 2.000000e-01 2.000000e-01 2.000000e-01 2.000000e-01 2.000000e-01 2.000000e-01 2.000000e-01 2.000000e-01 2.000000e-01 2.000000e-01 2.000000e-01 2.000000e-01 2.000000e-01 2.000000e-01 2.000000e-01 2.000000e-01 2.000000e-01 2.000000e-01 2.000000e-01 2.000000e-01 2.000000e-01 2.000000e-01 2.000000e-01 2.000000e-01 2.000000e-01 2.000000e-01 2.000000e-01 2.000000e-01 2.000000e-01 2.000000e-01 2.000000e-01 2.000000e-01 2.000000e-01 2.000000e-01 2.000000e-01 2.000000e-01 2.000000e-01 2.000000e-01 2.000000e-01 2.000000e-01 2.000000e-01 2.000000e-01 2.000000e-01 2.000000e-01 2.000000e-01 2.000000e-01 2.000000e-01 2.000000e-01 2.000000e-01 2.000000e-01 2.000000e-01 2.000000e-01 2.000000e-01 2.000000e-01 2.000000e-01 2.000000e-01 2.000000e-01
<GCONST> 3.243863e+01
<TRANSP> 4
 0.000000e+00 1.000000e+00 0.000000e+00 0.000000e+00
 0.000000e+00 8.133659e-01 1.866340e-01 0.000000e+00
 0.000000e+00 0.000000e+00 8.864744e-01 1.135256e-01
 0.000000e+00 0.000000e+00 0.000000e+00 0.000000e+00
<ENDHMM>
