~o
<STREAMINFO> 1 142
<VECSIZE> 142<NULLD><USER><DIAGC>
~h "dinner"
<BEGINHMM>
<NUMSTATES> 4
<STATE> 2
<MEAN> 142
 5.930452e-01 3.294874e-01 3.600592e-01 3.398949e-01 2.998739e-01 3.090812e-01 3.977526e-01 3.958290e-01 3.875428e-01 4.216704e-01 4.479159e-01 4.159449e-01 3.532172e-01 4.522913e-01 3.469836e-01 3.755418e-01 4.028939e-01 3.543669e-01 3.324054e-01 3.550838e-01 5.232261e-01 5.368524e-01 3.602067e-01 4.819461e-01 4.779737e-01 4.309469e-01 4.322152e-01 3.700027e-01 4.311820e-01 4.033465e-01 5.133452e-01 4.222214e-01 4.145308e-01 5.052802e-01 4.491953e-01 3.670805e-01 3.717607e-01 2.691644e-01 4.299897e-01 4.152706e-01 3.066727e-01 4.393346e-01 3.257611e-01 3.475725e-01 2.333309e-01 3.611168e-01 4.464545e-01 4.480827e-01 4.345406e-01 3.696718e-01 4.259638e-01 3.659468e-01 4.677636e-01 2.767754e-01 3.875591e-01 4.287706e-01 4.611532e-01 3.465711e-01 3.564008e-01 3.745308e-01 4.244597e-01 5.180991e-01 3.738230e-01 3.728945e-01 3.654529e-01 4.551230e-01 3.192418e-01 4.303629e-01 4.170675e-01 3.744399e-01 4.581322e-01 3.836454e-01 3.821279e-01 4.103356e-01 3.196053e-01 3.452470e-01 4.535016e-01 4.136327e-01 4.974511e-01 4.563613e-01 4.153148e-01 3.597170e-01 3.406618e-01 4.109619e-01 3.728217e-01 3.910391e-01 3.969169e-01 3.848767e-01 4.807328e-01 3.512234e-01 3.315972e-01 2.877428e-01 4.106936e-01 3.129703e-01 4.265260e-01 4.404019e-01 4.629326e-01 2.558466e-01 5.101023e-01 4.740492e-01 4.257979e-01 4.951156e-01 4.093232e-01 3.573368e-01 3.567299e-01 2.977460e-01 3.670626e-01 3.860475e-01 4.087619e-01 3.831303e-01 4.025999e-01 3.501456e-01 3.304826e-01 3.558605e-01 3.735957e-01 4.056998e-01 3.706955e-01 4.227729e-01 3.923607e-01 4.327144e-01 4.217047e-01 4.844579e-01 4.412641e-01 3.006785e-01 4.228356e-01 3.645693e-01 3.981163e-01 2.990550e-01 2.993659e-01 4.610390e-01 4.352790e-01 3.688048e-01 3.071721e-01 4.240623e-01 3.269534e-01 4.062042e-01 4.275258e-01 3.722608e-01 4.052925e-01 4.116451e-01 4.456999e-01 3.954628e-01
<VARIANCE> 142
 2.000000e-01 2.000000e-01 2.000000e-01 2.000000e-01 2.000000e-01 2.000000e-01 2.000000e-01 2.000000e-01 2.000000e-01 2.000000e-01 2.000000e-01 2.000000e-01 2.000000e-01 2.000000e-01 2.000000e-01 2.000000e-01 2.000000e-01 2.000000e-01 2.000000e-01 2.000000e-01 2.000000e-01 2.000000e-01 2.000000e-01 2.000000e-01 2.000000e-01 2.000000e-01 2.000000e-01 2.000000e-01 2.000000e-01 2.000000e-01 2.000000e-01 2.000000e-01 2.000000e-01 2.000000e-01 2.000000e-01 2.000000e-01 2.000000e-01 2.000000e-01 2.000000e-01 2.000000e-01 2.000000e-01 2.000000e-01 2.000000e-01 2.000000e-01 2.000000e-01 2.000000e-01 2.000000e-01 2.000000e-01 2.000000e-01 2.000000e-01 2.000000e-01 2.000000e-01 2.000000e-01 2.000000e-01 2.000000e-01 2.000000e-01 2.000000e-01 2.000000e-01 2.000000e-01 2.000000e-01 2.000000e-01 2.000000e-01 2.000000e-01 2.000000e-01 2.000000e-01 2.000000e-01 2.000000e-01 2.000000e-01 2.000000e-01 2.000000e-01 2.000000e-01 2.000000e-01 2.000000e-01 2.000000e-01 2.000000e-01 2.000000e-01 2.000000e-01 2.000000e-01 2.000000e-01 2.000000e-01 2.000000e-01 2.000000e-01 2.000000e-01 2.000000e-01 2.000000e-01 2.000000e-01 2.000000e-01 2.000000e-01 2.000000e-01 2.000000e-01 2.000000e-01 2.000000e-01 2.000000e-01 2.000000e-01 2.000000e-01 2.000000e-01 2.000000e-01 2.000000e-01 2.000000e-01 2.000000e-01 2.000000e-01 2.000000e-01 2.000000e-01 2.000000e-01 2.000000e-01 2.000000e-01 2.000000e-01 2.000000e-01 2.000000e-01 2.000000e-01 2.000000e-01 2.000000e-01 2.000000e-01 2.000000e-01 2.000000e-01 2.000000e-01 2.000000e-01 2.000000e-01 2.000000e-01 2.000000e-01 2.000000e-01 2.000000e-01 2.000000e-01 2.000000e-01 2.000000e-01 2.000000e-01 2.000000e-01 2.000000e-01 2.000000e-01 2.000000e-01 2.000000e-01 2.000000e-01 2.000000e-01 2.000000e-01 2.000000e-01 2.000000e-01 2.000000e-01 2.000000e-01 2.000000e-01 2.000000e-01 2.000000e-01 2.000000e-01
<GCONST> 3.243863e+01
<STATE> 3
<MEAN> 142
 4.542844e-01 2.383842e-01 3.188926e-01 2.916617e-01 3.432553e-01 4.615285e-01 3.438769e-01 4.658385e-01 5.178527e-01 5.180240e-01 4.590832e-01 4.401287e-01 5.924698e-01 5.057600e-01 4.791348e-01 4.198652e-01 3.888900e-01 3.540764e-01 4.008152e-01 5.231465e-01 4.270145e-01 4.000657e-01 4.539549e-01 3.991280e-01 4.758484e-01 6.221922e-01 3.091666e-01 3.867366e-01 4.170288e-01 6.103280e-01 5.154542e-01 3.899948e-01 2.218411e-01 5.234495e-01 4.312734e-01 4.245765e-01 3.049032e-01 6.422561e-01 4.042059e-01 4.957625e-01 6.137505e-01 3.507925e-01 4.243427e-01 5.101089e-01 2.160588e-01 2.613705e-01 3.629771e-01 6.753659e-01 4.415282e-01 4.107629e-01 5.570188e-01 7.947936e-01 6.305686e-01 3.976937e-01 3.561393e-01 3.272262e-01 4.242174e-01 3.798473e-01 4.511610e-01 2.711148e-01 5.847247e-01 4.388034e-01 4.776922e-01 5.049460e-01 5.419517e-01 3.231028e-01 7.536036e-01 4.304272e-01 3.583460e-01 6.478344e-01 5.092688e-01 3.876821e-01 4.050743e-01 3.856155e-01 4.088864e-01 5.802160e-01 4.063765e-01 3.223907e-01 5.433781e-01 3.617073e-01 5.094798e-01 2.867892e-01 5.398043e-01 3.548369e-01 3.613988e-01 2.665510e-01 4.653984e-01 5.024179e-01 4.786237e-01 3.618963e-01 3.997208e-01 3.539113e-01 4.912226e-01 4.256245e-01 3.455302e-01 5.474185e-01 4.150070e-01 5.318449e-01 5.722824e-01 5.747597e-01 4.547093e-01 3.860588e-01 4.148709e-01 5.161260e-01 3.418647e-01 3.706734e-01 5.707885e-01 5.848344e-01 4.885967e-01 3.492061e-01 4.583562e-01 3.413560e-01 3.320547e-01 3.796023e-01 3.494292e-01 5.219793e-01 4.067743e-01 4.216700e-01 4.021895e-01 3.853808e-01 3.958208e-01 3.356777e-01 4.414382e-01 3.122488e-01 4.269682e-01 2.778552e-01 3.860573e-01 5.105868e-01 4.235075e-01 4.510462e-01 4.425637e-01 4.302442e-01 4.652903e-01 6.200228e-01 4.459998e-01 4.531574e-01 3.795212e-01 4.381734e-01 5.556277e-01 3.569787e-01 4.516754e-01 3.550217e-01
<VARIANCE> 142
 2.000000e-01 2.000000e-01 2.000000e-01 2.000000e-01 2.000000e-01 2.000000e-01 2.000000e-01 2.000000e-01 2.000000e-01 2.000000e-01 2.000000e-01 2.000000e-01 2.000000e-01 2.000000e-01 2.000000e-01 2.000000e-01 2.000000e-01 2.000000e-01 2.000000e-01 2.000000e-01 2.000000e-01 2.000000e-01 2.000000e-01 2.000000e-01 2.000000e-01 2.000000e-01 2.000000e-01 2.000000e-01 2.000000e-01 2.000000e-01 2.000000e-01 2.000000e-01 2.000000e-01 2.000000e-01 2.000000e-01 2.000000e-01 2.000000e-01 2.000000e-01 2.000000e-01 2.000000e-01 2.000000e-01 2.000000e-01 2.000000e-01 2.000000e-01 2.000000e-01 2.000000e-01 2.000000e-01 2.000000e-01 2.000000e-01 2.000000e-01 2.000000e-01 2.000000e-01 2.000000e-01 2.000000e-01 2.000000e-01 2.000000e-01 2.000000e-01 2.000000e-01 2.000000e-01 2.000000e-01 2.000000e-01 2.000000e-01 2.000000e-01 2.000000e-01 2.000000e-01 2.000000e-01 2.000000e-01 2.000000e-01 2.000000e-01 2.000000e-01 2.000000e-01 2.000000e-01 2.000000e-01 2.000000e-01 2.000000e-01 2.000000e-01 2.000000e-01 2.000000e-01 2.000000e-01 2.000000e-01 2.000000e-01 2.000000e-01 2.000000e-01 2.000000e-01 2.000000e-01 2.000000e-01 2.000000e-01 2.000000e-01 2.000000e-01 2.000000e-01 2.000000e-01 2.000000e-01 2.000000e-01 2.000000e-01 2.000000e-01 2.000000e-01 2.000000e-01 2.000000e-01 2.000000e-01 2.000000e-01 2.000000e-01 2.000000e-01 2.000000e-01 2.000000e-01 2.000000e-01 2.000000e-01 2.000000e-01 2.000000e-01 2.000000e-01 2.000000e-01 2.000000e-01 2.000000e-01 2.000000e-01 2.000000e-01 2.000000e-01 2.000000e-01 2.000000e-01 2.000000e-01 2.000000e-01 2.000000e-01 2.000000e-01 2.000000e-01 2.000000e-01 2.000000e-01 2.000000e-01 2.000000e-01 2.000000e-01 2.000000e-01 2.000000e-01 2.000000e-01 2.000000e-01 2.000000e-01 2.000000e-01 2.000000e-01 2.000000e-01 2.000000e-01 2.000000e-01 2.000000e-01 2.000000e-01 2.000000e-01 2.000000e-01 2.000000e-01
<GCONST> 3.243863e+01
<TRANSP> 4
 0.000000e+00 1.000000e+00 0.000000e+00 0.000000e+00
 0.000000e+00 8.888912e-01 1.111089e-01 0.000000e+00
 0.000000e+00 0.000000e+00 8.333282e-01 1.666718e-01
 0.000000e+00 0.000000e+00 0.000000e+00 0.000000e+00
<ENDHMM>
