~o
<STREAMINFO> 1 142
<VECSIZE> 142<NULLD><USER><DIAGC>
~h "dizzy"
<BEGINHMM>
<NUMSTATES> 4
<STATE> 2
<MEAN> 142
 5.315816e-01 3.622969e-01 3.220575e-01 3.422048e-01 3.364551e-01 2.792928e-01 3.155051e-01 3.858871e-01 4.012165e-01 5.085124e-01 4.075289e-01 3.960837e-01 3.704131e-01 4.457878e-01 4.258283e-01 3.767778e-01 4.540604e-01 3.791619e-01 2.525034e-01 3.325733e-01 4.340254e-01 4.522780e-01 3.427030e-01 4.621423e-01 4.810137e-01 4.059203e-01 3.699186e-01 3.687008e-01 4.540062e-01 4.418989e-01 4.814014e-01 3.830039e-01 3.208790e-01 5.146215e-01 4.605786e-01 4.233924e-01 3.960797e-01 4.024602e-01 4.340935e-01 4.078888e-01 4.149804e-01 5.303593e-01 3.310613e-01 3.472915e-01 1.989403e-01 3.558871e-01 4.097089e-01 4.672890e-01 4.458427e-01 2.967899e-01 4.626437e-01 4.540728e-01 4.678650e-01 3.117101e-01 3.639584e-01 3.852921e-01 3.772838e-01 3.084274e-01 3.264410e-01 3.040377e-01 4.015496e-01 4.792635e-01 4.222870e-01 4.025102e-01 4.002770e-01 3.992438e-01 4.428557e-01 3.870453e-01 3.315837e-01 4.423600e-01 4.243029e-01 3.428926e-01 3.935079e-01 3.874852e-01 2.459673e-01 3.474501e-01 3.876539e-01 4.122888e-01 5.261900e-01 4.490051e-01 4.687666e-01 3.747386e-01 4.423477e-01 3.925513e-01 3.173486e-01 3.355775e-01 3.875739e-01 4.142330e-01 4.356127e-01 3.032180e-01 3.493960e-01 2.842981e-01 4.069060e-01 3.238994e-01 4.564856e-01 4.591623e-01 4.495385e-01 3.327876e-01 5.576066e-01 4.548281e-01 4.429027e-01 4.559334e-01 3.650718e-01 4.031917e-01 3.337741e-01 3.268672e-01 3.566737e-01 4.445757e-01 3.663837e-01 3.952694e-01 3.973568e-01 3.037149e-01 3.323238e-01 4.091306e-01 3.641732e-01 3.763250e-01 3.219994e-01 4.580472e-01 4.124401e-01 3.588559e-01 4.059732e-01 4.040678e-01 4.061081e-01 2.960217e-01 3.741902e-01 3.751162e-01 4.074737e-01 4.127253e-01 4.083533e-01 3.959738e-01 4.000440e-01 4.001651e-01 3.263080e-01 4.426982e-01 4.293959e-01 4.549460e-01 3.842687e-01 4.451047e-01 4.498107e-01 3.905216e-01 4.942284e-01 3.681579e-01
<VARIANCE> 142
 2.000000e-01 2.000000e-01 2.000000e-01 2.000000e-01 2.000000e-01 2.000000e-01 2.000000e-01 2.000000e-01 2.000000e-01 2.000000e-01 2.000000e-01 2.000000e-01 2.000000e-01 2.000000e-01 2.000000e-01 2.000000e-01 2.000000e-01 2.000000e-01 2.000000e-01 2.000000e-01 2.000000e-01 2.000000e-01 2.000000e-01 2.000000e-01 2.000000e-01 2.000000e-01 2.000000e-01 2.000000e-01 2.000000e-01 2.000000e-01 2.000000e-01 2.000000e-01 2.000000e-01 2.000000e-01 2.000000e-01 2.000000e-01 2.000000e-01 2.000000e-01 2.000000e-01 2.000000e-01 2.000000e-01 2.000000e-01 2.000000e-01 2.000000e-01 2.000000e-01 2.000000e-01 2.000000e-01 2.000000e-01 2.000000e-01 2.000000e-01 2.000000e-01 2.000000e-01 2.000000e-01 2.000000e-01 2.000000e-01 2.000000e-01 2.000000e-01 2.000000e-01 2.000000e-01 2.000000e-01 2.000000e-01 2.000000e-01 2.000000e-01 2.000000e-01 2.000000e-01 2.000000e-01 2.000000e-01 2.000000e-01 2.000000e-01 2.000000e-01 2.000000e-01 2.000000e-01 2.000000e-01 2.000000e-01 2.000000e-01 2.000000e-01 2.000000e-01 2.000000e-01 2.000000e-01 2.000000e-01 2.000000e-01 2.000000e-01 2.000000e-01 2.000000e-01 2.000000e-01 2.000000e-01 2.000000e-01 2.000000e-01 2.000000e-01 2.000000e-01 2.000000e-01 2.000000e-01 2.000000e-01 2.000000e-01 2.000000e-01 2.000000e-01 2.000000e-01 2.000000e-01 2.000000e-01 2.000000e-01 2.000000e-01 2.000000e-01 2.000000e-01 2.000000e-01 2.000000e-01 2.000000e-01 2.000000e-01 2.000000e-01 2.000000e-01 2.000000e-01 2.000000e-01 2.000000e-01 2.000000e-01 2.000000e-01 2.000000e-01 2.000000e-01 2.000000e-01 2.000000e-01 2.000000e-01 2.000000e-01 2.000000e-01 2.000000e-01 2.000000e-01 2.000000e-01 2.000000e-01 2.000000e-01 2.000000e-01 2.000000e-01 2.000000e-01 2.000000e-01 2.000000e-01 2.000000e-01 2.000000e-01 2.000000e-01 2.000000e-01 2.000000e-01 2.000000e-01 2.000000e-01 2.000000e-01 2.000000e-01 2.000000e-01 2.000000e-01
<GCONST> 3.243863e+01
<STATE> 3
<MEAN> 142
 7.139179e-01 4.168744e-01 3.910809e-01 3.315151e-01 2.860410e-01 3.597719e-01 3.887952e-01 3.360600e-01 3.147162e-01 3.922279e-01 4.325408e-01 5.060731e-01 3.968746e-01 4.422164e-01 2.918142e-01 3.342978e-01 4.106617e-01 4.451731e-01 3.105603e-01 3.735675e-01 4.120512e-01 4.203717e-01 4.087666e-01 4.580858e-01 4.192973e-01 3.967959e-01 4.012654e-01 4.739068e-01 4.179363e-01 4.107315e-01 4.649012e-01 4.172826e-01 5.221740e-01 3.742566e-01 4.301718e-01 3.643175e-01 3.072987e-01 3.083492e-01 3.250729e-01 3.067611e-01 3.288565e-01 4.218452e-01 3.482828e-01 3.450734e-01 2.998643e-01 4.732557e-01 4.176064e-01 3.282393e-01 3.673010e-01 3.741497e-01 4.887820e-01 3.828271e-01 4.214711e-01 2.738347e-01 5.174133e-01 3.687545e-01 3.957247e-01 3.137664e-01 3.641858e-01 2.906776e-01 4.513343e-01 4.749038e-01 4.079314e-01 4.306754e-01 4.139205e-01 4.823033e-01 3.182141e-01 3.463813e-01 4.665909e-01 3.812578e-01 4.643245e-01 5.186478e-01 4.605042e-01 4.227080e-01 3.950866e-01 3.971284e-01 5.171419e-01 4.571088e-01 4.016794e-01 3.539460e-01 4.266681e-01 3.783693e-01 3.537757e-01 4.390288e-01 3.477476e-01 4.820829e-01 4.058505e-01 4.455400e-01 4.257970e-01 4.635430e-01 4.717406e-01 4.112153e-01 4.428514e-01 4.361232e-01 4.180943e-01 4.558655e-01 4.230233e-01 3.614724e-01 3.929684e-01 4.135665e-01 3.510560e-01 4.924194e-01 3.697716e-01 3.514604e-01 2.829046e-01 2.939501e-01 4.345952e-01 3.537154e-01 3.606362e-01 3.314628e-01 4.409244e-01 4.622917e-01 3.542913e-01 3.307934e-01 4.003032e-01 4.520595e-01 4.351532e-01 3.730544e-01 4.717410e-01 4.155299e-01 4.067696e-01 5.052860e-01 4.608412e-01 5.266869e-01 3.936763e-01 4.703843e-01 5.024892e-01 3.653380e-01 4.080935e-01 3.874834e-01 3.714177e-01 4.377184e-01 4.592848e-01 3.697289e-01 3.649218e-01 3.676608e-01 4.483696e-01 3.695690e-01 3.251449e-01 3.496404e-01 4.980212e-01 4.862717e-01
<VARIANCE> 142
 2.000000e-01 2.000000e-01 2.000000e-01 2.000000e-01 2.000000e-01 2.000000e-01 2.000000e-01 2.000000e-01 2.000000e-01 2.000000e-01 2.000000e-01 2.000000e-01 2.000000e-01 2.000000e-01 2.000000e-01 2.000000e-01 2.000000e-01 2.000000e-01 2.000000e-01 2.000000e-01 2.000000e-01 2.000000e-01 2.000000e-01 2.000000e-01 2.000000e-01 2.000000e-01 2.000000e-01 2.000000e-01 2.000000e-01 2.000000e-01 2.000000e-01 2.000000e-01 2.000000e-01 2.000000e-01 2.000000e-01 2.000000e-01 2.000000e-01 2.000000e-01 2.000000e-01 2.000000e-01 2.000000e-01 2.000000e-01 2.000000e-01 2.000000e-01 2.000000e-01 2.000000e-01 2.000000e-01 2.000000e-01 2.000000e-01 2.000000e-01 2.000000e-01 2.000000e-01 2.000000e-01 2.000000e-01 2.000000e-01 2.000000e-01 2.000000e-01 2.000000e-01 2.000000e-01 2.000000e-01 2.000000e-01 2.000000e-01 2.000000e-01 2.000000e-01 2.000000e-01 2.000000e-01 2.000000e-01 2.000000e-01 2.000000e-01 2.000000e-01 2.000000e-01 2.000000e-01 2.000000e-01 2.000000e-01 2.000000e-01 2.000000e-01 2.000000e-01 2.000000e-01 2.000000e-01 2.000000e-01 2.000000e-01 2.000000e-01 2.000000e-01 2.000000e-01 2.000000e-01 2.000000e-01 2.000000e-01 2.000000e-01 2.000000e-01 2.000000e-01 2.000000e-01 2.000000e-01 2.000000e-01 2.000000e-01 2.000000e-01 2.000000e-01 2.000000e-01 2.000000e-01 2.000000e-01 2.000000e-01 2.000000e-01 2.000000e-01 2.000000e-01 2.000000e-01 2.000000e-01 2.000000e-01 2.000000e-01 2.000000e-01 2.000000e-01 2.000000e-01 2.000000e-01 2.000000e-01 2.000000e-01 2.000000e-01 2.000000e-01 2.000000e-01 2.000000e-01 2.000000e-01 2.000000e-01 2.000000e-01 2.000000e-01 2.000000e-01 2.000000e-01 2.000000e-01 2.000000e-01 2.000000e-01 2.000000e-01 2.000000e-01 2.000000e-01 2.000000e-01 2.000000e-01 2.000000e-01 2.000000e-01 2.000000e-01 2.000000e-01 2.000000e-01 2.000000e-01 2.000000e-01 2.000000e-01 2.000000e-01 2.000000e-01 2.000000e-01
<GCONST> 3.243863e+01
<TRANSP> 4
 0.000000e+00 1.000000e+00 0.000000e+00 0.000000e+00
 0.000000e+00 8.771989e-01 1.228011e-01 0.000000e+00
 0.000000e+00 0.000000e+00 8.619861e-01 1.380139e-01
 0.000000e+00 0.000000e+00 0.000000e+00 0.000000e+00
<ENDHMM>
