~o
<STREAMINFO> 1 142
<VECSIZE> 142<NULLD><USER><DIAGC>
~h "emergency"
<BEGINHMM>
<NUMSTATES> 4
<STATE> 2
<MEAN> 142
 7.317628e-01 3.666833e-01 4.570912e-01 3.049954e-01 3.404555e-01 4.081627e-01 5.032371e-01 3.903536e-01 3.268124e-01 3.592675e-01 5.371584e-01 4.220604e-01 4.032802e-01 5.339332e-01 2.922178e-01 3.550939e-01 3.950265e-01 3.837294e-01 3.403495e-01 4.477583e-01 5.303931e-01 5.444601e-01 4.575741e-01 4.568362e-01 5.191513e-01 3.885719e-01 4.189095e-01 3.609850e-01 3.963163e-01 3.479221e-01 5.528773e-01 4.601831e-01 5.311667e-01 4.522090e-01 4.663651e-01 2.969058e-01 3.149880e-01 2.734557e-01 2.787337e-01 3.888900e-01 2.799302e-01 3.682930e-01 3.140619e-01 3.602526e-01 2.643374e-01 4.541979e-01 5.247424e-01 4.345477e-01 4.132697e-01 3.321152e-01 5.083548e-01 4.095488e-01 4.305530e-01 1.949705e-01 5.303926e-01 3.616501e-01 4.267662e-01 3.943295e-01 3.247711e-01 3.833106e-01 5.146213e-01 4.488407e-01 3.608164e-01 3.657014e-01 3.660884e-01 5.268335e-01 2.948222e-01 4.246819e-01 5.000864e-01 3.059377e-01 5.391178e-01 4.859316e-01 4.196844e-01 4.545161e-01 4.733236e-01 4.257623e-01 5.078871e-01 5.062567e-01 4.410197e-01 4.691576e-01 4.058139e-01 3.359406e-01 3.084738e-01 4.920895e-01 3.441487e-01 4.957263e-01 4.080533e-01 4.537258e-01 4.312297e-01 4.016618e-01 3.713971e-01 3.978941e-01 4.406624e-01 3.833125e-01 4.489910e-01 5.506800e-01 4.015354e-01 3.179844e-01 4.131786e-01 4.663348e-01 3.913729e-01 4.690984e-01 3.295853e-01 3.181666e-01 3.237267e-01 3.122912e-01 3.552392e-01 3.462800e-01 3.648242e-01 4.653741e-01 4.029893e-01 3.671920e-01 4.987551e-01 2.730717e-01 3.738876e-01 4.280632e-01 3.747814e-01 4.573631e-01 4.187441e-01 4.337538e-01 3.660657e-01 5.829882e-01 4.509243e-01 4.335127e-01 5.655879e-01 4.047037e-01 4.091305e-01 2.972277e-01 3.014409e-01 4.711122e-01 4.766079e-01 4.161349e-01 4.047697e-01 4.478877e-01 3.276927e-01 3.587843e-01 5.351999e-01 4.077988e-01 3.279952e-01 3.460494e-01 4.672303e-01 5.365720e-01
<VARIANCE> 142
 2.000000e-01 2.000000e-01 2.000000e-01 2.000000e-01 2.000000e-01 2.000000e-01 2.000000e-01 2.000000e-01 2.000000e-01 2.000000e-01 2.000000e-01 2.000000e-01 2.000000e-01 2.000000e-01 2.000000e-01 2.000000e-01 2.000000e-01 2.000000e-01 2.000000e-01 2.000000e-01 2.000000e-01 2.000000e-01 2.000000e-01 2.000000e-01 2.000000e-01 2.000000e-01 2.000000e-01 2.000000e-01 2.000000e-01 2.000000e-01 2.000000e-01 2.000000e-01 2.000000e-01 2.000000e-01 2.000000e-01 2.000000e-01 2.000000e-01 2.000000e-01 2.000000e-01 2.000000e-01 2.000000e-01 2.000000e-01 2.000000e-01 2.000000e-01 2.000000e-01 2.000000e-01 2.000000e-01 2.000000e-01 2.000000e-01 2.000000e-01 2.000000e-01 2.000000e-01 2.000000e-01 2.000000e-01 2.000000e-01 2.000000e-01 2.000000e-01 2.000000e-01 2.000000e-01 2.000000e-01 2.000000e-01 2.000000e-01 2.000000e-01 2.000000e-01 2.000000e-01 2.000000e-01 2.000000e-01 2.000000e-01 2.000000e-01 2.000000e-01 2.000000e-01 2.000000e-01 2.000000e-01 2.000000e-01 2.000000e-01 2.000000e-01 2.000000e-01 2.000000e-01 2.000000e-01 2.000000e-01 2.000000e-01 2.000000e-01 2.000000e-01 2.000000e-01 2.000000e-01 2.000000e-01 2.000000e-01 2.000000e-01 2.000000e-01 2.000000e-01 2.000000e-01 2.000000e-01 2.000000e-01 2.000000e-01 2.000000e-01 2.000000e-01 2.000000e-01 2.000000e-01 2.000000e-01 2.000000e-01 2.000000e-01 2.000000e-01 2.000000e-01 2.000000e-01 2.000000e-01 2.000000e-01 2.000000e-01 2.000000e-01 2.000000e-01 2.000000e-01 2.000000e-01 2.000000e-01 2.000000e-01 2.000000e-01 2.000000e-01 2.000000e-01 2.000000e-01 2.000000e-01 2.000000e-01 2.000000e-01 2.000000e-01 2.000000e-01 2.000000e-01 2.000000e-01 2.000000e-01 2.000000e-01 2.000000e-01 2.000000e-01 2.000000e-01 2.000000e-01 2.000000e-01 2.000000e-01 2.000000e-01 2.000000e-01 2.000000e-01 2.000000e-01 2.000000e-01 2.000000e-01 2.000000e-01 2.000000e-01 2.000000e-01 2.000000e-01
<GCONST> 3.243863e+01
<STATE> 3
<MEAN> 142
 5.720626e-01 4.519825e-01 3.514306e-01 3.285334e-01 2.889073e-01 4.680799e-01 4.305135e-01 2.039202e-01 3.654507e-01 4.360900e-01 4.730500e-01 5.852219e-01 4.589697e-01 5.350006e-01 3.590645e-01 2.314966e-01 4.384626e-01 4.735492e-01 3.799428e-01 3.712911e-01 4.250594e-01 3.954004e-01 4.078426e-01 4.160922e-01 4.069906e-01 4.527385e-01 4.374017e-01 4.543769e-01 4.609372e-01 5.990303e-01 5.287622e-01 3.629532e-01 4.245044e-01 4.047779e-01 4.980639e-01 3.119493e-01 2.853896e-01 3.925764e-01 3.764321e-01 3.727262e-01 3.677202e-01 3.858113e-01 4.640800e-01 2.793231e-01 3.609316e-01 4.293335e-01 3.325912e-01 3.375465e-01 3.461429e-01 4.808555e-01 5.173336e-01 3.481255e-01 4.829110e-01 3.175586e-01 4.942207e-01 4.352050e-01 3.264483e-01 2.925770e-01 4.049200e-01 3.480853e-01 3.969595e-01 4.339024e-01 4.070010e-01 4.786091e-01 4.639778e-01 3.878522e-01 3.760948e-01 4.041661e-01 5.023587e-01 4.949063e-01 4.312769e-01 6.567339e-01 3.831832e-01 4.289657e-01 4.969466e-01 4.887191e-01 4.432475e-01 3.626454e-01 4.295925e-01 2.494263e-01 5.107523e-01 3.997911e-01 3.792946e-01 4.343948e-01 4.601673e-01 5.169526e-01 4.575540e-01 5.326903e-01 4.688151e-01 5.620728e-01 5.689424e-01 4.974084e-01 4.899119e-01 4.271764e-01 4.093476e-01 4.481987e-01 4.272941e-01 4.670358e-01 3.526163e-01 4.152742e-01 3.635053e-01 4.259048e-01 4.169791e-01 4.569489e-01 2.900359e-01 2.659053e-01 4.579501e-01 4.382651e-01 4.377558e-01 3.228444e-01 5.482676e-01 5.888473e-01 3.357638e-01 3.601107e-01 4.916461e-01 5.782028e-01 5.463529e-01 3.252519e-01 5.132207e-01 3.561362e-01 3.698626e-01 4.444137e-01 3.862535e-01 7.825416e-01 3.287347e-01 4.204577e-01 5.690631e-01 3.948725e-01 4.529905e-01 3.554944e-01 2.782586e-01 4.892154e-01 4.534832e-01 4.102849e-01 3.647529e-01 3.229264e-01 4.780486e-01 3.566243e-01 2.685845e-01 3.887625e-01 3.924829e-01 4.196708e-01
<VARIANCE> 142
 2.000000e-01 2.000000e-01 2.000000e-01 2.000000e-01 2.000000e-01 2.000000e-01 2.000000e-01 2.000000e-01 2.000000e-01 2.000000e-01 2.000000e-01 2.000000e-01 2.000000e-01 2.000000e-01 2.000000e-01 2.000000e-01 2.000000e-01 2.000000e-01 2.000000e-01 2.000000e-01 2.000000e-01 2.000000e-01 2.000000e-01 2.000000e-01 2.000000e-01 2.000000e-01 2.000000e-01 2.000000e-01 2.000000e-01 2.000000e-01 2.000000e-01 2.000000e-01 2.000000e-01 2.000000e-01 2.000000e-01 2.000000e-01 2.000000e-01 2.000000e-01 2.000000e-01 2.000000e-01 2.000000e-01 2.000000e-01 2.000000e-01 2.000000e-01 2.000000e-01 2.000000e-01 2.000000e-01 2.000000e-01 2.000000e-01 2.000000e-01 2.000000e-01 2.000000e-01 2.000000e-01 2.000000e-01 2.000000e-01 2.000000e-01 2.000000e-01 2.000000e-01 2.000000e-01 2.000000e-01 2.000000e-01 2.000000e-01 2.000000e-01 2.000000e-01 2.000000e-01 2.000000e-01 2.000000e-01 2.000000e-01 2.000000e-01 2.000000e-01 2.000000e-01 2.000000e-01 2.000000e-01 2.000000e-01 2.000000e-01 2.000000e-01 2.000000e-01 2.000000e-01 2.000000e-01 2.000000e-01 2.000000e-01 2.000000e-01 2.000000e-01 2.000000e-01 2.000000e-01 2.000000e-01 2.000000e-01 2.000000e-01 2.000000e-01 2.000000e-01 2.000000e-01 2.000000e-01 2.000000e-01 2.000000e-01 2.000000e-01 2.000000e-01 2.000000e-01 2.000000e-01 2.000000e-01 2.000000e-01 2.000000e-01 2.000000e-01 2.000000e-01 2.000000e-01 2.000000e-01 2.000000e-01 2.000000e-01 2.000000e-01 2.000000e-01 2.000000e-01 2.000000e-01 2.000000e-01 2.000000e-01 2.000000e-01 2.000000e-01 2.000000e-01 2.000000e-01 2.000000e-01 2.000000e-01 2.000000e-01 2.000000e-01 2.000000e-01 2.000000e-01 2.000000e-01 2.000000e-01 2.000000e-01 2.000000e-01 2.000000e-01 2.000000e-01 2.000000e-01 2.000000e-01 2.000000e-01 2.000000e-01 2.000000e-01 2.000000e-01 2.000000e-01 2.000000e-01 2.000000e-01 2.000000e-01 2.000000e-01 2.000000e-01 2.000000e-01
<GCONST> 3.243863e+01
<TRANSP> 4
 0.000000e+00 1.000000e+00 0.000000e+00 0.000000e+00
 0.000000e+00 8.887002e-01 1.112998e-01 0.000000e+00
 0.000000e+00 0.000000e+00 8.006083e-01 1.993916e-01
 0.000000e+00 0.000000e+00 0.000000e+00 0.000000e+00
<ENDHMM>
