~o
<STREAMINFO> 1 142
<VECSIZE> 142<NULLD><USER><DIAGC>
~h "end_sentence"
<BEGINHMM>
<NUMSTATES> 4
<STATE> 2
<MEAN> 142
 7.052410e-01 3.414627e-01 4.189150e-01 3.674522e-01 3.082382e-01 4.048057e-01 4.459615e-01 3.671139e-01 3.475158e-01 3.853924e-01 4.642781e-01 4.203552e-01 3.955236e-01 4.753430e-01 3.019527e-01 3.684386e-01 3.794869e-01 3.694890e-01 3.622740e-01 4.148429e-01 5.155367e-01 5.010399e-01 4.333635e-01 4.479929e-01 4.666992e-01 4.040987e-01 4.466222e-01 3.722283e-01 3.777418e-01 3.501335e-01 4.807557e-01 4.306214e-01 4.911316e-01 4.470113e-01 4.321984e-01 3.501402e-01 3.444376e-01 2.877301e-01 3.141566e-01 3.533671e-01 3.083525e-01 3.985714e-01 3.170638e-01 3.767107e-01 2.772951e-01 4.106802e-01 4.643721e-01 4.043854e-01 4.405514e-01 3.670838e-01 5.004355e-01 3.806744e-01 4.183151e-01 2.584564e-01 4.805691e-01 3.424216e-01 4.616676e-01 3.966514e-01 3.823795e-01 3.809728e-01 4.907751e-01 4.465286e-01 3.608658e-01 3.847590e-01 3.581185e-01 4.863883e-01 3.365838e-01 4.486173e-01 4.669687e-01 3.414256e-01 4.752174e-01 4.786447e-01 4.266218e-01 4.356902e-01 3.947642e-01 3.852332e-01 4.862290e-01 4.275478e-01 4.510801e-01 4.515905e-01 4.009895e-01 3.569725e-01 3.434850e-01 4.706913e-01 3.658471e-01 4.817188e-01 3.952133e-01 4.218226e-01 4.687798e-01 3.982691e-01 3.399588e-01 4.009838e-01 4.024870e-01 3.502888e-01 4.135341e-01 4.461849e-01 4.220927e-01 3.001965e-01 4.093840e-01 4.554025e-01 3.661985e-01 5.034161e-01 3.586344e-01 3.205310e-01 3.535531e-01 3.202169e-01 3.769688e-01 3.413467e-01 4.334022e-01 4.418997e-01 3.881949e-01 3.648374e-01 3.712499e-01 3.259255e-01 3.532109e-01 4.177735e-01 3.652177e-01 4.242114e-01 4.088404e-01 4.471233e-01 4.100518e-01 5.072757e-01 4.470429e-01 4.121899e-01 4.783798e-01 4.067616e-01 3.927313e-01 3.093485e-01 3.057948e-01 4.627285e-01 4.277096e-01 3.767464e-01 3.963519e-01 3.941479e-01 3.408758e-01 4.031451e-01 4.903188e-01 3.867615e-01 3.808005e-01 3.770508e-01 4.506799e-01 4.844704e-01
<VARIANCE> 142
 2.000000e-01 2.000000e-01 2.000000e-01 2.000000e-01 2.000000e-01 2.000000e-01 2.000000e-01 2.000000e-01 2.000000e-01 2.000000e-01 2.000000e-01 2.000000e-01 2.000000e-01 2.000000e-01 2.000000e-01 2.000000e-01 2.000000e-01 2.000000e-01 2.000000e-01 2.000000e-01 2.000000e-01 2.000000e-01 2.000000e-01 2.000000e-01 2.000000e-01 2.000000e-01 2.000000e-01 2.000000e-01 2.000000e-01 2.000000e-01 2.000000e-01 2.000000e-01 2.000000e-01 2.000000e-01 2.000000e-01 2.000000e-01 2.000000e-01 2.000000e-01 2.000000e-01 2.000000e-01 2.000000e-01 2.000000e-01 2.000000e-01 2.000000e-01 2.000000e-01 2.000000e-01 2.000000e-01 2.000000e-01 2.000000e-01 2.000000e-01 2.000000e-01 2.000000e-01 2.000000e-01 2.000000e-01 2.000000e-01 2.000000e-01 2.000000e-01 2.000000e-01 2.000000e-01 2.000000e-01 2.000000e-01 2.000000e-01 2.000000e-01 2.000000e-01 2.000000e-01 2.000000e-01 2.000000e-01 2.000000e-01 2.000000e-01 2.000000e-01 2.000000e-01 2.000000e-01 2.000000e-01 2.000000e-01 2.000000e-01 2.000000e-01 2.000000e-01 2.000000e-01 2.000000e-01 2.000000e-01 2.000000e-01 2.000000e-01 2.000000e-01 2.000000e-01 2.000000e-01 2.000000e-01 2.000000e-01 2.000000e-01 2.000000e-01 2.000000e-01 2.000000e-01 2.000000e-01 2.000000e-01 2.000000e-01 2.000000e-01 2.000000e-01 2.000000e-01 2.000000e-01 2.000000e-01 2.000000e-01 2.000000e-01 2.000000e-01 2.000000e-01 2.000000e-01 2.000000e-01 2.000000e-01 2.000000e-01 2.000000e-01 2.000000e-01 2.000000e-01 2.000000e-01 2.000000e-01 2.000000e-01 2.000000e-01 2.000000e-01 2.000000e-01 2.000000e-01 2.000000e-01 2.000000e-01 2.000000e-01 2.000000e-01 2.000000e-01 2.000000e-01 2.000000e-01 2.000000e-01 2.000000e-01 2.000000e-01 2.000000e-01 2.000000e-01 2.000000e-01 2.000000e-01 2.000000e-01 2.000000e-01 2.000000e-01 2.000000e-01 2.000000e-01 2.000000e-01 2.000000e-01 2.000000e-01 2.000000e-01 2.000000e-01 2.000000e-01
<GCONST> 3.243863e+01
<STATE> 3
<MEAN> 142
 5.156008e-01 3.826422e-01 3.150770e-01 3.399020e-01 3.114324e-01 2.626931e-01 3.091881e-01 3.256389e-01 3.815566e-01 4.463729e-01 4.403736e-01 4.378498e-01 3.853672e-01 4.591142e-01 3.784016e-01 3.317777e-01 4.165924e-01 4.271719e-01 2.873216e-01 3.484656e-01 4.069538e-01 4.209640e-01 3.380350e-01 4.539436e-01 4.725670e-01 3.939633e-01 3.933672e-01 4.114944e-01 4.588736e-01 4.345357e-01 4.586397e-01 4.085718e-01 3.205254e-01 4.802924e-01 4.340895e-01 3.906054e-01 3.791654e-01 4.187573e-01 4.321910e-01 3.561320e-01 4.334763e-01 4.901856e-01 3.714705e-01 3.050113e-01 2.085265e-01 3.869235e-01 4.017170e-01 4.222274e-01 3.920940e-01 3.292179e-01 4.652487e-01 4.356334e-01 4.572844e-01 3.127964e-01 4.051914e-01 4.182841e-01 3.899420e-01 2.945803e-01 3.351576e-01 2.918613e-01 3.846821e-01 4.522624e-01 4.105399e-01 4.326344e-01 4.490808e-01 4.043306e-01 4.250416e-01 3.563919e-01 3.774802e-01 4.511917e-01 4.395570e-01 3.547248e-01 3.985052e-01 3.886068e-01 2.795062e-01 3.681673e-01 4.077591e-01 4.080248e-01 4.722311e-01 4.115058e-01 5.065042e-01 3.898439e-01 4.329767e-01 3.751193e-01 3.332321e-01 3.399626e-01 3.974554e-01 4.327583e-01 4.568083e-01 3.239032e-01 3.756465e-01 2.781638e-01 4.480734e-01 3.810554e-01 4.267573e-01 4.709203e-01 4.538140e-01 3.892519e-01 4.889661e-01 4.252112e-01 4.361168e-01 4.327645e-01 3.508909e-01 4.273356e-01 3.219088e-01 3.039625e-01 3.918640e-01 4.407956e-01 3.688900e-01 3.251509e-01 3.994022e-01 3.733583e-01 3.245732e-01 3.798412e-01 3.745335e-01 4.090508e-01 3.931841e-01 4.179154e-01 4.475871e-01 3.710414e-01 4.311161e-01 4.373185e-01 4.286523e-01 3.676659e-01 3.515560e-01 3.936784e-01 4.267469e-01 4.520919e-01 4.341031e-01 3.616380e-01 3.718899e-01 4.357704e-01 3.744427e-01 4.510459e-01 4.365065e-01 4.408775e-01 3.845142e-01 4.572363e-01 3.910839e-01 3.960099e-01 4.402443e-01 3.931037e-01
<VARIANCE> 142
 2.000000e-01 2.000000e-01 2.000000e-01 2.000000e-01 2.000000e-01 2.000000e-01 2.000000e-01 2.000000e-01 2.000000e-01 2.000000e-01 2.000000e-01 2.000000e-01 2.000000e-01 2.000000e-01 2.000000e-01 2.000000e-01 2.000000e-01 2.000000e-01 2.000000e-01 2.000000e-01 2.000000e-01 2.000000e-01 2.000000e-01 2.000000e-01 2.000000e-01 2.000000e-01 2.000000e-01 2.000000e-01 2.000000e-01 2.000000e-01 2.000000e-01 2.000000e-01 2.000000e-01 2.000000e-01 2.000000e-01 2.000000e-01 2.000000e-01 2.000000e-01 2.000000e-01 2.000000e-01 2.000000e-01 2.000000e-01 2.000000e-01 2.000000e-01 2.000000e-01 2.000000e-01 2.000000e-01 2.000000e-01 2.000000e-01 2.000000e-01 2.000000e-01 2.000000e-01 2.000000e-01 2.000000e-01 2.000000e-01 2.000000e-01 2.000000e-01 2.000000e-01 2.000000e-01 2.000000e-01 2.000000e-01 2.000000e-01 2.000000e-01 2.000000e-01 2.000000e-01 2.000000e-01 2.000000e-01 2.000000e-01 2.000000e-01 2.000000e-01 2.000000e-01 2.000000e-01 2.000000e-01 2.000000e-01 2.000000e-01 2.000000e-01 2.000000e-01 2.000000e-01 2.000000e-01 2.000000e-01 2.000000e-01 2.000000e-01 2.000000e-01 2.000000e-01 2.000000e-01 2.000000e-01 2.000000e-01 2.000000e-01 2.000000e-01 2.000000e-01 2.000000e-01 2.000000e-01 2.000000e-01 2.000000e-01 2.000000e-01 2.000000e-01 2.000000e-01 2.000000e-01 2.000000e-01 2.000000e-01 2.000000e-01 2.000000e-01 2.000000e-01 2.000000e-01 2.000000e-01 2.000000e-01 2.000000e-01 2.000000e-01 2.000000e-01 2.000000e-01 2.000000e-01 2.000000e-01 2.000000e-01 2.000000e-01 2.000000e-01 2.000000e-01 2.000000e-01 2.000000e-01 2.000000e-01 2.000000e-01 2.000000e-01 2.000000e-01 2.000000e-01 2.000000e-01 2.000000e-01 2.000000e-01 2.000000e-01 2.000000e-01 2.000000e-01 2.000000e-01 2.000000e-01 2.000000e-01 2.000000e-01 2.000000e-01 2.000000e-01 2.000000e-01 2.000000e-01 2.000000e-01 2.000000e-01 2.000000e-01 2.000000e-01 2.000000e-01
<GCONST> 3.243863e+01
<TRANSP> 4
 0.000000e+00 1.000000e+00 0.000000e+00 0.000000e+00
 0.000000e+00 8.559282e-01 1.440718e-01 0.000000e+00
 0.000000e+00 0.000000e+00 8.603245e-01 1.396755e-01
 0.000000e+00 0.000000e+00 0.000000e+00 0.000000e+00
<ENDHMM>
