~o
<STREAMINFO> 1 142
<VECSIZE> 142<NULLD><USER><DIAGC>
~h "english"
<BEGINHMM>
<NUMSTATES> 4
<STATE> 2
<MEAN> 142
 4.955103e-01 3.827630e-01 3.093636e-01 3.537401e-01 2.968365e-01 1.830076e-01 2.990459e-01 2.939197e-01 3.575324e-01 4.210160e-01 3.903105e-01 4.124201e-01 2.776012e-01 3.926733e-01 3.633943e-01 3.110211e-01 4.158382e-01 3.754005e-01 2.340002e-01 2.824955e-01 4.296781e-01 5.007017e-01 3.175463e-01 4.932120e-01 4.775035e-01 3.431475e-01 3.784213e-01 3.644695e-01 4.523307e-01 3.910114e-01 4.440494e-01 4.250125e-01 3.282506e-01 5.549547e-01 4.284428e-01 3.851321e-01 3.779142e-01 3.248623e-01 4.537217e-01 3.198948e-01 3.311830e-01 5.334246e-01 3.333108e-01 2.595609e-01 1.441870e-01 3.590325e-01 4.296000e-01 4.038370e-01 4.261752e-01 2.936866e-01 4.469545e-01 3.741546e-01 4.316776e-01 2.585490e-01 3.871850e-01 4.088419e-01 3.404179e-01 2.757751e-01 2.648790e-01 2.714202e-01 3.232480e-01 4.417011e-01 4.036385e-01 3.742981e-01 3.695166e-01 4.171200e-01 3.307037e-01 3.659582e-01 3.420369e-01 4.060916e-01 4.417173e-01 2.862110e-01 4.005229e-01 3.784711e-01 2.068902e-01 2.722113e-01 4.174909e-01 4.534288e-01 4.788119e-01 4.585282e-01 4.538687e-01 4.100235e-01 3.668972e-01 3.768987e-01 2.836007e-01 3.142755e-01 3.800822e-01 3.968852e-01 4.274195e-01 2.825747e-01 3.212442e-01 2.172597e-01 3.763801e-01 3.326885e-01 4.438683e-01 4.312988e-01 4.552191e-01 2.790424e-01 5.374443e-01 4.303201e-01 4.288345e-01 4.807881e-01 3.456738e-01 3.713105e-01 2.898230e-01 3.156779e-01 3.210052e-01 4.010138e-01 3.179848e-01 3.206835e-01 3.449385e-01 3.216399e-01 3.434671e-01 4.094083e-01 3.465698e-01 3.507710e-01 3.382368e-01 4.527365e-01 3.943041e-01 3.770122e-01 4.545522e-01 4.387969e-01 4.261363e-01 2.779504e-01 3.355771e-01 3.860850e-01 3.740613e-01 3.601766e-01 3.533531e-01 3.628014e-01 3.504645e-01 4.147538e-01 2.665049e-01 4.090164e-01 4.033913e-01 4.458707e-01 3.448048e-01 4.487235e-01 3.733748e-01 4.527469e-01 4.412086e-01 3.879800e-01
<VARIANCE> 142
 2.000000e-01 2.000000e-01 2.000000e-01 2.000000e-01 2.000000e-01 2.000000e-01 2.000000e-01 2.000000e-01 2.000000e-01 2.000000e-01 2.000000e-01 2.000000e-01 2.000000e-01 2.000000e-01 2.000000e-01 2.000000e-01 2.000000e-01 2.000000e-01 2.000000e-01 2.000000e-01 2.000000e-01 2.000000e-01 2.000000e-01 2.000000e-01 2.000000e-01 2.000000e-01 2.000000e-01 2.000000e-01 2.000000e-01 2.000000e-01 2.000000e-01 2.000000e-01 2.000000e-01 2.000000e-01 2.000000e-01 2.000000e-01 2.000000e-01 2.000000e-01 2.000000e-01 2.000000e-01 2.000000e-01 2.000000e-01 2.000000e-01 2.000000e-01 2.000000e-01 2.000000e-01 2.000000e-01 2.000000e-01 2.000000e-01 2.000000e-01 2.000000e-01 2.000000e-01 2.000000e-01 2.000000e-01 2.000000e-01 2.000000e-01 2.000000e-01 2.000000e-01 2.000000e-01 2.000000e-01 2.000000e-01 2.000000e-01 2.000000e-01 2.000000e-01 2.000000e-01 2.000000e-01 2.000000e-01 2.000000e-01 2.000000e-01 2.000000e-01 2.000000e-01 2.000000e-01 2.000000e-01 2.000000e-01 2.000000e-01 2.000000e-01 2.000000e-01 2.000000e-01 2.000000e-01 2.000000e-01 2.000000e-01 2.000000e-01 2.000000e-01 2.000000e-01 2.000000e-01 2.000000e-01 2.000000e-01 2.000000e-01 2.000000e-01 2.000000e-01 2.000000e-01 2.000000e-01 2.000000e-01 2.000000e-01 2.000000e-01 2.000000e-01 2.000000e-01 2.000000e-01 2.000000e-01 2.000000e-01 2.000000e-01 2.000000e-01 2.000000e-01 2.000000e-01 2.000000e-01 2.000000e-01 2.000000e-01 2.000000e-01 2.000000e-01 2.000000e-01 2.000000e-01 2.000000e-01 2.000000e-01 2.000000e-01 2.000000e-01 2.000000e-01 2.000000e-01 2.000000e-01 2.000000e-01 2.000000e-01 2.000000e-01 2.000000e-01 2.000000e-01 2.000000e-01 2.000000e-01 2.000000e-01 2.000000e-01 2.000000e-01 2.000000e-01 2.000000e-01 2.000000e-01 2.000000e-01 2.000000e-01 2.000000e-01 2.000000e-01 2.000000e-01 2.000000e-01 2.000000e-01 2.000000e-01 2.000000e-01 2.000000e-01 2.000000e-01
<GCONST> 3.243863e+01
<STATE> 3
<MEAN> 142
 6.355565e-01 3.297469e-01 3.856429e-01 3.733427e-01 3.059903e-01 4.616311e-01 4.323561e-01 3.619984e-01 3.453036e-01 4.144130e-01 4.631359e-01 4.159459e-01 3.889832e-01 4.682330e-01 3.697056e-01 3.650679e-01 3.765187e-01 3.557721e-01 3.859489e-01 4.140397e-01 5.058094e-01 4.634847e-01 4.419657e-01 4.282753e-01 4.690049e-01 4.162478e-01 4.367802e-01 4.161748e-01 3.801827e-01 4.186472e-01 4.900483e-01 3.769687e-01 4.557662e-01 4.485037e-01 4.349202e-01 3.565615e-01 3.621597e-01 3.378718e-01 3.300533e-01 3.997863e-01 3.707277e-01 3.684453e-01 3.717010e-01 3.786522e-01 3.086713e-01 3.928758e-01 4.313627e-01 4.242289e-01 4.438338e-01 3.906887e-01 5.156724e-01 4.024349e-01 4.508384e-01 2.881556e-01 4.359201e-01 3.262785e-01 4.453347e-01 4.153745e-01 4.141107e-01 4.031809e-01 4.985135e-01 4.362827e-01 3.403310e-01 3.964981e-01 4.018028e-01 4.469270e-01 3.803240e-01 4.722640e-01 4.390616e-01 4.080677e-01 4.960910e-01 4.773633e-01 3.981331e-01 4.310266e-01 4.254972e-01 4.179958e-01 4.473825e-01 3.712175e-01 4.455837e-01 4.196357e-01 4.149058e-01 3.431931e-01 3.704191e-01 4.559751e-01 4.136374e-01 4.541047e-01 4.037313e-01 4.226301e-01 4.955784e-01 4.531491e-01 3.341018e-01 4.333231e-01 4.254006e-01 3.600934e-01 4.046823e-01 4.511097e-01 4.433865e-01 3.282780e-01 4.168300e-01 4.558007e-01 3.700480e-01 4.522996e-01 3.429441e-01 3.664145e-01 3.703045e-01 3.165477e-01 4.034951e-01 3.405053e-01 4.319332e-01 4.546343e-01 3.761233e-01 3.801749e-01 3.675119e-01 3.377361e-01 3.642142e-01 4.678400e-01 3.944056e-01 4.024733e-01 4.188782e-01 4.129491e-01 3.980934e-01 4.567879e-01 4.052762e-01 4.640192e-01 4.776842e-01 3.896221e-01 4.072189e-01 3.374155e-01 3.489024e-01 4.691553e-01 4.116199e-01 3.914832e-01 3.995002e-01 3.931606e-01 3.635180e-01 4.280603e-01 4.685999e-01 4.052417e-01 3.972667e-01 3.578616e-01 3.948666e-01 4.466273e-01
<VARIANCE> 142
 2.000000e-01 2.000000e-01 2.000000e-01 2.000000e-01 2.000000e-01 2.000000e-01 2.000000e-01 2.000000e-01 2.000000e-01 2.000000e-01 2.000000e-01 2.000000e-01 2.000000e-01 2.000000e-01 2.000000e-01 2.000000e-01 2.000000e-01 2.000000e-01 2.000000e-01 2.000000e-01 2.000000e-01 2.000000e-01 2.000000e-01 2.000000e-01 2.000000e-01 2.000000e-01 2.000000e-01 2.000000e-01 2.000000e-01 2.000000e-01 2.000000e-01 2.000000e-01 2.000000e-01 2.000000e-01 2.000000e-01 2.000000e-01 2.000000e-01 2.000000e-01 2.000000e-01 2.000000e-01 2.000000e-01 2.000000e-01 2.000000e-01 2.000000e-01 2.000000e-01 2.000000e-01 2.000000e-01 2.000000e-01 2.000000e-01 2.000000e-01 2.000000e-01 2.000000e-01 2.000000e-01 2.000000e-01 2.000000e-01 2.000000e-01 2.000000e-01 2.000000e-01 2.000000e-01 2.000000e-01 2.000000e-01 2.000000e-01 2.000000e-01 2.000000e-01 2.000000e-01 2.000000e-01 2.000000e-01 2.000000e-01 2.000000e-01 2.000000e-01 2.000000e-01 2.000000e-01 2.000000e-01 2.000000e-01 2.000000e-01 2.000000e-01 2.000000e-01 2.000000e-01 2.000000e-01 2.000000e-01 2.000000e-01 2.000000e-01 2.000000e-01 2.000000e-01 2.000000e-01 2.000000e-01 2.000000e-01 2.000000e-01 2.000000e-01 2.000000e-01 2.000000e-01 2.000000e-01 2.000000e-01 2.000000e-01 2.000000e-01 2.000000e-01 2.000000e-01 2.000000e-01 2.000000e-01 2.000000e-01 2.000000e-01 2.000000e-01 2.000000e-01 2.000000e-01 2.000000e-01 2.000000e-01 2.000000e-01 2.000000e-01 2.000000e-01 2.000000e-01 2.000000e-01 2.000000e-01 2.000000e-01 2.000000e-01 2.000000e-01 2.000000e-01 2.000000e-01 2.000000e-01 2.000000e-01 2.000000e-01 2.000000e-01 2.000000e-01 2.000000e-01 2.000000e-01 2.000000e-01 2.000000e-01 2.000000e-01 2.000000e-01 2.000000e-01 2.000000e-01 2.000000e-01 2.000000e-01 2.000000e-01 2.000000e-01 2.000000e-01 2.000000e-01 2.000000e-01 2.000000e-01 2.000000e-01 2.000000e-01 2.000000e-01 2.000000e-01
<GCONST> 3.243863e+01
<TRANSP> 4
 0.000000e+00 1.000000e+00 0.000000e+00 0.000000e+00
 0.000000e+00 8.418755e-01 1.581245e-01 0.000000e+00
 0.000000e+00 0.000000e+00 8.851390e-01 1.148610e-01
 0.000000e+00 0.000000e+00 0.000000e+00 0.000000e+00
<ENDHMM>
