~o
<STREAMINFO> 1 142
<VECSIZE> 142<NULLD><USER><DIAGC>
~h "face"
<BEGINHMM>
<NUMSTATES> 4
<STATE> 2
<MEAN> 142
 6.226181e-01 3.921139e-01 4.169978e-01 3.012277e-01 3.464777e-01 4.355745e-01 3.626646e-01 3.330942e-01 4.128826e-01 4.622933e-01 5.413047e-01 4.955957e-01 4.046368e-01 5.289392e-01 2.937645e-01 2.739449e-01 3.986875e-01 3.779203e-01 4.150166e-01 3.508216e-01 3.608481e-01 3.797822e-01 4.256714e-01 3.927038e-01 4.808456e-01 4.270770e-01 4.797194e-01 5.140716e-01 3.505990e-01 4.455232e-01 4.720863e-01 3.186846e-01 4.119233e-01 3.818611e-01 4.488809e-01 2.709803e-01 4.415524e-01 3.634139e-01 3.277593e-01 3.294157e-01 4.040884e-01 3.755781e-01 5.044912e-01 3.263329e-01 3.384733e-01 4.485018e-01 3.281434e-01 3.452057e-01 3.934523e-01 4.360849e-01 5.027677e-01 3.788594e-01 4.773528e-01 3.092724e-01 3.811470e-01 3.936987e-01 5.323964e-01 4.014245e-01 4.156308e-01 3.936835e-01 4.999293e-01 3.828522e-01 4.043126e-01 4.516197e-01 5.339549e-01 3.948410e-01 3.851564e-01 4.101389e-01 4.462357e-01 4.600427e-01 4.810864e-01 4.368306e-01 4.414723e-01 4.421437e-01 4.196731e-01 4.515063e-01 4.606875e-01 2.999243e-01 4.260615e-01 3.793975e-01 4.916802e-01 3.380405e-01 3.144623e-01 4.347847e-01 4.146982e-01 4.187276e-01 3.813700e-01 4.617181e-01 5.053129e-01 4.601378e-01 4.288933e-01 3.864182e-01 5.245121e-01 4.385855e-01 4.052666e-01 4.965369e-01 4.136956e-01 4.086875e-01 3.954061e-01 4.721582e-01 4.008413e-01 3.847254e-01 3.423285e-01 3.988552e-01 3.890286e-01 3.052339e-01 4.370826e-01 3.688849e-01 4.616273e-01 4.057829e-01 4.276412e-01 4.637985e-01 2.925271e-01 3.610551e-01 4.053278e-01 4.795292e-01 4.740681e-01 3.760889e-01 5.254002e-01 4.098354e-01 4.172902e-01 4.084104e-01 3.295675e-01 5.271353e-01 4.211929e-01 4.310920e-01 5.402234e-01 4.935772e-01 4.695680e-01 4.184020e-01 3.438320e-01 3.640150e-01 5.085323e-01 4.278123e-01 3.383853e-01 3.683800e-01 4.096819e-01 3.592226e-01 3.294744e-01 3.315154e-01 3.428963e-01 4.450686e-01
<VARIANCE> 142
 2.000000e-01 2.000000e-01 2.000000e-01 2.000000e-01 2.000000e-01 2.000000e-01 2.000000e-01 2.000000e-01 2.000000e-01 2.000000e-01 2.000000e-01 2.000000e-01 2.000000e-01 2.000000e-01 2.000000e-01 2.000000e-01 2.000000e-01 2.000000e-01 2.000000e-01 2.000000e-01 2.000000e-01 2.000000e-01 2.000000e-01 2.000000e-01 2.000000e-01 2.000000e-01 2.000000e-01 2.000000e-01 2.000000e-01 2.000000e-01 2.000000e-01 2.000000e-01 2.000000e-01 2.000000e-01 2.000000e-01 2.000000e-01 2.000000e-01 2.000000e-01 2.000000e-01 2.000000e-01 2.000000e-01 2.000000e-01 2.000000e-01 2.000000e-01 2.000000e-01 2.000000e-01 2.000000e-01 2.000000e-01 2.000000e-01 2.000000e-01 2.000000e-01 2.000000e-01 2.000000e-01 2.000000e-01 2.000000e-01 2.000000e-01 2.000000e-01 2.000000e-01 2.000000e-01 2.000000e-01 2.000000e-01 2.000000e-01 2.000000e-01 2.000000e-01 2.000000e-01 2.000000e-01 2.000000e-01 2.000000e-01 2.000000e-01 2.000000e-01 2.000000e-01 2.000000e-01 2.000000e-01 2.000000e-01 2.000000e-01 2.000000e-01 2.000000e-01 2.000000e-01 2.000000e-01 2.000000e-01 2.000000e-01 2.000000e-01 2.000000e-01 2.000000e-01 2.000000e-01 2.000000e-01 2.000000e-01 2.000000e-01 2.000000e-01 2.000000e-01 2.000000e-01 2.000000e-01 2.000000e-01 2.000000e-01 2.000000e-01 2.000000e-01 2.000000e-01 2.000000e-01 2.000000e-01 2.000000e-01 2.000000e-01 2.000000e-01 2.000000e-01 2.000000e-01 2.000000e-01 2.000000e-01 2.000000e-01 2.000000e-01 2.000000e-01 2.000000e-01 2.000000e-01 2.000000e-01 2.000000e-01 2.000000e-01 2.000000e-01 2.000000e-01 2.000000e-01 2.000000e-01 2.000000e-01 2.000000e-01 2.000000e-01 2.000000e-01 2.000000e-01 2.000000e-01 2.000000e-01 2.000000e-01 2.000000e-01 2.000000e-01 2.000000e-01 2.000000e-01 2.000000e-01 2.000000e-01 2.000000e-01 2.000000e-01 2.000000e-01 2.000000e-01 2.000000e-01 2.000000e-01 2.000000e-01 2.000000e-01 2.000000e-01 2.000000e-01
<GCONST> 3.243863e+01
<STATE> 3
<MEAN> 142
 5.227801e-01 3.348109e-01 2.461566e-01 2.710753e-01 2.680923e-01 1.823276e-01 2.806981e-01 3.357769e-01 3.713959e-01 4.234191e-01 4.237899e-01 4.064289e-01 3.505148e-01 3.930101e-01 3.028996e-01 2.870880e-01 4.519502e-01 3.706520e-01 3.012120e-01 3.463381e-01 4.240409e-01 4.313292e-01 3.757314e-01 4.247514e-01 4.702486e-01 4.180604e-01 3.824336e-01 3.375999e-01 4.590549e-01 4.114437e-01 4.736569e-01 3.719527e-01 2.879860e-01 5.048180e-01 4.121788e-01 2.831126e-01 3.172788e-01 3.773625e-01 4.123378e-01 3.017266e-01 4.087136e-01 4.938286e-01 3.681511e-01 2.583300e-01 2.025231e-01 2.997561e-01 3.584332e-01 3.502731e-01 3.745802e-01 3.358832e-01 4.455447e-01 4.081407e-01 4.545132e-01 2.971067e-01 3.703953e-01 4.125243e-01 4.180200e-01 2.673011e-01 3.778415e-01 2.683743e-01 3.691150e-01 4.445491e-01 4.007690e-01 4.612828e-01 3.859417e-01 3.506192e-01 3.837565e-01 3.646710e-01 3.533049e-01 4.378985e-01 4.157218e-01 3.295186e-01 3.838143e-01 3.485115e-01 2.571142e-01 3.513366e-01 3.804531e-01 2.758391e-01 4.899499e-01 3.799346e-01 4.641386e-01 3.199478e-01 3.576439e-01 3.679885e-01 3.109939e-01 2.663528e-01 4.066122e-01 4.020216e-01 4.787469e-01 2.869073e-01 3.147109e-01 2.528651e-01 3.695801e-01 3.507506e-01 3.750457e-01 4.189080e-01 4.076362e-01 3.674414e-01 4.294719e-01 4.345645e-01 4.163722e-01 4.145181e-01 3.303341e-01 3.667500e-01 2.774158e-01 3.098732e-01 3.717604e-01 4.343472e-01 3.028437e-01 3.026161e-01 3.713605e-01 3.832807e-01 2.633539e-01 3.796761e-01 3.468972e-01 4.045408e-01 3.916157e-01 3.867516e-01 4.049082e-01 3.480303e-01 3.695441e-01 3.901258e-01 3.971856e-01 3.545964e-01 3.625172e-01 3.497964e-01 3.888595e-01 3.841179e-01 3.682836e-01 3.551138e-01 3.146133e-01 3.521043e-01 3.136207e-01 4.449127e-01 3.399638e-01 3.800251e-01 3.931342e-01 3.730673e-01 3.253305e-01 3.355204e-01 4.201731e-01 3.686414e-01
<VARIANCE> 142
 2.000000e-01 2.000000e-01 2.000000e-01 2.000000e-01 2.000000e-01 2.000000e-01 2.000000e-01 2.000000e-01 2.000000e-01 2.000000e-01 2.000000e-01 2.000000e-01 2.000000e-01 2.000000e-01 2.000000e-01 2.000000e-01 2.000000e-01 2.000000e-01 2.000000e-01 2.000000e-01 2.000000e-01 2.000000e-01 2.000000e-01 2.000000e-01 2.000000e-01 2.000000e-01 2.000000e-01 2.000000e-01 2.000000e-01 2.000000e-01 2.000000e-01 2.000000e-01 2.000000e-01 2.000000e-01 2.000000e-01 2.000000e-01 2.000000e-01 2.000000e-01 2.000000e-01 2.000000e-01 2.000000e-01 2.000000e-01 2.000000e-01 2.000000e-01 2.000000e-01 2.000000e-01 2.000000e-01 2.000000e-01 2.000000e-01 2.000000e-01 2.000000e-01 2.000000e-01 2.000000e-01 2.000000e-01 2.000000e-01 2.000000e-01 2.000000e-01 2.000000e-01 2.000000e-01 2.000000e-01 2.000000e-01 2.000000e-01 2.000000e-01 2.000000e-01 2.000000e-01 2.000000e-01 2.000000e-01 2.000000e-01 2.000000e-01 2.000000e-01 2.000000e-01 2.000000e-01 2.000000e-01 2.000000e-01 2.000000e-01 2.000000e-01 2.000000e-01 2.000000e-01 2.000000e-01 2.000000e-01 2.000000e-01 2.000000e-01 2.000000e-01 2.000000e-01 2.000000e-01 2.000000e-01 2.000000e-01 2.000000e-01 2.000000e-01 2.000000e-01 2.000000e-01 2.000000e-01 2.000000e-01 2.000000e-01 2.000000e-01 2.000000e-01 2.000000e-01 2.000000e-01 2.000000e-01 2.000000e-01 2.000000e-01 2.000000e-01 2.000000e-01 2.000000e-01 2.000000e-01 2.000000e-01 2.000000e-01 2.000000e-01 2.000000e-01 2.000000e-01 2.000000e-01 2.000000e-01 2.000000e-01 2.000000e-01 2.000000e-01 2.000000e-01 2.000000e-01 2.000000e-01 2.000000e-01 2.000000e-01 2.000000e-01 2.000000e-01 2.000000e-01 2.000000e-01 2.000000e-01 2.000000e-01 2.000000e-01 2.000000e-01 2.000000e-01 2.000000e-01 2.000000e-01 2.000000e-01 2.000000e-01 2.000000e-01 2.000000e-01 2.000000e-01 2.000000e-01 2.000000e-01 2.000000e-01 2.000000e-01 2.000000e-01 2.000000e-01
<GCONST> 3.243863e+01
<TRANSP> 4
 0.000000e+00 1.000000e+00 0.000000e+00 0.000000e+00
 0.000000e+00 8.671278e-01 1.328722e-01 0.000000e+00
 0.000000e+00 0.000000e+00 8.428380e-01 1.571620e-01
 0.000000e+00 0.000000e+00 0.000000e+00 0.000000e+00
<ENDHMM>
