~o
<STREAMINFO> 1 142
<VECSIZE> 142<NULLD><USER><DIAGC>
~h "fair"
<BEGINHMM>
<NUMSTATES> 4
<STATE> 2
<MEAN> 142
 4.468988e-01 3.435027e-01 3.416985e-01 3.807632e-01 3.520769e-01 2.347993e-01 2.899247e-01 3.832690e-01 3.717222e-01 6.356469e-01 4.342698e-01 3.557725e-01 3.964247e-01 4.571040e-01 5.168857e-01 4.020717e-01 4.674465e-01 3.367585e-01 3.319742e-01 3.304687e-01 4.645174e-01 4.506874e-01 3.430153e-01 5.045012e-01 5.205959e-01 3.492717e-01 3.747428e-01 3.989249e-01 4.116499e-01 4.200904e-01 4.843207e-01 4.070465e-01 2.874567e-01 6.747608e-01 4.614205e-01 5.266107e-01 4.711258e-01 5.169726e-01 4.853348e-01 4.356240e-01 3.947754e-01 5.359097e-01 3.792861e-01 3.949234e-01 2.330034e-01 3.919309e-01 4.781320e-01 5.463787e-01 4.655135e-01 2.631599e-01 4.256072e-01 5.424012e-01 5.496424e-01 2.890210e-01 2.712291e-01 3.703003e-01 4.340498e-01 3.371997e-01 3.167792e-01 2.673946e-01 3.855548e-01 4.984399e-01 4.112085e-01 4.135437e-01 4.629339e-01 3.492442e-01 5.204412e-01 4.279801e-01 3.434930e-01 4.981434e-01 4.910982e-01 2.763176e-01 4.342420e-01 4.777967e-01 2.767296e-01 2.702704e-01 3.737860e-01 3.220691e-01 5.383518e-01 5.338485e-01 4.548628e-01 2.949070e-01 5.488355e-01 3.634053e-01 3.119763e-01 2.923405e-01 3.514033e-01 3.480804e-01 4.564112e-01 3.698956e-01 2.747869e-01 3.390768e-01 3.920055e-01 2.872613e-01 4.049174e-01 3.854893e-01 4.404877e-01 3.551229e-01 5.904171e-01 4.465838e-01 5.132121e-01 4.799131e-01 2.524048e-01 4.221606e-01 3.398702e-01 3.620336e-01 4.006127e-01 4.794078e-01 3.594230e-01 3.774543e-01 3.610905e-01 2.626508e-01 3.533195e-01 3.994035e-01 3.657856e-01 2.791575e-01 3.222520e-01 5.626454e-01 3.591900e-01 3.188264e-01 4.138412e-01 3.421851e-01 3.987570e-01 3.069108e-01 3.742136e-01 3.643096e-01 3.604620e-01 4.739816e-01 4.087557e-01 4.721314e-01 3.590862e-01 4.384334e-01 2.716986e-01 4.271956e-01 4.616290e-01 5.425488e-01 2.743958e-01 4.829421e-01 4.814440e-01 4.169634e-01 4.790111e-01 3.167319e-01
<VARIANCE> 142
 2.000000e-01 2.000000e-01 2.000000e-01 2.000000e-01 2.000000e-01 2.000000e-01 2.000000e-01 2.000000e-01 2.000000e-01 2.000000e-01 2.000000e-01 2.000000e-01 2.000000e-01 2.000000e-01 2.000000e-01 2.000000e-01 2.000000e-01 2.000000e-01 2.000000e-01 2.000000e-01 2.000000e-01 2.000000e-01 2.000000e-01 2.000000e-01 2.000000e-01 2.000000e-01 2.000000e-01 2.000000e-01 2.000000e-01 2.000000e-01 2.000000e-01 2.000000e-01 2.000000e-01 2.000000e-01 2.000000e-01 2.000000e-01 2.000000e-01 2.000000e-01 2.000000e-01 2.000000e-01 2.000000e-01 2.000000e-01 2.000000e-01 2.000000e-01 2.000000e-01 2.000000e-01 2.000000e-01 2.000000e-01 2.000000e-01 2.000000e-01 2.000000e-01 2.000000e-01 2.000000e-01 2.000000e-01 2.000000e-01 2.000000e-01 2.000000e-01 2.000000e-01 2.000000e-01 2.000000e-01 2.000000e-01 2.000000e-01 2.000000e-01 2.000000e-01 2.000000e-01 2.000000e-01 2.000000e-01 2.000000e-01 2.000000e-01 2.000000e-01 2.000000e-01 2.000000e-01 2.000000e-01 2.000000e-01 2.000000e-01 2.000000e-01 2.000000e-01 2.000000e-01 2.000000e-01 2.000000e-01 2.000000e-01 2.000000e-01 2.000000e-01 2.000000e-01 2.000000e-01 2.000000e-01 2.000000e-01 2.000000e-01 2.000000e-01 2.000000e-01 2.000000e-01 2.000000e-01 2.000000e-01 2.000000e-01 2.000000e-01 2.000000e-01 2.000000e-01 2.000000e-01 2.000000e-01 2.000000e-01 2.000000e-01 2.000000e-01 2.000000e-01 2.000000e-01 2.000000e-01 2.000000e-01 2.000000e-01 2.000000e-01 2.000000e-01 2.000000e-01 2.000000e-01 2.000000e-01 2.000000e-01 2.000000e-01 2.000000e-01 2.000000e-01 2.000000e-01 2.000000e-01 2.000000e-01 2.000000e-01 2.000000e-01 2.000000e-01 2.000000e-01 2.000000e-01 2.000000e-01 2.000000e-01 2.000000e-01 2.000000e-01 2.000000e-01 2.000000e-01 2.000000e-01 2.000000e-01 2.000000e-01 2.000000e-01 2.000000e-01 2.000000e-01 2.000000e-01 2.000000e-01 2.000000e-01 2.000000e-01 2.000000e-01 2.000000e-01
<GCONST> 3.243863e+01
<STATE> 3
<MEAN> 142
 6.429595e-01 3.509031e-01 4.146432e-01 3.121855e-01 3.110421e-01 3.052833e-01 3.424036e-01 3.389857e-01 3.593076e-01 4.329704e-01 4.962408e-01 3.569912e-01 3.189496e-01 5.033905e-01 2.644747e-01 3.396609e-01 4.038833e-01 4.956116e-01 3.806815e-01 3.619052e-01 4.606129e-01 4.764372e-01 3.717594e-01 4.808165e-01 5.248843e-01 3.433502e-01 4.763350e-01 3.917167e-01 4.219802e-01 3.562129e-01 4.501111e-01 4.162167e-01 4.174678e-01 5.055728e-01 4.385692e-01 3.445053e-01 3.187048e-01 3.307190e-01 3.605607e-01 2.931343e-01 3.916518e-01 5.225225e-01 4.175213e-01 2.892926e-01 2.219540e-01 3.723689e-01 4.342372e-01 3.996427e-01 4.044001e-01 3.639659e-01 5.274592e-01 4.197029e-01 4.550245e-01 2.717726e-01 4.669680e-01 4.008986e-01 4.410475e-01 3.064279e-01 3.330068e-01 3.479939e-01 4.711826e-01 4.625486e-01 3.412230e-01 3.285353e-01 4.626847e-01 4.155986e-01 4.304174e-01 4.005613e-01 4.437272e-01 4.121538e-01 4.863994e-01 3.586560e-01 3.876936e-01 3.935691e-01 3.665535e-01 3.601418e-01 4.875846e-01 4.236333e-01 5.104267e-01 4.702060e-01 4.650677e-01 3.186792e-01 3.775482e-01 5.079966e-01 3.207433e-01 4.162088e-01 3.686268e-01 3.990020e-01 4.900374e-01 3.379990e-01 3.183015e-01 3.131830e-01 4.907567e-01 3.335035e-01 3.864287e-01 4.657160e-01 5.140390e-01 4.240569e-01 4.861654e-01 4.369512e-01 4.617019e-01 4.387568e-01 3.424254e-01 3.701082e-01 3.086106e-01 2.607488e-01 3.392244e-01 3.322735e-01 4.257632e-01 3.479148e-01 3.538418e-01 3.154993e-01 3.392494e-01 2.901001e-01 3.833425e-01 4.472729e-01 3.696541e-01 4.318312e-01 4.315488e-01 3.795546e-01 4.169529e-01 5.009823e-01 4.521033e-01 4.057900e-01 3.912413e-01 3.731685e-01 3.985495e-01 4.507249e-01 3.919311e-01 4.076001e-01 4.029839e-01 4.581550e-01 4.116871e-01 4.796775e-01 3.767568e-01 5.112271e-01 4.176058e-01 4.531152e-01 3.500479e-01 2.856036e-01 4.275695e-01 3.723257e-01
<VARIANCE> 142
 2.000000e-01 2.000000e-01 2.000000e-01 2.000000e-01 2.000000e-01 2.000000e-01 2.000000e-01 2.000000e-01 2.000000e-01 2.000000e-01 2.000000e-01 2.000000e-01 2.000000e-01 2.000000e-01 2.000000e-01 2.000000e-01 2.000000e-01 2.000000e-01 2.000000e-01 2.000000e-01 2.000000e-01 2.000000e-01 2.000000e-01 2.000000e-01 2.000000e-01 2.000000e-01 2.000000e-01 2.000000e-01 2.000000e-01 2.000000e-01 2.000000e-01 2.000000e-01 2.000000e-01 2.000000e-01 2.000000e-01 2.000000e-01 2.000000e-01 2.000000e-01 2.000000e-01 2.000000e-01 2.000000e-01 2.000000e-01 2.000000e-01 2.000000e-01 2.000000e-01 2.000000e-01 2.000000e-01 2.000000e-01 2.000000e-01 2.000000e-01 2.000000e-01 2.000000e-01 2.000000e-01 2.000000e-01 2.000000e-01 2.000000e-01 2.000000e-01 2.000000e-01 2.000000e-01 2.000000e-01 2.000000e-01 2.000000e-01 2.000000e-01 2.000000e-01 2.000000e-01 2.000000e-01 2.000000e-01 2.000000e-01 2.000000e-01 2.000000e-01 2.000000e-01 2.000000e-01 2.000000e-01 2.000000e-01 2.000000e-01 2.000000e-01 2.000000e-01 2.000000e-01 2.000000e-01 2.000000e-01 2.000000e-01 2.000000e-01 2.000000e-01 2.000000e-01 2.000000e-01 2.000000e-01 2.000000e-01 2.000000e-01 2.000000e-01 2.000000e-01 2.000000e-01 2.000000e-01 2.000000e-01 2.000000e-01 2.000000e-01 2.000000e-01 2.000000e-01 2.000000e-01 2.000000e-01 2.000000e-01 2.000000e-01 2.000000e-01 2.000000e-01 2.000000e-01 2.000000e-01 2.000000e-01 2.000000e-01 2.000000e-01 2.000000e-01 2.000000e-01 2.000000e-01 2.000000e-01 2.000000e-01 2.000000e-01 2.000000e-01 2.000000e-01 2.000000e-01 2.000000e-01 2.000000e-01 2.000000e-01 2.000000e-01 2.000000e-01 2.000000e-01 2.000000e-01 2.000000e-01 2.000000e-01 2.000000e-01 2.000000e-01 2.000000e-01 2.000000e-01 2.000000e-01 2.000000e-01 2.000000e-01 2.000000e-01 2.000000e-01 2.000000e-01 2.000000e-01 2.000000e-01 2.000000e-01 2.000000e-01 2.000000e-01 2.000000e-01
<GCONST> 3.243863e+01
<TRANSP> 4
 0.000000e+00 1.000000e+00 0.000000e+00 0.000000e+00
 0.000000e+00 8.652875e-01 1.347125e-01 0.000000e+00
 0.000000e+00 0.000000e+00 8.910294e-01 1.089706e-01
 0.000000e+00 0.000000e+00 0.000000e+00 0.000000e+00
<ENDHMM>
