~o
<STREAMINFO> 1 142
<VECSIZE> 142<NULLD><USER><DIAGC>
~h "false"
<BEGINHMM>
<NUMSTATES> 4
<STATE> 2
<MEAN> 142
 4.760281e-01 3.687460e-01 3.263181e-01 3.194540e-01 3.358698e-01 2.286754e-01 3.060130e-01 3.334578e-01 3.555662e-01 4.501219e-01 4.538770e-01 4.403042e-01 3.683795e-01 5.018688e-01 4.354779e-01 3.400992e-01 4.336118e-01 4.843205e-01 2.873119e-01 3.375046e-01 4.354071e-01 4.793245e-01 3.332720e-01 4.674757e-01 5.164711e-01 3.542157e-01 4.188207e-01 4.267758e-01 5.171026e-01 4.051010e-01 4.726320e-01 3.919098e-01 2.765603e-01 5.638860e-01 4.377297e-01 4.564492e-01 4.239447e-01 4.166974e-01 4.923942e-01 3.811754e-01 4.625586e-01 5.199466e-01 3.342138e-01 2.999280e-01 1.530944e-01 3.556922e-01 3.872257e-01 4.952553e-01 4.508086e-01 3.484790e-01 4.559116e-01 4.714962e-01 4.956796e-01 2.700195e-01 3.942678e-01 4.119803e-01 4.461341e-01 3.065974e-01 3.412574e-01 2.849844e-01 3.516632e-01 4.573175e-01 4.154214e-01 4.188720e-01 3.931188e-01 3.635583e-01 4.457092e-01 3.967017e-01 3.758535e-01 4.747993e-01 4.229819e-01 3.161102e-01 4.398465e-01 3.867126e-01 2.268768e-01 3.365924e-01 4.050227e-01 4.393204e-01 5.265298e-01 4.389423e-01 5.209337e-01 4.473823e-01 5.006882e-01 3.785918e-01 3.108881e-01 2.561551e-01 3.899478e-01 4.220059e-01 4.539736e-01 2.986028e-01 3.824490e-01 2.645490e-01 4.259853e-01 4.334482e-01 3.914673e-01 4.330366e-01 4.839028e-01 3.764127e-01 5.382657e-01 4.435499e-01 5.178462e-01 4.682559e-01 3.646420e-01 4.129505e-01 3.365932e-01 3.236707e-01 4.522372e-01 4.753368e-01 3.746935e-01 3.533815e-01 4.185203e-01 3.717057e-01 3.067642e-01 4.358958e-01 3.710092e-01 3.443966e-01 3.847115e-01 4.770870e-01 4.163773e-01 4.251463e-01 4.665776e-01 4.164732e-01 4.560438e-01 3.092598e-01 4.518733e-01 3.920531e-01 3.814667e-01 4.570836e-01 4.225248e-01 4.298610e-01 3.956840e-01 4.418282e-01 3.045515e-01 4.355758e-01 4.744802e-01 5.045354e-01 3.567143e-01 4.992401e-01 4.361841e-01 4.116722e-01 4.047614e-01 4.194314e-01
<VARIANCE> 142
 2.000000e-01 2.000000e-01 2.000000e-01 2.000000e-01 2.000000e-01 2.000000e-01 2.000000e-01 2.000000e-01 2.000000e-01 2.000000e-01 2.000000e-01 2.000000e-01 2.000000e-01 2.000000e-01 2.000000e-01 2.000000e-01 2.000000e-01 2.000000e-01 2.000000e-01 2.000000e-01 2.000000e-01 2.000000e-01 2.000000e-01 2.000000e-01 2.000000e-01 2.000000e-01 2.000000e-01 2.000000e-01 2.000000e-01 2.000000e-01 2.000000e-01 2.000000e-01 2.000000e-01 2.000000e-01 2.000000e-01 2.000000e-01 2.000000e-01 2.000000e-01 2.000000e-01 2.000000e-01 2.000000e-01 2.000000e-01 2.000000e-01 2.000000e-01 2.000000e-01 2.000000e-01 2.000000e-01 2.000000e-01 2.000000e-01 2.000000e-01 2.000000e-01 2.000000e-01 2.000000e-01 2.000000e-01 2.000000e-01 2.000000e-01 2.000000e-01 2.000000e-01 2.000000e-01 2.000000e-01 2.000000e-01 2.000000e-01 2.000000e-01 2.000000e-01 2.000000e-01 2.000000e-01 2.000000e-01 2.000000e-01 2.000000e-01 2.000000e-01 2.000000e-01 2.000000e-01 2.000000e-01 2.000000e-01 2.000000e-01 2.000000e-01 2.000000e-01 2.000000e-01 2.000000e-01 2.000000e-01 2.000000e-01 2.000000e-01 2.000000e-01 2.000000e-01 2.000000e-01 2.000000e-01 2.000000e-01 2.000000e-01 2.000000e-01 2.000000e-01 2.000000e-01 2.000000e-01 2.000000e-01 2.000000e-01 2.000000e-01 2.000000e-01 2.000000e-01 2.000000e-01 2.000000e-01 2.000000e-01 2.000000e-01 2.000000e-01 2.000000e-01 2.000000e-01 2.000000e-01 2.000000e-01 2.000000e-01 2.000000e-01 2.000000e-01 2.000000e-01 2.000000e-01 2.000000e-01 2.000000e-01 2.000000e-01 2.000000e-01 2.000000e-01 2.000000e-01 2.000000e-01 2.000000e-01 2.000000e-01 2.000000e-01 2.000000e-01 2.000000e-01 2.000000e-01 2.000000e-01 2.000000e-01 2.000000e-01 2.000000e-01 2.000000e-01 2.000000e-01 2.000000e-01 2.000000e-01 2.000000e-01 2.000000e-01 2.000000e-01 2.000000e-01 2.000000e-01 2.000000e-01 2.000000e-01 2.000000e-01 2.000000e-01 2.000000e-01
<GCONST> 3.243863e+01
<STATE> 3
<MEAN> 142
 7.358438e-01 3.481206e-01 4.628462e-01 3.527571e-01 3.632412e-01 4.910253e-01 4.639121e-01 3.679702e-01 3.225068e-01 3.598310e-01 4.572102e-01 3.681663e-01 3.937488e-01 5.243756e-01 2.970572e-01 3.850009e-01 3.568535e-01 3.806103e-01 4.291543e-01 4.462349e-01 5.550456e-01 5.175167e-01 4.467043e-01 4.169626e-01 4.859778e-01 4.003924e-01 4.935403e-01 3.950524e-01 3.381224e-01 2.934541e-01 4.575728e-01 4.163524e-01 5.083224e-01 4.846809e-01 4.163425e-01 3.613840e-01 3.650717e-01 3.106972e-01 3.281259e-01 3.510986e-01 3.582855e-01 4.061651e-01 2.777445e-01 4.171413e-01 2.558729e-01 4.070804e-01 4.590302e-01 4.359430e-01 5.127243e-01 3.516022e-01 5.157978e-01 4.069022e-01 3.879815e-01 2.425429e-01 5.038886e-01 3.134493e-01 5.455806e-01 4.722032e-01 4.094664e-01 3.750775e-01 5.114672e-01 4.728841e-01 3.485410e-01 4.064887e-01 3.537108e-01 4.675556e-01 3.947418e-01 5.072610e-01 4.866011e-01 3.572071e-01 5.378382e-01 4.768046e-01 4.483640e-01 4.277184e-01 4.420880e-01 3.953490e-01 5.145535e-01 4.450000e-01 4.821904e-01 4.764003e-01 4.210345e-01 3.688771e-01 3.304320e-01 5.050087e-01 3.590572e-01 4.776263e-01 3.700832e-01 4.116829e-01 4.959067e-01 3.636057e-01 3.071094e-01 3.838525e-01 4.177494e-01 3.743575e-01 3.987047e-01 4.591663e-01 4.172016e-01 3.435473e-01 4.424916e-01 4.979799e-01 3.786750e-01 5.136021e-01 3.242707e-01 3.073770e-01 4.131630e-01 3.088828e-01 4.185736e-01 3.553036e-01 4.909770e-01 5.198900e-01 3.692806e-01 3.222848e-01 3.791958e-01 3.714491e-01 3.450554e-01 3.874488e-01 3.235568e-01 4.442509e-01 4.104972e-01 4.833438e-01 4.391578e-01 5.016330e-01 4.410880e-01 3.827709e-01 5.473951e-01 3.894762e-01 3.564633e-01 3.133829e-01 2.934228e-01 5.115301e-01 4.609721e-01 3.739573e-01 3.933601e-01 3.613486e-01 3.393861e-01 4.361292e-01 4.882615e-01 4.060584e-01 4.204602e-01 3.672836e-01 4.199688e-01 5.011874e-01
<VARIANCE> 142
 2.000000e-01 2.000000e-01 2.000000e-01 2.000000e-01 2.000000e-01 2.000000e-01 2.000000e-01 2.000000e-01 2.000000e-01 2.000000e-01 2.000000e-01 2.000000e-01 2.000000e-01 2.000000e-01 2.000000e-01 2.000000e-01 2.000000e-01 2.000000e-01 2.000000e-01 2.000000e-01 2.000000e-01 2.000000e-01 2.000000e-01 2.000000e-01 2.000000e-01 2.000000e-01 2.000000e-01 2.000000e-01 2.000000e-01 2.000000e-01 2.000000e-01 2.000000e-01 2.000000e-01 2.000000e-01 2.000000e-01 2.000000e-01 2.000000e-01 2.000000e-01 2.000000e-01 2.000000e-01 2.000000e-01 2.000000e-01 2.000000e-01 2.000000e-01 2.000000e-01 2.000000e-01 2.000000e-01 2.000000e-01 2.000000e-01 2.000000e-01 2.000000e-01 2.000000e-01 2.000000e-01 2.000000e-01 2.000000e-01 2.000000e-01 2.000000e-01 2.000000e-01 2.000000e-01 2.000000e-01 2.000000e-01 2.000000e-01 2.000000e-01 2.000000e-01 2.000000e-01 2.000000e-01 2.000000e-01 2.000000e-01 2.000000e-01 2.000000e-01 2.000000e-01 2.000000e-01 2.000000e-01 2.000000e-01 2.000000e-01 2.000000e-01 2.000000e-01 2.000000e-01 2.000000e-01 2.000000e-01 2.000000e-01 2.000000e-01 2.000000e-01 2.000000e-01 2.000000e-01 2.000000e-01 2.000000e-01 2.000000e-01 2.000000e-01 2.000000e-01 2.000000e-01 2.000000e-01 2.000000e-01 2.000000e-01 2.000000e-01 2.000000e-01 2.000000e-01 2.000000e-01 2.000000e-01 2.000000e-01 2.000000e-01 2.000000e-01 2.000000e-01 2.000000e-01 2.000000e-01 2.000000e-01 2.000000e-01 2.000000e-01 2.000000e-01 2.000000e-01 2.000000e-01 2.000000e-01 2.000000e-01 2.000000e-01 2.000000e-01 2.000000e-01 2.000000e-01 2.000000e-01 2.000000e-01 2.000000e-01 2.000000e-01 2.000000e-01 2.000000e-01 2.000000e-01 2.000000e-01 2.000000e-01 2.000000e-01 2.000000e-01 2.000000e-01 2.000000e-01 2.000000e-01 2.000000e-01 2.000000e-01 2.000000e-01 2.000000e-01 2.000000e-01 2.000000e-01 2.000000e-01 2.000000e-01 2.000000e-01 2.000000e-01 2.000000e-01
<GCONST> 3.243863e+01
<TRANSP> 4
 0.000000e+00 1.000000e+00 0.000000e+00 0.000000e+00
 0.000000e+00 8.656405e-01 1.343596e-01 0.000000e+00
 0.000000e+00 0.000000e+00 8.737522e-01 1.262479e-01
 0.000000e+00 0.000000e+00 0.000000e+00 0.000000e+00
<ENDHMM>
