~o
<STREAMINFO> 1 142
<VECSIZE> 142<NULLD><USER><DIAGC>
~h "firefighter"
<BEGINHMM>
<NUMSTATES> 4
<STATE> 2
<MEAN> 142
 5.609080e-01 2.826698e-01 3.297840e-01 2.950177e-01 2.637118e-01 4.664950e-01 3.567380e-01 3.457235e-01 4.521226e-01 4.453472e-01 4.726421e-01 4.410594e-01 4.825493e-01 5.054004e-01 3.492289e-01 3.109522e-01 3.118176e-01 3.515820e-01 4.214359e-01 4.499778e-01 4.258878e-01 3.944200e-01 4.568153e-01 3.654087e-01 4.789817e-01 4.913535e-01 4.224638e-01 3.314484e-01 3.572953e-01 4.480835e-01 4.759496e-01 3.590203e-01 3.142500e-01 4.309989e-01 4.381259e-01 2.728846e-01 3.223066e-01 4.508552e-01 3.314908e-01 3.635003e-01 4.054178e-01 3.341655e-01 3.717950e-01 3.940998e-01 2.368895e-01 2.925792e-01 3.449818e-01 4.660916e-01 3.931820e-01 4.134690e-01 4.944956e-01 5.185823e-01 5.084626e-01 3.385312e-01 3.309892e-01 3.389384e-01 4.726367e-01 3.994404e-01 4.028242e-01 3.663884e-01 4.664030e-01 3.763323e-01 4.298963e-01 4.773855e-01 4.451913e-01 3.491261e-01 5.481996e-01 4.669924e-01 4.131449e-01 4.920111e-01 4.650447e-01 4.594273e-01 3.812351e-01 4.156112e-01 4.789248e-01 4.473299e-01 4.040743e-01 3.033322e-01 4.939329e-01 3.645236e-01 4.320471e-01 3.189897e-01 3.647695e-01 3.961628e-01 3.699392e-01 3.782921e-01 4.080318e-01 4.672342e-01 4.811373e-01 4.075652e-01 3.829623e-01 4.071116e-01 4.147415e-01 3.728260e-01 3.114817e-01 4.676969e-01 3.855464e-01 4.279057e-01 3.755604e-01 5.113830e-01 3.942377e-01 4.194078e-01 3.819688e-01 4.047573e-01 3.037071e-01 3.434950e-01 4.890356e-01 4.594500e-01 4.892643e-01 4.054695e-01 4.377536e-01 3.406855e-01 2.648943e-01 2.660240e-01 3.433591e-01 4.484338e-01 4.146299e-01 3.480766e-01 3.967415e-01 3.999126e-01 3.975594e-01 3.575267e-01 3.845686e-01 4.128365e-01 4.079823e-01 3.127897e-01 3.626281e-01 3.825900e-01 3.949636e-01 4.537696e-01 3.527738e-01 3.458947e-01 4.476782e-01 4.543335e-01 3.032617e-01 3.678394e-01 3.612877e-01 3.784191e-01 3.563842e-01 2.901171e-01 3.041014e-01 4.356346e-01
<VARIANCE> 142
 2.000000e-01 2.000000e-01 2.000000e-01 2.000000e-01 2.000000e-01 2.000000e-01 2.000000e-01 2.000000e-01 2.000000e-01 2.000000e-01 2.000000e-01 2.000000e-01 2.000000e-01 2.000000e-01 2.000000e-01 2.000000e-01 2.000000e-01 2.000000e-01 2.000000e-01 2.000000e-01 2.000000e-01 2.000000e-01 2.000000e-01 2.000000e-01 2.000000e-01 2.000000e-01 2.000000e-01 2.000000e-01 2.000000e-01 2.000000e-01 2.000000e-01 2.000000e-01 2.000000e-01 2.000000e-01 2.000000e-01 2.000000e-01 2.000000e-01 2.000000e-01 2.000000e-01 2.000000e-01 2.000000e-01 2.000000e-01 2.000000e-01 2.000000e-01 2.000000e-01 2.000000e-01 2.000000e-01 2.000000e-01 2.000000e-01 2.000000e-01 2.000000e-01 2.000000e-01 2.000000e-01 2.000000e-01 2.000000e-01 2.000000e-01 2.000000e-01 2.000000e-01 2.000000e-01 2.000000e-01 2.000000e-01 2.000000e-01 2.000000e-01 2.000000e-01 2.000000e-01 2.000000e-01 2.000000e-01 2.000000e-01 2.000000e-01 2.000000e-01 2.000000e-01 2.000000e-01 2.000000e-01 2.000000e-01 2.000000e-01 2.000000e-01 2.000000e-01 2.000000e-01 2.000000e-01 2.000000e-01 2.000000e-01 2.000000e-01 2.000000e-01 2.000000e-01 2.000000e-01 2.000000e-01 2.000000e-01 2.000000e-01 2.000000e-01 2.000000e-01 2.000000e-01 2.000000e-01 2.000000e-01 2.000000e-01 2.000000e-01 2.000000e-01 2.000000e-01 2.000000e-01 2.000000e-01 2.000000e-01 2.000000e-01 2.000000e-01 2.000000e-01 2.000000e-01 2.000000e-01 2.000000e-01 2.000000e-01 2.000000e-01 2.000000e-01 2.000000e-01 2.000000e-01 2.000000e-01 2.000000e-01 2.000000e-01 2.000000e-01 2.000000e-01 2.000000e-01 2.000000e-01 2.000000e-01 2.000000e-01 2.000000e-01 2.000000e-01 2.000000e-01 2.000000e-01 2.000000e-01 2.000000e-01 2.000000e-01 2.000000e-01 2.000000e-01 2.000000e-01 2.000000e-01 2.000000e-01 2.000000e-01 2.000000e-01 2.000000e-01 2.000000e-01 2.000000e-01 2.000000e-01 2.000000e-01 2.000000e-01 2.000000e-01 2.000000e-01
<GCONST> 3.243863e+01
<STATE> 3
<MEAN> 142
 5.012430e-01 3.386703e-01 3.427407e-01 3.022361e-01 3.260072e-01 2.919111e-01 3.214494e-01 4.238153e-01 3.441561e-01 4.654615e-01 4.316798e-01 3.681779e-01 4.061489e-01 4.534800e-01 4.920108e-01 4.499793e-01 4.409562e-01 4.098355e-01 2.387490e-01 3.526239e-01 4.622531e-01 5.298845e-01 3.204821e-01 5.182025e-01 4.935955e-01 3.927583e-01 3.711826e-01 3.139666e-01 4.274779e-01 4.071941e-01 4.884327e-01 4.193523e-01 3.173916e-01 5.523974e-01 4.221717e-01 5.409123e-01 4.304510e-01 4.929436e-01 5.119568e-01 4.857445e-01 4.796931e-01 5.182480e-01 3.430555e-01 3.794256e-01 1.518270e-01 3.425947e-01 4.168713e-01 5.348609e-01 5.317944e-01 2.847461e-01 4.561833e-01 5.150906e-01 4.803830e-01 2.751651e-01 3.642788e-01 3.554963e-01 4.125294e-01 3.070179e-01 3.379867e-01 3.519095e-01 4.222505e-01 4.732202e-01 4.211082e-01 3.881548e-01 3.745631e-01 4.310780e-01 5.530344e-01 4.560007e-01 3.779369e-01 5.077608e-01 4.527683e-01 3.289667e-01 4.337243e-01 3.652113e-01 3.065884e-01 3.837237e-01 4.129756e-01 3.993326e-01 5.205650e-01 4.566549e-01 4.839826e-01 3.744641e-01 5.721784e-01 4.412201e-01 3.045253e-01 3.832592e-01 3.642423e-01 4.009757e-01 4.733028e-01 3.223071e-01 2.940203e-01 3.338434e-01 4.068593e-01 2.854142e-01 4.197949e-01 4.339195e-01 4.725671e-01 3.903821e-01 5.161662e-01 4.168620e-01 4.519113e-01 4.520942e-01 3.143269e-01 4.239140e-01 3.413081e-01 3.178632e-01 3.886340e-01 4.524555e-01 3.849809e-01 4.015555e-01 3.700745e-01 2.801756e-01 3.110621e-01 3.919505e-01 3.382679e-01 3.481196e-01 3.515657e-01 4.099223e-01 3.579561e-01 3.627239e-01 4.441659e-01 4.119217e-01 3.831640e-01 3.272551e-01 4.145800e-01 3.723608e-01 3.626088e-01 4.813216e-01 3.456971e-01 3.912388e-01 4.239488e-01 4.410594e-01 3.378451e-01 4.543407e-01 4.513471e-01 4.875198e-01 4.045247e-01 5.502973e-01 5.031274e-01 4.016963e-01 4.223618e-01 3.650954e-01
<VARIANCE> 142
 2.000000e-01 2.000000e-01 2.000000e-01 2.000000e-01 2.000000e-01 2.000000e-01 2.000000e-01 2.000000e-01 2.000000e-01 2.000000e-01 2.000000e-01 2.000000e-01 2.000000e-01 2.000000e-01 2.000000e-01 2.000000e-01 2.000000e-01 2.000000e-01 2.000000e-01 2.000000e-01 2.000000e-01 2.000000e-01 2.000000e-01 2.000000e-01 2.000000e-01 2.000000e-01 2.000000e-01 2.000000e-01 2.000000e-01 2.000000e-01 2.000000e-01 2.000000e-01 2.000000e-01 2.000000e-01 2.000000e-01 2.000000e-01 2.000000e-01 2.000000e-01 2.000000e-01 2.000000e-01 2.000000e-01 2.000000e-01 2.000000e-01 2.000000e-01 2.000000e-01 2.000000e-01 2.000000e-01 2.000000e-01 2.000000e-01 2.000000e-01 2.000000e-01 2.000000e-01 2.000000e-01 2.000000e-01 2.000000e-01 2.000000e-01 2.000000e-01 2.000000e-01 2.000000e-01 2.000000e-01 2.000000e-01 2.000000e-01 2.000000e-01 2.000000e-01 2.000000e-01 2.000000e-01 2.000000e-01 2.000000e-01 2.000000e-01 2.000000e-01 2.000000e-01 2.000000e-01 2.000000e-01 2.000000e-01 2.000000e-01 2.000000e-01 2.000000e-01 2.000000e-01 2.000000e-01 2.000000e-01 2.000000e-01 2.000000e-01 2.000000e-01 2.000000e-01 2.000000e-01 2.000000e-01 2.000000e-01 2.000000e-01 2.000000e-01 2.000000e-01 2.000000e-01 2.000000e-01 2.000000e-01 2.000000e-01 2.000000e-01 2.000000e-01 2.000000e-01 2.000000e-01 2.000000e-01 2.000000e-01 2.000000e-01 2.000000e-01 2.000000e-01 2.000000e-01 2.000000e-01 2.000000e-01 2.000000e-01 2.000000e-01 2.000000e-01 2.000000e-01 2.000000e-01 2.000000e-01 2.000000e-01 2.000000e-01 2.000000e-01 2.000000e-01 2.000000e-01 2.000000e-01 2.000000e-01 2.000000e-01 2.000000e-01 2.000000e-01 2.000000e-01 2.000000e-01 2.000000e-01 2.000000e-01 2.000000e-01 2.000000e-01 2.000000e-01 2.000000e-01 2.000000e-01 2.000000e-01 2.000000e-01 2.000000e-01 2.000000e-01 2.000000e-01 2.000000e-01 2.000000e-01 2.000000e-01 2.000000e-01 2.000000e-01 2.000000e-01
<GCONST> 3.243863e+01
<TRANSP> 4
 0.000000e+00 1.000000e+00 0.000000e+00 0.000000e+00
 0.000000e+00 8.917854e-01 1.082146e-01 0.000000e+00
 0.000000e+00 0.000000e+00 8.207012e-01 1.792988e-01
 0.000000e+00 0.000000e+00 0.000000e+00 0.000000e+00
<ENDHMM>
