~o
<STREAMINFO> 1 142
<VECSIZE> 142<NULLD><USER><DIAGC>
~h "forget"
<BEGINHMM>
<NUMSTATES> 4
<STATE> 2
<MEAN> 142
 5.235572e-01 3.475854e-01 2.912953e-01 3.828983e-01 3.049873e-01 2.388885e-01 3.600996e-01 2.798651e-01 3.223363e-01 4.074732e-01 3.417992e-01 3.894602e-01 3.262200e-01 3.550373e-01 3.625263e-01 3.785544e-01 4.387138e-01 4.127425e-01 2.416069e-01 2.949539e-01 4.233378e-01 4.023573e-01 3.181804e-01 4.716729e-01 4.516708e-01 3.555596e-01 3.817669e-01 3.916728e-01 4.324069e-01 4.303434e-01 4.709648e-01 3.712564e-01 3.599126e-01 4.539331e-01 3.963243e-01 4.069624e-01 3.711688e-01 3.797549e-01 4.102515e-01 3.537416e-01 3.841974e-01 5.005723e-01 3.371800e-01 2.594230e-01 2.843780e-01 3.557087e-01 3.853405e-01 3.661101e-01 4.005222e-01 3.006834e-01 4.842478e-01 3.638504e-01 3.723255e-01 2.871390e-01 3.867994e-01 3.962444e-01 3.403785e-01 2.591806e-01 3.087949e-01 3.426134e-01 3.857116e-01 4.371717e-01 3.340462e-01 3.566322e-01 3.876699e-01 4.404221e-01 3.179527e-01 3.453138e-01 3.687353e-01 3.761602e-01 4.357851e-01 3.167897e-01 3.993956e-01 3.675430e-01 2.546540e-01 3.226476e-01 4.175090e-01 3.685980e-01 4.264367e-01 4.254467e-01 5.191478e-01 3.962446e-01 4.250792e-01 3.711361e-01 3.857329e-01 3.559759e-01 3.391626e-01 3.892728e-01 4.779277e-01 3.634048e-01 3.234863e-01 3.180859e-01 4.869637e-01 3.122059e-01 4.394458e-01 4.638396e-01 4.935894e-01 3.397346e-01 4.377650e-01 3.728233e-01 4.104985e-01 4.201073e-01 2.878262e-01 3.862620e-01 2.836206e-01 2.233057e-01 3.238271e-01 3.607672e-01 3.413614e-01 3.152083e-01 3.402872e-01 3.645944e-01 3.665227e-01 3.630443e-01 3.339295e-01 3.601705e-01 3.752682e-01 3.951694e-01 4.100741e-01 3.225771e-01 4.181734e-01 4.178519e-01 3.585676e-01 3.941717e-01 3.124008e-01 3.702644e-01 4.202933e-01 4.192454e-01 3.835879e-01 3.146741e-01 3.887102e-01 4.519414e-01 3.209001e-01 3.995510e-01 4.426752e-01 4.184593e-01 4.212930e-01 4.463445e-01 4.256619e-01 3.950179e-01 3.996171e-01 3.701663e-01
<VARIANCE> 142
 2.000000e-01 2.000000e-01 2.000000e-01 2.000000e-01 2.000000e-01 2.000000e-01 2.000000e-01 2.000000e-01 2.000000e-01 2.000000e-01 2.000000e-01 2.000000e-01 2.000000e-01 2.000000e-01 2.000000e-01 2.000000e-01 2.000000e-01 2.000000e-01 2.000000e-01 2.000000e-01 2.000000e-01 2.000000e-01 2.000000e-01 2.000000e-01 2.000000e-01 2.000000e-01 2.000000e-01 2.000000e-01 2.000000e-01 2.000000e-01 2.000000e-01 2.000000e-01 2.000000e-01 2.000000e-01 2.000000e-01 2.000000e-01 2.000000e-01 2.000000e-01 2.000000e-01 2.000000e-01 2.000000e-01 2.000000e-01 2.000000e-01 2.000000e-01 2.000000e-01 2.000000e-01 2.000000e-01 2.000000e-01 2.000000e-01 2.000000e-01 2.000000e-01 2.000000e-01 2.000000e-01 2.000000e-01 2.000000e-01 2.000000e-01 2.000000e-01 2.000000e-01 2.000000e-01 2.000000e-01 2.000000e-01 2.000000e-01 2.000000e-01 2.000000e-01 2.000000e-01 2.000000e-01 2.000000e-01 2.000000e-01 2.000000e-01 2.000000e-01 2.000000e-01 2.000000e-01 2.000000e-01 2.000000e-01 2.000000e-01 2.000000e-01 2.000000e-01 2.000000e-01 2.000000e-01 2.000000e-01 2.000000e-01 2.000000e-01 2.000000e-01 2.000000e-01 2.000000e-01 2.000000e-01 2.000000e-01 2.000000e-01 2.000000e-01 2.000000e-01 2.000000e-01 2.000000e-01 2.000000e-01 2.000000e-01 2.000000e-01 2.000000e-01 2.000000e-01 2.000000e-01 2.000000e-01 2.000000e-01 2.000000e-01 2.000000e-01 2.000000e-01 2.000000e-01 2.000000e-01 2.000000e-01 2.000000e-01 2.000000e-01 2.000000e-01 2.000000e-01 2.000000e-01 2.000000e-01 2.000000e-01 2.000000e-01 2.000000e-01 2.000000e-01 2.000000e-01 2.000000e-01 2.000000e-01 2.000000e-01 2.000000e-01 2.000000e-01 2.000000e-01 2.000000e-01 2.000000e-01 2.000000e-01 2.000000e-01 2.000000e-01 2.000000e-01 2.000000e-01 2.000000e-01 2.000000e-01 2.000000e-01 2.000000e-01 2.000000e-01 2.000000e-01 2.000000e-01 2.000000e-01 2.000000e-01 2.000000e-01 2.000000e-01 2.000000e-01
<GCONST> 3.243863e+01
<STATE> 3
<MEAN> 142
 8.692170e-01 3.708088e-01 4.136196e-01 3.398010e-01 2.416307e-01 3.412399e-01 4.559160e-01 3.816144e-01 3.559496e-01 3.693345e-01 4.173632e-01 4.593789e-01 3.947859e-01 4.102784e-01 1.952036e-01 2.875220e-01 3.491095e-01 3.911758e-01 3.595111e-01 4.240047e-01 4.612975e-01 4.896238e-01 4.315229e-01 4.226001e-01 4.325962e-01 4.109938e-01 4.247879e-01 3.662537e-01 3.443115e-01 3.258166e-01 4.648409e-01 4.617848e-01 5.597333e-01 3.900377e-01 3.978140e-01 3.416599e-01 2.683368e-01 2.440161e-01 2.617703e-01 2.249257e-01 2.320952e-01 3.755285e-01 3.074380e-01 3.756185e-01 2.488591e-01 4.260593e-01 3.955344e-01 3.403618e-01 3.965334e-01 3.884296e-01 4.899847e-01 4.028928e-01 4.109207e-01 2.449733e-01 5.308272e-01 3.312946e-01 5.039857e-01 3.534884e-01 3.783436e-01 2.723034e-01 5.273442e-01 4.618044e-01 4.024849e-01 3.895269e-01 3.478526e-01 4.814661e-01 3.003841e-01 3.700784e-01 4.754109e-01 2.994638e-01 4.570042e-01 5.359416e-01 4.673321e-01 3.974747e-01 3.894545e-01 3.877139e-01 5.109160e-01 4.415627e-01 4.339271e-01 4.068533e-01 3.925356e-01 3.660794e-01 2.855435e-01 5.020296e-01 2.776399e-01 4.878434e-01 3.870217e-01 4.242775e-01 4.218179e-01 3.723668e-01 4.327117e-01 3.763529e-01 3.854828e-01 4.044465e-01 3.804138e-01 4.666624e-01 3.746860e-01 2.871788e-01 3.299600e-01 4.260078e-01 3.398347e-01 4.980600e-01 3.936088e-01 2.796308e-01 3.010558e-01 2.976562e-01 4.384122e-01 3.403033e-01 4.118282e-01 3.611957e-01 4.551096e-01 4.114227e-01 3.169073e-01 2.868679e-01 3.660293e-01 3.922845e-01 4.161136e-01 3.857375e-01 4.247917e-01 4.689590e-01 3.980234e-01 5.794127e-01 5.119300e-01 4.578860e-01 4.549694e-01 4.529228e-01 4.117402e-01 3.193275e-01 3.364347e-01 4.216837e-01 3.816174e-01 3.730606e-01 4.980288e-01 3.930396e-01 3.148291e-01 3.621832e-01 4.569501e-01 3.209567e-01 2.842110e-01 3.351125e-01 4.909071e-01 5.070995e-01
<VARIANCE> 142
 2.000000e-01 2.000000e-01 2.000000e-01 2.000000e-01 2.000000e-01 2.000000e-01 2.000000e-01 2.000000e-01 2.000000e-01 2.000000e-01 2.000000e-01 2.000000e-01 2.000000e-01 2.000000e-01 2.000000e-01 2.000000e-01 2.000000e-01 2.000000e-01 2.000000e-01 2.000000e-01 2.000000e-01 2.000000e-01 2.000000e-01 2.000000e-01 2.000000e-01 2.000000e-01 2.000000e-01 2.000000e-01 2.000000e-01 2.000000e-01 2.000000e-01 2.000000e-01 2.000000e-01 2.000000e-01 2.000000e-01 2.000000e-01 2.000000e-01 2.000000e-01 2.000000e-01 2.000000e-01 2.000000e-01 2.000000e-01 2.000000e-01 2.000000e-01 2.000000e-01 2.000000e-01 2.000000e-01 2.000000e-01 2.000000e-01 2.000000e-01 2.000000e-01 2.000000e-01 2.000000e-01 2.000000e-01 2.000000e-01 2.000000e-01 2.000000e-01 2.000000e-01 2.000000e-01 2.000000e-01 2.000000e-01 2.000000e-01 2.000000e-01 2.000000e-01 2.000000e-01 2.000000e-01 2.000000e-01 2.000000e-01 2.000000e-01 2.000000e-01 2.000000e-01 2.000000e-01 2.000000e-01 2.000000e-01 2.000000e-01 2.000000e-01 2.000000e-01 2.000000e-01 2.000000e-01 2.000000e-01 2.000000e-01 2.000000e-01 2.000000e-01 2.000000e-01 2.000000e-01 2.000000e-01 2.000000e-01 2.000000e-01 2.000000e-01 2.000000e-01 2.000000e-01 2.000000e-01 2.000000e-01 2.000000e-01 2.000000e-01 2.000000e-01 2.000000e-01 2.000000e-01 2.000000e-01 2.000000e-01 2.000000e-01 2.000000e-01 2.000000e-01 2.000000e-01 2.000000e-01 2.000000e-01 2.000000e-01 2.000000e-01 2.000000e-01 2.000000e-01 2.000000e-01 2.000000e-01 2.000000e-01 2.000000e-01 2.000000e-01 2.000000e-01 2.000000e-01 2.000000e-01 2.000000e-01 2.000000e-01 2.000000e-01 2.000000e-01 2.000000e-01 2.000000e-01 2.000000e-01 2.000000e-01 2.000000e-01 2.000000e-01 2.000000e-01 2.000000e-01 2.000000e-01 2.000000e-01 2.000000e-01 2.000000e-01 2.000000e-01 2.000000e-01 2.000000e-01 2.000000e-01 2.000000e-01 2.000000e-01 2.000000e-01 2.000000e-01
<GCONST> 3.243863e+01
<TRANSP> 4
 0.000000e+00 1.000000e+00 0.000000e+00 0.000000e+00
 0.000000e+00 8.929025e-01 1.070975e-01 0.000000e+00
 0.000000e+00 0.000000e+00 7.855325e-01 2.144675e-01
 0.000000e+00 0.000000e+00 0.000000e+00 0.000000e+00
<ENDHMM>
