~o
<STREAMINFO> 1 142
<VECSIZE> 142<NULLD><USER><DIAGC>
~h "full"
<BEGINHMM>
<NUMSTATES> 4
<STATE> 2
<MEAN> 142
 4.911397e-01 3.922670e-01 2.759985e-01 3.204450e-01 3.071952e-01 2.481935e-01 3.225611e-01 3.467471e-01 4.096466e-01 4.466358e-01 3.520098e-01 4.309145e-01 3.843786e-01 4.121391e-01 4.449539e-01 3.913827e-01 4.603626e-01 4.403359e-01 2.204240e-01 2.989095e-01 3.925400e-01 4.112519e-01 2.434252e-01 4.491334e-01 4.191053e-01 3.891890e-01 3.545209e-01 3.878652e-01 4.292067e-01 4.737366e-01 4.773140e-01 3.389318e-01 3.219263e-01 4.462164e-01 4.314471e-01 4.313453e-01 3.899500e-01 3.638338e-01 4.133094e-01 4.363275e-01 5.057896e-01 4.806866e-01 3.557036e-01 3.150273e-01 2.355495e-01 4.009876e-01 3.779191e-01 4.450153e-01 4.516975e-01 2.739863e-01 4.236203e-01 4.047180e-01 3.926806e-01 3.320863e-01 4.016137e-01 4.196397e-01 3.202998e-01 2.463706e-01 3.664351e-01 2.935578e-01 4.053205e-01 4.243505e-01 3.413995e-01 3.821597e-01 4.489641e-01 4.074121e-01 4.550184e-01 3.242721e-01 3.399595e-01 4.509412e-01 4.072688e-01 3.587854e-01 3.940891e-01 3.313665e-01 2.145747e-01 3.665869e-01 3.562683e-01 3.756747e-01 4.039860e-01 4.076294e-01 5.070295e-01 4.673978e-01 4.788564e-01 4.151531e-01 3.401581e-01 3.588242e-01 3.142064e-01 3.843016e-01 4.700244e-01 3.758381e-01 3.514343e-01 2.875846e-01 4.665984e-01 3.826133e-01 4.285232e-01 4.520190e-01 4.831877e-01 3.162317e-01 4.657474e-01 3.694626e-01 4.061335e-01 3.799924e-01 3.568120e-01 4.430637e-01 3.272739e-01 2.414369e-01 3.437201e-01 4.092070e-01 3.194878e-01 3.706511e-01 4.008583e-01 4.265515e-01 3.437842e-01 4.004450e-01 3.191817e-01 3.979748e-01 3.672649e-01 3.576784e-01 4.680496e-01 3.186397e-01 4.575799e-01 3.828400e-01 3.290107e-01 3.851149e-01 3.382145e-01 3.779882e-01 4.349504e-01 4.216763e-01 3.919412e-01 3.337682e-01 3.854485e-01 4.501554e-01 3.466381e-01 3.960278e-01 5.266026e-01 4.358270e-01 4.993140e-01 5.251570e-01 5.199616e-01 4.001302e-01 4.110701e-01 3.689345e-01
<VARIANCE> 142
 2.000000e-01 2.000000e-01 2.000000e-01 2.000000e-01 2.000000e-01 2.000000e-01 2.000000e-01 2.000000e-01 2.000000e-01 2.000000e-01 2.000000e-01 2.000000e-01 2.000000e-01 2.000000e-01 2.000000e-01 2.000000e-01 2.000000e-01 2.000000e-01 2.000000e-01 2.000000e-01 2.000000e-01 2.000000e-01 2.000000e-01 2.000000e-01 2.000000e-01 2.000000e-01 2.000000e-01 2.000000e-01 2.000000e-01 2.000000e-01 2.000000e-01 2.000000e-01 2.000000e-01 2.000000e-01 2.000000e-01 2.000000e-01 2.000000e-01 2.000000e-01 2.000000e-01 2.000000e-01 2.000000e-01 2.000000e-01 2.000000e-01 2.000000e-01 2.000000e-01 2.000000e-01 2.000000e-01 2.000000e-01 2.000000e-01 2.000000e-01 2.000000e-01 2.000000e-01 2.000000e-01 2.000000e-01 2.000000e-01 2.000000e-01 2.000000e-01 2.000000e-01 2.000000e-01 2.000000e-01 2.000000e-01 2.000000e-01 2.000000e-01 2.000000e-01 2.000000e-01 2.000000e-01 2.000000e-01 2.000000e-01 2.000000e-01 2.000000e-01 2.000000e-01 2.000000e-01 2.000000e-01 2.000000e-01 2.000000e-01 2.000000e-01 2.000000e-01 2.000000e-01 2.000000e-01 2.000000e-01 2.000000e-01 2.000000e-01 2.000000e-01 2.000000e-01 2.000000e-01 2.000000e-01 2.000000e-01 2.000000e-01 2.000000e-01 2.000000e-01 2.000000e-01 2.000000e-01 2.000000e-01 2.000000e-01 2.000000e-01 2.000000e-01 2.000000e-01 2.000000e-01 2.000000e-01 2.000000e-01 2.000000e-01 2.000000e-01 2.000000e-01 2.000000e-01 2.000000e-01 2.000000e-01 2.000000e-01 2.000000e-01 2.000000e-01 2.000000e-01 2.000000e-01 2.000000e-01 2.000000e-01 2.000000e-01 2.000000e-01 2.000000e-01 2.000000e-01 2.000000e-01 2.000000e-01 2.000000e-01 2.000000e-01 2.000000e-01 2.000000e-01 2.000000e-01 2.000000e-01 2.000000e-01 2.000000e-01 2.000000e-01 2.000000e-01 2.000000e-01 2.000000e-01 2.000000e-01 2.000000e-01 2.000000e-01 2.000000e-01 2.000000e-01 2.000000e-01 2.000000e-01 2.000000e-01 2.000000e-01 2.000000e-01 2.000000e-01
<GCONST> 3.243863e+01
<STATE> 3
<MEAN> 142
 7.796208e-01 3.619745e-01 3.715858e-01 2.859676e-01 2.134181e-01 4.120406e-01 4.155505e-01 3.674746e-01 3.960456e-01 3.845525e-01 4.830136e-01 4.316338e-01 3.723973e-01 4.825233e-01 2.022023e-01 3.186505e-01 3.790064e-01 3.985668e-01 2.858259e-01 3.953870e-01 4.663694e-01 4.610763e-01 4.348670e-01 4.155754e-01 4.193739e-01 4.553520e-01 4.311776e-01 3.233786e-01 3.768156e-01 3.217077e-01 5.018834e-01 4.253284e-01 4.918081e-01 4.207162e-01 4.293425e-01 2.969775e-01 2.637032e-01 2.241973e-01 2.987086e-01 2.540564e-01 2.675602e-01 4.145985e-01 2.855615e-01 3.808975e-01 2.292906e-01 4.209533e-01 4.192529e-01 3.886576e-01 3.775217e-01 3.504850e-01 4.387166e-01 3.355917e-01 4.171660e-01 2.500878e-01 4.315474e-01 3.952003e-01 4.426749e-01 3.762484e-01 3.344753e-01 2.909106e-01 5.038918e-01 3.939466e-01 3.751857e-01 3.651627e-01 3.430187e-01 4.786513e-01 2.727848e-01 3.595333e-01 4.089208e-01 2.868367e-01 4.602190e-01 5.007942e-01 4.785533e-01 4.633104e-01 3.610843e-01 3.461488e-01 4.293842e-01 3.671247e-01 4.472326e-01 4.176045e-01 3.578324e-01 3.422117e-01 3.277065e-01 4.024690e-01 3.245802e-01 4.457483e-01 3.869328e-01 4.155427e-01 4.893429e-01 3.493447e-01 3.446188e-01 3.176465e-01 3.836724e-01 3.445617e-01 3.567794e-01 4.782085e-01 3.546310e-01 2.819534e-01 3.327391e-01 4.482456e-01 3.250078e-01 4.842626e-01 3.718154e-01 2.984857e-01 3.118960e-01 2.920433e-01 3.643107e-01 3.191377e-01 3.937285e-01 3.832453e-01 3.984013e-01 3.750993e-01 2.567556e-01 2.431869e-01 3.258536e-01 4.321125e-01 3.848066e-01 3.826084e-01 4.521537e-01 4.504615e-01 3.882793e-01 5.628962e-01 4.304890e-01 3.277989e-01 4.801742e-01 4.071527e-01 3.742986e-01 2.690097e-01 3.186509e-01 4.578107e-01 3.514459e-01 3.013337e-01 3.900723e-01 3.635937e-01 3.013757e-01 2.940041e-01 5.105125e-01 3.388696e-01 2.836846e-01 3.507195e-01 3.902624e-01 5.703394e-01
<VARIANCE> 142
 2.000000e-01 2.000000e-01 2.000000e-01 2.000000e-01 2.000000e-01 2.000000e-01 2.000000e-01 2.000000e-01 2.000000e-01 2.000000e-01 2.000000e-01 2.000000e-01 2.000000e-01 2.000000e-01 2.000000e-01 2.000000e-01 2.000000e-01 2.000000e-01 2.000000e-01 2.000000e-01 2.000000e-01 2.000000e-01 2.000000e-01 2.000000e-01 2.000000e-01 2.000000e-01 2.000000e-01 2.000000e-01 2.000000e-01 2.000000e-01 2.000000e-01 2.000000e-01 2.000000e-01 2.000000e-01 2.000000e-01 2.000000e-01 2.000000e-01 2.000000e-01 2.000000e-01 2.000000e-01 2.000000e-01 2.000000e-01 2.000000e-01 2.000000e-01 2.000000e-01 2.000000e-01 2.000000e-01 2.000000e-01 2.000000e-01 2.000000e-01 2.000000e-01 2.000000e-01 2.000000e-01 2.000000e-01 2.000000e-01 2.000000e-01 2.000000e-01 2.000000e-01 2.000000e-01 2.000000e-01 2.000000e-01 2.000000e-01 2.000000e-01 2.000000e-01 2.000000e-01 2.000000e-01 2.000000e-01 2.000000e-01 2.000000e-01 2.000000e-01 2.000000e-01 2.000000e-01 2.000000e-01 2.000000e-01 2.000000e-01 2.000000e-01 2.000000e-01 2.000000e-01 2.000000e-01 2.000000e-01 2.000000e-01 2.000000e-01 2.000000e-01 2.000000e-01 2.000000e-01 2.000000e-01 2.000000e-01 2.000000e-01 2.000000e-01 2.000000e-01 2.000000e-01 2.000000e-01 2.000000e-01 2.000000e-01 2.000000e-01 2.000000e-01 2.000000e-01 2.000000e-01 2.000000e-01 2.000000e-01 2.000000e-01 2.000000e-01 2.000000e-01 2.000000e-01 2.000000e-01 2.000000e-01 2.000000e-01 2.000000e-01 2.000000e-01 2.000000e-01 2.000000e-01 2.000000e-01 2.000000e-01 2.000000e-01 2.000000e-01 2.000000e-01 2.000000e-01 2.000000e-01 2.000000e-01 2.000000e-01 2.000000e-01 2.000000e-01 2.000000e-01 2.000000e-01 2.000000e-01 2.000000e-01 2.000000e-01 2.000000e-01 2.000000e-01 2.000000e-01 2.000000e-01 2.000000e-01 2.000000e-01 2.000000e-01 2.000000e-01 2.000000e-01 2.000000e-01 2.000000e-01 2.000000e-01 2.000000e-01 2.000000e-01 2.000000e-01
<GCONST> 3.243863e+01
<TRANSP> 4
 0.000000e+00 1.000000e+00 0.000000e+00 0.000000e+00
 0.000000e+00 8.788942e-01 1.211059e-01 0.000000e+00
 0.000000e+00 0.000000e+00 8.592817e-01 1.407183e-01
 0.000000e+00 0.000000e+00 0.000000e+00 0.000000e+00
<ENDHMM>
