~o
<STREAMINFO> 1 142
<VECSIZE> 142<NULLD><USER><DIAGC>
~h "go"
<BEGINHMM>
<NUMSTATES> 4
<STATE> 2
<MEAN> 142
 5.063575e-01 3.449696e-01 3.534819e-01 3.525831e-01 3.278886e-01 3.658123e-01 3.049424e-01 2.562220e-01 3.896790e-01 4.235972e-01 4.482303e-01 4.498493e-01 3.742751e-01 5.001841e-01 3.308544e-01 2.776868e-01 3.701814e-01 4.264407e-01 4.012597e-01 3.694190e-01 3.916055e-01 3.749205e-01 3.897876e-01 3.948177e-01 4.962221e-01 4.137284e-01 4.396869e-01 4.258551e-01 4.109860e-01 4.496840e-01 4.556081e-01 3.553373e-01 2.960472e-01 4.703258e-01 4.264069e-01 3.189915e-01 3.697566e-01 4.505658e-01 3.555586e-01 3.314124e-01 4.128516e-01 4.186405e-01 4.261383e-01 3.106172e-01 2.738962e-01 3.709534e-01 3.509427e-01 3.849402e-01 3.756661e-01 3.738294e-01 4.704396e-01 4.101534e-01 4.586422e-01 3.223401e-01 3.850857e-01 4.060966e-01 4.163013e-01 3.586421e-01 3.850859e-01 3.563922e-01 3.810083e-01 4.270645e-01 3.952173e-01 4.622224e-01 4.921592e-01 3.556655e-01 4.225712e-01 4.122321e-01 3.754689e-01 5.001594e-01 4.548758e-01 4.034301e-01 3.411726e-01 4.101901e-01 3.444032e-01 4.010143e-01 3.853168e-01 3.380259e-01 4.747009e-01 3.884945e-01 5.186878e-01 3.552790e-01 3.621123e-01 3.689037e-01 4.105385e-01 3.270416e-01 4.058893e-01 4.220733e-01 4.936747e-01 3.878239e-01 3.865443e-01 2.861298e-01 4.540417e-01 4.412892e-01 3.641706e-01 4.692729e-01 4.505025e-01 4.579111e-01 4.243788e-01 4.711369e-01 4.479313e-01 4.211927e-01 3.579190e-01 4.558628e-01 3.177746e-01 2.604985e-01 4.062235e-01 4.634216e-01 4.317318e-01 3.623471e-01 4.365593e-01 4.070441e-01 3.116271e-01 3.592501e-01 3.845688e-01 4.697053e-01 4.367004e-01 3.422218e-01 4.607193e-01 3.703826e-01 3.935012e-01 3.535438e-01 3.813805e-01 4.510144e-01 3.851950e-01 3.757351e-01 4.595744e-01 4.811072e-01 5.266652e-01 3.980046e-01 3.494424e-01 4.104667e-01 3.900982e-01 4.514733e-01 3.863425e-01 3.912067e-01 3.660500e-01 3.936641e-01 3.583456e-01 3.439880e-01 3.590963e-01 3.904264e-01
<VARIANCE> 142
 2.000000e-01 2.000000e-01 2.000000e-01 2.000000e-01 2.000000e-01 2.000000e-01 2.000000e-01 2.000000e-01 2.000000e-01 2.000000e-01 2.000000e-01 2.000000e-01 2.000000e-01 2.000000e-01 2.000000e-01 2.000000e-01 2.000000e-01 2.000000e-01 2.000000e-01 2.000000e-01 2.000000e-01 2.000000e-01 2.000000e-01 2.000000e-01 2.000000e-01 2.000000e-01 2.000000e-01 2.000000e-01 2.000000e-01 2.000000e-01 2.000000e-01 2.000000e-01 2.000000e-01 2.000000e-01 2.000000e-01 2.000000e-01 2.000000e-01 2.000000e-01 2.000000e-01 2.000000e-01 2.000000e-01 2.000000e-01 2.000000e-01 2.000000e-01 2.000000e-01 2.000000e-01 2.000000e-01 2.000000e-01 2.000000e-01 2.000000e-01 2.000000e-01 2.000000e-01 2.000000e-01 2.000000e-01 2.000000e-01 2.000000e-01 2.000000e-01 2.000000e-01 2.000000e-01 2.000000e-01 2.000000e-01 2.000000e-01 2.000000e-01 2.000000e-01 2.000000e-01 2.000000e-01 2.000000e-01 2.000000e-01 2.000000e-01 2.000000e-01 2.000000e-01 2.000000e-01 2.000000e-01 2.000000e-01 2.000000e-01 2.000000e-01 2.000000e-01 2.000000e-01 2.000000e-01 2.000000e-01 2.000000e-01 2.000000e-01 2.000000e-01 2.000000e-01 2.000000e-01 2.000000e-01 2.000000e-01 2.000000e-01 2.000000e-01 2.000000e-01 2.000000e-01 2.000000e-01 2.000000e-01 2.000000e-01 2.000000e-01 2.000000e-01 2.000000e-01 2.000000e-01 2.000000e-01 2.000000e-01 2.000000e-01 2.000000e-01 2.000000e-01 2.000000e-01 2.000000e-01 2.000000e-01 2.000000e-01 2.000000e-01 2.000000e-01 2.000000e-01 2.000000e-01 2.000000e-01 2.000000e-01 2.000000e-01 2.000000e-01 2.000000e-01 2.000000e-01 2.000000e-01 2.000000e-01 2.000000e-01 2.000000e-01 2.000000e-01 2.000000e-01 2.000000e-01 2.000000e-01 2.000000e-01 2.000000e-01 2.000000e-01 2.000000e-01 2.000000e-01 2.000000e-01 2.000000e-01 2.000000e-01 2.000000e-01 2.000000e-01 2.000000e-01 2.000000e-01 2.000000e-01 2.000000e-01 2.000000e-01 2.000000e-01 2.000000e-01
<GCONST> 3.243863e+01
<STATE> 3
<MEAN> 142
 7.634953e-01 3.733518e-01 3.911743e-01 3.628756e-01 2.628711e-01 3.331893e-01 3.658390e-01 3.324310e-01 3.120248e-01 3.915403e-01 3.897494e-01 4.316569e-01 3.740087e-01 4.068312e-01 2.360073e-01 3.348121e-01 4.028769e-01 4.018395e-01 2.844661e-01 3.549877e-01 4.799664e-01 4.462447e-01 3.666964e-01 4.143051e-01 4.064510e-01 3.941232e-01 3.919884e-01 3.901991e-01 3.546520e-01 3.098789e-01 4.484544e-01 4.957489e-01 5.386841e-01 4.306131e-01 4.109707e-01 3.811677e-01 2.879113e-01 2.979014e-01 2.963177e-01 2.988645e-01 3.235068e-01 4.204913e-01 2.898044e-01 3.225782e-01 2.115971e-01 4.631205e-01 4.592893e-01 3.582520e-01 3.859347e-01 3.016269e-01 4.746068e-01 3.513836e-01 4.137272e-01 2.672286e-01 5.062385e-01 3.128863e-01 4.070036e-01 3.349806e-01 3.663861e-01 2.608743e-01 4.330653e-01 4.697517e-01 3.853629e-01 4.239419e-01 3.817916e-01 4.526844e-01 3.089246e-01 3.528888e-01 4.717634e-01 3.301205e-01 4.725442e-01 5.121718e-01 4.409020e-01 3.950008e-01 3.710486e-01 3.657218e-01 5.015133e-01 4.739241e-01 4.203552e-01 3.870510e-01 4.102743e-01 3.522720e-01 3.875404e-01 4.399408e-01 3.008471e-01 5.043766e-01 4.125001e-01 4.311469e-01 4.228801e-01 3.553492e-01 3.575908e-01 3.590985e-01 3.797446e-01 3.414294e-01 4.325833e-01 4.606525e-01 4.173537e-01 3.218229e-01 3.840963e-01 4.082164e-01 3.354605e-01 5.123954e-01 3.552423e-01 3.131540e-01 2.901998e-01 2.451497e-01 3.546293e-01 3.137734e-01 3.963922e-01 3.569270e-01 3.977836e-01 3.515989e-01 3.238154e-01 3.312076e-01 3.778259e-01 4.052852e-01 3.540224e-01 3.852585e-01 4.460760e-01 4.106837e-01 3.926633e-01 5.261821e-01 4.806502e-01 4.191287e-01 4.141248e-01 4.217289e-01 3.930029e-01 3.060381e-01 3.332707e-01 3.832489e-01 3.761641e-01 4.153766e-01 4.229852e-01 3.886448e-01 3.504486e-01 3.931753e-01 4.353110e-01 3.743131e-01 3.130545e-01 3.913970e-01 4.919055e-01 4.662325e-01
<VARIANCE> 142
 2.000000e-01 2.000000e-01 2.000000e-01 2.000000e-01 2.000000e-01 2.000000e-01 2.000000e-01 2.000000e-01 2.000000e-01 2.000000e-01 2.000000e-01 2.000000e-01 2.000000e-01 2.000000e-01 2.000000e-01 2.000000e-01 2.000000e-01 2.000000e-01 2.000000e-01 2.000000e-01 2.000000e-01 2.000000e-01 2.000000e-01 2.000000e-01 2.000000e-01 2.000000e-01 2.000000e-01 2.000000e-01 2.000000e-01 2.000000e-01 2.000000e-01 2.000000e-01 2.000000e-01 2.000000e-01 2.000000e-01 2.000000e-01 2.000000e-01 2.000000e-01 2.000000e-01 2.000000e-01 2.000000e-01 2.000000e-01 2.000000e-01 2.000000e-01 2.000000e-01 2.000000e-01 2.000000e-01 2.000000e-01 2.000000e-01 2.000000e-01 2.000000e-01 2.000000e-01 2.000000e-01 2.000000e-01 2.000000e-01 2.000000e-01 2.000000e-01 2.000000e-01 2.000000e-01 2.000000e-01 2.000000e-01 2.000000e-01 2.000000e-01 2.000000e-01 2.000000e-01 2.000000e-01 2.000000e-01 2.000000e-01 2.000000e-01 2.000000e-01 2.000000e-01 2.000000e-01 2.000000e-01 2.000000e-01 2.000000e-01 2.000000e-01 2.000000e-01 2.000000e-01 2.000000e-01 2.000000e-01 2.000000e-01 2.000000e-01 2.000000e-01 2.000000e-01 2.000000e-01 2.000000e-01 2.000000e-01 2.000000e-01 2.000000e-01 2.000000e-01 2.000000e-01 2.000000e-01 2.000000e-01 2.000000e-01 2.000000e-01 2.000000e-01 2.000000e-01 2.000000e-01 2.000000e-01 2.000000e-01 2.000000e-01 2.000000e-01 2.000000e-01 2.000000e-01 2.000000e-01 2.000000e-01 2.000000e-01 2.000000e-01 2.000000e-01 2.000000e-01 2.000000e-01 2.000000e-01 2.000000e-01 2.000000e-01 2.000000e-01 2.000000e-01 2.000000e-01 2.000000e-01 2.000000e-01 2.000000e-01 2.000000e-01 2.000000e-01 2.000000e-01 2.000000e-01 2.000000e-01 2.000000e-01 2.000000e-01 2.000000e-01 2.000000e-01 2.000000e-01 2.000000e-01 2.000000e-01 2.000000e-01 2.000000e-01 2.000000e-01 2.000000e-01 2.000000e-01 2.000000e-01 2.000000e-01 2.000000e-01 2.000000e-01 2.000000e-01
<GCONST> 3.243863e+01
<TRANSP> 4
 0.000000e+00 1.000000e+00 0.000000e+00 0.000000e+00
 0.000000e+00 8.882616e-01 1.117384e-01 0.000000e+00
 0.000000e+00 0.000000e+00 7.832226e-01 2.167775e-01
 0.000000e+00 0.000000e+00 0.000000e+00 0.000000e+00
<ENDHMM>
