~o
<STREAMINFO> 1 142
<VECSIZE> 142<NULLD><USER><DIAGC>
~h "grandfather"
<BEGINHMM>
<NUMSTATES> 4
<STATE> 2
<MEAN> 142
 5.338349e-01 3.417948e-01 3.664125e-01 3.594662e-01 3.565966e-01 3.959314e-01 3.702938e-01 3.675889e-01 4.476137e-01 4.386938e-01 5.439203e-01 4.541448e-01 4.504719e-01 5.820372e-01 3.696311e-01 3.497274e-01 3.420328e-01 3.520411e-01 4.030708e-01 4.259238e-01 4.765761e-01 4.789373e-01 4.271417e-01 4.240549e-01 5.099798e-01 4.366884e-01 4.325981e-01 4.212984e-01 4.320634e-01 4.305315e-01 4.952228e-01 3.692189e-01 3.844918e-01 4.486820e-01 4.585119e-01 3.062147e-01 4.047548e-01 4.060971e-01 3.597482e-01 3.774745e-01 3.888298e-01 3.917466e-01 3.710640e-01 3.648438e-01 2.675153e-01 3.196095e-01 4.497113e-01 4.622216e-01 4.244302e-01 4.468290e-01 5.162807e-01 4.448957e-01 4.567075e-01 3.151687e-01 4.223043e-01 3.969252e-01 4.788344e-01 3.928949e-01 4.419797e-01 4.120482e-01 4.584520e-01 4.141627e-01 3.899954e-01 4.210109e-01 4.228919e-01 3.973301e-01 4.528913e-01 4.891117e-01 4.783334e-01 4.260170e-01 4.849671e-01 3.999535e-01 3.505951e-01 4.413368e-01 3.554273e-01 4.224465e-01 4.434229e-01 4.257801e-01 4.915220e-01 4.356717e-01 4.522197e-01 3.388903e-01 3.575855e-01 4.748909e-01 3.777139e-01 3.718009e-01 4.240146e-01 4.881128e-01 4.923588e-01 3.520533e-01 3.432368e-01 3.164986e-01 4.481046e-01 4.164684e-01 4.546719e-01 4.295909e-01 4.468969e-01 3.596403e-01 4.612272e-01 5.165857e-01 4.591665e-01 4.605662e-01 4.296601e-01 4.107470e-01 3.923099e-01 3.437055e-01 4.524612e-01 4.366906e-01 4.525551e-01 4.226758e-01 4.074030e-01 3.765807e-01 3.967473e-01 3.371897e-01 3.651276e-01 4.266343e-01 3.701672e-01 4.589561e-01 4.436922e-01 4.649429e-01 3.817711e-01 4.185269e-01 4.324433e-01 3.320070e-01 4.519268e-01 3.584077e-01 4.001453e-01 3.365210e-01 3.454758e-01 4.623997e-01 4.045275e-01 3.482851e-01 3.907633e-01 4.504447e-01 3.774435e-01 4.638210e-01 4.027449e-01 3.932427e-01 4.189940e-01 3.858687e-01 4.079764e-01 4.564840e-01
<VARIANCE> 142
 2.000000e-01 2.000000e-01 2.000000e-01 2.000000e-01 2.000000e-01 2.000000e-01 2.000000e-01 2.000000e-01 2.000000e-01 2.000000e-01 2.000000e-01 2.000000e-01 2.000000e-01 2.000000e-01 2.000000e-01 2.000000e-01 2.000000e-01 2.000000e-01 2.000000e-01 2.000000e-01 2.000000e-01 2.000000e-01 2.000000e-01 2.000000e-01 2.000000e-01 2.000000e-01 2.000000e-01 2.000000e-01 2.000000e-01 2.000000e-01 2.000000e-01 2.000000e-01 2.000000e-01 2.000000e-01 2.000000e-01 2.000000e-01 2.000000e-01 2.000000e-01 2.000000e-01 2.000000e-01 2.000000e-01 2.000000e-01 2.000000e-01 2.000000e-01 2.000000e-01 2.000000e-01 2.000000e-01 2.000000e-01 2.000000e-01 2.000000e-01 2.000000e-01 2.000000e-01 2.000000e-01 2.000000e-01 2.000000e-01 2.000000e-01 2.000000e-01 2.000000e-01 2.000000e-01 2.000000e-01 2.000000e-01 2.000000e-01 2.000000e-01 2.000000e-01 2.000000e-01 2.000000e-01 2.000000e-01 2.000000e-01 2.000000e-01 2.000000e-01 2.000000e-01 2.000000e-01 2.000000e-01 2.000000e-01 2.000000e-01 2.000000e-01 2.000000e-01 2.000000e-01 2.000000e-01 2.000000e-01 2.000000e-01 2.000000e-01 2.000000e-01 2.000000e-01 2.000000e-01 2.000000e-01 2.000000e-01 2.000000e-01 2.000000e-01 2.000000e-01 2.000000e-01 2.000000e-01 2.000000e-01 2.000000e-01 2.000000e-01 2.000000e-01 2.000000e-01 2.000000e-01 2.000000e-01 2.000000e-01 2.000000e-01 2.000000e-01 2.000000e-01 2.000000e-01 2.000000e-01 2.000000e-01 2.000000e-01 2.000000e-01 2.000000e-01 2.000000e-01 2.000000e-01 2.000000e-01 2.000000e-01 2.000000e-01 2.000000e-01 2.000000e-01 2.000000e-01 2.000000e-01 2.000000e-01 2.000000e-01 2.000000e-01 2.000000e-01 2.000000e-01 2.000000e-01 2.000000e-01 2.000000e-01 2.000000e-01 2.000000e-01 2.000000e-01 2.000000e-01 2.000000e-01 2.000000e-01 2.000000e-01 2.000000e-01 2.000000e-01 2.000000e-01 2.000000e-01 2.000000e-01 2.000000e-01 2.000000e-01 2.000000e-01 2.000000e-01
<GCONST> 3.243863e+01
<STATE> 3
<MEAN> 142
 8.441426e-01 3.595032e-01 3.812926e-01 2.904716e-01 2.218754e-01 4.268357e-01 4.426230e-01 3.649555e-01 3.478932e-01 3.656281e-01 4.339639e-01 4.795276e-01 3.943684e-01 4.384357e-01 2.246931e-01 3.170537e-01 3.595730e-01 3.736663e-01 3.298571e-01 4.050587e-01 4.533956e-01 4.521581e-01 4.490351e-01 3.997055e-01 4.097472e-01 4.341960e-01 4.098413e-01 3.942565e-01 3.302986e-01 3.478150e-01 4.787474e-01 4.381593e-01 5.284500e-01 3.965027e-01 4.139688e-01 3.237153e-01 2.582110e-01 2.251029e-01 2.668651e-01 2.335648e-01 2.541069e-01 3.468270e-01 3.328468e-01 3.965122e-01 2.514023e-01 4.054163e-01 4.085677e-01 3.655366e-01 3.410159e-01 3.980252e-01 5.191540e-01 3.675404e-01 4.297221e-01 2.708809e-01 5.016345e-01 3.000809e-01 4.703100e-01 3.576894e-01 4.039201e-01 2.856123e-01 5.259881e-01 4.396488e-01 4.006839e-01 4.021490e-01 3.870951e-01 4.580690e-01 3.245661e-01 3.936262e-01 5.137842e-01 3.380075e-01 4.530970e-01 5.786036e-01 4.324803e-01 4.085832e-01 3.945172e-01 3.749007e-01 4.663326e-01 3.826146e-01 4.489776e-01 3.617360e-01 3.781205e-01 3.481145e-01 2.926123e-01 4.555520e-01 3.111783e-01 5.006379e-01 4.139559e-01 4.351170e-01 4.453768e-01 4.197993e-01 4.095334e-01 4.057889e-01 3.580479e-01 4.101506e-01 3.714569e-01 4.686513e-01 3.779218e-01 2.786348e-01 3.590446e-01 4.691181e-01 3.026744e-01 4.835157e-01 3.930695e-01 3.240871e-01 2.866020e-01 3.135397e-01 4.221644e-01 3.195148e-01 4.158519e-01 3.685648e-01 4.528751e-01 4.164551e-01 2.792801e-01 2.703095e-01 3.506441e-01 4.599869e-01 3.951800e-01 3.499975e-01 4.559794e-01 4.725788e-01 3.730668e-01 5.525843e-01 4.586795e-01 4.941643e-01 4.557772e-01 4.313797e-01 4.192497e-01 3.009530e-01 3.338806e-01 4.158638e-01 3.634754e-01 3.353347e-01 4.674914e-01 3.343395e-01 3.122671e-01 3.180861e-01 5.079932e-01 3.406313e-01 2.753350e-01 3.190574e-01 4.353648e-01 4.908069e-01
<VARIANCE> 142
 2.000000e-01 2.000000e-01 2.000000e-01 2.000000e-01 2.000000e-01 2.000000e-01 2.000000e-01 2.000000e-01 2.000000e-01 2.000000e-01 2.000000e-01 2.000000e-01 2.000000e-01 2.000000e-01 2.000000e-01 2.000000e-01 2.000000e-01 2.000000e-01 2.000000e-01 2.000000e-01 2.000000e-01 2.000000e-01 2.000000e-01 2.000000e-01 2.000000e-01 2.000000e-01 2.000000e-01 2.000000e-01 2.000000e-01 2.000000e-01 2.000000e-01 2.000000e-01 2.000000e-01 2.000000e-01 2.000000e-01 2.000000e-01 2.000000e-01 2.000000e-01 2.000000e-01 2.000000e-01 2.000000e-01 2.000000e-01 2.000000e-01 2.000000e-01 2.000000e-01 2.000000e-01 2.000000e-01 2.000000e-01 2.000000e-01 2.000000e-01 2.000000e-01 2.000000e-01 2.000000e-01 2.000000e-01 2.000000e-01 2.000000e-01 2.000000e-01 2.000000e-01 2.000000e-01 2.000000e-01 2.000000e-01 2.000000e-01 2.000000e-01 2.000000e-01 2.000000e-01 2.000000e-01 2.000000e-01 2.000000e-01 2.000000e-01 2.000000e-01 2.000000e-01 2.000000e-01 2.000000e-01 2.000000e-01 2.000000e-01 2.000000e-01 2.000000e-01 2.000000e-01 2.000000e-01 2.000000e-01 2.000000e-01 2.000000e-01 2.000000e-01 2.000000e-01 2.000000e-01 2.000000e-01 2.000000e-01 2.000000e-01 2.000000e-01 2.000000e-01 2.000000e-01 2.000000e-01 2.000000e-01 2.000000e-01 2.000000e-01 2.000000e-01 2.000000e-01 2.000000e-01 2.000000e-01 2.000000e-01 2.000000e-01 2.000000e-01 2.000000e-01 2.000000e-01 2.000000e-01 2.000000e-01 2.000000e-01 2.000000e-01 2.000000e-01 2.000000e-01 2.000000e-01 2.000000e-01 2.000000e-01 2.000000e-01 2.000000e-01 2.000000e-01 2.000000e-01 2.000000e-01 2.000000e-01 2.000000e-01 2.000000e-01 2.000000e-01 2.000000e-01 2.000000e-01 2.000000e-01 2.000000e-01 2.000000e-01 2.000000e-01 2.000000e-01 2.000000e-01 2.000000e-01 2.000000e-01 2.000000e-01 2.000000e-01 2.000000e-01 2.000000e-01 2.000000e-01 2.000000e-01 2.000000e-01 2.000000e-01 2.000000e-01 2.000000e-01
<GCONST> 3.243863e+01
<TRANSP> 4
 0.000000e+00 1.000000e+00 0.000000e+00 0.000000e+00
 0.000000e+00 8.682400e-01 1.317601e-01 0.000000e+00
 0.000000e+00 0.000000e+00 8.708641e-01 1.291359e-01
 0.000000e+00 0.000000e+00 0.000000e+00 0.000000e+00
<ENDHMM>
