~o
<STREAMINFO> 1 142
<VECSIZE> 142<NULLD><USER><DIAGC>
~h "guess"
<BEGINHMM>
<NUMSTATES> 4
<STATE> 2
<MEAN> 142
 4.896977e-01 3.247781e-01 4.090764e-01 3.962092e-01 4.360038e-01 3.371398e-01 4.657824e-01 3.214081e-01 4.011857e-01 4.369822e-01 4.408440e-01 4.006686e-01 3.534198e-01 4.672969e-01 4.382328e-01 4.150780e-01 4.031871e-01 3.609973e-01 3.264433e-01 3.374426e-01 5.197529e-01 4.945434e-01 3.660893e-01 4.908362e-01 4.899594e-01 3.633591e-01 4.138180e-01 3.705307e-01 4.125329e-01 4.224007e-01 4.861069e-01 3.614993e-01 4.351153e-01 4.834644e-01 4.372956e-01 4.073370e-01 4.618551e-01 3.097953e-01 4.144205e-01 5.203288e-01 3.510267e-01 4.691257e-01 3.688419e-01 2.819776e-01 2.849962e-01 3.898129e-01 4.867190e-01 4.830137e-01 4.935120e-01 3.487644e-01 5.073880e-01 3.733370e-01 3.759388e-01 3.161269e-01 4.285231e-01 3.723685e-01 3.732570e-01 3.617681e-01 3.357511e-01 4.550363e-01 4.412346e-01 4.652366e-01 3.419169e-01 3.311209e-01 3.713715e-01 4.837820e-01 3.512702e-01 4.973683e-01 4.246604e-01 3.790197e-01 4.780045e-01 3.506648e-01 3.882853e-01 4.260691e-01 2.618611e-01 3.351113e-01 4.891603e-01 4.952533e-01 4.500288e-01 5.250806e-01 4.596914e-01 3.900639e-01 3.709395e-01 4.409139e-01 4.474055e-01 4.273954e-01 4.072524e-01 4.227527e-01 4.887417e-01 3.782872e-01 3.104151e-01 3.357660e-01 4.386904e-01 3.375532e-01 4.837848e-01 4.334836e-01 4.732043e-01 2.758118e-01 5.501977e-01 4.791687e-01 4.269267e-01 4.587546e-01 3.657968e-01 3.823500e-01 4.018951e-01 3.226152e-01 3.151114e-01 4.020360e-01 3.978572e-01 4.850293e-01 3.485943e-01 3.250875e-01 4.988773e-01 4.239669e-01 3.331126e-01 4.000314e-01 3.086617e-01 4.972759e-01 4.162956e-01 4.326247e-01 4.375073e-01 4.350921e-01 3.954594e-01 3.323221e-01 4.421292e-01 3.667485e-01 4.138502e-01 3.429566e-01 3.106725e-01 4.296775e-01 5.211102e-01 4.504309e-01 3.353135e-01 4.107909e-01 4.385986e-01 4.924200e-01 4.741003e-01 4.751772e-01 5.590484e-01 4.172523e-01 4.466237e-01 4.278198e-01
<VARIANCE> 142
 2.000000e-01 2.000000e-01 2.000000e-01 2.000000e-01 2.000000e-01 2.000000e-01 2.000000e-01 2.000000e-01 2.000000e-01 2.000000e-01 2.000000e-01 2.000000e-01 2.000000e-01 2.000000e-01 2.000000e-01 2.000000e-01 2.000000e-01 2.000000e-01 2.000000e-01 2.000000e-01 2.000000e-01 2.000000e-01 2.000000e-01 2.000000e-01 2.000000e-01 2.000000e-01 2.000000e-01 2.000000e-01 2.000000e-01 2.000000e-01 2.000000e-01 2.000000e-01 2.000000e-01 2.000000e-01 2.000000e-01 2.000000e-01 2.000000e-01 2.000000e-01 2.000000e-01 2.000000e-01 2.000000e-01 2.000000e-01 2.000000e-01 2.000000e-01 2.000000e-01 2.000000e-01 2.000000e-01 2.000000e-01 2.000000e-01 2.000000e-01 2.000000e-01 2.000000e-01 2.000000e-01 2.000000e-01 2.000000e-01 2.000000e-01 2.000000e-01 2.000000e-01 2.000000e-01 2.000000e-01 2.000000e-01 2.000000e-01 2.000000e-01 2.000000e-01 2.000000e-01 2.000000e-01 2.000000e-01 2.000000e-01 2.000000e-01 2.000000e-01 2.000000e-01 2.000000e-01 2.000000e-01 2.000000e-01 2.000000e-01 2.000000e-01 2.000000e-01 2.000000e-01 2.000000e-01 2.000000e-01 2.000000e-01 2.000000e-01 2.000000e-01 2.000000e-01 2.000000e-01 2.000000e-01 2.000000e-01 2.000000e-01 2.000000e-01 2.000000e-01 2.000000e-01 2.000000e-01 2.000000e-01 2.000000e-01 2.000000e-01 2.000000e-01 2.000000e-01 2.000000e-01 2.000000e-01 2.000000e-01 2.000000e-01 2.000000e-01 2.000000e-01 2.000000e-01 2.000000e-01 2.000000e-01 2.000000e-01 2.000000e-01 2.000000e-01 2.000000e-01 2.000000e-01 2.000000e-01 2.000000e-01 2.000000e-01 2.000000e-01 2.000000e-01 2.000000e-01 2.000000e-01 2.000000e-01 2.000000e-01 2.000000e-01 2.000000e-01 2.000000e-01 2.000000e-01 2.000000e-01 2.000000e-01 2.000000e-01 2.000000e-01 2.000000e-01 2.000000e-01 2.000000e-01 2.000000e-01 2.000000e-01 2.000000e-01 2.000000e-01 2.000000e-01 2.000000e-01 2.000000e-01 2.000000e-01 2.000000e-01 2.000000e-01 2.000000e-01
<GCONST> 3.243863e+01
<STATE> 3
<MEAN> 142
 6.867720e-01 3.831170e-01 3.647360e-01 3.038481e-01 2.805440e-01 3.983149e-01 3.831402e-01 2.841771e-01 3.548101e-01 3.870752e-01 4.607463e-01 5.116044e-01 4.426610e-01 4.951231e-01 3.061004e-01 2.664213e-01 3.788772e-01 4.581952e-01 3.505291e-01 4.089071e-01 3.904306e-01 3.544284e-01 4.074011e-01 3.963543e-01 4.339584e-01 4.263199e-01 4.309590e-01 4.730993e-01 4.206169e-01 4.503118e-01 4.420675e-01 3.820528e-01 4.349656e-01 3.662256e-01 4.351248e-01 3.136952e-01 2.997070e-01 3.470756e-01 3.378298e-01 2.949947e-01 3.540930e-01 4.078183e-01 3.891717e-01 3.218193e-01 3.054466e-01 4.316777e-01 3.645424e-01 3.431823e-01 3.235350e-01 3.876306e-01 4.953402e-01 4.016198e-01 4.593285e-01 3.220478e-01 4.578324e-01 3.671894e-01 4.201747e-01 3.139364e-01 3.677846e-01 3.075522e-01 4.517063e-01 4.344333e-01 3.972090e-01 4.451486e-01 4.788150e-01 4.021286e-01 3.784027e-01 3.631768e-01 4.401928e-01 4.284768e-01 4.655413e-01 5.111955e-01 4.058582e-01 4.114734e-01 3.774067e-01 4.296417e-01 4.569756e-01 3.463985e-01 4.116651e-01 3.097723e-01 4.940483e-01 3.523476e-01 3.621198e-01 4.139789e-01 3.565236e-01 4.380813e-01 4.097655e-01 4.812022e-01 4.561107e-01 4.155910e-01 4.591983e-01 3.978043e-01 4.861107e-01 4.409457e-01 3.804671e-01 4.955388e-01 4.245454e-01 3.981039e-01 3.775683e-01 4.239050e-01 3.543373e-01 4.038984e-01 3.672152e-01 4.160324e-01 2.765446e-01 2.795854e-01 4.338767e-01 3.921031e-01 4.265259e-01 3.139511e-01 4.480932e-01 4.609008e-01 3.198512e-01 3.092232e-01 3.974090e-01 5.020337e-01 4.403435e-01 3.635757e-01 4.753824e-01 3.766854e-01 3.770185e-01 4.645815e-01 4.253365e-01 5.603837e-01 3.637393e-01 4.058969e-01 4.832407e-01 4.591920e-01 4.738304e-01 3.810132e-01 3.526555e-01 4.119022e-01 5.323595e-01 4.145676e-01 3.479921e-01 3.429962e-01 4.488666e-01 3.806740e-01 3.132662e-01 3.079340e-01 4.151585e-01 4.302234e-01
<VARIANCE> 142
 2.000000e-01 2.000000e-01 2.000000e-01 2.000000e-01 2.000000e-01 2.000000e-01 2.000000e-01 2.000000e-01 2.000000e-01 2.000000e-01 2.000000e-01 2.000000e-01 2.000000e-01 2.000000e-01 2.000000e-01 2.000000e-01 2.000000e-01 2.000000e-01 2.000000e-01 2.000000e-01 2.000000e-01 2.000000e-01 2.000000e-01 2.000000e-01 2.000000e-01 2.000000e-01 2.000000e-01 2.000000e-01 2.000000e-01 2.000000e-01 2.000000e-01 2.000000e-01 2.000000e-01 2.000000e-01 2.000000e-01 2.000000e-01 2.000000e-01 2.000000e-01 2.000000e-01 2.000000e-01 2.000000e-01 2.000000e-01 2.000000e-01 2.000000e-01 2.000000e-01 2.000000e-01 2.000000e-01 2.000000e-01 2.000000e-01 2.000000e-01 2.000000e-01 2.000000e-01 2.000000e-01 2.000000e-01 2.000000e-01 2.000000e-01 2.000000e-01 2.000000e-01 2.000000e-01 2.000000e-01 2.000000e-01 2.000000e-01 2.000000e-01 2.000000e-01 2.000000e-01 2.000000e-01 2.000000e-01 2.000000e-01 2.000000e-01 2.000000e-01 2.000000e-01 2.000000e-01 2.000000e-01 2.000000e-01 2.000000e-01 2.000000e-01 2.000000e-01 2.000000e-01 2.000000e-01 2.000000e-01 2.000000e-01 2.000000e-01 2.000000e-01 2.000000e-01 2.000000e-01 2.000000e-01 2.000000e-01 2.000000e-01 2.000000e-01 2.000000e-01 2.000000e-01 2.000000e-01 2.000000e-01 2.000000e-01 2.000000e-01 2.000000e-01 2.000000e-01 2.000000e-01 2.000000e-01 2.000000e-01 2.000000e-01 2.000000e-01 2.000000e-01 2.000000e-01 2.000000e-01 2.000000e-01 2.000000e-01 2.000000e-01 2.000000e-01 2.000000e-01 2.000000e-01 2.000000e-01 2.000000e-01 2.000000e-01 2.000000e-01 2.000000e-01 2.000000e-01 2.000000e-01 2.000000e-01 2.000000e-01 2.000000e-01 2.000000e-01 2.000000e-01 2.000000e-01 2.000000e-01 2.000000e-01 2.000000e-01 2.000000e-01 2.000000e-01 2.000000e-01 2.000000e-01 2.000000e-01 2.000000e-01 2.000000e-01 2.000000e-01 2.000000e-01 2.000000e-01 2.000000e-01 2.000000e-01 2.000000e-01 2.000000e-01 2.000000e-01
<GCONST> 3.243863e+01
<TRANSP> 4
 0.000000e+00 1.000000e+00 0.000000e+00 0.000000e+00
 0.000000e+00 8.701678e-01 1.298322e-01 0.000000e+00
 0.000000e+00 0.000000e+00 8.550252e-01 1.449748e-01
 0.000000e+00 0.000000e+00 0.000000e+00 0.000000e+00
<ENDHMM>
