~o
<STREAMINFO> 1 142
<VECSIZE> 142<NULLD><USER><DIAGC>
~h "hat"
<BEGINHMM>
<NUMSTATES> 4
<STATE> 2
<MEAN> 142
 5.303763e-01 3.158064e-01 4.003253e-01 3.815596e-01 4.007359e-01 3.728363e-01 4.492818e-01 3.697466e-01 3.957659e-01 3.953843e-01 4.397870e-01 3.904788e-01 3.798741e-01 4.475509e-01 3.766409e-01 4.289449e-01 4.173132e-01 3.703021e-01 3.690285e-01 3.716266e-01 4.949041e-01 4.877481e-01 3.997073e-01 4.503252e-01 4.981621e-01 4.071311e-01 4.377012e-01 3.964916e-01 3.953381e-01 3.722372e-01 4.679600e-01 3.913288e-01 4.374344e-01 5.227316e-01 4.035147e-01 3.441258e-01 3.772753e-01 3.278611e-01 3.728369e-01 5.080538e-01 3.726397e-01 4.277527e-01 3.466502e-01 3.385277e-01 3.174208e-01 4.191850e-01 4.455944e-01 4.621129e-01 4.591928e-01 3.349050e-01 4.974953e-01 3.922594e-01 4.250474e-01 2.824067e-01 4.805179e-01 3.881767e-01 4.116374e-01 4.103093e-01 3.638898e-01 4.208025e-01 4.688372e-01 4.871796e-01 3.745246e-01 4.122118e-01 3.940986e-01 5.148515e-01 3.822099e-01 4.978357e-01 4.584696e-01 3.872341e-01 5.122534e-01 3.938991e-01 4.200789e-01 4.171615e-01 3.357235e-01 3.789040e-01 4.714043e-01 4.196008e-01 4.687917e-01 4.793150e-01 4.768778e-01 3.542740e-01 3.439488e-01 4.094499e-01 4.454145e-01 4.278202e-01 3.799057e-01 4.047790e-01 4.868346e-01 3.448263e-01 2.769222e-01 3.466658e-01 4.564176e-01 3.491160e-01 4.148041e-01 4.570211e-01 4.629433e-01 2.979921e-01 4.769144e-01 4.667397e-01 3.928148e-01 4.890850e-01 3.186439e-01 3.653439e-01 3.620022e-01 2.852111e-01 3.718268e-01 3.780289e-01 3.928154e-01 5.046917e-01 3.383364e-01 3.249317e-01 4.773763e-01 3.680828e-01 3.544135e-01 4.147733e-01 3.494920e-01 4.453806e-01 4.191194e-01 3.821137e-01 3.937995e-01 4.515957e-01 3.977733e-01 3.685710e-01 5.163710e-01 3.813967e-01 3.971317e-01 3.242279e-01 3.310963e-01 4.527957e-01 5.021960e-01 3.830658e-01 3.373647e-01 4.166343e-01 3.941622e-01 4.403347e-01 4.771438e-01 4.125599e-01 5.103790e-01 4.033577e-01 4.142926e-01 4.773195e-01
<VARIANCE> 142
 2.000000e-01 2.000000e-01 2.000000e-01 2.000000e-01 2.000000e-01 2.000000e-01 2.000000e-01 2.000000e-01 2.000000e-01 2.000000e-01 2.000000e-01 2.000000e-01 2.000000e-01 2.000000e-01 2.000000e-01 2.000000e-01 2.000000e-01 2.000000e-01 2.000000e-01 2.000000e-01 2.000000e-01 2.000000e-01 2.000000e-01 2.000000e-01 2.000000e-01 2.000000e-01 2.000000e-01 2.000000e-01 2.000000e-01 2.000000e-01 2.000000e-01 2.000000e-01 2.000000e-01 2.000000e-01 2.000000e-01 2.000000e-01 2.000000e-01 2.000000e-01 2.000000e-01 2.000000e-01 2.000000e-01 2.000000e-01 2.000000e-01 2.000000e-01 2.000000e-01 2.000000e-01 2.000000e-01 2.000000e-01 2.000000e-01 2.000000e-01 2.000000e-01 2.000000e-01 2.000000e-01 2.000000e-01 2.000000e-01 2.000000e-01 2.000000e-01 2.000000e-01 2.000000e-01 2.000000e-01 2.000000e-01 2.000000e-01 2.000000e-01 2.000000e-01 2.000000e-01 2.000000e-01 2.000000e-01 2.000000e-01 2.000000e-01 2.000000e-01 2.000000e-01 2.000000e-01 2.000000e-01 2.000000e-01 2.000000e-01 2.000000e-01 2.000000e-01 2.000000e-01 2.000000e-01 2.000000e-01 2.000000e-01 2.000000e-01 2.000000e-01 2.000000e-01 2.000000e-01 2.000000e-01 2.000000e-01 2.000000e-01 2.000000e-01 2.000000e-01 2.000000e-01 2.000000e-01 2.000000e-01 2.000000e-01 2.000000e-01 2.000000e-01 2.000000e-01 2.000000e-01 2.000000e-01 2.000000e-01 2.000000e-01 2.000000e-01 2.000000e-01 2.000000e-01 2.000000e-01 2.000000e-01 2.000000e-01 2.000000e-01 2.000000e-01 2.000000e-01 2.000000e-01 2.000000e-01 2.000000e-01 2.000000e-01 2.000000e-01 2.000000e-01 2.000000e-01 2.000000e-01 2.000000e-01 2.000000e-01 2.000000e-01 2.000000e-01 2.000000e-01 2.000000e-01 2.000000e-01 2.000000e-01 2.000000e-01 2.000000e-01 2.000000e-01 2.000000e-01 2.000000e-01 2.000000e-01 2.000000e-01 2.000000e-01 2.000000e-01 2.000000e-01 2.000000e-01 2.000000e-01 2.000000e-01 2.000000e-01 2.000000e-01 2.000000e-01
<GCONST> 3.243863e+01
<STATE> 3
<MEAN> 142
 5.517055e-01 4.630589e-01 3.509016e-01 3.077582e-01 3.053671e-01 3.378985e-01 2.795291e-01 3.121011e-01 3.539320e-01 4.149570e-01 5.295410e-01 5.151778e-01 4.457695e-01 5.435619e-01 3.930306e-01 3.070707e-01 4.485112e-01 5.387105e-01 3.544374e-01 4.008038e-01 3.061310e-01 2.853064e-01 3.377182e-01 4.085796e-01 4.898818e-01 4.255294e-01 4.656396e-01 5.549543e-01 4.622335e-01 5.203844e-01 4.743679e-01 3.992633e-01 2.943064e-01 3.931832e-01 4.236946e-01 3.412262e-01 3.748862e-01 4.816874e-01 4.419872e-01 3.740830e-01 4.834024e-01 4.857872e-01 4.398004e-01 2.984746e-01 2.862234e-01 4.439774e-01 3.211857e-01 3.764499e-01 3.412608e-01 4.041226e-01 4.736253e-01 4.929802e-01 5.026164e-01 3.460166e-01 4.227251e-01 5.064907e-01 4.076473e-01 2.808099e-01 3.459378e-01 2.824157e-01 3.749953e-01 4.404486e-01 4.583779e-01 4.957055e-01 5.881625e-01 3.947650e-01 5.179904e-01 3.142009e-01 3.411112e-01 5.332835e-01 4.667048e-01 4.070476e-01 3.796289e-01 3.800782e-01 3.340690e-01 4.201296e-01 3.759364e-01 3.249586e-01 4.103156e-01 3.463976e-01 6.073390e-01 4.012810e-01 4.733917e-01 3.276646e-01 4.193735e-01 3.289123e-01 3.797702e-01 4.479138e-01 4.584947e-01 3.566618e-01 4.865324e-01 3.014832e-01 5.591205e-01 4.904265e-01 3.979688e-01 5.606685e-01 4.487234e-01 4.834053e-01 4.145127e-01 3.917564e-01 4.212837e-01 3.488389e-01 3.115569e-01 5.197884e-01 3.095247e-01 2.560402e-01 4.850483e-01 4.923155e-01 3.855481e-01 2.892657e-01 4.335324e-01 4.806984e-01 2.908297e-01 3.544730e-01 4.175239e-01 5.111929e-01 5.140507e-01 2.965217e-01 5.534099e-01 3.495095e-01 4.375726e-01 4.773298e-01 4.242248e-01 5.323905e-01 3.245227e-01 4.360653e-01 5.520877e-01 5.751044e-01 5.979210e-01 3.561473e-01 3.462102e-01 4.147252e-01 5.024925e-01 4.938015e-01 4.311461e-01 4.044716e-01 4.165320e-01 4.600636e-01 3.638217e-01 3.207891e-01 3.557366e-01 4.003672e-01
<VARIANCE> 142
 2.000000e-01 2.000000e-01 2.000000e-01 2.000000e-01 2.000000e-01 2.000000e-01 2.000000e-01 2.000000e-01 2.000000e-01 2.000000e-01 2.000000e-01 2.000000e-01 2.000000e-01 2.000000e-01 2.000000e-01 2.000000e-01 2.000000e-01 2.000000e-01 2.000000e-01 2.000000e-01 2.000000e-01 2.000000e-01 2.000000e-01 2.000000e-01 2.000000e-01 2.000000e-01 2.000000e-01 2.000000e-01 2.000000e-01 2.000000e-01 2.000000e-01 2.000000e-01 2.000000e-01 2.000000e-01 2.000000e-01 2.000000e-01 2.000000e-01 2.000000e-01 2.000000e-01 2.000000e-01 2.000000e-01 2.000000e-01 2.000000e-01 2.000000e-01 2.000000e-01 2.000000e-01 2.000000e-01 2.000000e-01 2.000000e-01 2.000000e-01 2.000000e-01 2.000000e-01 2.000000e-01 2.000000e-01 2.000000e-01 2.000000e-01 2.000000e-01 2.000000e-01 2.000000e-01 2.000000e-01 2.000000e-01 2.000000e-01 2.000000e-01 2.000000e-01 2.000000e-01 2.000000e-01 2.000000e-01 2.000000e-01 2.000000e-01 2.000000e-01 2.000000e-01 2.000000e-01 2.000000e-01 2.000000e-01 2.000000e-01 2.000000e-01 2.000000e-01 2.000000e-01 2.000000e-01 2.000000e-01 2.000000e-01 2.000000e-01 2.000000e-01 2.000000e-01 2.000000e-01 2.000000e-01 2.000000e-01 2.000000e-01 2.000000e-01 2.000000e-01 2.000000e-01 2.000000e-01 2.000000e-01 2.000000e-01 2.000000e-01 2.000000e-01 2.000000e-01 2.000000e-01 2.000000e-01 2.000000e-01 2.000000e-01 2.000000e-01 2.000000e-01 2.000000e-01 2.000000e-01 2.000000e-01 2.000000e-01 2.000000e-01 2.000000e-01 2.000000e-01 2.000000e-01 2.000000e-01 2.000000e-01 2.000000e-01 2.000000e-01 2.000000e-01 2.000000e-01 2.000000e-01 2.000000e-01 2.000000e-01 2.000000e-01 2.000000e-01 2.000000e-01 2.000000e-01 2.000000e-01 2.000000e-01 2.000000e-01 2.000000e-01 2.000000e-01 2.000000e-01 2.000000e-01 2.000000e-01 2.000000e-01 2.000000e-01 2.000000e-01 2.000000e-01 2.000000e-01 2.000000e-01 2.000000e-01 2.000000e-01 2.000000e-01 2.000000e-01
<GCONST> 3.243863e+01
<TRANSP> 4
 0.000000e+00 1.000000e+00 0.000000e+00 0.000000e+00
 0.000000e+00 8.834029e-01 1.165971e-01 0.000000e+00
 0.000000e+00 0.000000e+00 8.311796e-01 1.688204e-01
 0.000000e+00 0.000000e+00 0.000000e+00 0.000000e+00
<ENDHMM>
