~o
<STREAMINFO> 1 142
<VECSIZE> 142<NULLD><USER><DIAGC>
~h "he"
<BEGINHMM>
<NUMSTATES> 4
<STATE> 2
<MEAN> 142
 8.369151e-01 3.605302e-01 4.352199e-01 4.042248e-01 2.925956e-01 3.904989e-01 5.060092e-01 3.709994e-01 2.929349e-01 3.361531e-01 4.480202e-01 4.895662e-01 4.339679e-01 4.113993e-01 2.717029e-01 3.590112e-01 3.354379e-01 3.911736e-01 3.505376e-01 4.741075e-01 4.954622e-01 4.411408e-01 4.561237e-01 4.118290e-01 4.183108e-01 3.843859e-01 4.068256e-01 4.164861e-01 3.288606e-01 3.054906e-01 4.376410e-01 4.681516e-01 5.998542e-01 3.669228e-01 4.028527e-01 3.724028e-01 2.889714e-01 2.738091e-01 2.755089e-01 3.225923e-01 2.463643e-01 3.768301e-01 2.775773e-01 4.668412e-01 3.366571e-01 4.305366e-01 4.311266e-01 4.006613e-01 3.847401e-01 3.394291e-01 5.017108e-01 4.481373e-01 3.698785e-01 2.341609e-01 5.581033e-01 3.252563e-01 5.292925e-01 4.227545e-01 4.085963e-01 2.993113e-01 5.585521e-01 4.811933e-01 3.886767e-01 4.150785e-01 3.956545e-01 5.124630e-01 3.067149e-01 4.340521e-01 5.019931e-01 2.901018e-01 4.861290e-01 5.678129e-01 3.937221e-01 4.166687e-01 4.398538e-01 3.994712e-01 5.297253e-01 4.274335e-01 4.219610e-01 4.298374e-01 3.952662e-01 3.623999e-01 3.680169e-01 4.696108e-01 3.477797e-01 5.395805e-01 4.230371e-01 4.340179e-01 4.108748e-01 4.434488e-01 3.886352e-01 4.655944e-01 3.755361e-01 4.061324e-01 4.312965e-01 4.688687e-01 4.412086e-01 2.886620e-01 3.440458e-01 4.129988e-01 3.307762e-01 5.000417e-01 4.019086e-01 2.790765e-01 3.185720e-01 3.198230e-01 4.081393e-01 3.188181e-01 4.366629e-01 4.652319e-01 4.223735e-01 4.119871e-01 3.944580e-01 3.227178e-01 3.573461e-01 3.912680e-01 3.525647e-01 3.627746e-01 4.445933e-01 4.415153e-01 4.129574e-01 5.374672e-01 5.352172e-01 4.798522e-01 5.536817e-01 4.894268e-01 4.020473e-01 3.297439e-01 3.159502e-01 5.135525e-01 4.729042e-01 3.504768e-01 5.100872e-01 3.925975e-01 3.319158e-01 3.847104e-01 5.393355e-01 3.575532e-01 4.166502e-01 3.539272e-01 4.998703e-01 5.508318e-01
<VARIANCE> 142
 2.000000e-01 2.000000e-01 2.000000e-01 2.000000e-01 2.000000e-01 2.000000e-01 2.000000e-01 2.000000e-01 2.000000e-01 2.000000e-01 2.000000e-01 2.000000e-01 2.000000e-01 2.000000e-01 2.000000e-01 2.000000e-01 2.000000e-01 2.000000e-01 2.000000e-01 2.000000e-01 2.000000e-01 2.000000e-01 2.000000e-01 2.000000e-01 2.000000e-01 2.000000e-01 2.000000e-01 2.000000e-01 2.000000e-01 2.000000e-01 2.000000e-01 2.000000e-01 2.000000e-01 2.000000e-01 2.000000e-01 2.000000e-01 2.000000e-01 2.000000e-01 2.000000e-01 2.000000e-01 2.000000e-01 2.000000e-01 2.000000e-01 2.000000e-01 2.000000e-01 2.000000e-01 2.000000e-01 2.000000e-01 2.000000e-01 2.000000e-01 2.000000e-01 2.000000e-01 2.000000e-01 2.000000e-01 2.000000e-01 2.000000e-01 2.000000e-01 2.000000e-01 2.000000e-01 2.000000e-01 2.000000e-01 2.000000e-01 2.000000e-01 2.000000e-01 2.000000e-01 2.000000e-01 2.000000e-01 2.000000e-01 2.000000e-01 2.000000e-01 2.000000e-01 2.000000e-01 2.000000e-01 2.000000e-01 2.000000e-01 2.000000e-01 2.000000e-01 2.000000e-01 2.000000e-01 2.000000e-01 2.000000e-01 2.000000e-01 2.000000e-01 2.000000e-01 2.000000e-01 2.000000e-01 2.000000e-01 2.000000e-01 2.000000e-01 2.000000e-01 2.000000e-01 2.000000e-01 2.000000e-01 2.000000e-01 2.000000e-01 2.000000e-01 2.000000e-01 2.000000e-01 2.000000e-01 2.000000e-01 2.000000e-01 2.000000e-01 2.000000e-01 2.000000e-01 2.000000e-01 2.000000e-01 2.000000e-01 2.000000e-01 2.000000e-01 2.000000e-01 2.000000e-01 2.000000e-01 2.000000e-01 2.000000e-01 2.000000e-01 2.000000e-01 2.000000e-01 2.000000e-01 2.000000e-01 2.000000e-01 2.000000e-01 2.000000e-01 2.000000e-01 2.000000e-01 2.000000e-01 2.000000e-01 2.000000e-01 2.000000e-01 2.000000e-01 2.000000e-01 2.000000e-01 2.000000e-01 2.000000e-01 2.000000e-01 2.000000e-01 2.000000e-01 2.000000e-01 2.000000e-01 2.000000e-01 2.000000e-01 2.000000e-01 2.000000e-01
<GCONST> 3.243863e+01
<STATE> 3
<MEAN> 142
 4.955281e-01 4.218850e-01 3.147128e-01 2.911001e-01 2.690428e-01 2.601897e-01 3.012542e-01 4.337382e-01 3.890518e-01 4.871482e-01 4.866117e-01 4.389100e-01 3.915519e-01 4.342449e-01 4.346850e-01 3.796699e-01 4.940808e-01 5.018232e-01 3.417643e-01 3.436476e-01 4.695485e-01 4.157689e-01 3.404155e-01 4.287033e-01 5.038850e-01 3.833011e-01 4.262128e-01 4.049640e-01 4.802096e-01 3.682045e-01 4.983124e-01 4.599791e-01 3.208426e-01 5.766925e-01 4.465064e-01 4.579816e-01 4.301811e-01 4.694233e-01 4.796533e-01 4.256273e-01 4.050286e-01 5.481911e-01 3.847175e-01 3.400466e-01 2.203972e-01 4.303715e-01 3.744142e-01 4.792618e-01 3.922147e-01 3.178445e-01 4.439298e-01 5.109461e-01 4.644028e-01 3.048574e-01 3.662357e-01 4.915999e-01 4.506440e-01 3.526691e-01 3.232082e-01 2.876777e-01 3.762044e-01 4.944482e-01 4.912072e-01 4.418323e-01 4.810944e-01 4.139528e-01 4.791051e-01 3.793679e-01 3.632925e-01 4.556350e-01 4.814793e-01 3.805726e-01 4.475431e-01 4.235498e-01 3.064393e-01 3.495952e-01 4.438124e-01 3.687448e-01 4.745473e-01 4.799256e-01 4.550447e-01 3.380435e-01 5.462475e-01 3.737831e-01 3.634722e-01 3.412005e-01 4.581400e-01 4.313071e-01 4.523519e-01 3.608342e-01 3.916312e-01 3.523873e-01 4.091228e-01 3.541809e-01 3.854870e-01 4.410600e-01 4.279853e-01 3.895222e-01 4.958861e-01 4.097697e-01 4.445466e-01 5.295940e-01 3.173803e-01 4.394504e-01 3.699662e-01 2.911551e-01 3.748344e-01 4.269604e-01 4.075204e-01 3.691114e-01 4.238581e-01 3.723394e-01 3.156768e-01 3.800066e-01 4.427054e-01 3.607115e-01 3.904701e-01 4.433991e-01 4.650055e-01 4.022520e-01 4.104980e-01 4.613016e-01 4.212113e-01 3.676054e-01 3.976933e-01 4.766189e-01 4.267879e-01 4.179785e-01 4.102888e-01 4.720242e-01 4.237902e-01 3.222750e-01 4.168341e-01 4.394788e-01 4.409999e-01 4.780083e-01 3.854992e-01 5.003543e-01 4.290403e-01 4.109744e-01 3.741242e-01 4.105806e-01
<VARIANCE> 142
 2.000000e-01 2.000000e-01 2.000000e-01 2.000000e-01 2.000000e-01 2.000000e-01 2.000000e-01 2.000000e-01 2.000000e-01 2.000000e-01 2.000000e-01 2.000000e-01 2.000000e-01 2.000000e-01 2.000000e-01 2.000000e-01 2.000000e-01 2.000000e-01 2.000000e-01 2.000000e-01 2.000000e-01 2.000000e-01 2.000000e-01 2.000000e-01 2.000000e-01 2.000000e-01 2.000000e-01 2.000000e-01 2.000000e-01 2.000000e-01 2.000000e-01 2.000000e-01 2.000000e-01 2.000000e-01 2.000000e-01 2.000000e-01 2.000000e-01 2.000000e-01 2.000000e-01 2.000000e-01 2.000000e-01 2.000000e-01 2.000000e-01 2.000000e-01 2.000000e-01 2.000000e-01 2.000000e-01 2.000000e-01 2.000000e-01 2.000000e-01 2.000000e-01 2.000000e-01 2.000000e-01 2.000000e-01 2.000000e-01 2.000000e-01 2.000000e-01 2.000000e-01 2.000000e-01 2.000000e-01 2.000000e-01 2.000000e-01 2.000000e-01 2.000000e-01 2.000000e-01 2.000000e-01 2.000000e-01 2.000000e-01 2.000000e-01 2.000000e-01 2.000000e-01 2.000000e-01 2.000000e-01 2.000000e-01 2.000000e-01 2.000000e-01 2.000000e-01 2.000000e-01 2.000000e-01 2.000000e-01 2.000000e-01 2.000000e-01 2.000000e-01 2.000000e-01 2.000000e-01 2.000000e-01 2.000000e-01 2.000000e-01 2.000000e-01 2.000000e-01 2.000000e-01 2.000000e-01 2.000000e-01 2.000000e-01 2.000000e-01 2.000000e-01 2.000000e-01 2.000000e-01 2.000000e-01 2.000000e-01 2.000000e-01 2.000000e-01 2.000000e-01 2.000000e-01 2.000000e-01 2.000000e-01 2.000000e-01 2.000000e-01 2.000000e-01 2.000000e-01 2.000000e-01 2.000000e-01 2.000000e-01 2.000000e-01 2.000000e-01 2.000000e-01 2.000000e-01 2.000000e-01 2.000000e-01 2.000000e-01 2.000000e-01 2.000000e-01 2.000000e-01 2.000000e-01 2.000000e-01 2.000000e-01 2.000000e-01 2.000000e-01 2.000000e-01 2.000000e-01 2.000000e-01 2.000000e-01 2.000000e-01 2.000000e-01 2.000000e-01 2.000000e-01 2.000000e-01 2.000000e-01 2.000000e-01 2.000000e-01 2.000000e-01 2.000000e-01
<GCONST> 3.243863e+01
<TRANSP> 4
 0.000000e+00 1.000000e+00 0.000000e+00 0.000000e+00
 0.000000e+00 8.835089e-01 1.164911e-01 0.000000e+00
 0.000000e+00 0.000000e+00 8.288910e-01 1.711090e-01
 0.000000e+00 0.000000e+00 0.000000e+00 0.000000e+00
<ENDHMM>
