~o
<STREAMINFO> 1 142
<VECSIZE> 142<NULLD><USER><DIAGC>
~h "help"
<BEGINHMM>
<NUMSTATES> 4
<STATE> 2
<MEAN> 142
 7.250819e-01 2.844842e-01 4.321657e-01 3.243976e-01 2.598333e-01 4.009725e-01 3.749106e-01 3.179580e-01 3.347479e-01 3.643008e-01 3.965263e-01 4.369495e-01 3.954615e-01 3.862458e-01 3.069113e-01 3.129421e-01 3.861729e-01 3.475344e-01 3.086993e-01 3.592134e-01 4.401077e-01 4.398890e-01 3.691144e-01 4.080128e-01 4.224018e-01 3.764146e-01 3.928159e-01 3.721390e-01 3.535336e-01 3.037914e-01 5.260780e-01 4.138471e-01 4.709527e-01 4.160215e-01 4.390405e-01 3.535814e-01 3.227278e-01 2.549865e-01 2.343095e-01 3.766264e-01 2.773017e-01 3.149516e-01 2.966439e-01 3.217851e-01 2.613315e-01 4.107173e-01 4.416936e-01 3.848863e-01 3.838517e-01 3.374681e-01 4.641706e-01 3.207333e-01 3.887572e-01 2.648971e-01 5.005344e-01 3.068087e-01 4.048948e-01 3.173523e-01 3.402860e-01 3.847673e-01 4.163495e-01 4.097461e-01 3.342732e-01 3.444539e-01 3.571484e-01 4.770507e-01 3.309045e-01 3.892572e-01 4.779184e-01 2.991782e-01 4.409352e-01 5.323700e-01 4.262135e-01 4.237818e-01 3.568127e-01 3.648071e-01 5.162545e-01 4.204171e-01 4.032030e-01 3.651734e-01 3.736684e-01 3.226289e-01 3.089861e-01 4.632088e-01 3.862043e-01 4.947542e-01 4.181166e-01 4.411391e-01 4.445919e-01 4.396123e-01 3.576436e-01 4.428535e-01 3.924073e-01 2.939893e-01 3.815813e-01 4.577366e-01 4.048103e-01 2.888420e-01 3.652719e-01 4.075658e-01 3.571526e-01 4.619798e-01 3.510545e-01 2.784273e-01 2.608449e-01 2.713712e-01 3.294668e-01 2.863838e-01 3.681776e-01 3.890286e-01 3.489803e-01 3.264706e-01 3.374778e-01 2.715407e-01 3.453029e-01 4.310313e-01 3.180395e-01 3.560421e-01 3.903168e-01 4.131212e-01 3.469964e-01 4.872004e-01 4.026735e-01 4.448121e-01 4.081741e-01 4.004770e-01 3.993514e-01 2.534041e-01 2.813897e-01 4.135850e-01 4.084899e-01 3.663729e-01 3.854015e-01 3.582965e-01 3.327232e-01 3.635673e-01 4.688551e-01 3.488990e-01 3.335755e-01 3.255814e-01 4.107070e-01 4.559228e-01
<VARIANCE> 142
 2.000000e-01 2.000000e-01 2.000000e-01 2.000000e-01 2.000000e-01 2.000000e-01 2.000000e-01 2.000000e-01 2.000000e-01 2.000000e-01 2.000000e-01 2.000000e-01 2.000000e-01 2.000000e-01 2.000000e-01 2.000000e-01 2.000000e-01 2.000000e-01 2.000000e-01 2.000000e-01 2.000000e-01 2.000000e-01 2.000000e-01 2.000000e-01 2.000000e-01 2.000000e-01 2.000000e-01 2.000000e-01 2.000000e-01 2.000000e-01 2.000000e-01 2.000000e-01 2.000000e-01 2.000000e-01 2.000000e-01 2.000000e-01 2.000000e-01 2.000000e-01 2.000000e-01 2.000000e-01 2.000000e-01 2.000000e-01 2.000000e-01 2.000000e-01 2.000000e-01 2.000000e-01 2.000000e-01 2.000000e-01 2.000000e-01 2.000000e-01 2.000000e-01 2.000000e-01 2.000000e-01 2.000000e-01 2.000000e-01 2.000000e-01 2.000000e-01 2.000000e-01 2.000000e-01 2.000000e-01 2.000000e-01 2.000000e-01 2.000000e-01 2.000000e-01 2.000000e-01 2.000000e-01 2.000000e-01 2.000000e-01 2.000000e-01 2.000000e-01 2.000000e-01 2.000000e-01 2.000000e-01 2.000000e-01 2.000000e-01 2.000000e-01 2.000000e-01 2.000000e-01 2.000000e-01 2.000000e-01 2.000000e-01 2.000000e-01 2.000000e-01 2.000000e-01 2.000000e-01 2.000000e-01 2.000000e-01 2.000000e-01 2.000000e-01 2.000000e-01 2.000000e-01 2.000000e-01 2.000000e-01 2.000000e-01 2.000000e-01 2.000000e-01 2.000000e-01 2.000000e-01 2.000000e-01 2.000000e-01 2.000000e-01 2.000000e-01 2.000000e-01 2.000000e-01 2.000000e-01 2.000000e-01 2.000000e-01 2.000000e-01 2.000000e-01 2.000000e-01 2.000000e-01 2.000000e-01 2.000000e-01 2.000000e-01 2.000000e-01 2.000000e-01 2.000000e-01 2.000000e-01 2.000000e-01 2.000000e-01 2.000000e-01 2.000000e-01 2.000000e-01 2.000000e-01 2.000000e-01 2.000000e-01 2.000000e-01 2.000000e-01 2.000000e-01 2.000000e-01 2.000000e-01 2.000000e-01 2.000000e-01 2.000000e-01 2.000000e-01 2.000000e-01 2.000000e-01 2.000000e-01 2.000000e-01 2.000000e-01 2.000000e-01 2.000000e-01
<GCONST> 3.243863e+01
<STATE> 3
<MEAN> 142
 5.315358e-01 3.732437e-01 3.044635e-01 3.537194e-01 2.890952e-01 1.997832e-01 2.792816e-01 2.947881e-01 3.548688e-01 5.015827e-01 4.329076e-01 4.326247e-01 3.470468e-01 4.526607e-01 4.050014e-01 2.699276e-01 3.998179e-01 4.471679e-01 2.519148e-01 3.157821e-01 3.859005e-01 4.499524e-01 2.895107e-01 4.859409e-01 4.836303e-01 3.164880e-01 3.904342e-01 3.895839e-01 5.220348e-01 3.968537e-01 4.654254e-01 3.971775e-01 3.119067e-01 4.688481e-01 4.679051e-01 3.844017e-01 4.328388e-01 3.997939e-01 4.568816e-01 3.218598e-01 4.259788e-01 5.595434e-01 3.854851e-01 2.850395e-01 1.360549e-01 3.858519e-01 4.008502e-01 4.212825e-01 3.563318e-01 2.838260e-01 4.235208e-01 3.942946e-01 4.279444e-01 2.816849e-01 4.035136e-01 4.226640e-01 4.010600e-01 2.589680e-01 2.983750e-01 2.446092e-01 3.418157e-01 4.505300e-01 4.037852e-01 3.700476e-01 3.896629e-01 4.025442e-01 3.882586e-01 3.409640e-01 3.636399e-01 4.178334e-01 4.229909e-01 3.092812e-01 4.205411e-01 3.615746e-01 2.079279e-01 3.004062e-01 4.137164e-01 4.639380e-01 5.008853e-01 4.749009e-01 4.825105e-01 4.329584e-01 4.721843e-01 3.508104e-01 2.964637e-01 3.044412e-01 4.019025e-01 4.424793e-01 4.330184e-01 3.023276e-01 3.856683e-01 2.390955e-01 4.242805e-01 3.110890e-01 4.546477e-01 4.585311e-01 4.428758e-01 3.384736e-01 5.621623e-01 3.797687e-01 4.487970e-01 4.654404e-01 3.335013e-01 3.979016e-01 3.196316e-01 3.181260e-01 3.282625e-01 4.361498e-01 3.379244e-01 3.080560e-01 3.869542e-01 3.236268e-01 3.212945e-01 4.105134e-01 3.774706e-01 3.586636e-01 3.449729e-01 4.477237e-01 4.423172e-01 3.739262e-01 4.498610e-01 4.597776e-01 4.358274e-01 3.388927e-01 3.252952e-01 4.459518e-01 4.474131e-01 4.527837e-01 4.416731e-01 3.185367e-01 3.338501e-01 4.527604e-01 3.300328e-01 4.287897e-01 4.957523e-01 4.602303e-01 3.696872e-01 5.260507e-01 3.542480e-01 4.216751e-01 4.614511e-01 4.030106e-01
<VARIANCE> 142
 2.000000e-01 2.000000e-01 2.000000e-01 2.000000e-01 2.000000e-01 2.000000e-01 2.000000e-01 2.000000e-01 2.000000e-01 2.000000e-01 2.000000e-01 2.000000e-01 2.000000e-01 2.000000e-01 2.000000e-01 2.000000e-01 2.000000e-01 2.000000e-01 2.000000e-01 2.000000e-01 2.000000e-01 2.000000e-01 2.000000e-01 2.000000e-01 2.000000e-01 2.000000e-01 2.000000e-01 2.000000e-01 2.000000e-01 2.000000e-01 2.000000e-01 2.000000e-01 2.000000e-01 2.000000e-01 2.000000e-01 2.000000e-01 2.000000e-01 2.000000e-01 2.000000e-01 2.000000e-01 2.000000e-01 2.000000e-01 2.000000e-01 2.000000e-01 2.000000e-01 2.000000e-01 2.000000e-01 2.000000e-01 2.000000e-01 2.000000e-01 2.000000e-01 2.000000e-01 2.000000e-01 2.000000e-01 2.000000e-01 2.000000e-01 2.000000e-01 2.000000e-01 2.000000e-01 2.000000e-01 2.000000e-01 2.000000e-01 2.000000e-01 2.000000e-01 2.000000e-01 2.000000e-01 2.000000e-01 2.000000e-01 2.000000e-01 2.000000e-01 2.000000e-01 2.000000e-01 2.000000e-01 2.000000e-01 2.000000e-01 2.000000e-01 2.000000e-01 2.000000e-01 2.000000e-01 2.000000e-01 2.000000e-01 2.000000e-01 2.000000e-01 2.000000e-01 2.000000e-01 2.000000e-01 2.000000e-01 2.000000e-01 2.000000e-01 2.000000e-01 2.000000e-01 2.000000e-01 2.000000e-01 2.000000e-01 2.000000e-01 2.000000e-01 2.000000e-01 2.000000e-01 2.000000e-01 2.000000e-01 2.000000e-01 2.000000e-01 2.000000e-01 2.000000e-01 2.000000e-01 2.000000e-01 2.000000e-01 2.000000e-01 2.000000e-01 2.000000e-01 2.000000e-01 2.000000e-01 2.000000e-01 2.000000e-01 2.000000e-01 2.000000e-01 2.000000e-01 2.000000e-01 2.000000e-01 2.000000e-01 2.000000e-01 2.000000e-01 2.000000e-01 2.000000e-01 2.000000e-01 2.000000e-01 2.000000e-01 2.000000e-01 2.000000e-01 2.000000e-01 2.000000e-01 2.000000e-01 2.000000e-01 2.000000e-01 2.000000e-01 2.000000e-01 2.000000e-01 2.000000e-01 2.000000e-01 2.000000e-01 2.000000e-01 2.000000e-01
<GCONST> 3.243863e+01
<TRANSP> 4
 0.000000e+00 1.000000e+00 0.000000e+00 0.000000e+00
 0.000000e+00 8.770225e-01 1.229775e-01 0.000000e+00
 0.000000e+00 0.000000e+00 8.429755e-01 1.570245e-01
 0.000000e+00 0.000000e+00 0.000000e+00 0.000000e+00
<ENDHMM>
