~o
<STREAMINFO> 1 142
<VECSIZE> 142<NULLD><USER><DIAGC>
~h "husband"
<BEGINHMM>
<NUMSTATES> 4
<STATE> 2
<MEAN> 142
 5.384519e-01 3.764785e-01 3.340759e-01 3.866563e-01 3.408627e-01 2.196148e-01 3.565633e-01 2.633417e-01 3.585872e-01 3.532635e-01 3.683075e-01 4.167415e-01 3.416212e-01 4.141612e-01 3.133618e-01 3.823439e-01 4.093377e-01 3.508408e-01 2.310465e-01 2.932488e-01 4.405552e-01 4.541590e-01 3.137130e-01 4.764416e-01 4.489265e-01 3.473293e-01 3.700567e-01 3.996049e-01 4.084946e-01 3.877387e-01 4.326704e-01 4.278146e-01 4.475438e-01 4.684100e-01 4.109649e-01 3.195012e-01 3.404263e-01 2.295665e-01 3.380596e-01 3.679752e-01 3.397923e-01 4.449873e-01 2.683197e-01 2.346185e-01 2.634047e-01 3.929179e-01 4.732105e-01 3.523135e-01 4.082898e-01 2.955358e-01 4.614869e-01 2.870831e-01 3.374194e-01 2.644699e-01 4.645747e-01 3.869393e-01 3.032106e-01 2.355168e-01 2.904391e-01 3.119947e-01 3.976263e-01 4.756137e-01 3.481464e-01 3.837932e-01 3.636758e-01 4.834477e-01 2.460647e-01 4.060786e-01 4.219114e-01 3.001379e-01 4.349805e-01 3.314317e-01 4.039515e-01 4.074578e-01 2.297901e-01 3.178121e-01 4.895495e-01 4.924277e-01 4.208095e-01 3.972993e-01 4.542208e-01 4.204911e-01 3.524012e-01 4.087356e-01 3.655366e-01 4.120144e-01 3.854121e-01 4.279168e-01 4.434716e-01 3.171442e-01 2.964197e-01 2.645668e-01 4.491244e-01 3.376783e-01 4.733754e-01 4.211645e-01 4.886250e-01 2.472451e-01 4.716538e-01 4.330997e-01 3.868770e-01 4.781280e-01 3.664640e-01 3.184566e-01 2.979064e-01 2.661767e-01 3.098642e-01 3.621011e-01 3.529264e-01 3.549284e-01 3.157229e-01 3.210993e-01 4.376785e-01 3.480961e-01 3.239667e-01 3.702886e-01 2.996107e-01 4.660253e-01 4.400922e-01 4.241936e-01 4.430447e-01 4.583111e-01 4.555361e-01 3.056330e-01 3.651800e-01 3.590782e-01 3.747874e-01 3.051540e-01 2.804991e-01 3.276496e-01 4.075808e-01 3.895271e-01 3.006288e-01 3.628031e-01 3.996814e-01 4.443493e-01 4.410745e-01 4.193616e-01 4.378986e-01 4.373824e-01 4.506021e-01 4.703872e-01
<VARIANCE> 142
 2.000000e-01 2.000000e-01 2.000000e-01 2.000000e-01 2.000000e-01 2.000000e-01 2.000000e-01 2.000000e-01 2.000000e-01 2.000000e-01 2.000000e-01 2.000000e-01 2.000000e-01 2.000000e-01 2.000000e-01 2.000000e-01 2.000000e-01 2.000000e-01 2.000000e-01 2.000000e-01 2.000000e-01 2.000000e-01 2.000000e-01 2.000000e-01 2.000000e-01 2.000000e-01 2.000000e-01 2.000000e-01 2.000000e-01 2.000000e-01 2.000000e-01 2.000000e-01 2.000000e-01 2.000000e-01 2.000000e-01 2.000000e-01 2.000000e-01 2.000000e-01 2.000000e-01 2.000000e-01 2.000000e-01 2.000000e-01 2.000000e-01 2.000000e-01 2.000000e-01 2.000000e-01 2.000000e-01 2.000000e-01 2.000000e-01 2.000000e-01 2.000000e-01 2.000000e-01 2.000000e-01 2.000000e-01 2.000000e-01 2.000000e-01 2.000000e-01 2.000000e-01 2.000000e-01 2.000000e-01 2.000000e-01 2.000000e-01 2.000000e-01 2.000000e-01 2.000000e-01 2.000000e-01 2.000000e-01 2.000000e-01 2.000000e-01 2.000000e-01 2.000000e-01 2.000000e-01 2.000000e-01 2.000000e-01 2.000000e-01 2.000000e-01 2.000000e-01 2.000000e-01 2.000000e-01 2.000000e-01 2.000000e-01 2.000000e-01 2.000000e-01 2.000000e-01 2.000000e-01 2.000000e-01 2.000000e-01 2.000000e-01 2.000000e-01 2.000000e-01 2.000000e-01 2.000000e-01 2.000000e-01 2.000000e-01 2.000000e-01 2.000000e-01 2.000000e-01 2.000000e-01 2.000000e-01 2.000000e-01 2.000000e-01 2.000000e-01 2.000000e-01 2.000000e-01 2.000000e-01 2.000000e-01 2.000000e-01 2.000000e-01 2.000000e-01 2.000000e-01 2.000000e-01 2.000000e-01 2.000000e-01 2.000000e-01 2.000000e-01 2.000000e-01 2.000000e-01 2.000000e-01 2.000000e-01 2.000000e-01 2.000000e-01 2.000000e-01 2.000000e-01 2.000000e-01 2.000000e-01 2.000000e-01 2.000000e-01 2.000000e-01 2.000000e-01 2.000000e-01 2.000000e-01 2.000000e-01 2.000000e-01 2.000000e-01 2.000000e-01 2.000000e-01 2.000000e-01 2.000000e-01 2.000000e-01 2.000000e-01 2.000000e-01 2.000000e-01
<GCONST> 3.243863e+01
<STATE> 3
<MEAN> 142
 6.370860e-01 2.764434e-01 3.848171e-01 3.401530e-01 3.247479e-01 4.886189e-01 4.689435e-01 4.306632e-01 3.576281e-01 4.161804e-01 4.209169e-01 3.851686e-01 4.252266e-01 4.758024e-01 3.200703e-01 4.227164e-01 3.881667e-01 3.886505e-01 3.814978e-01 4.985806e-01 5.444128e-01 4.604329e-01 4.098971e-01 4.190972e-01 4.580068e-01 4.364562e-01 3.917952e-01 3.501604e-01 3.968189e-01 3.405794e-01 4.694910e-01 4.439285e-01 4.390571e-01 5.070246e-01 4.267903e-01 3.651914e-01 3.339005e-01 4.205912e-01 3.719334e-01 4.504839e-01 4.245382e-01 4.288382e-01 3.028542e-01 4.713050e-01 2.777218e-01 3.791900e-01 4.291688e-01 5.137216e-01 4.719303e-01 3.240094e-01 4.889850e-01 5.081527e-01 4.026585e-01 2.626511e-01 4.549726e-01 3.379448e-01 4.340244e-01 4.327720e-01 3.747570e-01 3.626132e-01 5.226300e-01 4.490683e-01 3.841562e-01 4.091788e-01 4.128665e-01 4.428900e-01 4.813921e-01 4.827750e-01 4.624088e-01 4.188449e-01 5.570703e-01 4.579590e-01 4.261510e-01 4.228346e-01 4.276569e-01 4.112513e-01 5.034429e-01 3.880770e-01 4.867611e-01 4.625378e-01 4.301655e-01 3.381633e-01 4.676590e-01 4.364149e-01 4.146509e-01 4.250655e-01 3.921520e-01 4.313869e-01 5.085473e-01 3.969334e-01 2.878061e-01 3.858937e-01 4.195532e-01 3.160764e-01 3.821701e-01 4.429596e-01 4.550847e-01 3.671243e-01 5.061558e-01 4.941022e-01 4.040274e-01 4.563063e-01 3.377066e-01 3.790809e-01 3.831623e-01 3.079582e-01 4.031647e-01 4.186282e-01 4.524066e-01 4.836408e-01 3.559342e-01 2.845124e-01 3.938618e-01 3.286599e-01 3.421264e-01 4.150999e-01 3.213616e-01 4.173710e-01 3.926606e-01 4.208613e-01 4.233306e-01 4.634322e-01 4.194444e-01 3.531788e-01 5.395827e-01 3.568107e-01 3.583286e-01 3.830233e-01 3.009801e-01 5.121014e-01 4.877929e-01 3.403385e-01 4.142559e-01 4.411463e-01 3.867811e-01 4.584968e-01 4.923560e-01 4.368130e-01 5.206244e-01 3.639302e-01 4.001456e-01 4.847246e-01
<VARIANCE> 142
 2.000000e-01 2.000000e-01 2.000000e-01 2.000000e-01 2.000000e-01 2.000000e-01 2.000000e-01 2.000000e-01 2.000000e-01 2.000000e-01 2.000000e-01 2.000000e-01 2.000000e-01 2.000000e-01 2.000000e-01 2.000000e-01 2.000000e-01 2.000000e-01 2.000000e-01 2.000000e-01 2.000000e-01 2.000000e-01 2.000000e-01 2.000000e-01 2.000000e-01 2.000000e-01 2.000000e-01 2.000000e-01 2.000000e-01 2.000000e-01 2.000000e-01 2.000000e-01 2.000000e-01 2.000000e-01 2.000000e-01 2.000000e-01 2.000000e-01 2.000000e-01 2.000000e-01 2.000000e-01 2.000000e-01 2.000000e-01 2.000000e-01 2.000000e-01 2.000000e-01 2.000000e-01 2.000000e-01 2.000000e-01 2.000000e-01 2.000000e-01 2.000000e-01 2.000000e-01 2.000000e-01 2.000000e-01 2.000000e-01 2.000000e-01 2.000000e-01 2.000000e-01 2.000000e-01 2.000000e-01 2.000000e-01 2.000000e-01 2.000000e-01 2.000000e-01 2.000000e-01 2.000000e-01 2.000000e-01 2.000000e-01 2.000000e-01 2.000000e-01 2.000000e-01 2.000000e-01 2.000000e-01 2.000000e-01 2.000000e-01 2.000000e-01 2.000000e-01 2.000000e-01 2.000000e-01 2.000000e-01 2.000000e-01 2.000000e-01 2.000000e-01 2.000000e-01 2.000000e-01 2.000000e-01 2.000000e-01 2.000000e-01 2.000000e-01 2.000000e-01 2.000000e-01 2.000000e-01 2.000000e-01 2.000000e-01 2.000000e-01 2.000000e-01 2.000000e-01 2.000000e-01 2.000000e-01 2.000000e-01 2.000000e-01 2.000000e-01 2.000000e-01 2.000000e-01 2.000000e-01 2.000000e-01 2.000000e-01 2.000000e-01 2.000000e-01 2.000000e-01 2.000000e-01 2.000000e-01 2.000000e-01 2.000000e-01 2.000000e-01 2.000000e-01 2.000000e-01 2.000000e-01 2.000000e-01 2.000000e-01 2.000000e-01 2.000000e-01 2.000000e-01 2.000000e-01 2.000000e-01 2.000000e-01 2.000000e-01 2.000000e-01 2.000000e-01 2.000000e-01 2.000000e-01 2.000000e-01 2.000000e-01 2.000000e-01 2.000000e-01 2.000000e-01 2.000000e-01 2.000000e-01 2.000000e-01 2.000000e-01 2.000000e-01 2.000000e-01
<GCONST> 3.243863e+01
<TRANSP> 4
 0.000000e+00 1.000000e+00 0.000000e+00 0.000000e+00
 0.000000e+00 8.800151e-01 1.199849e-01 0.000000e+00
 0.000000e+00 0.000000e+00 8.584695e-01 1.415305e-01
 0.000000e+00 0.000000e+00 0.000000e+00 0.000000e+00
<ENDHMM>
