~o
<STREAMINFO> 1 142
<VECSIZE> 142<NULLD><USER><DIAGC>
~h "know"
<BEGINHMM>
<NUMSTATES> 4
<STATE> 2
<MEAN> 142
 6.139308e-01 3.378002e-01 3.869388e-01 3.761210e-01 3.172651e-01 2.942342e-01 3.973258e-01 3.482504e-01 3.446867e-01 3.897018e-01 4.462495e-01 4.094010e-01 3.544765e-01 4.299960e-01 3.157940e-01 3.443750e-01 4.417659e-01 3.985767e-01 3.341795e-01 3.694228e-01 4.781744e-01 5.032598e-01 3.737843e-01 4.719788e-01 4.462253e-01 3.837418e-01 4.236870e-01 3.907897e-01 4.107748e-01 3.631499e-01 4.735734e-01 4.976990e-01 4.775862e-01 4.808730e-01 4.204234e-01 3.783618e-01 3.661262e-01 3.050424e-01 3.342434e-01 4.207516e-01 3.349964e-01 4.354549e-01 3.382739e-01 2.987519e-01 2.665519e-01 4.268975e-01 4.991252e-01 4.073547e-01 4.117483e-01 3.136830e-01 4.821354e-01 3.577565e-01 4.249547e-01 2.710200e-01 5.103518e-01 4.115129e-01 3.942320e-01 3.265792e-01 3.478293e-01 3.779438e-01 4.280380e-01 4.777000e-01 3.518712e-01 3.765739e-01 3.590450e-01 5.091332e-01 3.340938e-01 4.501989e-01 4.576665e-01 3.398705e-01 4.609230e-01 4.223768e-01 4.537022e-01 4.088860e-01 3.596355e-01 3.824086e-01 5.092673e-01 4.863872e-01 4.550272e-01 4.080021e-01 4.370600e-01 3.563419e-01 3.746083e-01 4.516222e-01 3.662793e-01 4.878443e-01 3.839573e-01 4.109358e-01 4.503566e-01 3.510052e-01 3.245453e-01 3.481826e-01 4.476539e-01 3.480226e-01 4.613294e-01 4.557712e-01 4.582855e-01 3.021172e-01 4.642765e-01 4.367380e-01 4.067159e-01 5.287127e-01 3.505357e-01 3.226672e-01 3.294002e-01 3.358200e-01 3.382378e-01 3.666634e-01 3.553141e-01 3.902556e-01 3.685223e-01 3.716648e-01 3.741642e-01 3.639320e-01 3.541565e-01 4.242976e-01 3.538842e-01 4.445116e-01 3.977785e-01 4.286709e-01 4.022994e-01 5.392295e-01 4.478556e-01 4.280417e-01 4.153354e-01 4.130251e-01 4.043673e-01 3.028296e-01 3.075144e-01 3.977225e-01 4.230512e-01 4.279930e-01 3.449839e-01 3.991440e-01 3.843868e-01 4.341373e-01 4.712810e-01 4.035271e-01 3.715430e-01 4.089013e-01 4.958238e-01 5.074400e-01
<VARIANCE> 142
 2.000000e-01 2.000000e-01 2.000000e-01 2.000000e-01 2.000000e-01 2.000000e-01 2.000000e-01 2.000000e-01 2.000000e-01 2.000000e-01 2.000000e-01 2.000000e-01 2.000000e-01 2.000000e-01 2.000000e-01 2.000000e-01 2.000000e-01 2.000000e-01 2.000000e-01 2.000000e-01 2.000000e-01 2.000000e-01 2.000000e-01 2.000000e-01 2.000000e-01 2.000000e-01 2.000000e-01 2.000000e-01 2.000000e-01 2.000000e-01 2.000000e-01 2.000000e-01 2.000000e-01 2.000000e-01 2.000000e-01 2.000000e-01 2.000000e-01 2.000000e-01 2.000000e-01 2.000000e-01 2.000000e-01 2.000000e-01 2.000000e-01 2.000000e-01 2.000000e-01 2.000000e-01 2.000000e-01 2.000000e-01 2.000000e-01 2.000000e-01 2.000000e-01 2.000000e-01 2.000000e-01 2.000000e-01 2.000000e-01 2.000000e-01 2.000000e-01 2.000000e-01 2.000000e-01 2.000000e-01 2.000000e-01 2.000000e-01 2.000000e-01 2.000000e-01 2.000000e-01 2.000000e-01 2.000000e-01 2.000000e-01 2.000000e-01 2.000000e-01 2.000000e-01 2.000000e-01 2.000000e-01 2.000000e-01 2.000000e-01 2.000000e-01 2.000000e-01 2.000000e-01 2.000000e-01 2.000000e-01 2.000000e-01 2.000000e-01 2.000000e-01 2.000000e-01 2.000000e-01 2.000000e-01 2.000000e-01 2.000000e-01 2.000000e-01 2.000000e-01 2.000000e-01 2.000000e-01 2.000000e-01 2.000000e-01 2.000000e-01 2.000000e-01 2.000000e-01 2.000000e-01 2.000000e-01 2.000000e-01 2.000000e-01 2.000000e-01 2.000000e-01 2.000000e-01 2.000000e-01 2.000000e-01 2.000000e-01 2.000000e-01 2.000000e-01 2.000000e-01 2.000000e-01 2.000000e-01 2.000000e-01 2.000000e-01 2.000000e-01 2.000000e-01 2.000000e-01 2.000000e-01 2.000000e-01 2.000000e-01 2.000000e-01 2.000000e-01 2.000000e-01 2.000000e-01 2.000000e-01 2.000000e-01 2.000000e-01 2.000000e-01 2.000000e-01 2.000000e-01 2.000000e-01 2.000000e-01 2.000000e-01 2.000000e-01 2.000000e-01 2.000000e-01 2.000000e-01 2.000000e-01 2.000000e-01 2.000000e-01 2.000000e-01 2.000000e-01
<GCONST> 3.243863e+01
<STATE> 3
<MEAN> 142
 5.746086e-01 5.022264e-01 3.498731e-01 3.235634e-01 3.096181e-01 3.134294e-01 2.989701e-01 2.928745e-01 3.896559e-01 4.397984e-01 5.527702e-01 5.359077e-01 3.820077e-01 4.986851e-01 3.211797e-01 2.735983e-01 4.509451e-01 5.600150e-01 3.739640e-01 3.944711e-01 3.152584e-01 2.773532e-01 3.859784e-01 4.039779e-01 4.493610e-01 4.597143e-01 4.571782e-01 5.231186e-01 4.223663e-01 5.484394e-01 4.794950e-01 3.843375e-01 3.198266e-01 3.856291e-01 4.364057e-01 3.176830e-01 3.251947e-01 4.244893e-01 4.329056e-01 3.469042e-01 4.703780e-01 5.082647e-01 5.062401e-01 2.633612e-01 3.300127e-01 4.754955e-01 3.537451e-01 3.072539e-01 2.733583e-01 4.202295e-01 4.862581e-01 4.415266e-01 4.871407e-01 4.089408e-01 4.526776e-01 5.121155e-01 4.274772e-01 3.132007e-01 4.072122e-01 3.046451e-01 3.789074e-01 4.339358e-01 4.775406e-01 4.874638e-01 5.888644e-01 4.333064e-01 4.884408e-01 3.381674e-01 3.988767e-01 4.996649e-01 4.569976e-01 4.439841e-01 3.712901e-01 3.746129e-01 3.513386e-01 4.125035e-01 3.694182e-01 3.113669e-01 3.980744e-01 3.470546e-01 5.556192e-01 3.479217e-01 4.274999e-01 3.407945e-01 4.400727e-01 3.655454e-01 4.332059e-01 4.575787e-01 4.485044e-01 3.779808e-01 5.129247e-01 3.078719e-01 5.292304e-01 4.986846e-01 4.391528e-01 5.532066e-01 4.907463e-01 4.842715e-01 3.804609e-01 4.641749e-01 4.430689e-01 3.468625e-01 3.602352e-01 5.286671e-01 2.683899e-01 2.908908e-01 4.434690e-01 4.997736e-01 3.675254e-01 2.666259e-01 4.556201e-01 5.062888e-01 2.922366e-01 3.491673e-01 4.193342e-01 5.787581e-01 5.324892e-01 2.808068e-01 5.740576e-01 3.683627e-01 4.444023e-01 4.718417e-01 4.546035e-01 5.725941e-01 3.137014e-01 4.370831e-01 5.610701e-01 5.581945e-01 6.091467e-01 3.445609e-01 3.191139e-01 4.587865e-01 4.923424e-01 5.155608e-01 4.171039e-01 4.108375e-01 4.235070e-01 3.926904e-01 3.068772e-01 3.337899e-01 4.096837e-01 3.701370e-01
<VARIANCE> 142
 2.000000e-01 2.000000e-01 2.000000e-01 2.000000e-01 2.000000e-01 2.000000e-01 2.000000e-01 2.000000e-01 2.000000e-01 2.000000e-01 2.000000e-01 2.000000e-01 2.000000e-01 2.000000e-01 2.000000e-01 2.000000e-01 2.000000e-01 2.000000e-01 2.000000e-01 2.000000e-01 2.000000e-01 2.000000e-01 2.000000e-01 2.000000e-01 2.000000e-01 2.000000e-01 2.000000e-01 2.000000e-01 2.000000e-01 2.000000e-01 2.000000e-01 2.000000e-01 2.000000e-01 2.000000e-01 2.000000e-01 2.000000e-01 2.000000e-01 2.000000e-01 2.000000e-01 2.000000e-01 2.000000e-01 2.000000e-01 2.000000e-01 2.000000e-01 2.000000e-01 2.000000e-01 2.000000e-01 2.000000e-01 2.000000e-01 2.000000e-01 2.000000e-01 2.000000e-01 2.000000e-01 2.000000e-01 2.000000e-01 2.000000e-01 2.000000e-01 2.000000e-01 2.000000e-01 2.000000e-01 2.000000e-01 2.000000e-01 2.000000e-01 2.000000e-01 2.000000e-01 2.000000e-01 2.000000e-01 2.000000e-01 2.000000e-01 2.000000e-01 2.000000e-01 2.000000e-01 2.000000e-01 2.000000e-01 2.000000e-01 2.000000e-01 2.000000e-01 2.000000e-01 2.000000e-01 2.000000e-01 2.000000e-01 2.000000e-01 2.000000e-01 2.000000e-01 2.000000e-01 2.000000e-01 2.000000e-01 2.000000e-01 2.000000e-01 2.000000e-01 2.000000e-01 2.000000e-01 2.000000e-01 2.000000e-01 2.000000e-01 2.000000e-01 2.000000e-01 2.000000e-01 2.000000e-01 2.000000e-01 2.000000e-01 2.000000e-01 2.000000e-01 2.000000e-01 2.000000e-01 2.000000e-01 2.000000e-01 2.000000e-01 2.000000e-01 2.000000e-01 2.000000e-01 2.000000e-01 2.000000e-01 2.000000e-01 2.000000e-01 2.000000e-01 2.000000e-01 2.000000e-01 2.000000e-01 2.000000e-01 2.000000e-01 2.000000e-01 2.000000e-01 2.000000e-01 2.000000e-01 2.000000e-01 2.000000e-01 2.000000e-01 2.000000e-01 2.000000e-01 2.000000e-01 2.000000e-01 2.000000e-01 2.000000e-01 2.000000e-01 2.000000e-01 2.000000e-01 2.000000e-01 2.000000e-01 2.000000e-01 2.000000e-01 2.000000e-01
<GCONST> 3.243863e+01
<TRANSP> 4
 0.000000e+00 1.000000e+00 0.000000e+00 0.000000e+00
 0.000000e+00 8.922365e-01 1.077636e-01 0.000000e+00
 0.000000e+00 0.000000e+00 7.881547e-01 2.118453e-01
 0.000000e+00 0.000000e+00 0.000000e+00 0.000000e+00
<ENDHMM>
