~o
<STREAMINFO> 1 142
<VECSIZE> 142<NULLD><USER><DIAGC>
~h "learn"
<BEGINHMM>
<NUMSTATES> 4
<STATE> 2
<MEAN> 142
 5.556406e-01 4.145004e-01 3.514034e-01 3.350078e-01 3.099166e-01 2.390672e-01 2.955890e-01 3.054468e-01 3.358069e-01 4.136742e-01 4.551154e-01 3.865685e-01 3.826997e-01 4.735202e-01 3.883933e-01 3.310576e-01 4.419962e-01 5.507820e-01 2.703404e-01 3.222857e-01 4.338839e-01 4.414681e-01 3.088426e-01 4.919636e-01 4.699106e-01 3.625692e-01 4.399661e-01 4.753845e-01 4.933302e-01 3.927395e-01 4.351798e-01 4.455469e-01 3.285429e-01 4.614394e-01 4.497804e-01 4.323377e-01 4.149930e-01 3.825788e-01 4.361331e-01 2.986932e-01 4.292539e-01 5.419542e-01 3.601903e-01 2.607051e-01 2.044745e-01 4.382743e-01 4.511403e-01 3.911960e-01 4.327917e-01 3.438069e-01 4.667453e-01 3.840274e-01 4.069114e-01 3.120443e-01 4.757580e-01 4.390699e-01 3.816382e-01 2.624047e-01 3.262794e-01 3.059664e-01 3.683473e-01 4.650660e-01 3.822216e-01 3.894744e-01 4.476526e-01 4.782427e-01 4.169757e-01 3.360208e-01 3.892473e-01 4.019430e-01 4.304017e-01 3.349617e-01 4.170902e-01 3.510810e-01 2.911221e-01 3.860564e-01 4.047865e-01 4.553799e-01 4.213865e-01 4.006825e-01 5.117534e-01 4.188241e-01 4.670330e-01 4.306331e-01 3.318264e-01 3.849838e-01 3.556027e-01 3.847458e-01 5.009336e-01 2.900028e-01 3.540551e-01 2.852116e-01 4.845724e-01 3.541004e-01 4.978423e-01 4.545912e-01 5.102049e-01 4.548000e-01 4.499955e-01 3.630959e-01 4.004522e-01 4.828827e-01 3.207621e-01 4.212461e-01 3.639548e-01 2.885153e-01 3.675008e-01 4.064865e-01 3.488327e-01 3.430880e-01 3.555438e-01 3.673341e-01 3.482352e-01 3.856164e-01 4.427913e-01 4.130671e-01 4.094164e-01 4.265426e-01 4.385064e-01 3.724326e-01 4.642331e-01 5.401288e-01 4.914181e-01 4.077019e-01 3.258778e-01 4.392725e-01 4.415333e-01 5.058926e-01 4.499608e-01 3.300576e-01 3.921234e-01 5.240685e-01 4.179912e-01 4.624957e-01 5.124899e-01 4.761936e-01 4.605286e-01 5.350921e-01 3.595074e-01 4.361527e-01 4.688296e-01 3.981174e-01
<VARIANCE> 142
 2.000000e-01 2.000000e-01 2.000000e-01 2.000000e-01 2.000000e-01 2.000000e-01 2.000000e-01 2.000000e-01 2.000000e-01 2.000000e-01 2.000000e-01 2.000000e-01 2.000000e-01 2.000000e-01 2.000000e-01 2.000000e-01 2.000000e-01 2.000000e-01 2.000000e-01 2.000000e-01 2.000000e-01 2.000000e-01 2.000000e-01 2.000000e-01 2.000000e-01 2.000000e-01 2.000000e-01 2.000000e-01 2.000000e-01 2.000000e-01 2.000000e-01 2.000000e-01 2.000000e-01 2.000000e-01 2.000000e-01 2.000000e-01 2.000000e-01 2.000000e-01 2.000000e-01 2.000000e-01 2.000000e-01 2.000000e-01 2.000000e-01 2.000000e-01 2.000000e-01 2.000000e-01 2.000000e-01 2.000000e-01 2.000000e-01 2.000000e-01 2.000000e-01 2.000000e-01 2.000000e-01 2.000000e-01 2.000000e-01 2.000000e-01 2.000000e-01 2.000000e-01 2.000000e-01 2.000000e-01 2.000000e-01 2.000000e-01 2.000000e-01 2.000000e-01 2.000000e-01 2.000000e-01 2.000000e-01 2.000000e-01 2.000000e-01 2.000000e-01 2.000000e-01 2.000000e-01 2.000000e-01 2.000000e-01 2.000000e-01 2.000000e-01 2.000000e-01 2.000000e-01 2.000000e-01 2.000000e-01 2.000000e-01 2.000000e-01 2.000000e-01 2.000000e-01 2.000000e-01 2.000000e-01 2.000000e-01 2.000000e-01 2.000000e-01 2.000000e-01 2.000000e-01 2.000000e-01 2.000000e-01 2.000000e-01 2.000000e-01 2.000000e-01 2.000000e-01 2.000000e-01 2.000000e-01 2.000000e-01 2.000000e-01 2.000000e-01 2.000000e-01 2.000000e-01 2.000000e-01 2.000000e-01 2.000000e-01 2.000000e-01 2.000000e-01 2.000000e-01 2.000000e-01 2.000000e-01 2.000000e-01 2.000000e-01 2.000000e-01 2.000000e-01 2.000000e-01 2.000000e-01 2.000000e-01 2.000000e-01 2.000000e-01 2.000000e-01 2.000000e-01 2.000000e-01 2.000000e-01 2.000000e-01 2.000000e-01 2.000000e-01 2.000000e-01 2.000000e-01 2.000000e-01 2.000000e-01 2.000000e-01 2.000000e-01 2.000000e-01 2.000000e-01 2.000000e-01 2.000000e-01 2.000000e-01 2.000000e-01 2.000000e-01 2.000000e-01
<GCONST> 3.243863e+01
<STATE> 3
<MEAN> 142
 5.879925e-01 3.370030e-01 3.987589e-01 3.975987e-01 3.612539e-01 3.650458e-01 4.216457e-01 3.619634e-01 4.006985e-01 4.242058e-01 5.335497e-01 3.866543e-01 3.425265e-01 4.989995e-01 3.428268e-01 3.807034e-01 3.908738e-01 4.045811e-01 3.817368e-01 3.472067e-01 5.538778e-01 5.347588e-01 4.412140e-01 4.689459e-01 4.966618e-01 4.122996e-01 4.775425e-01 3.432057e-01 4.273045e-01 3.584070e-01 5.263606e-01 4.121583e-01 4.435544e-01 5.091447e-01 4.329100e-01 3.405487e-01 4.119576e-01 2.917683e-01 3.510806e-01 4.018013e-01 3.266428e-01 4.424428e-01 3.464271e-01 3.164826e-01 2.818817e-01 3.715662e-01 4.901826e-01 4.323845e-01 4.725513e-01 3.738929e-01 4.528935e-01 3.597607e-01 4.181693e-01 2.712459e-01 4.184638e-01 4.266922e-01 5.074536e-01 4.241123e-01 4.013771e-01 4.683079e-01 4.730563e-01 4.661670e-01 3.500761e-01 3.872534e-01 3.450993e-01 4.666872e-01 3.512042e-01 5.093440e-01 4.636428e-01 3.484306e-01 4.428970e-01 4.190828e-01 4.255493e-01 4.557789e-01 3.371835e-01 3.416595e-01 4.664003e-01 4.164926e-01 4.775157e-01 4.911253e-01 4.280300e-01 3.412438e-01 3.683413e-01 4.577725e-01 3.844113e-01 4.054325e-01 4.202732e-01 4.089276e-01 4.890578e-01 3.555150e-01 2.816222e-01 3.574217e-01 3.940848e-01 3.453909e-01 4.357844e-01 4.484847e-01 4.383386e-01 2.971610e-01 4.468989e-01 4.704108e-01 4.107530e-01 5.373488e-01 3.746924e-01 3.307654e-01 3.678219e-01 3.367561e-01 3.534326e-01 3.579637e-01 4.576593e-01 4.754961e-01 3.706004e-01 3.513190e-01 3.853610e-01 3.626248e-01 3.784031e-01 4.195393e-01 3.749876e-01 4.716834e-01 4.097342e-01 4.408496e-01 3.812742e-01 4.815321e-01 4.396805e-01 3.384657e-01 5.052506e-01 3.869529e-01 3.489676e-01 3.184022e-01 3.123048e-01 5.090290e-01 4.305083e-01 3.409427e-01 3.307065e-01 4.216641e-01 3.702320e-01 4.405989e-01 4.907025e-01 4.412317e-01 4.262944e-01 4.110006e-01 4.309797e-01 5.162310e-01
<VARIANCE> 142
 2.000000e-01 2.000000e-01 2.000000e-01 2.000000e-01 2.000000e-01 2.000000e-01 2.000000e-01 2.000000e-01 2.000000e-01 2.000000e-01 2.000000e-01 2.000000e-01 2.000000e-01 2.000000e-01 2.000000e-01 2.000000e-01 2.000000e-01 2.000000e-01 2.000000e-01 2.000000e-01 2.000000e-01 2.000000e-01 2.000000e-01 2.000000e-01 2.000000e-01 2.000000e-01 2.000000e-01 2.000000e-01 2.000000e-01 2.000000e-01 2.000000e-01 2.000000e-01 2.000000e-01 2.000000e-01 2.000000e-01 2.000000e-01 2.000000e-01 2.000000e-01 2.000000e-01 2.000000e-01 2.000000e-01 2.000000e-01 2.000000e-01 2.000000e-01 2.000000e-01 2.000000e-01 2.000000e-01 2.000000e-01 2.000000e-01 2.000000e-01 2.000000e-01 2.000000e-01 2.000000e-01 2.000000e-01 2.000000e-01 2.000000e-01 2.000000e-01 2.000000e-01 2.000000e-01 2.000000e-01 2.000000e-01 2.000000e-01 2.000000e-01 2.000000e-01 2.000000e-01 2.000000e-01 2.000000e-01 2.000000e-01 2.000000e-01 2.000000e-01 2.000000e-01 2.000000e-01 2.000000e-01 2.000000e-01 2.000000e-01 2.000000e-01 2.000000e-01 2.000000e-01 2.000000e-01 2.000000e-01 2.000000e-01 2.000000e-01 2.000000e-01 2.000000e-01 2.000000e-01 2.000000e-01 2.000000e-01 2.000000e-01 2.000000e-01 2.000000e-01 2.000000e-01 2.000000e-01 2.000000e-01 2.000000e-01 2.000000e-01 2.000000e-01 2.000000e-01 2.000000e-01 2.000000e-01 2.000000e-01 2.000000e-01 2.000000e-01 2.000000e-01 2.000000e-01 2.000000e-01 2.000000e-01 2.000000e-01 2.000000e-01 2.000000e-01 2.000000e-01 2.000000e-01 2.000000e-01 2.000000e-01 2.000000e-01 2.000000e-01 2.000000e-01 2.000000e-01 2.000000e-01 2.000000e-01 2.000000e-01 2.000000e-01 2.000000e-01 2.000000e-01 2.000000e-01 2.000000e-01 2.000000e-01 2.000000e-01 2.000000e-01 2.000000e-01 2.000000e-01 2.000000e-01 2.000000e-01 2.000000e-01 2.000000e-01 2.000000e-01 2.000000e-01 2.000000e-01 2.000000e-01 2.000000e-01 2.000000e-01 2.000000e-01 2.000000e-01
<GCONST> 3.243863e+01
<TRANSP> 4
 0.000000e+00 1.000000e+00 0.000000e+00 0.000000e+00
 0.000000e+00 8.757512e-01 1.242488e-01 0.000000e+00
 0.000000e+00 0.000000e+00 8.493779e-01 1.506221e-01
 0.000000e+00 0.000000e+00 0.000000e+00 0.000000e+00
<ENDHMM>
