~o
<STREAMINFO> 1 142
<VECSIZE> 142<NULLD><USER><DIAGC>
~h "lotion"
<BEGINHMM>
<NUMSTATES> 4
<STATE> 2
<MEAN> 142
 7.566647e-01 3.648762e-01 3.881144e-01 3.275813e-01 2.308238e-01 4.093224e-01 4.598723e-01 3.593147e-01 3.266463e-01 4.288271e-01 4.329708e-01 4.535031e-01 4.009842e-01 4.499774e-01 2.589466e-01 3.307312e-01 4.142777e-01 3.947172e-01 3.266908e-01 4.029948e-01 4.897020e-01 4.663262e-01 4.692426e-01 4.545387e-01 4.120420e-01 3.723274e-01 4.420240e-01 4.064851e-01 3.224951e-01 3.520694e-01 4.533439e-01 4.413280e-01 5.449594e-01 4.140529e-01 4.256177e-01 3.576658e-01 3.083552e-01 2.396134e-01 2.870965e-01 3.161266e-01 2.544497e-01 3.996220e-01 3.350331e-01 3.622628e-01 2.613963e-01 5.052859e-01 4.300907e-01 3.555196e-01 4.248625e-01 3.680337e-01 5.080301e-01 3.047165e-01 4.340397e-01 2.360118e-01 4.931744e-01 2.977417e-01 3.707872e-01 3.667168e-01 3.361751e-01 3.176422e-01 5.390893e-01 4.537856e-01 3.391627e-01 3.881959e-01 3.524323e-01 5.246525e-01 2.546379e-01 3.717980e-01 4.714164e-01 3.362972e-01 4.816222e-01 5.781937e-01 4.896686e-01 4.399544e-01 4.342014e-01 3.631751e-01 4.794631e-01 4.071805e-01 3.938046e-01 4.182124e-01 3.614053e-01 3.429774e-01 3.230101e-01 4.782867e-01 3.268354e-01 5.681300e-01 4.042308e-01 4.545286e-01 4.509757e-01 4.062208e-01 3.542983e-01 4.492975e-01 3.991055e-01 3.260824e-01 3.875189e-01 4.460496e-01 3.971408e-01 2.823676e-01 3.641589e-01 4.090608e-01 2.918331e-01 5.440772e-01 3.606383e-01 3.513594e-01 3.033453e-01 2.847037e-01 3.503897e-01 2.936159e-01 3.734430e-01 3.733996e-01 4.158701e-01 3.577876e-01 3.338816e-01 3.051565e-01 4.130068e-01 4.673854e-01 4.373300e-01 3.799372e-01 4.198938e-01 3.774292e-01 3.750553e-01 5.581679e-01 4.055844e-01 4.866645e-01 4.086597e-01 4.613916e-01 4.513519e-01 2.901391e-01 3.329738e-01 4.464062e-01 3.684333e-01 3.811837e-01 4.303943e-01 3.227980e-01 3.282147e-01 3.535364e-01 5.046345e-01 3.557321e-01 2.979308e-01 3.628788e-01 4.791124e-01 4.829111e-01
<VARIANCE> 142
 2.000000e-01 2.000000e-01 2.000000e-01 2.000000e-01 2.000000e-01 2.000000e-01 2.000000e-01 2.000000e-01 2.000000e-01 2.000000e-01 2.000000e-01 2.000000e-01 2.000000e-01 2.000000e-01 2.000000e-01 2.000000e-01 2.000000e-01 2.000000e-01 2.000000e-01 2.000000e-01 2.000000e-01 2.000000e-01 2.000000e-01 2.000000e-01 2.000000e-01 2.000000e-01 2.000000e-01 2.000000e-01 2.000000e-01 2.000000e-01 2.000000e-01 2.000000e-01 2.000000e-01 2.000000e-01 2.000000e-01 2.000000e-01 2.000000e-01 2.000000e-01 2.000000e-01 2.000000e-01 2.000000e-01 2.000000e-01 2.000000e-01 2.000000e-01 2.000000e-01 2.000000e-01 2.000000e-01 2.000000e-01 2.000000e-01 2.000000e-01 2.000000e-01 2.000000e-01 2.000000e-01 2.000000e-01 2.000000e-01 2.000000e-01 2.000000e-01 2.000000e-01 2.000000e-01 2.000000e-01 2.000000e-01 2.000000e-01 2.000000e-01 2.000000e-01 2.000000e-01 2.000000e-01 2.000000e-01 2.000000e-01 2.000000e-01 2.000000e-01 2.000000e-01 2.000000e-01 2.000000e-01 2.000000e-01 2.000000e-01 2.000000e-01 2.000000e-01 2.000000e-01 2.000000e-01 2.000000e-01 2.000000e-01 2.000000e-01 2.000000e-01 2.000000e-01 2.000000e-01 2.000000e-01 2.000000e-01 2.000000e-01 2.000000e-01 2.000000e-01 2.000000e-01 2.000000e-01 2.000000e-01 2.000000e-01 2.000000e-01 2.000000e-01 2.000000e-01 2.000000e-01 2.000000e-01 2.000000e-01 2.000000e-01 2.000000e-01 2.000000e-01 2.000000e-01 2.000000e-01 2.000000e-01 2.000000e-01 2.000000e-01 2.000000e-01 2.000000e-01 2.000000e-01 2.000000e-01 2.000000e-01 2.000000e-01 2.000000e-01 2.000000e-01 2.000000e-01 2.000000e-01 2.000000e-01 2.000000e-01 2.000000e-01 2.000000e-01 2.000000e-01 2.000000e-01 2.000000e-01 2.000000e-01 2.000000e-01 2.000000e-01 2.000000e-01 2.000000e-01 2.000000e-01 2.000000e-01 2.000000e-01 2.000000e-01 2.000000e-01 2.000000e-01 2.000000e-01 2.000000e-01 2.000000e-01 2.000000e-01 2.000000e-01 2.000000e-01
<GCONST> 3.243863e+01
<STATE> 3
<MEAN> 142
 5.458401e-01 4.835104e-01 3.541710e-01 4.365461e-01 3.405058e-01 2.898165e-01 2.918289e-01 2.028148e-01 3.533343e-01 4.158646e-01 5.074199e-01 4.372214e-01 3.798952e-01 4.891383e-01 2.741196e-01 2.912459e-01 4.666426e-01 4.571860e-01 3.378965e-01 2.854935e-01 3.352655e-01 3.356771e-01 3.432707e-01 4.834492e-01 4.433890e-01 3.619452e-01 5.066977e-01 5.620290e-01 4.471079e-01 4.577764e-01 4.219069e-01 4.203556e-01 3.469045e-01 3.923805e-01 4.275915e-01 4.014171e-01 3.236641e-01 2.933779e-01 4.652128e-01 2.542545e-01 4.788205e-01 5.228857e-01 4.842446e-01 2.580359e-01 2.733784e-01 5.253303e-01 3.969923e-01 2.849506e-01 2.940871e-01 3.769120e-01 5.074105e-01 3.237284e-01 4.319887e-01 3.068404e-01 4.998548e-01 4.569744e-01 3.443729e-01 2.977406e-01 3.743106e-01 2.593371e-01 2.632545e-01 5.170029e-01 4.049357e-01 5.080393e-01 4.804621e-01 5.795709e-01 3.093818e-01 3.382325e-01 3.998044e-01 4.487263e-01 4.195898e-01 3.992198e-01 4.786513e-01 3.051988e-01 2.863349e-01 3.551598e-01 3.905702e-01 4.423571e-01 4.155400e-01 3.791832e-01 4.874083e-01 4.288109e-01 3.320905e-01 4.376390e-01 3.500516e-01 3.463981e-01 3.602382e-01 3.956296e-01 4.391631e-01 3.849323e-01 4.613385e-01 3.032981e-01 4.365667e-01 4.780919e-01 4.592261e-01 4.450729e-01 4.238832e-01 4.274105e-01 4.539553e-01 3.678275e-01 3.923245e-01 4.695635e-01 3.097538e-01 5.073700e-01 2.950625e-01 3.537897e-01 5.093333e-01 4.181235e-01 2.902656e-01 2.788572e-01 4.378204e-01 4.366131e-01 3.214900e-01 4.489595e-01 4.593949e-01 4.219036e-01 5.291092e-01 3.840878e-01 5.040593e-01 3.572385e-01 4.721971e-01 5.816195e-01 4.825235e-01 6.131470e-01 3.416686e-01 4.413896e-01 4.832069e-01 4.882340e-01 5.567546e-01 2.844881e-01 2.601532e-01 4.200246e-01 4.108867e-01 3.122701e-01 4.347346e-01 4.469715e-01 3.689167e-01 3.877547e-01 2.221916e-01 4.491799e-01 5.690246e-01 3.615102e-01
<VARIANCE> 142
 2.000000e-01 2.000000e-01 2.000000e-01 2.000000e-01 2.000000e-01 2.000000e-01 2.000000e-01 2.000000e-01 2.000000e-01 2.000000e-01 2.000000e-01 2.000000e-01 2.000000e-01 2.000000e-01 2.000000e-01 2.000000e-01 2.000000e-01 2.000000e-01 2.000000e-01 2.000000e-01 2.000000e-01 2.000000e-01 2.000000e-01 2.000000e-01 2.000000e-01 2.000000e-01 2.000000e-01 2.000000e-01 2.000000e-01 2.000000e-01 2.000000e-01 2.000000e-01 2.000000e-01 2.000000e-01 2.000000e-01 2.000000e-01 2.000000e-01 2.000000e-01 2.000000e-01 2.000000e-01 2.000000e-01 2.000000e-01 2.000000e-01 2.000000e-01 2.000000e-01 2.000000e-01 2.000000e-01 2.000000e-01 2.000000e-01 2.000000e-01 2.000000e-01 2.000000e-01 2.000000e-01 2.000000e-01 2.000000e-01 2.000000e-01 2.000000e-01 2.000000e-01 2.000000e-01 2.000000e-01 2.000000e-01 2.000000e-01 2.000000e-01 2.000000e-01 2.000000e-01 2.000000e-01 2.000000e-01 2.000000e-01 2.000000e-01 2.000000e-01 2.000000e-01 2.000000e-01 2.000000e-01 2.000000e-01 2.000000e-01 2.000000e-01 2.000000e-01 2.000000e-01 2.000000e-01 2.000000e-01 2.000000e-01 2.000000e-01 2.000000e-01 2.000000e-01 2.000000e-01 2.000000e-01 2.000000e-01 2.000000e-01 2.000000e-01 2.000000e-01 2.000000e-01 2.000000e-01 2.000000e-01 2.000000e-01 2.000000e-01 2.000000e-01 2.000000e-01 2.000000e-01 2.000000e-01 2.000000e-01 2.000000e-01 2.000000e-01 2.000000e-01 2.000000e-01 2.000000e-01 2.000000e-01 2.000000e-01 2.000000e-01 2.000000e-01 2.000000e-01 2.000000e-01 2.000000e-01 2.000000e-01 2.000000e-01 2.000000e-01 2.000000e-01 2.000000e-01 2.000000e-01 2.000000e-01 2.000000e-01 2.000000e-01 2.000000e-01 2.000000e-01 2.000000e-01 2.000000e-01 2.000000e-01 2.000000e-01 2.000000e-01 2.000000e-01 2.000000e-01 2.000000e-01 2.000000e-01 2.000000e-01 2.000000e-01 2.000000e-01 2.000000e-01 2.000000e-01 2.000000e-01 2.000000e-01 2.000000e-01 2.000000e-01 2.000000e-01
<GCONST> 3.243863e+01
<TRANSP> 4
 0.000000e+00 1.000000e+00 0.000000e+00 0.000000e+00
 0.000000e+00 8.917382e-01 1.082618e-01 0.000000e+00
 0.000000e+00 0.000000e+00 7.766568e-01 2.233432e-01
 0.000000e+00 0.000000e+00 0.000000e+00 0.000000e+00
<ENDHMM>
