~o
<STREAMINFO> 1 142
<VECSIZE> 142<NULLD><USER><DIAGC>
~h "memorize"
<BEGINHMM>
<NUMSTATES> 4
<STATE> 2
<MEAN> 142
 5.663612e-01 3.062378e-01 3.376558e-01 3.266149e-01 3.270594e-01 4.037719e-01 3.558087e-01 3.272382e-01 4.241044e-01 4.472800e-01 4.695000e-01 4.181207e-01 4.138101e-01 5.235242e-01 3.834716e-01 3.633078e-01 3.812399e-01 3.870062e-01 3.946253e-01 3.960895e-01 4.661602e-01 4.526968e-01 3.972811e-01 4.295868e-01 5.037315e-01 4.041789e-01 4.158622e-01 3.645761e-01 4.447675e-01 4.482041e-01 4.820379e-01 3.413678e-01 2.860880e-01 4.964989e-01 4.117856e-01 3.878586e-01 3.758062e-01 4.592140e-01 4.208030e-01 4.211982e-01 4.414573e-01 4.439291e-01 3.666255e-01 3.961788e-01 2.058679e-01 3.065167e-01 4.084915e-01 4.512386e-01 4.415446e-01 3.781656e-01 4.945018e-01 5.241002e-01 4.726835e-01 3.178772e-01 3.911953e-01 3.954014e-01 4.763112e-01 3.748845e-01 4.354222e-01 3.403124e-01 4.256489e-01 4.454179e-01 3.784947e-01 4.290698e-01 4.022523e-01 3.746058e-01 4.789423e-01 4.625880e-01 4.276047e-01 4.868558e-01 4.705146e-01 3.737587e-01 3.915723e-01 4.035608e-01 3.129519e-01 3.844501e-01 4.030742e-01 3.446181e-01 5.298960e-01 4.527148e-01 4.929304e-01 3.940090e-01 4.507968e-01 4.149366e-01 3.457675e-01 3.392054e-01 3.723798e-01 4.493931e-01 4.861958e-01 3.374496e-01 3.688337e-01 3.222339e-01 4.048600e-01 3.809520e-01 4.038991e-01 4.318199e-01 4.436614e-01 3.651604e-01 5.155537e-01 4.758967e-01 4.446227e-01 4.469451e-01 3.739859e-01 4.223238e-01 3.525069e-01 3.434430e-01 4.519817e-01 4.427537e-01 4.352597e-01 4.020691e-01 4.150220e-01 3.448371e-01 3.195948e-01 3.675858e-01 3.484749e-01 3.832346e-01 3.785968e-01 4.232513e-01 4.003815e-01 4.260655e-01 4.390779e-01 3.945971e-01 4.274001e-01 3.834682e-01 4.469237e-01 3.396307e-01 4.028099e-01 4.464393e-01 3.890690e-01 4.515617e-01 3.879832e-01 3.630609e-01 3.786552e-01 4.286350e-01 4.050146e-01 4.720426e-01 3.827602e-01 4.247080e-01 4.416786e-01 3.297228e-01 4.078375e-01 3.681815e-01
<VARIANCE> 142
 2.000000e-01 2.000000e-01 2.000000e-01 2.000000e-01 2.000000e-01 2.000000e-01 2.000000e-01 2.000000e-01 2.000000e-01 2.000000e-01 2.000000e-01 2.000000e-01 2.000000e-01 2.000000e-01 2.000000e-01 2.000000e-01 2.000000e-01 2.000000e-01 2.000000e-01 2.000000e-01 2.000000e-01 2.000000e-01 2.000000e-01 2.000000e-01 2.000000e-01 2.000000e-01 2.000000e-01 2.000000e-01 2.000000e-01 2.000000e-01 2.000000e-01 2.000000e-01 2.000000e-01 2.000000e-01 2.000000e-01 2.000000e-01 2.000000e-01 2.000000e-01 2.000000e-01 2.000000e-01 2.000000e-01 2.000000e-01 2.000000e-01 2.000000e-01 2.000000e-01 2.000000e-01 2.000000e-01 2.000000e-01 2.000000e-01 2.000000e-01 2.000000e-01 2.000000e-01 2.000000e-01 2.000000e-01 2.000000e-01 2.000000e-01 2.000000e-01 2.000000e-01 2.000000e-01 2.000000e-01 2.000000e-01 2.000000e-01 2.000000e-01 2.000000e-01 2.000000e-01 2.000000e-01 2.000000e-01 2.000000e-01 2.000000e-01 2.000000e-01 2.000000e-01 2.000000e-01 2.000000e-01 2.000000e-01 2.000000e-01 2.000000e-01 2.000000e-01 2.000000e-01 2.000000e-01 2.000000e-01 2.000000e-01 2.000000e-01 2.000000e-01 2.000000e-01 2.000000e-01 2.000000e-01 2.000000e-01 2.000000e-01 2.000000e-01 2.000000e-01 2.000000e-01 2.000000e-01 2.000000e-01 2.000000e-01 2.000000e-01 2.000000e-01 2.000000e-01 2.000000e-01 2.000000e-01 2.000000e-01 2.000000e-01 2.000000e-01 2.000000e-01 2.000000e-01 2.000000e-01 2.000000e-01 2.000000e-01 2.000000e-01 2.000000e-01 2.000000e-01 2.000000e-01 2.000000e-01 2.000000e-01 2.000000e-01 2.000000e-01 2.000000e-01 2.000000e-01 2.000000e-01 2.000000e-01 2.000000e-01 2.000000e-01 2.000000e-01 2.000000e-01 2.000000e-01 2.000000e-01 2.000000e-01 2.000000e-01 2.000000e-01 2.000000e-01 2.000000e-01 2.000000e-01 2.000000e-01 2.000000e-01 2.000000e-01 2.000000e-01 2.000000e-01 2.000000e-01 2.000000e-01 2.000000e-01 2.000000e-01 2.000000e-01 2.000000e-01
<GCONST> 3.243863e+01
<STATE> 3
<MEAN> 142
 6.950685e-01 3.340357e-01 3.345748e-01 3.310111e-01 2.646258e-01 3.344586e-01 3.656453e-01 3.636008e-01 3.399662e-01 3.906585e-01 3.951724e-01 4.163720e-01 4.167018e-01 4.130232e-01 2.844115e-01 3.336311e-01 3.661822e-01 3.890444e-01 2.755331e-01 4.088075e-01 4.635361e-01 4.351518e-01 3.863074e-01 4.095845e-01 4.390575e-01 3.639812e-01 3.786492e-01 3.442667e-01 3.669856e-01 3.390890e-01 4.215723e-01 4.650240e-01 4.529397e-01 4.249221e-01 4.109913e-01 3.827250e-01 2.839202e-01 2.962812e-01 2.854548e-01 2.784035e-01 3.425481e-01 3.928177e-01 2.894103e-01 3.351083e-01 2.188393e-01 4.308839e-01 4.337337e-01 3.549538e-01 3.600764e-01 3.008088e-01 4.737863e-01 3.583474e-01 4.210288e-01 2.610723e-01 4.390847e-01 3.266324e-01 4.043388e-01 3.078423e-01 3.254338e-01 2.859519e-01 4.142861e-01 4.892944e-01 3.994890e-01 4.009971e-01 3.904355e-01 4.667998e-01 3.114440e-01 3.549662e-01 4.727301e-01 3.358715e-01 4.590302e-01 5.063550e-01 3.894162e-01 3.680695e-01 3.710430e-01 3.551503e-01 4.682271e-01 3.945266e-01 4.174893e-01 3.776636e-01 4.027442e-01 3.698510e-01 3.301692e-01 4.326770e-01 3.167019e-01 4.898900e-01 4.342827e-01 4.301752e-01 4.442091e-01 3.712731e-01 3.453557e-01 4.007034e-01 3.760485e-01 3.292122e-01 3.841209e-01 4.523527e-01 3.980021e-01 3.131777e-01 3.658955e-01 4.155980e-01 3.281907e-01 5.144362e-01 3.736968e-01 3.364156e-01 2.551655e-01 3.059345e-01 3.770819e-01 2.933843e-01 3.702901e-01 3.346203e-01 4.144691e-01 3.082518e-01 3.146420e-01 2.758803e-01 3.826062e-01 4.144683e-01 3.688086e-01 3.740346e-01 3.953164e-01 4.037171e-01 4.037993e-01 5.034323e-01 4.696474e-01 4.476186e-01 3.878421e-01 4.048230e-01 3.727612e-01 3.317520e-01 3.219295e-01 4.108584e-01 3.487872e-01 3.760219e-01 4.080350e-01 3.715767e-01 3.253165e-01 3.755116e-01 4.337592e-01 3.891214e-01 3.020408e-01 3.500828e-01 4.908251e-01 4.213834e-01
<VARIANCE> 142
 2.000000e-01 2.000000e-01 2.000000e-01 2.000000e-01 2.000000e-01 2.000000e-01 2.000000e-01 2.000000e-01 2.000000e-01 2.000000e-01 2.000000e-01 2.000000e-01 2.000000e-01 2.000000e-01 2.000000e-01 2.000000e-01 2.000000e-01 2.000000e-01 2.000000e-01 2.000000e-01 2.000000e-01 2.000000e-01 2.000000e-01 2.000000e-01 2.000000e-01 2.000000e-01 2.000000e-01 2.000000e-01 2.000000e-01 2.000000e-01 2.000000e-01 2.000000e-01 2.000000e-01 2.000000e-01 2.000000e-01 2.000000e-01 2.000000e-01 2.000000e-01 2.000000e-01 2.000000e-01 2.000000e-01 2.000000e-01 2.000000e-01 2.000000e-01 2.000000e-01 2.000000e-01 2.000000e-01 2.000000e-01 2.000000e-01 2.000000e-01 2.000000e-01 2.000000e-01 2.000000e-01 2.000000e-01 2.000000e-01 2.000000e-01 2.000000e-01 2.000000e-01 2.000000e-01 2.000000e-01 2.000000e-01 2.000000e-01 2.000000e-01 2.000000e-01 2.000000e-01 2.000000e-01 2.000000e-01 2.000000e-01 2.000000e-01 2.000000e-01 2.000000e-01 2.000000e-01 2.000000e-01 2.000000e-01 2.000000e-01 2.000000e-01 2.000000e-01 2.000000e-01 2.000000e-01 2.000000e-01 2.000000e-01 2.000000e-01 2.000000e-01 2.000000e-01 2.000000e-01 2.000000e-01 2.000000e-01 2.000000e-01 2.000000e-01 2.000000e-01 2.000000e-01 2.000000e-01 2.000000e-01 2.000000e-01 2.000000e-01 2.000000e-01 2.000000e-01 2.000000e-01 2.000000e-01 2.000000e-01 2.000000e-01 2.000000e-01 2.000000e-01 2.000000e-01 2.000000e-01 2.000000e-01 2.000000e-01 2.000000e-01 2.000000e-01 2.000000e-01 2.000000e-01 2.000000e-01 2.000000e-01 2.000000e-01 2.000000e-01 2.000000e-01 2.000000e-01 2.000000e-01 2.000000e-01 2.000000e-01 2.000000e-01 2.000000e-01 2.000000e-01 2.000000e-01 2.000000e-01 2.000000e-01 2.000000e-01 2.000000e-01 2.000000e-01 2.000000e-01 2.000000e-01 2.000000e-01 2.000000e-01 2.000000e-01 2.000000e-01 2.000000e-01 2.000000e-01 2.000000e-01 2.000000e-01 2.000000e-01 2.000000e-01 2.000000e-01
<GCONST> 3.243863e+01
<TRANSP> 4
 0.000000e+00 1.000000e+00 0.000000e+00 0.000000e+00
 0.000000e+00 8.708206e-01 1.291794e-01 0.000000e+00
 0.000000e+00 0.000000e+00 8.599671e-01 1.400329e-01
 0.000000e+00 0.000000e+00 0.000000e+00 0.000000e+00
<ENDHMM>
