~o
<STREAMINFO> 1 142
<VECSIZE> 142<NULLD><USER><DIAGC>
~h "name"
<BEGINHMM>
<NUMSTATES> 4
<STATE> 2
<MEAN> 142
 5.301836e-01 3.026903e-01 4.026197e-01 4.032643e-01 3.464781e-01 4.137729e-01 3.970059e-01 3.950608e-01 3.517008e-01 4.061126e-01 4.815960e-01 3.281775e-01 3.120448e-01 4.954668e-01 4.191451e-01 4.135824e-01 3.820538e-01 3.187852e-01 4.118951e-01 3.368580e-01 5.382200e-01 5.240151e-01 4.006329e-01 4.388552e-01 5.186103e-01 3.914912e-01 4.813622e-01 3.539808e-01 3.878828e-01 2.908962e-01 4.696562e-01 3.590966e-01 3.931810e-01 6.205820e-01 4.321552e-01 4.072355e-01 4.574296e-01 3.097767e-01 3.822136e-01 4.262277e-01 3.639110e-01 4.898469e-01 3.177875e-01 3.687009e-01 2.487111e-01 3.318306e-01 4.312631e-01 4.857019e-01 5.219389e-01 3.490533e-01 4.621824e-01 3.654216e-01 4.049685e-01 2.491352e-01 3.395206e-01 3.447728e-01 4.698354e-01 4.546139e-01 3.785866e-01 4.442590e-01 4.658326e-01 4.099722e-01 3.705554e-01 3.791360e-01 3.528057e-01 4.451901e-01 3.931139e-01 5.291294e-01 3.982559e-01 3.674244e-01 4.323990e-01 3.588058e-01 4.058771e-01 4.550062e-01 3.751733e-01 3.173436e-01 4.321413e-01 3.594631e-01 4.949566e-01 5.548415e-01 4.062436e-01 3.283770e-01 3.431661e-01 4.790817e-01 3.939145e-01 3.777072e-01 3.795200e-01 3.433365e-01 4.752007e-01 3.888249e-01 2.193764e-01 3.622636e-01 3.604436e-01 3.187495e-01 3.919785e-01 3.828425e-01 4.299463e-01 2.785671e-01 4.949434e-01 4.708010e-01 4.320103e-01 5.127530e-01 3.345567e-01 2.976892e-01 4.318287e-01 2.889355e-01 3.746262e-01 3.255062e-01 4.706123e-01 5.910844e-01 3.303674e-01 2.844553e-01 3.346449e-01 3.684283e-01 2.948131e-01 3.191656e-01 3.226991e-01 5.012659e-01 3.288959e-01 4.313540e-01 3.996826e-01 4.020631e-01 3.704664e-01 2.874229e-01 5.334423e-01 3.944867e-01 3.094295e-01 3.198689e-01 2.495587e-01 5.185003e-01 4.700144e-01 3.124208e-01 2.577576e-01 3.893622e-01 3.461442e-01 4.747317e-01 4.320680e-01 4.357166e-01 5.089669e-01 4.208115e-01 3.393925e-01 4.206361e-01
<VARIANCE> 142
 2.000000e-01 2.000000e-01 2.000000e-01 2.000000e-01 2.000000e-01 2.000000e-01 2.000000e-01 2.000000e-01 2.000000e-01 2.000000e-01 2.000000e-01 2.000000e-01 2.000000e-01 2.000000e-01 2.000000e-01 2.000000e-01 2.000000e-01 2.000000e-01 2.000000e-01 2.000000e-01 2.000000e-01 2.000000e-01 2.000000e-01 2.000000e-01 2.000000e-01 2.000000e-01 2.000000e-01 2.000000e-01 2.000000e-01 2.000000e-01 2.000000e-01 2.000000e-01 2.000000e-01 2.000000e-01 2.000000e-01 2.000000e-01 2.000000e-01 2.000000e-01 2.000000e-01 2.000000e-01 2.000000e-01 2.000000e-01 2.000000e-01 2.000000e-01 2.000000e-01 2.000000e-01 2.000000e-01 2.000000e-01 2.000000e-01 2.000000e-01 2.000000e-01 2.000000e-01 2.000000e-01 2.000000e-01 2.000000e-01 2.000000e-01 2.000000e-01 2.000000e-01 2.000000e-01 2.000000e-01 2.000000e-01 2.000000e-01 2.000000e-01 2.000000e-01 2.000000e-01 2.000000e-01 2.000000e-01 2.000000e-01 2.000000e-01 2.000000e-01 2.000000e-01 2.000000e-01 2.000000e-01 2.000000e-01 2.000000e-01 2.000000e-01 2.000000e-01 2.000000e-01 2.000000e-01 2.000000e-01 2.000000e-01 2.000000e-01 2.000000e-01 2.000000e-01 2.000000e-01 2.000000e-01 2.000000e-01 2.000000e-01 2.000000e-01 2.000000e-01 2.000000e-01 2.000000e-01 2.000000e-01 2.000000e-01 2.000000e-01 2.000000e-01 2.000000e-01 2.000000e-01 2.000000e-01 2.000000e-01 2.000000e-01 2.000000e-01 2.000000e-01 2.000000e-01 2.000000e-01 2.000000e-01 2.000000e-01 2.000000e-01 2.000000e-01 2.000000e-01 2.000000e-01 2.000000e-01 2.000000e-01 2.000000e-01 2.000000e-01 2.000000e-01 2.000000e-01 2.000000e-01 2.000000e-01 2.000000e-01 2.000000e-01 2.000000e-01 2.000000e-01 2.000000e-01 2.000000e-01 2.000000e-01 2.000000e-01 2.000000e-01 2.000000e-01 2.000000e-01 2.000000e-01 2.000000e-01 2.000000e-01 2.000000e-01 2.000000e-01 2.000000e-01 2.000000e-01 2.000000e-01 2.000000e-01 2.000000e-01 2.000000e-01 2.000000e-01
<GCONST> 3.243863e+01
<STATE> 3
<MEAN> 142
 6.529683e-01 3.339245e-01 3.290394e-01 2.817275e-01 2.322305e-01 3.557082e-01 3.454179e-01 3.330656e-01 3.942122e-01 3.335856e-01 4.622025e-01 5.076565e-01 4.996105e-01 5.009041e-01 2.542298e-01 3.241715e-01 3.116943e-01 3.993327e-01 3.797669e-01 5.218580e-01 3.879271e-01 3.564972e-01 4.496213e-01 3.575064e-01 4.540196e-01 4.726721e-01 3.878370e-01 4.129950e-01 3.438663e-01 3.689682e-01 4.220379e-01 4.342986e-01 3.848786e-01 4.041259e-01 4.016378e-01 3.172193e-01 2.751257e-01 4.004414e-01 2.514219e-01 2.825841e-01 3.877740e-01 3.960217e-01 3.389639e-01 3.671757e-01 2.299478e-01 3.952544e-01 4.022002e-01 4.063586e-01 3.053634e-01 3.464439e-01 4.620844e-01 4.989716e-01 4.411337e-01 3.338389e-01 4.568606e-01 3.390105e-01 4.104064e-01 3.220246e-01 3.679179e-01 2.481948e-01 4.576031e-01 5.021082e-01 4.773305e-01 4.606131e-01 4.870044e-01 4.033826e-01 4.514482e-01 3.816260e-01 4.065298e-01 3.651096e-01 4.934680e-01 4.956207e-01 3.620329e-01 4.209293e-01 4.518368e-01 4.885275e-01 4.878043e-01 3.537259e-01 4.437170e-01 3.165374e-01 4.773046e-01 3.369459e-01 3.837378e-01 3.762302e-01 3.331207e-01 4.023696e-01 4.846002e-01 4.628596e-01 4.435074e-01 3.304958e-01 3.637739e-01 3.496001e-01 4.313465e-01 4.141425e-01 3.398673e-01 5.331919e-01 4.403730e-01 4.751070e-01 3.872581e-01 4.595213e-01 4.161262e-01 3.963065e-01 4.118556e-01 3.779267e-01 2.597960e-01 3.051938e-01 4.572437e-01 3.707595e-01 4.598062e-01 2.933531e-01 3.847068e-01 3.681810e-01 2.863643e-01 2.519270e-01 3.189983e-01 5.147603e-01 3.665618e-01 3.771498e-01 4.375934e-01 3.654223e-01 4.595514e-01 4.466466e-01 4.316375e-01 3.785423e-01 3.886885e-01 3.775986e-01 4.174673e-01 4.862319e-01 4.340629e-01 4.052705e-01 3.760358e-01 3.634384e-01 5.521926e-01 5.247103e-01 2.994837e-01 3.443263e-01 3.667704e-01 3.981155e-01 3.295073e-01 2.765833e-01 4.189692e-01 4.421968e-01
<VARIANCE> 142
 2.000000e-01 2.000000e-01 2.000000e-01 2.000000e-01 2.000000e-01 2.000000e-01 2.000000e-01 2.000000e-01 2.000000e-01 2.000000e-01 2.000000e-01 2.000000e-01 2.000000e-01 2.000000e-01 2.000000e-01 2.000000e-01 2.000000e-01 2.000000e-01 2.000000e-01 2.000000e-01 2.000000e-01 2.000000e-01 2.000000e-01 2.000000e-01 2.000000e-01 2.000000e-01 2.000000e-01 2.000000e-01 2.000000e-01 2.000000e-01 2.000000e-01 2.000000e-01 2.000000e-01 2.000000e-01 2.000000e-01 2.000000e-01 2.000000e-01 2.000000e-01 2.000000e-01 2.000000e-01 2.000000e-01 2.000000e-01 2.000000e-01 2.000000e-01 2.000000e-01 2.000000e-01 2.000000e-01 2.000000e-01 2.000000e-01 2.000000e-01 2.000000e-01 2.000000e-01 2.000000e-01 2.000000e-01 2.000000e-01 2.000000e-01 2.000000e-01 2.000000e-01 2.000000e-01 2.000000e-01 2.000000e-01 2.000000e-01 2.000000e-01 2.000000e-01 2.000000e-01 2.000000e-01 2.000000e-01 2.000000e-01 2.000000e-01 2.000000e-01 2.000000e-01 2.000000e-01 2.000000e-01 2.000000e-01 2.000000e-01 2.000000e-01 2.000000e-01 2.000000e-01 2.000000e-01 2.000000e-01 2.000000e-01 2.000000e-01 2.000000e-01 2.000000e-01 2.000000e-01 2.000000e-01 2.000000e-01 2.000000e-01 2.000000e-01 2.000000e-01 2.000000e-01 2.000000e-01 2.000000e-01 2.000000e-01 2.000000e-01 2.000000e-01 2.000000e-01 2.000000e-01 2.000000e-01 2.000000e-01 2.000000e-01 2.000000e-01 2.000000e-01 2.000000e-01 2.000000e-01 2.000000e-01 2.000000e-01 2.000000e-01 2.000000e-01 2.000000e-01 2.000000e-01 2.000000e-01 2.000000e-01 2.000000e-01 2.000000e-01 2.000000e-01 2.000000e-01 2.000000e-01 2.000000e-01 2.000000e-01 2.000000e-01 2.000000e-01 2.000000e-01 2.000000e-01 2.000000e-01 2.000000e-01 2.000000e-01 2.000000e-01 2.000000e-01 2.000000e-01 2.000000e-01 2.000000e-01 2.000000e-01 2.000000e-01 2.000000e-01 2.000000e-01 2.000000e-01 2.000000e-01 2.000000e-01 2.000000e-01 2.000000e-01 2.000000e-01
<GCONST> 3.243863e+01
<TRANSP> 4
 0.000000e+00 1.000000e+00 0.000000e+00 0.000000e+00
 0.000000e+00 8.557369e-01 1.442631e-01 0.000000e+00
 0.000000e+00 0.000000e+00 8.604954e-01 1.395046e-01
 0.000000e+00 0.000000e+00 0.000000e+00 0.000000e+00
<ENDHMM>
