~o
<STREAMINFO> 1 142
<VECSIZE> 142<NULLD><USER><DIAGC>
~h "nurse"
<BEGINHMM>
<NUMSTATES> 4
<STATE> 2
<MEAN> 142
 5.078700e-01 4.243353e-01 2.850554e-01 3.488561e-01 2.993273e-01 1.947561e-01 3.002492e-01 2.731555e-01 3.511695e-01 4.667537e-01 3.724950e-01 4.235174e-01 2.877665e-01 4.363548e-01 4.211652e-01 3.174756e-01 4.086314e-01 4.052983e-01 2.047192e-01 2.595547e-01 4.372143e-01 5.020643e-01 2.846912e-01 5.240358e-01 4.623084e-01 3.292934e-01 3.640442e-01 3.955249e-01 4.826779e-01 4.267142e-01 4.405083e-01 4.288015e-01 3.212146e-01 4.889324e-01 4.565302e-01 4.313279e-01 3.866752e-01 3.355578e-01 4.611378e-01 2.946976e-01 4.147676e-01 4.983342e-01 3.399596e-01 2.529274e-01 1.742279e-01 3.755306e-01 4.682631e-01 3.884490e-01 4.429852e-01 2.886671e-01 4.664055e-01 3.489331e-01 4.093341e-01 2.413913e-01 4.344337e-01 4.151187e-01 3.028823e-01 2.433743e-01 2.966170e-01 2.953963e-01 3.390499e-01 4.348516e-01 3.434103e-01 4.003629e-01 3.637030e-01 4.123375e-01 3.733063e-01 2.969078e-01 3.485889e-01 4.056666e-01 3.913645e-01 3.227345e-01 4.061697e-01 4.121202e-01 2.115913e-01 2.901577e-01 4.026437e-01 4.899170e-01 4.568352e-01 4.092101e-01 4.887492e-01 4.502215e-01 4.499478e-01 3.997553e-01 2.804344e-01 3.453720e-01 3.832530e-01 4.244651e-01 4.483633e-01 3.156487e-01 3.661582e-01 2.189136e-01 4.484795e-01 2.998657e-01 4.801919e-01 4.717668e-01 5.011942e-01 3.344270e-01 5.231422e-01 3.968327e-01 4.531630e-01 4.901953e-01 3.575513e-01 4.068165e-01 3.131944e-01 2.634981e-01 3.297845e-01 4.122790e-01 3.306170e-01 3.061041e-01 3.775169e-01 4.079451e-01 3.371276e-01 4.477111e-01 3.710442e-01 3.639805e-01 3.890856e-01 4.681890e-01 4.492305e-01 3.699005e-01 4.629472e-01 4.595524e-01 4.285710e-01 3.241518e-01 3.233778e-01 3.927097e-01 4.480233e-01 3.874250e-01 3.754305e-01 3.445117e-01 3.713114e-01 5.231807e-01 2.948537e-01 4.034980e-01 4.739828e-01 4.759850e-01 3.698687e-01 4.994318e-01 3.702267e-01 4.887470e-01 4.791594e-01 4.212893e-01
<VARIANCE> 142
 2.000000e-01 2.000000e-01 2.000000e-01 2.000000e-01 2.000000e-01 2.000000e-01 2.000000e-01 2.000000e-01 2.000000e-01 2.000000e-01 2.000000e-01 2.000000e-01 2.000000e-01 2.000000e-01 2.000000e-01 2.000000e-01 2.000000e-01 2.000000e-01 2.000000e-01 2.000000e-01 2.000000e-01 2.000000e-01 2.000000e-01 2.000000e-01 2.000000e-01 2.000000e-01 2.000000e-01 2.000000e-01 2.000000e-01 2.000000e-01 2.000000e-01 2.000000e-01 2.000000e-01 2.000000e-01 2.000000e-01 2.000000e-01 2.000000e-01 2.000000e-01 2.000000e-01 2.000000e-01 2.000000e-01 2.000000e-01 2.000000e-01 2.000000e-01 2.000000e-01 2.000000e-01 2.000000e-01 2.000000e-01 2.000000e-01 2.000000e-01 2.000000e-01 2.000000e-01 2.000000e-01 2.000000e-01 2.000000e-01 2.000000e-01 2.000000e-01 2.000000e-01 2.000000e-01 2.000000e-01 2.000000e-01 2.000000e-01 2.000000e-01 2.000000e-01 2.000000e-01 2.000000e-01 2.000000e-01 2.000000e-01 2.000000e-01 2.000000e-01 2.000000e-01 2.000000e-01 2.000000e-01 2.000000e-01 2.000000e-01 2.000000e-01 2.000000e-01 2.000000e-01 2.000000e-01 2.000000e-01 2.000000e-01 2.000000e-01 2.000000e-01 2.000000e-01 2.000000e-01 2.000000e-01 2.000000e-01 2.000000e-01 2.000000e-01 2.000000e-01 2.000000e-01 2.000000e-01 2.000000e-01 2.000000e-01 2.000000e-01 2.000000e-01 2.000000e-01 2.000000e-01 2.000000e-01 2.000000e-01 2.000000e-01 2.000000e-01 2.000000e-01 2.000000e-01 2.000000e-01 2.000000e-01 2.000000e-01 2.000000e-01 2.000000e-01 2.000000e-01 2.000000e-01 2.000000e-01 2.000000e-01 2.000000e-01 2.000000e-01 2.000000e-01 2.000000e-01 2.000000e-01 2.000000e-01 2.000000e-01 2.000000e-01 2.000000e-01 2.000000e-01 2.000000e-01 2.000000e-01 2.000000e-01 2.000000e-01 2.000000e-01 2.000000e-01 2.000000e-01 2.000000e-01 2.000000e-01 2.000000e-01 2.000000e-01 2.000000e-01 2.000000e-01 2.000000e-01 2.000000e-01 2.000000e-01 2.000000e-01 2.000000e-01 2.000000e-01
<GCONST> 3.243863e+01
<STATE> 3
<MEAN> 142
 6.961423e-01 3.689892e-01 3.946332e-01 3.819642e-01 3.029247e-01 4.229456e-01 4.434638e-01 3.534744e-01 3.664625e-01 3.549149e-01 4.454364e-01 4.796830e-01 4.380823e-01 4.719206e-01 3.116045e-01 3.796687e-01 3.582380e-01 4.109775e-01 3.373179e-01 4.096204e-01 4.745713e-01 4.359626e-01 4.120258e-01 4.229065e-01 4.362446e-01 4.330823e-01 4.239437e-01 3.894129e-01 3.836181e-01 3.818113e-01 4.725987e-01 4.206059e-01 5.037252e-01 4.229662e-01 4.650636e-01 3.408799e-01 3.214162e-01 2.942877e-01 3.128234e-01 3.531629e-01 3.360003e-01 4.349121e-01 2.839646e-01 3.309465e-01 2.996244e-01 4.473394e-01 4.772981e-01 4.060795e-01 4.052597e-01 3.479923e-01 5.112990e-01 3.704890e-01 3.905287e-01 2.878054e-01 5.110094e-01 3.801313e-01 3.846802e-01 3.482352e-01 3.582831e-01 3.661089e-01 5.210384e-01 4.030232e-01 3.620093e-01 3.802775e-01 3.814566e-01 5.310434e-01 3.445921e-01 4.038865e-01 4.492049e-01 3.354023e-01 4.661542e-01 5.492332e-01 4.444050e-01 4.475615e-01 3.912147e-01 3.980335e-01 5.128999e-01 4.143995e-01 4.063497e-01 3.997121e-01 4.199290e-01 3.500592e-01 3.641928e-01 4.499470e-01 3.730701e-01 5.314630e-01 4.190171e-01 4.564601e-01 4.785702e-01 4.362543e-01 3.777694e-01 4.323567e-01 4.432609e-01 3.864605e-01 4.045996e-01 4.576078e-01 4.445939e-01 3.218861e-01 3.918575e-01 4.330367e-01 3.500189e-01 4.644371e-01 3.856520e-01 3.407820e-01 3.265989e-01 3.123737e-01 3.778353e-01 3.319913e-01 4.193003e-01 4.010367e-01 3.873170e-01 4.010450e-01 3.723387e-01 2.981412e-01 3.672496e-01 4.662876e-01 3.454650e-01 4.009838e-01 4.284079e-01 4.232891e-01 3.879844e-01 5.175020e-01 4.458704e-01 4.538451e-01 4.734014e-01 4.180504e-01 4.135724e-01 3.252107e-01 3.123344e-01 4.343746e-01 4.155121e-01 3.846767e-01 4.350500e-01 3.857445e-01 3.236407e-01 3.739455e-01 5.141255e-01 3.893340e-01 3.926739e-01 3.774327e-01 4.583418e-01 5.136614e-01
<VARIANCE> 142
 2.000000e-01 2.000000e-01 2.000000e-01 2.000000e-01 2.000000e-01 2.000000e-01 2.000000e-01 2.000000e-01 2.000000e-01 2.000000e-01 2.000000e-01 2.000000e-01 2.000000e-01 2.000000e-01 2.000000e-01 2.000000e-01 2.000000e-01 2.000000e-01 2.000000e-01 2.000000e-01 2.000000e-01 2.000000e-01 2.000000e-01 2.000000e-01 2.000000e-01 2.000000e-01 2.000000e-01 2.000000e-01 2.000000e-01 2.000000e-01 2.000000e-01 2.000000e-01 2.000000e-01 2.000000e-01 2.000000e-01 2.000000e-01 2.000000e-01 2.000000e-01 2.000000e-01 2.000000e-01 2.000000e-01 2.000000e-01 2.000000e-01 2.000000e-01 2.000000e-01 2.000000e-01 2.000000e-01 2.000000e-01 2.000000e-01 2.000000e-01 2.000000e-01 2.000000e-01 2.000000e-01 2.000000e-01 2.000000e-01 2.000000e-01 2.000000e-01 2.000000e-01 2.000000e-01 2.000000e-01 2.000000e-01 2.000000e-01 2.000000e-01 2.000000e-01 2.000000e-01 2.000000e-01 2.000000e-01 2.000000e-01 2.000000e-01 2.000000e-01 2.000000e-01 2.000000e-01 2.000000e-01 2.000000e-01 2.000000e-01 2.000000e-01 2.000000e-01 2.000000e-01 2.000000e-01 2.000000e-01 2.000000e-01 2.000000e-01 2.000000e-01 2.000000e-01 2.000000e-01 2.000000e-01 2.000000e-01 2.000000e-01 2.000000e-01 2.000000e-01 2.000000e-01 2.000000e-01 2.000000e-01 2.000000e-01 2.000000e-01 2.000000e-01 2.000000e-01 2.000000e-01 2.000000e-01 2.000000e-01 2.000000e-01 2.000000e-01 2.000000e-01 2.000000e-01 2.000000e-01 2.000000e-01 2.000000e-01 2.000000e-01 2.000000e-01 2.000000e-01 2.000000e-01 2.000000e-01 2.000000e-01 2.000000e-01 2.000000e-01 2.000000e-01 2.000000e-01 2.000000e-01 2.000000e-01 2.000000e-01 2.000000e-01 2.000000e-01 2.000000e-01 2.000000e-01 2.000000e-01 2.000000e-01 2.000000e-01 2.000000e-01 2.000000e-01 2.000000e-01 2.000000e-01 2.000000e-01 2.000000e-01 2.000000e-01 2.000000e-01 2.000000e-01 2.000000e-01 2.000000e-01 2.000000e-01 2.000000e-01 2.000000e-01 2.000000e-01
<GCONST> 3.243863e+01
<TRANSP> 4
 0.000000e+00 1.000000e+00 0.000000e+00 0.000000e+00
 0.000000e+00 8.058752e-01 1.941248e-01 0.000000e+00
 0.000000e+00 0.000000e+00 8.973049e-01 1.026951e-01
 0.000000e+00 0.000000e+00 0.000000e+00 0.000000e+00
<ENDHMM>
