~o
<STREAMINFO> 1 142
<VECSIZE> 142<NULLD><USER><DIAGC>
~h "proud"
<BEGINHMM>
<NUMSTATES> 4
<STATE> 2
<MEAN> 142
 6.947169e-01 3.398837e-01 4.428338e-01 4.128362e-01 3.105599e-01 3.912887e-01 4.512877e-01 3.587476e-01 3.605040e-01 3.649553e-01 5.004788e-01 4.001113e-01 3.876141e-01 4.896019e-01 3.117874e-01 3.593611e-01 3.970957e-01 3.577440e-01 3.719327e-01 3.843887e-01 5.200062e-01 4.940263e-01 4.645996e-01 4.491212e-01 4.749298e-01 4.081014e-01 4.963831e-01 3.641455e-01 3.599242e-01 3.446786e-01 4.790813e-01 4.644043e-01 4.936138e-01 4.494902e-01 4.188064e-01 3.110908e-01 3.531695e-01 2.799157e-01 3.027946e-01 3.570673e-01 2.710750e-01 3.765223e-01 3.346887e-01 3.511138e-01 2.577993e-01 4.227312e-01 4.885940e-01 3.968902e-01 4.428422e-01 4.142802e-01 5.346400e-01 3.431445e-01 4.203294e-01 2.582594e-01 4.758739e-01 3.323916e-01 4.770315e-01 3.883180e-01 3.677738e-01 4.321280e-01 4.611334e-01 4.200122e-01 3.688678e-01 3.752920e-01 3.448934e-01 5.117543e-01 3.176279e-01 4.488114e-01 4.809988e-01 3.193391e-01 4.516132e-01 4.877993e-01 4.342438e-01 4.574856e-01 3.816876e-01 3.750846e-01 4.949429e-01 4.169252e-01 4.510930e-01 4.752534e-01 3.851341e-01 3.509494e-01 3.329538e-01 4.560474e-01 3.890576e-01 5.226710e-01 4.089156e-01 4.322961e-01 4.748960e-01 4.416135e-01 3.373451e-01 4.310583e-01 3.770072e-01 3.273583e-01 4.164814e-01 3.943475e-01 4.069946e-01 2.594855e-01 3.823311e-01 4.380689e-01 3.354108e-01 5.213186e-01 3.517420e-01 2.940289e-01 3.600179e-01 3.446064e-01 3.743350e-01 3.360864e-01 4.339983e-01 4.196074e-01 3.762617e-01 3.826217e-01 3.491107e-01 3.359384e-01 3.276061e-01 4.180765e-01 3.862665e-01 4.204849e-01 4.035430e-01 4.608005e-01 4.287595e-01 5.100827e-01 4.312040e-01 4.377792e-01 4.793926e-01 4.140317e-01 4.150594e-01 2.777913e-01 2.943505e-01 4.827475e-01 3.944343e-01 3.727977e-01 3.907618e-01 3.669607e-01 3.367834e-01 4.091471e-01 4.751954e-01 3.812114e-01 3.340886e-01 4.048424e-01 4.447037e-01 5.076994e-01
<VARIANCE> 142
 2.000000e-01 2.000000e-01 2.000000e-01 2.000000e-01 2.000000e-01 2.000000e-01 2.000000e-01 2.000000e-01 2.000000e-01 2.000000e-01 2.000000e-01 2.000000e-01 2.000000e-01 2.000000e-01 2.000000e-01 2.000000e-01 2.000000e-01 2.000000e-01 2.000000e-01 2.000000e-01 2.000000e-01 2.000000e-01 2.000000e-01 2.000000e-01 2.000000e-01 2.000000e-01 2.000000e-01 2.000000e-01 2.000000e-01 2.000000e-01 2.000000e-01 2.000000e-01 2.000000e-01 2.000000e-01 2.000000e-01 2.000000e-01 2.000000e-01 2.000000e-01 2.000000e-01 2.000000e-01 2.000000e-01 2.000000e-01 2.000000e-01 2.000000e-01 2.000000e-01 2.000000e-01 2.000000e-01 2.000000e-01 2.000000e-01 2.000000e-01 2.000000e-01 2.000000e-01 2.000000e-01 2.000000e-01 2.000000e-01 2.000000e-01 2.000000e-01 2.000000e-01 2.000000e-01 2.000000e-01 2.000000e-01 2.000000e-01 2.000000e-01 2.000000e-01 2.000000e-01 2.000000e-01 2.000000e-01 2.000000e-01 2.000000e-01 2.000000e-01 2.000000e-01 2.000000e-01 2.000000e-01 2.000000e-01 2.000000e-01 2.000000e-01 2.000000e-01 2.000000e-01 2.000000e-01 2.000000e-01 2.000000e-01 2.000000e-01 2.000000e-01 2.000000e-01 2.000000e-01 2.000000e-01 2.000000e-01 2.000000e-01 2.000000e-01 2.000000e-01 2.000000e-01 2.000000e-01 2.000000e-01 2.000000e-01 2.000000e-01 2.000000e-01 2.000000e-01 2.000000e-01 2.000000e-01 2.000000e-01 2.000000e-01 2.000000e-01 2.000000e-01 2.000000e-01 2.000000e-01 2.000000e-01 2.000000e-01 2.000000e-01 2.000000e-01 2.000000e-01 2.000000e-01 2.000000e-01 2.000000e-01 2.000000e-01 2.000000e-01 2.000000e-01 2.000000e-01 2.000000e-01 2.000000e-01 2.000000e-01 2.000000e-01 2.000000e-01 2.000000e-01 2.000000e-01 2.000000e-01 2.000000e-01 2.000000e-01 2.000000e-01 2.000000e-01 2.000000e-01 2.000000e-01 2.000000e-01 2.000000e-01 2.000000e-01 2.000000e-01 2.000000e-01 2.000000e-01 2.000000e-01 2.000000e-01 2.000000e-01 2.000000e-01 2.000000e-01
<GCONST> 3.243863e+01
<STATE> 3
<MEAN> 142
 5.106406e-01 3.928817e-01 2.988370e-01 3.877522e-01 3.290403e-01 2.279584e-01 3.131090e-01 3.307137e-01 3.582446e-01 4.866459e-01 4.144796e-01 3.987124e-01 3.789343e-01 4.461025e-01 4.220713e-01 3.562207e-01 4.822247e-01 4.357617e-01 2.489264e-01 3.114280e-01 4.002641e-01 4.558275e-01 3.267333e-01 5.222565e-01 5.020340e-01 3.425687e-01 4.417583e-01 3.554895e-01 5.142893e-01 4.052023e-01 5.052506e-01 4.255461e-01 2.753896e-01 4.575070e-01 4.445586e-01 4.235122e-01 3.695181e-01 4.172614e-01 4.891299e-01 3.287745e-01 4.708566e-01 5.631216e-01 3.689988e-01 2.941994e-01 1.512021e-01 3.588784e-01 4.414559e-01 3.988750e-01 4.339291e-01 2.794582e-01 4.815311e-01 4.337825e-01 4.764789e-01 2.725122e-01 4.126013e-01 4.044663e-01 4.412347e-01 2.864820e-01 3.534141e-01 3.009545e-01 3.897404e-01 4.458347e-01 3.852831e-01 4.350229e-01 3.509982e-01 4.585005e-01 4.169728e-01 3.846070e-01 3.715672e-01 4.546308e-01 3.888686e-01 3.133139e-01 4.502971e-01 3.747083e-01 2.421702e-01 3.590300e-01 3.701543e-01 4.162148e-01 5.184004e-01 4.648088e-01 5.035653e-01 4.312147e-01 4.902537e-01 3.972314e-01 2.895881e-01 2.972655e-01 3.399872e-01 3.977248e-01 4.719856e-01 3.188546e-01 3.478132e-01 2.985896e-01 4.114452e-01 3.194234e-01 4.489436e-01 4.319095e-01 4.110866e-01 3.844041e-01 5.276321e-01 3.729356e-01 4.456264e-01 4.633815e-01 3.040159e-01 4.137643e-01 3.245001e-01 3.674457e-01 4.260817e-01 4.407292e-01 3.752469e-01 3.342134e-01 3.998936e-01 3.676572e-01 2.829585e-01 4.394232e-01 3.574426e-01 3.529587e-01 4.201695e-01 4.461934e-01 4.300955e-01 3.677900e-01 4.460427e-01 4.568976e-01 4.055814e-01 3.738759e-01 4.133769e-01 3.957875e-01 3.878955e-01 4.679816e-01 4.255604e-01 3.657618e-01 3.133990e-01 4.323106e-01 3.084825e-01 4.061926e-01 4.720307e-01 4.663133e-01 4.003361e-01 4.879142e-01 3.607339e-01 4.122374e-01 5.220898e-01 3.768772e-01
<VARIANCE> 142
 2.000000e-01 2.000000e-01 2.000000e-01 2.000000e-01 2.000000e-01 2.000000e-01 2.000000e-01 2.000000e-01 2.000000e-01 2.000000e-01 2.000000e-01 2.000000e-01 2.000000e-01 2.000000e-01 2.000000e-01 2.000000e-01 2.000000e-01 2.000000e-01 2.000000e-01 2.000000e-01 2.000000e-01 2.000000e-01 2.000000e-01 2.000000e-01 2.000000e-01 2.000000e-01 2.000000e-01 2.000000e-01 2.000000e-01 2.000000e-01 2.000000e-01 2.000000e-01 2.000000e-01 2.000000e-01 2.000000e-01 2.000000e-01 2.000000e-01 2.000000e-01 2.000000e-01 2.000000e-01 2.000000e-01 2.000000e-01 2.000000e-01 2.000000e-01 2.000000e-01 2.000000e-01 2.000000e-01 2.000000e-01 2.000000e-01 2.000000e-01 2.000000e-01 2.000000e-01 2.000000e-01 2.000000e-01 2.000000e-01 2.000000e-01 2.000000e-01 2.000000e-01 2.000000e-01 2.000000e-01 2.000000e-01 2.000000e-01 2.000000e-01 2.000000e-01 2.000000e-01 2.000000e-01 2.000000e-01 2.000000e-01 2.000000e-01 2.000000e-01 2.000000e-01 2.000000e-01 2.000000e-01 2.000000e-01 2.000000e-01 2.000000e-01 2.000000e-01 2.000000e-01 2.000000e-01 2.000000e-01 2.000000e-01 2.000000e-01 2.000000e-01 2.000000e-01 2.000000e-01 2.000000e-01 2.000000e-01 2.000000e-01 2.000000e-01 2.000000e-01 2.000000e-01 2.000000e-01 2.000000e-01 2.000000e-01 2.000000e-01 2.000000e-01 2.000000e-01 2.000000e-01 2.000000e-01 2.000000e-01 2.000000e-01 2.000000e-01 2.000000e-01 2.000000e-01 2.000000e-01 2.000000e-01 2.000000e-01 2.000000e-01 2.000000e-01 2.000000e-01 2.000000e-01 2.000000e-01 2.000000e-01 2.000000e-01 2.000000e-01 2.000000e-01 2.000000e-01 2.000000e-01 2.000000e-01 2.000000e-01 2.000000e-01 2.000000e-01 2.000000e-01 2.000000e-01 2.000000e-01 2.000000e-01 2.000000e-01 2.000000e-01 2.000000e-01 2.000000e-01 2.000000e-01 2.000000e-01 2.000000e-01 2.000000e-01 2.000000e-01 2.000000e-01 2.000000e-01 2.000000e-01 2.000000e-01 2.000000e-01 2.000000e-01 2.000000e-01
<GCONST> 3.243863e+01
<TRANSP> 4
 0.000000e+00 1.000000e+00 0.000000e+00 0.000000e+00
 0.000000e+00 8.814650e-01 1.185350e-01 0.000000e+00
 0.000000e+00 0.000000e+00 8.518777e-01 1.481223e-01
 0.000000e+00 0.000000e+00 0.000000e+00 0.000000e+00
<ENDHMM>
