~o
<STREAMINFO> 1 142
<VECSIZE> 142<NULLD><USER><DIAGC>
~h "red"
<BEGINHMM>
<NUMSTATES> 4
<STATE> 2
<MEAN> 142
 5.232448e-01 2.816690e-01 3.282267e-01 2.987733e-01 2.676585e-01 2.306038e-01 2.928179e-01 3.050316e-01 3.540174e-01 4.150194e-01 4.465797e-01 3.987361e-01 3.457456e-01 4.008384e-01 3.212998e-01 2.855257e-01 3.540674e-01 3.421786e-01 3.213532e-01 3.140145e-01 3.988869e-01 3.826917e-01 3.693456e-01 3.561521e-01 4.809727e-01 3.664401e-01 3.941813e-01 3.450183e-01 4.367593e-01 3.491261e-01 4.706837e-01 3.345760e-01 3.173949e-01 4.663284e-01 4.241476e-01 3.155472e-01 3.528393e-01 3.930517e-01 3.903210e-01 3.596289e-01 3.940047e-01 4.192236e-01 3.399279e-01 2.556995e-01 1.800290e-01 2.944240e-01 3.552604e-01 4.121172e-01 3.837362e-01 3.280337e-01 4.220840e-01 4.234948e-01 4.280631e-01 3.099072e-01 3.352018e-01 4.288346e-01 4.322705e-01 3.168149e-01 3.621607e-01 2.964346e-01 3.817607e-01 4.529818e-01 3.860697e-01 4.474075e-01 4.065984e-01 3.571452e-01 3.998610e-01 4.106235e-01 4.044006e-01 4.236425e-01 4.320253e-01 3.150408e-01 3.743885e-01 3.900864e-01 3.087795e-01 3.260282e-01 4.214333e-01 3.419578e-01 4.799336e-01 4.160253e-01 5.079106e-01 3.125898e-01 3.770105e-01 3.501460e-01 3.389917e-01 2.641336e-01 4.029561e-01 4.348558e-01 4.751463e-01 3.052101e-01 3.106613e-01 2.616948e-01 4.415703e-01 3.734241e-01 3.641225e-01 4.782827e-01 4.292430e-01 3.635382e-01 4.489178e-01 4.118218e-01 4.429041e-01 3.766332e-01 3.098876e-01 3.527398e-01 3.236329e-01 2.871952e-01 3.735061e-01 4.089200e-01 3.506446e-01 3.293736e-01 3.651339e-01 3.321336e-01 2.618346e-01 3.356689e-01 3.399447e-01 3.822637e-01 3.604650e-01 3.979702e-01 4.139353e-01 3.144518e-01 3.466950e-01 3.554632e-01 3.786605e-01 3.172506e-01 3.751747e-01 3.497415e-01 3.831485e-01 4.124431e-01 3.900712e-01 3.777138e-01 3.832940e-01 3.864339e-01 3.160630e-01 4.651569e-01 3.479356e-01 4.102648e-01 3.892756e-01 3.879679e-01 3.879456e-01 3.168566e-01 3.612255e-01 4.391070e-01
<VARIANCE> 142
 2.000000e-01 2.000000e-01 2.000000e-01 2.000000e-01 2.000000e-01 2.000000e-01 2.000000e-01 2.000000e-01 2.000000e-01 2.000000e-01 2.000000e-01 2.000000e-01 2.000000e-01 2.000000e-01 2.000000e-01 2.000000e-01 2.000000e-01 2.000000e-01 2.000000e-01 2.000000e-01 2.000000e-01 2.000000e-01 2.000000e-01 2.000000e-01 2.000000e-01 2.000000e-01 2.000000e-01 2.000000e-01 2.000000e-01 2.000000e-01 2.000000e-01 2.000000e-01 2.000000e-01 2.000000e-01 2.000000e-01 2.000000e-01 2.000000e-01 2.000000e-01 2.000000e-01 2.000000e-01 2.000000e-01 2.000000e-01 2.000000e-01 2.000000e-01 2.000000e-01 2.000000e-01 2.000000e-01 2.000000e-01 2.000000e-01 2.000000e-01 2.000000e-01 2.000000e-01 2.000000e-01 2.000000e-01 2.000000e-01 2.000000e-01 2.000000e-01 2.000000e-01 2.000000e-01 2.000000e-01 2.000000e-01 2.000000e-01 2.000000e-01 2.000000e-01 2.000000e-01 2.000000e-01 2.000000e-01 2.000000e-01 2.000000e-01 2.000000e-01 2.000000e-01 2.000000e-01 2.000000e-01 2.000000e-01 2.000000e-01 2.000000e-01 2.000000e-01 2.000000e-01 2.000000e-01 2.000000e-01 2.000000e-01 2.000000e-01 2.000000e-01 2.000000e-01 2.000000e-01 2.000000e-01 2.000000e-01 2.000000e-01 2.000000e-01 2.000000e-01 2.000000e-01 2.000000e-01 2.000000e-01 2.000000e-01 2.000000e-01 2.000000e-01 2.000000e-01 2.000000e-01 2.000000e-01 2.000000e-01 2.000000e-01 2.000000e-01 2.000000e-01 2.000000e-01 2.000000e-01 2.000000e-01 2.000000e-01 2.000000e-01 2.000000e-01 2.000000e-01 2.000000e-01 2.000000e-01 2.000000e-01 2.000000e-01 2.000000e-01 2.000000e-01 2.000000e-01 2.000000e-01 2.000000e-01 2.000000e-01 2.000000e-01 2.000000e-01 2.000000e-01 2.000000e-01 2.000000e-01 2.000000e-01 2.000000e-01 2.000000e-01 2.000000e-01 2.000000e-01 2.000000e-01 2.000000e-01 2.000000e-01 2.000000e-01 2.000000e-01 2.000000e-01 2.000000e-01 2.000000e-01 2.000000e-01 2.000000e-01 2.000000e-01 2.000000e-01
<GCONST> 3.243863e+01
<STATE> 3
<MEAN> 142
 8.491959e-01 3.474401e-01 4.230926e-01 3.773264e-01 2.538150e-01 4.323819e-01 4.955277e-01 4.043963e-01 2.988490e-01 3.603022e-01 4.234443e-01 4.456187e-01 4.182267e-01 4.244991e-01 2.628422e-01 3.514352e-01 3.651970e-01 3.802955e-01 3.508490e-01 4.977022e-01 4.948204e-01 4.615906e-01 4.884433e-01 3.909418e-01 4.133207e-01 3.925774e-01 4.229692e-01 4.157541e-01 3.282118e-01 2.968622e-01 4.512437e-01 4.730559e-01 5.916486e-01 3.841628e-01 4.024785e-01 3.901170e-01 2.837260e-01 2.761104e-01 2.650890e-01 3.303772e-01 2.801607e-01 3.875631e-01 2.780200e-01 4.690602e-01 2.820221e-01 4.463856e-01 4.415814e-01 3.858040e-01 4.147493e-01 3.379500e-01 4.807031e-01 3.928895e-01 3.857019e-01 2.196550e-01 5.227759e-01 3.120986e-01 4.494371e-01 4.209476e-01 3.929522e-01 3.046712e-01 5.620770e-01 5.049640e-01 3.993534e-01 4.272507e-01 3.599720e-01 5.273035e-01 3.065630e-01 4.165586e-01 5.100691e-01 3.159658e-01 5.192867e-01 5.850190e-01 4.198547e-01 4.104080e-01 4.899423e-01 4.106339e-01 5.319815e-01 4.302111e-01 4.151213e-01 4.549764e-01 3.995235e-01 3.660974e-01 3.425682e-01 4.833807e-01 3.482971e-01 5.566870e-01 4.236304e-01 4.416941e-01 4.445826e-01 4.740543e-01 3.638590e-01 4.531361e-01 3.906682e-01 3.663186e-01 3.863949e-01 4.686789e-01 4.283072e-01 3.133756e-01 3.267515e-01 4.212842e-01 3.273732e-01 4.870411e-01 3.699908e-01 3.099659e-01 3.135849e-01 3.110991e-01 3.941571e-01 2.728473e-01 4.139499e-01 4.309465e-01 4.119871e-01 3.665282e-01 3.740494e-01 2.821215e-01 3.794715e-01 4.319370e-01 3.950534e-01 3.772686e-01 4.464135e-01 4.089224e-01 4.343925e-01 5.346949e-01 4.984206e-01 4.786466e-01 4.890455e-01 4.856021e-01 3.987665e-01 3.437526e-01 3.371081e-01 4.921336e-01 4.381467e-01 3.761030e-01 5.268607e-01 4.050222e-01 3.278556e-01 3.737830e-01 5.090469e-01 3.766024e-01 3.548737e-01 3.286186e-01 4.797003e-01 5.358129e-01
<VARIANCE> 142
 2.000000e-01 2.000000e-01 2.000000e-01 2.000000e-01 2.000000e-01 2.000000e-01 2.000000e-01 2.000000e-01 2.000000e-01 2.000000e-01 2.000000e-01 2.000000e-01 2.000000e-01 2.000000e-01 2.000000e-01 2.000000e-01 2.000000e-01 2.000000e-01 2.000000e-01 2.000000e-01 2.000000e-01 2.000000e-01 2.000000e-01 2.000000e-01 2.000000e-01 2.000000e-01 2.000000e-01 2.000000e-01 2.000000e-01 2.000000e-01 2.000000e-01 2.000000e-01 2.000000e-01 2.000000e-01 2.000000e-01 2.000000e-01 2.000000e-01 2.000000e-01 2.000000e-01 2.000000e-01 2.000000e-01 2.000000e-01 2.000000e-01 2.000000e-01 2.000000e-01 2.000000e-01 2.000000e-01 2.000000e-01 2.000000e-01 2.000000e-01 2.000000e-01 2.000000e-01 2.000000e-01 2.000000e-01 2.000000e-01 2.000000e-01 2.000000e-01 2.000000e-01 2.000000e-01 2.000000e-01 2.000000e-01 2.000000e-01 2.000000e-01 2.000000e-01 2.000000e-01 2.000000e-01 2.000000e-01 2.000000e-01 2.000000e-01 2.000000e-01 2.000000e-01 2.000000e-01 2.000000e-01 2.000000e-01 2.000000e-01 2.000000e-01 2.000000e-01 2.000000e-01 2.000000e-01 2.000000e-01 2.000000e-01 2.000000e-01 2.000000e-01 2.000000e-01 2.000000e-01 2.000000e-01 2.000000e-01 2.000000e-01 2.000000e-01 2.000000e-01 2.000000e-01 2.000000e-01 2.000000e-01 2.000000e-01 2.000000e-01 2.000000e-01 2.000000e-01 2.000000e-01 2.000000e-01 2.000000e-01 2.000000e-01 2.000000e-01 2.000000e-01 2.000000e-01 2.000000e-01 2.000000e-01 2.000000e-01 2.000000e-01 2.000000e-01 2.000000e-01 2.000000e-01 2.000000e-01 2.000000e-01 2.000000e-01 2.000000e-01 2.000000e-01 2.000000e-01 2.000000e-01 2.000000e-01 2.000000e-01 2.000000e-01 2.000000e-01 2.000000e-01 2.000000e-01 2.000000e-01 2.000000e-01 2.000000e-01 2.000000e-01 2.000000e-01 2.000000e-01 2.000000e-01 2.000000e-01 2.000000e-01 2.000000e-01 2.000000e-01 2.000000e-01 2.000000e-01 2.000000e-01 2.000000e-01 2.000000e-01 2.000000e-01 2.000000e-01
<GCONST> 3.243863e+01
<TRANSP> 4
 0.000000e+00 1.000000e+00 0.000000e+00 0.000000e+00
 0.000000e+00 8.599924e-01 1.400076e-01 0.000000e+00
 0.000000e+00 0.000000e+00 8.640848e-01 1.359152e-01
 0.000000e+00 0.000000e+00 0.000000e+00 0.000000e+00
<ENDHMM>
