~o
<STREAMINFO> 1 142
<VECSIZE> 142<NULLD><USER><DIAGC>
~h "respect"
<BEGINHMM>
<NUMSTATES> 4
<STATE> 2
<MEAN> 142
 8.372651e-01 4.184785e-01 3.997651e-01 3.433698e-01 2.644746e-01 3.688477e-01 4.568413e-01 3.836262e-01 3.617114e-01 3.569665e-01 4.449187e-01 5.174432e-01 4.357023e-01 4.359970e-01 3.240225e-01 3.298267e-01 3.630230e-01 4.103512e-01 3.467153e-01 4.532796e-01 4.867700e-01 4.461675e-01 4.379615e-01 3.881020e-01 4.255426e-01 4.158058e-01 4.288054e-01 4.008460e-01 3.271888e-01 3.717804e-01 4.441257e-01 5.090647e-01 5.568690e-01 3.470956e-01 4.280848e-01 3.913228e-01 2.861270e-01 3.395208e-01 2.746034e-01 2.472801e-01 3.057793e-01 3.773546e-01 3.056637e-01 4.579551e-01 2.712910e-01 4.311021e-01 4.102800e-01 3.726658e-01 3.807424e-01 4.038504e-01 5.410883e-01 4.365175e-01 4.389272e-01 3.035424e-01 5.383928e-01 2.964106e-01 5.325769e-01 3.750388e-01 4.003287e-01 2.902030e-01 4.852554e-01 4.654485e-01 3.963341e-01 4.624649e-01 4.081168e-01 4.799583e-01 3.665453e-01 4.062584e-01 5.194525e-01 3.945192e-01 4.714695e-01 6.124794e-01 4.649035e-01 4.242248e-01 4.425738e-01 4.531520e-01 5.204438e-01 4.266081e-01 4.251465e-01 3.739539e-01 3.842177e-01 4.042236e-01 3.734245e-01 4.937877e-01 2.807197e-01 5.644983e-01 4.367226e-01 4.698308e-01 4.308459e-01 4.754799e-01 4.417461e-01 5.232924e-01 3.653650e-01 4.040014e-01 3.702035e-01 4.446187e-01 3.799987e-01 3.511192e-01 3.224861e-01 4.282661e-01 3.078605e-01 5.019646e-01 4.215459e-01 3.389125e-01 3.125705e-01 3.678118e-01 4.650417e-01 3.578610e-01 4.161032e-01 3.628674e-01 4.786374e-01 4.614696e-01 3.045696e-01 3.160210e-01 3.471208e-01 4.544540e-01 4.417957e-01 3.667576e-01 4.334428e-01 4.884563e-01 4.850824e-01 5.344194e-01 4.911852e-01 5.771464e-01 4.363495e-01 4.680180e-01 4.112064e-01 3.624359e-01 3.355233e-01 4.729222e-01 3.630411e-01 3.825080e-01 5.947425e-01 3.812088e-01 3.250300e-01 3.723086e-01 4.781711e-01 3.540544e-01 2.836098e-01 3.427538e-01 5.007008e-01 4.654243e-01
<VARIANCE> 142
 2.000000e-01 2.000000e-01 2.000000e-01 2.000000e-01 2.000000e-01 2.000000e-01 2.000000e-01 2.000000e-01 2.000000e-01 2.000000e-01 2.000000e-01 2.000000e-01 2.000000e-01 2.000000e-01 2.000000e-01 2.000000e-01 2.000000e-01 2.000000e-01 2.000000e-01 2.000000e-01 2.000000e-01 2.000000e-01 2.000000e-01 2.000000e-01 2.000000e-01 2.000000e-01 2.000000e-01 2.000000e-01 2.000000e-01 2.000000e-01 2.000000e-01 2.000000e-01 2.000000e-01 2.000000e-01 2.000000e-01 2.000000e-01 2.000000e-01 2.000000e-01 2.000000e-01 2.000000e-01 2.000000e-01 2.000000e-01 2.000000e-01 2.000000e-01 2.000000e-01 2.000000e-01 2.000000e-01 2.000000e-01 2.000000e-01 2.000000e-01 2.000000e-01 2.000000e-01 2.000000e-01 2.000000e-01 2.000000e-01 2.000000e-01 2.000000e-01 2.000000e-01 2.000000e-01 2.000000e-01 2.000000e-01 2.000000e-01 2.000000e-01 2.000000e-01 2.000000e-01 2.000000e-01 2.000000e-01 2.000000e-01 2.000000e-01 2.000000e-01 2.000000e-01 2.000000e-01 2.000000e-01 2.000000e-01 2.000000e-01 2.000000e-01 2.000000e-01 2.000000e-01 2.000000e-01 2.000000e-01 2.000000e-01 2.000000e-01 2.000000e-01 2.000000e-01 2.000000e-01 2.000000e-01 2.000000e-01 2.000000e-01 2.000000e-01 2.000000e-01 2.000000e-01 2.000000e-01 2.000000e-01 2.000000e-01 2.000000e-01 2.000000e-01 2.000000e-01 2.000000e-01 2.000000e-01 2.000000e-01 2.000000e-01 2.000000e-01 2.000000e-01 2.000000e-01 2.000000e-01 2.000000e-01 2.000000e-01 2.000000e-01 2.000000e-01 2.000000e-01 2.000000e-01 2.000000e-01 2.000000e-01 2.000000e-01 2.000000e-01 2.000000e-01 2.000000e-01 2.000000e-01 2.000000e-01 2.000000e-01 2.000000e-01 2.000000e-01 2.000000e-01 2.000000e-01 2.000000e-01 2.000000e-01 2.000000e-01 2.000000e-01 2.000000e-01 2.000000e-01 2.000000e-01 2.000000e-01 2.000000e-01 2.000000e-01 2.000000e-01 2.000000e-01 2.000000e-01 2.000000e-01 2.000000e-01 2.000000e-01 2.000000e-01 2.000000e-01
<GCONST> 3.243863e+01
<STATE> 3
<MEAN> 142
 5.035483e-01 3.899219e-01 3.838706e-01 3.555172e-01 3.443949e-01 3.013609e-01 3.456328e-01 3.513982e-01 4.412230e-01 4.657277e-01 4.925278e-01 3.895803e-01 3.518381e-01 5.119752e-01 3.761686e-01 3.950181e-01 4.164882e-01 3.448049e-01 3.275979e-01 3.610967e-01 5.063012e-01 4.985070e-01 4.000551e-01 4.738626e-01 5.095745e-01 3.862431e-01 4.277476e-01 3.232588e-01 4.475655e-01 3.849697e-01 4.867825e-01 4.194161e-01 3.548985e-01 5.499676e-01 4.421736e-01 3.664062e-01 4.011953e-01 3.800303e-01 4.359519e-01 3.681312e-01 4.030475e-01 5.026436e-01 3.153121e-01 3.289035e-01 2.155036e-01 3.283738e-01 4.778718e-01 4.717181e-01 4.479211e-01 3.342064e-01 5.185573e-01 4.511206e-01 4.428947e-01 3.018667e-01 3.954141e-01 4.256070e-01 4.757799e-01 3.771895e-01 3.926400e-01 3.388388e-01 4.108712e-01 4.417565e-01 4.158951e-01 4.296649e-01 4.019729e-01 4.196299e-01 4.087941e-01 4.776079e-01 4.055325e-01 4.527434e-01 4.295289e-01 3.690779e-01 4.086791e-01 4.136462e-01 2.734009e-01 3.459318e-01 4.294927e-01 4.410182e-01 5.391085e-01 5.210665e-01 4.382285e-01 3.922231e-01 3.701533e-01 4.383071e-01 3.241709e-01 3.408377e-01 3.825975e-01 4.192450e-01 4.633065e-01 3.201818e-01 3.202972e-01 2.894446e-01 3.921141e-01 3.488913e-01 4.465087e-01 4.203990e-01 4.231008e-01 3.182445e-01 5.402396e-01 4.642141e-01 4.420884e-01 4.917851e-01 3.678957e-01 3.975229e-01 3.948587e-01 3.805480e-01 3.666587e-01 4.573484e-01 4.402633e-01 4.495610e-01 3.680962e-01 3.613642e-01 3.358313e-01 4.099055e-01 3.070986e-01 3.297563e-01 3.094658e-01 4.923424e-01 4.170997e-01 4.646675e-01 4.590154e-01 4.275894e-01 4.113429e-01 2.795428e-01 4.397719e-01 3.733419e-01 3.586529e-01 3.813592e-01 3.472369e-01 4.411082e-01 3.993370e-01 3.981484e-01 3.157433e-01 4.217483e-01 4.316111e-01 5.146062e-01 4.102541e-01 4.186526e-01 4.350028e-01 3.940186e-01 4.163013e-01 3.910601e-01
<VARIANCE> 142
 2.000000e-01 2.000000e-01 2.000000e-01 2.000000e-01 2.000000e-01 2.000000e-01 2.000000e-01 2.000000e-01 2.000000e-01 2.000000e-01 2.000000e-01 2.000000e-01 2.000000e-01 2.000000e-01 2.000000e-01 2.000000e-01 2.000000e-01 2.000000e-01 2.000000e-01 2.000000e-01 2.000000e-01 2.000000e-01 2.000000e-01 2.000000e-01 2.000000e-01 2.000000e-01 2.000000e-01 2.000000e-01 2.000000e-01 2.000000e-01 2.000000e-01 2.000000e-01 2.000000e-01 2.000000e-01 2.000000e-01 2.000000e-01 2.000000e-01 2.000000e-01 2.000000e-01 2.000000e-01 2.000000e-01 2.000000e-01 2.000000e-01 2.000000e-01 2.000000e-01 2.000000e-01 2.000000e-01 2.000000e-01 2.000000e-01 2.000000e-01 2.000000e-01 2.000000e-01 2.000000e-01 2.000000e-01 2.000000e-01 2.000000e-01 2.000000e-01 2.000000e-01 2.000000e-01 2.000000e-01 2.000000e-01 2.000000e-01 2.000000e-01 2.000000e-01 2.000000e-01 2.000000e-01 2.000000e-01 2.000000e-01 2.000000e-01 2.000000e-01 2.000000e-01 2.000000e-01 2.000000e-01 2.000000e-01 2.000000e-01 2.000000e-01 2.000000e-01 2.000000e-01 2.000000e-01 2.000000e-01 2.000000e-01 2.000000e-01 2.000000e-01 2.000000e-01 2.000000e-01 2.000000e-01 2.000000e-01 2.000000e-01 2.000000e-01 2.000000e-01 2.000000e-01 2.000000e-01 2.000000e-01 2.000000e-01 2.000000e-01 2.000000e-01 2.000000e-01 2.000000e-01 2.000000e-01 2.000000e-01 2.000000e-01 2.000000e-01 2.000000e-01 2.000000e-01 2.000000e-01 2.000000e-01 2.000000e-01 2.000000e-01 2.000000e-01 2.000000e-01 2.000000e-01 2.000000e-01 2.000000e-01 2.000000e-01 2.000000e-01 2.000000e-01 2.000000e-01 2.000000e-01 2.000000e-01 2.000000e-01 2.000000e-01 2.000000e-01 2.000000e-01 2.000000e-01 2.000000e-01 2.000000e-01 2.000000e-01 2.000000e-01 2.000000e-01 2.000000e-01 2.000000e-01 2.000000e-01 2.000000e-01 2.000000e-01 2.000000e-01 2.000000e-01 2.000000e-01 2.000000e-01 2.000000e-01 2.000000e-01 2.000000e-01 2.000000e-01
<GCONST> 3.243863e+01
<TRANSP> 4
 0.000000e+00 1.000000e+00 0.000000e+00 0.000000e+00
 0.000000e+00 8.344523e-01 1.655477e-01 0.000000e+00
 0.000000e+00 0.000000e+00 8.908231e-01 1.091769e-01
 0.000000e+00 0.000000e+00 0.000000e+00 0.000000e+00
<ENDHMM>
