~o
<STREAMINFO> 1 142
<VECSIZE> 142<NULLD><USER><DIAGC>
~h "restaurant"
<BEGINHMM>
<NUMSTATES> 4
<STATE> 2
<MEAN> 142
 5.781330e-01 3.515842e-01 3.919054e-01 2.981758e-01 2.735252e-01 2.327485e-01 3.245057e-01 2.505832e-01 3.485852e-01 4.204723e-01 3.831144e-01 3.783142e-01 3.892579e-01 4.061582e-01 3.579012e-01 2.833197e-01 3.995316e-01 3.638951e-01 2.405773e-01 3.181233e-01 4.455291e-01 4.603319e-01 3.056194e-01 4.905827e-01 4.587681e-01 3.747894e-01 3.509449e-01 3.597461e-01 4.191327e-01 3.683846e-01 4.487126e-01 4.000431e-01 3.500856e-01 4.851851e-01 4.366878e-01 3.220076e-01 3.391263e-01 3.259515e-01 3.749680e-01 2.698561e-01 3.563443e-01 5.077038e-01 3.210026e-01 2.290917e-01 1.567179e-01 3.927703e-01 4.852341e-01 3.748323e-01 4.199078e-01 2.707087e-01 4.391912e-01 3.190916e-01 3.754424e-01 3.136876e-01 4.880557e-01 3.695257e-01 3.352076e-01 2.556661e-01 3.274307e-01 2.836249e-01 4.112532e-01 4.830031e-01 3.511171e-01 3.181247e-01 3.547455e-01 4.267394e-01 2.794685e-01 3.421694e-01 3.509660e-01 3.264867e-01 4.409324e-01 3.640455e-01 4.024593e-01 3.912723e-01 2.108829e-01 3.453126e-01 4.178904e-01 4.581153e-01 4.538209e-01 3.934529e-01 4.333637e-01 4.167661e-01 4.038761e-01 4.209733e-01 3.012747e-01 3.630899e-01 4.141137e-01 4.158660e-01 4.563458e-01 3.108953e-01 3.265302e-01 2.604315e-01 3.685206e-01 3.148786e-01 4.487928e-01 4.316560e-01 4.479608e-01 2.768435e-01 4.636989e-01 4.036264e-01 3.862951e-01 4.475604e-01 3.737463e-01 3.855887e-01 3.130295e-01 3.142848e-01 3.197745e-01 3.857687e-01 3.465914e-01 3.397616e-01 3.512554e-01 3.206814e-01 3.136683e-01 3.784770e-01 3.925542e-01 3.847533e-01 3.695894e-01 4.553189e-01 4.076081e-01 3.485448e-01 4.526571e-01 5.022510e-01 4.320925e-01 3.540745e-01 3.498744e-01 4.008944e-01 3.602997e-01 3.219393e-01 3.246398e-01 3.524139e-01 3.414712e-01 3.923520e-01 3.404179e-01 3.640143e-01 3.816800e-01 4.577194e-01 4.386341e-01 4.374412e-01 3.368192e-01 4.477712e-01 4.769546e-01 4.392742e-01
<VARIANCE> 142
 2.000000e-01 2.000000e-01 2.000000e-01 2.000000e-01 2.000000e-01 2.000000e-01 2.000000e-01 2.000000e-01 2.000000e-01 2.000000e-01 2.000000e-01 2.000000e-01 2.000000e-01 2.000000e-01 2.000000e-01 2.000000e-01 2.000000e-01 2.000000e-01 2.000000e-01 2.000000e-01 2.000000e-01 2.000000e-01 2.000000e-01 2.000000e-01 2.000000e-01 2.000000e-01 2.000000e-01 2.000000e-01 2.000000e-01 2.000000e-01 2.000000e-01 2.000000e-01 2.000000e-01 2.000000e-01 2.000000e-01 2.000000e-01 2.000000e-01 2.000000e-01 2.000000e-01 2.000000e-01 2.000000e-01 2.000000e-01 2.000000e-01 2.000000e-01 2.000000e-01 2.000000e-01 2.000000e-01 2.000000e-01 2.000000e-01 2.000000e-01 2.000000e-01 2.000000e-01 2.000000e-01 2.000000e-01 2.000000e-01 2.000000e-01 2.000000e-01 2.000000e-01 2.000000e-01 2.000000e-01 2.000000e-01 2.000000e-01 2.000000e-01 2.000000e-01 2.000000e-01 2.000000e-01 2.000000e-01 2.000000e-01 2.000000e-01 2.000000e-01 2.000000e-01 2.000000e-01 2.000000e-01 2.000000e-01 2.000000e-01 2.000000e-01 2.000000e-01 2.000000e-01 2.000000e-01 2.000000e-01 2.000000e-01 2.000000e-01 2.000000e-01 2.000000e-01 2.000000e-01 2.000000e-01 2.000000e-01 2.000000e-01 2.000000e-01 2.000000e-01 2.000000e-01 2.000000e-01 2.000000e-01 2.000000e-01 2.000000e-01 2.000000e-01 2.000000e-01 2.000000e-01 2.000000e-01 2.000000e-01 2.000000e-01 2.000000e-01 2.000000e-01 2.000000e-01 2.000000e-01 2.000000e-01 2.000000e-01 2.000000e-01 2.000000e-01 2.000000e-01 2.000000e-01 2.000000e-01 2.000000e-01 2.000000e-01 2.000000e-01 2.000000e-01 2.000000e-01 2.000000e-01 2.000000e-01 2.000000e-01 2.000000e-01 2.000000e-01 2.000000e-01 2.000000e-01 2.000000e-01 2.000000e-01 2.000000e-01 2.000000e-01 2.000000e-01 2.000000e-01 2.000000e-01 2.000000e-01 2.000000e-01 2.000000e-01 2.000000e-01 2.000000e-01 2.000000e-01 2.000000e-01 2.000000e-01 2.000000e-01 2.000000e-01 2.000000e-01
<GCONST> 3.243863e+01
<STATE> 3
<MEAN> 142
 9.236111e-01 3.987276e-01 4.206305e-01 3.492033e-01 2.139506e-01 3.441972e-01 4.394638e-01 3.825759e-01 3.090918e-01 3.420963e-01 4.254945e-01 4.553005e-01 4.532782e-01 4.184723e-01 2.072100e-01 3.012410e-01 3.682193e-01 4.001436e-01 3.712236e-01 4.657269e-01 4.838914e-01 5.032517e-01 4.501825e-01 4.340267e-01 4.044966e-01 3.932284e-01 4.057685e-01 3.830397e-01 3.420952e-01 3.250006e-01 4.347070e-01 5.064645e-01 5.541160e-01 3.823834e-01 3.968764e-01 3.695509e-01 2.580507e-01 3.500825e-01 3.113302e-01 2.469331e-01 3.019375e-01 4.144475e-01 3.088521e-01 5.021057e-01 2.404551e-01 4.075760e-01 4.406227e-01 3.507468e-01 3.953161e-01 3.963954e-01 5.216491e-01 4.811665e-01 4.045746e-01 2.817596e-01 5.916364e-01 3.018047e-01 5.061109e-01 3.907551e-01 3.891000e-01 2.197500e-01 5.229556e-01 4.944523e-01 3.837281e-01 4.348135e-01 3.496634e-01 4.750525e-01 3.351400e-01 3.713179e-01 4.750757e-01 3.306634e-01 5.013271e-01 5.281321e-01 4.640006e-01 4.162090e-01 4.557742e-01 4.417520e-01 4.997156e-01 5.051915e-01 4.411387e-01 4.327398e-01 4.112946e-01 3.924682e-01 3.790782e-01 4.812905e-01 2.390630e-01 4.973094e-01 4.002382e-01 4.499457e-01 3.926901e-01 3.265814e-01 4.335127e-01 3.914860e-01 3.862189e-01 4.211373e-01 4.144468e-01 4.737350e-01 4.002994e-01 3.647192e-01 3.420131e-01 4.229119e-01 3.524744e-01 5.247933e-01 3.938401e-01 2.873626e-01 3.157959e-01 3.356555e-01 4.491535e-01 3.680933e-01 4.148991e-01 3.585636e-01 4.689012e-01 4.227868e-01 3.335710e-01 3.144876e-01 3.589908e-01 4.194299e-01 4.097000e-01 4.179421e-01 4.349877e-01 4.626361e-01 4.543399e-01 5.771094e-01 5.673879e-01 4.432587e-01 4.612831e-01 4.734119e-01 3.970689e-01 3.623354e-01 3.292725e-01 4.256377e-01 4.059809e-01 4.048003e-01 5.373449e-01 4.019254e-01 3.150522e-01 3.643044e-01 4.891009e-01 3.548307e-01 2.771229e-01 3.504699e-01 5.416512e-01 5.275301e-01
<VARIANCE> 142
 2.000000e-01 2.000000e-01 2.000000e-01 2.000000e-01 2.000000e-01 2.000000e-01 2.000000e-01 2.000000e-01 2.000000e-01 2.000000e-01 2.000000e-01 2.000000e-01 2.000000e-01 2.000000e-01 2.000000e-01 2.000000e-01 2.000000e-01 2.000000e-01 2.000000e-01 2.000000e-01 2.000000e-01 2.000000e-01 2.000000e-01 2.000000e-01 2.000000e-01 2.000000e-01 2.000000e-01 2.000000e-01 2.000000e-01 2.000000e-01 2.000000e-01 2.000000e-01 2.000000e-01 2.000000e-01 2.000000e-01 2.000000e-01 2.000000e-01 2.000000e-01 2.000000e-01 2.000000e-01 2.000000e-01 2.000000e-01 2.000000e-01 2.000000e-01 2.000000e-01 2.000000e-01 2.000000e-01 2.000000e-01 2.000000e-01 2.000000e-01 2.000000e-01 2.000000e-01 2.000000e-01 2.000000e-01 2.000000e-01 2.000000e-01 2.000000e-01 2.000000e-01 2.000000e-01 2.000000e-01 2.000000e-01 2.000000e-01 2.000000e-01 2.000000e-01 2.000000e-01 2.000000e-01 2.000000e-01 2.000000e-01 2.000000e-01 2.000000e-01 2.000000e-01 2.000000e-01 2.000000e-01 2.000000e-01 2.000000e-01 2.000000e-01 2.000000e-01 2.000000e-01 2.000000e-01 2.000000e-01 2.000000e-01 2.000000e-01 2.000000e-01 2.000000e-01 2.000000e-01 2.000000e-01 2.000000e-01 2.000000e-01 2.000000e-01 2.000000e-01 2.000000e-01 2.000000e-01 2.000000e-01 2.000000e-01 2.000000e-01 2.000000e-01 2.000000e-01 2.000000e-01 2.000000e-01 2.000000e-01 2.000000e-01 2.000000e-01 2.000000e-01 2.000000e-01 2.000000e-01 2.000000e-01 2.000000e-01 2.000000e-01 2.000000e-01 2.000000e-01 2.000000e-01 2.000000e-01 2.000000e-01 2.000000e-01 2.000000e-01 2.000000e-01 2.000000e-01 2.000000e-01 2.000000e-01 2.000000e-01 2.000000e-01 2.000000e-01 2.000000e-01 2.000000e-01 2.000000e-01 2.000000e-01 2.000000e-01 2.000000e-01 2.000000e-01 2.000000e-01 2.000000e-01 2.000000e-01 2.000000e-01 2.000000e-01 2.000000e-01 2.000000e-01 2.000000e-01 2.000000e-01 2.000000e-01 2.000000e-01 2.000000e-01 2.000000e-01
<GCONST> 3.243863e+01
<TRANSP> 4
 0.000000e+00 1.000000e+00 0.000000e+00 0.000000e+00
 0.000000e+00 8.939205e-01 1.060794e-01 0.000000e+00
 0.000000e+00 0.000000e+00 8.234469e-01 1.765531e-01
 0.000000e+00 0.000000e+00 0.000000e+00 0.000000e+00
<ENDHMM>
