~o
<STREAMINFO> 1 142
<VECSIZE> 142<NULLD><USER><DIAGC>
~h "senate"
<BEGINHMM>
<NUMSTATES> 4
<STATE> 2
<MEAN> 142
 7.705884e-01 3.356608e-01 4.455215e-01 3.477529e-01 3.381088e-01 4.455059e-01 3.889575e-01 3.864149e-01 3.166511e-01 4.206147e-01 4.867599e-01 3.893369e-01 3.717907e-01 4.530339e-01 2.765009e-01 3.480411e-01 3.603174e-01 3.445945e-01 3.715817e-01 4.412825e-01 5.248396e-01 5.242323e-01 4.622505e-01 4.503499e-01 4.758766e-01 3.939772e-01 4.370735e-01 3.594489e-01 3.639500e-01 3.018705e-01 5.092019e-01 4.251040e-01 4.937138e-01 4.675314e-01 4.206629e-01 4.007879e-01 3.611569e-01 2.911331e-01 3.157347e-01 3.386345e-01 3.108780e-01 3.919186e-01 3.392144e-01 4.425998e-01 2.229583e-01 4.193723e-01 4.529110e-01 4.527044e-01 4.583502e-01 3.386437e-01 5.069370e-01 3.995378e-01 4.279369e-01 2.092281e-01 4.844076e-01 2.825737e-01 4.998862e-01 4.496305e-01 3.733533e-01 3.473061e-01 5.019701e-01 4.804738e-01 3.694270e-01 3.884313e-01 3.578294e-01 5.296504e-01 3.256750e-01 4.307724e-01 4.682798e-01 3.394889e-01 4.959844e-01 4.797566e-01 4.367543e-01 4.384914e-01 4.150625e-01 3.877449e-01 5.146777e-01 5.042105e-01 4.718327e-01 4.926484e-01 3.851780e-01 3.768464e-01 3.367110e-01 5.138197e-01 3.452489e-01 4.866165e-01 4.031937e-01 4.430971e-01 4.753329e-01 3.956029e-01 3.206345e-01 3.851183e-01 3.817502e-01 3.246583e-01 4.097240e-01 4.690927e-01 4.101774e-01 2.902610e-01 4.725156e-01 4.665746e-01 3.857089e-01 5.385712e-01 3.337856e-01 3.112049e-01 3.472280e-01 3.310606e-01 3.698995e-01 3.213431e-01 4.230752e-01 4.551822e-01 3.814757e-01 3.188597e-01 3.410962e-01 3.849570e-01 3.516324e-01 4.467659e-01 3.613586e-01 4.315574e-01 4.011843e-01 4.632858e-01 4.310061e-01 5.236244e-01 4.501641e-01 3.843978e-01 5.115225e-01 4.406412e-01 3.877922e-01 3.116008e-01 2.973697e-01 4.890133e-01 4.315037e-01 4.001553e-01 3.690179e-01 3.944464e-01 3.633728e-01 4.346564e-01 4.720511e-01 3.709863e-01 3.790614e-01 4.093730e-01 4.815383e-01 4.799240e-01
<VARIANCE> 142
 2.000000e-01 2.000000e-01 2.000000e-01 2.000000e-01 2.000000e-01 2.000000e-01 2.000000e-01 2.000000e-01 2.000000e-01 2.000000e-01 2.000000e-01 2.000000e-01 2.000000e-01 2.000000e-01 2.000000e-01 2.000000e-01 2.000000e-01 2.000000e-01 2.000000e-01 2.000000e-01 2.000000e-01 2.000000e-01 2.000000e-01 2.000000e-01 2.000000e-01 2.000000e-01 2.000000e-01 2.000000e-01 2.000000e-01 2.000000e-01 2.000000e-01 2.000000e-01 2.000000e-01 2.000000e-01 2.000000e-01 2.000000e-01 2.000000e-01 2.000000e-01 2.000000e-01 2.000000e-01 2.000000e-01 2.000000e-01 2.000000e-01 2.000000e-01 2.000000e-01 2.000000e-01 2.000000e-01 2.000000e-01 2.000000e-01 2.000000e-01 2.000000e-01 2.000000e-01 2.000000e-01 2.000000e-01 2.000000e-01 2.000000e-01 2.000000e-01 2.000000e-01 2.000000e-01 2.000000e-01 2.000000e-01 2.000000e-01 2.000000e-01 2.000000e-01 2.000000e-01 2.000000e-01 2.000000e-01 2.000000e-01 2.000000e-01 2.000000e-01 2.000000e-01 2.000000e-01 2.000000e-01 2.000000e-01 2.000000e-01 2.000000e-01 2.000000e-01 2.000000e-01 2.000000e-01 2.000000e-01 2.000000e-01 2.000000e-01 2.000000e-01 2.000000e-01 2.000000e-01 2.000000e-01 2.000000e-01 2.000000e-01 2.000000e-01 2.000000e-01 2.000000e-01 2.000000e-01 2.000000e-01 2.000000e-01 2.000000e-01 2.000000e-01 2.000000e-01 2.000000e-01 2.000000e-01 2.000000e-01 2.000000e-01 2.000000e-01 2.000000e-01 2.000000e-01 2.000000e-01 2.000000e-01 2.000000e-01 2.000000e-01 2.000000e-01 2.000000e-01 2.000000e-01 2.000000e-01 2.000000e-01 2.000000e-01 2.000000e-01 2.000000e-01 2.000000e-01 2.000000e-01 2.000000e-01 2.000000e-01 2.000000e-01 2.000000e-01 2.000000e-01 2.000000e-01 2.000000e-01 2.000000e-01 2.000000e-01 2.000000e-01 2.000000e-01 2.000000e-01 2.000000e-01 2.000000e-01 2.000000e-01 2.000000e-01 2.000000e-01 2.000000e-01 2.000000e-01 2.000000e-01 2.000000e-01 2.000000e-01 2.000000e-01 2.000000e-01
<GCONST> 3.243863e+01
<STATE> 3
<MEAN> 142
 5.937997e-01 4.035164e-01 3.267009e-01 3.238961e-01 3.435675e-01 5.225115e-01 4.084538e-01 3.972842e-01 3.628252e-01 4.836081e-01 4.452474e-01 4.691165e-01 4.994260e-01 4.707972e-01 3.951533e-01 3.645158e-01 4.403532e-01 4.301287e-01 2.941174e-01 4.137414e-01 4.214174e-01 3.490801e-01 3.223343e-01 4.100405e-01 4.382054e-01 4.127060e-01 4.373417e-01 4.734216e-01 3.818069e-01 4.811850e-01 4.713566e-01 4.257244e-01 4.199423e-01 3.796496e-01 4.399412e-01 3.990113e-01 4.008573e-01 4.375936e-01 4.161854e-01 4.616571e-01 4.725890e-01 4.384192e-01 3.983698e-01 3.736698e-01 3.355666e-01 4.469515e-01 4.095232e-01 4.779458e-01 4.266040e-01 3.521380e-01 4.927485e-01 4.446460e-01 5.033190e-01 3.315688e-01 4.314953e-01 3.811037e-01 5.500377e-01 3.115614e-01 3.935155e-01 4.034230e-01 5.179025e-01 3.889830e-01 3.851276e-01 3.932150e-01 5.544419e-01 4.137991e-01 5.057916e-01 4.283883e-01 4.815266e-01 4.985199e-01 4.454055e-01 4.978416e-01 4.652452e-01 4.315952e-01 4.309018e-01 4.735721e-01 4.595509e-01 2.960168e-01 4.234300e-01 3.258486e-01 6.013527e-01 3.512769e-01 4.660701e-01 4.139697e-01 4.465312e-01 4.807590e-01 3.975859e-01 4.744270e-01 4.912632e-01 4.457319e-01 3.754629e-01 4.666492e-01 5.807850e-01 3.602872e-01 4.067446e-01 5.391728e-01 5.019893e-01 4.034630e-01 4.455475e-01 3.878499e-01 4.475930e-01 4.029485e-01 3.550856e-01 4.306301e-01 4.423944e-01 3.113514e-01 4.253955e-01 3.932338e-01 4.717114e-01 3.956169e-01 4.000812e-01 4.139849e-01 3.331149e-01 3.593088e-01 3.840875e-01 5.397168e-01 4.425205e-01 3.718353e-01 4.500051e-01 3.723709e-01 4.027582e-01 4.753579e-01 3.312275e-01 5.512694e-01 3.871901e-01 3.806407e-01 5.095807e-01 5.350758e-01 4.012771e-01 4.238193e-01 4.320981e-01 4.472438e-01 5.491502e-01 4.868856e-01 3.715870e-01 4.437143e-01 5.206134e-01 4.975822e-01 4.721451e-01 3.556165e-01 3.925570e-01 4.180900e-01
<VARIANCE> 142
 2.000000e-01 2.000000e-01 2.000000e-01 2.000000e-01 2.000000e-01 2.000000e-01 2.000000e-01 2.000000e-01 2.000000e-01 2.000000e-01 2.000000e-01 2.000000e-01 2.000000e-01 2.000000e-01 2.000000e-01 2.000000e-01 2.000000e-01 2.000000e-01 2.000000e-01 2.000000e-01 2.000000e-01 2.000000e-01 2.000000e-01 2.000000e-01 2.000000e-01 2.000000e-01 2.000000e-01 2.000000e-01 2.000000e-01 2.000000e-01 2.000000e-01 2.000000e-01 2.000000e-01 2.000000e-01 2.000000e-01 2.000000e-01 2.000000e-01 2.000000e-01 2.000000e-01 2.000000e-01 2.000000e-01 2.000000e-01 2.000000e-01 2.000000e-01 2.000000e-01 2.000000e-01 2.000000e-01 2.000000e-01 2.000000e-01 2.000000e-01 2.000000e-01 2.000000e-01 2.000000e-01 2.000000e-01 2.000000e-01 2.000000e-01 2.000000e-01 2.000000e-01 2.000000e-01 2.000000e-01 2.000000e-01 2.000000e-01 2.000000e-01 2.000000e-01 2.000000e-01 2.000000e-01 2.000000e-01 2.000000e-01 2.000000e-01 2.000000e-01 2.000000e-01 2.000000e-01 2.000000e-01 2.000000e-01 2.000000e-01 2.000000e-01 2.000000e-01 2.000000e-01 2.000000e-01 2.000000e-01 2.000000e-01 2.000000e-01 2.000000e-01 2.000000e-01 2.000000e-01 2.000000e-01 2.000000e-01 2.000000e-01 2.000000e-01 2.000000e-01 2.000000e-01 2.000000e-01 2.000000e-01 2.000000e-01 2.000000e-01 2.000000e-01 2.000000e-01 2.000000e-01 2.000000e-01 2.000000e-01 2.000000e-01 2.000000e-01 2.000000e-01 2.000000e-01 2.000000e-01 2.000000e-01 2.000000e-01 2.000000e-01 2.000000e-01 2.000000e-01 2.000000e-01 2.000000e-01 2.000000e-01 2.000000e-01 2.000000e-01 2.000000e-01 2.000000e-01 2.000000e-01 2.000000e-01 2.000000e-01 2.000000e-01 2.000000e-01 2.000000e-01 2.000000e-01 2.000000e-01 2.000000e-01 2.000000e-01 2.000000e-01 2.000000e-01 2.000000e-01 2.000000e-01 2.000000e-01 2.000000e-01 2.000000e-01 2.000000e-01 2.000000e-01 2.000000e-01 2.000000e-01 2.000000e-01 2.000000e-01 2.000000e-01 2.000000e-01
<GCONST> 3.243863e+01
<TRANSP> 4
 0.000000e+00 1.000000e+00 0.000000e+00 0.000000e+00
 0.000000e+00 8.896781e-01 1.103219e-01 0.000000e+00
 0.000000e+00 0.000000e+00 8.175541e-01 1.824460e-01
 0.000000e+00 0.000000e+00 0.000000e+00 0.000000e+00
<ENDHMM>
