~o
<STREAMINFO> 1 142
<VECSIZE> 142<NULLD><USER><DIAGC>
~h "sick"
<BEGINHMM>
<NUMSTATES> 4
<STATE> 2
<MEAN> 142
 5.308726e-01 3.254723e-01 3.917100e-01 3.406422e-01 3.510931e-01 3.434119e-01 3.982680e-01 3.440166e-01 3.255975e-01 4.397874e-01 4.424190e-01 3.925175e-01 4.080299e-01 4.544385e-01 4.301471e-01 3.584758e-01 4.244754e-01 4.232934e-01 2.844782e-01 3.429664e-01 5.240567e-01 5.306132e-01 3.338488e-01 5.204882e-01 4.750023e-01 3.761601e-01 3.930757e-01 4.252433e-01 4.657444e-01 3.880797e-01 4.938969e-01 4.500853e-01 3.696885e-01 4.910243e-01 4.306407e-01 4.504639e-01 3.931264e-01 4.218894e-01 4.695549e-01 4.165582e-01 4.096578e-01 4.802246e-01 3.120816e-01 3.452596e-01 2.001247e-01 3.639548e-01 5.037312e-01 5.063328e-01 5.504937e-01 2.962538e-01 4.605752e-01 4.404640e-01 4.323075e-01 2.352920e-01 4.627417e-01 3.768967e-01 4.228108e-01 3.329691e-01 3.948834e-01 3.824957e-01 4.190958e-01 4.323425e-01 3.234720e-01 3.534114e-01 3.888462e-01 4.355060e-01 4.360879e-01 4.570513e-01 3.720056e-01 4.282911e-01 4.295359e-01 3.383713e-01 3.938917e-01 4.001534e-01 3.146106e-01 3.656745e-01 4.326000e-01 4.690409e-01 4.695578e-01 4.414356e-01 4.804363e-01 4.287862e-01 4.789585e-01 4.666681e-01 3.763700e-01 4.260211e-01 3.364943e-01 3.805124e-01 4.740198e-01 3.694436e-01 3.140759e-01 2.884493e-01 4.352307e-01 3.054550e-01 4.600712e-01 4.167779e-01 5.080103e-01 3.290627e-01 5.359169e-01 4.010751e-01 4.193869e-01 5.011741e-01 2.967311e-01 4.079028e-01 3.598852e-01 3.070204e-01 3.584032e-01 4.123236e-01 3.647461e-01 4.398301e-01 3.551077e-01 3.604529e-01 3.530131e-01 4.321010e-01 3.893071e-01 3.844076e-01 3.524370e-01 4.689875e-01 3.755659e-01 3.775641e-01 4.233171e-01 4.802816e-01 4.398100e-01 4.069769e-01 4.341018e-01 4.021432e-01 4.146379e-01 4.150756e-01 3.029687e-01 3.646599e-01 4.429312e-01 5.312355e-01 3.379762e-01 4.688834e-01 5.265474e-01 4.853370e-01 4.652827e-01 5.227955e-01 4.477243e-01 4.894426e-01 5.015818e-01 4.057112e-01
<VARIANCE> 142
 2.000000e-01 2.000000e-01 2.000000e-01 2.000000e-01 2.000000e-01 2.000000e-01 2.000000e-01 2.000000e-01 2.000000e-01 2.000000e-01 2.000000e-01 2.000000e-01 2.000000e-01 2.000000e-01 2.000000e-01 2.000000e-01 2.000000e-01 2.000000e-01 2.000000e-01 2.000000e-01 2.000000e-01 2.000000e-01 2.000000e-01 2.000000e-01 2.000000e-01 2.000000e-01 2.000000e-01 2.000000e-01 2.000000e-01 2.000000e-01 2.000000e-01 2.000000e-01 2.000000e-01 2.000000e-01 2.000000e-01 2.000000e-01 2.000000e-01 2.000000e-01 2.000000e-01 2.000000e-01 2.000000e-01 2.000000e-01 2.000000e-01 2.000000e-01 2.000000e-01 2.000000e-01 2.000000e-01 2.000000e-01 2.000000e-01 2.000000e-01 2.000000e-01 2.000000e-01 2.000000e-01 2.000000e-01 2.000000e-01 2.000000e-01 2.000000e-01 2.000000e-01 2.000000e-01 2.000000e-01 2.000000e-01 2.000000e-01 2.000000e-01 2.000000e-01 2.000000e-01 2.000000e-01 2.000000e-01 2.000000e-01 2.000000e-01 2.000000e-01 2.000000e-01 2.000000e-01 2.000000e-01 2.000000e-01 2.000000e-01 2.000000e-01 2.000000e-01 2.000000e-01 2.000000e-01 2.000000e-01 2.000000e-01 2.000000e-01 2.000000e-01 2.000000e-01 2.000000e-01 2.000000e-01 2.000000e-01 2.000000e-01 2.000000e-01 2.000000e-01 2.000000e-01 2.000000e-01 2.000000e-01 2.000000e-01 2.000000e-01 2.000000e-01 2.000000e-01 2.000000e-01 2.000000e-01 2.000000e-01 2.000000e-01 2.000000e-01 2.000000e-01 2.000000e-01 2.000000e-01 2.000000e-01 2.000000e-01 2.000000e-01 2.000000e-01 2.000000e-01 2.000000e-01 2.000000e-01 2.000000e-01 2.000000e-01 2.000000e-01 2.000000e-01 2.000000e-01 2.000000e-01 2.000000e-01 2.000000e-01 2.000000e-01 2.000000e-01 2.000000e-01 2.000000e-01 2.000000e-01 2.000000e-01 2.000000e-01 2.000000e-01 2.000000e-01 2.000000e-01 2.000000e-01 2.000000e-01 2.000000e-01 2.000000e-01 2.000000e-01 2.000000e-01 2.000000e-01 2.000000e-01 2.000000e-01 2.000000e-01 2.000000e-01 2.000000e-01
<GCONST> 3.243863e+01
<STATE> 3
<MEAN> 142
 7.102717e-01 3.260836e-01 3.528843e-01 2.667895e-01 2.614349e-01 5.031601e-01 4.291777e-01 3.142376e-01 3.990423e-01 4.109687e-01 4.120373e-01 4.681846e-01 4.676377e-01 4.206885e-01 2.911837e-01 2.917497e-01 3.755957e-01 3.886404e-01 3.730406e-01 4.529246e-01 4.613392e-01 4.166707e-01 4.616511e-01 3.742080e-01 4.378335e-01 4.745038e-01 3.800367e-01 3.920569e-01 3.822057e-01 4.552667e-01 4.952601e-01 3.834447e-01 4.315099e-01 3.960213e-01 4.153327e-01 3.161069e-01 2.323858e-01 3.767292e-01 2.965053e-01 3.414105e-01 3.822623e-01 3.608297e-01 3.655950e-01 3.766586e-01 2.924625e-01 3.720267e-01 3.550268e-01 3.936990e-01 3.751578e-01 3.960446e-01 5.102798e-01 4.775693e-01 4.660261e-01 3.261980e-01 4.824564e-01 3.320560e-01 4.511804e-01 3.747533e-01 4.503416e-01 3.403202e-01 4.927112e-01 3.734966e-01 3.669165e-01 4.335851e-01 4.237852e-01 4.147519e-01 4.195495e-01 4.163764e-01 4.617575e-01 4.883985e-01 4.922028e-01 5.931659e-01 4.044872e-01 4.272712e-01 4.120286e-01 4.874420e-01 4.382535e-01 2.966037e-01 4.706528e-01 3.323656e-01 4.210304e-01 3.231998e-01 3.745902e-01 4.331419e-01 3.759095e-01 4.765506e-01 3.850213e-01 4.619474e-01 4.793487e-01 4.606211e-01 4.599725e-01 4.446501e-01 4.306566e-01 3.831998e-01 3.140564e-01 4.377279e-01 3.768043e-01 3.565736e-01 3.900468e-01 4.511748e-01 3.344381e-01 4.109918e-01 3.471737e-01 4.183683e-01 2.609777e-01 3.426850e-01 4.805599e-01 3.976621e-01 3.923702e-01 3.733332e-01 4.378890e-01 4.393598e-01 2.948835e-01 2.292324e-01 3.299593e-01 5.312942e-01 4.398197e-01 3.405989e-01 4.064432e-01 3.896134e-01 3.633203e-01 4.161413e-01 4.139305e-01 5.800698e-01 4.537346e-01 3.460051e-01 4.215242e-01 3.954738e-01 3.483427e-01 4.553569e-01 3.539769e-01 3.430434e-01 5.330526e-01 4.202764e-01 2.970771e-01 3.029189e-01 5.111167e-01 3.483135e-01 3.220751e-01 2.942417e-01 3.824021e-01 4.446768e-01
<VARIANCE> 142
 2.000000e-01 2.000000e-01 2.000000e-01 2.000000e-01 2.000000e-01 2.000000e-01 2.000000e-01 2.000000e-01 2.000000e-01 2.000000e-01 2.000000e-01 2.000000e-01 2.000000e-01 2.000000e-01 2.000000e-01 2.000000e-01 2.000000e-01 2.000000e-01 2.000000e-01 2.000000e-01 2.000000e-01 2.000000e-01 2.000000e-01 2.000000e-01 2.000000e-01 2.000000e-01 2.000000e-01 2.000000e-01 2.000000e-01 2.000000e-01 2.000000e-01 2.000000e-01 2.000000e-01 2.000000e-01 2.000000e-01 2.000000e-01 2.000000e-01 2.000000e-01 2.000000e-01 2.000000e-01 2.000000e-01 2.000000e-01 2.000000e-01 2.000000e-01 2.000000e-01 2.000000e-01 2.000000e-01 2.000000e-01 2.000000e-01 2.000000e-01 2.000000e-01 2.000000e-01 2.000000e-01 2.000000e-01 2.000000e-01 2.000000e-01 2.000000e-01 2.000000e-01 2.000000e-01 2.000000e-01 2.000000e-01 2.000000e-01 2.000000e-01 2.000000e-01 2.000000e-01 2.000000e-01 2.000000e-01 2.000000e-01 2.000000e-01 2.000000e-01 2.000000e-01 2.000000e-01 2.000000e-01 2.000000e-01 2.000000e-01 2.000000e-01 2.000000e-01 2.000000e-01 2.000000e-01 2.000000e-01 2.000000e-01 2.000000e-01 2.000000e-01 2.000000e-01 2.000000e-01 2.000000e-01 2.000000e-01 2.000000e-01 2.000000e-01 2.000000e-01 2.000000e-01 2.000000e-01 2.000000e-01 2.000000e-01 2.000000e-01 2.000000e-01 2.000000e-01 2.000000e-01 2.000000e-01 2.000000e-01 2.000000e-01 2.000000e-01 2.000000e-01 2.000000e-01 2.000000e-01 2.000000e-01 2.000000e-01 2.000000e-01 2.000000e-01 2.000000e-01 2.000000e-01 2.000000e-01 2.000000e-01 2.000000e-01 2.000000e-01 2.000000e-01 2.000000e-01 2.000000e-01 2.000000e-01 2.000000e-01 2.000000e-01 2.000000e-01 2.000000e-01 2.000000e-01 2.000000e-01 2.000000e-01 2.000000e-01 2.000000e-01 2.000000e-01 2.000000e-01 2.000000e-01 2.000000e-01 2.000000e-01 2.000000e-01 2.000000e-01 2.000000e-01 2.000000e-01 2.000000e-01 2.000000e-01 2.000000e-01 2.000000e-01 2.000000e-01
<GCONST> 3.243863e+01
<TRANSP> 4
 0.000000e+00 1.000000e+00 0.000000e+00 0.000000e+00
 0.000000e+00 8.643450e-01 1.356551e-01 0.000000e+00
 0.000000e+00 0.000000e+00 8.597152e-01 1.402848e-01
 0.000000e+00 0.000000e+00 0.000000e+00 0.000000e+00
<ENDHMM>
