~o
<STREAMINFO> 1 142
<VECSIZE> 142<NULLD><USER><DIAGC>
~h "sister"
<BEGINHMM>
<NUMSTATES> 4
<STATE> 2
<MEAN> 142
 5.025615e-01 4.285983e-01 2.678962e-01 2.572912e-01 2.984586e-01 1.706238e-01 2.974111e-01 3.165094e-01 3.804394e-01 4.149422e-01 3.572725e-01 3.812096e-01 3.359077e-01 3.986726e-01 4.108055e-01 3.307133e-01 5.164794e-01 3.630738e-01 2.236826e-01 3.343368e-01 4.247844e-01 4.152853e-01 3.077874e-01 4.967408e-01 4.464876e-01 3.844528e-01 3.654419e-01 3.850798e-01 4.292074e-01 4.241269e-01 4.604991e-01 4.531648e-01 2.926089e-01 4.680526e-01 4.054738e-01 3.350429e-01 3.971341e-01 4.300603e-01 3.866577e-01 3.574867e-01 3.409011e-01 5.437756e-01 3.354826e-01 2.970750e-01 1.933977e-01 4.302696e-01 5.074355e-01 4.137158e-01 4.240523e-01 2.823810e-01 3.881756e-01 3.967746e-01 3.846964e-01 3.408733e-01 3.904846e-01 3.803459e-01 3.004541e-01 2.538521e-01 2.456941e-01 2.003770e-01 3.089297e-01 4.112161e-01 3.972998e-01 3.993885e-01 3.446367e-01 4.528452e-01 3.697985e-01 3.396143e-01 3.320042e-01 3.778268e-01 4.757172e-01 3.246858e-01 4.182055e-01 3.512690e-01 1.750740e-01 4.046892e-01 3.982872e-01 4.145239e-01 4.741048e-01 3.803879e-01 4.399059e-01 4.299569e-01 3.618343e-01 3.746619e-01 3.182626e-01 4.119385e-01 4.171169e-01 3.780282e-01 4.636155e-01 2.434133e-01 2.754424e-01 2.162793e-01 3.887179e-01 3.159229e-01 4.699619e-01 4.097986e-01 4.245355e-01 2.694188e-01 4.885813e-01 4.379526e-01 4.059399e-01 4.734255e-01 3.540079e-01 3.553738e-01 2.983742e-01 3.540788e-01 2.503283e-01 4.261584e-01 2.655608e-01 3.842815e-01 3.214879e-01 3.049592e-01 3.357684e-01 3.421233e-01 3.228702e-01 3.701862e-01 2.783414e-01 4.771470e-01 3.884079e-01 4.516672e-01 4.990780e-01 5.027857e-01 4.510213e-01 2.543527e-01 2.828865e-01 3.789142e-01 3.993155e-01 3.073697e-01 2.517744e-01 3.080152e-01 3.902741e-01 4.380020e-01 2.917806e-01 4.425431e-01 3.719422e-01 3.980470e-01 4.076621e-01 4.917067e-01 4.448050e-01 4.422057e-01 4.396048e-01 4.716322e-01
<VARIANCE> 142
 2.000000e-01 2.000000e-01 2.000000e-01 2.000000e-01 2.000000e-01 2.000000e-01 2.000000e-01 2.000000e-01 2.000000e-01 2.000000e-01 2.000000e-01 2.000000e-01 2.000000e-01 2.000000e-01 2.000000e-01 2.000000e-01 2.000000e-01 2.000000e-01 2.000000e-01 2.000000e-01 2.000000e-01 2.000000e-01 2.000000e-01 2.000000e-01 2.000000e-01 2.000000e-01 2.000000e-01 2.000000e-01 2.000000e-01 2.000000e-01 2.000000e-01 2.000000e-01 2.000000e-01 2.000000e-01 2.000000e-01 2.000000e-01 2.000000e-01 2.000000e-01 2.000000e-01 2.000000e-01 2.000000e-01 2.000000e-01 2.000000e-01 2.000000e-01 2.000000e-01 2.000000e-01 2.000000e-01 2.000000e-01 2.000000e-01 2.000000e-01 2.000000e-01 2.000000e-01 2.000000e-01 2.000000e-01 2.000000e-01 2.000000e-01 2.000000e-01 2.000000e-01 2.000000e-01 2.000000e-01 2.000000e-01 2.000000e-01 2.000000e-01 2.000000e-01 2.000000e-01 2.000000e-01 2.000000e-01 2.000000e-01 2.000000e-01 2.000000e-01 2.000000e-01 2.000000e-01 2.000000e-01 2.000000e-01 2.000000e-01 2.000000e-01 2.000000e-01 2.000000e-01 2.000000e-01 2.000000e-01 2.000000e-01 2.000000e-01 2.000000e-01 2.000000e-01 2.000000e-01 2.000000e-01 2.000000e-01 2.000000e-01 2.000000e-01 2.000000e-01 2.000000e-01 2.000000e-01 2.000000e-01 2.000000e-01 2.000000e-01 2.000000e-01 2.000000e-01 2.000000e-01 2.000000e-01 2.000000e-01 2.000000e-01 2.000000e-01 2.000000e-01 2.000000e-01 2.000000e-01 2.000000e-01 2.000000e-01 2.000000e-01 2.000000e-01 2.000000e-01 2.000000e-01 2.000000e-01 2.000000e-01 2.000000e-01 2.000000e-01 2.000000e-01 2.000000e-01 2.000000e-01 2.000000e-01 2.000000e-01 2.000000e-01 2.000000e-01 2.000000e-01 2.000000e-01 2.000000e-01 2.000000e-01 2.000000e-01 2.000000e-01 2.000000e-01 2.000000e-01 2.000000e-01 2.000000e-01 2.000000e-01 2.000000e-01 2.000000e-01 2.000000e-01 2.000000e-01 2.000000e-01 2.000000e-01 2.000000e-01 2.000000e-01 2.000000e-01
<GCONST> 3.243863e+01
<STATE> 3
<MEAN> 142
 6.600505e-01 3.048192e-01 3.242121e-01 3.021606e-01 2.659089e-01 2.082499e-01 3.207184e-01 2.802236e-01 3.208510e-01 3.628877e-01 3.998453e-01 3.617795e-01 3.690087e-01 4.207720e-01 2.341617e-01 3.085165e-01 3.700023e-01 3.474338e-01 2.274680e-01 3.626796e-01 4.408698e-01 4.671739e-01 3.187844e-01 4.424411e-01 4.631501e-01 3.482707e-01 3.648209e-01 2.854163e-01 3.538798e-01 2.926036e-01 4.339386e-01 4.741518e-01 3.547501e-01 4.122514e-01 4.188422e-01 3.105540e-01 3.388371e-01 2.483156e-01 2.689411e-01 2.110876e-01 2.268418e-01 4.241369e-01 2.689806e-01 2.486088e-01 1.645806e-01 3.833487e-01 4.673683e-01 3.178631e-01 3.904721e-01 3.071138e-01 4.597039e-01 3.047872e-01 3.835241e-01 2.649088e-01 4.564683e-01 3.152994e-01 3.670973e-01 2.137318e-01 2.331319e-01 2.798191e-01 3.260193e-01 3.794748e-01 3.630344e-01 3.490558e-01 3.170400e-01 5.095127e-01 2.826451e-01 2.987373e-01 3.895093e-01 2.670792e-01 4.315374e-01 4.106180e-01 4.535709e-01 4.236749e-01 2.348946e-01 3.157744e-01 4.316301e-01 5.147557e-01 4.215766e-01 4.021542e-01 3.612030e-01 3.461355e-01 2.539288e-01 3.779549e-01 2.794620e-01 4.574216e-01 3.837479e-01 3.823920e-01 4.169030e-01 1.901704e-01 2.810729e-01 2.339045e-01 3.674638e-01 2.894343e-01 4.006802e-01 3.926301e-01 3.553921e-01 2.455423e-01 4.089361e-01 4.266075e-01 3.434816e-01 5.387176e-01 3.498329e-01 2.471368e-01 2.489014e-01 3.056471e-01 2.983446e-01 3.118676e-01 3.535091e-01 3.198983e-01 3.359046e-01 2.388614e-01 3.208455e-01 2.669924e-01 2.831798e-01 3.923521e-01 2.746580e-01 4.598533e-01 3.063138e-01 4.920985e-01 4.630062e-01 5.586720e-01 4.562453e-01 2.538775e-01 3.267809e-01 3.989179e-01 3.321589e-01 2.575992e-01 2.574911e-01 3.630908e-01 3.481598e-01 3.614658e-01 2.777240e-01 3.686135e-01 3.087875e-01 4.021533e-01 3.681645e-01 3.691498e-01 2.674118e-01 3.353043e-01 4.516174e-01 5.308437e-01
<VARIANCE> 142
 2.000000e-01 2.000000e-01 2.000000e-01 2.000000e-01 2.000000e-01 2.000000e-01 2.000000e-01 2.000000e-01 2.000000e-01 2.000000e-01 2.000000e-01 2.000000e-01 2.000000e-01 2.000000e-01 2.000000e-01 2.000000e-01 2.000000e-01 2.000000e-01 2.000000e-01 2.000000e-01 2.000000e-01 2.000000e-01 2.000000e-01 2.000000e-01 2.000000e-01 2.000000e-01 2.000000e-01 2.000000e-01 2.000000e-01 2.000000e-01 2.000000e-01 2.000000e-01 2.000000e-01 2.000000e-01 2.000000e-01 2.000000e-01 2.000000e-01 2.000000e-01 2.000000e-01 2.000000e-01 2.000000e-01 2.000000e-01 2.000000e-01 2.000000e-01 2.000000e-01 2.000000e-01 2.000000e-01 2.000000e-01 2.000000e-01 2.000000e-01 2.000000e-01 2.000000e-01 2.000000e-01 2.000000e-01 2.000000e-01 2.000000e-01 2.000000e-01 2.000000e-01 2.000000e-01 2.000000e-01 2.000000e-01 2.000000e-01 2.000000e-01 2.000000e-01 2.000000e-01 2.000000e-01 2.000000e-01 2.000000e-01 2.000000e-01 2.000000e-01 2.000000e-01 2.000000e-01 2.000000e-01 2.000000e-01 2.000000e-01 2.000000e-01 2.000000e-01 2.000000e-01 2.000000e-01 2.000000e-01 2.000000e-01 2.000000e-01 2.000000e-01 2.000000e-01 2.000000e-01 2.000000e-01 2.000000e-01 2.000000e-01 2.000000e-01 2.000000e-01 2.000000e-01 2.000000e-01 2.000000e-01 2.000000e-01 2.000000e-01 2.000000e-01 2.000000e-01 2.000000e-01 2.000000e-01 2.000000e-01 2.000000e-01 2.000000e-01 2.000000e-01 2.000000e-01 2.000000e-01 2.000000e-01 2.000000e-01 2.000000e-01 2.000000e-01 2.000000e-01 2.000000e-01 2.000000e-01 2.000000e-01 2.000000e-01 2.000000e-01 2.000000e-01 2.000000e-01 2.000000e-01 2.000000e-01 2.000000e-01 2.000000e-01 2.000000e-01 2.000000e-01 2.000000e-01 2.000000e-01 2.000000e-01 2.000000e-01 2.000000e-01 2.000000e-01 2.000000e-01 2.000000e-01 2.000000e-01 2.000000e-01 2.000000e-01 2.000000e-01 2.000000e-01 2.000000e-01 2.000000e-01 2.000000e-01 2.000000e-01 2.000000e-01 2.000000e-01
<GCONST> 3.243863e+01
<TRANSP> 4
 0.000000e+00 1.000000e+00 0.000000e+00 0.000000e+00
 0.000000e+00 8.489039e-01 1.510962e-01 0.000000e+00
 0.000000e+00 0.000000e+00 8.883072e-01 1.116928e-01
 0.000000e+00 0.000000e+00 0.000000e+00 0.000000e+00
<ENDHMM>
