~o
<STREAMINFO> 1 142
<VECSIZE> 142<NULLD><USER><DIAGC>
~h "sky"
<BEGINHMM>
<NUMSTATES> 4
<STATE> 2
<MEAN> 142
 4.830563e-01 3.934070e-01 3.388929e-01 3.260744e-01 3.154962e-01 4.358672e-01 3.695697e-01 3.255084e-01 5.039089e-01 4.738174e-01 3.968869e-01 5.307127e-01 4.520362e-01 3.979797e-01 3.072904e-01 2.992464e-01 4.139379e-01 4.470910e-01 4.469199e-01 3.997389e-01 4.951645e-01 4.324437e-01 4.766819e-01 4.059974e-01 4.655066e-01 4.390764e-01 3.928598e-01 3.425214e-01 4.070984e-01 5.410421e-01 4.527735e-01 3.757024e-01 3.380524e-01 5.055687e-01 4.142613e-01 3.723898e-01 2.850022e-01 4.860422e-01 4.150094e-01 3.579792e-01 4.631510e-01 3.743518e-01 5.421164e-01 3.782966e-01 2.516026e-01 3.742966e-01 3.333299e-01 3.992294e-01 3.566512e-01 4.860514e-01 5.684507e-01 5.168748e-01 5.154527e-01 3.598149e-01 4.174211e-01 4.538108e-01 4.604872e-01 3.933952e-01 4.575303e-01 3.397531e-01 4.412017e-01 3.835665e-01 4.318221e-01 4.870525e-01 5.294942e-01 4.125386e-01 5.167503e-01 4.117993e-01 4.324467e-01 5.756500e-01 4.663286e-01 5.512879e-01 3.061911e-01 3.626552e-01 3.843821e-01 4.565981e-01 3.560458e-01 3.172527e-01 5.469032e-01 4.117039e-01 4.737907e-01 3.462543e-01 4.118849e-01 4.346715e-01 4.062709e-01 3.331153e-01 4.885048e-01 4.710717e-01 5.160121e-01 4.514197e-01 4.968888e-01 3.325979e-01 4.089122e-01 4.804753e-01 3.635776e-01 4.603407e-01 3.560210e-01 4.322072e-01 4.351239e-01 5.372819e-01 4.280116e-01 4.304569e-01 4.063167e-01 5.851116e-01 2.654021e-01 3.246571e-01 4.931782e-01 5.648467e-01 3.900236e-01 3.147871e-01 5.126808e-01 5.154091e-01 3.156498e-01 3.946106e-01 3.951973e-01 5.052141e-01 5.650211e-01 3.087817e-01 5.348069e-01 4.432051e-01 3.872827e-01 3.878394e-01 3.879706e-01 5.768693e-01 4.217343e-01 3.702404e-01 4.896579e-01 4.695761e-01 5.012109e-01 4.133244e-01 3.247624e-01 4.093318e-01 4.385541e-01 4.363856e-01 4.004508e-01 4.009140e-01 4.355184e-01 3.830896e-01 3.834999e-01 3.708406e-01 4.153576e-01 3.312853e-01
<VARIANCE> 142
 2.000000e-01 2.000000e-01 2.000000e-01 2.000000e-01 2.000000e-01 2.000000e-01 2.000000e-01 2.000000e-01 2.000000e-01 2.000000e-01 2.000000e-01 2.000000e-01 2.000000e-01 2.000000e-01 2.000000e-01 2.000000e-01 2.000000e-01 2.000000e-01 2.000000e-01 2.000000e-01 2.000000e-01 2.000000e-01 2.000000e-01 2.000000e-01 2.000000e-01 2.000000e-01 2.000000e-01 2.000000e-01 2.000000e-01 2.000000e-01 2.000000e-01 2.000000e-01 2.000000e-01 2.000000e-01 2.000000e-01 2.000000e-01 2.000000e-01 2.000000e-01 2.000000e-01 2.000000e-01 2.000000e-01 2.000000e-01 2.000000e-01 2.000000e-01 2.000000e-01 2.000000e-01 2.000000e-01 2.000000e-01 2.000000e-01 2.000000e-01 2.000000e-01 2.000000e-01 2.000000e-01 2.000000e-01 2.000000e-01 2.000000e-01 2.000000e-01 2.000000e-01 2.000000e-01 2.000000e-01 2.000000e-01 2.000000e-01 2.000000e-01 2.000000e-01 2.000000e-01 2.000000e-01 2.000000e-01 2.000000e-01 2.000000e-01 2.000000e-01 2.000000e-01 2.000000e-01 2.000000e-01 2.000000e-01 2.000000e-01 2.000000e-01 2.000000e-01 2.000000e-01 2.000000e-01 2.000000e-01 2.000000e-01 2.000000e-01 2.000000e-01 2.000000e-01 2.000000e-01 2.000000e-01 2.000000e-01 2.000000e-01 2.000000e-01 2.000000e-01 2.000000e-01 2.000000e-01 2.000000e-01 2.000000e-01 2.000000e-01 2.000000e-01 2.000000e-01 2.000000e-01 2.000000e-01 2.000000e-01 2.000000e-01 2.000000e-01 2.000000e-01 2.000000e-01 2.000000e-01 2.000000e-01 2.000000e-01 2.000000e-01 2.000000e-01 2.000000e-01 2.000000e-01 2.000000e-01 2.000000e-01 2.000000e-01 2.000000e-01 2.000000e-01 2.000000e-01 2.000000e-01 2.000000e-01 2.000000e-01 2.000000e-01 2.000000e-01 2.000000e-01 2.000000e-01 2.000000e-01 2.000000e-01 2.000000e-01 2.000000e-01 2.000000e-01 2.000000e-01 2.000000e-01 2.000000e-01 2.000000e-01 2.000000e-01 2.000000e-01 2.000000e-01 2.000000e-01 2.000000e-01 2.000000e-01 2.000000e-01 2.000000e-01 2.000000e-01
<GCONST> 3.243863e+01
<STATE> 3
<MEAN> 142
 5.937201e-01 3.858128e-01 4.069732e-01 3.105731e-01 2.662100e-01 3.181338e-01 3.637572e-01 3.505225e-01 3.729704e-01 4.172475e-01 5.014020e-01 3.848213e-01 3.359578e-01 5.231430e-01 3.621546e-01 3.419133e-01 3.692454e-01 3.580490e-01 3.554772e-01 3.439847e-01 5.478330e-01 5.533692e-01 3.814441e-01 4.661871e-01 5.184578e-01 3.551773e-01 4.681273e-01 3.406218e-01 4.316039e-01 3.550299e-01 4.562661e-01 3.980149e-01 3.736252e-01 5.039716e-01 4.533109e-01 3.609279e-01 3.943757e-01 2.984340e-01 4.039651e-01 3.839702e-01 3.258846e-01 4.729732e-01 3.265216e-01 3.122124e-01 1.843317e-01 3.687899e-01 4.520068e-01 4.449036e-01 4.691198e-01 3.382757e-01 4.813049e-01 4.048274e-01 4.182449e-01 2.482653e-01 3.894145e-01 3.989129e-01 4.948411e-01 3.950772e-01 4.018652e-01 3.388127e-01 3.902738e-01 4.035243e-01 3.502558e-01 3.747593e-01 3.572645e-01 4.657699e-01 3.578126e-01 4.375104e-01 4.002500e-01 3.774875e-01 4.563900e-01 3.090356e-01 4.121569e-01 4.074091e-01 3.002170e-01 3.370639e-01 4.267344e-01 4.560638e-01 4.854082e-01 5.228145e-01 4.083390e-01 3.697237e-01 3.474115e-01 4.636863e-01 2.889348e-01 3.430860e-01 3.430225e-01 4.104502e-01 4.654959e-01 2.964677e-01 3.321315e-01 2.845401e-01 3.955368e-01 3.405876e-01 4.739482e-01 4.291592e-01 4.389521e-01 2.694273e-01 4.956068e-01 4.598616e-01 4.164302e-01 5.118818e-01 3.479010e-01 3.360343e-01 4.197555e-01 3.463578e-01 3.270543e-01 3.735966e-01 3.977780e-01 4.393059e-01 3.953038e-01 3.205376e-01 3.264355e-01 3.839023e-01 3.004295e-01 3.132653e-01 3.548575e-01 4.913908e-01 4.297784e-01 4.343705e-01 4.394451e-01 4.661656e-01 4.247669e-01 3.106015e-01 4.590420e-01 4.109484e-01 3.910564e-01 3.379299e-01 3.075968e-01 4.507147e-01 4.378210e-01 3.791267e-01 3.039495e-01 3.976279e-01 3.853455e-01 4.695658e-01 4.153944e-01 4.435572e-01 4.229820e-01 4.032164e-01 4.246346e-01 4.083447e-01
<VARIANCE> 142
 2.000000e-01 2.000000e-01 2.000000e-01 2.000000e-01 2.000000e-01 2.000000e-01 2.000000e-01 2.000000e-01 2.000000e-01 2.000000e-01 2.000000e-01 2.000000e-01 2.000000e-01 2.000000e-01 2.000000e-01 2.000000e-01 2.000000e-01 2.000000e-01 2.000000e-01 2.000000e-01 2.000000e-01 2.000000e-01 2.000000e-01 2.000000e-01 2.000000e-01 2.000000e-01 2.000000e-01 2.000000e-01 2.000000e-01 2.000000e-01 2.000000e-01 2.000000e-01 2.000000e-01 2.000000e-01 2.000000e-01 2.000000e-01 2.000000e-01 2.000000e-01 2.000000e-01 2.000000e-01 2.000000e-01 2.000000e-01 2.000000e-01 2.000000e-01 2.000000e-01 2.000000e-01 2.000000e-01 2.000000e-01 2.000000e-01 2.000000e-01 2.000000e-01 2.000000e-01 2.000000e-01 2.000000e-01 2.000000e-01 2.000000e-01 2.000000e-01 2.000000e-01 2.000000e-01 2.000000e-01 2.000000e-01 2.000000e-01 2.000000e-01 2.000000e-01 2.000000e-01 2.000000e-01 2.000000e-01 2.000000e-01 2.000000e-01 2.000000e-01 2.000000e-01 2.000000e-01 2.000000e-01 2.000000e-01 2.000000e-01 2.000000e-01 2.000000e-01 2.000000e-01 2.000000e-01 2.000000e-01 2.000000e-01 2.000000e-01 2.000000e-01 2.000000e-01 2.000000e-01 2.000000e-01 2.000000e-01 2.000000e-01 2.000000e-01 2.000000e-01 2.000000e-01 2.000000e-01 2.000000e-01 2.000000e-01 2.000000e-01 2.000000e-01 2.000000e-01 2.000000e-01 2.000000e-01 2.000000e-01 2.000000e-01 2.000000e-01 2.000000e-01 2.000000e-01 2.000000e-01 2.000000e-01 2.000000e-01 2.000000e-01 2.000000e-01 2.000000e-01 2.000000e-01 2.000000e-01 2.000000e-01 2.000000e-01 2.000000e-01 2.000000e-01 2.000000e-01 2.000000e-01 2.000000e-01 2.000000e-01 2.000000e-01 2.000000e-01 2.000000e-01 2.000000e-01 2.000000e-01 2.000000e-01 2.000000e-01 2.000000e-01 2.000000e-01 2.000000e-01 2.000000e-01 2.000000e-01 2.000000e-01 2.000000e-01 2.000000e-01 2.000000e-01 2.000000e-01 2.000000e-01 2.000000e-01 2.000000e-01 2.000000e-01 2.000000e-01
<GCONST> 3.243863e+01
<TRANSP> 4
 0.000000e+00 1.000000e+00 0.000000e+00 0.000000e+00
 0.000000e+00 8.169658e-01 1.830342e-01 0.000000e+00
 0.000000e+00 0.000000e+00 8.975279e-01 1.024720e-01
 0.000000e+00 0.000000e+00 0.000000e+00 0.000000e+00
<ENDHMM>
