~o
<STREAMINFO> 1 142
<VECSIZE> 142<NULLD><USER><DIAGC>
~h "smart"
<BEGINHMM>
<NUMSTATES> 4
<STATE> 2
<MEAN> 142
 6.762924e-01 3.296461e-01 4.032353e-01 4.209311e-01 3.303263e-01 4.093999e-01 4.367505e-01 3.872716e-01 4.093725e-01 3.813629e-01 4.864192e-01 4.433163e-01 4.291171e-01 4.637621e-01 3.200149e-01 4.291554e-01 3.655579e-01 3.676489e-01 3.696856e-01 4.486474e-01 5.005814e-01 5.113804e-01 4.698836e-01 4.575340e-01 4.624023e-01 4.687781e-01 4.168868e-01 3.485335e-01 3.849060e-01 4.116201e-01 4.887011e-01 4.462901e-01 4.930404e-01 4.439261e-01 4.187592e-01 3.685970e-01 3.469999e-01 3.367865e-01 3.302224e-01 3.756073e-01 3.548928e-01 3.884886e-01 3.340955e-01 4.004565e-01 2.965380e-01 3.792720e-01 4.831677e-01 4.217572e-01 4.390257e-01 3.600074e-01 5.270953e-01 4.573898e-01 4.416269e-01 3.075042e-01 4.793567e-01 3.708998e-01 4.446902e-01 4.070339e-01 3.967150e-01 3.597355e-01 5.131048e-01 4.537268e-01 3.585344e-01 4.343445e-01 3.859078e-01 5.156948e-01 3.789314e-01 4.657140e-01 4.651220e-01 3.654284e-01 5.082971e-01 4.429876e-01 3.992332e-01 4.457627e-01 4.010076e-01 4.103585e-01 4.781802e-01 4.718018e-01 4.753411e-01 4.766336e-01 4.042360e-01 3.598287e-01 3.611777e-01 4.417892e-01 4.114743e-01 4.631701e-01 4.356009e-01 4.386042e-01 4.332560e-01 3.684934e-01 3.489105e-01 3.804581e-01 4.159387e-01 3.615302e-01 4.182327e-01 4.739744e-01 4.505689e-01 3.310112e-01 4.401410e-01 5.356237e-01 3.958896e-01 4.676511e-01 3.963092e-01 3.478936e-01 3.629491e-01 3.530869e-01 4.008202e-01 4.185079e-01 4.279265e-01 4.368818e-01 4.060029e-01 3.758432e-01 4.232699e-01 3.270729e-01 3.479509e-01 4.126849e-01 3.477678e-01 4.300613e-01 4.343658e-01 4.505120e-01 4.323987e-01 5.313106e-01 4.980407e-01 3.728975e-01 4.673686e-01 4.038078e-01 3.778163e-01 3.357143e-01 3.121848e-01 4.656117e-01 4.512421e-01 3.978206e-01 3.902957e-01 4.563644e-01 3.635725e-01 4.450765e-01 4.814474e-01 3.783373e-01 4.164239e-01 3.938127e-01 4.845186e-01 4.821130e-01
<VARIANCE> 142
 2.000000e-01 2.000000e-01 2.000000e-01 2.000000e-01 2.000000e-01 2.000000e-01 2.000000e-01 2.000000e-01 2.000000e-01 2.000000e-01 2.000000e-01 2.000000e-01 2.000000e-01 2.000000e-01 2.000000e-01 2.000000e-01 2.000000e-01 2.000000e-01 2.000000e-01 2.000000e-01 2.000000e-01 2.000000e-01 2.000000e-01 2.000000e-01 2.000000e-01 2.000000e-01 2.000000e-01 2.000000e-01 2.000000e-01 2.000000e-01 2.000000e-01 2.000000e-01 2.000000e-01 2.000000e-01 2.000000e-01 2.000000e-01 2.000000e-01 2.000000e-01 2.000000e-01 2.000000e-01 2.000000e-01 2.000000e-01 2.000000e-01 2.000000e-01 2.000000e-01 2.000000e-01 2.000000e-01 2.000000e-01 2.000000e-01 2.000000e-01 2.000000e-01 2.000000e-01 2.000000e-01 2.000000e-01 2.000000e-01 2.000000e-01 2.000000e-01 2.000000e-01 2.000000e-01 2.000000e-01 2.000000e-01 2.000000e-01 2.000000e-01 2.000000e-01 2.000000e-01 2.000000e-01 2.000000e-01 2.000000e-01 2.000000e-01 2.000000e-01 2.000000e-01 2.000000e-01 2.000000e-01 2.000000e-01 2.000000e-01 2.000000e-01 2.000000e-01 2.000000e-01 2.000000e-01 2.000000e-01 2.000000e-01 2.000000e-01 2.000000e-01 2.000000e-01 2.000000e-01 2.000000e-01 2.000000e-01 2.000000e-01 2.000000e-01 2.000000e-01 2.000000e-01 2.000000e-01 2.000000e-01 2.000000e-01 2.000000e-01 2.000000e-01 2.000000e-01 2.000000e-01 2.000000e-01 2.000000e-01 2.000000e-01 2.000000e-01 2.000000e-01 2.000000e-01 2.000000e-01 2.000000e-01 2.000000e-01 2.000000e-01 2.000000e-01 2.000000e-01 2.000000e-01 2.000000e-01 2.000000e-01 2.000000e-01 2.000000e-01 2.000000e-01 2.000000e-01 2.000000e-01 2.000000e-01 2.000000e-01 2.000000e-01 2.000000e-01 2.000000e-01 2.000000e-01 2.000000e-01 2.000000e-01 2.000000e-01 2.000000e-01 2.000000e-01 2.000000e-01 2.000000e-01 2.000000e-01 2.000000e-01 2.000000e-01 2.000000e-01 2.000000e-01 2.000000e-01 2.000000e-01 2.000000e-01 2.000000e-01 2.000000e-01 2.000000e-01
<GCONST> 3.243863e+01
<STATE> 3
<MEAN> 142
 5.403157e-01 3.679862e-01 3.095962e-01 3.312302e-01 2.708558e-01 2.451907e-01 2.916535e-01 2.147881e-01 3.605684e-01 4.232878e-01 4.573760e-01 5.045927e-01 3.880230e-01 4.931479e-01 3.160700e-01 2.578433e-01 4.237896e-01 5.103983e-01 3.459489e-01 3.855559e-01 3.306667e-01 3.387533e-01 3.487539e-01 4.430614e-01 4.630862e-01 3.902918e-01 3.824192e-01 5.128976e-01 5.248584e-01 5.115984e-01 4.477443e-01 3.310196e-01 2.965737e-01 3.945216e-01 4.326833e-01 3.142772e-01 3.549262e-01 4.153246e-01 4.686454e-01 3.035937e-01 4.380053e-01 5.061866e-01 4.056066e-01 2.693611e-01 2.614924e-01 4.008869e-01 3.138410e-01 3.623788e-01 3.086927e-01 3.696705e-01 4.628888e-01 4.249818e-01 4.735127e-01 3.174177e-01 3.822861e-01 4.372618e-01 3.825263e-01 2.924041e-01 3.389433e-01 2.606584e-01 3.353783e-01 4.140008e-01 3.819208e-01 4.579189e-01 5.025018e-01 3.600393e-01 3.744089e-01 3.024054e-01 3.536492e-01 4.821096e-01 4.370423e-01 3.430775e-01 3.527201e-01 4.153103e-01 2.505152e-01 3.434461e-01 3.600433e-01 3.633622e-01 4.590888e-01 3.968988e-01 5.618664e-01 4.191749e-01 3.694077e-01 3.210933e-01 3.580984e-01 3.013710e-01 3.892570e-01 4.397563e-01 4.186859e-01 3.305979e-01 4.510857e-01 2.380946e-01 4.787121e-01 4.654068e-01 4.039719e-01 5.018040e-01 4.242667e-01 4.204078e-01 4.696967e-01 4.248234e-01 4.256026e-01 3.804446e-01 3.524756e-01 4.688405e-01 2.866531e-01 2.819037e-01 4.473093e-01 4.438877e-01 3.421428e-01 2.685632e-01 4.268496e-01 4.288026e-01 3.070559e-01 3.629671e-01 4.017099e-01 4.217836e-01 4.434178e-01 3.704741e-01 4.721254e-01 3.602956e-01 4.263590e-01 4.350643e-01 4.415493e-01 5.003260e-01 3.109293e-01 4.111955e-01 4.832091e-01 5.436172e-01 5.913188e-01 3.326810e-01 3.174416e-01 4.173449e-01 4.107358e-01 4.675600e-01 4.397410e-01 4.241160e-01 3.495668e-01 4.144882e-01 3.010684e-01 3.245404e-01 4.142985e-01 3.668004e-01
<VARIANCE> 142
 2.000000e-01 2.000000e-01 2.000000e-01 2.000000e-01 2.000000e-01 2.000000e-01 2.000000e-01 2.000000e-01 2.000000e-01 2.000000e-01 2.000000e-01 2.000000e-01 2.000000e-01 2.000000e-01 2.000000e-01 2.000000e-01 2.000000e-01 2.000000e-01 2.000000e-01 2.000000e-01 2.000000e-01 2.000000e-01 2.000000e-01 2.000000e-01 2.000000e-01 2.000000e-01 2.000000e-01 2.000000e-01 2.000000e-01 2.000000e-01 2.000000e-01 2.000000e-01 2.000000e-01 2.000000e-01 2.000000e-01 2.000000e-01 2.000000e-01 2.000000e-01 2.000000e-01 2.000000e-01 2.000000e-01 2.000000e-01 2.000000e-01 2.000000e-01 2.000000e-01 2.000000e-01 2.000000e-01 2.000000e-01 2.000000e-01 2.000000e-01 2.000000e-01 2.000000e-01 2.000000e-01 2.000000e-01 2.000000e-01 2.000000e-01 2.000000e-01 2.000000e-01 2.000000e-01 2.000000e-01 2.000000e-01 2.000000e-01 2.000000e-01 2.000000e-01 2.000000e-01 2.000000e-01 2.000000e-01 2.000000e-01 2.000000e-01 2.000000e-01 2.000000e-01 2.000000e-01 2.000000e-01 2.000000e-01 2.000000e-01 2.000000e-01 2.000000e-01 2.000000e-01 2.000000e-01 2.000000e-01 2.000000e-01 2.000000e-01 2.000000e-01 2.000000e-01 2.000000e-01 2.000000e-01 2.000000e-01 2.000000e-01 2.000000e-01 2.000000e-01 2.000000e-01 2.000000e-01 2.000000e-01 2.000000e-01 2.000000e-01 2.000000e-01 2.000000e-01 2.000000e-01 2.000000e-01 2.000000e-01 2.000000e-01 2.000000e-01 2.000000e-01 2.000000e-01 2.000000e-01 2.000000e-01 2.000000e-01 2.000000e-01 2.000000e-01 2.000000e-01 2.000000e-01 2.000000e-01 2.000000e-01 2.000000e-01 2.000000e-01 2.000000e-01 2.000000e-01 2.000000e-01 2.000000e-01 2.000000e-01 2.000000e-01 2.000000e-01 2.000000e-01 2.000000e-01 2.000000e-01 2.000000e-01 2.000000e-01 2.000000e-01 2.000000e-01 2.000000e-01 2.000000e-01 2.000000e-01 2.000000e-01 2.000000e-01 2.000000e-01 2.000000e-01 2.000000e-01 2.000000e-01 2.000000e-01 2.000000e-01 2.000000e-01 2.000000e-01
<GCONST> 3.243863e+01
<TRANSP> 4
 0.000000e+00 1.000000e+00 0.000000e+00 0.000000e+00
 0.000000e+00 8.851560e-01 1.148440e-01 0.000000e+00
 0.000000e+00 0.000000e+00 8.500196e-01 1.499804e-01
 0.000000e+00 0.000000e+00 0.000000e+00 0.000000e+00
<ENDHMM>
