~o
<STREAMINFO> 1 142
<VECSIZE> 142<NULLD><USER><DIAGC>
~h "son"
<BEGINHMM>
<NUMSTATES> 4
<STATE> 2
<MEAN> 142
 4.579238e-01 3.396654e-01 2.656870e-01 3.588893e-01 3.119286e-01 2.556758e-01 2.977877e-01 3.835007e-01 3.817270e-01 5.060279e-01 3.807085e-01 4.303483e-01 3.788396e-01 4.201689e-01 5.089634e-01 3.998146e-01 4.908422e-01 4.867934e-01 2.217851e-01 3.230198e-01 4.253958e-01 4.438687e-01 3.046347e-01 4.693852e-01 4.687490e-01 3.994151e-01 3.855854e-01 4.126315e-01 5.002978e-01 5.032506e-01 5.154279e-01 4.159043e-01 2.763686e-01 5.303207e-01 4.247865e-01 4.995255e-01 4.005622e-01 4.975904e-01 5.007265e-01 3.737009e-01 4.754108e-01 4.856570e-01 3.655196e-01 3.487487e-01 2.206855e-01 3.469885e-01 3.967794e-01 4.729352e-01 4.667996e-01 2.824739e-01 4.860817e-01 5.059254e-01 4.990256e-01 2.808388e-01 3.607570e-01 4.126587e-01 3.503343e-01 2.880347e-01 3.241147e-01 2.987616e-01 4.034530e-01 4.573432e-01 3.582104e-01 4.328518e-01 4.333071e-01 3.806186e-01 5.176445e-01 3.551859e-01 3.306842e-01 5.570731e-01 3.891769e-01 3.318786e-01 4.302250e-01 3.510908e-01 2.393071e-01 3.517664e-01 3.808997e-01 3.907998e-01 5.024967e-01 4.250136e-01 5.237412e-01 3.837416e-01 5.886795e-01 3.547699e-01 3.325754e-01 3.128096e-01 3.877091e-01 3.651185e-01 5.011566e-01 3.597683e-01 3.647304e-01 3.255678e-01 4.484561e-01 3.638381e-01 4.273989e-01 4.911553e-01 4.610664e-01 4.349867e-01 5.337884e-01 3.661648e-01 4.451903e-01 4.414148e-01 3.081796e-01 4.557758e-01 3.403614e-01 2.921836e-01 3.777020e-01 4.640715e-01 3.336428e-01 3.169138e-01 4.228607e-01 3.815191e-01 3.373880e-01 4.534431e-01 4.013926e-01 3.911423e-01 4.135524e-01 4.153382e-01 3.746443e-01 3.045433e-01 4.003819e-01 3.965615e-01 3.583238e-01 3.892216e-01 3.371312e-01 3.618784e-01 4.274549e-01 4.884961e-01 4.499775e-01 3.642118e-01 3.635149e-01 5.161647e-01 3.212503e-01 4.630845e-01 5.215610e-01 4.457762e-01 4.250606e-01 5.443823e-01 4.633103e-01 4.239016e-01 4.972590e-01 3.481632e-01
<VARIANCE> 142
 2.000000e-01 2.000000e-01 2.000000e-01 2.000000e-01 2.000000e-01 2.000000e-01 2.000000e-01 2.000000e-01 2.000000e-01 2.000000e-01 2.000000e-01 2.000000e-01 2.000000e-01 2.000000e-01 2.000000e-01 2.000000e-01 2.000000e-01 2.000000e-01 2.000000e-01 2.000000e-01 2.000000e-01 2.000000e-01 2.000000e-01 2.000000e-01 2.000000e-01 2.000000e-01 2.000000e-01 2.000000e-01 2.000000e-01 2.000000e-01 2.000000e-01 2.000000e-01 2.000000e-01 2.000000e-01 2.000000e-01 2.000000e-01 2.000000e-01 2.000000e-01 2.000000e-01 2.000000e-01 2.000000e-01 2.000000e-01 2.000000e-01 2.000000e-01 2.000000e-01 2.000000e-01 2.000000e-01 2.000000e-01 2.000000e-01 2.000000e-01 2.000000e-01 2.000000e-01 2.000000e-01 2.000000e-01 2.000000e-01 2.000000e-01 2.000000e-01 2.000000e-01 2.000000e-01 2.000000e-01 2.000000e-01 2.000000e-01 2.000000e-01 2.000000e-01 2.000000e-01 2.000000e-01 2.000000e-01 2.000000e-01 2.000000e-01 2.000000e-01 2.000000e-01 2.000000e-01 2.000000e-01 2.000000e-01 2.000000e-01 2.000000e-01 2.000000e-01 2.000000e-01 2.000000e-01 2.000000e-01 2.000000e-01 2.000000e-01 2.000000e-01 2.000000e-01 2.000000e-01 2.000000e-01 2.000000e-01 2.000000e-01 2.000000e-01 2.000000e-01 2.000000e-01 2.000000e-01 2.000000e-01 2.000000e-01 2.000000e-01 2.000000e-01 2.000000e-01 2.000000e-01 2.000000e-01 2.000000e-01 2.000000e-01 2.000000e-01 2.000000e-01 2.000000e-01 2.000000e-01 2.000000e-01 2.000000e-01 2.000000e-01 2.000000e-01 2.000000e-01 2.000000e-01 2.000000e-01 2.000000e-01 2.000000e-01 2.000000e-01 2.000000e-01 2.000000e-01 2.000000e-01 2.000000e-01 2.000000e-01 2.000000e-01 2.000000e-01 2.000000e-01 2.000000e-01 2.000000e-01 2.000000e-01 2.000000e-01 2.000000e-01 2.000000e-01 2.000000e-01 2.000000e-01 2.000000e-01 2.000000e-01 2.000000e-01 2.000000e-01 2.000000e-01 2.000000e-01 2.000000e-01 2.000000e-01 2.000000e-01 2.000000e-01 2.000000e-01
<GCONST> 3.243863e+01
<STATE> 3
<MEAN> 142
 7.180834e-01 3.298305e-01 4.555455e-01 3.153701e-01 2.799052e-01 3.935967e-01 3.795538e-01 3.541180e-01 3.395656e-01 4.042040e-01 5.593420e-01 4.197991e-01 3.927201e-01 6.021701e-01 2.903581e-01 3.100926e-01 3.653547e-01 3.918077e-01 4.027287e-01 4.307495e-01 5.702439e-01 5.536308e-01 4.721530e-01 4.931314e-01 5.303830e-01 3.895395e-01 4.460294e-01 3.525499e-01 4.471790e-01 3.367138e-01 5.049567e-01 3.942645e-01 3.773164e-01 4.896089e-01 4.781932e-01 3.472010e-01 3.082056e-01 3.480643e-01 3.307632e-01 2.874098e-01 3.155170e-01 3.927352e-01 3.235180e-01 4.064149e-01 1.814600e-01 3.699397e-01 4.860570e-01 4.008368e-01 4.545215e-01 3.968333e-01 4.914062e-01 4.158835e-01 4.641576e-01 2.419170e-01 4.134396e-01 3.347126e-01 5.089661e-01 4.225397e-01 4.375361e-01 3.755979e-01 4.673657e-01 4.098067e-01 3.456479e-01 3.874902e-01 3.297517e-01 4.480443e-01 3.809999e-01 4.682845e-01 4.182338e-01 3.606492e-01 4.980032e-01 4.128904e-01 4.314800e-01 4.821351e-01 3.862371e-01 3.576572e-01 4.438157e-01 4.182323e-01 5.268790e-01 4.850235e-01 3.755653e-01 3.371401e-01 3.465435e-01 4.821199e-01 2.988179e-01 3.665706e-01 3.632140e-01 4.492566e-01 4.818842e-01 2.763678e-01 3.295155e-01 3.079770e-01 3.815992e-01 3.242224e-01 3.969754e-01 4.746158e-01 4.139136e-01 3.362413e-01 4.127119e-01 4.609106e-01 4.412313e-01 5.076987e-01 3.429567e-01 3.194326e-01 3.938417e-01 3.798048e-01 3.973106e-01 3.887979e-01 4.815116e-01 4.000696e-01 3.999003e-01 3.208396e-01 2.907662e-01 3.166138e-01 3.702104e-01 3.846506e-01 3.451063e-01 4.605308e-01 3.905442e-01 4.854402e-01 4.164152e-01 5.314159e-01 4.331046e-01 3.117293e-01 4.926695e-01 4.010081e-01 3.806542e-01 3.133466e-01 3.322597e-01 4.953001e-01 3.866101e-01 3.716778e-01 3.387227e-01 4.342079e-01 3.287311e-01 4.179901e-01 4.520335e-01 3.351775e-01 3.010557e-01 3.577283e-01 4.815051e-01 4.989792e-01
<VARIANCE> 142
 2.000000e-01 2.000000e-01 2.000000e-01 2.000000e-01 2.000000e-01 2.000000e-01 2.000000e-01 2.000000e-01 2.000000e-01 2.000000e-01 2.000000e-01 2.000000e-01 2.000000e-01 2.000000e-01 2.000000e-01 2.000000e-01 2.000000e-01 2.000000e-01 2.000000e-01 2.000000e-01 2.000000e-01 2.000000e-01 2.000000e-01 2.000000e-01 2.000000e-01 2.000000e-01 2.000000e-01 2.000000e-01 2.000000e-01 2.000000e-01 2.000000e-01 2.000000e-01 2.000000e-01 2.000000e-01 2.000000e-01 2.000000e-01 2.000000e-01 2.000000e-01 2.000000e-01 2.000000e-01 2.000000e-01 2.000000e-01 2.000000e-01 2.000000e-01 2.000000e-01 2.000000e-01 2.000000e-01 2.000000e-01 2.000000e-01 2.000000e-01 2.000000e-01 2.000000e-01 2.000000e-01 2.000000e-01 2.000000e-01 2.000000e-01 2.000000e-01 2.000000e-01 2.000000e-01 2.000000e-01 2.000000e-01 2.000000e-01 2.000000e-01 2.000000e-01 2.000000e-01 2.000000e-01 2.000000e-01 2.000000e-01 2.000000e-01 2.000000e-01 2.000000e-01 2.000000e-01 2.000000e-01 2.000000e-01 2.000000e-01 2.000000e-01 2.000000e-01 2.000000e-01 2.000000e-01 2.000000e-01 2.000000e-01 2.000000e-01 2.000000e-01 2.000000e-01 2.000000e-01 2.000000e-01 2.000000e-01 2.000000e-01 2.000000e-01 2.000000e-01 2.000000e-01 2.000000e-01 2.000000e-01 2.000000e-01 2.000000e-01 2.000000e-01 2.000000e-01 2.000000e-01 2.000000e-01 2.000000e-01 2.000000e-01 2.000000e-01 2.000000e-01 2.000000e-01 2.000000e-01 2.000000e-01 2.000000e-01 2.000000e-01 2.000000e-01 2.000000e-01 2.000000e-01 2.000000e-01 2.000000e-01 2.000000e-01 2.000000e-01 2.000000e-01 2.000000e-01 2.000000e-01 2.000000e-01 2.000000e-01 2.000000e-01 2.000000e-01 2.000000e-01 2.000000e-01 2.000000e-01 2.000000e-01 2.000000e-01 2.000000e-01 2.000000e-01 2.000000e-01 2.000000e-01 2.000000e-01 2.000000e-01 2.000000e-01 2.000000e-01 2.000000e-01 2.000000e-01 2.000000e-01 2.000000e-01 2.000000e-01 2.000000e-01 2.000000e-01
<GCONST> 3.243863e+01
<TRANSP> 4
 0.000000e+00 1.000000e+00 0.000000e+00 0.000000e+00
 0.000000e+00 8.866282e-01 1.133719e-01 0.000000e+00
 0.000000e+00 0.000000e+00 8.424239e-01 1.575762e-01
 0.000000e+00 0.000000e+00 0.000000e+00 0.000000e+00
<ENDHMM>
