~o
<STREAMINFO> 1 142
<VECSIZE> 142<NULLD><USER><DIAGC>
~h "swallow"
<BEGINHMM>
<NUMSTATES> 4
<STATE> 2
<MEAN> 142
 7.106512e-01 3.282147e-01 3.570302e-01 3.049661e-01 2.278175e-01 3.856458e-01 3.864484e-01 3.825116e-01 3.427611e-01 4.004544e-01 4.422998e-01 4.125662e-01 4.054972e-01 4.806405e-01 3.104539e-01 3.618284e-01 3.608658e-01 3.910923e-01 3.088224e-01 4.336123e-01 4.665937e-01 4.779648e-01 4.060056e-01 4.454848e-01 4.404772e-01 4.443404e-01 4.067430e-01 3.434399e-01 3.733033e-01 3.580225e-01 4.597503e-01 4.473224e-01 4.413424e-01 4.234985e-01 4.204808e-01 3.384271e-01 3.152673e-01 3.106988e-01 3.070233e-01 3.084554e-01 3.121173e-01 3.928880e-01 2.965280e-01 3.673491e-01 2.127322e-01 4.089609e-01 4.137482e-01 4.395117e-01 4.196024e-01 3.342590e-01 4.572388e-01 4.432355e-01 4.796136e-01 2.320645e-01 4.701414e-01 3.265247e-01 4.522113e-01 3.599123e-01 3.732472e-01 2.983739e-01 4.986299e-01 4.270071e-01 3.746707e-01 3.998620e-01 3.880134e-01 4.442297e-01 3.788794e-01 4.039748e-01 4.225945e-01 3.634810e-01 4.329164e-01 4.583584e-01 4.222622e-01 4.168480e-01 3.804208e-01 3.906194e-01 4.532081e-01 3.998194e-01 4.919716e-01 4.132477e-01 3.921285e-01 3.635623e-01 3.798189e-01 4.651463e-01 3.317031e-01 4.438396e-01 3.981776e-01 4.212215e-01 4.589144e-01 3.717737e-01 3.674800e-01 3.641358e-01 4.068271e-01 3.235571e-01 3.749033e-01 5.065071e-01 4.104167e-01 3.459520e-01 4.099757e-01 4.617732e-01 3.718227e-01 4.939065e-01 3.414082e-01 3.016963e-01 3.239903e-01 3.082513e-01 4.124212e-01 3.298567e-01 4.336117e-01 3.698461e-01 4.064522e-01 3.496498e-01 3.079185e-01 2.940627e-01 3.630027e-01 4.081055e-01 3.747382e-01 3.972536e-01 4.101648e-01 4.034620e-01 3.894583e-01 5.357231e-01 4.392132e-01 4.287656e-01 4.487016e-01 3.901127e-01 3.902594e-01 3.386836e-01 3.218974e-01 4.393179e-01 4.010957e-01 3.748827e-01 3.917040e-01 4.303475e-01 3.787472e-01 3.607727e-01 4.838113e-01 3.972426e-01 3.609239e-01 3.789184e-01 4.094337e-01 4.762841e-01
<VARIANCE> 142
 2.000000e-01 2.000000e-01 2.000000e-01 2.000000e-01 2.000000e-01 2.000000e-01 2.000000e-01 2.000000e-01 2.000000e-01 2.000000e-01 2.000000e-01 2.000000e-01 2.000000e-01 2.000000e-01 2.000000e-01 2.000000e-01 2.000000e-01 2.000000e-01 2.000000e-01 2.000000e-01 2.000000e-01 2.000000e-01 2.000000e-01 2.000000e-01 2.000000e-01 2.000000e-01 2.000000e-01 2.000000e-01 2.000000e-01 2.000000e-01 2.000000e-01 2.000000e-01 2.000000e-01 2.000000e-01 2.000000e-01 2.000000e-01 2.000000e-01 2.000000e-01 2.000000e-01 2.000000e-01 2.000000e-01 2.000000e-01 2.000000e-01 2.000000e-01 2.000000e-01 2.000000e-01 2.000000e-01 2.000000e-01 2.000000e-01 2.000000e-01 2.000000e-01 2.000000e-01 2.000000e-01 2.000000e-01 2.000000e-01 2.000000e-01 2.000000e-01 2.000000e-01 2.000000e-01 2.000000e-01 2.000000e-01 2.000000e-01 2.000000e-01 2.000000e-01 2.000000e-01 2.000000e-01 2.000000e-01 2.000000e-01 2.000000e-01 2.000000e-01 2.000000e-01 2.000000e-01 2.000000e-01 2.000000e-01 2.000000e-01 2.000000e-01 2.000000e-01 2.000000e-01 2.000000e-01 2.000000e-01 2.000000e-01 2.000000e-01 2.000000e-01 2.000000e-01 2.000000e-01 2.000000e-01 2.000000e-01 2.000000e-01 2.000000e-01 2.000000e-01 2.000000e-01 2.000000e-01 2.000000e-01 2.000000e-01 2.000000e-01 2.000000e-01 2.000000e-01 2.000000e-01 2.000000e-01 2.000000e-01 2.000000e-01 2.000000e-01 2.000000e-01 2.000000e-01 2.000000e-01 2.000000e-01 2.000000e-01 2.000000e-01 2.000000e-01 2.000000e-01 2.000000e-01 2.000000e-01 2.000000e-01 2.000000e-01 2.000000e-01 2.000000e-01 2.000000e-01 2.000000e-01 2.000000e-01 2.000000e-01 2.000000e-01 2.000000e-01 2.000000e-01 2.000000e-01 2.000000e-01 2.000000e-01 2.000000e-01 2.000000e-01 2.000000e-01 2.000000e-01 2.000000e-01 2.000000e-01 2.000000e-01 2.000000e-01 2.000000e-01 2.000000e-01 2.000000e-01 2.000000e-01 2.000000e-01 2.000000e-01 2.000000e-01 2.000000e-01
<GCONST> 3.243863e+01
<STATE> 3
<MEAN> 142
 5.783326e-01 2.963963e-01 4.217651e-01 5.006684e-01 4.294878e-01 4.844477e-01 6.371052e-01 3.361067e-01 3.303071e-01 3.331366e-01 4.192186e-01 3.966676e-01 3.932222e-01 4.253820e-01 3.647853e-01 5.210730e-01 4.061152e-01 3.455253e-01 3.904349e-01 4.535464e-01 5.336360e-01 4.595734e-01 4.070532e-01 4.427069e-01 4.545618e-01 4.253040e-01 4.177150e-01 4.344739e-01 3.468736e-01 3.767956e-01 4.687487e-01 3.507377e-01 5.765714e-01 4.413250e-01 4.399011e-01 3.605945e-01 3.832016e-01 2.464633e-01 3.129962e-01 5.587528e-01 3.176510e-01 3.493819e-01 2.808860e-01 3.937983e-01 4.645317e-01 4.105435e-01 4.208055e-01 4.853079e-01 4.545194e-01 3.411460e-01 5.062066e-01 3.572868e-01 3.332515e-01 2.693944e-01 4.993685e-01 3.177924e-01 3.687141e-01 4.363995e-01 3.705685e-01 4.893648e-01 6.341503e-01 4.464952e-01 3.059620e-01 3.432110e-01 3.552020e-01 5.489321e-01 2.943232e-01 5.473913e-01 4.950324e-01 3.239114e-01 5.114557e-01 4.344052e-01 3.933170e-01 4.612849e-01 4.211417e-01 4.018974e-01 5.117669e-01 3.931268e-01 3.738082e-01 5.297524e-01 4.204632e-01 3.177802e-01 3.420579e-01 4.425640e-01 5.834172e-01 5.130691e-01 3.811698e-01 3.811317e-01 4.732649e-01 5.286052e-01 2.576176e-01 4.592787e-01 4.530120e-01 3.505416e-01 4.784984e-01 4.133432e-01 5.355738e-01 2.661322e-01 4.368584e-01 4.933287e-01 3.619814e-01 4.508491e-01 2.976121e-01 3.045942e-01 3.537749e-01 2.386460e-01 3.308893e-01 2.867092e-01 4.561729e-01 6.364520e-01 2.882472e-01 3.094889e-01 5.845261e-01 3.460824e-01 3.208636e-01 4.308644e-01 2.573123e-01 4.246985e-01 3.943065e-01 3.904870e-01 3.681522e-01 4.679798e-01 3.862351e-01 3.913197e-01 6.181114e-01 3.709733e-01 4.152496e-01 2.937010e-01 2.279938e-01 5.108259e-01 5.940173e-01 3.642339e-01 3.524466e-01 3.543563e-01 3.648323e-01 4.313275e-01 6.403100e-01 4.292602e-01 6.505526e-01 3.889245e-01 3.688658e-01 5.311117e-01
<VARIANCE> 142
 2.000000e-01 2.000000e-01 2.000000e-01 2.000000e-01 2.000000e-01 2.000000e-01 2.000000e-01 2.000000e-01 2.000000e-01 2.000000e-01 2.000000e-01 2.000000e-01 2.000000e-01 2.000000e-01 2.000000e-01 2.000000e-01 2.000000e-01 2.000000e-01 2.000000e-01 2.000000e-01 2.000000e-01 2.000000e-01 2.000000e-01 2.000000e-01 2.000000e-01 2.000000e-01 2.000000e-01 2.000000e-01 2.000000e-01 2.000000e-01 2.000000e-01 2.000000e-01 2.000000e-01 2.000000e-01 2.000000e-01 2.000000e-01 2.000000e-01 2.000000e-01 2.000000e-01 2.000000e-01 2.000000e-01 2.000000e-01 2.000000e-01 2.000000e-01 2.000000e-01 2.000000e-01 2.000000e-01 2.000000e-01 2.000000e-01 2.000000e-01 2.000000e-01 2.000000e-01 2.000000e-01 2.000000e-01 2.000000e-01 2.000000e-01 2.000000e-01 2.000000e-01 2.000000e-01 2.000000e-01 2.000000e-01 2.000000e-01 2.000000e-01 2.000000e-01 2.000000e-01 2.000000e-01 2.000000e-01 2.000000e-01 2.000000e-01 2.000000e-01 2.000000e-01 2.000000e-01 2.000000e-01 2.000000e-01 2.000000e-01 2.000000e-01 2.000000e-01 2.000000e-01 2.000000e-01 2.000000e-01 2.000000e-01 2.000000e-01 2.000000e-01 2.000000e-01 2.000000e-01 2.000000e-01 2.000000e-01 2.000000e-01 2.000000e-01 2.000000e-01 2.000000e-01 2.000000e-01 2.000000e-01 2.000000e-01 2.000000e-01 2.000000e-01 2.000000e-01 2.000000e-01 2.000000e-01 2.000000e-01 2.000000e-01 2.000000e-01 2.000000e-01 2.000000e-01 2.000000e-01 2.000000e-01 2.000000e-01 2.000000e-01 2.000000e-01 2.000000e-01 2.000000e-01 2.000000e-01 2.000000e-01 2.000000e-01 2.000000e-01 2.000000e-01 2.000000e-01 2.000000e-01 2.000000e-01 2.000000e-01 2.000000e-01 2.000000e-01 2.000000e-01 2.000000e-01 2.000000e-01 2.000000e-01 2.000000e-01 2.000000e-01 2.000000e-01 2.000000e-01 2.000000e-01 2.000000e-01 2.000000e-01 2.000000e-01 2.000000e-01 2.000000e-01 2.000000e-01 2.000000e-01 2.000000e-01 2.000000e-01 2.000000e-01 2.000000e-01
<GCONST> 3.243863e+01
<TRANSP> 4
 0.000000e+00 1.000000e+00 0.000000e+00 0.000000e+00
 0.000000e+00 8.842737e-01 1.157263e-01 0.000000e+00
 0.000000e+00 0.000000e+00 8.108745e-01 1.891255e-01
 0.000000e+00 0.000000e+00 0.000000e+00 0.000000e+00
<ENDHMM>
