~o
<STREAMINFO> 1 142
<VECSIZE> 142<NULLD><USER><DIAGC>
~h "sweet"
<BEGINHMM>
<NUMSTATES> 4
<STATE> 2
<MEAN> 142
 5.120133e-01 2.940770e-01 3.710678e-01 3.215366e-01 3.013705e-01 4.046277e-01 2.977997e-01 3.116996e-01 4.816773e-01 4.086677e-01 4.738846e-01 4.895603e-01 4.723954e-01 4.878569e-01 3.125139e-01 3.005839e-01 3.018278e-01 3.731483e-01 4.958809e-01 5.684804e-01 4.094427e-01 3.350890e-01 4.949398e-01 3.625334e-01 5.078812e-01 5.119276e-01 3.638195e-01 3.582294e-01 3.714468e-01 4.421242e-01 4.326813e-01 3.784509e-01 3.204291e-01 4.404191e-01 4.102519e-01 3.573526e-01 3.231207e-01 5.142711e-01 3.544497e-01 4.063419e-01 4.697078e-01 3.638772e-01 4.636212e-01 4.015235e-01 2.350976e-01 3.447049e-01 3.658718e-01 4.432391e-01 2.945476e-01 4.202579e-01 5.303452e-01 6.126591e-01 5.150399e-01 3.845327e-01 3.921590e-01 3.821404e-01 4.247970e-01 4.121236e-01 4.051434e-01 2.961866e-01 3.829983e-01 4.578827e-01 4.699030e-01 4.640888e-01 5.436743e-01 3.586898e-01 5.699917e-01 3.992944e-01 4.242553e-01 4.831841e-01 5.036510e-01 4.596509e-01 3.292778e-01 4.662604e-01 4.231173e-01 4.897155e-01 4.512700e-01 3.741522e-01 5.364670e-01 3.784397e-01 5.090080e-01 3.082068e-01 3.921773e-01 3.441190e-01 3.962594e-01 2.756490e-01 4.367255e-01 4.657191e-01 4.425519e-01 3.127200e-01 4.365337e-01 2.458010e-01 4.691141e-01 4.183844e-01 3.883263e-01 5.845172e-01 4.446577e-01 5.184243e-01 4.502310e-01 5.838955e-01 5.095341e-01 3.771484e-01 4.313489e-01 4.518438e-01 2.607872e-01 3.296472e-01 4.879770e-01 4.811863e-01 3.865517e-01 3.063080e-01 4.242108e-01 3.727862e-01 3.965758e-01 3.240624e-01 3.472627e-01 4.552068e-01 4.201428e-01 3.956160e-01 4.589752e-01 4.367518e-01 4.216964e-01 3.713619e-01 4.289275e-01 3.196719e-01 3.905289e-01 3.253079e-01 4.794626e-01 5.144278e-01 4.895949e-01 4.798175e-01 4.306566e-01 3.666334e-01 4.960860e-01 6.001194e-01 3.655286e-01 4.061491e-01 3.176533e-01 4.188483e-01 4.024261e-01 3.368183e-01 3.737656e-01 4.422159e-01
<VARIANCE> 142
 2.000000e-01 2.000000e-01 2.000000e-01 2.000000e-01 2.000000e-01 2.000000e-01 2.000000e-01 2.000000e-01 2.000000e-01 2.000000e-01 2.000000e-01 2.000000e-01 2.000000e-01 2.000000e-01 2.000000e-01 2.000000e-01 2.000000e-01 2.000000e-01 2.000000e-01 2.000000e-01 2.000000e-01 2.000000e-01 2.000000e-01 2.000000e-01 2.000000e-01 2.000000e-01 2.000000e-01 2.000000e-01 2.000000e-01 2.000000e-01 2.000000e-01 2.000000e-01 2.000000e-01 2.000000e-01 2.000000e-01 2.000000e-01 2.000000e-01 2.000000e-01 2.000000e-01 2.000000e-01 2.000000e-01 2.000000e-01 2.000000e-01 2.000000e-01 2.000000e-01 2.000000e-01 2.000000e-01 2.000000e-01 2.000000e-01 2.000000e-01 2.000000e-01 2.000000e-01 2.000000e-01 2.000000e-01 2.000000e-01 2.000000e-01 2.000000e-01 2.000000e-01 2.000000e-01 2.000000e-01 2.000000e-01 2.000000e-01 2.000000e-01 2.000000e-01 2.000000e-01 2.000000e-01 2.000000e-01 2.000000e-01 2.000000e-01 2.000000e-01 2.000000e-01 2.000000e-01 2.000000e-01 2.000000e-01 2.000000e-01 2.000000e-01 2.000000e-01 2.000000e-01 2.000000e-01 2.000000e-01 2.000000e-01 2.000000e-01 2.000000e-01 2.000000e-01 2.000000e-01 2.000000e-01 2.000000e-01 2.000000e-01 2.000000e-01 2.000000e-01 2.000000e-01 2.000000e-01 2.000000e-01 2.000000e-01 2.000000e-01 2.000000e-01 2.000000e-01 2.000000e-01 2.000000e-01 2.000000e-01 2.000000e-01 2.000000e-01 2.000000e-01 2.000000e-01 2.000000e-01 2.000000e-01 2.000000e-01 2.000000e-01 2.000000e-01 2.000000e-01 2.000000e-01 2.000000e-01 2.000000e-01 2.000000e-01 2.000000e-01 2.000000e-01 2.000000e-01 2.000000e-01 2.000000e-01 2.000000e-01 2.000000e-01 2.000000e-01 2.000000e-01 2.000000e-01 2.000000e-01 2.000000e-01 2.000000e-01 2.000000e-01 2.000000e-01 2.000000e-01 2.000000e-01 2.000000e-01 2.000000e-01 2.000000e-01 2.000000e-01 2.000000e-01 2.000000e-01 2.000000e-01 2.000000e-01 2.000000e-01 2.000000e-01 2.000000e-01
<GCONST> 3.243863e+01
<STATE> 3
<MEAN> 142
 5.419487e-01 3.616179e-01 4.431441e-01 4.291406e-01 3.800952e-01 3.521936e-01 4.608184e-01 4.019670e-01 3.904755e-01 4.198237e-01 4.463431e-01 4.400567e-01 3.940255e-01 4.297428e-01 3.427457e-01 4.823241e-01 4.025003e-01 3.316762e-01 3.302701e-01 3.835005e-01 5.467989e-01 5.362905e-01 4.051160e-01 4.931502e-01 4.787464e-01 4.681683e-01 3.992664e-01 3.754329e-01 3.588988e-01 4.130840e-01 4.571097e-01 4.824471e-01 5.396798e-01 5.225119e-01 4.063116e-01 4.896078e-01 3.872335e-01 2.796724e-01 3.669526e-01 4.981756e-01 3.166941e-01 4.320129e-01 3.692924e-01 3.370019e-01 3.047272e-01 4.444057e-01 4.671399e-01 4.412082e-01 4.506993e-01 3.206580e-01 5.226220e-01 3.703182e-01 4.480916e-01 3.097815e-01 4.855822e-01 3.963861e-01 3.325147e-01 3.746827e-01 3.004120e-01 4.216039e-01 4.821697e-01 5.504571e-01 3.980441e-01 4.133728e-01 3.930977e-01 5.564941e-01 3.442427e-01 4.450420e-01 4.908237e-01 3.454770e-01 4.919412e-01 4.468423e-01 3.852960e-01 4.642800e-01 3.503447e-01 3.679020e-01 5.072050e-01 4.848556e-01 4.394801e-01 5.402828e-01 4.282737e-01 3.243399e-01 3.349531e-01 4.036634e-01 4.148973e-01 5.212437e-01 4.362173e-01 4.188226e-01 4.452421e-01 3.730145e-01 3.421496e-01 3.772280e-01 4.282694e-01 3.264071e-01 4.538879e-01 4.461306e-01 4.594527e-01 2.788576e-01 4.300694e-01 5.138629e-01 3.538088e-01 5.176889e-01 4.071084e-01 3.690062e-01 3.402019e-01 2.972816e-01 3.067616e-01 3.508237e-01 3.471107e-01 4.509994e-01 3.769253e-01 3.364117e-01 5.027245e-01 3.785914e-01 4.143052e-01 4.604285e-01 3.743863e-01 4.504082e-01 4.297963e-01 4.092540e-01 4.065123e-01 5.155895e-01 4.829270e-01 3.618915e-01 4.280903e-01 4.161336e-01 3.797577e-01 3.224679e-01 3.588810e-01 4.071549e-01 5.212013e-01 4.156131e-01 3.571977e-01 4.338826e-01 3.718472e-01 4.174272e-01 4.983583e-01 4.414718e-01 4.811067e-01 4.184610e-01 5.174053e-01 4.580402e-01
<VARIANCE> 142
 2.000000e-01 2.000000e-01 2.000000e-01 2.000000e-01 2.000000e-01 2.000000e-01 2.000000e-01 2.000000e-01 2.000000e-01 2.000000e-01 2.000000e-01 2.000000e-01 2.000000e-01 2.000000e-01 2.000000e-01 2.000000e-01 2.000000e-01 2.000000e-01 2.000000e-01 2.000000e-01 2.000000e-01 2.000000e-01 2.000000e-01 2.000000e-01 2.000000e-01 2.000000e-01 2.000000e-01 2.000000e-01 2.000000e-01 2.000000e-01 2.000000e-01 2.000000e-01 2.000000e-01 2.000000e-01 2.000000e-01 2.000000e-01 2.000000e-01 2.000000e-01 2.000000e-01 2.000000e-01 2.000000e-01 2.000000e-01 2.000000e-01 2.000000e-01 2.000000e-01 2.000000e-01 2.000000e-01 2.000000e-01 2.000000e-01 2.000000e-01 2.000000e-01 2.000000e-01 2.000000e-01 2.000000e-01 2.000000e-01 2.000000e-01 2.000000e-01 2.000000e-01 2.000000e-01 2.000000e-01 2.000000e-01 2.000000e-01 2.000000e-01 2.000000e-01 2.000000e-01 2.000000e-01 2.000000e-01 2.000000e-01 2.000000e-01 2.000000e-01 2.000000e-01 2.000000e-01 2.000000e-01 2.000000e-01 2.000000e-01 2.000000e-01 2.000000e-01 2.000000e-01 2.000000e-01 2.000000e-01 2.000000e-01 2.000000e-01 2.000000e-01 2.000000e-01 2.000000e-01 2.000000e-01 2.000000e-01 2.000000e-01 2.000000e-01 2.000000e-01 2.000000e-01 2.000000e-01 2.000000e-01 2.000000e-01 2.000000e-01 2.000000e-01 2.000000e-01 2.000000e-01 2.000000e-01 2.000000e-01 2.000000e-01 2.000000e-01 2.000000e-01 2.000000e-01 2.000000e-01 2.000000e-01 2.000000e-01 2.000000e-01 2.000000e-01 2.000000e-01 2.000000e-01 2.000000e-01 2.000000e-01 2.000000e-01 2.000000e-01 2.000000e-01 2.000000e-01 2.000000e-01 2.000000e-01 2.000000e-01 2.000000e-01 2.000000e-01 2.000000e-01 2.000000e-01 2.000000e-01 2.000000e-01 2.000000e-01 2.000000e-01 2.000000e-01 2.000000e-01 2.000000e-01 2.000000e-01 2.000000e-01 2.000000e-01 2.000000e-01 2.000000e-01 2.000000e-01 2.000000e-01 2.000000e-01 2.000000e-01 2.000000e-01 2.000000e-01
<GCONST> 3.243863e+01
<TRANSP> 4
 0.000000e+00 1.000000e+00 0.000000e+00 0.000000e+00
 0.000000e+00 8.390176e-01 1.609824e-01 0.000000e+00
 0.000000e+00 0.000000e+00 8.887423e-01 1.112577e-01
 0.000000e+00 0.000000e+00 0.000000e+00 0.000000e+00
<ENDHMM>
