~o
<STREAMINFO> 1 142
<VECSIZE> 142<NULLD><USER><DIAGC>
~h "theory"
<BEGINHMM>
<NUMSTATES> 4
<STATE> 2
<MEAN> 142
 5.476077e-01 3.577083e-01 3.572407e-01 3.234479e-01 3.165209e-01 3.021761e-01 3.204431e-01 3.802185e-01 3.419453e-01 4.345548e-01 4.439048e-01 3.365621e-01 3.296818e-01 4.649753e-01 3.910304e-01 3.733869e-01 4.299769e-01 4.238907e-01 3.429673e-01 3.458439e-01 4.537749e-01 4.471419e-01 3.764774e-01 4.358023e-01 4.949175e-01 3.641977e-01 4.307942e-01 4.116986e-01 4.130479e-01 3.754928e-01 4.949251e-01 4.027915e-01 3.244435e-01 5.229496e-01 4.142857e-01 4.589146e-01 4.162571e-01 3.625776e-01 4.021184e-01 3.719128e-01 4.273998e-01 4.912587e-01 3.589407e-01 3.312027e-01 1.882440e-01 3.604943e-01 4.043530e-01 5.026283e-01 4.311130e-01 2.747325e-01 4.864358e-01 4.460168e-01 4.195907e-01 2.842707e-01 3.646013e-01 4.323819e-01 4.230683e-01 3.807245e-01 4.103947e-01 3.189344e-01 3.452343e-01 5.023372e-01 3.932956e-01 4.138288e-01 4.839355e-01 4.232654e-01 4.432997e-01 4.228995e-01 4.045677e-01 4.091045e-01 4.382485e-01 3.126010e-01 4.214411e-01 3.443389e-01 2.886875e-01 3.479525e-01 4.467095e-01 3.684227e-01 5.245287e-01 5.064652e-01 4.932132e-01 3.564172e-01 4.194054e-01 4.025614e-01 3.647473e-01 3.252573e-01 3.587143e-01 3.718015e-01 4.750884e-01 2.745626e-01 2.943903e-01 2.648028e-01 4.473152e-01 2.841965e-01 4.569093e-01 5.398222e-01 5.179943e-01 3.574374e-01 5.136223e-01 4.748735e-01 4.638878e-01 4.177299e-01 3.111661e-01 3.647265e-01 3.926131e-01 3.086310e-01 3.354254e-01 3.397074e-01 3.971238e-01 3.612297e-01 3.273971e-01 3.043149e-01 3.405425e-01 4.003313e-01 3.701792e-01 3.620632e-01 3.455719e-01 4.250470e-01 4.185433e-01 3.696201e-01 4.165163e-01 4.210593e-01 3.959427e-01 3.613729e-01 4.419108e-01 3.702117e-01 3.796384e-01 4.603696e-01 3.874912e-01 4.506072e-01 4.422137e-01 4.139694e-01 3.908622e-01 4.544798e-01 4.763266e-01 4.679409e-01 3.606827e-01 5.185075e-01 4.144567e-01 4.281277e-01 3.859766e-01 3.513228e-01
<VARIANCE> 142
 2.000000e-01 2.000000e-01 2.000000e-01 2.000000e-01 2.000000e-01 2.000000e-01 2.000000e-01 2.000000e-01 2.000000e-01 2.000000e-01 2.000000e-01 2.000000e-01 2.000000e-01 2.000000e-01 2.000000e-01 2.000000e-01 2.000000e-01 2.000000e-01 2.000000e-01 2.000000e-01 2.000000e-01 2.000000e-01 2.000000e-01 2.000000e-01 2.000000e-01 2.000000e-01 2.000000e-01 2.000000e-01 2.000000e-01 2.000000e-01 2.000000e-01 2.000000e-01 2.000000e-01 2.000000e-01 2.000000e-01 2.000000e-01 2.000000e-01 2.000000e-01 2.000000e-01 2.000000e-01 2.000000e-01 2.000000e-01 2.000000e-01 2.000000e-01 2.000000e-01 2.000000e-01 2.000000e-01 2.000000e-01 2.000000e-01 2.000000e-01 2.000000e-01 2.000000e-01 2.000000e-01 2.000000e-01 2.000000e-01 2.000000e-01 2.000000e-01 2.000000e-01 2.000000e-01 2.000000e-01 2.000000e-01 2.000000e-01 2.000000e-01 2.000000e-01 2.000000e-01 2.000000e-01 2.000000e-01 2.000000e-01 2.000000e-01 2.000000e-01 2.000000e-01 2.000000e-01 2.000000e-01 2.000000e-01 2.000000e-01 2.000000e-01 2.000000e-01 2.000000e-01 2.000000e-01 2.000000e-01 2.000000e-01 2.000000e-01 2.000000e-01 2.000000e-01 2.000000e-01 2.000000e-01 2.000000e-01 2.000000e-01 2.000000e-01 2.000000e-01 2.000000e-01 2.000000e-01 2.000000e-01 2.000000e-01 2.000000e-01 2.000000e-01 2.000000e-01 2.000000e-01 2.000000e-01 2.000000e-01 2.000000e-01 2.000000e-01 2.000000e-01 2.000000e-01 2.000000e-01 2.000000e-01 2.000000e-01 2.000000e-01 2.000000e-01 2.000000e-01 2.000000e-01 2.000000e-01 2.000000e-01 2.000000e-01 2.000000e-01 2.000000e-01 2.000000e-01 2.000000e-01 2.000000e-01 2.000000e-01 2.000000e-01 2.000000e-01 2.000000e-01 2.000000e-01 2.000000e-01 2.000000e-01 2.000000e-01 2.000000e-01 2.000000e-01 2.000000e-01 2.000000e-01 2.000000e-01 2.000000e-01 2.000000e-01 2.000000e-01 2.000000e-01 2.000000e-01 2.000000e-01 2.000000e-01 2.000000e-01 2.000000e-01 2.000000e-01
<GCONST> 3.243863e+01
<STATE> 3
<MEAN> 142
 6.466588e-01 3.769389e-01 3.455591e-01 4.099253e-01 3.019812e-01 2.252860e-01 2.653067e-01 2.607133e-01 3.420231e-01 4.522400e-01 4.059032e-01 3.718607e-01 2.947250e-01 4.247835e-01 2.691890e-01 3.513320e-01 3.688830e-01 3.219291e-01 2.781065e-01 3.092200e-01 4.648681e-01 4.627712e-01 3.180706e-01 4.868242e-01 4.181101e-01 3.883080e-01 4.048460e-01 3.214455e-01 3.644477e-01 2.990486e-01 4.404145e-01 5.044166e-01 4.276117e-01 4.934122e-01 4.140929e-01 3.483292e-01 3.536165e-01 2.220288e-01 3.151684e-01 2.784728e-01 2.589648e-01 4.484029e-01 3.341876e-01 2.418565e-01 1.813966e-01 4.375395e-01 4.739594e-01 3.373108e-01 3.901913e-01 2.963516e-01 4.946826e-01 2.825832e-01 4.490425e-01 2.312837e-01 5.195994e-01 3.464338e-01 3.288055e-01 2.868433e-01 2.908482e-01 2.773193e-01 3.143639e-01 3.623822e-01 3.807703e-01 3.991266e-01 3.889104e-01 4.451337e-01 2.523799e-01 3.665110e-01 4.151067e-01 3.095018e-01 3.780871e-01 3.942556e-01 4.473819e-01 4.147238e-01 2.595621e-01 2.961032e-01 4.629412e-01 4.406861e-01 5.049071e-01 4.088302e-01 3.872114e-01 3.554637e-01 2.899168e-01 4.104336e-01 3.159594e-01 4.793251e-01 3.601170e-01 3.825160e-01 4.508201e-01 3.182039e-01 3.214031e-01 2.992670e-01 3.602986e-01 2.833338e-01 4.631330e-01 4.036547e-01 3.814808e-01 2.665031e-01 4.042297e-01 4.194978e-01 3.549773e-01 5.771201e-01 3.382420e-01 2.806477e-01 2.960664e-01 2.838207e-01 2.845745e-01 3.167511e-01 3.108623e-01 3.072987e-01 3.657232e-01 3.385665e-01 4.005715e-01 3.743656e-01 3.582433e-01 3.605576e-01 3.223677e-01 4.181789e-01 3.985626e-01 3.453858e-01 3.774350e-01 5.085755e-01 4.137193e-01 3.416536e-01 3.291631e-01 3.794615e-01 3.826358e-01 2.509422e-01 3.114153e-01 3.611080e-01 3.368737e-01 4.053527e-01 3.064333e-01 3.547272e-01 3.667249e-01 4.413973e-01 4.212650e-01 3.651147e-01 3.268709e-01 4.876686e-01 4.664473e-01 4.160185e-01
<VARIANCE> 142
 2.000000e-01 2.000000e-01 2.000000e-01 2.000000e-01 2.000000e-01 2.000000e-01 2.000000e-01 2.000000e-01 2.000000e-01 2.000000e-01 2.000000e-01 2.000000e-01 2.000000e-01 2.000000e-01 2.000000e-01 2.000000e-01 2.000000e-01 2.000000e-01 2.000000e-01 2.000000e-01 2.000000e-01 2.000000e-01 2.000000e-01 2.000000e-01 2.000000e-01 2.000000e-01 2.000000e-01 2.000000e-01 2.000000e-01 2.000000e-01 2.000000e-01 2.000000e-01 2.000000e-01 2.000000e-01 2.000000e-01 2.000000e-01 2.000000e-01 2.000000e-01 2.000000e-01 2.000000e-01 2.000000e-01 2.000000e-01 2.000000e-01 2.000000e-01 2.000000e-01 2.000000e-01 2.000000e-01 2.000000e-01 2.000000e-01 2.000000e-01 2.000000e-01 2.000000e-01 2.000000e-01 2.000000e-01 2.000000e-01 2.000000e-01 2.000000e-01 2.000000e-01 2.000000e-01 2.000000e-01 2.000000e-01 2.000000e-01 2.000000e-01 2.000000e-01 2.000000e-01 2.000000e-01 2.000000e-01 2.000000e-01 2.000000e-01 2.000000e-01 2.000000e-01 2.000000e-01 2.000000e-01 2.000000e-01 2.000000e-01 2.000000e-01 2.000000e-01 2.000000e-01 2.000000e-01 2.000000e-01 2.000000e-01 2.000000e-01 2.000000e-01 2.000000e-01 2.000000e-01 2.000000e-01 2.000000e-01 2.000000e-01 2.000000e-01 2.000000e-01 2.000000e-01 2.000000e-01 2.000000e-01 2.000000e-01 2.000000e-01 2.000000e-01 2.000000e-01 2.000000e-01 2.000000e-01 2.000000e-01 2.000000e-01 2.000000e-01 2.000000e-01 2.000000e-01 2.000000e-01 2.000000e-01 2.000000e-01 2.000000e-01 2.000000e-01 2.000000e-01 2.000000e-01 2.000000e-01 2.000000e-01 2.000000e-01 2.000000e-01 2.000000e-01 2.000000e-01 2.000000e-01 2.000000e-01 2.000000e-01 2.000000e-01 2.000000e-01 2.000000e-01 2.000000e-01 2.000000e-01 2.000000e-01 2.000000e-01 2.000000e-01 2.000000e-01 2.000000e-01 2.000000e-01 2.000000e-01 2.000000e-01 2.000000e-01 2.000000e-01 2.000000e-01 2.000000e-01 2.000000e-01 2.000000e-01 2.000000e-01 2.000000e-01 2.000000e-01
<GCONST> 3.243863e+01
<TRANSP> 4
 0.000000e+00 1.000000e+00 0.000000e+00 0.000000e+00
 0.000000e+00 8.962529e-01 1.037472e-01 0.000000e+00
 0.000000e+00 0.000000e+00 8.256682e-01 1.743318e-01
 0.000000e+00 0.000000e+00 0.000000e+00 0.000000e+00
<ENDHMM>
