~o
<STREAMINFO> 1 142
<VECSIZE> 142<NULLD><USER><DIAGC>
~h "they"
<BEGINHMM>
<NUMSTATES> 4
<STATE> 2
<MEAN> 142
 4.690103e-01 3.800152e-01 3.170281e-01 3.782685e-01 3.620130e-01 2.656243e-01 3.256112e-01 3.058087e-01 4.124287e-01 4.323019e-01 3.760165e-01 4.118497e-01 3.471453e-01 3.892565e-01 4.173017e-01 3.615193e-01 4.174376e-01 3.813831e-01 3.032525e-01 3.217847e-01 4.986877e-01 4.597465e-01 3.521515e-01 4.712600e-01 5.331327e-01 3.864433e-01 3.779858e-01 3.671644e-01 4.717944e-01 4.384301e-01 4.343744e-01 4.667967e-01 3.355756e-01 5.701297e-01 4.075677e-01 4.259783e-01 4.089929e-01 4.691579e-01 4.578023e-01 3.719262e-01 4.662596e-01 4.882815e-01 3.851068e-01 3.088905e-01 1.901505e-01 3.242717e-01 4.277079e-01 4.531500e-01 4.157530e-01 3.115066e-01 5.075619e-01 4.468943e-01 4.112138e-01 3.172069e-01 4.298474e-01 4.228743e-01 3.482425e-01 3.233124e-01 3.555774e-01 3.370170e-01 3.673691e-01 4.243337e-01 3.998331e-01 4.368117e-01 4.503881e-01 3.947357e-01 4.481274e-01 3.944255e-01 3.796391e-01 4.551638e-01 4.343308e-01 3.666694e-01 3.373482e-01 3.577202e-01 2.194852e-01 3.771096e-01 3.875297e-01 4.586160e-01 4.995368e-01 4.523387e-01 5.152175e-01 4.052956e-01 3.951209e-01 4.141811e-01 3.295688e-01 3.536389e-01 3.859557e-01 4.197447e-01 4.594643e-01 3.090740e-01 3.750431e-01 2.448882e-01 4.216867e-01 3.331445e-01 4.698612e-01 4.559523e-01 4.705274e-01 3.799293e-01 5.270320e-01 4.859150e-01 4.252061e-01 4.784804e-01 3.639050e-01 4.731261e-01 3.398807e-01 2.841548e-01 3.468885e-01 4.450646e-01 2.899522e-01 3.539397e-01 3.716109e-01 3.854724e-01 3.208539e-01 4.178038e-01 3.887269e-01 3.842822e-01 3.863717e-01 4.393156e-01 4.435866e-01 3.605479e-01 4.466103e-01 4.344567e-01 4.255972e-01 3.526537e-01 3.323718e-01 3.598795e-01 4.188990e-01 4.179025e-01 4.158351e-01 3.587159e-01 3.953156e-01 4.543607e-01 3.451999e-01 4.537875e-01 5.117431e-01 4.960542e-01 3.677227e-01 5.079507e-01 4.208165e-01 4.638339e-01 4.818559e-01 3.879676e-01
<VARIANCE> 142
 2.000000e-01 2.000000e-01 2.000000e-01 2.000000e-01 2.000000e-01 2.000000e-01 2.000000e-01 2.000000e-01 2.000000e-01 2.000000e-01 2.000000e-01 2.000000e-01 2.000000e-01 2.000000e-01 2.000000e-01 2.000000e-01 2.000000e-01 2.000000e-01 2.000000e-01 2.000000e-01 2.000000e-01 2.000000e-01 2.000000e-01 2.000000e-01 2.000000e-01 2.000000e-01 2.000000e-01 2.000000e-01 2.000000e-01 2.000000e-01 2.000000e-01 2.000000e-01 2.000000e-01 2.000000e-01 2.000000e-01 2.000000e-01 2.000000e-01 2.000000e-01 2.000000e-01 2.000000e-01 2.000000e-01 2.000000e-01 2.000000e-01 2.000000e-01 2.000000e-01 2.000000e-01 2.000000e-01 2.000000e-01 2.000000e-01 2.000000e-01 2.000000e-01 2.000000e-01 2.000000e-01 2.000000e-01 2.000000e-01 2.000000e-01 2.000000e-01 2.000000e-01 2.000000e-01 2.000000e-01 2.000000e-01 2.000000e-01 2.000000e-01 2.000000e-01 2.000000e-01 2.000000e-01 2.000000e-01 2.000000e-01 2.000000e-01 2.000000e-01 2.000000e-01 2.000000e-01 2.000000e-01 2.000000e-01 2.000000e-01 2.000000e-01 2.000000e-01 2.000000e-01 2.000000e-01 2.000000e-01 2.000000e-01 2.000000e-01 2.000000e-01 2.000000e-01 2.000000e-01 2.000000e-01 2.000000e-01 2.000000e-01 2.000000e-01 2.000000e-01 2.000000e-01 2.000000e-01 2.000000e-01 2.000000e-01 2.000000e-01 2.000000e-01 2.000000e-01 2.000000e-01 2.000000e-01 2.000000e-01 2.000000e-01 2.000000e-01 2.000000e-01 2.000000e-01 2.000000e-01 2.000000e-01 2.000000e-01 2.000000e-01 2.000000e-01 2.000000e-01 2.000000e-01 2.000000e-01 2.000000e-01 2.000000e-01 2.000000e-01 2.000000e-01 2.000000e-01 2.000000e-01 2.000000e-01 2.000000e-01 2.000000e-01 2.000000e-01 2.000000e-01 2.000000e-01 2.000000e-01 2.000000e-01 2.000000e-01 2.000000e-01 2.000000e-01 2.000000e-01 2.000000e-01 2.000000e-01 2.000000e-01 2.000000e-01 2.000000e-01 2.000000e-01 2.000000e-01 2.000000e-01 2.000000e-01 2.000000e-01 2.000000e-01 2.000000e-01
<GCONST> 3.243863e+01
<STATE> 3
<MEAN> 142
 6.465347e-01 3.617863e-01 4.015256e-01 3.248034e-01 2.698571e-01 2.350241e-01 3.401970e-01 3.271905e-01 3.634879e-01 4.071013e-01 5.240421e-01 3.771100e-01 3.299262e-01 4.825613e-01 3.053510e-01 3.325087e-01 3.976548e-01 3.345846e-01 3.142777e-01 3.567985e-01 5.145323e-01 5.154096e-01 4.079660e-01 4.572721e-01 5.005187e-01 3.893920e-01 4.600175e-01 3.253891e-01 3.821385e-01 3.569607e-01 4.590649e-01 5.182037e-01 3.965305e-01 4.525696e-01 4.545852e-01 3.059654e-01 3.376749e-01 2.765475e-01 3.208306e-01 2.615329e-01 2.796842e-01 3.853006e-01 3.223848e-01 2.877856e-01 1.551087e-01 3.676004e-01 4.750753e-01 3.546844e-01 4.525314e-01 3.736867e-01 4.986663e-01 3.504840e-01 4.312170e-01 2.685860e-01 4.660896e-01 3.523656e-01 4.522125e-01 3.665049e-01 3.458658e-01 3.156709e-01 3.948939e-01 4.367065e-01 3.805694e-01 3.555252e-01 3.394369e-01 4.567283e-01 3.116639e-01 4.007647e-01 4.543172e-01 2.937143e-01 4.243011e-01 3.941167e-01 4.230003e-01 4.357100e-01 2.948554e-01 3.912457e-01 4.778093e-01 4.591562e-01 4.976339e-01 4.494438e-01 3.979433e-01 3.838049e-01 3.054675e-01 4.635118e-01 2.983846e-01 4.608633e-01 3.894389e-01 4.289435e-01 4.567811e-01 3.118714e-01 3.206549e-01 3.111518e-01 3.569958e-01 3.184612e-01 4.298774e-01 4.016748e-01 3.983187e-01 2.501080e-01 4.041890e-01 4.591148e-01 3.726829e-01 5.263976e-01 3.969864e-01 2.768828e-01 3.620205e-01 3.598477e-01 3.327416e-01 3.705833e-01 3.887281e-01 3.488640e-01 3.831977e-01 3.572518e-01 2.973985e-01 3.512065e-01 3.258864e-01 3.550113e-01 3.710975e-01 4.858498e-01 3.780150e-01 4.625100e-01 4.859052e-01 5.527956e-01 4.612258e-01 3.354687e-01 3.513225e-01 3.952678e-01 3.851107e-01 2.364151e-01 2.632281e-01 4.709431e-01 3.141599e-01 3.783526e-01 3.154785e-01 3.756917e-01 3.461986e-01 4.959936e-01 3.887221e-01 3.600555e-01 2.967243e-01 4.502123e-01 4.464348e-01 5.045512e-01
<VARIANCE> 142
 2.000000e-01 2.000000e-01 2.000000e-01 2.000000e-01 2.000000e-01 2.000000e-01 2.000000e-01 2.000000e-01 2.000000e-01 2.000000e-01 2.000000e-01 2.000000e-01 2.000000e-01 2.000000e-01 2.000000e-01 2.000000e-01 2.000000e-01 2.000000e-01 2.000000e-01 2.000000e-01 2.000000e-01 2.000000e-01 2.000000e-01 2.000000e-01 2.000000e-01 2.000000e-01 2.000000e-01 2.000000e-01 2.000000e-01 2.000000e-01 2.000000e-01 2.000000e-01 2.000000e-01 2.000000e-01 2.000000e-01 2.000000e-01 2.000000e-01 2.000000e-01 2.000000e-01 2.000000e-01 2.000000e-01 2.000000e-01 2.000000e-01 2.000000e-01 2.000000e-01 2.000000e-01 2.000000e-01 2.000000e-01 2.000000e-01 2.000000e-01 2.000000e-01 2.000000e-01 2.000000e-01 2.000000e-01 2.000000e-01 2.000000e-01 2.000000e-01 2.000000e-01 2.000000e-01 2.000000e-01 2.000000e-01 2.000000e-01 2.000000e-01 2.000000e-01 2.000000e-01 2.000000e-01 2.000000e-01 2.000000e-01 2.000000e-01 2.000000e-01 2.000000e-01 2.000000e-01 2.000000e-01 2.000000e-01 2.000000e-01 2.000000e-01 2.000000e-01 2.000000e-01 2.000000e-01 2.000000e-01 2.000000e-01 2.000000e-01 2.000000e-01 2.000000e-01 2.000000e-01 2.000000e-01 2.000000e-01 2.000000e-01 2.000000e-01 2.000000e-01 2.000000e-01 2.000000e-01 2.000000e-01 2.000000e-01 2.000000e-01 2.000000e-01 2.000000e-01 2.000000e-01 2.000000e-01 2.000000e-01 2.000000e-01 2.000000e-01 2.000000e-01 2.000000e-01 2.000000e-01 2.000000e-01 2.000000e-01 2.000000e-01 2.000000e-01 2.000000e-01 2.000000e-01 2.000000e-01 2.000000e-01 2.000000e-01 2.000000e-01 2.000000e-01 2.000000e-01 2.000000e-01 2.000000e-01 2.000000e-01 2.000000e-01 2.000000e-01 2.000000e-01 2.000000e-01 2.000000e-01 2.000000e-01 2.000000e-01 2.000000e-01 2.000000e-01 2.000000e-01 2.000000e-01 2.000000e-01 2.000000e-01 2.000000e-01 2.000000e-01 2.000000e-01 2.000000e-01 2.000000e-01 2.000000e-01 2.000000e-01 2.000000e-01 2.000000e-01
<GCONST> 3.243863e+01
<TRANSP> 4
 0.000000e+00 1.000000e+00 0.000000e+00 0.000000e+00
 0.000000e+00 8.845419e-01 1.154582e-01 0.000000e+00
 0.000000e+00 0.000000e+00 8.273898e-01 1.726102e-01
 0.000000e+00 0.000000e+00 0.000000e+00 0.000000e+00
<ENDHMM>
