~o
<STREAMINFO> 1 142
<VECSIZE> 142<NULLD><USER><DIAGC>
~h "turn"
<BEGINHMM>
<NUMSTATES> 4
<STATE> 2
<MEAN> 142
 5.695083e-01 3.583900e-01 3.998497e-01 3.451132e-01 2.871687e-01 3.775085e-01 3.549136e-01 4.159749e-01 3.622247e-01 4.868570e-01 5.472333e-01 4.076143e-01 3.607564e-01 5.545529e-01 4.384484e-01 3.737070e-01 3.956949e-01 3.663599e-01 3.939923e-01 4.044783e-01 5.548168e-01 5.485676e-01 3.803464e-01 4.997128e-01 5.371176e-01 3.725334e-01 5.024331e-01 3.581320e-01 4.322771e-01 3.787723e-01 4.820493e-01 3.824007e-01 3.248136e-01 5.290427e-01 4.260189e-01 3.682552e-01 4.731826e-01 3.522728e-01 4.450514e-01 3.363870e-01 3.662222e-01 4.519608e-01 3.323280e-01 3.908284e-01 2.221755e-01 3.701037e-01 4.650478e-01 4.760937e-01 5.294154e-01 3.872927e-01 4.564500e-01 4.112085e-01 5.075395e-01 2.340256e-01 4.117192e-01 4.006873e-01 5.701243e-01 4.505340e-01 4.120801e-01 3.954313e-01 3.968903e-01 3.967090e-01 3.613266e-01 3.900857e-01 3.707476e-01 3.711592e-01 4.327988e-01 4.733806e-01 3.739781e-01 4.161785e-01 4.167065e-01 3.879410e-01 4.215102e-01 5.105067e-01 3.143273e-01 3.149047e-01 3.960584e-01 3.615858e-01 5.158680e-01 4.795588e-01 4.540611e-01 4.046825e-01 4.114704e-01 4.516612e-01 3.605001e-01 3.573553e-01 3.635510e-01 4.115625e-01 4.939066e-01 3.639708e-01 3.008775e-01 3.307847e-01 3.982069e-01 3.369893e-01 4.138434e-01 4.028608e-01 4.336001e-01 3.115830e-01 4.682899e-01 4.097942e-01 4.400214e-01 5.583779e-01 3.347042e-01 3.488397e-01 4.465201e-01 3.596668e-01 3.980709e-01 3.607943e-01 4.688006e-01 4.508141e-01 3.833266e-01 3.690680e-01 2.975372e-01 4.110381e-01 3.268683e-01 3.350158e-01 4.008192e-01 4.348735e-01 3.815089e-01 4.647577e-01 4.222053e-01 4.475515e-01 3.585618e-01 3.351093e-01 4.740200e-01 3.887211e-01 3.984893e-01 3.394453e-01 2.958829e-01 4.903050e-01 4.152402e-01 4.136213e-01 2.737714e-01 4.127482e-01 4.073275e-01 4.669262e-01 4.285562e-01 4.401871e-01 4.041661e-01 4.703009e-01 4.042584e-01 3.786643e-01
<VARIANCE> 142
 2.000000e-01 2.000000e-01 2.000000e-01 2.000000e-01 2.000000e-01 2.000000e-01 2.000000e-01 2.000000e-01 2.000000e-01 2.000000e-01 2.000000e-01 2.000000e-01 2.000000e-01 2.000000e-01 2.000000e-01 2.000000e-01 2.000000e-01 2.000000e-01 2.000000e-01 2.000000e-01 2.000000e-01 2.000000e-01 2.000000e-01 2.000000e-01 2.000000e-01 2.000000e-01 2.000000e-01 2.000000e-01 2.000000e-01 2.000000e-01 2.000000e-01 2.000000e-01 2.000000e-01 2.000000e-01 2.000000e-01 2.000000e-01 2.000000e-01 2.000000e-01 2.000000e-01 2.000000e-01 2.000000e-01 2.000000e-01 2.000000e-01 2.000000e-01 2.000000e-01 2.000000e-01 2.000000e-01 2.000000e-01 2.000000e-01 2.000000e-01 2.000000e-01 2.000000e-01 2.000000e-01 2.000000e-01 2.000000e-01 2.000000e-01 2.000000e-01 2.000000e-01 2.000000e-01 2.000000e-01 2.000000e-01 2.000000e-01 2.000000e-01 2.000000e-01 2.000000e-01 2.000000e-01 2.000000e-01 2.000000e-01 2.000000e-01 2.000000e-01 2.000000e-01 2.000000e-01 2.000000e-01 2.000000e-01 2.000000e-01 2.000000e-01 2.000000e-01 2.000000e-01 2.000000e-01 2.000000e-01 2.000000e-01 2.000000e-01 2.000000e-01 2.000000e-01 2.000000e-01 2.000000e-01 2.000000e-01 2.000000e-01 2.000000e-01 2.000000e-01 2.000000e-01 2.000000e-01 2.000000e-01 2.000000e-01 2.000000e-01 2.000000e-01 2.000000e-01 2.000000e-01 2.000000e-01 2.000000e-01 2.000000e-01 2.000000e-01 2.000000e-01 2.000000e-01 2.000000e-01 2.000000e-01 2.000000e-01 2.000000e-01 2.000000e-01 2.000000e-01 2.000000e-01 2.000000e-01 2.000000e-01 2.000000e-01 2.000000e-01 2.000000e-01 2.000000e-01 2.000000e-01 2.000000e-01 2.000000e-01 2.000000e-01 2.000000e-01 2.000000e-01 2.000000e-01 2.000000e-01 2.000000e-01 2.000000e-01 2.000000e-01 2.000000e-01 2.000000e-01 2.000000e-01 2.000000e-01 2.000000e-01 2.000000e-01 2.000000e-01 2.000000e-01 2.000000e-01 2.000000e-01 2.000000e-01 2.000000e-01 2.000000e-01 2.000000e-01
<GCONST> 3.243863e+01
<STATE> 3
<MEAN> 142
 5.999097e-01 3.660851e-01 3.191617e-01 3.579589e-01 3.147086e-01 4.915140e-01 4.639363e-01 4.139501e-01 4.539014e-01 4.104005e-01 4.228757e-01 5.034037e-01 5.135788e-01 4.881802e-01 4.367582e-01 4.601177e-01 4.205194e-01 4.229034e-01 3.501292e-01 4.775127e-01 4.718780e-01 4.162294e-01 4.319220e-01 4.178664e-01 4.438525e-01 5.484352e-01 3.773614e-01 3.686540e-01 3.966450e-01 5.335954e-01 4.846481e-01 4.476744e-01 4.468088e-01 4.456270e-01 4.013309e-01 4.054203e-01 3.106959e-01 4.742574e-01 3.724808e-01 4.505655e-01 4.458725e-01 3.986986e-01 3.474240e-01 4.059535e-01 3.027339e-01 4.228800e-01 3.840053e-01 5.293216e-01 4.543890e-01 3.727791e-01 5.557066e-01 5.189447e-01 4.948319e-01 3.904208e-01 4.661805e-01 3.901903e-01 4.028831e-01 3.685122e-01 3.912898e-01 3.686838e-01 5.829228e-01 4.010731e-01 4.088403e-01 4.573144e-01 4.909149e-01 4.518914e-01 5.353860e-01 4.331954e-01 4.478139e-01 4.533987e-01 4.643227e-01 5.068851e-01 4.397474e-01 4.390821e-01 4.344915e-01 4.988365e-01 4.824177e-01 3.659579e-01 4.714499e-01 3.806717e-01 4.765522e-01 3.478098e-01 4.799300e-01 3.794997e-01 4.204175e-01 5.007408e-01 4.785259e-01 4.771383e-01 4.684087e-01 4.431770e-01 4.179468e-01 4.691345e-01 5.055043e-01 3.958912e-01 3.729511e-01 5.105188e-01 4.555977e-01 4.400588e-01 4.481006e-01 4.751661e-01 3.428087e-01 4.363185e-01 3.968326e-01 4.467712e-01 3.308060e-01 3.165002e-01 4.640474e-01 4.145096e-01 4.607951e-01 3.995484e-01 4.486161e-01 4.466471e-01 3.634089e-01 3.244246e-01 3.582014e-01 5.089080e-01 4.050588e-01 3.774973e-01 4.403075e-01 3.800006e-01 4.043895e-01 4.321618e-01 4.012403e-01 4.776859e-01 4.417051e-01 3.319787e-01 4.326583e-01 4.267831e-01 3.600433e-01 4.243613e-01 4.759558e-01 3.950775e-01 5.091913e-01 4.672658e-01 4.002474e-01 3.879095e-01 5.152246e-01 4.427026e-01 5.047652e-01 3.693245e-01 4.371989e-01 4.442446e-01
<VARIANCE> 142
 2.000000e-01 2.000000e-01 2.000000e-01 2.000000e-01 2.000000e-01 2.000000e-01 2.000000e-01 2.000000e-01 2.000000e-01 2.000000e-01 2.000000e-01 2.000000e-01 2.000000e-01 2.000000e-01 2.000000e-01 2.000000e-01 2.000000e-01 2.000000e-01 2.000000e-01 2.000000e-01 2.000000e-01 2.000000e-01 2.000000e-01 2.000000e-01 2.000000e-01 2.000000e-01 2.000000e-01 2.000000e-01 2.000000e-01 2.000000e-01 2.000000e-01 2.000000e-01 2.000000e-01 2.000000e-01 2.000000e-01 2.000000e-01 2.000000e-01 2.000000e-01 2.000000e-01 2.000000e-01 2.000000e-01 2.000000e-01 2.000000e-01 2.000000e-01 2.000000e-01 2.000000e-01 2.000000e-01 2.000000e-01 2.000000e-01 2.000000e-01 2.000000e-01 2.000000e-01 2.000000e-01 2.000000e-01 2.000000e-01 2.000000e-01 2.000000e-01 2.000000e-01 2.000000e-01 2.000000e-01 2.000000e-01 2.000000e-01 2.000000e-01 2.000000e-01 2.000000e-01 2.000000e-01 2.000000e-01 2.000000e-01 2.000000e-01 2.000000e-01 2.000000e-01 2.000000e-01 2.000000e-01 2.000000e-01 2.000000e-01 2.000000e-01 2.000000e-01 2.000000e-01 2.000000e-01 2.000000e-01 2.000000e-01 2.000000e-01 2.000000e-01 2.000000e-01 2.000000e-01 2.000000e-01 2.000000e-01 2.000000e-01 2.000000e-01 2.000000e-01 2.000000e-01 2.000000e-01 2.000000e-01 2.000000e-01 2.000000e-01 2.000000e-01 2.000000e-01 2.000000e-01 2.000000e-01 2.000000e-01 2.000000e-01 2.000000e-01 2.000000e-01 2.000000e-01 2.000000e-01 2.000000e-01 2.000000e-01 2.000000e-01 2.000000e-01 2.000000e-01 2.000000e-01 2.000000e-01 2.000000e-01 2.000000e-01 2.000000e-01 2.000000e-01 2.000000e-01 2.000000e-01 2.000000e-01 2.000000e-01 2.000000e-01 2.000000e-01 2.000000e-01 2.000000e-01 2.000000e-01 2.000000e-01 2.000000e-01 2.000000e-01 2.000000e-01 2.000000e-01 2.000000e-01 2.000000e-01 2.000000e-01 2.000000e-01 2.000000e-01 2.000000e-01 2.000000e-01 2.000000e-01 2.000000e-01 2.000000e-01 2.000000e-01 2.000000e-01
<GCONST> 3.243863e+01
<TRANSP> 4
 0.000000e+00 1.000000e+00 0.000000e+00 0.000000e+00
 0.000000e+00 8.742988e-01 1.257012e-01 0.000000e+00
 0.000000e+00 0.000000e+00 8.595811e-01 1.404189e-01
 0.000000e+00 0.000000e+00 0.000000e+00 0.000000e+00
<ENDHMM>
