~o
<STREAMINFO> 1 142
<VECSIZE> 142<NULLD><USER><DIAGC>
~h "ugly"
<BEGINHMM>
<NUMSTATES> 4
<STATE> 2
<MEAN> 142
 5.231441e-01 2.654810e-01 3.402546e-01 3.508466e-01 3.609013e-01 4.472693e-01 4.301452e-01 4.471596e-01 4.188733e-01 4.388735e-01 4.193568e-01 3.750641e-01 4.699184e-01 4.902699e-01 4.983484e-01 4.294745e-01 4.284719e-01 3.890699e-01 3.715128e-01 3.994170e-01 4.724419e-01 4.317198e-01 3.598219e-01 4.216699e-01 4.530574e-01 4.699571e-01 3.629146e-01 4.057602e-01 3.866222e-01 4.447674e-01 5.301346e-01 3.854263e-01 3.649072e-01 4.836479e-01 3.871367e-01 4.586981e-01 4.210243e-01 5.120646e-01 3.931386e-01 6.061674e-01 4.921107e-01 3.872397e-01 3.288762e-01 4.346491e-01 3.016869e-01 3.392761e-01 4.166595e-01 5.724121e-01 5.556270e-01 3.322061e-01 5.027216e-01 5.392268e-01 4.851671e-01 3.262752e-01 4.288464e-01 3.386920e-01 4.584840e-01 4.003885e-01 4.481454e-01 4.303614e-01 5.066926e-01 4.543785e-01 3.881361e-01 4.305232e-01 4.439623e-01 4.000719e-01 5.868936e-01 5.365515e-01 4.559004e-01 5.204865e-01 4.561849e-01 4.023438e-01 4.233816e-01 3.972237e-01 4.151107e-01 4.609431e-01 4.596362e-01 3.449747e-01 4.843239e-01 4.047569e-01 5.017357e-01 3.406494e-01 4.822825e-01 4.512964e-01 4.328435e-01 4.412459e-01 3.982928e-01 3.729218e-01 5.195094e-01 4.223472e-01 2.978939e-01 4.224210e-01 4.921091e-01 3.593428e-01 4.102220e-01 4.902704e-01 4.651884e-01 4.074278e-01 5.233909e-01 4.643668e-01 4.542385e-01 4.169066e-01 3.330798e-01 3.899723e-01 4.311371e-01 2.990526e-01 4.483410e-01 4.610527e-01 4.503764e-01 5.294176e-01 3.929160e-01 3.542701e-01 3.948337e-01 3.945270e-01 3.328161e-01 4.085892e-01 3.205967e-01 4.213524e-01 3.764988e-01 3.804981e-01 3.897575e-01 3.747560e-01 3.259887e-01 4.354790e-01 4.692037e-01 3.129256e-01 3.896432e-01 4.456740e-01 2.878381e-01 4.389173e-01 4.769090e-01 4.229495e-01 4.048525e-01 4.591910e-01 4.408669e-01 4.666248e-01 5.110052e-01 4.894701e-01 6.151211e-01 3.690780e-01 4.065802e-01 3.990675e-01
<VARIANCE> 142
 2.000000e-01 2.000000e-01 2.000000e-01 2.000000e-01 2.000000e-01 2.000000e-01 2.000000e-01 2.000000e-01 2.000000e-01 2.000000e-01 2.000000e-01 2.000000e-01 2.000000e-01 2.000000e-01 2.000000e-01 2.000000e-01 2.000000e-01 2.000000e-01 2.000000e-01 2.000000e-01 2.000000e-01 2.000000e-01 2.000000e-01 2.000000e-01 2.000000e-01 2.000000e-01 2.000000e-01 2.000000e-01 2.000000e-01 2.000000e-01 2.000000e-01 2.000000e-01 2.000000e-01 2.000000e-01 2.000000e-01 2.000000e-01 2.000000e-01 2.000000e-01 2.000000e-01 2.000000e-01 2.000000e-01 2.000000e-01 2.000000e-01 2.000000e-01 2.000000e-01 2.000000e-01 2.000000e-01 2.000000e-01 2.000000e-01 2.000000e-01 2.000000e-01 2.000000e-01 2.000000e-01 2.000000e-01 2.000000e-01 2.000000e-01 2.000000e-01 2.000000e-01 2.000000e-01 2.000000e-01 2.000000e-01 2.000000e-01 2.000000e-01 2.000000e-01 2.000000e-01 2.000000e-01 2.000000e-01 2.000000e-01 2.000000e-01 2.000000e-01 2.000000e-01 2.000000e-01 2.000000e-01 2.000000e-01 2.000000e-01 2.000000e-01 2.000000e-01 2.000000e-01 2.000000e-01 2.000000e-01 2.000000e-01 2.000000e-01 2.000000e-01 2.000000e-01 2.000000e-01 2.000000e-01 2.000000e-01 2.000000e-01 2.000000e-01 2.000000e-01 2.000000e-01 2.000000e-01 2.000000e-01 2.000000e-01 2.000000e-01 2.000000e-01 2.000000e-01 2.000000e-01 2.000000e-01 2.000000e-01 2.000000e-01 2.000000e-01 2.000000e-01 2.000000e-01 2.000000e-01 2.000000e-01 2.000000e-01 2.000000e-01 2.000000e-01 2.000000e-01 2.000000e-01 2.000000e-01 2.000000e-01 2.000000e-01 2.000000e-01 2.000000e-01 2.000000e-01 2.000000e-01 2.000000e-01 2.000000e-01 2.000000e-01 2.000000e-01 2.000000e-01 2.000000e-01 2.000000e-01 2.000000e-01 2.000000e-01 2.000000e-01 2.000000e-01 2.000000e-01 2.000000e-01 2.000000e-01 2.000000e-01 2.000000e-01 2.000000e-01 2.000000e-01 2.000000e-01 2.000000e-01 2.000000e-01 2.000000e-01 2.000000e-01 2.000000e-01
<GCONST> 3.243863e+01
<STATE> 3
<MEAN> 142
 7.459518e-01 3.347268e-01 3.951222e-01 3.477148e-01 2.507667e-01 3.930565e-01 3.746577e-01 3.554386e-01 3.137283e-01 3.848490e-01 4.559980e-01 4.080369e-01 3.892017e-01 4.947683e-01 2.467148e-01 3.077311e-01 3.419500e-01 3.808068e-01 3.492315e-01 4.254664e-01 4.804652e-01 4.795117e-01 4.376732e-01 4.266045e-01 4.807928e-01 4.045309e-01 4.509553e-01 3.462370e-01 3.826834e-01 3.211979e-01 4.611469e-01 4.576146e-01 4.134426e-01 3.961473e-01 4.091860e-01 3.522512e-01 3.014727e-01 3.084678e-01 3.060732e-01 2.393212e-01 2.922640e-01 4.098836e-01 2.952270e-01 3.800529e-01 2.036595e-01 3.969856e-01 4.615833e-01 3.585274e-01 3.950274e-01 3.625215e-01 4.825360e-01 3.741975e-01 4.202116e-01 2.522890e-01 4.963395e-01 3.401499e-01 5.227570e-01 3.577626e-01 3.873779e-01 3.073083e-01 4.226680e-01 4.316737e-01 3.842261e-01 4.089416e-01 3.641987e-01 4.423116e-01 3.403598e-01 3.591509e-01 4.368020e-01 3.347618e-01 4.687444e-01 5.045294e-01 4.031733e-01 4.134016e-01 3.637487e-01 3.507709e-01 4.726012e-01 4.510464e-01 4.579853e-01 4.107373e-01 4.155566e-01 3.834410e-01 3.364964e-01 4.674198e-01 2.768008e-01 4.616949e-01 4.064705e-01 4.060065e-01 4.410081e-01 3.621846e-01 3.626347e-01 3.534082e-01 3.865198e-01 3.552959e-01 3.801505e-01 4.801940e-01 3.719520e-01 3.222345e-01 3.923194e-01 4.452012e-01 3.594053e-01 5.059923e-01 3.621927e-01 3.349921e-01 3.107964e-01 3.403952e-01 4.138229e-01 3.338901e-01 4.067051e-01 3.797843e-01 4.030166e-01 3.480244e-01 2.919151e-01 2.946999e-01 3.629952e-01 3.815798e-01 3.761380e-01 4.040212e-01 4.229097e-01 4.629197e-01 4.458648e-01 5.263902e-01 4.883713e-01 4.220197e-01 4.346800e-01 4.039529e-01 3.696992e-01 3.221153e-01 3.449071e-01 4.555011e-01 3.656525e-01 3.708079e-01 4.042251e-01 3.909062e-01 3.411714e-01 3.964581e-01 4.103993e-01 3.688844e-01 2.939111e-01 3.256036e-01 4.555960e-01 4.876177e-01
<VARIANCE> 142
 2.000000e-01 2.000000e-01 2.000000e-01 2.000000e-01 2.000000e-01 2.000000e-01 2.000000e-01 2.000000e-01 2.000000e-01 2.000000e-01 2.000000e-01 2.000000e-01 2.000000e-01 2.000000e-01 2.000000e-01 2.000000e-01 2.000000e-01 2.000000e-01 2.000000e-01 2.000000e-01 2.000000e-01 2.000000e-01 2.000000e-01 2.000000e-01 2.000000e-01 2.000000e-01 2.000000e-01 2.000000e-01 2.000000e-01 2.000000e-01 2.000000e-01 2.000000e-01 2.000000e-01 2.000000e-01 2.000000e-01 2.000000e-01 2.000000e-01 2.000000e-01 2.000000e-01 2.000000e-01 2.000000e-01 2.000000e-01 2.000000e-01 2.000000e-01 2.000000e-01 2.000000e-01 2.000000e-01 2.000000e-01 2.000000e-01 2.000000e-01 2.000000e-01 2.000000e-01 2.000000e-01 2.000000e-01 2.000000e-01 2.000000e-01 2.000000e-01 2.000000e-01 2.000000e-01 2.000000e-01 2.000000e-01 2.000000e-01 2.000000e-01 2.000000e-01 2.000000e-01 2.000000e-01 2.000000e-01 2.000000e-01 2.000000e-01 2.000000e-01 2.000000e-01 2.000000e-01 2.000000e-01 2.000000e-01 2.000000e-01 2.000000e-01 2.000000e-01 2.000000e-01 2.000000e-01 2.000000e-01 2.000000e-01 2.000000e-01 2.000000e-01 2.000000e-01 2.000000e-01 2.000000e-01 2.000000e-01 2.000000e-01 2.000000e-01 2.000000e-01 2.000000e-01 2.000000e-01 2.000000e-01 2.000000e-01 2.000000e-01 2.000000e-01 2.000000e-01 2.000000e-01 2.000000e-01 2.000000e-01 2.000000e-01 2.000000e-01 2.000000e-01 2.000000e-01 2.000000e-01 2.000000e-01 2.000000e-01 2.000000e-01 2.000000e-01 2.000000e-01 2.000000e-01 2.000000e-01 2.000000e-01 2.000000e-01 2.000000e-01 2.000000e-01 2.000000e-01 2.000000e-01 2.000000e-01 2.000000e-01 2.000000e-01 2.000000e-01 2.000000e-01 2.000000e-01 2.000000e-01 2.000000e-01 2.000000e-01 2.000000e-01 2.000000e-01 2.000000e-01 2.000000e-01 2.000000e-01 2.000000e-01 2.000000e-01 2.000000e-01 2.000000e-01 2.000000e-01 2.000000e-01 2.000000e-01 2.000000e-01 2.000000e-01 2.000000e-01
<GCONST> 3.243863e+01
<TRANSP> 4
 0.000000e+00 1.000000e+00 0.000000e+00 0.000000e+00
 0.000000e+00 7.739312e-01 2.260688e-01 0.000000e+00
 0.000000e+00 0.000000e+00 9.023746e-01 9.762543e-02
 0.000000e+00 0.000000e+00 0.000000e+00 0.000000e+00
<ENDHMM>
