~o
<STREAMINFO> 1 142
<VECSIZE> 142<NULLD><USER><DIAGC>
~h "use"
<BEGINHMM>
<NUMSTATES> 4
<STATE> 2
<MEAN> 142
 6.361374e-01 3.630360e-01 3.166411e-01 3.223606e-01 2.693308e-01 2.538343e-01 3.217974e-01 2.735297e-01 3.263622e-01 3.858922e-01 3.995502e-01 4.089760e-01 3.458308e-01 4.091505e-01 2.701251e-01 3.126734e-01 3.984160e-01 4.059020e-01 2.527913e-01 3.468680e-01 4.317426e-01 4.086165e-01 3.608212e-01 4.274378e-01 4.406871e-01 3.762233e-01 3.768991e-01 3.571802e-01 3.997811e-01 3.602590e-01 4.411771e-01 4.602284e-01 3.951354e-01 4.296221e-01 4.042155e-01 3.380491e-01 2.864841e-01 2.710052e-01 3.262091e-01 2.829331e-01 3.417724e-01 4.262911e-01 3.158131e-01 2.901543e-01 1.971000e-01 4.098731e-01 4.406638e-01 3.535699e-01 3.678171e-01 2.787029e-01 4.520498e-01 3.495653e-01 3.428389e-01 2.462434e-01 4.582824e-01 3.833052e-01 3.251354e-01 3.059153e-01 3.125085e-01 2.505297e-01 3.777916e-01 4.892377e-01 3.622095e-01 3.784624e-01 4.171441e-01 4.731040e-01 2.920625e-01 3.265464e-01 4.001597e-01 3.119434e-01 4.379751e-01 3.795803e-01 3.954791e-01 3.683154e-01 3.060039e-01 3.329959e-01 4.530116e-01 4.346144e-01 4.229581e-01 3.838254e-01 4.561735e-01 3.615757e-01 3.450149e-01 4.053519e-01 3.029203e-01 4.459696e-01 3.726022e-01 3.958554e-01 4.587244e-01 2.784827e-01 3.365367e-01 2.867010e-01 4.305784e-01 3.404931e-01 4.277885e-01 4.548832e-01 4.349819e-01 3.062724e-01 4.209085e-01 4.141921e-01 3.559629e-01 4.519962e-01 3.214785e-01 3.171281e-01 2.725123e-01 2.633668e-01 3.008059e-01 3.241790e-01 3.315659e-01 3.060328e-01 3.577176e-01 3.442595e-01 3.469280e-01 3.338506e-01 3.388730e-01 3.984262e-01 3.415272e-01 4.068370e-01 4.051398e-01 3.639797e-01 4.224460e-01 4.752779e-01 4.322537e-01 3.857360e-01 3.498314e-01 3.877579e-01 4.181184e-01 3.345099e-01 3.433627e-01 3.655015e-01 3.495474e-01 4.095826e-01 3.521601e-01 3.844723e-01 3.675754e-01 3.914296e-01 4.293267e-01 3.637751e-01 3.174565e-01 3.682872e-01 4.746643e-01 4.703104e-01
<VARIANCE> 142
 2.000000e-01 2.000000e-01 2.000000e-01 2.000000e-01 2.000000e-01 2.000000e-01 2.000000e-01 2.000000e-01 2.000000e-01 2.000000e-01 2.000000e-01 2.000000e-01 2.000000e-01 2.000000e-01 2.000000e-01 2.000000e-01 2.000000e-01 2.000000e-01 2.000000e-01 2.000000e-01 2.000000e-01 2.000000e-01 2.000000e-01 2.000000e-01 2.000000e-01 2.000000e-01 2.000000e-01 2.000000e-01 2.000000e-01 2.000000e-01 2.000000e-01 2.000000e-01 2.000000e-01 2.000000e-01 2.000000e-01 2.000000e-01 2.000000e-01 2.000000e-01 2.000000e-01 2.000000e-01 2.000000e-01 2.000000e-01 2.000000e-01 2.000000e-01 2.000000e-01 2.000000e-01 2.000000e-01 2.000000e-01 2.000000e-01 2.000000e-01 2.000000e-01 2.000000e-01 2.000000e-01 2.000000e-01 2.000000e-01 2.000000e-01 2.000000e-01 2.000000e-01 2.000000e-01 2.000000e-01 2.000000e-01 2.000000e-01 2.000000e-01 2.000000e-01 2.000000e-01 2.000000e-01 2.000000e-01 2.000000e-01 2.000000e-01 2.000000e-01 2.000000e-01 2.000000e-01 2.000000e-01 2.000000e-01 2.000000e-01 2.000000e-01 2.000000e-01 2.000000e-01 2.000000e-01 2.000000e-01 2.000000e-01 2.000000e-01 2.000000e-01 2.000000e-01 2.000000e-01 2.000000e-01 2.000000e-01 2.000000e-01 2.000000e-01 2.000000e-01 2.000000e-01 2.000000e-01 2.000000e-01 2.000000e-01 2.000000e-01 2.000000e-01 2.000000e-01 2.000000e-01 2.000000e-01 2.000000e-01 2.000000e-01 2.000000e-01 2.000000e-01 2.000000e-01 2.000000e-01 2.000000e-01 2.000000e-01 2.000000e-01 2.000000e-01 2.000000e-01 2.000000e-01 2.000000e-01 2.000000e-01 2.000000e-01 2.000000e-01 2.000000e-01 2.000000e-01 2.000000e-01 2.000000e-01 2.000000e-01 2.000000e-01 2.000000e-01 2.000000e-01 2.000000e-01 2.000000e-01 2.000000e-01 2.000000e-01 2.000000e-01 2.000000e-01 2.000000e-01 2.000000e-01 2.000000e-01 2.000000e-01 2.000000e-01 2.000000e-01 2.000000e-01 2.000000e-01 2.000000e-01 2.000000e-01 2.000000e-01 2.000000e-01 2.000000e-01
<GCONST> 3.243863e+01
<STATE> 3
<MEAN> 142
 5.102764e-01 3.622816e-01 2.555577e-01 3.170950e-01 2.895966e-01 3.173682e-01 3.007467e-01 4.484086e-01 4.122127e-01 4.926276e-01 4.256625e-01 4.703348e-01 4.933898e-01 4.816544e-01 4.609050e-01 4.305696e-01 4.574704e-01 4.424887e-01 2.487684e-01 3.872091e-01 3.721833e-01 3.650427e-01 2.914875e-01 4.462579e-01 4.320310e-01 4.564863e-01 3.842771e-01 4.062236e-01 4.241703e-01 4.957472e-01 4.965278e-01 3.891179e-01 2.627338e-01 4.959886e-01 4.469588e-01 4.331857e-01 3.894342e-01 5.637857e-01 4.378632e-01 4.618274e-01 5.253603e-01 4.553661e-01 3.666176e-01 3.837871e-01 2.360891e-01 3.730912e-01 3.317553e-01 5.316505e-01 4.587251e-01 2.941881e-01 4.768468e-01 5.787168e-01 5.168583e-01 3.372952e-01 3.540653e-01 3.684677e-01 3.893736e-01 2.571369e-01 3.494347e-01 2.878211e-01 4.606486e-01 4.171219e-01 3.827612e-01 4.735287e-01 4.889019e-01 3.719988e-01 5.932813e-01 3.424911e-01 3.297618e-01 5.586455e-01 4.431612e-01 3.565747e-01 4.169008e-01 3.609539e-01 3.212991e-01 4.264770e-01 3.415573e-01 2.854162e-01 4.515717e-01 3.719811e-01 5.193896e-01 3.676175e-01 5.559838e-01 3.522147e-01 3.261087e-01 3.264468e-01 3.890066e-01 4.170724e-01 4.698999e-01 3.434041e-01 3.905451e-01 3.356499e-01 4.830051e-01 4.311714e-01 3.732471e-01 5.009585e-01 4.393516e-01 4.356625e-01 5.093930e-01 3.655188e-01 4.187290e-01 3.529179e-01 3.244796e-01 4.755099e-01 3.515202e-01 3.062471e-01 4.185658e-01 4.940417e-01 4.278809e-01 3.257549e-01 4.536417e-01 4.131822e-01 3.046691e-01 3.774927e-01 3.068902e-01 4.184672e-01 4.061107e-01 3.441806e-01 4.395745e-01 3.051532e-01 4.175622e-01 3.566869e-01 3.263557e-01 3.670278e-01 3.549828e-01 3.489323e-01 4.601582e-01 5.083014e-01 4.408036e-01 3.522440e-01 3.744789e-01 3.862299e-01 4.271017e-01 4.936221e-01 4.709043e-01 4.274875e-01 4.305727e-01 4.989897e-01 5.013174e-01 3.472281e-01 4.258274e-01 3.166437e-01
<VARIANCE> 142
 2.000000e-01 2.000000e-01 2.000000e-01 2.000000e-01 2.000000e-01 2.000000e-01 2.000000e-01 2.000000e-01 2.000000e-01 2.000000e-01 2.000000e-01 2.000000e-01 2.000000e-01 2.000000e-01 2.000000e-01 2.000000e-01 2.000000e-01 2.000000e-01 2.000000e-01 2.000000e-01 2.000000e-01 2.000000e-01 2.000000e-01 2.000000e-01 2.000000e-01 2.000000e-01 2.000000e-01 2.000000e-01 2.000000e-01 2.000000e-01 2.000000e-01 2.000000e-01 2.000000e-01 2.000000e-01 2.000000e-01 2.000000e-01 2.000000e-01 2.000000e-01 2.000000e-01 2.000000e-01 2.000000e-01 2.000000e-01 2.000000e-01 2.000000e-01 2.000000e-01 2.000000e-01 2.000000e-01 2.000000e-01 2.000000e-01 2.000000e-01 2.000000e-01 2.000000e-01 2.000000e-01 2.000000e-01 2.000000e-01 2.000000e-01 2.000000e-01 2.000000e-01 2.000000e-01 2.000000e-01 2.000000e-01 2.000000e-01 2.000000e-01 2.000000e-01 2.000000e-01 2.000000e-01 2.000000e-01 2.000000e-01 2.000000e-01 2.000000e-01 2.000000e-01 2.000000e-01 2.000000e-01 2.000000e-01 2.000000e-01 2.000000e-01 2.000000e-01 2.000000e-01 2.000000e-01 2.000000e-01 2.000000e-01 2.000000e-01 2.000000e-01 2.000000e-01 2.000000e-01 2.000000e-01 2.000000e-01 2.000000e-01 2.000000e-01 2.000000e-01 2.000000e-01 2.000000e-01 2.000000e-01 2.000000e-01 2.000000e-01 2.000000e-01 2.000000e-01 2.000000e-01 2.000000e-01 2.000000e-01 2.000000e-01 2.000000e-01 2.000000e-01 2.000000e-01 2.000000e-01 2.000000e-01 2.000000e-01 2.000000e-01 2.000000e-01 2.000000e-01 2.000000e-01 2.000000e-01 2.000000e-01 2.000000e-01 2.000000e-01 2.000000e-01 2.000000e-01 2.000000e-01 2.000000e-01 2.000000e-01 2.000000e-01 2.000000e-01 2.000000e-01 2.000000e-01 2.000000e-01 2.000000e-01 2.000000e-01 2.000000e-01 2.000000e-01 2.000000e-01 2.000000e-01 2.000000e-01 2.000000e-01 2.000000e-01 2.000000e-01 2.000000e-01 2.000000e-01 2.000000e-01 2.000000e-01 2.000000e-01 2.000000e-01 2.000000e-01
<GCONST> 3.243863e+01
<TRANSP> 4
 0.000000e+00 1.000000e+00 0.000000e+00 0.000000e+00
 0.000000e+00 8.822719e-01 1.177281e-01 0.000000e+00
 0.000000e+00 0.000000e+00 8.478512e-01 1.521488e-01
 0.000000e+00 0.000000e+00 0.000000e+00 0.000000e+00
<ENDHMM>
