~o
<STREAMINFO> 1 142
<VECSIZE> 142<NULLD><USER><DIAGC>
~h "water"
<BEGINHMM>
<NUMSTATES> 4
<STATE> 2
<MEAN> 142
 7.105537e-01 3.557040e-01 3.803929e-01 3.124903e-01 2.247107e-01 3.147684e-01 3.585986e-01 2.986907e-01 3.438097e-01 3.922667e-01 5.030658e-01 4.822170e-01 3.897260e-01 5.401765e-01 2.506144e-01 2.743140e-01 3.827815e-01 4.071814e-01 3.634849e-01 4.248952e-01 4.533670e-01 4.403009e-01 4.064190e-01 4.442883e-01 4.608269e-01 4.103695e-01 3.969106e-01 4.327584e-01 4.900291e-01 3.982414e-01 4.386089e-01 4.609956e-01 4.642830e-01 4.148359e-01 4.350454e-01 3.320875e-01 3.109728e-01 2.677001e-01 3.584706e-01 2.735323e-01 3.244660e-01 4.252476e-01 3.409485e-01 3.491834e-01 2.426883e-01 3.920895e-01 4.027877e-01 3.712106e-01 3.592071e-01 3.964219e-01 4.528548e-01 4.285910e-01 4.826617e-01 2.719729e-01 4.882999e-01 4.116057e-01 4.032953e-01 3.449261e-01 3.434120e-01 2.482232e-01 4.510125e-01 4.545356e-01 3.777143e-01 4.150068e-01 3.704595e-01 4.294384e-01 2.754478e-01 3.374698e-01 4.353048e-01 3.801311e-01 4.883575e-01 4.521857e-01 4.379790e-01 4.332200e-01 3.318527e-01 3.443636e-01 4.381664e-01 4.460109e-01 4.572984e-01 3.647892e-01 4.382395e-01 4.202992e-01 3.838873e-01 4.195055e-01 3.117237e-01 4.106191e-01 3.708124e-01 4.641551e-01 4.441819e-01 3.590855e-01 4.178285e-01 3.050114e-01 4.569567e-01 4.213147e-01 4.037488e-01 4.668627e-01 3.906815e-01 3.203427e-01 3.908861e-01 4.350944e-01 3.898073e-01 5.005220e-01 3.783679e-01 3.801875e-01 2.630642e-01 3.108479e-01 4.311033e-01 3.712001e-01 3.775893e-01 3.111661e-01 4.459305e-01 4.236506e-01 3.078367e-01 3.192608e-01 4.069486e-01 4.138881e-01 4.533955e-01 4.125984e-01 4.394720e-01 4.130002e-01 4.373319e-01 5.250018e-01 4.655207e-01 4.110919e-01 3.941555e-01 4.066732e-01 4.607432e-01 3.676363e-01 4.451957e-01 4.255561e-01 3.323576e-01 3.960250e-01 4.040695e-01 4.047308e-01 3.781632e-01 3.844911e-01 4.570293e-01 3.377298e-01 2.807496e-01 3.910039e-01 4.315363e-01 5.021292e-01
<VARIANCE> 142
 2.000000e-01 2.000000e-01 2.000000e-01 2.000000e-01 2.000000e-01 2.000000e-01 2.000000e-01 2.000000e-01 2.000000e-01 2.000000e-01 2.000000e-01 2.000000e-01 2.000000e-01 2.000000e-01 2.000000e-01 2.000000e-01 2.000000e-01 2.000000e-01 2.000000e-01 2.000000e-01 2.000000e-01 2.000000e-01 2.000000e-01 2.000000e-01 2.000000e-01 2.000000e-01 2.000000e-01 2.000000e-01 2.000000e-01 2.000000e-01 2.000000e-01 2.000000e-01 2.000000e-01 2.000000e-01 2.000000e-01 2.000000e-01 2.000000e-01 2.000000e-01 2.000000e-01 2.000000e-01 2.000000e-01 2.000000e-01 2.000000e-01 2.000000e-01 2.000000e-01 2.000000e-01 2.000000e-01 2.000000e-01 2.000000e-01 2.000000e-01 2.000000e-01 2.000000e-01 2.000000e-01 2.000000e-01 2.000000e-01 2.000000e-01 2.000000e-01 2.000000e-01 2.000000e-01 2.000000e-01 2.000000e-01 2.000000e-01 2.000000e-01 2.000000e-01 2.000000e-01 2.000000e-01 2.000000e-01 2.000000e-01 2.000000e-01 2.000000e-01 2.000000e-01 2.000000e-01 2.000000e-01 2.000000e-01 2.000000e-01 2.000000e-01 2.000000e-01 2.000000e-01 2.000000e-01 2.000000e-01 2.000000e-01 2.000000e-01 2.000000e-01 2.000000e-01 2.000000e-01 2.000000e-01 2.000000e-01 2.000000e-01 2.000000e-01 2.000000e-01 2.000000e-01 2.000000e-01 2.000000e-01 2.000000e-01 2.000000e-01 2.000000e-01 2.000000e-01 2.000000e-01 2.000000e-01 2.000000e-01 2.000000e-01 2.000000e-01 2.000000e-01 2.000000e-01 2.000000e-01 2.000000e-01 2.000000e-01 2.000000e-01 2.000000e-01 2.000000e-01 2.000000e-01 2.000000e-01 2.000000e-01 2.000000e-01 2.000000e-01 2.000000e-01 2.000000e-01 2.000000e-01 2.000000e-01 2.000000e-01 2.000000e-01 2.000000e-01 2.000000e-01 2.000000e-01 2.000000e-01 2.000000e-01 2.000000e-01 2.000000e-01 2.000000e-01 2.000000e-01 2.000000e-01 2.000000e-01 2.000000e-01 2.000000e-01 2.000000e-01 2.000000e-01 2.000000e-01 2.000000e-01 2.000000e-01 2.000000e-01 2.000000e-01 2.000000e-01
<GCONST> 3.243863e+01
<STATE> 3
<MEAN> 142
 5.185912e-01 2.829583e-01 3.386806e-01 3.279843e-01 3.490630e-01 2.192657e-01 3.433072e-01 2.927607e-01 3.348520e-01 3.665465e-01 4.210983e-01 3.713137e-01 3.926016e-01 4.408650e-01 2.952638e-01 3.417329e-01 3.792743e-01 3.047726e-01 3.154186e-01 3.386624e-01 4.616452e-01 4.297119e-01 3.398897e-01 4.342541e-01 5.008733e-01 3.339012e-01 4.179254e-01 3.570086e-01 3.970463e-01 3.567165e-01 4.635802e-01 3.247137e-01 3.207683e-01 4.497967e-01 3.738118e-01 3.545386e-01 3.687443e-01 3.628504e-01 3.882968e-01 3.964722e-01 3.676869e-01 4.257216e-01 3.472991e-01 2.703205e-01 1.935201e-01 3.124349e-01 4.276810e-01 4.175812e-01 3.944280e-01 2.882850e-01 4.476612e-01 4.254797e-01 3.971193e-01 3.040684e-01 4.228357e-01 3.307398e-01 4.666175e-01 3.309835e-01 3.866407e-01 3.111780e-01 3.873880e-01 5.263317e-01 3.737013e-01 3.639356e-01 3.792642e-01 3.894757e-01 3.696043e-01 4.514501e-01 4.528755e-01 4.008709e-01 4.297689e-01 2.838709e-01 3.842382e-01 3.959347e-01 2.859243e-01 3.222910e-01 5.084890e-01 3.939011e-01 5.172209e-01 4.080039e-01 5.167497e-01 3.531790e-01 3.236897e-01 4.192564e-01 3.339155e-01 3.281244e-01 3.115452e-01 4.043752e-01 4.618350e-01 2.896789e-01 2.397439e-01 2.675326e-01 4.426736e-01 3.203267e-01 4.533651e-01 4.302652e-01 4.791750e-01 3.083827e-01 4.721669e-01 4.390459e-01 5.123121e-01 4.033247e-01 2.938305e-01 3.428529e-01 3.285019e-01 2.793467e-01 3.623789e-01 3.889858e-01 3.996737e-01 3.293656e-01 3.290820e-01 2.988923e-01 3.585927e-01 3.811876e-01 3.414076e-01 3.618087e-01 3.176700e-01 4.431697e-01 3.602718e-01 3.446901e-01 4.255871e-01 3.946831e-01 3.984993e-01 2.926010e-01 4.302183e-01 2.994487e-01 3.763365e-01 4.323367e-01 3.237152e-01 4.032961e-01 4.285995e-01 4.141656e-01 3.412270e-01 4.424491e-01 4.296034e-01 5.098404e-01 3.396560e-01 4.096391e-01 4.865410e-01 3.430859e-01 3.970268e-01 4.252408e-01
<VARIANCE> 142
 2.000000e-01 2.000000e-01 2.000000e-01 2.000000e-01 2.000000e-01 2.000000e-01 2.000000e-01 2.000000e-01 2.000000e-01 2.000000e-01 2.000000e-01 2.000000e-01 2.000000e-01 2.000000e-01 2.000000e-01 2.000000e-01 2.000000e-01 2.000000e-01 2.000000e-01 2.000000e-01 2.000000e-01 2.000000e-01 2.000000e-01 2.000000e-01 2.000000e-01 2.000000e-01 2.000000e-01 2.000000e-01 2.000000e-01 2.000000e-01 2.000000e-01 2.000000e-01 2.000000e-01 2.000000e-01 2.000000e-01 2.000000e-01 2.000000e-01 2.000000e-01 2.000000e-01 2.000000e-01 2.000000e-01 2.000000e-01 2.000000e-01 2.000000e-01 2.000000e-01 2.000000e-01 2.000000e-01 2.000000e-01 2.000000e-01 2.000000e-01 2.000000e-01 2.000000e-01 2.000000e-01 2.000000e-01 2.000000e-01 2.000000e-01 2.000000e-01 2.000000e-01 2.000000e-01 2.000000e-01 2.000000e-01 2.000000e-01 2.000000e-01 2.000000e-01 2.000000e-01 2.000000e-01 2.000000e-01 2.000000e-01 2.000000e-01 2.000000e-01 2.000000e-01 2.000000e-01 2.000000e-01 2.000000e-01 2.000000e-01 2.000000e-01 2.000000e-01 2.000000e-01 2.000000e-01 2.000000e-01 2.000000e-01 2.000000e-01 2.000000e-01 2.000000e-01 2.000000e-01 2.000000e-01 2.000000e-01 2.000000e-01 2.000000e-01 2.000000e-01 2.000000e-01 2.000000e-01 2.000000e-01 2.000000e-01 2.000000e-01 2.000000e-01 2.000000e-01 2.000000e-01 2.000000e-01 2.000000e-01 2.000000e-01 2.000000e-01 2.000000e-01 2.000000e-01 2.000000e-01 2.000000e-01 2.000000e-01 2.000000e-01 2.000000e-01 2.000000e-01 2.000000e-01 2.000000e-01 2.000000e-01 2.000000e-01 2.000000e-01 2.000000e-01 2.000000e-01 2.000000e-01 2.000000e-01 2.000000e-01 2.000000e-01 2.000000e-01 2.000000e-01 2.000000e-01 2.000000e-01 2.000000e-01 2.000000e-01 2.000000e-01 2.000000e-01 2.000000e-01 2.000000e-01 2.000000e-01 2.000000e-01 2.000000e-01 2.000000e-01 2.000000e-01 2.000000e-01 2.000000e-01 2.000000e-01 2.000000e-01 2.000000e-01 2.000000e-01
<GCONST> 3.243863e+01
<TRANSP> 4
 0.000000e+00 1.000000e+00 0.000000e+00 0.000000e+00
 0.000000e+00 8.417817e-01 1.582183e-01 0.000000e+00
 0.000000e+00 0.000000e+00 8.801862e-01 1.198138e-01
 0.000000e+00 0.000000e+00 0.000000e+00 0.000000e+00
<ENDHMM>
