~o
<STREAMINFO> 1 142
<VECSIZE> 142<NULLD><USER><DIAGC>
~h "we"
<BEGINHMM>
<NUMSTATES> 4
<STATE> 2
<MEAN> 142
 4.580780e-01 3.936790e-01 3.587177e-01 4.513567e-01 3.073785e-01 2.078483e-01 3.443412e-01 4.363080e-01 3.457617e-01 4.905042e-01 3.589087e-01 4.123119e-01 3.876952e-01 3.919488e-01 3.690804e-01 3.511068e-01 4.468587e-01 3.442984e-01 2.621278e-01 3.191028e-01 5.101505e-01 4.781220e-01 3.510277e-01 4.719247e-01 4.711589e-01 3.720381e-01 4.392442e-01 4.187714e-01 4.211155e-01 3.989004e-01 4.547640e-01 4.785476e-01 4.861084e-01 5.136675e-01 4.137784e-01 4.810449e-01 4.168597e-01 3.581901e-01 4.343306e-01 4.611781e-01 3.933515e-01 4.767280e-01 3.413727e-01 2.836949e-01 1.828698e-01 4.692155e-01 4.712424e-01 4.051547e-01 4.170524e-01 2.922357e-01 3.903134e-01 3.423242e-01 4.626577e-01 3.078606e-01 3.975193e-01 4.198904e-01 3.153287e-01 3.327986e-01 3.036398e-01 3.075762e-01 3.563724e-01 6.004165e-01 4.018590e-01 4.716107e-01 4.044181e-01 4.784290e-01 3.349472e-01 3.690526e-01 4.216058e-01 3.935294e-01 4.467164e-01 3.619395e-01 4.384530e-01 4.255241e-01 3.004605e-01 3.757704e-01 4.633898e-01 5.376783e-01 4.782553e-01 4.452781e-01 4.504111e-01 3.587850e-01 4.153090e-01 3.713182e-01 3.475682e-01 3.955999e-01 4.684280e-01 4.086500e-01 4.272948e-01 3.565685e-01 3.547789e-01 2.745065e-01 3.911441e-01 3.221689e-01 5.280551e-01 4.389164e-01 4.936695e-01 2.991646e-01 5.089130e-01 4.618562e-01 4.143061e-01 5.477799e-01 3.467508e-01 3.340323e-01 3.598981e-01 2.784963e-01 2.977288e-01 3.502483e-01 3.636646e-01 3.645970e-01 4.213415e-01 3.085856e-01 3.593354e-01 4.208259e-01 4.546746e-01 3.990756e-01 3.910639e-01 5.140438e-01 3.970256e-01 3.839455e-01 3.452179e-01 5.003147e-01 4.925787e-01 2.869682e-01 3.867523e-01 4.404944e-01 3.659206e-01 3.435301e-01 4.070763e-01 3.693014e-01 4.034533e-01 4.307594e-01 2.727754e-01 4.279189e-01 4.198017e-01 4.333547e-01 3.665225e-01 4.863260e-01 3.850991e-01 4.553827e-01 5.725517e-01 4.411504e-01
<VARIANCE> 142
 2.000000e-01 2.000000e-01 2.000000e-01 2.000000e-01 2.000000e-01 2.000000e-01 2.000000e-01 2.000000e-01 2.000000e-01 2.000000e-01 2.000000e-01 2.000000e-01 2.000000e-01 2.000000e-01 2.000000e-01 2.000000e-01 2.000000e-01 2.000000e-01 2.000000e-01 2.000000e-01 2.000000e-01 2.000000e-01 2.000000e-01 2.000000e-01 2.000000e-01 2.000000e-01 2.000000e-01 2.000000e-01 2.000000e-01 2.000000e-01 2.000000e-01 2.000000e-01 2.000000e-01 2.000000e-01 2.000000e-01 2.000000e-01 2.000000e-01 2.000000e-01 2.000000e-01 2.000000e-01 2.000000e-01 2.000000e-01 2.000000e-01 2.000000e-01 2.000000e-01 2.000000e-01 2.000000e-01 2.000000e-01 2.000000e-01 2.000000e-01 2.000000e-01 2.000000e-01 2.000000e-01 2.000000e-01 2.000000e-01 2.000000e-01 2.000000e-01 2.000000e-01 2.000000e-01 2.000000e-01 2.000000e-01 2.000000e-01 2.000000e-01 2.000000e-01 2.000000e-01 2.000000e-01 2.000000e-01 2.000000e-01 2.000000e-01 2.000000e-01 2.000000e-01 2.000000e-01 2.000000e-01 2.000000e-01 2.000000e-01 2.000000e-01 2.000000e-01 2.000000e-01 2.000000e-01 2.000000e-01 2.000000e-01 2.000000e-01 2.000000e-01 2.000000e-01 2.000000e-01 2.000000e-01 2.000000e-01 2.000000e-01 2.000000e-01 2.000000e-01 2.000000e-01 2.000000e-01 2.000000e-01 2.000000e-01 2.000000e-01 2.000000e-01 2.000000e-01 2.000000e-01 2.000000e-01 2.000000e-01 2.000000e-01 2.000000e-01 2.000000e-01 2.000000e-01 2.000000e-01 2.000000e-01 2.000000e-01 2.000000e-01 2.000000e-01 2.000000e-01 2.000000e-01 2.000000e-01 2.000000e-01 2.000000e-01 2.000000e-01 2.000000e-01 2.000000e-01 2.000000e-01 2.000000e-01 2.000000e-01 2.000000e-01 2.000000e-01 2.000000e-01 2.000000e-01 2.000000e-01 2.000000e-01 2.000000e-01 2.000000e-01 2.000000e-01 2.000000e-01 2.000000e-01 2.000000e-01 2.000000e-01 2.000000e-01 2.000000e-01 2.000000e-01 2.000000e-01 2.000000e-01 2.000000e-01 2.000000e-01 2.000000e-01 2.000000e-01
<GCONST> 3.243863e+01
<STATE> 3
<MEAN> 142
 7.560370e-01 3.519257e-01 3.545076e-01 3.292559e-01 2.217445e-01 2.660446e-01 3.839861e-01 3.463572e-01 3.482738e-01 3.864689e-01 3.716078e-01 4.255128e-01 3.504638e-01 4.082548e-01 2.129695e-01 2.692028e-01 3.508838e-01 3.760049e-01 2.621648e-01 3.462884e-01 4.601412e-01 4.696406e-01 3.666354e-01 4.286517e-01 4.226711e-01 3.816065e-01 3.981650e-01 3.703920e-01 3.764317e-01 2.963879e-01 4.411942e-01 5.014606e-01 4.943964e-01 4.566616e-01 4.075786e-01 3.326027e-01 2.657714e-01 2.448038e-01 3.101102e-01 2.145011e-01 2.474660e-01 4.484506e-01 2.467147e-01 3.347525e-01 1.655544e-01 4.352056e-01 4.512616e-01 3.687696e-01 4.138343e-01 3.503576e-01 4.573063e-01 3.542795e-01 4.238322e-01 2.463717e-01 5.170702e-01 3.682164e-01 4.127296e-01 2.985453e-01 3.050039e-01 2.342123e-01 4.693378e-01 4.513490e-01 4.265101e-01 4.074237e-01 3.335667e-01 4.467901e-01 2.850446e-01 3.047617e-01 4.318326e-01 3.194545e-01 4.494085e-01 4.788646e-01 4.747311e-01 3.899038e-01 2.917355e-01 3.278864e-01 4.714596e-01 4.882421e-01 4.232014e-01 3.708154e-01 3.860844e-01 3.723802e-01 3.645134e-01 4.287905e-01 2.729745e-01 4.331462e-01 4.046390e-01 4.318548e-01 4.746819e-01 3.291037e-01 3.798391e-01 3.075429e-01 3.858172e-01 3.369389e-01 3.897206e-01 4.418338e-01 3.574045e-01 2.686153e-01 3.569880e-01 4.064427e-01 3.465219e-01 5.011250e-01 3.656348e-01 2.662518e-01 2.849077e-01 2.701446e-01 4.056923e-01 3.466855e-01 3.577743e-01 3.553869e-01 4.076661e-01 3.398751e-01 2.991615e-01 3.192866e-01 3.322080e-01 3.726995e-01 3.912179e-01 4.461749e-01 3.965555e-01 4.772687e-01 3.868224e-01 6.010472e-01 4.854739e-01 3.535419e-01 3.868966e-01 3.859054e-01 3.642109e-01 2.944927e-01 3.005567e-01 3.706449e-01 3.680671e-01 3.783067e-01 4.138160e-01 3.823761e-01 3.225303e-01 3.698068e-01 4.354547e-01 3.624261e-01 2.779931e-01 3.746906e-01 4.796237e-01 5.048124e-01
<VARIANCE> 142
 2.000000e-01 2.000000e-01 2.000000e-01 2.000000e-01 2.000000e-01 2.000000e-01 2.000000e-01 2.000000e-01 2.000000e-01 2.000000e-01 2.000000e-01 2.000000e-01 2.000000e-01 2.000000e-01 2.000000e-01 2.000000e-01 2.000000e-01 2.000000e-01 2.000000e-01 2.000000e-01 2.000000e-01 2.000000e-01 2.000000e-01 2.000000e-01 2.000000e-01 2.000000e-01 2.000000e-01 2.000000e-01 2.000000e-01 2.000000e-01 2.000000e-01 2.000000e-01 2.000000e-01 2.000000e-01 2.000000e-01 2.000000e-01 2.000000e-01 2.000000e-01 2.000000e-01 2.000000e-01 2.000000e-01 2.000000e-01 2.000000e-01 2.000000e-01 2.000000e-01 2.000000e-01 2.000000e-01 2.000000e-01 2.000000e-01 2.000000e-01 2.000000e-01 2.000000e-01 2.000000e-01 2.000000e-01 2.000000e-01 2.000000e-01 2.000000e-01 2.000000e-01 2.000000e-01 2.000000e-01 2.000000e-01 2.000000e-01 2.000000e-01 2.000000e-01 2.000000e-01 2.000000e-01 2.000000e-01 2.000000e-01 2.000000e-01 2.000000e-01 2.000000e-01 2.000000e-01 2.000000e-01 2.000000e-01 2.000000e-01 2.000000e-01 2.000000e-01 2.000000e-01 2.000000e-01 2.000000e-01 2.000000e-01 2.000000e-01 2.000000e-01 2.000000e-01 2.000000e-01 2.000000e-01 2.000000e-01 2.000000e-01 2.000000e-01 2.000000e-01 2.000000e-01 2.000000e-01 2.000000e-01 2.000000e-01 2.000000e-01 2.000000e-01 2.000000e-01 2.000000e-01 2.000000e-01 2.000000e-01 2.000000e-01 2.000000e-01 2.000000e-01 2.000000e-01 2.000000e-01 2.000000e-01 2.000000e-01 2.000000e-01 2.000000e-01 2.000000e-01 2.000000e-01 2.000000e-01 2.000000e-01 2.000000e-01 2.000000e-01 2.000000e-01 2.000000e-01 2.000000e-01 2.000000e-01 2.000000e-01 2.000000e-01 2.000000e-01 2.000000e-01 2.000000e-01 2.000000e-01 2.000000e-01 2.000000e-01 2.000000e-01 2.000000e-01 2.000000e-01 2.000000e-01 2.000000e-01 2.000000e-01 2.000000e-01 2.000000e-01 2.000000e-01 2.000000e-01 2.000000e-01 2.000000e-01 2.000000e-01 2.000000e-01 2.000000e-01
<GCONST> 3.243863e+01
<TRANSP> 4
 0.000000e+00 1.000000e+00 0.000000e+00 0.000000e+00
 0.000000e+00 8.748932e-01 1.251068e-01 0.000000e+00
 0.000000e+00 0.000000e+00 8.476166e-01 1.523834e-01
 0.000000e+00 0.000000e+00 0.000000e+00 0.000000e+00
<ENDHMM>
