~o
<STREAMINFO> 1 142
<VECSIZE> 142<NULLD><USER><DIAGC>
~h "wine"
<BEGINHMM>
<NUMSTATES> 4
<STATE> 2
<MEAN> 142
 5.388314e-01 4.156536e-01 3.199995e-01 3.778061e-01 3.456458e-01 2.202710e-01 2.779881e-01 3.200477e-01 3.640079e-01 4.301504e-01 3.996047e-01 4.412271e-01 3.715709e-01 4.254753e-01 3.487124e-01 3.425241e-01 4.398260e-01 4.205127e-01 2.591169e-01 3.369603e-01 4.046890e-01 4.274607e-01 3.553506e-01 4.807689e-01 4.544015e-01 4.033523e-01 4.213938e-01 4.133038e-01 4.236857e-01 4.250039e-01 4.604721e-01 4.374668e-01 3.238807e-01 4.946018e-01 4.162701e-01 4.340903e-01 3.617348e-01 4.026571e-01 4.126837e-01 3.203313e-01 4.205066e-01 5.059515e-01 3.845127e-01 2.895712e-01 2.113795e-01 4.459457e-01 4.039758e-01 3.749102e-01 3.831995e-01 2.922795e-01 4.390406e-01 3.745112e-01 4.447082e-01 3.203868e-01 4.125265e-01 4.039263e-01 3.387724e-01 2.713724e-01 3.051278e-01 2.901338e-01 3.536633e-01 5.011175e-01 4.290609e-01 4.883287e-01 4.870886e-01 4.640083e-01 3.765844e-01 3.234003e-01 3.725308e-01 4.176524e-01 4.231739e-01 3.843487e-01 3.826901e-01 3.795893e-01 2.397379e-01 3.512622e-01 3.930494e-01 3.998497e-01 4.708819e-01 4.233044e-01 5.066926e-01 4.261988e-01 3.740489e-01 3.636148e-01 3.230512e-01 3.577861e-01 4.495639e-01 4.132830e-01 4.431302e-01 3.181944e-01 3.727205e-01 2.356944e-01 3.859548e-01 4.226610e-01 4.322996e-01 4.444974e-01 4.485084e-01 3.548803e-01 4.607404e-01 4.360416e-01 3.909596e-01 4.390087e-01 3.535546e-01 4.380573e-01 3.154199e-01 3.012434e-01 3.746225e-01 4.603403e-01 3.611344e-01 2.977703e-01 3.906065e-01 4.112776e-01 2.815058e-01 4.282970e-01 4.111492e-01 4.114303e-01 4.028411e-01 3.978576e-01 4.768717e-01 3.778838e-01 4.156990e-01 4.260806e-01 4.743710e-01 3.673922e-01 3.391644e-01 4.192505e-01 4.029593e-01 4.283967e-01 4.979983e-01 3.260894e-01 3.535065e-01 4.248670e-01 3.368930e-01 4.158283e-01 4.053948e-01 4.273383e-01 3.650724e-01 4.395048e-01 3.528173e-01 4.138308e-01 5.178860e-01 3.491208e-01
<VARIANCE> 142
 2.000000e-01 2.000000e-01 2.000000e-01 2.000000e-01 2.000000e-01 2.000000e-01 2.000000e-01 2.000000e-01 2.000000e-01 2.000000e-01 2.000000e-01 2.000000e-01 2.000000e-01 2.000000e-01 2.000000e-01 2.000000e-01 2.000000e-01 2.000000e-01 2.000000e-01 2.000000e-01 2.000000e-01 2.000000e-01 2.000000e-01 2.000000e-01 2.000000e-01 2.000000e-01 2.000000e-01 2.000000e-01 2.000000e-01 2.000000e-01 2.000000e-01 2.000000e-01 2.000000e-01 2.000000e-01 2.000000e-01 2.000000e-01 2.000000e-01 2.000000e-01 2.000000e-01 2.000000e-01 2.000000e-01 2.000000e-01 2.000000e-01 2.000000e-01 2.000000e-01 2.000000e-01 2.000000e-01 2.000000e-01 2.000000e-01 2.000000e-01 2.000000e-01 2.000000e-01 2.000000e-01 2.000000e-01 2.000000e-01 2.000000e-01 2.000000e-01 2.000000e-01 2.000000e-01 2.000000e-01 2.000000e-01 2.000000e-01 2.000000e-01 2.000000e-01 2.000000e-01 2.000000e-01 2.000000e-01 2.000000e-01 2.000000e-01 2.000000e-01 2.000000e-01 2.000000e-01 2.000000e-01 2.000000e-01 2.000000e-01 2.000000e-01 2.000000e-01 2.000000e-01 2.000000e-01 2.000000e-01 2.000000e-01 2.000000e-01 2.000000e-01 2.000000e-01 2.000000e-01 2.000000e-01 2.000000e-01 2.000000e-01 2.000000e-01 2.000000e-01 2.000000e-01 2.000000e-01 2.000000e-01 2.000000e-01 2.000000e-01 2.000000e-01 2.000000e-01 2.000000e-01 2.000000e-01 2.000000e-01 2.000000e-01 2.000000e-01 2.000000e-01 2.000000e-01 2.000000e-01 2.000000e-01 2.000000e-01 2.000000e-01 2.000000e-01 2.000000e-01 2.000000e-01 2.000000e-01 2.000000e-01 2.000000e-01 2.000000e-01 2.000000e-01 2.000000e-01 2.000000e-01 2.000000e-01 2.000000e-01 2.000000e-01 2.000000e-01 2.000000e-01 2.000000e-01 2.000000e-01 2.000000e-01 2.000000e-01 2.000000e-01 2.000000e-01 2.000000e-01 2.000000e-01 2.000000e-01 2.000000e-01 2.000000e-01 2.000000e-01 2.000000e-01 2.000000e-01 2.000000e-01 2.000000e-01 2.000000e-01 2.000000e-01 2.000000e-01
<GCONST> 3.243863e+01
<STATE> 3
<MEAN> 142
 8.105568e-01 3.313319e-01 4.720196e-01 3.430072e-01 2.960151e-01 4.573808e-01 4.288015e-01 3.757792e-01 3.309696e-01 3.750000e-01 4.614151e-01 3.984811e-01 3.598300e-01 5.010383e-01 2.495029e-01 3.081883e-01 3.409587e-01 3.903278e-01 4.206251e-01 4.296494e-01 5.118687e-01 5.101818e-01 4.723761e-01 3.912073e-01 4.830320e-01 4.052546e-01 4.830050e-01 3.539317e-01 3.428151e-01 2.915884e-01 4.632307e-01 4.562851e-01 4.942047e-01 4.186103e-01 3.954989e-01 3.681784e-01 3.398961e-01 2.794756e-01 2.862524e-01 2.935990e-01 2.969787e-01 3.967326e-01 2.999151e-01 4.144393e-01 2.212269e-01 4.380466e-01 4.635977e-01 3.788692e-01 4.507666e-01 3.619803e-01 5.062920e-01 3.873906e-01 4.137596e-01 2.420836e-01 5.076225e-01 3.174594e-01 5.846443e-01 4.375111e-01 4.384302e-01 3.472205e-01 4.764219e-01 4.432236e-01 3.885174e-01 4.241520e-01 3.694894e-01 4.623496e-01 3.437055e-01 4.491603e-01 4.906217e-01 3.267502e-01 4.803152e-01 5.319372e-01 4.279688e-01 4.366661e-01 4.166223e-01 3.700515e-01 4.862896e-01 4.126077e-01 4.708438e-01 4.693997e-01 4.022464e-01 3.627551e-01 3.437895e-01 5.152846e-01 2.886738e-01 4.956255e-01 4.038017e-01 4.073052e-01 4.452291e-01 3.996806e-01 3.467470e-01 3.776365e-01 3.769187e-01 3.531606e-01 3.793842e-01 4.787212e-01 3.824914e-01 3.099785e-01 3.925224e-01 4.527689e-01 3.558781e-01 5.163512e-01 3.726264e-01 3.210614e-01 3.878245e-01 3.183112e-01 4.310090e-01 3.140406e-01 4.746263e-01 4.781872e-01 4.047511e-01 3.713872e-01 3.049631e-01 3.187515e-01 3.602964e-01 3.976696e-01 3.649010e-01 3.973602e-01 4.224021e-01 4.944327e-01 4.226032e-01 5.297005e-01 4.781176e-01 4.409078e-01 4.979739e-01 4.255332e-01 3.607575e-01 3.006450e-01 3.004181e-01 4.852761e-01 4.029718e-01 3.461551e-01 4.103704e-01 3.911806e-01 3.115447e-01 3.786945e-01 4.662141e-01 3.477596e-01 3.240864e-01 3.499859e-01 4.509660e-01 5.006678e-01
<VARIANCE> 142
 2.000000e-01 2.000000e-01 2.000000e-01 2.000000e-01 2.000000e-01 2.000000e-01 2.000000e-01 2.000000e-01 2.000000e-01 2.000000e-01 2.000000e-01 2.000000e-01 2.000000e-01 2.000000e-01 2.000000e-01 2.000000e-01 2.000000e-01 2.000000e-01 2.000000e-01 2.000000e-01 2.000000e-01 2.000000e-01 2.000000e-01 2.000000e-01 2.000000e-01 2.000000e-01 2.000000e-01 2.000000e-01 2.000000e-01 2.000000e-01 2.000000e-01 2.000000e-01 2.000000e-01 2.000000e-01 2.000000e-01 2.000000e-01 2.000000e-01 2.000000e-01 2.000000e-01 2.000000e-01 2.000000e-01 2.000000e-01 2.000000e-01 2.000000e-01 2.000000e-01 2.000000e-01 2.000000e-01 2.000000e-01 2.000000e-01 2.000000e-01 2.000000e-01 2.000000e-01 2.000000e-01 2.000000e-01 2.000000e-01 2.000000e-01 2.000000e-01 2.000000e-01 2.000000e-01 2.000000e-01 2.000000e-01 2.000000e-01 2.000000e-01 2.000000e-01 2.000000e-01 2.000000e-01 2.000000e-01 2.000000e-01 2.000000e-01 2.000000e-01 2.000000e-01 2.000000e-01 2.000000e-01 2.000000e-01 2.000000e-01 2.000000e-01 2.000000e-01 2.000000e-01 2.000000e-01 2.000000e-01 2.000000e-01 2.000000e-01 2.000000e-01 2.000000e-01 2.000000e-01 2.000000e-01 2.000000e-01 2.000000e-01 2.000000e-01 2.000000e-01 2.000000e-01 2.000000e-01 2.000000e-01 2.000000e-01 2.000000e-01 2.000000e-01 2.000000e-01 2.000000e-01 2.000000e-01 2.000000e-01 2.000000e-01 2.000000e-01 2.000000e-01 2.000000e-01 2.000000e-01 2.000000e-01 2.000000e-01 2.000000e-01 2.000000e-01 2.000000e-01 2.000000e-01 2.000000e-01 2.000000e-01 2.000000e-01 2.000000e-01 2.000000e-01 2.000000e-01 2.000000e-01 2.000000e-01 2.000000e-01 2.000000e-01 2.000000e-01 2.000000e-01 2.000000e-01 2.000000e-01 2.000000e-01 2.000000e-01 2.000000e-01 2.000000e-01 2.000000e-01 2.000000e-01 2.000000e-01 2.000000e-01 2.000000e-01 2.000000e-01 2.000000e-01 2.000000e-01 2.000000e-01 2.000000e-01 2.000000e-01 2.000000e-01 2.000000e-01
<GCONST> 3.243863e+01
<TRANSP> 4
 0.000000e+00 1.000000e+00 0.000000e+00 0.000000e+00
 0.000000e+00 8.734934e-01 1.265067e-01 0.000000e+00
 0.000000e+00 0.000000e+00 8.438225e-01 1.561775e-01
 0.000000e+00 0.000000e+00 0.000000e+00 0.000000e+00
<ENDHMM>
