~o
<STREAMINFO> 1 142
<VECSIZE> 142<NULLD><USER><DIAGC>
~h "woman"
<BEGINHMM>
<NUMSTATES> 4
<STATE> 2
<MEAN> 142
 5.387461e-01 4.338697e-01 3.045415e-01 2.956451e-01 2.843398e-01 3.467153e-01 3.594691e-01 3.293273e-01 4.564657e-01 4.585052e-01 4.273338e-01 5.261993e-01 4.595938e-01 4.545644e-01 3.726025e-01 3.449647e-01 3.992268e-01 5.028061e-01 3.350467e-01 3.896040e-01 3.499446e-01 3.710611e-01 3.460347e-01 3.955170e-01 4.731604e-01 4.406248e-01 3.858486e-01 4.213007e-01 4.729579e-01 4.975839e-01 4.563995e-01 4.187827e-01 3.376677e-01 4.720333e-01 4.002500e-01 4.785710e-01 3.389454e-01 5.094348e-01 4.807724e-01 3.731236e-01 4.597155e-01 4.876840e-01 4.542925e-01 3.028163e-01 2.495343e-01 4.091426e-01 3.494258e-01 4.384239e-01 3.214340e-01 3.769746e-01 5.587170e-01 4.769807e-01 5.017707e-01 4.102972e-01 3.956915e-01 4.509377e-01 4.427150e-01 2.858273e-01 3.701183e-01 3.072029e-01 4.723989e-01 4.054107e-01 4.808985e-01 4.645882e-01 5.732897e-01 3.880808e-01 5.208076e-01 3.786678e-01 4.318400e-01 5.568309e-01 4.160660e-01 4.841287e-01 4.088577e-01 4.016901e-01 3.418702e-01 4.397408e-01 4.431663e-01 3.353572e-01 4.499612e-01 3.770711e-01 5.664057e-01 3.890401e-01 4.217941e-01 3.480503e-01 3.784306e-01 3.782456e-01 4.552629e-01 5.378649e-01 4.741376e-01 3.706169e-01 4.810706e-01 3.565903e-01 5.048746e-01 3.952504e-01 3.498595e-01 4.980048e-01 4.610892e-01 4.748687e-01 5.020933e-01 4.455463e-01 3.796706e-01 4.075265e-01 3.926395e-01 5.699654e-01 2.651834e-01 2.897690e-01 4.955448e-01 4.921533e-01 4.213597e-01 2.946223e-01 4.722908e-01 3.970945e-01 2.527738e-01 3.835973e-01 4.275357e-01 5.352089e-01 4.574018e-01 3.145427e-01 4.870765e-01 3.919012e-01 4.104069e-01 4.681422e-01 4.248745e-01 5.470307e-01 3.367453e-01 4.063214e-01 5.066497e-01 5.638723e-01 5.418656e-01 3.689560e-01 3.643506e-01 4.303158e-01 5.516793e-01 4.683023e-01 4.413143e-01 4.140306e-01 4.070960e-01 4.851328e-01 3.878155e-01 3.568110e-01 3.922217e-01 3.228898e-01
<VARIANCE> 142
 2.000000e-01 2.000000e-01 2.000000e-01 2.000000e-01 2.000000e-01 2.000000e-01 2.000000e-01 2.000000e-01 2.000000e-01 2.000000e-01 2.000000e-01 2.000000e-01 2.000000e-01 2.000000e-01 2.000000e-01 2.000000e-01 2.000000e-01 2.000000e-01 2.000000e-01 2.000000e-01 2.000000e-01 2.000000e-01 2.000000e-01 2.000000e-01 2.000000e-01 2.000000e-01 2.000000e-01 2.000000e-01 2.000000e-01 2.000000e-01 2.000000e-01 2.000000e-01 2.000000e-01 2.000000e-01 2.000000e-01 2.000000e-01 2.000000e-01 2.000000e-01 2.000000e-01 2.000000e-01 2.000000e-01 2.000000e-01 2.000000e-01 2.000000e-01 2.000000e-01 2.000000e-01 2.000000e-01 2.000000e-01 2.000000e-01 2.000000e-01 2.000000e-01 2.000000e-01 2.000000e-01 2.000000e-01 2.000000e-01 2.000000e-01 2.000000e-01 2.000000e-01 2.000000e-01 2.000000e-01 2.000000e-01 2.000000e-01 2.000000e-01 2.000000e-01 2.000000e-01 2.000000e-01 2.000000e-01 2.000000e-01 2.000000e-01 2.000000e-01 2.000000e-01 2.000000e-01 2.000000e-01 2.000000e-01 2.000000e-01 2.000000e-01 2.000000e-01 2.000000e-01 2.000000e-01 2.000000e-01 2.000000e-01 2.000000e-01 2.000000e-01 2.000000e-01 2.000000e-01 2.000000e-01 2.000000e-01 2.000000e-01 2.000000e-01 2.000000e-01 2.000000e-01 2.000000e-01 2.000000e-01 2.000000e-01 2.000000e-01 2.000000e-01 2.000000e-01 2.000000e-01 2.000000e-01 2.000000e-01 2.000000e-01 2.000000e-01 2.000000e-01 2.000000e-01 2.000000e-01 2.000000e-01 2.000000e-01 2.000000e-01 2.000000e-01 2.000000e-01 2.000000e-01 2.000000e-01 2.000000e-01 2.000000e-01 2.000000e-01 2.000000e-01 2.000000e-01 2.000000e-01 2.000000e-01 2.000000e-01 2.000000e-01 2.000000e-01 2.000000e-01 2.000000e-01 2.000000e-01 2.000000e-01 2.000000e-01 2.000000e-01 2.000000e-01 2.000000e-01 2.000000e-01 2.000000e-01 2.000000e-01 2.000000e-01 2.000000e-01 2.000000e-01 2.000000e-01 2.000000e-01 2.000000e-01 2.000000e-01 2.000000e-01 2.000000e-01
<GCONST> 3.243863e+01
<STATE> 3
<MEAN> 142
 5.879050e-01 3.364633e-01 3.801743e-01 3.675210e-01 3.665261e-01 4.339707e-01 4.612564e-01 3.199070e-01 4.363507e-01 4.070115e-01 4.983436e-01 4.455316e-01 4.354749e-01 5.399775e-01 3.304557e-01 3.635816e-01 3.816217e-01 4.052942e-01 3.818786e-01 4.176165e-01 5.242696e-01 4.836571e-01 4.641869e-01 4.529238e-01 5.021977e-01 4.731024e-01 4.094905e-01 3.744968e-01 4.306182e-01 4.567893e-01 4.948216e-01 3.977127e-01 4.138494e-01 4.616023e-01 4.331529e-01 3.146751e-01 3.508756e-01 3.835905e-01 3.329015e-01 4.230062e-01 3.591156e-01 4.275716e-01 3.120982e-01 3.439602e-01 3.289617e-01 4.057117e-01 4.466473e-01 4.319410e-01 4.335034e-01 3.841033e-01 5.090811e-01 4.347722e-01 4.309088e-01 3.172076e-01 4.406936e-01 3.718368e-01 4.500647e-01 3.988778e-01 3.913617e-01 4.671881e-01 5.376011e-01 3.985175e-01 4.050129e-01 4.047168e-01 3.650252e-01 4.668226e-01 3.683236e-01 4.396560e-01 4.686946e-01 4.247614e-01 5.285243e-01 4.378264e-01 3.686319e-01 4.311976e-01 3.401311e-01 4.277565e-01 4.335876e-01 4.156647e-01 4.601031e-01 4.626018e-01 4.699154e-01 3.580062e-01 3.515894e-01 4.150464e-01 4.349085e-01 4.158836e-01 4.226977e-01 4.845196e-01 4.754511e-01 3.775499e-01 4.015173e-01 3.422776e-01 4.714910e-01 3.882931e-01 3.919974e-01 4.579123e-01 4.004276e-01 3.869869e-01 4.780335e-01 5.528939e-01 3.946427e-01 4.596814e-01 3.269779e-01 4.027719e-01 3.488162e-01 3.436489e-01 4.292802e-01 4.364572e-01 4.404879e-01 4.452800e-01 4.057435e-01 3.762783e-01 4.575518e-01 2.967960e-01 3.275102e-01 4.671372e-01 3.576992e-01 4.507352e-01 4.405947e-01 4.050824e-01 4.255277e-01 4.420572e-01 4.598486e-01 3.602545e-01 4.542254e-01 3.438703e-01 3.959809e-01 3.861334e-01 3.140174e-01 4.552397e-01 4.414435e-01 3.758149e-01 4.135663e-01 4.897821e-01 3.510042e-01 3.699047e-01 4.953686e-01 4.564393e-01 4.303774e-01 4.015502e-01 4.192915e-01 4.927838e-01
<VARIANCE> 142
 2.000000e-01 2.000000e-01 2.000000e-01 2.000000e-01 2.000000e-01 2.000000e-01 2.000000e-01 2.000000e-01 2.000000e-01 2.000000e-01 2.000000e-01 2.000000e-01 2.000000e-01 2.000000e-01 2.000000e-01 2.000000e-01 2.000000e-01 2.000000e-01 2.000000e-01 2.000000e-01 2.000000e-01 2.000000e-01 2.000000e-01 2.000000e-01 2.000000e-01 2.000000e-01 2.000000e-01 2.000000e-01 2.000000e-01 2.000000e-01 2.000000e-01 2.000000e-01 2.000000e-01 2.000000e-01 2.000000e-01 2.000000e-01 2.000000e-01 2.000000e-01 2.000000e-01 2.000000e-01 2.000000e-01 2.000000e-01 2.000000e-01 2.000000e-01 2.000000e-01 2.000000e-01 2.000000e-01 2.000000e-01 2.000000e-01 2.000000e-01 2.000000e-01 2.000000e-01 2.000000e-01 2.000000e-01 2.000000e-01 2.000000e-01 2.000000e-01 2.000000e-01 2.000000e-01 2.000000e-01 2.000000e-01 2.000000e-01 2.000000e-01 2.000000e-01 2.000000e-01 2.000000e-01 2.000000e-01 2.000000e-01 2.000000e-01 2.000000e-01 2.000000e-01 2.000000e-01 2.000000e-01 2.000000e-01 2.000000e-01 2.000000e-01 2.000000e-01 2.000000e-01 2.000000e-01 2.000000e-01 2.000000e-01 2.000000e-01 2.000000e-01 2.000000e-01 2.000000e-01 2.000000e-01 2.000000e-01 2.000000e-01 2.000000e-01 2.000000e-01 2.000000e-01 2.000000e-01 2.000000e-01 2.000000e-01 2.000000e-01 2.000000e-01 2.000000e-01 2.000000e-01 2.000000e-01 2.000000e-01 2.000000e-01 2.000000e-01 2.000000e-01 2.000000e-01 2.000000e-01 2.000000e-01 2.000000e-01 2.000000e-01 2.000000e-01 2.000000e-01 2.000000e-01 2.000000e-01 2.000000e-01 2.000000e-01 2.000000e-01 2.000000e-01 2.000000e-01 2.000000e-01 2.000000e-01 2.000000e-01 2.000000e-01 2.000000e-01 2.000000e-01 2.000000e-01 2.000000e-01 2.000000e-01 2.000000e-01 2.000000e-01 2.000000e-01 2.000000e-01 2.000000e-01 2.000000e-01 2.000000e-01 2.000000e-01 2.000000e-01 2.000000e-01 2.000000e-01 2.000000e-01 2.000000e-01 2.000000e-01 2.000000e-01 2.000000e-01
<GCONST> 3.243863e+01
<TRANSP> 4
 0.000000e+00 1.000000e+00 0.000000e+00 0.000000e+00
 0.000000e+00 8.748162e-01 1.251838e-01 0.000000e+00
 0.000000e+00 0.000000e+00 8.593877e-01 1.406123e-01
 0.000000e+00 0.000000e+00 0.000000e+00 0.000000e+00
<ENDHMM>
