~o
<STREAMINFO> 1 142
<VECSIZE> 142<NULLD><USER><DIAGC>
~h "yellow"
<BEGINHMM>
<NUMSTATES> 4
<STATE> 2
<MEAN> 142
 5.633959e-01 3.602873e-01 3.087952e-01 3.307098e-01 3.102546e-01 2.902020e-01 3.411226e-01 2.859088e-01 3.838006e-01 4.196524e-01 4.098617e-01 4.060753e-01 3.720154e-01 4.114022e-01 3.716261e-01 3.083743e-01 4.034213e-01 4.171664e-01 2.754326e-01 3.211979e-01 4.159747e-01 4.017318e-01 3.350835e-01 4.256194e-01 4.682776e-01 3.748070e-01 3.831253e-01 3.647813e-01 4.231022e-01 4.096182e-01 4.595008e-01 4.101330e-01 3.339996e-01 4.589919e-01 4.231008e-01 3.636863e-01 3.397714e-01 3.753065e-01 4.028856e-01 3.432132e-01 3.995568e-01 4.616637e-01 3.747033e-01 2.912240e-01 2.270311e-01 3.574150e-01 4.097648e-01 4.055985e-01 3.773464e-01 3.163264e-01 5.146389e-01 4.026427e-01 4.165819e-01 3.248158e-01 3.854377e-01 3.533878e-01 3.634719e-01 3.107529e-01 3.295791e-01 3.203864e-01 4.082844e-01 4.385638e-01 4.065592e-01 3.821973e-01 4.557017e-01 4.021809e-01 4.166589e-01 3.846342e-01 4.227495e-01 4.411534e-01 4.327853e-01 3.741446e-01 4.007299e-01 3.778946e-01 2.903748e-01 3.529976e-01 4.199273e-01 3.907944e-01 4.276282e-01 3.860728e-01 4.846595e-01 3.589061e-01 3.891452e-01 3.824537e-01 3.573124e-01 3.870207e-01 3.826896e-01 4.411861e-01 4.761743e-01 3.353762e-01 3.385059e-01 2.868486e-01 4.204706e-01 3.167843e-01 4.062784e-01 4.513347e-01 4.356281e-01 3.463623e-01 4.598420e-01 4.102024e-01 3.624774e-01 4.308093e-01 3.218079e-01 4.459966e-01 2.942543e-01 2.729909e-01 3.593983e-01 4.319957e-01 3.636252e-01 3.252034e-01 3.699186e-01 3.310786e-01 3.262910e-01 3.511322e-01 3.673304e-01 4.294329e-01 3.547009e-01 3.878737e-01 4.236769e-01 3.521147e-01 4.160668e-01 4.399465e-01 3.684718e-01 4.163689e-01 3.293530e-01 3.597716e-01 4.406045e-01 4.284108e-01 3.921189e-01 3.495398e-01 3.541577e-01 4.352793e-01 3.890866e-01 3.957012e-01 4.573270e-01 4.309135e-01 4.101041e-01 4.633926e-01 3.856650e-01 3.707341e-01 4.227067e-01 3.891165e-01
<VARIANCE> 142
 2.000000e-01 2.000000e-01 2.000000e-01 2.000000e-01 2.000000e-01 2.000000e-01 2.000000e-01 2.000000e-01 2.000000e-01 2.000000e-01 2.000000e-01 2.000000e-01 2.000000e-01 2.000000e-01 2.000000e-01 2.000000e-01 2.000000e-01 2.000000e-01 2.000000e-01 2.000000e-01 2.000000e-01 2.000000e-01 2.000000e-01 2.000000e-01 2.000000e-01 2.000000e-01 2.000000e-01 2.000000e-01 2.000000e-01 2.000000e-01 2.000000e-01 2.000000e-01 2.000000e-01 2.000000e-01 2.000000e-01 2.000000e-01 2.000000e-01 2.000000e-01 2.000000e-01 2.000000e-01 2.000000e-01 2.000000e-01 2.000000e-01 2.000000e-01 2.000000e-01 2.000000e-01 2.000000e-01 2.000000e-01 2.000000e-01 2.000000e-01 2.000000e-01 2.000000e-01 2.000000e-01 2.000000e-01 2.000000e-01 2.000000e-01 2.000000e-01 2.000000e-01 2.000000e-01 2.000000e-01 2.000000e-01 2.000000e-01 2.000000e-01 2.000000e-01 2.000000e-01 2.000000e-01 2.000000e-01 2.000000e-01 2.000000e-01 2.000000e-01 2.000000e-01 2.000000e-01 2.000000e-01 2.000000e-01 2.000000e-01 2.000000e-01 2.000000e-01 2.000000e-01 2.000000e-01 2.000000e-01 2.000000e-01 2.000000e-01 2.000000e-01 2.000000e-01 2.000000e-01 2.000000e-01 2.000000e-01 2.000000e-01 2.000000e-01 2.000000e-01 2.000000e-01 2.000000e-01 2.000000e-01 2.000000e-01 2.000000e-01 2.000000e-01 2.000000e-01 2.000000e-01 2.000000e-01 2.000000e-01 2.000000e-01 2.000000e-01 2.000000e-01 2.000000e-01 2.000000e-01 2.000000e-01 2.000000e-01 2.000000e-01 2.000000e-01 2.000000e-01 2.000000e-01 2.000000e-01 2.000000e-01 2.000000e-01 2.000000e-01 2.000000e-01 2.000000e-01 2.000000e-01 2.000000e-01 2.000000e-01 2.000000e-01 2.000000e-01 2.000000e-01 2.000000e-01 2.000000e-01 2.000000e-01 2.000000e-01 2.000000e-01 2.000000e-01 2.000000e-01 2.000000e-01 2.000000e-01 2.000000e-01 2.000000e-01 2.000000e-01 2.000000e-01 2.000000e-01 2.000000e-01 2.000000e-01 2.000000e-01 2.000000e-01 2.000000e-01
<GCONST> 3.243863e+01
<STATE> 3
<MEAN> 142
 7.396564e-01 3.659850e-01 4.489485e-01 3.695692e-01 3.301458e-01 4.535760e-01 4.794571e-01 3.761146e-01 3.650747e-01 3.871641e-01 5.058161e-01 4.089487e-01 4.219767e-01 5.379097e-01 2.974974e-01 3.774542e-01 3.748799e-01 3.834712e-01 4.431220e-01 4.315932e-01 5.483322e-01 5.401573e-01 4.846608e-01 4.732761e-01 5.001106e-01 3.953969e-01 4.864427e-01 3.936012e-01 4.122624e-01 3.635867e-01 4.937494e-01 4.146013e-01 4.583845e-01 4.875009e-01 4.412919e-01 3.506448e-01 3.612201e-01 3.429278e-01 3.694234e-01 3.604884e-01 3.579164e-01 4.393478e-01 3.436773e-01 4.460409e-01 2.753521e-01 4.000928e-01 4.907002e-01 4.333912e-01 4.874313e-01 4.180879e-01 5.263954e-01 4.369591e-01 4.280334e-01 2.758180e-01 4.803702e-01 3.521217e-01 5.263510e-01 4.577863e-01 4.240191e-01 3.786661e-01 5.247779e-01 4.439752e-01 3.783540e-01 4.010970e-01 3.425243e-01 4.925372e-01 3.916889e-01 5.084628e-01 4.501414e-01 3.798583e-01 5.212818e-01 4.620116e-01 4.396532e-01 4.763946e-01 4.547325e-01 3.949282e-01 4.671997e-01 4.645026e-01 4.648790e-01 5.141153e-01 4.218379e-01 3.723737e-01 3.650416e-01 5.034844e-01 3.427629e-01 4.592700e-01 3.761996e-01 4.369845e-01 4.825680e-01 3.724661e-01 3.584865e-01 3.741220e-01 4.432679e-01 3.829527e-01 4.316608e-01 4.516911e-01 4.473908e-01 3.514175e-01 4.309146e-01 4.770898e-01 3.876418e-01 5.305987e-01 3.383724e-01 3.591160e-01 4.124187e-01 3.387418e-01 4.187303e-01 3.942522e-01 4.829353e-01 4.859026e-01 3.985106e-01 3.749273e-01 3.656695e-01 3.349899e-01 3.598003e-01 4.234750e-01 4.150929e-01 4.531468e-01 4.296094e-01 4.781208e-01 4.262859e-01 5.178687e-01 4.728135e-01 3.940719e-01 5.485379e-01 4.172950e-01 4.007559e-01 3.494770e-01 3.308263e-01 4.887271e-01 4.527413e-01 4.167643e-01 4.179906e-01 4.205506e-01 3.292890e-01 4.192997e-01 5.003683e-01 4.062234e-01 3.728823e-01 3.913741e-01 4.451150e-01 5.040798e-01
<VARIANCE> 142
 2.000000e-01 2.000000e-01 2.000000e-01 2.000000e-01 2.000000e-01 2.000000e-01 2.000000e-01 2.000000e-01 2.000000e-01 2.000000e-01 2.000000e-01 2.000000e-01 2.000000e-01 2.000000e-01 2.000000e-01 2.000000e-01 2.000000e-01 2.000000e-01 2.000000e-01 2.000000e-01 2.000000e-01 2.000000e-01 2.000000e-01 2.000000e-01 2.000000e-01 2.000000e-01 2.000000e-01 2.000000e-01 2.000000e-01 2.000000e-01 2.000000e-01 2.000000e-01 2.000000e-01 2.000000e-01 2.000000e-01 2.000000e-01 2.000000e-01 2.000000e-01 2.000000e-01 2.000000e-01 2.000000e-01 2.000000e-01 2.000000e-01 2.000000e-01 2.000000e-01 2.000000e-01 2.000000e-01 2.000000e-01 2.000000e-01 2.000000e-01 2.000000e-01 2.000000e-01 2.000000e-01 2.000000e-01 2.000000e-01 2.000000e-01 2.000000e-01 2.000000e-01 2.000000e-01 2.000000e-01 2.000000e-01 2.000000e-01 2.000000e-01 2.000000e-01 2.000000e-01 2.000000e-01 2.000000e-01 2.000000e-01 2.000000e-01 2.000000e-01 2.000000e-01 2.000000e-01 2.000000e-01 2.000000e-01 2.000000e-01 2.000000e-01 2.000000e-01 2.000000e-01 2.000000e-01 2.000000e-01 2.000000e-01 2.000000e-01 2.000000e-01 2.000000e-01 2.000000e-01 2.000000e-01 2.000000e-01 2.000000e-01 2.000000e-01 2.000000e-01 2.000000e-01 2.000000e-01 2.000000e-01 2.000000e-01 2.000000e-01 2.000000e-01 2.000000e-01 2.000000e-01 2.000000e-01 2.000000e-01 2.000000e-01 2.000000e-01 2.000000e-01 2.000000e-01 2.000000e-01 2.000000e-01 2.000000e-01 2.000000e-01 2.000000e-01 2.000000e-01 2.000000e-01 2.000000e-01 2.000000e-01 2.000000e-01 2.000000e-01 2.000000e-01 2.000000e-01 2.000000e-01 2.000000e-01 2.000000e-01 2.000000e-01 2.000000e-01 2.000000e-01 2.000000e-01 2.000000e-01 2.000000e-01 2.000000e-01 2.000000e-01 2.000000e-01 2.000000e-01 2.000000e-01 2.000000e-01 2.000000e-01 2.000000e-01 2.000000e-01 2.000000e-01 2.000000e-01 2.000000e-01 2.000000e-01 2.000000e-01 2.000000e-01 2.000000e-01
<GCONST> 3.243863e+01
<TRANSP> 4
 0.000000e+00 1.000000e+00 0.000000e+00 0.000000e+00
 0.000000e+00 8.931817e-01 1.068183e-01 0.000000e+00
 0.000000e+00 0.000000e+00 8.184418e-01 1.815582e-01
 0.000000e+00 0.000000e+00 0.000000e+00 0.000000e+00
<ENDHMM>
