~o
<STREAMINFO> 1 142
<VECSIZE> 142<NULLD><USER><DIAGC>
~h "you"
<BEGINHMM>
<NUMSTATES> 4
<STATE> 2
<MEAN> 142
 5.050269e-01 4.239991e-01 4.149157e-01 5.017703e-01 4.933073e-01 2.405060e-01 4.325678e-01 3.278336e-01 4.011657e-01 3.755220e-01 4.067966e-01 4.084032e-01 3.742151e-01 4.250816e-01 4.025369e-01 4.948839e-01 4.865776e-01 4.114849e-01 3.053881e-01 2.951674e-01 4.706248e-01 4.567216e-01 3.485330e-01 5.205470e-01 4.660839e-01 4.393396e-01 4.133447e-01 4.560730e-01 4.026107e-01 4.566750e-01 4.516042e-01 4.947556e-01 5.395709e-01 4.977203e-01 3.911831e-01 3.989776e-01 3.993160e-01 2.675106e-01 3.551266e-01 4.787232e-01 3.429603e-01 4.962098e-01 4.021667e-01 2.701613e-01 3.870127e-01 5.087502e-01 5.397533e-01 3.884909e-01 4.103611e-01 3.113920e-01 5.711325e-01 3.455690e-01 4.511152e-01 3.271279e-01 5.696146e-01 4.340844e-01 2.888717e-01 3.192959e-01 3.002540e-01 4.405246e-01 4.564225e-01 5.690534e-01 4.286035e-01 4.128219e-01 4.145815e-01 6.501835e-01 3.495389e-01 4.680828e-01 5.070590e-01 3.417805e-01 4.900490e-01 3.707436e-01 4.424925e-01 3.950813e-01 3.027510e-01 3.995005e-01 5.016907e-01 5.584409e-01 3.915034e-01 5.238691e-01 4.631485e-01 3.825020e-01 3.408036e-01 4.436850e-01 4.620918e-01 5.396385e-01 4.201218e-01 4.047941e-01 4.568448e-01 3.472372e-01 3.328286e-01 4.096866e-01 4.481741e-01 3.147182e-01 5.287191e-01 4.168133e-01 4.618523e-01 2.705320e-01 4.732208e-01 4.635698e-01 3.726180e-01 5.487825e-01 3.750139e-01 3.992351e-01 3.252681e-01 3.437309e-01 3.625839e-01 3.776345e-01 3.002757e-01 4.174381e-01 3.728026e-01 3.324585e-01 6.941559e-01 3.854026e-01 4.270034e-01 4.675479e-01 3.422270e-01 4.887974e-01 4.616819e-01 4.084618e-01 4.589594e-01 5.493962e-01 4.680504e-01 4.250378e-01 3.847836e-01 4.245783e-01 4.373292e-01 3.088893e-01 3.782494e-01 3.525490e-01 5.040221e-01 4.603809e-01 3.844567e-01 4.062572e-01 4.120744e-01 4.810149e-01 5.275829e-01 4.794481e-01 4.474060e-01 4.429722e-01 5.611361e-01 4.402869e-01
<VARIANCE> 142
 2.000000e-01 2.000000e-01 2.000000e-01 2.000000e-01 2.000000e-01 2.000000e-01 2.000000e-01 2.000000e-01 2.000000e-01 2.000000e-01 2.000000e-01 2.000000e-01 2.000000e-01 2.000000e-01 2.000000e-01 2.000000e-01 2.000000e-01 2.000000e-01 2.000000e-01 2.000000e-01 2.000000e-01 2.000000e-01 2.000000e-01 2.000000e-01 2.000000e-01 2.000000e-01 2.000000e-01 2.000000e-01 2.000000e-01 2.000000e-01 2.000000e-01 2.000000e-01 2.000000e-01 2.000000e-01 2.000000e-01 2.000000e-01 2.000000e-01 2.000000e-01 2.000000e-01 2.000000e-01 2.000000e-01 2.000000e-01 2.000000e-01 2.000000e-01 2.000000e-01 2.000000e-01 2.000000e-01 2.000000e-01 2.000000e-01 2.000000e-01 2.000000e-01 2.000000e-01 2.000000e-01 2.000000e-01 2.000000e-01 2.000000e-01 2.000000e-01 2.000000e-01 2.000000e-01 2.000000e-01 2.000000e-01 2.000000e-01 2.000000e-01 2.000000e-01 2.000000e-01 2.000000e-01 2.000000e-01 2.000000e-01 2.000000e-01 2.000000e-01 2.000000e-01 2.000000e-01 2.000000e-01 2.000000e-01 2.000000e-01 2.000000e-01 2.000000e-01 2.000000e-01 2.000000e-01 2.000000e-01 2.000000e-01 2.000000e-01 2.000000e-01 2.000000e-01 2.000000e-01 2.000000e-01 2.000000e-01 2.000000e-01 2.000000e-01 2.000000e-01 2.000000e-01 2.000000e-01 2.000000e-01 2.000000e-01 2.000000e-01 2.000000e-01 2.000000e-01 2.000000e-01 2.000000e-01 2.000000e-01 2.000000e-01 2.000000e-01 2.000000e-01 2.000000e-01 2.000000e-01 2.000000e-01 2.000000e-01 2.000000e-01 2.000000e-01 2.000000e-01 2.000000e-01 2.000000e-01 2.000000e-01 2.000000e-01 2.000000e-01 2.000000e-01 2.000000e-01 2.000000e-01 2.000000e-01 2.000000e-01 2.000000e-01 2.000000e-01 2.000000e-01 2.000000e-01 2.000000e-01 2.000000e-01 2.000000e-01 2.000000e-01 2.000000e-01 2.000000e-01 2.000000e-01 2.000000e-01 2.000000e-01 2.000000e-01 2.000000e-01 2.000000e-01 2.000000e-01 2.000000e-01 2.000000e-01 2.000000e-01 2.000000e-01 2.000000e-01
<GCONST> 3.243863e+01
<STATE> 3
<MEAN> 142
 6.620352e-01 3.094825e-01 3.601824e-01 3.246535e-01 2.758242e-01 3.818608e-01 3.481745e-01 3.596470e-01 4.136567e-01 4.328381e-01 4.619550e-01 4.523105e-01 4.730976e-01 4.742921e-01 3.066498e-01 3.486938e-01 3.671783e-01 3.659214e-01 3.643408e-01 5.041301e-01 4.437028e-01 4.338563e-01 4.306246e-01 4.371112e-01 4.618446e-01 4.807792e-01 3.702232e-01 3.299956e-01 3.814869e-01 4.005621e-01 4.642663e-01 4.540558e-01 3.992840e-01 4.313286e-01 4.440557e-01 3.507920e-01 3.010991e-01 4.348507e-01 3.172916e-01 3.694835e-01 4.137699e-01 3.992963e-01 3.455688e-01 4.240609e-01 2.296457e-01 3.875991e-01 3.651560e-01 4.429440e-01 3.459971e-01 3.214196e-01 4.809070e-01 5.112186e-01 5.004982e-01 2.925265e-01 4.164359e-01 3.200596e-01 4.430140e-01 3.815857e-01 3.715445e-01 2.760359e-01 4.738875e-01 4.766053e-01 3.966837e-01 4.660648e-01 4.275326e-01 4.172997e-01 4.582062e-01 3.840918e-01 4.407616e-01 4.096372e-01 5.064350e-01 4.857551e-01 4.153514e-01 4.227239e-01 4.232137e-01 4.739798e-01 4.263867e-01 4.115406e-01 5.089185e-01 4.276145e-01 4.145062e-01 3.377656e-01 4.010038e-01 4.086224e-01 3.319753e-01 4.184261e-01 4.504016e-01 4.448898e-01 4.443288e-01 3.895802e-01 3.982470e-01 3.779134e-01 3.786220e-01 3.641628e-01 3.406280e-01 4.955263e-01 3.772008e-01 3.689092e-01 4.628841e-01 4.857886e-01 3.911779e-01 4.442054e-01 3.750500e-01 3.651987e-01 2.826630e-01 3.567871e-01 4.587782e-01 3.822357e-01 4.376816e-01 3.590975e-01 4.388064e-01 3.510516e-01 3.198475e-01 2.960974e-01 3.370437e-01 4.341662e-01 3.821934e-01 3.865974e-01 4.220398e-01 4.002335e-01 4.183518e-01 4.665241e-01 4.717217e-01 3.930147e-01 4.404062e-01 3.635817e-01 3.934677e-01 4.032499e-01 3.833798e-01 4.916909e-01 3.999789e-01 3.315788e-01 4.493780e-01 4.593410e-01 3.393854e-01 3.624515e-01 4.338555e-01 3.892799e-01 3.394855e-01 3.270319e-01 4.386394e-01 4.476397e-01
<VARIANCE> 142
 2.000000e-01 2.000000e-01 2.000000e-01 2.000000e-01 2.000000e-01 2.000000e-01 2.000000e-01 2.000000e-01 2.000000e-01 2.000000e-01 2.000000e-01 2.000000e-01 2.000000e-01 2.000000e-01 2.000000e-01 2.000000e-01 2.000000e-01 2.000000e-01 2.000000e-01 2.000000e-01 2.000000e-01 2.000000e-01 2.000000e-01 2.000000e-01 2.000000e-01 2.000000e-01 2.000000e-01 2.000000e-01 2.000000e-01 2.000000e-01 2.000000e-01 2.000000e-01 2.000000e-01 2.000000e-01 2.000000e-01 2.000000e-01 2.000000e-01 2.000000e-01 2.000000e-01 2.000000e-01 2.000000e-01 2.000000e-01 2.000000e-01 2.000000e-01 2.000000e-01 2.000000e-01 2.000000e-01 2.000000e-01 2.000000e-01 2.000000e-01 2.000000e-01 2.000000e-01 2.000000e-01 2.000000e-01 2.000000e-01 2.000000e-01 2.000000e-01 2.000000e-01 2.000000e-01 2.000000e-01 2.000000e-01 2.000000e-01 2.000000e-01 2.000000e-01 2.000000e-01 2.000000e-01 2.000000e-01 2.000000e-01 2.000000e-01 2.000000e-01 2.000000e-01 2.000000e-01 2.000000e-01 2.000000e-01 2.000000e-01 2.000000e-01 2.000000e-01 2.000000e-01 2.000000e-01 2.000000e-01 2.000000e-01 2.000000e-01 2.000000e-01 2.000000e-01 2.000000e-01 2.000000e-01 2.000000e-01 2.000000e-01 2.000000e-01 2.000000e-01 2.000000e-01 2.000000e-01 2.000000e-01 2.000000e-01 2.000000e-01 2.000000e-01 2.000000e-01 2.000000e-01 2.000000e-01 2.000000e-01 2.000000e-01 2.000000e-01 2.000000e-01 2.000000e-01 2.000000e-01 2.000000e-01 2.000000e-01 2.000000e-01 2.000000e-01 2.000000e-01 2.000000e-01 2.000000e-01 2.000000e-01 2.000000e-01 2.000000e-01 2.000000e-01 2.000000e-01 2.000000e-01 2.000000e-01 2.000000e-01 2.000000e-01 2.000000e-01 2.000000e-01 2.000000e-01 2.000000e-01 2.000000e-01 2.000000e-01 2.000000e-01 2.000000e-01 2.000000e-01 2.000000e-01 2.000000e-01 2.000000e-01 2.000000e-01 2.000000e-01 2.000000e-01 2.000000e-01 2.000000e-01 2.000000e-01 2.000000e-01 2.000000e-01 2.000000e-01
<GCONST> 3.243863e+01
<TRANSP> 4
 0.000000e+00 1.000000e+00 0.000000e+00 0.000000e+00
 0.000000e+00 7.969714e-01 2.030286e-01 0.000000e+00
 0.000000e+00 0.000000e+00 8.841271e-01 1.158730e-01
 0.000000e+00 0.000000e+00 0.000000e+00 0.000000e+00
<ENDHMM>
